svm_type c_svc
kernel_type rbf
gamma 0.0078125
nr_class 2
total_sv 104
rho 0.786198
label 1 -1
nr_sv 41 63
SV
49.31232975262107 1:0.02892 2:0.02892 4:0.02892 5:0.02892 8:0.02892 9:0.02892 14:0.02892 16:0.05783 17:0.05783 18:0.02892 20:0.02892 27:0.02892 30:0.02892 32:0.02892 33:0.02892 39:0.02892 47:0.02892 49:0.02892 50:0.02892 53:0.02892 57:0.02892 58:0.02892 61:0.02892 62:0.05783 63:0.02892 64:0.11566 65:0.08675 68:0.02892 70:0.02892 74:0.02892 79:0.02892 83:0.02892 102:0.02892 107:0.02892 118:0.02892 120:0.05783 126:0.02892 129:0.02892 137:0.02892 140:0.02892 145:0.02892 153:0.02892 179:0.02892 185:0.05783 192:0.02892 193:0.05783 196:0.02892 200:0.02892 201:0.02892 211:0.02892 225:0.02892 226:0.02892 231:0.05783 239:0.02892 241:0.02892 242:0.02892 243:0.02892 244:0.02892 247:0.02892 248:0.02892 249:0.02892 251:0.02892 253:0.02892 254:0.05783 255:0.08675 256:0.05783 257:0.05783 258:0.02892 260:0.05783 264:0.02892 269:0.02892 274:0.08675 275:0.02892 277:0.02892 281:0.02892 286:0.05783 290:0.02892 293:0.02892 294:0.02892 298:0.02892 314:0.02892 317:0.02892 321:0.05783 329:0.05783 330:0.08675 355:0.02892 385:0.02892 392:0.02892 395:0.02892 401:0.02892 405:0.02892 417:0.02892 425:0.05783 466:0.02892 470:0.02892 473:0.02892 478:0.05783 479:0.08675 480:0.02892 484:0.02892 490:0.02892 500:0.02892 501:0.05783 511:0.02892 516:0.02892 519:0.02892 521:0.02892 522:0.02892 528:0.02892 533:0.02892 539:0.02892 542:0.02892 547:0.08675 557:0.02892 558:0.05783 559:0.02892 560:0.05783 566:0.02892 578:0.02892 582:0.02892 583:0.02892 596:0.02892 597:0.02892 609:0.02892 614:0.02892 615:0.02892 619:0.02892 631:0.02892 633:0.02892 635:0.05783 649:0.02892 651:0.02892 654:0.02892 657:0.02892 660:0.02892 666:0.02892 708:0.02892 711:0.02892 713:0.02892 720:0.02892 726:0.02892 732:0.02892 735:0.02892 737:0.02892 739:0.02892 750:0.05783 761:0.02892 764:0.02892 767:0.02892 768:0.02892 769:0.02892 772:0.02892 780:0.02892 784:0.02892 798:0.02892 801:0.02892 803:0.02892 836:0.02892 842:0.02892 844:0.02892 862:0.02892 871:0.02892 882:0.02892 900:0.02892 902:0.02892 903:0.02892 920:0.02892 921:0.05783 936:0.02892 954:0.02892 960:0.02892 961:0.02892 965:0.02892 968:0.02892 970:0.02892 971:0.02892 976:0.02892 980:0.02892 986:0.05783 990:0.02892 996:0.02892 999:0.02892 1001:0.02892 1008:0.02892 1012:0.02892 1014:0.05783 1015:0.02892 1016:0.02892 1018:0.02892 1019:0.05783 1020:0.05783 1022:0.02892 1023:0.02892 1024:0.02892 1025:0.02892 1026:0.02892 1027:0.02892 1028:0.02892 1031:0.02892 1032:0.02892 1034:0.02892 1036:0.02892 1037:0.05783 1040:0.08675 1043:0.02892 1054:0.05783 1073:0.02892 1075:0.02892 1085:0.02892 1088:0.02892 1093:0.08675 1095:0.02892 1097:0.02892 1099:0.02892 1104:0.02892 1105:0.02892 1107:0.02892 1121:0.02892 1122:0.02892 1141:0.02892 1144:0.02892 1149:0.02892 1152:0.02892 1158:0.02892 1159:0.02892 1160:0.02892 1164:0.08675 1170:0.05783 1173:0.02892 1174:0.02892 1178:0.02892 1182:0.02892 1183:0.05783 1189:0.02892 1191:0.02892 1201:0.02892 1207:0.02892 1235:0.02892 1254:0.02892 1255:0.02892 1258:0.02892 1264:0.02892 1266:0.02892 1269:0.02892 1271:0.02892 1278:0.05783 1281:0.02892 1283:0.02892 1284:0.05783 1296:0.02892 1299:0.02892 1314:0.05783 1315:0.02892 1318:0.02892 1319:0.02892 1320:0.05783 1322:0.02892 1325:0.02892 1338:0.02892 1349:0.02892 1354:0.02892 1355:0.02892 1367:0.02892 1370:0.02892 1379:0.02892 1381:0.02892 1384:0.02892 1390:0.02892 1392:0.02892 1417:0.02892 1418:0.05783 1425:0.02892 1430:0.02892 1433:0.02892 1438:0.02892 1458:0.02892 1464:0.02892 1472:0.02892 1476:0.02892 1494:0.02892 1496:0.02892 1500:0.02892 1515:0.02892 1519:0.02892 1538:0.02892 1540:0.02892 1541:0.02892 1551:0.02892 1552:0.02892 1557:0.02892 1567:0.02892 1569:0.05783 1575:0.02892 1576:0.02892 1577:0.02892 1581:0.02892 1587:0.02892 1601:0.02892 1604:0.02892 1609:0.05783 1615:0.02892 1616:0.05783 1619:0.02892 1621:0.02892 1626:0.02892 1631:0.02892 1633:0.02892 1634:0.02892 1636:0.02892 1640:0.02892 1641:0.02892 1649:0.02892 1655:0.02892 1659:0.02892 1664:0.02892 1666:0.02892 1669:0.02892 1690:0.02892 1698:0.05783 1699:0.02892 1701:0.02892 1707:0.02892 1718:0.02892 1733:0.02892 1736:0.02892 1748:0.02892 1759:0.02892 1768:0.02892 1775:0.02892 1784:0.02892 1791:0.02892 1805:0.02892 1808:0.02892 1824:0.02892 1847:0.02892 1855:0.02892 1864:0.02892 1878:0.02892 1879:0.02892 1886:0.05783 1891:0.05783 1899:0.02892 1900:0.02892 1902:0.02892 1908:0.02892 1912:0.08675 1914:0.05783 1915:0.02892 1917:0.02892 1918:0.02892 1923:0.02892 1935:0.02892 1936:0.02892 1946:0.05783 1954:0.02892 1959:0.02892 1962:0.05783 1966:0.08675 1967:0.02892 1968:0.02892 1969:0.02892 1979:0.02892 1980:0.02892 1983:0.02892 1989:0.02892 1998:0.02892 2002:0.02892 2003:0.02892 2013:0.02892 2014:0.02892 2042:0.02892 2043:0.02892 2047:0.02892 2052:0.02892 2053:0.05783 2063:0.05783 2064:0.05783 2065:0.02892 2069:0.02892 2074:0.02892 2083:0.02892 2085:0.02892 2093:0.02892 2096:0.02892 2105:0.02892 2106:0.02892 2112:0.05783 2113:0.02892 2120:0.05783 2129:0.02892 2131:0.08675 2137:0.02892 2147:0.02892 2155:0.02892 2168:0.05783 2169:0.02892 2178:0.02892 2179:0.02892 2180:0.02892 2185:0.02892 2188:0.05783 2203:0.02892 2207:0.02892 2211:0.05783 2212:0.02892 2226:0.02892 2228:0.02892 2230:0.02892 2232:0.02892 2236:0.05783 2239:0.05783 2240:0.02892 2243:0.02892 2249:0.02892 2264:0.02892 2269:0.02892 2274:0.02892 2304:0.02892 2305:0.02892 2307:0.02892 2308:0.02892 2309:0.02892 2317:0.02892 2324:0.02892 2325:0.02892 2329:0.02892 2339:0.05783 2363:0.02892 2364:0.02892 2366:0.02892 2368:0.02892 2380:0.02892 2383:0.02892 2386:0.02892 2387:0.05783 2393:0.02892 2406:0.02892 2417:0.02892 2427:0.02892 2428:0.02892 2433:0.02892 2434:0.02892 2436:0.05783 2438:0.02892 2445:0.02892 2451:0.05783 2455:0.02892 2456:0.02892 2457:0.05783 2461:0.02892 2463:0.02892 2466:0.02892 2471:0.02892 2473:0.02892 2475:0.02892 2482:0.02892 2494:0.02892 2500:0.02892 2523:0.05783 2529:0.02892 2532:0.02892 2539:0.02892 2540:0.08675 2541:0.02892 2544:0.02892 2552:0.02892 2559:0.02892 2561:0.02892 2564:0.05783 2566:0.02892 2578:0.05783 2583:0.02892 2590:0.02892 2593:0.02892 2601:0.05783 2608:0.02892 2616:0.02892 2625:0.05783 2629:0.02892 2639:0.02892 2661:0.02892 2664:0.02892 2666:0.02892 2672:0.02892 2683:0.02892 2684:0.02892 2694:0.02892 2696:0.02892 2699:0.02892 2700:0.02892 2705:0.02892 2706:0.02892 2715:0.02892 2719:0.02892 2723:0.02892 2729:0.02892 2769:0.02892 2772:0.02892 2774:0.02892 2778:0.02892 2783:0.02892 2792:0.02892 2800:0.02892 2806:0.02892 2821:0.02892 2825:0.02892 2831:0.02892 2832:0.02892 2833:0.02892 2842:0.02892 2843:0.02892 2846:0.02892 2852:0.02892 2880:0.02892 2881:0.02892 2882:0.02892 2894:0.02892 2896:0.02892 2899:0.02892 2903:0.05783 2906:0.02892 2919:0.02892 2927:0.02892 2939:0.05783 2940:0.02892 2945:0.02892 2947:0.02892 2956:0.02892 2966:0.02892 2975:0.05783 2986:0.02892 2993:0.02892 2998:0.05783 3001:0.02892 3004:0.08675 3008:0.02892 3013:0.02892 3031:0.02892 3034:0.02892 3038:0.02892 3042:0.02892 3048:0.02892 3053:0.02892 3057:0.02892 3061:0.02892 3063:0.02892 3065:0.02892 3068:0.02892 3071:0.02892 3072:0.02892 3073:0.02892 3077:0.02892 3088:0.02892 3089:0.02892 3107:0.02892 3119:0.02892 3121:0.02892 3132:0.02892 3133:0.05783 3135:0.02892 3136:0.02892 3137:0.02892 3138:0.02892 3141:0.02892 3146:0.02892 3173:0.02892 3177:0.02892 3191:0.02892 3192:0.02892 3195:0.02892 3198:0.02892 3203:0.02892 3209:0.02892 3214:0.02892 3226:0.02892 3237:0.02892 3281:0.02892 3290:0.02892 3315:0.02892 3322:0.02892 3324:0.02892 3327:0.05783 3330:0.02892 3336:0.02892 3344:0.02892 3346:0.02892 3360:0.05783 3365:0.02892 3368:0.02892 3374:0.02892 3381:0.02892 3390:0.02892 3392:0.02892 3393:0.05783 3396:0.02892 3401:0.02892 3414:0.02892 3418:0.02892 3420:0.05783 3431:0.02892 3437:0.02892 3446:0.05783 3447:0.02892 3465:0.02892 3468:0.02892 3476:0.05783 3482:0.05783 3483:0.02892 3488:0.02892 3498:0.02892 3502:0.02892 3509:0.02892 3514:0.02892 3516:0.02892 3528:0.02892 3534:0.02892 3536:0.02892 3544:0.02892 3545:0.02892 3547:0.02892 3549:0.02892 3550:0.02892 3552:0.02892 3559:0.05783 3561:0.02892 3564:0.05783 3567:0.02892 3570:0.02892 3576:0.02892 3584:0.02892 3586:0.02892 3596:0.05783 3599:0.02892 3601:0.02892 3605:0.05783 3609:0.02892 3631:0.02892 3633:0.02892 3641:0.02892 3648:0.02892 3669:0.02892 3671:0.02892 3677:0.02892 3679:0.02892 3681:0.05783 3686:0.02892 3691:0.02892 3693:0.02892 3705:0.02892 3708:0.02892 3710:0.02892 3713:0.08675 3717:0.02892 3740:0.02892 3743:0.02892 3749:0.02892 3751:0.02892 3752:0.02892 3765:0.05783 3767:0.02892 3768:0.02892 3770:0.02892 3772:0.02892 3774:0.02892 3778:0.02892 3779:0.02892 3780:0.02892 3783:0.02892 3793:0.02892 3797:0.02892 3799:0.02892 3809:0.02892 3814:0.02892 3819:0.02892 3821:0.02892 3823:0.08675 3826:0.02892 3831:0.02892 3834:0.02892 3837:0.02892 3838:0.05783 3840:0.02892 3842:0.02892 3856:0.02892 3857:0.02892 3858:0.02892 3859:0.02892 3871:0.02892 3879:0.02892 3882:0.02892 3893:0.02892 3901:0.02892 3903:0.02892 3904:0.02892 3909:0.02892 3912:0.02892 3914:0.02892 3920:0.02892 3921:0.08675 3932:0.02892 3941:0.05783 3943:0.02892 3944:0.02892 3951:0.02892 3956:0.02892 3958:0.02892 3959:0.05783 3968:0.02892 3973:0.02892 3974:0.02892 3981:0.02892 3990:0.02892 3992:0.02892 3995:0.02892 3996:0.02892 4000:0.02892 4001:0.08675 4014:0.02892 4015:0.02892 4017:0.02892 4018:0.02892 4021:0.02892 4029:0.02892 4030:0.02892 4032:0.05783 4036:0.02892 4048:0.05783 4050:0.02892 4053:0.08675 4058:0.02892 4060:0.02892 4064:0.02892 4066:0.02892 4070:0.05783 4071:0.02892 4073:0.05783 4076:0.05783 4077:0.02892 4078:0.02892 4080:0.08675 4084:0.02892 4086:0.02892 4090:0.02892 4091:0.02892 4092:0.05783 4093:0.02892 4095:0.02892 4096:0.02892 
49.14115374268599 1:0.12866 2:0.05848 3:0.03509 4:0.10526 5:0.0117 6:0.0117 7:0.02339 8:0.03509 10:0.0117 11:0.0117 12:0.05848 13:0.05848 14:0.07018 15:0.07018 16:0.02339 17:0.02339 18:0.02339 19:0.02339 20:0.0117 21:0.0117 22:0.0117 23:0.0117 25:0.0117 26:0.02339 27:0.0117 29:0.0117 30:0.02339 31:0.02339 32:0.0117 33:0.03509 34:0.02339 37:0.02339 38:0.0117 40:0.0117 41:0.0117 42:0.02339 43:0.0117 44:0.0117 46:0.05848 47:0.02339 48:0.0117 49:0.05848 50:0.0117 51:0.03509 52:0.05848 53:0.07018 55:0.0117 56:0.02339 57:0.04678 58:0.0117 59:0.03509 60:0.04678 61:0.02339 62:0.02339 65:0.02339 66:0.02339 67:0.0117 68:0.02339 69:0.07018 71:0.02339 74:0.03509 76:0.0117 78:0.0117 80:0.02339 81:0.02339 86:0.0117 91:0.0117 94:0.0117 95:0.0117 97:0.0117 98:0.02339 99:0.0117 100:0.0117 101:0.0117 102:0.02339 105:0.0117 107:0.0117 114:0.0117 116:0.0117 118:0.02339 120:0.0117 121:0.02339 124:0.02339 125:0.03509 126:0.02339 127:0.0117 128:0.0117 129:0.0117 130:0.02339 131:0.04678 132:0.0117 133:0.0117 134:0.02339 135:0.0117 136:0.0117 145:0.0117 147:0.0117 148:0.0117 149:0.0117 153:0.0117 155:0.0117 161:0.02339 162:0.0117 164:0.0117 165:0.0117 166:0.0117 172:0.02339 174:0.0117 177:0.02339 178:0.02339 179:0.0117 181:0.09357 183:0.02339 185:0.02339 187:0.0117 188:0.0117 189:0.02339 190:0.03509 191:0.0117 192:0.0117 193:0.08187 196:0.03509 198:0.0117 201:0.0117 203:0.0117 204:0.02339 205:0.0117 206:0.0117 207:0.02339 208:0.07018 209:0.03509 210:0.02339 211:0.0117 212:0.0117 216:0.0117 217:0.02339 221:0.0117 222:0.0117 223:0.02339 225:0.03509 226:0.03509 227:0.0117 228:0.0117 229:0.0117 231:0.0117 232:0.0117 233:0.02339 234:0.02339 236:0.0117 237:0.0117 238:0.03509 240:0.02339 241:0.0117 242:0.02339 243:0.0117 244:0.02339 245:0.02339 246:0.0117 248:0.0117 250:0.0117 251:0.0117 252:0.02339 253:0.0117 255:0.0117 256:0.02339 257:0.04678 258:0.0117 259:0.0117 260:0.0117 261:0.05848 263:0.0117 264:0.0117 265:0.0117 268:0.0117 269:0.02339 271:0.02339 272:0.02339 273:0.04678 275:0.0117 276:0.03509 281:0.02339 288:0.0117 292:0.02339 293:0.0117 295:0.02339 298:0.03509 302:0.0117 304:0.02339 307:0.0117 308:0.0117 309:0.0117 313:0.03509 314:0.0117 315:0.0117 316:0.02339 317:0.0117 319:0.0117 320:0.04678 321:0.02339 322:0.0117 323:0.03509 324:0.0117 333:0.02339 336:0.0117 339:0.02339 344:0.0117 347:0.0117 352:0.02339 360:0.0117 363:0.0117 375:0.0117 376:0.0117 377:0.0117 378:0.0117 379:0.0117 384:0.0117 385:0.02339 388:0.0117 389:0.0117 392:0.0117 393:0.02339 399:0.02339 401:0.0117 405:0.0117 406:0.0117 407:0.0117 410:0.0117 414:0.0117 417:0.0117 421:0.0117 424:0.0117 426:0.0117 449:0.0117 451:0.02339 452:0.02339 456:0.0117 457:0.0117 461:0.02339 464:0.02339 469:0.0117 471:0.02339 472:0.0117 475:0.0117 478:0.03509 481:0.04678 482:0.0117 490:0.02339 491:0.02339 493:0.0117 494:0.0117 496:0.0117 497:0.02339 498:0.0117 499:0.0117 500:0.0117 501:0.0117 502:0.03509 503:0.03509 504:0.02339 506:0.0117 507:0.02339 508:0.0117 509:0.0117 511:0.02339 512:0.05848 516:0.02339 517:0.0117 518:0.0117 521:0.02339 522:0.0117 524:0.02339 525:0.02339 528:0.0117 529:0.0117 530:0.02339 532:0.02339 534:0.0117 536:0.0117 538:0.0117 541:0.0117 547:0.0117 548:0.02339 549:0.02339 551:0.0117 555:0.0117 556:0.0117 558:0.02339 560:0.0117 561:0.02339 564:0.0117 566:0.02339 570:0.0117 574:0.0117 575:0.0117 576:0.02339 577:0.0117 578:0.0117 579:0.0117 580:0.02339 581:0.0117 582:0.0117 585:0.02339 587:0.03509 592:0.0117 593:0.0117 594:0.0117 595:0.0117 597:0.0117 600:0.0117 604:0.0117 607:0.0117 609:0.0117 610:0.0117 612:0.0117 613:0.0117 617:0.0117 618:0.0117 620:0.0117 621:0.0117 640:0.0117 641:0.0117 642:0.02339 643:0.03509 644:0.02339 646:0.02339 651:0.0117 652:0.0117 654:0.0117 656:0.0117 657:0.02339 661:0.02339 663:0.03509 666:0.02339 669:0.0117 677:0.0117 680:0.0117 684:0.0117 686:0.0117 687:0.0117 693:0.0117 694:0.02339 696:0.0117 701:0.02339 705:0.0117 706:0.03509 707:0.0117 709:0.0117 710:0.03509 711:0.0117 714:0.02339 715:0.0117 716:0.0117 721:0.0117 722:0.02339 723:0.02339 724:0.07018 729:0.0117 730:0.03509 731:0.0117 732:0.0117 736:0.0117 738:0.0117 740:0.0117 742:0.0117 743:0.0117 745:0.02339 746:0.0117 747:0.0117 749:0.0117 754:0.0117 755:0.0117 756:0.0117 757:0.0117 758:0.02339 759:0.02339 763:0.0117 764:0.0117 765:0.0117 767:0.02339 768:0.03509 769:0.10526 770:0.03509 771:0.02339 772:0.04678 773:0.0117 776:0.0117 777:0.0117 780:0.0117 781:0.0117 784:0.02339 789:0.0117 802:0.02339 804:0.0117 805:0.02339 809:0.0117 810:0.0117 813:0.02339 815:0.0117 816:0.0117 817:0.02339 819:0.0117 820:0.02339 821:0.02339 822:0.0117 824:0.0117 826:0.02339 827:0.02339 828:0.0117 829:0.02339 830:0.02339 831:0.0117 832:0.05848 833:0.03509 837:0.0117 840:0.0117 842:0.0117 845:0.02339 846:0.0117 847:0.02339 848:0.0117 852:0.03509 853:0.02339 859:0.0117 862:0.0117 864:0.0117 865:0.02339 869:0.0117 872:0.0117 879:0.0117 880:0.0117 881:0.0117 882:0.0117 884:0.0117 886:0.0117 887:0.0117 888:0.02339 890:0.0117 892:0.02339 897:0.03509 899:0.0117 901:0.02339 904:0.07018 906:0.0117 909:0.02339 911:0.03509 912:0.0117 913:0.0117 914:0.02339 917:0.03509 921:0.02339 922:0.0117 923:0.0117 928:0.0117 929:0.0117 932:0.03509 933:0.02339 934:0.05848 935:0.0117 937:0.0117 938:0.0117 939:0.0117 941:0.0117 942:0.0117 943:0.0117 947:0.0117 949:0.02339 950:0.0117 951:0.02339 952:0.02339 954:0.0117 955:0.0117 956:0.03509 957:0.0117 958:0.0117 960:0.0117 962:0.0117 963:0.0117 965:0.02339 966:0.0117 969:0.0117 970:0.0117 972:0.02339 976:0.03509 977:0.0117 978:0.0117 982:0.0117 984:0.02339 985:0.0117 987:0.02339 988:0.0117 989:0.0117 990:0.0117 992:0.0117 993:0.0117 997:0.0117 998:0.03509 1000:0.02339 1002:0.0117 1003:0.0117 1004:0.0117 1005:0.0117 1006:0.02339 1007:0.0117 1008:0.02339 1009:0.0117 1012:0.04678 1013:0.04678 1014:0.0117 1016:0.02339 1017:0.03509 1018:0.04678 1020:0.0117 1021:0.05848 1022:0.02339 1023:0.02339 1024:0.10526 1025:0.07018 1027:0.02339 1028:0.02339 1029:0.02339 1031:0.0117 1032:0.02339 1033:0.0117 1035:0.0117 1036:0.02339 1037:0.03509 1039:0.04678 1040:0.0117 1041:0.03509 1042:0.05848 1043:0.0117 1049:0.02339 1050:0.0117 1051:0.0117 1055:0.0117 1056:0.0117 1057:0.03509 1063:0.0117 1065:0.02339 1067:0.0117 1069:0.02339 1070:0.0117 1072:0.0117 1073:0.03509 1076:0.0117 1080:0.0117 1081:0.03509 1082:0.0117 1083:0.02339 1084:0.0117 1085:0.02339 1087:0.02339 1089:0.02339 1090:0.03509 1092:0.0117 1097:0.0117 1099:0.02339 1103:0.05848 1105:0.04678 1108:0.0117 1112:0.0117 1121:0.02339 1123:0.0117 1124:0.0117 1130:0.02339 1137:0.0117 1140:0.0117 1142:0.0117 1143:0.0117 1147:0.0117 1149:0.0117 1150:0.0117 1152:0.02339 1153:0.0117 1155:0.0117 1157:0.0117 1161:0.0117 1163:0.0117 1165:0.0117 1168:0.02339 1169:0.02339 1170:0.0117 1173:0.0117 1177:0.02339 1178:0.0117 1179:0.0117 1185:0.03509 1186:0.0117 1187:0.0117 1190:0.04678 1191:0.0117 1192:0.0117 1195:0.0117 1198:0.02339 1200:0.0117 1201:0.0117 1202:0.03509 1203:0.0117 1205:0.0117 1207:0.0117 1210:0.0117 1214:0.0117 1215:0.0117 1216:0.02339 1217:0.09357 1219:0.0117 1225:0.02339 1226:0.0117 1227:0.0117 1229:0.0117 1231:0.02339 1232:0.02339 1236:0.03509 1237:0.02339 1238:0.02339 1242:0.02339 1244:0.02339 1246:0.0117 1249:0.0117 1252:0.02339 1253:0.0117 1258:0.0117 1262:0.02339 1263:0.05848 1265:0.0117 1267:0.0117 1271:0.0117 1274:0.04678 1275:0.0117 1276:0.02339 1278:0.02339 1279:0.04678 1280:0.07018 1281:0.05848 1282:0.0117 1283:0.02339 1287:0.0117 1288:0.0117 1291:0.03509 1292:0.02339 1293:0.0117 1295:0.0117 1296:0.0117 1299:0.0117 1300:0.0117 1301:0.0117 1302:0.0117 1305:0.02339 1307:0.0117 1309:0.02339 1310:0.0117 1312:0.0117 1317:0.0117 1322:0.0117 1323:0.0117 1324:0.0117 1325:0.02339 1326:0.0117 1327:0.0117 1329:0.04678 1331:0.02339 1332:0.02339 1334:0.03509 1335:0.0117 1340:0.0117 1343:0.02339 1344:0.03509 1345:0.02339 1347:0.0117 1348:0.0117 1350:0.0117 1351:0.0117 1352:0.0117 1354:0.0117 1356:0.02339 1357:0.02339 1358:0.0117 1364:0.0117 1367:0.0117 1371:0.0117 1375:0.0117 1387:0.02339 1388:0.0117 1392:0.0117 1398:0.0117 1400:0.0117 1403:0.0117 1407:0.0117 1408:0.0117 1409:0.0117 1412:0.02339 1416:0.0117 1417:0.0117 1418:0.0117 1419:0.0117 1420:0.0117 1428:0.0117 1430:0.0117 1438:0.0117 1439:0.0117 1440:0.0117 1443:0.02339 1444:0.0117 1445:0.0117 1449:0.0117 1451:0.0117 1452:0.0117 1456:0.0117 1466:0.0117 1467:0.0117 1471:0.0117 1472:0.0117 1474:0.0117 1480:0.0117 1487:0.0117 1488:0.0117 1495:0.02339 1496:0.0117 1497:0.0117 1499:0.0117 1502:0.0117 1503:0.0117 1507:0.0117 1509:0.02339 1510:0.02339 1511:0.0117 1512:0.03509 1514:0.03509 1518:0.0117 1519:0.02339 1525:0.0117 1531:0.03509 1533:0.0117 1534:0.02339 1535:0.0117 1536:0.0117 1537:0.02339 1538:0.0117 1539:0.0117 1544:0.02339 1548:0.03509 1549:0.02339 1550:0.0117 1551:0.0117 1553:0.02339 1556:0.02339 1565:0.0117 1566:0.02339 1567:0.0117 1568:0.02339 1569:0.0117 1571:0.04678 1572:0.0117 1573:0.0117 1574:0.0117 1575:0.0117 1577:0.0117 1580:0.0117 1583:0.0117 1593:0.0117 1594:0.02339 1595:0.0117 1598:0.0117 1600:0.0117 1601:0.0117 1602:0.0117 1608:0.0117 1609:0.0117 1610:0.0117 1611:0.0117 1614:0.03509 1616:0.0117 1620:0.0117 1621:0.02339 1625:0.02339 1626:0.0117 1629:0.0117 1631:0.0117 1633:0.0117 1634:0.02339 1635:0.02339 1639:0.02339 1646:0.0117 1655:0.0117 1656:0.0117 1657:0.0117 1658:0.0117 1660:0.02339 1662:0.0117 1663:0.0117 1665:0.04678 1673:0.0117 1675:0.02339 1676:0.02339 1678:0.0117 1681:0.0117 1682:0.0117 1685:0.0117 1688:0.03509 1689:0.02339 1692:0.0117 1693:0.0117 1699:0.0117 1702:0.0117 1707:0.0117 1710:0.0117 1713:0.0117 1728:0.0117 1729:0.0117 1736:0.0117 1760:0.0117 1765:0.0117 1769:0.0117 1770:0.0117 1771:0.0117 1776:0.02339 1778:0.0117 1782:0.0117 1785:0.0117 1786:0.0117 1787:0.0117 1788:0.0117 1790:0.0117 1791:0.0117 1792:0.02339 1793:0.04678 1800:0.0117 1801:0.0117 1804:0.0117 1805:0.0117 1806:0.0117 1807:0.0117 1808:0.0117 1809:0.0117 1812:0.0117 1821:0.02339 1823:0.0117 1824:0.0117 1825:0.0117 1838:0.0117 1841:0.02339 1844:0.0117 1849:0.0117 1851:0.02339 1852:0.0117 1854:0.0117 1856:0.03509 1867:0.0117 1872:0.0117 1874:0.02339 1879:0.0117 1881:0.0117 1882:0.02339 1883:0.02339 1885:0.0117 1887:0.0117 1889:0.0117 1890:0.02339 1893:0.0117 1895:0.02339 1897:0.0117 1898:0.03509 1903:0.0117 1904:0.0117 1905:0.0117 1906:0.0117 1909:0.0117 1910:0.0117 1911:0.04678 1912:0.0117 1913:0.0117 1914:0.0117 1921:0.03509 1922:0.0117 1925:0.0117 1926:0.0117 1928:0.02339 1929:0.0117 1936:0.0117 1937:0.03509 1938:0.0117 1941:0.0117 1942:0.0117 1945:0.0117 1946:0.0117 1949:0.0117 1950:0.03509 1952:0.0117 1957:0.0117 1958:0.03509 1960:0.0117 1961:0.0117 1964:0.02339 1969:0.02339 1973:0.02339 1977:0.0117 1979:0.0117 1980:0.0117 1982:0.0117 1983:0.0117 1984:0.02339 1985:0.02339 1988:0.0117 1992:0.0117 1996:0.02339 1998:0.0117 1999:0.0117 2001:0.0117 2004:0.0117 2005:0.0117 2008:0.03509 2009:0.0117 2010:0.02339 2015:0.0117 2016:0.04678 2017:0.0117 2018:0.0117 2021:0.0117 2024:0.0117 2026:0.0117 2027:0.0117 2028:0.03509 2029:0.0117 2032:0.0117 2033:0.0117 2034:0.0117 2036:0.02339 2037:0.04678 2038:0.02339 2039:0.0117 2041:0.0117 2043:0.02339 2044:0.0117 2045:0.0117 2046:0.0117 2047:0.02339 2048:0.03509 2049:0.03509 2051:0.0117 2052:0.02339 2053:0.02339 2054:0.02339 2055:0.0117 2057:0.03509 2058:0.02339 2059:0.02339 2061:0.02339 2062:0.03509 2063:0.02339 2066:0.0117 2067:0.0117 2068:0.0117 2069:0.0117 2073:0.0117 2078:0.0117 2079:0.0117 2080:0.03509 2081:0.0117 2082:0.02339 2087:0.0117 2089:0.0117 2093:0.02339 2094:0.04678 2095:0.0117 2096:0.02339 2097:0.02339 2099:0.0117 2100:0.02339 2103:0.0117 2104:0.0117 2106:0.0117 2110:0.02339 2112:0.02339 2114:0.02339 2116:0.02339 2117:0.02339 2123:0.0117 2124:0.0117 2125:0.02339 2127:0.02339 2128:0.03509 2132:0.0117 2135:0.0117 2136:0.0117 2142:0.0117 2143:0.02339 2144:0.0117 2151:0.0117 2161:0.02339 2163:0.0117 2166:0.0117 2168:0.02339 2171:0.0117 2172:0.0117 2174:0.04678 2175:0.0117 2176:0.05848 2180:0.0117 2181:0.0117 2185:0.02339 2186:0.0117 2187:0.0117 2188:0.03509 2190:0.02339 2191:0.0117 2192:0.0117 2193:0.0117 2195:0.03509 2197:0.0117 2203:0.0117 2204:0.0117 2209:0.02339 2212:0.0117 2218:0.02339 2222:0.0117 2224:0.0117 2229:0.0117 2231:0.02339 2234:0.0117 2235:0.0117 2238:0.0117 2240:0.02339 2241:0.0117 2243:0.0117 2253:0.03509 2256:0.0117 2263:0.0117 2264:0.0117 2270:0.02339 2274:0.0117 2276:0.0117 2278:0.02339 2279:0.03509 2281:0.02339 2282:0.0117 2283:0.0117 2288:0.0117 2290:0.0117 2291:0.0117 2294:0.0117 2295:0.0117 2297:0.0117 2302:0.03509 2304:0.07018 2305:0.0117 2306:0.02339 2308:0.04678 2309:0.0117 2311:0.0117 2314:0.0117 2316:0.0117 2317:0.0117 2319:0.04678 2320:0.0117 2321:0.0117 2324:0.0117 2325:0.02339 2331:0.0117 2334:0.0117 2335:0.0117 2337:0.02339 2338:0.0117 2339:0.0117 2340:0.0117 2343:0.0117 2345:0.05848 2346:0.02339 2348:0.0117 2356:0.02339 2357:0.0117 2358:0.0117 2359:0.02339 2360:0.0117 2364:0.0117 2366:0.0117 2367:0.0117 2368:0.0117 2369:0.03509 2370:0.0117 2371:0.0117 2372:0.0117 2375:0.0117 2376:0.0117 2379:0.03509 2380:0.02339 2381:0.04678 2382:0.0117 2383:0.0117 2384:0.02339 2385:0.02339 2386:0.02339 2388:0.0117 2396:0.0117 2398:0.02339 2401:0.02339 2402:0.0117 2403:0.03509 2408:0.0117 2409:0.0117 2415:0.02339 2418:0.0117 2420:0.0117 2426:0.02339 2427:0.0117 2428:0.03509 2432:0.02339 2433:0.0117 2434:0.0117 2435:0.02339 2437:0.02339 2440:0.03509 2441:0.02339 2442:0.0117 2447:0.02339 2449:0.0117 2451:0.0117 2452:0.0117 2456:0.02339 2457:0.0117 2460:0.0117 2463:0.0117 2465:0.0117 2467:0.02339 2471:0.0117 2477:0.0117 2481:0.0117 2482:0.0117 2488:0.0117 2495:0.0117 2496:0.02339 2497:0.02339 2500:0.0117 2504:0.02339 2509:0.0117 2511:0.0117 2516:0.0117 2521:0.0117 2522:0.0117 2523:0.0117 2525:0.02339 2526:0.0117 2530:0.02339 2532:0.0117 2535:0.0117 2539:0.0117 2544:0.03509 2545:0.0117 2552:0.0117 2554:0.0117 2557:0.0117 2558:0.02339 2560:0.0117 2561:0.03509 2562:0.04678 2563:0.02339 2564:0.0117 2565:0.0117 2567:0.0117 2568:0.02339 2569:0.0117 2572:0.03509 2573:0.0117 2574:0.0117 2576:0.0117 2580:0.0117 2581:0.0117 2584:0.02339 2594:0.0117 2595:0.0117 2596:0.0117 2601:0.02339 2603:0.0117 2606:0.0117 2607:0.0117 2608:0.02339 2612:0.0117 2616:0.02339 2618:0.0117 2619:0.03509 2621:0.0117 2625:0.03509 2628:0.03509 2632:0.0117 2635:0.02339 2637:0.0117 2638:0.02339 2641:0.02339 2643:0.03509 2644:0.05848 2645:0.02339 2647:0.0117 2649:0.04678 2655:0.04678 2656:0.0117 2657:0.0117 2658:0.0117 2661:0.02339 2665:0.0117 2669:0.0117 2672:0.02339 2673:0.02339 2674:0.02339 2679:0.0117 2681:0.0117 2688:0.0117 2689:0.03509 2690:0.0117 2692:0.0117 2697:0.0117 2703:0.02339 2707:0.0117 2709:0.03509 2715:0.0117 2716:0.0117 2717:0.02339 2721:0.02339 2729:0.0117 2736:0.0117 2738:0.02339 2741:0.0117 2744:0.0117 2747:0.0117 2752:0.0117 2756:0.0117 2760:0.03509 2768:0.0117 2770:0.0117 2771:0.0117 2773:0.0117 2776:0.02339 2784:0.02339 2785:0.0117 2786:0.0117 2789:0.0117 2792:0.0117 2793:0.0117 2795:0.0117 2801:0.0117 2802:0.0117 2808:0.0117 2814:0.02339 2816:0.0117 2817:0.02339 2819:0.0117 2821:0.0117 2822:0.0117 2823:0.0117 2824:0.0117 2828:0.0117 2830:0.0117 2832:0.02339 2833:0.02339 2834:0.0117 2837:0.0117 2838:0.02339 2842:0.0117 2847:0.03509 2848:0.02339 2851:0.0117 2852:0.0117 2854:0.02339 2858:0.0117 2864:0.0117 2880:0.0117 2882:0.02339 2883:0.0117 2885:0.0117 2886:0.0117 2888:0.0117 2889:0.0117 2890:0.02339 2892:0.0117 2893:0.04678 2894:0.0117 2896:0.03509 2897:0.0117 2898:0.0117 2911:0.0117 2912:0.0117 2915:0.02339 2917:0.0117 2918:0.0117 2919:0.02339 2920:0.0117 2922:0.0117 2928:0.02339 2932:0.02339 2934:0.0117 2938:0.0117 2941:0.0117 2942:0.02339 2944:0.02339 2948:0.0117 2950:0.0117 2952:0.02339 2960:0.02339 2963:0.0117 2964:0.02339 2967:0.0117 2969:0.0117 2973:0.0117 2975:0.0117 2977:0.03509 2978:0.0117 2979:0.02339 2981:0.0117 2984:0.0117 2985:0.0117 2986:0.02339 2994:0.0117 3000:0.02339 3006:0.0117 3007:0.05848 3008:0.02339 3009:0.0117 3012:0.0117 3013:0.0117 3016:0.03509 3019:0.0117 3021:0.02339 3025:0.0117 3027:0.0117 3029:0.0117 3030:0.0117 3032:0.02339 3033:0.0117 3034:0.0117 3040:0.02339 3041:0.02339 3042:0.02339 3047:0.0117 3048:0.0117 3050:0.0117 3052:0.0117 3054:0.02339 3055:0.03509 3056:0.02339 3060:0.03509 3062:0.04678 3063:0.0117 3065:0.0117 3066:0.02339 3067:0.0117 3068:0.0117 3069:0.02339 3072:0.05848 3073:0.09357 3074:0.02339 3075:0.0117 3076:0.05848 3077:0.02339 3080:0.0117 3081:0.0117 3082:0.0117 3083:0.0117 3084:0.0117 3085:0.04678 3088:0.0117 3089:0.02339 3092:0.0117 3096:0.02339 3097:0.0117 3101:0.0117 3104:0.02339 3105:0.0117 3106:0.0117 3109:0.0117 3117:0.0117 3119:0.0117 3120:0.03509 3124:0.02339 3125:0.0117 3126:0.0117 3129:0.0117 3132:0.0117 3133:0.02339 3135:0.02339 3136:0.02339 3137:0.03509 3139:0.0117 3140:0.0117 3144:0.0117 3145:0.0117 3148:0.0117 3152:0.0117 3153:0.0117 3156:0.0117 3157:0.02339 3162:0.0117 3174:0.0117 3176:0.0117 3185:0.02339 3188:0.02339 3193:0.03509 3195:0.02339 3197:0.0117 3198:0.02339 3199:0.02339 3204:0.0117 3205:0.02339 3210:0.02339 3213:0.02339 3216:0.0117 3217:0.0117 3218:0.0117 3219:0.0117 3222:0.02339 3223:0.0117 3224:0.0117 3233:0.0117 3235:0.0117 3237:0.0117 3239:0.0117 3249:0.02339 3251:0.02339 3253:0.0117 3255:0.0117 3256:0.0117 3259:0.02339 3261:0.0117 3264:0.0117 3265:0.02339 3266:0.02339 3274:0.0117 3276:0.02339 3278:0.03509 3279:0.0117 3280:0.0117 3284:0.02339 3285:0.0117 3293:0.02339 3295:0.0117 3298:0.04678 3300:0.02339 3301:0.0117 3302:0.0117 3306:0.04678 3307:0.02339 3308:0.02339 3310:0.02339 3315:0.0117 3316:0.0117 3318:0.0117 3319:0.02339 3320:0.02339 3322:0.0117 3323:0.0117 3324:0.02339 3325:0.04678 3326:0.02339 3327:0.03509 3328:0.05848 3330:0.0117 3331:0.0117 3332:0.03509 3333:0.03509 3335:0.0117 3337:0.02339 3342:0.0117 3345:0.0117 3347:0.0117 3349:0.02339 3360:0.02339 3363:0.0117 3365:0.0117 3366:0.0117 3367:0.0117 3372:0.0117 3373:0.03509 3376:0.02339 3377:0.05848 3379:0.0117 3381:0.0117 3383:0.0117 3388:0.03509 3389:0.0117 3391:0.03509 3392:0.04678 3393:0.0117 3397:0.02339 3398:0.0117 3399:0.0117 3400:0.02339 3406:0.02339 3408:0.02339 3409:0.02339 3410:0.0117 3411:0.0117 3412:0.0117 3413:0.0117 3414:0.0117 3419:0.0117 3425:0.0117 3427:0.0117 3429:0.0117 3430:0.0117 3432:0.0117 3433:0.02339 3434:0.0117 3440:0.0117 3441:0.0117 3444:0.0117 3446:0.02339 3447:0.0117 3450:0.05848 3454:0.0117 3455:0.02339 3456:0.0117 3458:0.0117 3459:0.0117 3460:0.0117 3461:0.0117 3464:0.0117 3465:0.0117 3466:0.0117 3467:0.0117 3472:0.02339 3474:0.0117 3475:0.0117 3476:0.02339 3479:0.02339 3481:0.04678 3482:0.0117 3487:0.02339 3488:0.0117 3489:0.02339 3491:0.0117 3494:0.04678 3495:0.02339 3515:0.02339 3516:0.02339 3517:0.0117 3518:0.0117 3519:0.02339 3520:0.0117 3521:0.0117 3524:0.0117 3525:0.02339 3532:0.0117 3535:0.02339 3536:0.0117 3539:0.0117 3541:0.0117 3542:0.0117 3543:0.0117 3545:0.0117 3546:0.02339 3547:0.0117 3548:0.02339 3550:0.02339 3551:0.0117 3554:0.0117 3557:0.02339 3559:0.0117 3560:0.02339 3565:0.0117 3567:0.0117 3571:0.0117 3572:0.0117 3574:0.0117 3576:0.02339 3577:0.02339 3580:0.0117 3581:0.0117 3582:0.03509 3583:0.0117 3585:0.0117 3587:0.04678 3588:0.04678 3589:0.0117 3592:0.0117 3595:0.0117 3596:0.0117 3600:0.02339 3601:0.0117 3603:0.02339 3604:0.02339 3606:0.0117 3608:0.0117 3613:0.0117 3614:0.0117 3615:0.0117 3616:0.09357 3619:0.0117 3621:0.0117 3636:0.02339 3641:0.0117 3642:0.0117 3644:0.0117 3645:0.0117 3648:0.07018 3649:0.02339 3651:0.0117 3652:0.0117 3653:0.0117 3654:0.0117 3655:0.0117 3657:0.02339 3659:0.02339 3661:0.0117 3663:0.0117 3664:0.0117 3665:0.03509 3666:0.0117 3667:0.0117 3668:0.02339 3672:0.0117 3675:0.0117 3676:0.0117 3677:0.0117 3680:0.0117 3681:0.0117 3682:0.0117 3683:0.0117 3684:0.0117 3686:0.02339 3688:0.0117 3689:0.0117 3696:0.0117 3697:0.0117 3700:0.02339 3701:0.0117 3703:0.0117 3704:0.02339 3705:0.0117 3707:0.0117 3708:0.0117 3709:0.0117 3712:0.02339 3713:0.02339 3714:0.0117 3715:0.0117 3717:0.0117 3718:0.0117 3721:0.0117 3724:0.0117 3725:0.0117 3727:0.02339 3729:0.03509 3731:0.0117 3732:0.03509 3733:0.04678 3734:0.03509 3735:0.0117 3736:0.02339 3740:0.0117 3742:0.0117 3743:0.0117 3744:0.0117 3745:0.03509 3748:0.02339 3750:0.02339 3751:0.02339 3752:0.0117 3753:0.0117 3757:0.02339 3762:0.0117 3764:0.0117 3766:0.0117 3769:0.02339 3770:0.02339 3771:0.0117 3774:0.0117 3776:0.0117 3777:0.0117 3778:0.0117 3780:0.02339 3781:0.02339 3784:0.0117 3785:0.02339 3793:0.02339 3795:0.0117 3796:0.02339 3797:0.0117 3801:0.0117 3802:0.02339 3804:0.0117 3805:0.02339 3806:0.0117 3807:0.0117 3808:0.0117 3810:0.0117 3812:0.0117 3813:0.0117 3816:0.0117 3817:0.02339 3822:0.02339 3824:0.07018 3825:0.0117 3826:0.0117 3828:0.0117 3829:0.0117 3830:0.0117 3832:0.0117 3833:0.03509 3834:0.0117 3836:0.05848 3837:0.02339 3838:0.02339 3839:0.02339 3840:0.0117 3841:0.0117 3843:0.0117 3844:0.0117 3845:0.0117 3846:0.0117 3850:0.0117 3852:0.02339 3855:0.0117 3856:0.0117 3857:0.02339 3859:0.02339 3863:0.0117 3866:0.0117 3869:0.02339 3871:0.0117 3872:0.02339 3875:0.0117 3876:0.0117 3877:0.0117 3878:0.02339 3881:0.0117 3885:0.02339 3886:0.02339 3887:0.0117 3891:0.02339 3892:0.02339 3896:0.02339 3897:0.05848 3899:0.04678 3902:0.02339 3903:0.03509 3904:0.05848 3905:0.02339 3906:0.02339 3907:0.0117 3908:0.0117 3910:0.0117 3916:0.04678 3919:0.0117 3920:0.03509 3922:0.03509 3924:0.0117 3925:0.03509 3926:0.02339 3929:0.02339 3930:0.0117 3932:0.0117 3933:0.0117 3934:0.02339 3935:0.03509 3936:0.02339 3939:0.0117 3940:0.02339 3941:0.0117 3942:0.0117 3943:0.0117 3944:0.0117 3945:0.0117 3946:0.02339 3951:0.02339 3952:0.0117 3955:0.0117 3959:0.0117 3962:0.02339 3965:0.0117 3966:0.0117 3967:0.03509 3968:0.03509 3969:0.03509 3970:0.0117 3971:0.0117 3972:0.0117 3973:0.02339 3976:0.0117 3984:0.03509 3987:0.03509 3988:0.0117 3989:0.03509 3991:0.0117 3992:0.02339 3994:0.0117 3996:0.0117 3997:0.0117 3998:0.0117 3999:0.02339 4000:0.0117 4002:0.0117 4005:0.03509 4006:0.02339 4008:0.0117 4009:0.02339 4010:0.02339 4013:0.0117 4015:0.04678 4016:0.02339 4017:0.02339 4018:0.02339 4019:0.0117 4021:0.0117 4023:0.02339 4024:0.0117 4025:0.0117 4026:0.0117 4028:0.04678 4029:0.02339 4031:0.03509 4032:0.02339 4034:0.0117 4035:0.02339 4037:0.0117 4039:0.0117 4040:0.0117 4041:0.0117 4042:0.02339 4044:0.0117 4045:0.02339 4046:0.0117 4047:0.09357 4048:0.08187 4049:0.03509 4051:0.03509 4052:0.03509 4053:0.02339 4054:0.03509 4055:0.04678 4056:0.0117 4058:0.0117 4059:0.0117 4060:0.02339 4063:0.0117 4064:0.0117 4065:0.02339 4068:0.03509 4069:0.02339 4070:0.03509 4071:0.0117 4072:0.0117 4073:0.0117 4074:0.03509 4075:0.02339 4076:0.02339 4077:0.03509 4079:0.02339 4080:0.02339 4081:0.0117 4082:0.02339 4083:0.04678 4084:0.10526 4085:0.0117 4086:0.03509 4087:0.02339 4090:0.0117 4091:0.05848 4092:0.04678 4093:0.09357 4094:0.03509 4095:0.07018 4096:0.12866 
73.06599307532942 1:0.18054 2:0.0677 3:0.0677 4:0.15797 5:0.01128 6:0.02257 7:0.02257 8:0.05642 9:0.02257 10:0.03385 11:0.01128 12:0.05642 13:0.0677 14:0.05642 15:0.07899 16:0.02257 17:0.01128 18:0.02257 19:0.02257 20:0.02257 21:0.01128 22:0.01128 23:0.02257 25:0.02257 26:0.01128 27:0.01128 29:0.05642 31:0.01128 32:0.05642 33:0.02257 34:0.03385 35:0.02257 36:0.03385 37:0.03385 38:0.01128 39:0.01128 41:0.01128 42:0.01128 45:0.02257 46:0.03385 47:0.02257 48:0.01128 49:0.03385 50:0.01128 51:0.02257 52:0.07899 53:0.02257 55:0.01128 56:0.02257 57:0.02257 58:0.02257 59:0.02257 60:0.04514 61:0.02257 63:0.02257 65:0.03385 66:0.02257 68:0.02257 69:0.04514 72:0.01128 74:0.03385 76:0.01128 77:0.01128 78:0.01128 79:0.02257 80:0.02257 81:0.01128 84:0.01128 86:0.01128 89:0.01128 91:0.02257 97:0.02257 99:0.01128 100:0.01128 104:0.01128 105:0.01128 108:0.01128 113:0.01128 114:0.02257 115:0.01128 116:0.01128 117:0.01128 118:0.01128 121:0.01128 123:0.01128 125:0.05642 126:0.01128 128:0.01128 129:0.03385 131:0.01128 132:0.02257 134:0.03385 138:0.01128 139:0.01128 140:0.02257 142:0.05642 143:0.04514 145:0.02257 147:0.01128 148:0.02257 149:0.01128 153:0.01128 157:0.02257 161:0.01128 162:0.01128 163:0.02257 164:0.01128 165:0.02257 166:0.01128 167:0.01128 168:0.01128 174:0.01128 177:0.03385 179:0.02257 181:0.04514 183:0.01128 185:0.01128 186:0.01128 188:0.03385 190:0.01128 191:0.01128 192:0.05642 193:0.04514 196:0.01128 197:0.02257 201:0.02257 202:0.01128 205:0.03385 206:0.02257 207:0.01128 208:0.04514 209:0.01128 210:0.01128 211:0.01128 212:0.01128 213:0.01128 216:0.02257 217:0.01128 220:0.01128 221:0.01128 223:0.01128 226:0.03385 229:0.01128 230:0.01128 232:0.03385 233:0.01128 234:0.01128 236:0.01128 237:0.02257 238:0.02257 240:0.02257 241:0.03385 242:0.01128 243:0.01128 244:0.02257 245:0.01128 247:0.01128 249:0.03385 250:0.01128 251:0.01128 252:0.02257 253:0.01128 255:0.01128 256:0.02257 257:0.05642 258:0.01128 259:0.02257 260:0.01128 261:0.01128 263:0.01128 264:0.01128 266:0.01128 270:0.01128 271:0.02257 272:0.02257 273:0.01128 274:0.03385 275:0.01128 276:0.03385 283:0.01128 287:0.01128 288:0.03385 289:0.01128 290:0.01128 291:0.01128 293:0.02257 295:0.01128 297:0.01128 299:0.01128 301:0.01128 302:0.01128 303:0.01128 305:0.01128 309:0.01128 310:0.01128 312:0.01128 313:0.03385 315:0.01128 316:0.02257 317:0.01128 318:0.01128 320:0.04514 322:0.01128 323:0.01128 329:0.01128 330:0.01128 333:0.02257 336:0.01128 339:0.01128 340:0.01128 344:0.01128 345:0.01128 347:0.01128 350:0.01128 353:0.02257 354:0.01128 361:0.01128 363:0.01128 366:0.02257 368:0.01128 375:0.01128 376:0.01128 378:0.01128 382:0.01128 385:0.02257 387:0.02257 393:0.01128 395:0.01128 400:0.01128 405:0.01128 413:0.02257 414:0.01128 415:0.01128 417:0.02257 418:0.01128 419:0.01128 427:0.01128 431:0.03385 434:0.01128 436:0.01128 449:0.01128 451:0.01128 452:0.02257 456:0.02257 460:0.02257 461:0.01128 466:0.01128 467:0.01128 468:0.01128 469:0.01128 470:0.01128 472:0.01128 477:0.01128 478:0.02257 479:0.02257 480:0.02257 482:0.05642 484:0.01128 485:0.01128 487:0.01128 490:0.01128 491:0.01128 494:0.01128 495:0.01128 496:0.01128 497:0.04514 498:0.03385 500:0.01128 502:0.02257 503:0.01128 504:0.01128 505:0.01128 506:0.01128 510:0.01128 511:0.02257 512:0.05642 513:0.02257 514:0.01128 515:0.03385 516:0.01128 521:0.02257 524:0.01128 525:0.01128 526:0.02257 530:0.01128 531:0.01128 533:0.02257 534:0.03385 535:0.01128 536:0.01128 539:0.01128 547:0.01128 548:0.01128 549:0.01128 550:0.02257 551:0.02257 552:0.01128 553:0.03385 554:0.01128 555:0.01128 556:0.01128 557:0.01128 558:0.05642 559:0.01128 561:0.01128 562:0.01128 563:0.01128 564:0.01128 565:0.02257 566:0.01128 567:0.01128 568:0.02257 569:0.01128 570:0.01128 571:0.01128 572:0.01128 576:0.02257 577:0.02257 578:0.03385 580:0.02257 585:0.03385 587:0.01128 592:0.03385 593:0.01128 596:0.02257 602:0.01128 607:0.01128 608:0.01128 609:0.02257 610:0.01128 618:0.01128 621:0.02257 622:0.01128 624:0.01128 625:0.01128 626:0.02257 627:0.01128 632:0.01128 633:0.01128 637:0.02257 641:0.02257 642:0.01128 643:0.03385 646:0.01128 647:0.01128 649:0.01128 651:0.01128 652:0.01128 655:0.01128 656:0.02257 657:0.02257 659:0.01128 661:0.02257 665:0.01128 669:0.02257 674:0.02257 675:0.01128 678:0.02257 684:0.01128 686:0.01128 693:0.01128 694:0.01128 695:0.01128 696:0.01128 705:0.02257 706:0.01128 707:0.01128 708:0.01128 711:0.01128 714:0.04514 716:0.02257 721:0.02257 722:0.03385 723:0.04514 724:0.02257 725:0.01128 727:0.01128 729:0.01128 730:0.01128 731:0.03385 738:0.02257 741:0.02257 742:0.01128 745:0.01128 746:0.01128 749:0.02257 750:0.01128 752:0.01128 753:0.01128 754:0.01128 759:0.01128 762:0.01128 764:0.01128 765:0.03385 766:0.02257 767:0.01128 768:0.05642 769:0.0677 770:0.02257 771:0.02257 772:0.03385 773:0.03385 780:0.01128 784:0.02257 785:0.01128 786:0.01128 787:0.01128 788:0.01128 794:0.01128 796:0.01128 801:0.01128 802:0.01128 803:0.01128 804:0.03385 805:0.01128 809:0.01128 816:0.01128 817:0.02257 818:0.02257 819:0.01128 820:0.02257 821:0.03385 824:0.01128 825:0.01128 826:0.02257 827:0.04514 830:0.02257 831:0.01128 832:0.07899 833:0.01128 834:0.02257 835:0.01128 836:0.01128 837:0.01128 839:0.01128 841:0.01128 844:0.01128 845:0.03385 846:0.01128 847:0.01128 851:0.01128 852:0.01128 853:0.01128 861:0.01128 862:0.01128 864:0.01128 865:0.01128 866:0.01128 880:0.01128 881:0.01128 884:0.03385 887:0.01128 888:0.01128 891:0.01128 894:0.0677 896:0.03385 897:0.02257 899:0.01128 900:0.01128 901:0.02257 902:0.01128 904:0.02257 908:0.01128 909:0.02257 911:0.02257 912:0.01128 913:0.01128 915:0.01128 916:0.02257 917:0.02257 923:0.01128 927:0.01128 928:0.02257 929:0.01128 931:0.01128 932:0.01128 933:0.02257 934:0.03385 935:0.01128 936:0.02257 937:0.02257 938:0.02257 940:0.01128 941:0.01128 942:0.01128 944:0.01128 946:0.01128 947:0.01128 948:0.01128 949:0.02257 951:0.02257 956:0.03385 957:0.02257 958:0.02257 960:0.02257 962:0.01128 963:0.02257 968:0.01128 969:0.01128 971:0.01128 972:0.02257 973:0.01128 976:0.01128 977:0.01128 979:0.01128 980:0.01128 981:0.01128 982:0.01128 985:0.01128 987:0.01128 990:0.01128 992:0.02257 993:0.03385 996:0.01128 997:0.01128 998:0.02257 1000:0.02257 1001:0.01128 1002:0.01128 1005:0.02257 1006:0.01128 1008:0.02257 1009:0.01128 1011:0.01128 1012:0.03385 1013:0.01128 1014:0.01128 1016:0.01128 1018:0.02257 1019:0.01128 1020:0.01128 1021:0.02257 1022:0.01128 1023:0.03385 1024:0.15797 1025:0.0677 1027:0.02257 1028:0.03385 1029:0.03385 1031:0.01128 1032:0.01128 1033:0.02257 1035:0.01128 1036:0.02257 1037:0.03385 1040:0.01128 1041:0.03385 1042:0.02257 1043:0.02257 1045:0.01128 1049:0.02257 1055:0.01128 1056:0.01128 1057:0.02257 1061:0.02257 1065:0.01128 1066:0.02257 1069:0.01128 1071:0.01128 1073:0.01128 1075:0.01128 1076:0.01128 1078:0.01128 1081:0.01128 1082:0.03385 1083:0.01128 1085:0.03385 1087:0.02257 1088:0.02257 1089:0.05642 1091:0.01128 1093:0.03385 1097:0.02257 1100:0.01128 1103:0.03385 1107:0.01128 1113:0.01128 1116:0.03385 1121:0.01128 1126:0.01128 1129:0.01128 1131:0.01128 1137:0.02257 1144:0.01128 1145:0.02257 1148:0.01128 1149:0.01128 1150:0.01128 1151:0.01128 1152:0.02257 1153:0.03385 1155:0.01128 1158:0.02257 1159:0.01128 1161:0.02257 1162:0.02257 1163:0.05642 1164:0.02257 1168:0.01128 1169:0.03385 1172:0.01128 1173:0.01128 1177:0.01128 1179:0.01128 1180:0.01128 1181:0.01128 1185:0.02257 1192:0.01128 1193:0.02257 1195:0.01128 1198:0.01128 1201:0.02257 1202:0.01128 1203:0.02257 1205:0.01128 1207:0.02257 1209:0.01128 1210:0.01128 1212:0.01128 1215:0.01128 1216:0.01128 1217:0.0677 1218:0.01128 1219:0.01128 1221:0.01128 1225:0.02257 1229:0.02257 1231:0.04514 1232:0.01128 1233:0.01128 1234:0.01128 1236:0.02257 1237:0.01128 1240:0.01128 1248:0.04514 1249:0.02257 1252:0.01128 1253:0.01128 1257:0.01128 1258:0.03385 1262:0.01128 1263:0.03385 1264:0.02257 1267:0.01128 1270:0.01128 1273:0.01128 1274:0.01128 1275:0.01128 1276:0.02257 1277:0.01128 1278:0.02257 1280:0.07899 1281:0.03385 1282:0.01128 1284:0.01128 1285:0.01128 1289:0.02257 1290:0.01128 1291:0.01128 1295:0.01128 1296:0.01128 1297:0.01128 1299:0.01128 1303:0.01128 1305:0.01128 1306:0.01128 1309:0.01128 1310:0.01128 1313:0.01128 1314:0.01128 1315:0.02257 1316:0.01128 1317:0.02257 1318:0.01128 1319:0.01128 1325:0.01128 1328:0.01128 1329:0.04514 1331:0.01128 1332:0.04514 1333:0.01128 1336:0.01128 1338:0.01128 1339:0.02257 1340:0.01128 1343:0.01128 1344:0.02257 1353:0.01128 1354:0.03385 1356:0.01128 1357:0.04514 1358:0.01128 1372:0.01128 1375:0.01128 1379:0.01128 1388:0.01128 1391:0.01128 1393:0.01128 1398:0.01128 1399:0.01128 1400:0.01128 1401:0.02257 1404:0.01128 1409:0.01128 1412:0.01128 1416:0.03385 1417:0.01128 1419:0.01128 1428:0.01128 1439:0.01128 1443:0.01128 1452:0.01128 1456:0.02257 1461:0.01128 1462:0.02257 1464:0.01128 1465:0.01128 1468:0.01128 1470:0.01128 1472:0.01128 1473:0.01128 1474:0.01128 1476:0.01128 1485:0.01128 1493:0.01128 1495:0.01128 1496:0.01128 1497:0.01128 1499:0.01128 1500:0.01128 1503:0.05642 1504:0.01128 1505:0.01128 1506:0.01128 1509:0.01128 1510:0.01128 1512:0.01128 1517:0.01128 1518:0.01128 1521:0.02257 1526:0.02257 1527:0.02257 1529:0.02257 1531:0.01128 1535:0.01128 1536:0.01128 1537:0.05642 1538:0.01128 1544:0.01128 1545:0.02257 1547:0.02257 1548:0.01128 1549:0.01128 1552:0.01128 1553:0.01128 1556:0.02257 1560:0.01128 1566:0.02257 1567:0.02257 1568:0.01128 1569:0.01128 1571:0.01128 1572:0.01128 1573:0.01128 1577:0.01128 1579:0.01128 1580:0.01128 1592:0.01128 1598:0.01128 1600:0.01128 1609:0.02257 1612:0.01128 1614:0.01128 1620:0.01128 1625:0.01128 1626:0.01128 1632:0.01128 1634:0.01128 1637:0.01128 1639:0.02257 1645:0.01128 1649:0.02257 1656:0.02257 1658:0.01128 1659:0.01128 1660:0.01128 1664:0.01128 1665:0.02257 1669:0.01128 1672:0.01128 1673:0.02257 1675:0.01128 1689:0.02257 1694:0.01128 1706:0.01128 1710:0.02257 1720:0.01128 1721:0.03385 1723:0.01128 1726:0.01128 1728:0.02257 1729:0.01128 1731:0.01128 1733:0.01128 1736:0.01128 1741:0.02257 1746:0.01128 1747:0.01128 1750:0.02257 1752:0.01128 1759:0.01128 1764:0.01128 1769:0.01128 1770:0.01128 1774:0.01128 1779:0.01128 1781:0.01128 1786:0.01128 1788:0.01128 1790:0.01128 1791:0.01128 1792:0.02257 1793:0.03385 1796:0.01128 1797:0.02257 1799:0.01128 1801:0.02257 1805:0.01128 1806:0.01128 1807:0.01128 1808:0.01128 1812:0.01128 1821:0.01128 1822:0.01128 1823:0.02257 1824:0.02257 1827:0.01128 1832:0.01128 1838:0.01128 1840:0.01128 1841:0.02257 1844:0.01128 1848:0.01128 1849:0.01128 1851:0.01128 1855:0.01128 1856:0.02257 1861:0.01128 1865:0.01128 1869:0.01128 1873:0.02257 1876:0.01128 1880:0.01128 1881:0.01128 1883:0.01128 1884:0.01128 1886:0.02257 1888:0.02257 1889:0.01128 1890:0.02257 1897:0.01128 1899:0.01128 1902:0.01128 1904:0.01128 1906:0.01128 1907:0.01128 1908:0.01128 1910:0.01128 1911:0.01128 1912:0.01128 1913:0.04514 1914:0.04514 1915:0.02257 1916:0.01128 1918:0.02257 1920:0.02257 1923:0.01128 1924:0.01128 1925:0.02257 1926:0.02257 1927:0.01128 1928:0.04514 1932:0.01128 1933:0.01128 1936:0.01128 1937:0.01128 1938:0.01128 1940:0.01128 1941:0.01128 1944:0.01128 1945:0.02257 1946:0.01128 1949:0.02257 1950:0.01128 1952:0.01128 1954:0.01128 1956:0.01128 1957:0.01128 1958:0.01128 1961:0.03385 1962:0.01128 1964:0.01128 1966:0.01128 1967:0.01128 1972:0.01128 1973:0.01128 1974:0.01128 1976:0.01128 1977:0.01128 1979:0.01128 1980:0.01128 1983:0.02257 1984:0.02257 1985:0.04514 1987:0.02257 1988:0.02257 1990:0.01128 1991:0.01128 1992:0.01128 1993:0.01128 1996:0.01128 1999:0.01128 2003:0.01128 2004:0.01128 2005:0.02257 2006:0.01128 2008:0.03385 2010:0.03385 2012:0.02257 2013:0.01128 2015:0.01128 2016:0.01128 2017:0.01128 2018:0.01128 2020:0.01128 2022:0.01128 2025:0.02257 2026:0.01128 2028:0.01128 2031:0.01128 2033:0.02257 2034:0.01128 2036:0.02257 2037:0.01128 2040:0.03385 2041:0.02257 2042:0.01128 2044:0.02257 2045:0.01128 2046:0.02257 2047:0.02257 2048:0.0677 2049:0.13541 2050:0.01128 2051:0.02257 2052:0.01128 2053:0.02257 2054:0.02257 2055:0.01128 2056:0.02257 2057:0.02257 2058:0.01128 2060:0.01128 2061:0.01128 2063:0.02257 2068:0.02257 2071:0.01128 2075:0.01128 2080:0.01128 2083:0.02257 2084:0.0677 2089:0.01128 2090:0.02257 2092:0.01128 2094:0.02257 2095:0.01128 2096:0.01128 2098:0.01128 2100:0.02257 2101:0.02257 2102:0.01128 2103:0.01128 2108:0.01128 2110:0.02257 2114:0.01128 2116:0.01128 2117:0.01128 2119:0.01128 2120:0.01128 2121:0.01128 2123:0.01128 2124:0.01128 2126:0.01128 2127:0.01128 2128:0.02257 2129:0.01128 2131:0.01128 2132:0.01128 2133:0.02257 2135:0.02257 2136:0.01128 2137:0.01128 2142:0.02257 2143:0.01128 2144:0.01128 2147:0.01128 2152:0.01128 2153:0.02257 2156:0.02257 2163:0.01128 2165:0.02257 2166:0.02257 2168:0.05642 2169:0.01128 2170:0.01128 2172:0.01128 2174:0.02257 2176:0.03385 2180:0.01128 2181:0.01128 2182:0.02257 2186:0.01128 2188:0.02257 2189:0.02257 2193:0.01128 2195:0.01128 2197:0.01128 2199:0.01128 2201:0.01128 2204:0.01128 2205:0.01128 2209:0.02257 2210:0.01128 2211:0.02257 2212:0.01128 2213:0.01128 2217:0.01128 2218:0.01128 2220:0.01128 2222:0.02257 2227:0.01128 2229:0.0677 2230:0.01128 2231:0.02257 2235:0.01128 2237:0.02257 2241:0.01128 2242:0.01128 2245:0.01128 2249:0.01128 2253:0.02257 2256:0.02257 2257:0.02257 2262:0.01128 2265:0.01128 2269:0.01128 2272:0.05642 2273:0.01128 2274:0.01128 2276:0.01128 2278:0.01128 2279:0.01128 2281:0.01128 2282:0.01128 2283:0.01128 2285:0.01128 2286:0.01128 2288:0.01128 2291:0.01128 2293:0.02257 2296:0.02257 2300:0.01128 2304:0.05642 2305:0.01128 2306:0.02257 2307:0.01128 2308:0.02257 2309:0.02257 2310:0.01128 2311:0.01128 2312:0.01128 2316:0.01128 2317:0.03385 2319:0.01128 2320:0.01128 2321:0.01128 2333:0.01128 2335:0.01128 2336:0.01128 2337:0.02257 2339:0.04514 2343:0.01128 2345:0.01128 2346:0.01128 2348:0.01128 2349:0.01128 2350:0.01128 2356:0.02257 2358:0.01128 2360:0.01128 2363:0.01128 2367:0.03385 2368:0.02257 2369:0.04514 2371:0.01128 2372:0.01128 2373:0.01128 2375:0.01128 2376:0.01128 2377:0.01128 2380:0.01128 2381:0.03385 2382:0.01128 2383:0.03385 2384:0.01128 2387:0.01128 2388:0.02257 2391:0.01128 2397:0.01128 2398:0.01128 2402:0.01128 2405:0.01128 2408:0.01128 2417:0.01128 2424:0.01128 2426:0.01128 2430:0.02257 2431:0.02257 2432:0.01128 2433:0.02257 2434:0.01128 2435:0.03385 2437:0.02257 2440:0.01128 2451:0.01128 2457:0.01128 2458:0.02257 2471:0.01128 2472:0.01128 2481:0.01128 2482:0.01128 2484:0.01128 2485:0.01128 2491:0.01128 2496:0.01128 2497:0.02257 2498:0.02257 2504:0.04514 2505:0.01128 2512:0.01128 2521:0.01128 2525:0.02257 2526:0.01128 2527:0.02257 2528:0.01128 2529:0.01128 2533:0.01128 2539:0.03385 2540:0.01128 2544:0.03385 2545:0.02257 2555:0.01128 2556:0.01128 2557:0.01128 2558:0.01128 2560:0.03385 2561:0.05642 2562:0.03385 2564:0.01128 2565:0.01128 2566:0.01128 2569:0.02257 2571:0.02257 2572:0.02257 2573:0.01128 2575:0.01128 2579:0.01128 2584:0.01128 2585:0.01128 2587:0.02257 2589:0.01128 2590:0.01128 2594:0.03385 2595:0.01128 2601:0.02257 2603:0.01128 2606:0.02257 2608:0.01128 2616:0.01128 2618:0.01128 2620:0.01128 2621:0.01128 2622:0.01128 2623:0.01128 2625:0.03385 2626:0.01128 2627:0.01128 2628:0.02257 2632:0.01128 2633:0.01128 2635:0.01128 2638:0.01128 2640:0.01128 2641:0.03385 2642:0.01128 2643:0.01128 2644:0.03385 2645:0.02257 2648:0.02257 2653:0.01128 2656:0.01128 2657:0.02257 2658:0.01128 2671:0.01128 2673:0.01128 2674:0.01128 2680:0.02257 2683:0.01128 2688:0.01128 2689:0.02257 2691:0.01128 2692:0.01128 2695:0.02257 2700:0.01128 2702:0.01128 2705:0.02257 2709:0.04514 2725:0.01128 2736:0.01128 2741:0.02257 2744:0.03385 2752:0.01128 2755:0.01128 2770:0.01128 2771:0.02257 2772:0.01128 2776:0.01128 2777:0.01128 2782:0.02257 2783:0.02257 2784:0.03385 2785:0.01128 2786:0.03385 2793:0.01128 2806:0.01128 2810:0.01128 2814:0.02257 2816:0.02257 2817:0.03385 2819:0.01128 2824:0.01128 2828:0.03385 2832:0.01128 2833:0.01128 2834:0.01128 2836:0.01128 2842:0.01128 2844:0.01128 2847:0.01128 2851:0.01128 2853:0.01128 2854:0.01128 2856:0.02257 2864:0.02257 2868:0.02257 2872:0.01128 2873:0.01128 2878:0.01128 2880:0.01128 2881:0.01128 2882:0.01128 2883:0.01128 2885:0.01128 2886:0.03385 2888:0.02257 2889:0.03385 2891:0.01128 2892:0.05642 2893:0.01128 2894:0.01128 2896:0.03385 2899:0.01128 2904:0.02257 2905:0.01128 2908:0.01128 2910:0.01128 2912:0.01128 2915:0.02257 2916:0.01128 2918:0.01128 2919:0.01128 2920:0.01128 2921:0.01128 2922:0.01128 2924:0.01128 2932:0.01128 2934:0.03385 2937:0.01128 2939:0.01128 2940:0.01128 2944:0.03385 2945:0.01128 2946:0.01128 2949:0.01128 2950:0.01128 2951:0.01128 2952:0.03385 2956:0.01128 2959:0.01128 2960:0.01128 2961:0.01128 2963:0.01128 2965:0.01128 2977:0.04514 2981:0.02257 2982:0.01128 2994:0.01128 2996:0.01128 2997:0.02257 3000:0.01128 3004:0.03385 3005:0.01128 3007:0.02257 3008:0.02257 3009:0.01128 3012:0.01128 3016:0.01128 3018:0.02257 3019:0.01128 3021:0.01128 3022:0.01128 3023:0.01128 3025:0.01128 3026:0.01128 3029:0.01128 3032:0.01128 3034:0.01128 3042:0.01128 3044:0.02257 3045:0.01128 3046:0.01128 3048:0.03385 3052:0.01128 3054:0.01128 3056:0.02257 3057:0.02257 3060:0.02257 3061:0.02257 3062:0.03385 3063:0.01128 3064:0.01128 3065:0.01128 3066:0.02257 3067:0.01128 3068:0.01128 3069:0.03385 3070:0.01128 3072:0.0677 3073:0.09027 3074:0.03385 3075:0.01128 3076:0.02257 3077:0.01128 3080:0.03385 3081:0.04514 3082:0.01128 3085:0.03385 3087:0.01128 3088:0.01128 3089:0.03385 3090:0.01128 3092:0.02257 3102:0.02257 3105:0.02257 3112:0.02257 3113:0.02257 3117:0.02257 3119:0.01128 3120:0.05642 3121:0.01128 3126:0.01128 3132:0.01128 3133:0.02257 3135:0.03385 3136:0.02257 3137:0.01128 3140:0.02257 3144:0.02257 3147:0.01128 3150:0.01128 3152:0.02257 3156:0.01128 3169:0.01128 3175:0.01128 3176:0.02257 3181:0.02257 3185:0.01128 3192:0.01128 3193:0.02257 3194:0.01128 3195:0.01128 3196:0.01128 3197:0.02257 3199:0.01128 3200:0.02257 3201:0.01128 3203:0.01128 3205:0.01128 3210:0.02257 3212:0.01128 3213:0.02257 3214:0.01128 3216:0.01128 3217:0.01128 3219:0.02257 3224:0.02257 3228:0.02257 3230:0.01128 3231:0.01128 3232:0.02257 3233:0.01128 3236:0.01128 3238:0.01128 3242:0.01128 3251:0.01128 3254:0.01128 3258:0.01128 3259:0.01128 3264:0.05642 3265:0.02257 3266:0.01128 3268:0.01128 3271:0.02257 3273:0.01128 3275:0.01128 3276:0.01128 3278:0.02257 3279:0.02257 3280:0.03385 3281:0.01128 3283:0.01128 3284:0.02257 3293:0.02257 3294:0.02257 3297:0.01128 3298:0.01128 3299:0.01128 3300:0.03385 3301:0.02257 3306:0.03385 3307:0.04514 3308:0.02257 3312:0.01128 3315:0.01128 3318:0.01128 3319:0.01128 3320:0.01128 3322:0.03385 3325:0.03385 3326:0.01128 3327:0.03385 3328:0.0677 3329:0.02257 3330:0.01128 3331:0.02257 3333:0.03385 3339:0.02257 3340:0.01128 3343:0.01128 3344:0.03385 3345:0.03385 3347:0.01128 3349:0.01128 3351:0.03385 3355:0.01128 3359:0.01128 3360:0.01128 3362:0.01128 3363:0.04514 3368:0.01128 3371:0.02257 3373:0.02257 3374:0.01128 3375:0.02257 3376:0.01128 3377:0.03385 3378:0.01128 3379:0.01128 3380:0.01128 3381:0.02257 3384:0.01128 3388:0.03385 3391:0.01128 3392:0.02257 3393:0.01128 3395:0.02257 3396:0.01128 3397:0.01128 3398:0.01128 3399:0.01128 3400:0.01128 3401:0.02257 3406:0.01128 3407:0.01128 3408:0.01128 3411:0.03385 3412:0.02257 3422:0.01128 3423:0.02257 3426:0.01128 3427:0.01128 3436:0.01128 3438:0.02257 3439:0.01128 3440:0.01128 3441:0.01128 3444:0.01128 3446:0.02257 3447:0.01128 3448:0.03385 3450:0.01128 3452:0.01128 3453:0.02257 3454:0.01128 3455:0.01128 3456:0.01128 3457:0.01128 3460:0.01128 3461:0.01128 3462:0.01128 3464:0.01128 3465:0.01128 3466:0.01128 3467:0.01128 3470:0.01128 3472:0.01128 3475:0.02257 3479:0.02257 3480:0.01128 3482:0.01128 3486:0.01128 3487:0.01128 3488:0.01128 3490:0.01128 3491:0.01128 3495:0.01128 3500:0.01128 3502:0.01128 3503:0.01128 3504:0.01128 3505:0.01128 3510:0.01128 3515:0.01128 3519:0.02257 3520:0.02257 3523:0.01128 3524:0.01128 3525:0.01128 3530:0.01128 3533:0.01128 3534:0.01128 3535:0.02257 3536:0.02257 3541:0.01128 3543:0.02257 3544:0.01128 3545:0.01128 3547:0.01128 3548:0.01128 3551:0.02257 3554:0.03385 3555:0.01128 3556:0.01128 3558:0.01128 3559:0.02257 3560:0.03385 3561:0.02257 3562:0.01128 3563:0.01128 3564:0.01128 3566:0.01128 3567:0.02257 3571:0.02257 3573:0.02257 3574:0.02257 3575:0.02257 3576:0.02257 3579:0.02257 3581:0.04514 3582:0.02257 3583:0.02257 3584:0.02257 3585:0.04514 3586:0.02257 3587:0.01128 3588:0.01128 3589:0.01128 3591:0.01128 3593:0.02257 3598:0.02257 3600:0.01128 3601:0.01128 3602:0.02257 3603:0.01128 3604:0.02257 3605:0.01128 3606:0.02257 3608:0.01128 3610:0.01128 3611:0.01128 3614:0.0677 3615:0.01128 3616:0.04514 3630:0.02257 3632:0.01128 3633:0.01128 3636:0.03385 3640:0.02257 3641:0.02257 3643:0.01128 3644:0.01128 3646:0.02257 3648:0.02257 3649:0.01128 3650:0.01128 3652:0.01128 3653:0.01128 3656:0.02257 3658:0.01128 3659:0.01128 3660:0.01128 3661:0.02257 3663:0.01128 3664:0.01128 3665:0.02257 3666:0.02257 3667:0.01128 3668:0.02257 3669:0.01128 3670:0.01128 3678:0.01128 3680:0.02257 3681:0.02257 3687:0.01128 3690:0.01128 3697:0.01128 3698:0.01128 3700:0.01128 3703:0.01128 3704:0.01128 3707:0.02257 3708:0.02257 3711:0.02257 3712:0.03385 3713:0.03385 3714:0.01128 3715:0.02257 3716:0.01128 3720:0.01128 3721:0.01128 3723:0.01128 3724:0.01128 3727:0.01128 3728:0.01128 3729:0.03385 3730:0.01128 3731:0.01128 3732:0.02257 3733:0.02257 3734:0.04514 3736:0.02257 3740:0.01128 3742:0.01128 3743:0.01128 3744:0.01128 3745:0.04514 3748:0.01128 3749:0.01128 3750:0.02257 3758:0.02257 3761:0.01128 3765:0.01128 3768:0.02257 3769:0.01128 3775:0.01128 3776:0.01128 3777:0.01128 3781:0.02257 3783:0.01128 3785:0.01128 3790:0.01128 3791:0.01128 3792:0.02257 3793:0.01128 3794:0.01128 3795:0.02257 3796:0.02257 3799:0.01128 3801:0.01128 3802:0.02257 3805:0.01128 3806:0.01128 3809:0.01128 3810:0.01128 3811:0.01128 3812:0.01128 3813:0.01128 3817:0.01128 3818:0.01128 3822:0.01128 3823:0.03385 3824:0.04514 3825:0.01128 3827:0.02257 3828:0.03385 3829:0.01128 3830:0.01128 3833:0.03385 3834:0.02257 3835:0.01128 3836:0.01128 3837:0.01128 3838:0.02257 3839:0.03385 3840:0.01128 3841:0.02257 3842:0.02257 3843:0.02257 3844:0.01128 3845:0.01128 3848:0.01128 3850:0.02257 3851:0.02257 3852:0.04514 3856:0.03385 3857:0.01128 3861:0.01128 3865:0.01128 3866:0.01128 3871:0.02257 3872:0.03385 3873:0.01128 3876:0.01128 3877:0.01128 3878:0.01128 3879:0.02257 3880:0.01128 3881:0.01128 3882:0.01128 3883:0.01128 3885:0.01128 3887:0.02257 3888:0.01128 3891:0.02257 3892:0.02257 3893:0.01128 3896:0.01128 3897:0.03385 3899:0.04514 3900:0.01128 3901:0.01128 3903:0.01128 3904:0.03385 3905:0.03385 3907:0.01128 3908:0.03385 3909:0.01128 3910:0.01128 3914:0.01128 3915:0.01128 3917:0.01128 3918:0.01128 3919:0.02257 3921:0.02257 3922:0.04514 3924:0.01128 3925:0.04514 3932:0.02257 3933:0.01128 3934:0.02257 3935:0.02257 3936:0.01128 3939:0.01128 3940:0.01128 3941:0.02257 3942:0.02257 3944:0.02257 3948:0.02257 3949:0.01128 3951:0.01128 3952:0.02257 3953:0.01128 3956:0.01128 3959:0.01128 3962:0.02257 3963:0.01128 3964:0.01128 3965:0.02257 3967:0.02257 3968:0.02257 3969:0.05642 3970:0.01128 3972:0.01128 3973:0.01128 3976:0.02257 3981:0.01128 3982:0.02257 3983:0.01128 3984:0.01128 3986:0.01128 3987:0.01128 3988:0.01128 3989:0.03385 3990:0.02257 3992:0.02257 3997:0.01128 3998:0.01128 3999:0.03385 4000:0.02257 4001:0.02257 4003:0.02257 4005:0.02257 4006:0.03385 4008:0.01128 4014:0.01128 4016:0.01128 4017:0.01128 4018:0.01128 4020:0.01128 4021:0.01128 4023:0.01128 4025:0.03385 4026:0.01128 4027:0.01128 4028:0.01128 4029:0.03385 4031:0.03385 4032:0.01128 4033:0.02257 4034:0.01128 4035:0.04514 4037:0.01128 4039:0.01128 4040:0.02257 4042:0.02257 4043:0.01128 4044:0.01128 4045:0.02257 4046:0.01128 4047:0.0677 4048:0.04514 4049:0.05642 4050:0.01128 4052:0.02257 4053:0.03385 4054:0.02257 4055:0.02257 4056:0.02257 4057:0.01128 4058:0.02257 4059:0.01128 4060:0.02257 4061:0.01128 4063:0.03385 4064:0.03385 4065:0.03385 4066:0.01128 4068:0.01128 4069:0.01128 4070:0.03385 4072:0.02257 4073:0.01128 4074:0.04514 4077:0.01128 4079:0.05642 4080:0.03385 4081:0.02257 4082:0.03385 4083:0.03385 4084:0.0677 4085:0.04514 4086:0.05642 4087:0.05642 4088:0.02257 4089:0.02257 4090:0.01128 4091:0.03385 4092:0.05642 4093:0.09027 4094:0.13541 4095:0.0677 4096:0.18054 
96.83993606346502 1:0.1661 2:0.04746 4:0.07119 5:0.04746 10:0.02373 12:0.02373 13:0.02373 14:0.04746 15:0.02373 16:0.09492 17:0.04746 20:0.02373 21:0.02373 26:0.02373 29:0.02373 30:0.04746 32:0.02373 33:0.02373 38:0.02373 39:0.02373 48:0.04746 51:0.02373 53:0.02373 56:0.04746 59:0.02373 61:0.07119 63:0.04746 64:0.09492 65:0.04746 68:0.02373 71:0.02373 74:0.02373 77:0.02373 81:0.02373 84:0.02373 101:0.02373 104:0.02373 107:0.02373 113:0.07119 115:0.02373 117:0.04746 118:0.02373 128:0.04746 129:0.02373 131:0.02373 144:0.02373 145:0.04746 152:0.02373 156:0.02373 173:0.02373 177:0.02373 180:0.02373 183:0.02373 185:0.04746 190:0.02373 192:0.02373 199:0.02373 202:0.02373 211:0.02373 217:0.02373 221:0.02373 222:0.02373 224:0.02373 233:0.02373 236:0.02373 237:0.02373 239:0.02373 241:0.02373 242:0.04746 243:0.02373 244:0.02373 246:0.02373 247:0.02373 249:0.02373 252:0.07119 253:0.04746 254:0.02373 255:0.04746 256:0.09492 257:0.02373 259:0.02373 260:0.07119 261:0.02373 272:0.07119 273:0.02373 277:0.02373 281:0.04746 296:0.02373 305:0.02373 308:0.02373 315:0.02373 319:0.04746 321:0.02373 323:0.02373 325:0.02373 336:0.02373 337:0.02373 340:0.02373 345:0.02373 349:0.02373 353:0.02373 383:0.02373 385:0.02373 392:0.02373 393:0.02373 394:0.02373 397:0.02373 399:0.02373 401:0.04746 416:0.02373 418:0.02373 421:0.02373 422:0.02373 425:0.02373 434:0.02373 442:0.02373 449:0.07119 450:0.02373 452:0.02373 453:0.02373 456:0.02373 458:0.02373 465:0.02373 466:0.04746 468:0.02373 469:0.04746 478:0.02373 484:0.02373 504:0.02373 505:0.04746 507:0.04746 510:0.02373 512:0.02373 514:0.02373 521:0.02373 524:0.02373 547:0.02373 557:0.02373 562:0.04746 569:0.02373 574:0.02373 576:0.04746 577:0.04746 580:0.02373 586:0.04746 587:0.02373 596:0.02373 607:0.02373 611:0.02373 612:0.02373 617:0.02373 624:0.02373 634:0.07119 636:0.02373 655:0.02373 657:0.02373 659:0.02373 665:0.02373 672:0.02373 679:0.02373 682:0.02373 685:0.02373 692:0.02373 708:0.02373 714:0.02373 716:0.02373 718:0.02373 722:0.02373 729:0.02373 730:0.02373 731:0.02373 732:0.02373 737:0.02373 738:0.04746 747:0.02373 753:0.02373 755:0.02373 757:0.02373 762:0.04746 765:0.04746 766:0.02373 767:0.02373 775:0.02373 778:0.02373 784:0.02373 788:0.02373 790:0.04746 792:0.02373 793:0.04746 800:0.02373 805:0.02373 810:0.02373 811:0.02373 818:0.02373 822:0.02373 823:0.02373 828:0.02373 841:0.02373 844:0.02373 846:0.02373 854:0.02373 862:0.02373 865:0.04746 866:0.04746 868:0.09492 869:0.02373 870:0.02373 872:0.02373 877:0.02373 879:0.02373 881:0.02373 885:0.04746 887:0.04746 894:0.02373 906:0.02373 908:0.02373 911:0.02373 914:0.02373 917:0.02373 923:0.02373 929:0.02373 934:0.02373 936:0.02373 940:0.02373 944:0.02373 946:0.02373 947:0.02373 948:0.02373 954:0.02373 960:0.02373 961:0.02373 966:0.02373 968:0.02373 970:0.02373 972:0.02373 975:0.02373 981:0.02373 983:0.02373 985:0.02373 987:0.02373 993:0.02373 995:0.02373 997:0.02373 1000:0.02373 1007:0.04746 1008:0.02373 1009:0.02373 1011:0.02373 1013:0.02373 1020:0.07119 1021:0.04746 1023:0.07119 1024:0.07119 1025:0.07119 1027:0.02373 1028:0.07119 1032:0.02373 1033:0.02373 1034:0.02373 1038:0.02373 1040:0.04746 1041:0.02373 1043:0.02373 1045:0.02373 1050:0.02373 1053:0.02373 1054:0.02373 1068:0.02373 1069:0.04746 1071:0.04746 1074:0.02373 1084:0.04746 1085:0.02373 1086:0.02373 1088:0.04746 1089:0.04746 1090:0.02373 1092:0.04746 1095:0.02373 1104:0.02373 1106:0.02373 1109:0.02373 1111:0.02373 1121:0.02373 1124:0.02373 1125:0.02373 1130:0.02373 1133:0.02373 1137:0.02373 1141:0.02373 1151:0.04746 1155:0.02373 1183:0.09492 1189:0.02373 1192:0.02373 1203:0.02373 1218:0.02373 1220:0.02373 1230:0.02373 1236:0.02373 1240:0.02373 1241:0.02373 1242:0.04746 1244:0.02373 1246:0.02373 1259:0.02373 1261:0.02373 1267:0.02373 1273:0.02373 1274:0.02373 1280:0.02373 1281:0.04746 1282:0.02373 1287:0.02373 1291:0.02373 1292:0.04746 1297:0.04746 1298:0.02373 1302:0.02373 1307:0.02373 1310:0.02373 1335:0.04746 1340:0.02373 1341:0.02373 1344:0.02373 1345:0.02373 1350:0.02373 1351:0.02373 1352:0.02373 1359:0.02373 1362:0.02373 1365:0.02373 1374:0.02373 1378:0.02373 1379:0.02373 1382:0.02373 1392:0.02373 1394:0.02373 1396:0.02373 1399:0.02373 1412:0.02373 1416:0.02373 1418:0.02373 1428:0.02373 1429:0.02373 1430:0.02373 1438:0.02373 1462:0.02373 1463:0.02373 1467:0.02373 1469:0.02373 1477:0.02373 1486:0.04746 1489:0.02373 1494:0.02373 1498:0.02373 1510:0.02373 1512:0.02373 1531:0.02373 1538:0.02373 1539:0.02373 1550:0.02373 1552:0.02373 1553:0.02373 1563:0.02373 1565:0.02373 1566:0.04746 1568:0.02373 1571:0.02373 1572:0.04746 1574:0.02373 1579:0.02373 1585:0.02373 1586:0.07119 1587:0.04746 1588:0.02373 1589:0.02373 1593:0.04746 1595:0.04746 1598:0.02373 1601:0.02373 1602:0.02373 1607:0.02373 1614:0.02373 1617:0.02373 1621:0.02373 1623:0.02373 1624:0.02373 1630:0.02373 1651:0.02373 1653:0.02373 1654:0.02373 1664:0.02373 1666:0.02373 1668:0.02373 1671:0.02373 1674:0.02373 1682:0.02373 1685:0.02373 1699:0.04746 1703:0.02373 1711:0.02373 1714:0.02373 1733:0.02373 1734:0.02373 1742:0.02373 1744:0.02373 1746:0.02373 1751:0.02373 1753:0.02373 1766:0.02373 1767:0.02373 1771:0.02373 1775:0.02373 1776:0.02373 1780:0.02373 1787:0.02373 1789:0.02373 1794:0.04746 1796:0.02373 1800:0.02373 1801:0.02373 1807:0.02373 1808:0.02373 1810:0.02373 1812:0.02373 1821:0.02373 1822:0.02373 1823:0.02373 1831:0.02373 1840:0.02373 1847:0.04746 1856:0.02373 1857:0.02373 1859:0.04746 1860:0.02373 1861:0.02373 1862:0.02373 1870:0.04746 1874:0.04746 1879:0.04746 1882:0.02373 1890:0.02373 1894:0.02373 1896:0.02373 1899:0.02373 1901:0.02373 1902:0.02373 1911:0.02373 1912:0.02373 1934:0.02373 1936:0.02373 1937:0.02373 1944:0.02373 1949:0.04746 1950:0.02373 1983:0.02373 1985:0.02373 1993:0.02373 1998:0.02373 2015:0.02373 2016:0.02373 2019:0.04746 2026:0.04746 2028:0.02373 2039:0.02373 2042:0.02373 2044:0.02373 2046:0.02373 2047:0.02373 2049:0.04746 2051:0.02373 2054:0.02373 2056:0.02373 2060:0.02373 2064:0.02373 2066:0.02373 2080:0.02373 2084:0.02373 2094:0.02373 2103:0.02373 2104:0.02373 2109:0.02373 2111:0.02373 2113:0.02373 2117:0.02373 2147:0.02373 2153:0.02373 2154:0.02373 2161:0.02373 2162:0.02373 2165:0.02373 2166:0.02373 2174:0.02373 2185:0.02373 2188:0.02373 2189:0.04746 2191:0.02373 2192:0.02373 2195:0.02373 2197:0.02373 2201:0.02373 2203:0.02373 2212:0.02373 2215:0.02373 2219:0.02373 2227:0.02373 2231:0.04746 2235:0.02373 2239:0.02373 2240:0.04746 2243:0.02373 2245:0.02373 2246:0.04746 2247:0.02373 2248:0.02373 2251:0.04746 2253:0.02373 2255:0.02373 2259:0.02373 2265:0.02373 2275:0.04746 2276:0.02373 2278:0.02373 2279:0.02373 2282:0.04746 2294:0.02373 2295:0.02373 2303:0.02373 2304:0.04746 2305:0.04746 2307:0.02373 2309:0.02373 2312:0.04746 2317:0.02373 2319:0.02373 2324:0.02373 2330:0.02373 2332:0.02373 2344:0.07119 2346:0.04746 2353:0.02373 2357:0.02373 2358:0.02373 2369:0.02373 2370:0.02373 2371:0.04746 2382:0.04746 2386:0.02373 2392:0.02373 2393:0.02373 2397:0.02373 2414:0.02373 2415:0.02373 2420:0.02373 2422:0.02373 2426:0.04746 2440:0.02373 2441:0.02373 2443:0.02373 2445:0.02373 2447:0.04746 2465:0.04746 2467:0.02373 2473:0.02373 2490:0.02373 2495:0.02373 2496:0.02373 2500:0.02373 2504:0.02373 2508:0.02373 2512:0.02373 2516:0.02373 2518:0.02373 2519:0.02373 2523:0.02373 2524:0.02373 2533:0.02373 2536:0.04746 2544:0.02373 2545:0.02373 2548:0.02373 2559:0.02373 2560:0.02373 2561:0.02373 2565:0.02373 2574:0.02373 2576:0.02373 2587:0.02373 2597:0.02373 2599:0.02373 2602:0.02373 2606:0.02373 2608:0.02373 2612:0.02373 2618:0.02373 2626:0.04746 2631:0.02373 2635:0.02373 2638:0.02373 2641:0.04746 2644:0.02373 2652:0.02373 2658:0.02373 2659:0.02373 2660:0.02373 2665:0.02373 2667:0.02373 2679:0.02373 2688:0.02373 2689:0.02373 2698:0.02373 2699:0.02373 2701:0.02373 2705:0.02373 2713:0.04746 2715:0.02373 2724:0.02373 2725:0.02373 2729:0.02373 2740:0.04746 2745:0.02373 2747:0.02373 2756:0.02373 2759:0.02373 2765:0.02373 2766:0.04746 2787:0.02373 2795:0.02373 2797:0.02373 2809:0.02373 2814:0.02373 2832:0.04746 2836:0.02373 2839:0.02373 2841:0.02373 2844:0.02373 2853:0.02373 2859:0.02373 2861:0.02373 2862:0.02373 2868:0.02373 2871:0.07119 2872:0.04746 2879:0.02373 2885:0.02373 2888:0.04746 2908:0.02373 2915:0.02373 2916:0.04746 2918:0.02373 2923:0.02373 2925:0.02373 2945:0.02373 2949:0.02373 2951:0.02373 2952:0.02373 2956:0.04746 2964:0.02373 2967:0.02373 2969:0.02373 2979:0.04746 2985:0.02373 2986:0.02373 2987:0.02373 2991:0.02373 2995:0.02373 2997:0.02373 3003:0.02373 3006:0.02373 3009:0.02373 3020:0.02373 3023:0.02373 3025:0.02373 3031:0.02373 3041:0.02373 3046:0.04746 3047:0.02373 3050:0.02373 3055:0.02373 3057:0.04746 3059:0.04746 3063:0.02373 3064:0.02373 3067:0.02373 3072:0.04746 3076:0.04746 3077:0.02373 3079:0.02373 3080:0.04746 3088:0.04746 3099:0.02373 3101:0.04746 3105:0.02373 3109:0.04746 3131:0.02373 3134:0.02373 3135:0.02373 3136:0.07119 3142:0.02373 3149:0.02373 3151:0.02373 3152:0.02373 3153:0.02373 3157:0.02373 3160:0.02373 3161:0.02373 3168:0.02373 3170:0.02373 3171:0.02373 3172:0.02373 3183:0.02373 3186:0.02373 3192:0.02373 3193:0.02373 3199:0.04746 3216:0.02373 3217:0.02373 3219:0.04746 3225:0.02373 3237:0.02373 3242:0.02373 3244:0.02373 3251:0.02373 3253:0.02373 3255:0.02373 3257:0.02373 3261:0.04746 3263:0.02373 3264:0.02373 3270:0.02373 3278:0.02373 3286:0.02373 3289:0.11864 3290:0.02373 3292:0.02373 3294:0.04746 3301:0.02373 3309:0.02373 3312:0.02373 3322:0.02373 3328:0.02373 3329:0.04746 3334:0.02373 3340:0.04746 3343:0.02373 3344:0.02373 3345:0.04746 3350:0.02373 3357:0.02373 3360:0.04746 3361:0.02373 3373:0.02373 3383:0.04746 3384:0.02373 3397:0.04746 3408:0.02373 3410:0.02373 3414:0.02373 3418:0.02373 3420:0.02373 3429:0.02373 3430:0.02373 3432:0.02373 3438:0.02373 3445:0.02373 3457:0.02373 3460:0.02373 3461:0.02373 3463:0.02373 3464:0.02373 3465:0.02373 3469:0.11864 3470:0.02373 3471:0.02373 3472:0.02373 3474:0.02373 3478:0.04746 3480:0.02373 3485:0.02373 3486:0.02373 3498:0.02373 3500:0.02373 3501:0.02373 3506:0.02373 3508:0.04746 3509:0.02373 3516:0.04746 3523:0.02373 3537:0.04746 3545:0.02373 3546:0.02373 3548:0.02373 3550:0.02373 3556:0.02373 3571:0.02373 3576:0.02373 3583:0.02373 3585:0.04746 3588:0.02373 3592:0.02373 3602:0.02373 3609:0.02373 3613:0.02373 3620:0.04746 3623:0.02373 3625:0.02373 3630:0.02373 3631:0.02373 3632:0.04746 3639:0.02373 3642:0.02373 3648:0.02373 3652:0.02373 3653:0.02373 3658:0.02373 3661:0.02373 3665:0.02373 3670:0.02373 3676:0.02373 3677:0.02373 3679:0.02373 3684:0.02373 3689:0.02373 3695:0.02373 3696:0.02373 3697:0.02373 3698:0.02373 3700:0.02373 3702:0.02373 3709:0.04746 3716:0.02373 3724:0.04746 3732:0.02373 3733:0.04746 3735:0.02373 3739:0.02373 3742:0.02373 3745:0.02373 3751:0.02373 3755:0.02373 3757:0.02373 3759:0.02373 3761:0.02373 3772:0.02373 3775:0.02373 3776:0.02373 3783:0.02373 3787:0.02373 3788:0.02373 3790:0.02373 3794:0.02373 3801:0.02373 3810:0.02373 3811:0.02373 3813:0.02373 3817:0.04746 3820:0.02373 3822:0.02373 3830:0.02373 3834:0.02373 3836:0.02373 3837:0.02373 3840:0.04746 3841:0.04746 3842:0.04746 3844:0.02373 3848:0.02373 3850:0.02373 3856:0.02373 3861:0.02373 3872:0.02373 3876:0.02373 3877:0.02373 3886:0.02373 3887:0.02373 3888:0.07119 3895:0.02373 3898:0.02373 3900:0.02373 3905:0.02373 3906:0.02373 3908:0.02373 3912:0.02373 3924:0.02373 3925:0.02373 3930:0.04746 3940:0.04746 3948:0.02373 3951:0.02373 3961:0.02373 3965:0.02373 3968:0.02373 3969:0.04746 3970:0.02373 3977:0.04746 3979:0.02373 3980:0.02373 3987:0.02373 3990:0.02373 3992:0.02373 3996:0.04746 3997:0.02373 4000:0.04746 4005:0.02373 4006:0.04746 4007:0.02373 4012:0.02373 4013:0.02373 4016:0.02373 4023:0.02373 4025:0.04746 4027:0.04746 4028:0.02373 4031:0.02373 4032:0.04746 4033:0.04746 4034:0.02373 4035:0.02373 4036:0.02373 4044:0.07119 4049:0.04746 4050:0.02373 4054:0.02373 4057:0.02373 4060:0.02373 4064:0.02373 4065:0.02373 4067:0.02373 4071:0.02373 4072:0.04746 4074:0.02373 4075:0.02373 4076:0.02373 4078:0.02373 4079:0.04746 4080:0.04746 4081:0.04746 4085:0.04746 4086:0.02373 4089:0.04746 4090:0.04746 4091:0.04746 4092:0.02373 4094:0.04746 4095:0.07119 4096:0.1661 
105.9746639680036 1:0.16136 2:0.11526 3:0.06915 4:0.02305 5:0.0461 6:0.02305 8:0.06915 9:0.02305 12:0.0461 13:0.02305 15:0.02305 17:0.0461 19:0.02305 21:0.02305 22:0.02305 23:0.02305 25:0.02305 30:0.0461 31:0.0461 32:0.02305 33:0.02305 34:0.02305 36:0.02305 37:0.02305 41:0.02305 42:0.02305 46:0.0461 47:0.0461 48:0.02305 50:0.02305 51:0.02305 54:0.02305 58:0.02305 60:0.02305 64:0.0461 65:0.02305 66:0.02305 67:0.02305 68:0.02305 73:0.02305 74:0.02305 76:0.02305 80:0.02305 81:0.02305 82:0.02305 83:0.02305 86:0.02305 90:0.02305 91:0.02305 97:0.02305 105:0.02305 113:0.02305 117:0.02305 120:0.0461 123:0.02305 124:0.02305 128:0.02305 129:0.02305 131:0.02305 132:0.02305 134:0.02305 139:0.02305 140:0.02305 142:0.02305 145:0.0461 153:0.02305 156:0.02305 158:0.02305 162:0.02305 165:0.02305 166:0.02305 168:0.02305 174:0.0461 181:0.0922 185:0.02305 186:0.02305 192:0.02305 197:0.02305 198:0.02305 204:0.02305 207:0.02305 212:0.02305 215:0.0461 216:0.02305 227:0.02305 229:0.02305 230:0.02305 234:0.02305 240:0.02305 241:0.02305 244:0.0461 246:0.0461 247:0.0461 250:0.02305 254:0.02305 255:0.02305 259:0.02305 264:0.02305 267:0.02305 269:0.02305 271:0.02305 287:0.02305 290:0.02305 291:0.02305 294:0.0461 300:0.0461 304:0.02305 306:0.02305 308:0.0461 320:0.02305 321:0.02305 322:0.06915 326:0.02305 329:0.06915 330:0.02305 333:0.02305 338:0.02305 341:0.02305 349:0.02305 354:0.02305 360:0.02305 361:0.02305 362:0.02305 366:0.02305 379:0.02305 380:0.0461 381:0.02305 383:0.02305 385:0.02305 388:0.02305 395:0.02305 397:0.02305 398:0.02305 416:0.02305 420:0.02305 429:0.02305 449:0.02305 452:0.02305 457:0.02305 459:0.02305 461:0.02305 464:0.02305 465:0.02305 477:0.02305 480:0.02305 481:0.02305 483:0.02305 489:0.02305 496:0.02305 504:0.02305 506:0.02305 509:0.0461 510:0.02305 512:0.0461 513:0.02305 515:0.02305 524:0.02305 527:0.02305 531:0.02305 533:0.0461 535:0.02305 536:0.02305 539:0.02305 541:0.0461 547:0.0461 549:0.02305 552:0.02305 553:0.02305 560:0.0461 567:0.02305 577:0.0461 579:0.02305 584:0.02305 596:0.02305 606:0.02305 608:0.02305 609:0.02305 618:0.02305 620:0.02305 623:0.02305 626:0.02305 629:0.02305 632:0.02305 633:0.06915 634:0.02305 638:0.02305 644:0.02305 645:0.02305 647:0.02305 648:0.02305 653:0.02305 654:0.02305 656:0.02305 659:0.0461 661:0.02305 665:0.02305 671:0.0461 687:0.02305 689:0.02305 691:0.0461 693:0.02305 696:0.02305 721:0.06915 723:0.02305 724:0.0461 728:0.02305 735:0.0461 739:0.02305 743:0.02305 744:0.02305 749:0.02305 757:0.02305 764:0.02305 765:0.02305 767:0.02305 768:0.06915 769:0.02305 770:0.06915 784:0.0461 786:0.02305 788:0.02305 789:0.0461 790:0.02305 793:0.02305 810:0.02305 814:0.0461 826:0.02305 828:0.0461 829:0.02305 834:0.02305 837:0.02305 845:0.06915 859:0.0461 860:0.02305 862:0.0461 863:0.02305 869:0.02305 877:0.0461 896:0.02305 904:0.0461 907:0.02305 910:0.02305 911:0.02305 912:0.02305 913:0.0461 914:0.02305 919:0.02305 929:0.02305 936:0.02305 942:0.02305 946:0.02305 948:0.02305 953:0.02305 959:0.02305 963:0.0461 966:0.02305 972:0.02305 975:0.0461 981:0.0461 984:0.02305 986:0.02305 988:0.02305 992:0.02305 998:0.02305 1002:0.02305 1007:0.02305 1008:0.02305 1011:0.0461 1015:0.02305 1017:0.02305 1018:0.02305 1023:0.02305 1024:0.02305 1025:0.0461 1028:0.02305 1030:0.02305 1032:0.02305 1033:0.0461 1034:0.02305 1039:0.02305 1040:0.02305 1041:0.0461 1043:0.0461 1044:0.02305 1045:0.02305 1051:0.02305 1054:0.02305 1066:0.0461 1068:0.02305 1070:0.02305 1074:0.02305 1081:0.02305 1082:0.02305 1085:0.02305 1092:0.02305 1099:0.02305 1101:0.02305 1112:0.02305 1128:0.02305 1145:0.0461 1152:0.0461 1157:0.02305 1158:0.0461 1159:0.02305 1160:0.0461 1161:0.02305 1162:0.02305 1169:0.02305 1173:0.02305 1176:0.0461 1181:0.02305 1182:0.02305 1183:0.0461 1188:0.02305 1197:0.06915 1210:0.02305 1212:0.02305 1216:0.0461 1217:0.06915 1220:0.0461 1221:0.02305 1222:0.02305 1231:0.0461 1232:0.02305 1233:0.02305 1236:0.02305 1272:0.02305 1275:0.02305 1276:0.02305 1279:0.02305 1280:0.02305 1281:0.02305 1282:0.02305 1283:0.02305 1285:0.06915 1286:0.02305 1287:0.02305 1295:0.02305 1302:0.02305 1306:0.02305 1314:0.0922 1318:0.02305 1324:0.02305 1328:0.02305 1329:0.02305 1330:0.02305 1342:0.02305 1351:0.02305 1355:0.02305 1363:0.02305 1395:0.02305 1414:0.02305 1426:0.02305 1433:0.02305 1437:0.02305 1438:0.02305 1442:0.02305 1444:0.0461 1446:0.02305 1454:0.02305 1456:0.02305 1464:0.02305 1471:0.02305 1475:0.02305 1478:0.02305 1482:0.02305 1484:0.02305 1486:0.02305 1490:0.02305 1492:0.02305 1500:0.02305 1504:0.02305 1506:0.02305 1515:0.02305 1517:0.02305 1519:0.02305 1523:0.02305 1529:0.0461 1532:0.02305 1534:0.0461 1537:0.02305 1539:0.02305 1540:0.02305 1545:0.02305 1552:0.0461 1557:0.02305 1578:0.02305 1586:0.02305 1590:0.02305 1592:0.02305 1608:0.02305 1610:0.02305 1626:0.02305 1629:0.02305 1633:0.02305 1642:0.02305 1651:0.02305 1653:0.02305 1661:0.0461 1667:0.02305 1670:0.02305 1678:0.02305 1680:0.0461 1684:0.02305 1685:0.02305 1689:0.02305 1713:0.02305 1714:0.02305 1720:0.02305 1725:0.02305 1728:0.02305 1729:0.0461 1742:0.02305 1752:0.02305 1759:0.02305 1771:0.02305 1787:0.02305 1789:0.02305 1796:0.0461 1803:0.02305 1806:0.02305 1816:0.0461 1826:0.02305 1831:0.02305 1833:0.02305 1835:0.02305 1838:0.0461 1841:0.02305 1845:0.02305 1856:0.02305 1859:0.02305 1861:0.02305 1864:0.02305 1866:0.02305 1868:0.02305 1872:0.02305 1902:0.02305 1905:0.02305 1912:0.0461 1914:0.02305 1916:0.02305 1918:0.0461 1922:0.02305 1923:0.02305 1926:0.02305 1928:0.02305 1929:0.02305 1930:0.02305 1937:0.02305 1944:0.0461 1945:0.02305 1953:0.02305 1958:0.02305 1963:0.02305 1966:0.06915 1968:0.02305 1969:0.02305 1974:0.02305 1976:0.02305 1977:0.02305 1983:0.0461 1984:0.02305 1985:0.02305 1988:0.0461 1989:0.02305 1995:0.02305 2003:0.02305 2005:0.02305 2007:0.02305 2010:0.02305 2016:0.02305 2018:0.02305 2019:0.02305 2024:0.02305 2032:0.02305 2033:0.0461 2038:0.02305 2039:0.02305 2040:0.02305 2042:0.02305 2043:0.02305 2044:0.02305 2048:0.06915 2049:0.02305 2050:0.02305 2059:0.0461 2060:0.02305 2064:0.02305 2077:0.02305 2083:0.0461 2085:0.02305 2088:0.02305 2094:0.02305 2102:0.02305 2107:0.02305 2110:0.0922 2121:0.02305 2122:0.02305 2131:0.06915 2132:0.02305 2139:0.02305 2144:0.0461 2147:0.02305 2156:0.02305 2161:0.02305 2163:0.0461 2164:0.0461 2174:0.02305 2175:0.02305 2176:0.0461 2177:0.02305 2185:0.02305 2186:0.02305 2194:0.02305 2203:0.02305 2207:0.02305 2208:0.02305 2212:0.0461 2213:0.02305 2216:0.02305 2239:0.02305 2240:0.0461 2246:0.02305 2247:0.02305 2251:0.02305 2260:0.02305 2263:0.02305 2264:0.02305 2266:0.02305 2268:0.02305 2272:0.02305 2274:0.02305 2277:0.02305 2289:0.02305 2291:0.02305 2294:0.02305 2301:0.02305 2305:0.0461 2307:0.02305 2308:0.02305 2309:0.02305 2316:0.02305 2320:0.02305 2321:0.02305 2335:0.02305 2336:0.02305 2338:0.02305 2339:0.02305 2341:0.02305 2344:0.02305 2356:0.02305 2357:0.02305 2367:0.02305 2368:0.02305 2369:0.02305 2370:0.02305 2372:0.02305 2377:0.02305 2384:0.02305 2385:0.02305 2407:0.02305 2408:0.02305 2412:0.02305 2420:0.02305 2421:0.02305 2423:0.02305 2431:0.0461 2432:0.02305 2433:0.0461 2435:0.02305 2436:0.02305 2446:0.02305 2465:0.02305 2469:0.02305 2471:0.02305 2480:0.02305 2491:0.02305 2502:0.02305 2507:0.02305 2514:0.02305 2515:0.02305 2526:0.02305 2527:0.02305 2529:0.02305 2530:0.02305 2531:0.02305 2534:0.02305 2535:0.02305 2540:0.02305 2542:0.02305 2544:0.02305 2545:0.02305 2546:0.02305 2549:0.02305 2550:0.02305 2559:0.02305 2563:0.02305 2569:0.02305 2570:0.02305 2574:0.02305 2576:0.0461 2579:0.02305 2581:0.02305 2585:0.02305 2589:0.02305 2610:0.02305 2613:0.02305 2615:0.02305 2621:0.02305 2622:0.02305 2624:0.02305 2628:0.02305 2633:0.02305 2634:0.02305 2640:0.02305 2641:0.0461 2643:0.02305 2645:0.02305 2651:0.02305 2656:0.02305 2657:0.0461 2683:0.02305 2684:0.0461 2709:0.02305 2736:0.02305 2740:0.02305 2747:0.02305 2752:0.02305 2753:0.02305 2754:0.02305 2756:0.02305 2757:0.02305 2762:0.02305 2763:0.02305 2766:0.02305 2767:0.02305 2768:0.02305 2771:0.02305 2775:0.02305 2779:0.02305 2781:0.02305 2783:0.0461 2784:0.02305 2796:0.02305 2801:0.02305 2802:0.02305 2811:0.02305 2813:0.02305 2815:0.02305 2816:0.02305 2817:0.0461 2818:0.02305 2822:0.02305 2826:0.02305 2829:0.02305 2836:0.02305 2839:0.02305 2856:0.02305 2857:0.02305 2870:0.02305 2871:0.02305 2875:0.02305 2876:0.02305 2879:0.02305 2880:0.02305 2881:0.0461 2883:0.02305 2890:0.02305 2891:0.02305 2893:0.02305 2894:0.02305 2907:0.02305 2909:0.0461 2912:0.02305 2924:0.02305 2931:0.02305 2938:0.02305 2939:0.0922 2940:0.02305 2944:0.02305 2954:0.02305 2955:0.02305 2957:0.02305 2964:0.02305 2971:0.02305 2974:0.02305 2988:0.02305 2992:0.02305 2996:0.02305 3009:0.02305 3014:0.02305 3027:0.02305 3044:0.02305 3045:0.02305 3049:0.02305 3050:0.02305 3052:0.06915 3056:0.02305 3058:0.02305 3060:0.06915 3065:0.02305 3067:0.02305 3070:0.02305 3072:0.11526 3073:0.11526 3077:0.02305 3078:0.02305 3079:0.02305 3080:0.02305 3084:0.0461 3085:0.02305 3086:0.02305 3093:0.02305 3095:0.02305 3105:0.0461 3111:0.0461 3116:0.02305 3124:0.02305 3125:0.02305 3126:0.02305 3133:0.0461 3135:0.02305 3144:0.02305 3147:0.02305 3149:0.0461 3153:0.06915 3157:0.02305 3161:0.02305 3164:0.02305 3167:0.06915 3169:0.02305 3172:0.0461 3206:0.02305 3212:0.02305 3227:0.02305 3231:0.02305 3233:0.02305 3234:0.0461 3239:0.02305 3244:0.02305 3253:0.0461 3254:0.02305 3256:0.0461 3262:0.02305 3265:0.02305 3276:0.02305 3282:0.02305 3288:0.02305 3292:0.02305 3298:0.02305 3300:0.06915 3301:0.02305 3305:0.02305 3308:0.02305 3309:0.0461 3311:0.02305 3314:0.02305 3324:0.02305 3325:0.02305 3328:0.02305 3330:0.02305 3332:0.02305 3333:0.02305 3339:0.0461 3347:0.02305 3348:0.02305 3360:0.02305 3368:0.06915 3369:0.02305 3375:0.0461 3377:0.0922 3381:0.02305 3391:0.02305 3393:0.02305 3394:0.02305 3404:0.02305 3405:0.02305 3429:0.02305 3433:0.0461 3436:0.02305 3440:0.02305 3441:0.02305 3442:0.02305 3443:0.02305 3445:0.02305 3448:0.02305 3449:0.02305 3456:0.02305 3475:0.02305 3479:0.02305 3480:0.02305 3483:0.02305 3488:0.02305 3501:0.02305 3505:0.0461 3508:0.02305 3510:0.02305 3520:0.02305 3521:0.02305 3532:0.02305 3539:0.02305 3550:0.02305 3551:0.02305 3557:0.02305 3558:0.02305 3562:0.02305 3564:0.06915 3566:0.02305 3568:0.02305 3569:0.0461 3574:0.02305 3575:0.02305 3583:0.0461 3584:0.02305 3592:0.02305 3594:0.02305 3608:0.02305 3613:0.0461 3616:0.0922 3617:0.02305 3623:0.02305 3624:0.02305 3625:0.02305 3626:0.02305 3632:0.02305 3635:0.02305 3638:0.02305 3641:0.02305 3642:0.02305 3645:0.02305 3649:0.0461 3650:0.02305 3653:0.02305 3657:0.02305 3661:0.02305 3662:0.02305 3664:0.02305 3665:0.02305 3674:0.02305 3678:0.02305 3680:0.02305 3684:0.02305 3689:0.02305 3704:0.02305 3706:0.02305 3710:0.02305 3712:0.02305 3713:0.02305 3715:0.02305 3716:0.0461 3729:0.02305 3734:0.02305 3735:0.02305 3736:0.02305 3743:0.02305 3750:0.02305 3756:0.02305 3757:0.02305 3761:0.02305 3764:0.0461 3766:0.02305 3767:0.02305 3768:0.0461 3773:0.02305 3775:0.02305 3776:0.02305 3779:0.02305 3782:0.02305 3791:0.02305 3792:0.02305 3800:0.02305 3807:0.02305 3811:0.02305 3812:0.02305 3813:0.02305 3833:0.02305 3834:0.02305 3835:0.06915 3837:0.02305 3840:0.0461 3841:0.0461 3843:0.0461 3846:0.02305 3849:0.0461 3850:0.02305 3854:0.02305 3856:0.02305 3859:0.02305 3861:0.02305 3863:0.02305 3864:0.02305 3865:0.0461 3875:0.02305 3881:0.02305 3886:0.02305 3888:0.02305 3891:0.02305 3897:0.0922 3899:0.02305 3914:0.02305 3916:0.02305 3921:0.0461 3923:0.02305 3924:0.02305 3930:0.02305 3933:0.02305 3942:0.0461 3943:0.02305 3944:0.02305 3949:0.02305 3952:0.02305 3957:0.02305 3965:0.0461 3968:0.02305 3976:0.06915 3980:0.02305 3983:0.02305 3987:0.02305 3988:0.0461 3989:0.02305 3999:0.02305 4000:0.0461 4001:0.0461 4005:0.02305 4006:0.0461 4010:0.02305 4013:0.06915 4016:0.02305 4026:0.02305 4031:0.0461 4032:0.0461 4033:0.0461 4034:0.02305 4035:0.02305 4038:0.02305 4039:0.0461 4041:0.02305 4044:0.02305 4045:0.02305 4047:0.06915 4053:0.02305 4058:0.0461 4060:0.02305 4062:0.02305 4064:0.02305 4066:0.0461 4069:0.0461 4072:0.0461 4073:0.02305 4074:0.02305 4076:0.02305 4080:0.02305 4081:0.0461 4082:0.0461 4084:0.02305 4087:0.02305 4088:0.02305 4090:0.0461 4091:0.02305 4093:0.11526 4094:0.02305 4095:0.0461 4096:0.16136 
19.57759107118383 1:0.09381 2:0.02345 3:0.07036 4:0.04691 5:0.04691 9:0.02345 10:0.02345 11:0.02345 12:0.04691 13:0.04691 14:0.02345 16:0.07036 17:0.02345 20:0.04691 29:0.04691 30:0.04691 32:0.02345 33:0.02345 39:0.02345 41:0.02345 46:0.02345 48:0.07036 49:0.02345 51:0.02345 52:0.02345 54:0.02345 56:0.04691 61:0.02345 63:0.04691 64:0.04691 65:0.02345 68:0.02345 71:0.02345 74:0.02345 77:0.02345 80:0.02345 101:0.02345 104:0.02345 107:0.02345 108:0.02345 113:0.09381 114:0.02345 117:0.04691 118:0.02345 128:0.07036 129:0.02345 130:0.02345 144:0.02345 145:0.02345 156:0.02345 161:0.02345 173:0.02345 177:0.02345 180:0.02345 183:0.02345 185:0.04691 187:0.02345 189:0.02345 190:0.02345 192:0.02345 195:0.02345 196:0.02345 199:0.02345 202:0.02345 207:0.02345 213:0.02345 217:0.02345 221:0.02345 222:0.02345 224:0.02345 229:0.02345 237:0.02345 239:0.02345 240:0.02345 241:0.02345 242:0.02345 243:0.04691 246:0.02345 247:0.02345 249:0.02345 250:0.02345 252:0.07036 253:0.02345 254:0.02345 256:0.07036 259:0.02345 260:0.02345 261:0.02345 265:0.02345 268:0.02345 272:0.07036 273:0.04691 281:0.04691 296:0.02345 305:0.02345 308:0.04691 311:0.02345 317:0.02345 319:0.04691 325:0.02345 337:0.02345 345:0.02345 353:0.02345 356:0.04691 368:0.02345 383:0.02345 385:0.02345 391:0.02345 392:0.02345 393:0.02345 396:0.02345 397:0.02345 399:0.02345 401:0.04691 416:0.02345 418:0.02345 421:0.02345 422:0.04691 425:0.02345 430:0.02345 434:0.02345 442:0.02345 449:0.07036 450:0.04691 452:0.02345 454:0.02345 456:0.04691 465:0.02345 466:0.04691 469:0.07036 476:0.02345 478:0.02345 489:0.02345 505:0.04691 507:0.04691 508:0.02345 510:0.02345 511:0.02345 512:0.04691 513:0.02345 519:0.02345 530:0.02345 547:0.02345 557:0.02345 562:0.02345 569:0.02345 574:0.02345 576:0.04691 580:0.02345 586:0.02345 587:0.02345 597:0.02345 614:0.02345 617:0.02345 624:0.02345 625:0.02345 626:0.02345 627:0.02345 628:0.02345 629:0.02345 634:0.04691 636:0.02345 644:0.02345 655:0.02345 657:0.02345 659:0.02345 665:0.02345 666:0.02345 679:0.02345 682:0.02345 692:0.02345 708:0.02345 714:0.02345 716:0.04691 717:0.02345 722:0.04691 729:0.02345 730:0.02345 731:0.02345 732:0.02345 737:0.02345 738:0.04691 747:0.02345 753:0.02345 755:0.04691 757:0.02345 762:0.04691 765:0.04691 766:0.02345 767:0.04691 769:0.04691 775:0.02345 777:0.02345 783:0.02345 788:0.02345 791:0.02345 792:0.02345 793:0.04691 800:0.02345 806:0.02345 807:0.02345 808:0.02345 810:0.02345 811:0.02345 818:0.02345 819:0.02345 821:0.02345 822:0.02345 823:0.02345 828:0.04691 832:0.02345 835:0.02345 851:0.02345 854:0.02345 862:0.02345 865:0.04691 866:0.07036 867:0.02345 868:0.04691 869:0.02345 876:0.04691 877:0.02345 878:0.02345 881:0.02345 883:0.02345 885:0.02345 887:0.02345 893:0.02345 902:0.02345 906:0.02345 914:0.02345 917:0.02345 923:0.02345 934:0.02345 946:0.02345 948:0.02345 953:0.02345 954:0.02345 955:0.02345 960:0.04691 961:0.02345 968:0.02345 969:0.04691 970:0.02345 972:0.02345 976:0.02345 983:0.02345 984:0.02345 985:0.02345 987:0.02345 993:0.02345 995:0.02345 997:0.02345 998:0.02345 1000:0.02345 1007:0.04691 1008:0.02345 1009:0.04691 1013:0.02345 1017:0.02345 1020:0.02345 1022:0.02345 1023:0.07036 1024:0.04691 1027:0.02345 1028:0.07036 1032:0.04691 1036:0.02345 1038:0.04691 1041:0.02345 1043:0.02345 1050:0.02345 1053:0.02345 1054:0.02345 1057:0.02345 1068:0.02345 1069:0.04691 1071:0.07036 1074:0.02345 1084:0.04691 1085:0.04691 1086:0.02345 1088:0.04691 1089:0.02345 1090:0.02345 1091:0.02345 1092:0.04691 1095:0.02345 1101:0.02345 1102:0.02345 1104:0.02345 1106:0.02345 1109:0.02345 1111:0.02345 1121:0.02345 1122:0.02345 1125:0.02345 1130:0.04691 1133:0.02345 1137:0.02345 1151:0.07036 1181:0.02345 1183:0.04691 1189:0.02345 1191:0.02345 1203:0.02345 1218:0.02345 1230:0.02345 1232:0.02345 1240:0.02345 1243:0.04691 1244:0.02345 1246:0.02345 1267:0.02345 1268:0.02345 1273:0.02345 1274:0.02345 1281:0.02345 1282:0.02345 1287:0.02345 1291:0.02345 1292:0.04691 1297:0.04691 1298:0.02345 1300:0.02345 1301:0.02345 1302:0.02345 1307:0.02345 1312:0.02345 1325:0.02345 1335:0.02345 1345:0.02345 1349:0.02345 1350:0.02345 1351:0.02345 1352:0.02345 1362:0.02345 1365:0.02345 1374:0.02345 1378:0.02345 1382:0.02345 1392:0.02345 1396:0.02345 1399:0.02345 1410:0.02345 1412:0.02345 1416:0.02345 1423:0.04691 1428:0.02345 1429:0.02345 1430:0.02345 1438:0.02345 1462:0.02345 1463:0.02345 1465:0.02345 1467:0.02345 1469:0.02345 1470:0.02345 1486:0.04691 1489:0.02345 1494:0.02345 1498:0.02345 1510:0.02345 1512:0.02345 1531:0.02345 1536:0.02345 1538:0.02345 1539:0.02345 1543:0.02345 1550:0.02345 1552:0.02345 1553:0.02345 1561:0.02345 1563:0.02345 1565:0.02345 1566:0.04691 1568:0.02345 1571:0.02345 1572:0.02345 1579:0.02345 1582:0.02345 1585:0.04691 1586:0.07036 1587:0.07036 1588:0.02345 1594:0.02345 1595:0.02345 1596:0.02345 1598:0.02345 1601:0.02345 1602:0.02345 1607:0.02345 1614:0.02345 1617:0.02345 1621:0.02345 1624:0.02345 1630:0.02345 1631:0.02345 1652:0.02345 1654:0.02345 1664:0.02345 1666:0.02345 1668:0.02345 1671:0.02345 1674:0.02345 1682:0.02345 1685:0.02345 1687:0.04691 1699:0.04691 1711:0.02345 1714:0.02345 1715:0.02345 1716:0.02345 1717:0.02345 1733:0.02345 1734:0.02345 1742:0.02345 1744:0.02345 1746:0.02345 1751:0.02345 1753:0.02345 1756:0.02345 1762:0.02345 1766:0.02345 1767:0.02345 1771:0.02345 1775:0.02345 1776:0.02345 1780:0.02345 1783:0.02345 1784:0.02345 1787:0.02345 1793:0.04691 1794:0.04691 1800:0.04691 1805:0.02345 1807:0.02345 1808:0.04691 1815:0.02345 1821:0.02345 1822:0.04691 1823:0.02345 1828:0.02345 1832:0.02345 1844:0.02345 1847:0.07036 1856:0.02345 1857:0.02345 1859:0.02345 1860:0.02345 1861:0.02345 1862:0.02345 1870:0.02345 1874:0.07036 1879:0.04691 1882:0.02345 1892:0.02345 1894:0.02345 1901:0.02345 1902:0.02345 1911:0.02345 1912:0.02345 1937:0.02345 1944:0.02345 1949:0.02345 1950:0.02345 1956:0.02345 1983:0.02345 1985:0.02345 2000:0.02345 2019:0.02345 2020:0.02345 2026:0.07036 2030:0.02345 2031:0.02345 2039:0.02345 2044:0.02345 2046:0.02345 2047:0.02345 2048:0.07036 2049:0.04691 2050:0.02345 2051:0.02345 2052:0.02345 2056:0.02345 2060:0.02345 2064:0.02345 2066:0.02345 2074:0.02345 2075:0.02345 2080:0.02345 2103:0.02345 2104:0.02345 2109:0.02345 2111:0.02345 2115:0.02345 2117:0.04691 2140:0.02345 2147:0.02345 2148:0.02345 2153:0.02345 2154:0.02345 2161:0.02345 2162:0.02345 2165:0.02345 2166:0.02345 2167:0.02345 2176:0.02345 2185:0.02345 2188:0.02345 2191:0.02345 2192:0.02345 2195:0.02345 2203:0.02345 2205:0.02345 2212:0.02345 2215:0.02345 2219:0.02345 2227:0.04691 2229:0.02345 2231:0.04691 2239:0.02345 2240:0.04691 2241:0.04691 2245:0.02345 2246:0.04691 2247:0.02345 2250:0.02345 2251:0.04691 2253:0.04691 2255:0.02345 2275:0.02345 2278:0.02345 2279:0.02345 2282:0.02345 2287:0.02345 2294:0.02345 2295:0.02345 2303:0.04691 2304:0.02345 2305:0.02345 2309:0.02345 2312:0.04691 2317:0.02345 2319:0.02345 2320:0.02345 2324:0.02345 2330:0.02345 2332:0.02345 2344:0.04691 2346:0.04691 2358:0.02345 2359:0.02345 2365:0.02345 2369:0.02345 2370:0.02345 2371:0.07036 2382:0.02345 2386:0.04691 2392:0.02345 2397:0.02345 2401:0.02345 2414:0.02345 2415:0.04691 2420:0.02345 2422:0.02345 2426:0.04691 2440:0.02345 2443:0.02345 2445:0.02345 2456:0.02345 2461:0.02345 2465:0.04691 2467:0.02345 2473:0.02345 2490:0.02345 2494:0.02345 2495:0.02345 2497:0.02345 2500:0.02345 2504:0.02345 2505:0.02345 2509:0.02345 2510:0.02345 2512:0.02345 2516:0.02345 2518:0.02345 2519:0.02345 2533:0.02345 2536:0.02345 2544:0.02345 2545:0.02345 2560:0.02345 2561:0.02345 2565:0.02345 2574:0.02345 2576:0.02345 2587:0.02345 2597:0.02345 2599:0.02345 2602:0.02345 2605:0.02345 2606:0.02345 2608:0.02345 2612:0.02345 2618:0.02345 2624:0.02345 2626:0.04691 2628:0.02345 2631:0.02345 2635:0.02345 2638:0.02345 2641:0.04691 2644:0.02345 2649:0.02345 2652:0.04691 2658:0.02345 2659:0.02345 2664:0.02345 2665:0.02345 2667:0.02345 2676:0.02345 2689:0.02345 2698:0.02345 2699:0.02345 2701:0.02345 2705:0.02345 2713:0.02345 2715:0.02345 2717:0.02345 2724:0.02345 2725:0.02345 2729:0.02345 2745:0.02345 2747:0.02345 2759:0.02345 2764:0.02345 2766:0.04691 2772:0.02345 2787:0.02345 2793:0.02345 2795:0.02345 2832:0.02345 2836:0.02345 2839:0.02345 2841:0.02345 2844:0.02345 2856:0.02345 2861:0.02345 2862:0.02345 2864:0.02345 2868:0.02345 2871:0.07036 2872:0.02345 2879:0.02345 2885:0.02345 2887:0.02345 2888:0.04691 2908:0.02345 2916:0.07036 2918:0.02345 2923:0.02345 2925:0.02345 2927:0.02345 2929:0.02345 2945:0.02345 2949:0.02345 2951:0.02345 2952:0.04691 2956:0.04691 2964:0.02345 2967:0.02345 2969:0.02345 2979:0.07036 2985:0.02345 2986:0.04691 2987:0.02345 2991:0.02345 2997:0.02345 3000:0.02345 3003:0.02345 3006:0.02345 3009:0.02345 3020:0.04691 3023:0.02345 3025:0.02345 3031:0.02345 3035:0.02345 3040:0.02345 3046:0.04691 3047:0.02345 3050:0.02345 3055:0.02345 3057:0.02345 3059:0.04691 3063:0.02345 3065:0.02345 3067:0.02345 3070:0.02345 3072:0.02345 3073:0.09381 3077:0.02345 3080:0.04691 3085:0.02345 3088:0.02345 3099:0.02345 3101:0.04691 3104:0.02345 3108:0.02345 3109:0.02345 3121:0.02345 3130:0.02345 3132:0.02345 3134:0.02345 3135:0.04691 3136:0.02345 3149:0.02345 3152:0.02345 3161:0.07036 3168:0.02345 3170:0.02345 3171:0.02345 3172:0.02345 3183:0.02345 3186:0.02345 3190:0.02345 3192:0.02345 3195:0.02345 3199:0.04691 3205:0.02345 3213:0.02345 3216:0.02345 3219:0.02345 3222:0.02345 3226:0.02345 3229:0.04691 3230:0.02345 3231:0.02345 3237:0.02345 3242:0.02345 3251:0.02345 3253:0.02345 3255:0.02345 3257:0.02345 3261:0.04691 3263:0.02345 3264:0.04691 3272:0.02345 3274:0.02345 3278:0.04691 3281:0.02345 3286:0.02345 3289:0.16417 3290:0.02345 3292:0.02345 3293:0.02345 3309:0.02345 3311:0.02345 3312:0.02345 3315:0.02345 3322:0.02345 3325:0.02345 3328:0.04691 3329:0.04691 3330:0.02345 3332:0.02345 3340:0.04691 3343:0.02345 3344:0.02345 3345:0.02345 3348:0.02345 3350:0.02345 3355:0.02345 3357:0.02345 3360:0.04691 3384:0.02345 3397:0.04691 3398:0.02345 3404:0.02345 3410:0.02345 3414:0.02345 3418:0.02345 3420:0.02345 3429:0.02345 3430:0.02345 3432:0.02345 3438:0.02345 3445:0.02345 3456:0.02345 3457:0.02345 3460:0.02345 3461:0.02345 3463:0.02345 3464:0.02345 3465:0.02345 3469:0.16417 3472:0.02345 3474:0.02345 3478:0.02345 3480:0.02345 3494:0.02345 3500:0.02345 3501:0.07036 3506:0.02345 3508:0.04691 3509:0.02345 3511:0.02345 3516:0.04691 3524:0.04691 3530:0.02345 3537:0.02345 3545:0.02345 3548:0.02345 3550:0.02345 3572:0.02345 3580:0.02345 3584:0.02345 3585:0.07036 3588:0.02345 3592:0.02345 3602:0.02345 3607:0.02345 3609:0.02345 3613:0.02345 3614:0.02345 3620:0.02345 3624:0.02345 3625:0.02345 3630:0.02345 3632:0.04691 3636:0.02345 3652:0.02345 3653:0.02345 3658:0.02345 3664:0.02345 3665:0.04691 3670:0.02345 3676:0.02345 3677:0.02345 3679:0.02345 3684:0.02345 3689:0.02345 3695:0.02345 3696:0.02345 3697:0.02345 3702:0.02345 3709:0.02345 3724:0.07036 3728:0.02345 3729:0.02345 3732:0.02345 3733:0.04691 3735:0.02345 3739:0.02345 3745:0.02345 3751:0.02345 3752:0.02345 3755:0.02345 3759:0.02345 3771:0.02345 3783:0.02345 3790:0.02345 3794:0.02345 3801:0.02345 3805:0.02345 3810:0.02345 3811:0.02345 3813:0.02345 3817:0.04691 3819:0.02345 3820:0.02345 3822:0.04691 3830:0.02345 3834:0.02345 3836:0.02345 3837:0.02345 3840:0.04691 3842:0.02345 3844:0.04691 3848:0.02345 3850:0.02345 3856:0.02345 3872:0.02345 3874:0.02345 3876:0.02345 3877:0.02345 3880:0.02345 3886:0.02345 3887:0.02345 3888:0.09381 3895:0.04691 3900:0.02345 3901:0.02345 3904:0.02345 3905:0.07036 3908:0.02345 3912:0.02345 3925:0.02345 3930:0.04691 3936:0.02345 3940:0.04691 3946:0.02345 3948:0.02345 3951:0.02345 3967:0.02345 3968:0.02345 3969:0.07036 3970:0.02345 3977:0.02345 3979:0.02345 3980:0.02345 3981:0.02345 3987:0.02345 3989:0.02345 3990:0.02345 3992:0.02345 3996:0.04691 4000:0.02345 4005:0.04691 4006:0.04691 4007:0.02345 4012:0.02345 4023:0.02345 4025:0.02345 4027:0.04691 4028:0.04691 4031:0.02345 4032:0.02345 4034:0.02345 4035:0.02345 4036:0.02345 4042:0.02345 4044:0.07036 4046:0.04691 4049:0.07036 4050:0.02345 4054:0.02345 4057:0.02345 4060:0.02345 4064:0.02345 4065:0.07036 4067:0.02345 4071:0.02345 4074:0.02345 4075:0.02345 4079:0.02345 4080:0.02345 4083:0.04691 4084:0.04691 4085:0.07036 4086:0.02345 4088:0.02345 4089:0.04691 4090:0.02345 4091:0.02345 4093:0.09381 4094:0.04691 4096:0.09381 
