svm_type c_svc
kernel_type rbf
gamma 0.5
nr_class 2
total_sv 134
rho 0.426893
label 1 -1
nr_sv 61 73
SV
1.143287653638694 2:0.02673 5:0.08018 11:0.02673 12:0.02673 13:0.05345 15:0.02673 18:0.05345 19:0.02673 21:0.02673 24:0.02673 28:0.02673 38:0.05345 43:0.02673 44:0.02673 47:0.02673 48:0.02673 49:0.02673 50:0.02673 52:0.02673 54:0.02673 55:0.02673 59:0.05345 63:0.02673 65:0.02673 69:0.08018 74:0.02673 79:0.05345 81:0.02673 94:0.02673 95:0.02673 109:0.02673 121:0.02673 122:0.02673 125:0.02673 128:0.02673 129:0.08018 134:0.02673 139:0.02673 145:0.02673 149:0.02673 150:0.02673 152:0.02673 159:0.02673 161:0.02673 164:0.02673 165:0.02673 169:0.02673 170:0.02673 172:0.02673 174:0.05345 185:0.02673 187:0.02673 191:0.05345 193:0.02673 196:0.02673 197:0.02673 202:0.02673 205:0.02673 207:0.02673 213:0.02673 215:0.05345 219:0.02673 221:0.02673 222:0.02673 223:0.02673 233:0.02673 235:0.02673 251:0.02673 254:0.02673 258:0.02673 260:0.02673 261:0.02673 265:0.08018 270:0.05345 273:0.02673 275:0.02673 276:0.08018 287:0.02673 289:0.02673 292:0.02673 294:0.02673 295:0.02673 298:0.02673 300:0.02673 303:0.05345 307:0.02673 315:0.02673 316:0.1069 321:0.05345 352:0.02673 357:0.02673 362:0.02673 373:0.02673 374:0.02673 375:0.02673 380:0.02673 382:0.02673 384:0.02673 393:0.02673 413:0.02673 420:0.02673 421:0.02673 436:0.02673 439:0.02673 443:0.02673 448:0.02673 451:0.02673 454:0.02673 458:0.02673 481:0.02673 483:0.02673 486:0.02673 493:0.02673 495:0.02673 499:0.02673 501:0.02673 511:0.02673 512:0.02673 513:0.08018 521:0.02673 535:0.02673 536:0.05345 553:0.05345 554:0.02673 573:0.02673 574:0.02673 575:0.02673 578:0.02673 581:0.05345 593:0.02673 597:0.02673 598:0.02673 606:0.02673 607:0.05345 617:0.02673 619:0.02673 621:0.02673 635:0.02673 638:0.02673 644:0.02673 645:0.08018 649:0.02673 650:0.02673 655:0.02673 657:0.02673 658:0.02673 659:0.02673 661:0.02673 669:0.02673 671:0.02673 672:0.02673 673:0.02673 678:0.02673 683:0.02673 686:0.02673 691:0.02673 693:0.02673 696:0.05345 702:0.02673 704:0.02673 731:0.02673 737:0.05345 741:0.05345 746:0.02673 747:0.02673 750:0.02673 757:0.02673 758:0.02673 761:0.02673 762:0.02673 769:0.02673 781:0.02673 785:0.02673 787:0.02673 796:0.02673 804:0.02673 805:0.02673 807:0.02673 809:0.02673 819:0.02673 820:0.05345 826:0.02673 830:0.02673 832:0.02673 845:0.02673 849:0.02673 858:0.02673 860:0.02673 864:0.02673 873:0.02673 884:0.02673 886:0.02673 892:0.02673 907:0.02673 911:0.02673 921:0.05345 930:0.02673 934:0.02673 939:0.02673 950:0.02673 956:0.08018 957:0.02673 959:0.02673 963:0.02673 967:0.02673 971:0.02673 976:0.02673 982:0.02673 984:0.02673 1003:0.02673 1005:0.02673 1007:0.02673 1014:0.08018 1019:0.02673 1020:0.02673 1021:0.02673 1022:0.05345 1025:0.02673 1026:0.02673 1030:0.05345 1036:0.02673 1037:0.02673 1038:0.02673 1041:0.02673 1042:0.02673 1044:0.02673 1056:0.05345 1057:0.08018 1058:0.02673 1065:0.02673 1067:0.02673 1078:0.02673 1080:0.02673 1088:0.02673 1090:0.02673 1091:0.05345 1092:0.02673 1093:0.02673 1097:0.02673 1099:0.05345 1100:0.02673 1103:0.08018 1130:0.02673 1134:0.02673 1137:0.02673 1138:0.02673 1139:0.02673 1148:0.05345 1150:0.02673 1152:0.02673 1153:0.02673 1155:0.02673 1158:0.02673 1168:0.02673 1174:0.02673 1176:0.02673 1179:0.02673 1184:0.02673 1186:0.02673 1190:0.02673 1192:0.05345 1200:0.02673 1207:0.02673 1210:0.02673 1212:0.02673 1214:0.05345 1226:0.02673 1227:0.02673 1232:0.02673 1236:0.02673 1240:0.02673 1258:0.02673 1263:0.08018 1264:0.05345 1278:0.02673 1280:0.02673 1281:0.05345 1283:0.02673 1284:0.02673 1285:0.02673 1289:0.02673 1291:0.05345 1296:0.02673 1308:0.02673 1309:0.02673 1312:0.02673 1320:0.02673 1321:0.02673 1322:0.02673 1340:0.02673 1344:0.05345 1346:0.02673 1347:0.02673 1348:0.02673 1351:0.02673 1352:0.02673 1360:0.02673 1364:0.02673 1368:0.02673 1373:0.02673 1378:0.02673 1384:0.02673 1393:0.02673 1405:0.02673 1407:0.02673 1408:0.02673 1415:0.02673 1416:0.02673 1424:0.02673 1425:0.02673 1438:0.02673 1439:0.02673 1445:0.02673 1454:0.02673 1463:0.02673 1465:0.02673 1475:0.02673 1476:0.02673 1487:0.02673 1491:0.02673 1492:0.02673 1493:0.02673 1495:0.02673 1497:0.02673 1502:0.05345 1504:0.02673 1505:0.02673 1513:0.02673 1514:0.02673 1519:0.05345 1523:0.02673 1525:0.02673 1526:0.05345 1531:0.05345 1534:0.02673 1536:0.02673 1542:0.02673 1558:0.02673 1559:0.02673 1563:0.02673 1564:0.02673 1567:0.02673 1570:0.02673 1571:0.02673 1580:0.02673 1600:0.02673 1601:0.02673 1613:0.02673 1614:0.02673 1652:0.02673 1654:0.02673 1660:0.02673 1666:0.02673 1675:0.02673 1680:0.05345 1682:0.02673 1683:0.02673 1697:0.05345 1719:0.02673 1720:0.02673 1732:0.02673 1741:0.02673 1749:0.02673 1754:0.02673 1755:0.02673 1762:0.02673 1771:0.02673 1790:0.02673 1803:0.02673 1804:0.02673 1805:0.02673 1811:0.02673 1816:0.02673 1830:0.02673 1839:0.02673 1844:0.02673 1849:0.02673 1852:0.02673 1853:0.02673 1868:0.02673 1870:0.02673 1875:0.02673 1877:0.02673 1881:0.02673 1885:0.02673 1886:0.02673 1890:0.05345 1902:0.02673 1910:0.02673 1911:0.02673 1918:0.02673 1922:0.02673 1923:0.02673 1925:0.02673 1931:0.02673 1938:0.02673 1943:0.02673 1944:0.02673 1953:0.02673 1955:0.02673 1958:0.02673 1971:0.02673 1972:0.02673 1973:0.02673 1978:0.08018 1980:0.02673 1984:0.02673 1988:0.02673 1990:0.02673 1995:0.02673 1996:0.02673 2001:0.02673 2002:0.02673 2003:0.02673 2005:0.02673 2006:0.02673 2015:0.02673 2025:0.05345 2027:0.02673 2030:0.02673 2031:0.05345 2033:0.02673 2038:0.05345 2043:0.02673 2046:0.05345 2051:0.05345 2052:0.05345 2055:0.02673 2058:0.02673 2059:0.02673 2062:0.02673 2063:0.02673 2064:0.02673 2072:0.02673 2079:0.05345 2083:0.02673 2088:0.02673 2089:0.02673 2090:0.02673 2092:0.02673 2095:0.02673 2100:0.02673 2104:0.02673 2113:0.02673 2115:0.02673 2120:0.02673 2122:0.02673 2125:0.02673 2136:0.02673 2138:0.02673 2139:0.02673 2142:0.02673 2144:0.05345 2147:0.02673 2153:0.02673 2159:0.02673 2169:0.02673 2182:0.02673 2187:0.05345 2192:0.02673 2203:0.02673 2210:0.05345 2211:0.02673 2213:0.02673 2216:0.02673 2221:0.02673 2222:0.02673 2224:0.02673 2275:0.02673 2279:0.02673 2289:0.02673 2290:0.02673 2294:0.02673 2300:0.05345 2302:0.02673 2303:0.02673 2306:0.02673 2309:0.02673 2312:0.02673 2321:0.08018 2322:0.02673 2323:0.08018 2333:0.02673 2335:0.02673 2337:0.02673 2342:0.02673 2352:0.02673 2356:0.02673 2357:0.02673 2369:0.02673 2376:0.02673 2379:0.02673 2383:0.02673 2386:0.02673 2389:0.02673 2400:0.02673 2412:0.02673 2415:0.02673 2417:0.02673 2421:0.02673 2424:0.02673 2425:0.02673 2427:0.02673 2428:0.02673 2430:0.02673 2434:0.02673 2439:0.02673 2468:0.02673 2473:0.02673 2478:0.02673 2481:0.02673 2501:0.02673 2508:0.02673 2511:0.02673 2512:0.02673 2520:0.02673 2533:0.02673 2537:0.02673 2542:0.02673 2544:0.02673 2545:0.02673 2546:0.02673 2549:0.02673 2557:0.02673 2558:0.02673 2561:0.02673 2563:0.05345 2564:0.08018 2568:0.02673 2571:0.05345 2573:0.02673 2574:0.02673 2577:0.05345 2578:0.02673 2580:0.02673 2585:0.02673 2595:0.02673 2596:0.02673 2599:0.02673 2601:0.02673 2604:0.02673 2617:0.02673 2621:0.02673 2623:0.02673 2624:0.02673 2626:0.02673 2629:0.05345 2633:0.02673 2636:0.02673 2642:0.02673 2643:0.02673 2644:0.02673 2648:0.02673 2655:0.02673 2675:0.02673 2682:0.02673 2684:0.02673 2685:0.02673 2688:0.05345 2689:0.13363 2691:0.02673 2692:0.02673 2697:0.02673 2709:0.02673 2719:0.02673 2720:0.02673 2721:0.02673 2728:0.02673 2729:0.02673 2743:0.02673 2755:0.02673 2764:0.02673 2770:0.02673 2777:0.05345 2782:0.02673 2783:0.02673 2784:0.02673 2807:0.02673 2815:0.05345 2821:0.02673 2826:0.02673 2830:0.02673 2853:0.02673 2863:0.02673 2866:0.05345 2880:0.02673 2887:0.02673 2889:0.02673 2897:0.02673 2900:0.02673 2910:0.05345 2911:0.02673 2915:0.05345 2917:0.02673 2921:0.02673 2923:0.02673 2935:0.02673 2937:0.02673 2943:0.02673 2945:0.02673 2947:0.02673 2950:0.02673 2962:0.1069 2963:0.02673 2967:0.02673 2968:0.02673 2973:0.05345 2982:0.02673 2985:0.02673 2986:0.02673 2993:0.02673 2998:0.02673 3002:0.02673 3007:0.02673 3008:0.05345 3013:0.02673 3027:0.02673 3031:0.02673 3034:0.02673 3041:0.02673 3046:0.02673 3048:0.02673 3051:0.02673 3055:0.02673 3061:0.02673 3066:0.02673 3068:0.02673 3069:0.02673 3071:0.02673 3072:0.02673 3074:0.02673 3076:0.02673 3082:0.02673 3092:0.02673 3109:0.02673 3110:0.02673 3115:0.02673 3120:0.02673 3121:0.02673 3123:0.02673 3126:0.02673 3128:0.02673 3140:0.02673 3141:0.02673 3145:0.02673 3148:0.02673 3153:0.02673 3166:0.02673 3176:0.02673 3184:0.02673 3216:0.02673 3218:0.05345 3224:0.02673 3228:0.02673 3235:0.02673 3237:0.02673 3243:0.02673 3257:0.02673 3258:0.02673 3259:0.02673 3269:0.02673 3271:0.02673 3273:0.02673 3277:0.05345 3280:0.02673 3300:0.02673 3303:0.02673 3310:0.02673 3315:0.02673 3316:0.02673 3318:0.02673 3327:0.02673 3328:0.05345 3336:0.02673 3355:0.02673 3357:0.02673 3360:0.02673 3362:0.02673 3370:0.02673 3374:0.02673 3376:0.02673 3379:0.02673 3382:0.02673 3393:0.02673 3395:0.05345 3402:0.02673 3403:0.02673 3408:0.02673 3409:0.08018 3410:0.02673 3414:0.02673 3417:0.02673 3418:0.02673 3424:0.02673 3426:0.02673 3428:0.02673 3432:0.02673 3438:0.02673 3444:0.02673 3446:0.02673 3448:0.05345 3451:0.02673 3454:0.02673 3455:0.02673 3462:0.05345 3465:0.02673 3467:0.02673 3476:0.05345 3489:0.02673 3491:0.02673 3497:0.02673 3510:0.02673 3533:0.02673 3542:0.02673 3544:0.02673 3545:0.02673 3548:0.02673 3554:0.02673 3558:0.02673 3565:0.02673 3567:0.02673 3576:0.02673 3579:0.02673 3580:0.08018 3586:0.02673 3592:0.02673 3594:0.02673 3595:0.02673 3596:0.02673 3603:0.02673 3608:0.02673 3626:0.02673 3628:0.02673 3642:0.02673 3653:0.08018 3656:0.05345 3658:0.02673 3675:0.02673 3676:0.02673 3677:0.02673 3678:0.02673 3680:0.02673 3681:0.02673 3682:0.02673 3692:0.02673 3698:0.02673 3700:0.02673 3709:0.02673 3713:0.02673 3715:0.02673 3717:0.02673 3719:0.02673 3723:0.02673 3728:0.02673 3733:0.05345 3734:0.02673 3736:0.02673 3744:0.02673 3745:0.08018 3747:0.02673 3752:0.02673 3754:0.02673 3761:0.02673 3776:0.02673 3778:0.02673 3786:0.02673 3789:0.02673 3792:0.02673 3795:0.02673 3797:0.02673 3800:0.08018 3813:0.08018 3814:0.05345 3816:0.05345 3821:0.02673 3823:0.02673 3824:0.08018 3826:0.02673 3834:0.02673 3835:0.02673 3836:0.02673 3840:0.08018 3841:0.02673 3843:0.02673 3850:0.02673 3854:0.02673 3858:0.02673 3861:0.02673 3866:0.02673 3882:0.02673 3883:0.02673 3887:0.02673 3901:0.02673 3904:0.02673 3906:0.02673 3912:0.05345 3915:0.02673 3916:0.02673 3921:0.02673 3923:0.02673 3925:0.08018 3926:0.02673 3927:0.05345 3928:0.02673 3929:0.02673 3936:0.02673 3941:0.02673 3962:0.02673 3964:0.02673 3967:0.08018 3971:0.02673 3992:0.02673 3995:0.02673 4000:0.02673 4001:0.02673 4002:0.02673 4004:0.02673 4008:0.02673 4009:0.08018 4013:0.02673 4016:0.02673 4020:0.02673 4022:0.05345 4026:0.08018 4028:0.02673 4031:0.02673 4033:0.05345 4048:0.02673 4050:0.02673 4053:0.02673 4054:0.13363 4063:0.02673 4064:0.08018 4071:0.02673 4073:0.02673 4074:0.02673 4076:0.05345 4078:0.02673 4080:0.02673 4081:0.02673 4084:0.02673 4086:0.02673 4088:0.08018 4091:0.05345 4095:0.02673 
0.06266582222558342 2:0.02339 3:0.04678 5:0.07017 8:0.02339 10:0.04678 11:0.02339 12:0.02339 17:0.04678 18:0.04678 19:0.02339 20:0.07017 22:0.02339 28:0.02339 30:0.02339 34:0.02339 37:0.02339 38:0.02339 40:0.02339 41:0.02339 43:0.02339 46:0.02339 53:0.02339 59:0.02339 60:0.02339 62:0.04678 64:0.09356 65:0.04678 69:0.02339 72:0.02339 74:0.02339 77:0.02339 79:0.04678 80:0.02339 81:0.02339 85:0.02339 89:0.02339 97:0.02339 101:0.02339 109:0.02339 110:0.02339 117:0.02339 120:0.02339 127:0.02339 133:0.02339 135:0.02339 145:0.02339 147:0.02339 150:0.02339 154:0.02339 155:0.02339 159:0.04678 160:0.04678 162:0.04678 164:0.02339 165:0.04678 169:0.02339 174:0.02339 175:0.02339 183:0.02339 185:0.02339 186:0.02339 187:0.02339 190:0.02339 196:0.02339 207:0.02339 209:0.04678 211:0.02339 212:0.02339 219:0.02339 235:0.02339 240:0.02339 246:0.07017 250:0.02339 253:0.04678 254:0.07017 255:0.02339 257:0.04678 260:0.02339 268:0.02339 274:0.02339 276:0.02339 280:0.02339 286:0.02339 296:0.02339 308:0.02339 311:0.02339 314:0.02339 316:0.04678 320:0.02339 323:0.02339 328:0.02339 337:0.02339 338:0.02339 339:0.02339 353:0.02339 355:0.02339 357:0.02339 373:0.02339 379:0.02339 383:0.04678 385:0.02339 403:0.02339 404:0.02339 406:0.02339 410:0.02339 426:0.02339 433:0.02339 438:0.02339 447:0.02339 448:0.02339 452:0.02339 466:0.02339 473:0.02339 474:0.02339 475:0.02339 479:0.02339 486:0.02339 488:0.02339 490:0.07017 499:0.02339 506:0.04678 508:0.02339 512:0.02339 513:0.02339 522:0.02339 523:0.02339 529:0.02339 538:0.02339 547:0.04678 553:0.02339 560:0.02339 566:0.02339 567:0.02339 570:0.02339 577:0.02339 578:0.02339 579:0.02339 581:0.02339 586:0.04678 588:0.02339 594:0.02339 599:0.02339 602:0.02339 613:0.02339 617:0.02339 618:0.02339 625:0.02339 631:0.04678 633:0.02339 634:0.02339 636:0.02339 638:0.02339 639:0.02339 640:0.02339 641:0.04678 644:0.02339 645:0.02339 647:0.02339 648:0.02339 654:0.02339 655:0.02339 657:0.02339 658:0.02339 659:0.02339 673:0.02339 682:0.02339 689:0.02339 693:0.02339 697:0.02339 700:0.02339 723:0.02339 728:0.02339 730:0.02339 739:0.02339 742:0.09356 743:0.02339 746:0.04678 748:0.02339 752:0.02339 758:0.02339 762:0.02339 768:0.02339 775:0.02339 782:0.02339 785:0.02339 825:0.02339 826:0.02339 828:0.02339 831:0.02339 834:0.02339 835:0.02339 836:0.02339 843:0.02339 845:0.02339 851:0.02339 858:0.02339 863:0.02339 864:0.02339 869:0.02339 871:0.02339 874:0.02339 881:0.02339 890:0.02339 891:0.02339 897:0.02339 905:0.02339 907:0.02339 912:0.02339 913:0.02339 921:0.04678 923:0.02339 924:0.02339 938:0.04678 954:0.02339 956:0.02339 959:0.02339 960:0.07017 961:0.02339 972:0.02339 976:0.02339 981:0.02339 982:0.04678 983:0.02339 984:0.02339 996:0.02339 998:0.02339 1009:0.04678 1014:0.07017 1015:0.02339 1018:0.02339 1019:0.02339 1020:0.02339 1025:0.02339 1026:0.02339 1029:0.07017 1035:0.02339 1039:0.04678 1040:0.02339 1044:0.02339 1052:0.02339 1054:0.02339 1061:0.02339 1064:0.02339 1065:0.02339 1066:0.02339 1068:0.04678 1071:0.04678 1072:0.02339 1076:0.02339 1086:0.02339 1093:0.02339 1102:0.02339 1103:0.02339 1106:0.02339 1109:0.04678 1113:0.02339 1114:0.02339 1118:0.02339 1120:0.02339 1125:0.02339 1126:0.02339 1143:0.07017 1146:0.02339 1147:0.07017 1149:0.02339 1151:0.04678 1155:0.02339 1164:0.02339 1166:0.02339 1167:0.02339 1169:0.04678 1171:0.02339 1173:0.02339 1175:0.02339 1181:0.02339 1184:0.04678 1185:0.04678 1186:0.02339 1188:0.02339 1195:0.02339 1197:0.02339 1205:0.02339 1210:0.07017 1211:0.02339 1218:0.02339 1231:0.04678 1232:0.02339 1237:0.02339 1239:0.02339 1240:0.02339 1242:0.02339 1247:0.02339 1251:0.02339 1255:0.02339 1259:0.02339 1263:0.02339 1264:0.04678 1279:0.04678 1282:0.04678 1284:0.02339 1291:0.04678 1301:0.02339 1302:0.02339 1303:0.04678 1306:0.04678 1310:0.02339 1311:0.02339 1312:0.02339 1315:0.02339 1316:0.02339 1317:0.02339 1321:0.02339 1323:0.02339 1324:0.02339 1327:0.07017 1337:0.02339 1344:0.02339 1345:0.04678 1347:0.02339 1350:0.07017 1351:0.04678 1353:0.02339 1355:0.02339 1359:0.02339 1360:0.02339 1361:0.02339 1365:0.02339 1375:0.02339 1382:0.07017 1386:0.02339 1387:0.04678 1390:0.02339 1403:0.02339 1408:0.02339 1409:0.02339 1410:0.02339 1420:0.02339 1424:0.02339 1425:0.02339 1426:0.02339 1428:0.02339 1429:0.04678 1430:0.07017 1431:0.02339 1438:0.02339 1440:0.02339 1446:0.02339 1449:0.04678 1450:0.02339 1463:0.02339 1490:0.02339 1492:0.02339 1502:0.02339 1508:0.02339 1510:0.02339 1511:0.02339 1514:0.04678 1515:0.02339 1523:0.02339 1528:0.02339 1530:0.04678 1531:0.04678 1535:0.02339 1536:0.02339 1538:0.09356 1540:0.02339 1542:0.02339 1563:0.02339 1568:0.02339 1576:0.04678 1583:0.07017 1592:0.02339 1596:0.02339 1597:0.02339 1603:0.04678 1608:0.02339 1611:0.02339 1613:0.04678 1614:0.02339 1615:0.02339 1617:0.02339 1618:0.02339 1621:0.07017 1622:0.02339 1623:0.04678 1626:0.02339 1633:0.04678 1634:0.02339 1636:0.02339 1638:0.02339 1646:0.02339 1653:0.02339 1662:0.04678 1665:0.02339 1666:0.02339 1667:0.02339 1668:0.02339 1673:0.02339 1679:0.02339 1685:0.02339 1686:0.02339 1691:0.02339 1695:0.02339 1697:0.07017 1702:0.02339 1703:0.04678 1704:0.02339 1723:0.04678 1725:0.02339 1730:0.02339 1752:0.02339 1754:0.02339 1760:0.02339 1771:0.04678 1778:0.02339 1780:0.02339 1785:0.02339 1790:0.02339 1803:0.02339 1804:0.02339 1805:0.02339 1858:0.02339 1862:0.02339 1864:0.02339 1865:0.02339 1866:0.04678 1870:0.02339 1871:0.02339 1881:0.02339 1889:0.02339 1891:0.04678 1893:0.02339 1900:0.02339 1910:0.02339 1912:0.04678 1915:0.02339 1928:0.02339 1929:0.02339 1930:0.04678 1936:0.02339 1937:0.02339 1941:0.02339 1942:0.02339 1944:0.02339 1948:0.02339 1950:0.02339 1951:0.02339 1952:0.02339 1953:0.02339 1956:0.02339 1957:0.07017 1958:0.04678 1961:0.02339 1964:0.02339 1984:0.02339 1993:0.02339 1994:0.02339 2006:0.04678 2007:0.02339 2014:0.02339 2015:0.02339 2017:0.02339 2020:0.02339 2022:0.02339 2023:0.04678 2024:0.02339 2027:0.02339 2028:0.02339 2030:0.02339 2037:0.04678 2042:0.02339 2046:0.04678 2048:0.04678 2049:0.04678 2050:0.02339 2051:0.04678 2053:0.04678 2054:0.02339 2055:0.02339 2057:0.02339 2058:0.02339 2062:0.02339 2064:0.07017 2069:0.02339 2080:0.02339 2082:0.02339 2087:0.04678 2088:0.02339 2090:0.02339 2101:0.04678 2111:0.02339 2112:0.04678 2115:0.02339 2118:0.02339 2144:0.02339 2151:0.02339 2155:0.02339 2160:0.02339 2161:0.02339 2170:0.02339 2176:0.02339 2177:0.02339 2179:0.02339 2185:0.04678 2187:0.02339 2194:0.02339 2195:0.02339 2203:0.02339 2206:0.04678 2209:0.02339 2213:0.02339 2223:0.02339 2234:0.02339 2235:0.02339 2236:0.02339 2239:0.02339 2240:0.02339 2245:0.02339 2264:0.02339 2266:0.02339 2269:0.02339 2271:0.02339 2273:0.02339 2275:0.02339 2277:0.02339 2279:0.02339 2287:0.02339 2289:0.02339 2292:0.02339 2294:0.04678 2302:0.02339 2306:0.02339 2307:0.02339 2308:0.02339 2312:0.02339 2315:0.04678 2316:0.04678 2320:0.02339 2324:0.02339 2334:0.02339 2335:0.07017 2336:0.02339 2340:0.02339 2342:0.04678 2344:0.02339 2345:0.04678 2350:0.02339 2351:0.02339 2353:0.02339 2356:0.02339 2358:0.02339 2360:0.02339 2364:0.02339 2369:0.02339 2374:0.02339 2376:0.04678 2379:0.04678 2380:0.07017 2385:0.02339 2386:0.04678 2388:0.04678 2392:0.02339 2394:0.04678 2395:0.02339 2396:0.02339 2404:0.02339 2405:0.02339 2408:0.02339 2411:0.02339 2421:0.02339 2430:0.02339 2431:0.02339 2433:0.04678 2439:0.02339 2440:0.02339 2444:0.02339 2446:0.02339 2447:0.02339 2449:0.02339 2454:0.02339 2460:0.02339 2464:0.02339 2465:0.09356 2468:0.02339 2471:0.02339 2472:0.02339 2473:0.02339 2474:0.04678 2479:0.02339 2488:0.02339 2491:0.04678 2493:0.02339 2499:0.02339 2513:0.02339 2515:0.04678 2521:0.04678 2530:0.02339 2531:0.04678 2533:0.02339 2536:0.04678 2537:0.02339 2544:0.02339 2550:0.04678 2552:0.02339 2553:0.04678 2558:0.02339 2560:0.04678 2561:0.09356 2564:0.07017 2568:0.02339 2569:0.02339 2570:0.04678 2574:0.04678 2576:0.07017 2578:0.02339 2588:0.02339 2589:0.02339 2595:0.02339 2616:0.02339 2617:0.04678 2618:0.02339 2627:0.02339 2628:0.02339 2632:0.09356 2633:0.02339 2635:0.02339 2636:0.02339 2643:0.04678 2645:0.02339 2647:0.02339 2649:0.02339 2651:0.02339 2658:0.02339 2663:0.02339 2665:0.07017 2667:0.07017 2671:0.02339 2682:0.04678 2688:0.02339 2689:0.09356 2691:0.04678 2692:0.04678 2707:0.02339 2709:0.02339 2711:0.02339 2713:0.02339 2714:0.02339 2715:0.07017 2716:0.02339 2720:0.02339 2721:0.02339 2727:0.02339 2729:0.02339 2745:0.02339 2747:0.02339 2752:0.02339 2754:0.02339 2770:0.02339 2786:0.02339 2787:0.02339 2794:0.02339 2795:0.07017 2798:0.02339 2802:0.02339 2807:0.02339 2814:0.02339 2822:0.02339 2823:0.02339 2869:0.02339 2886:0.02339 2890:0.02339 2911:0.02339 2912:0.04678 2918:0.02339 2919:0.02339 2942:0.02339 2944:0.02339 2950:0.02339 2955:0.02339 2956:0.02339 2965:0.04678 2968:0.02339 2971:0.02339 2974:0.02339 2981:0.02339 2983:0.02339 2984:0.02339 2985:0.04678 2986:0.04678 2988:0.02339 2991:0.02339 2998:0.02339 3004:0.02339 3008:0.04678 3014:0.02339 3015:0.02339 3023:0.02339 3031:0.02339 3035:0.02339 3043:0.02339 3044:0.02339 3048:0.02339 3063:0.09356 3066:0.02339 3067:0.04678 3069:0.02339 3070:0.02339 3071:0.02339 3072:0.02339 3074:0.02339 3088:0.04678 3095:0.02339 3097:0.02339 3098:0.02339 3113:0.02339 3119:0.02339 3121:0.02339 3125:0.02339 3127:0.02339 3137:0.02339 3167:0.02339 3184:0.02339 3214:0.02339 3231:0.02339 3254:0.02339 3281:0.02339 3300:0.02339 3303:0.04678 3312:0.02339 3315:0.02339 3321:0.02339 3333:0.02339 3335:0.02339 3338:0.04678 3341:0.02339 3350:0.02339 3352:0.02339 3360:0.02339 3361:0.02339 3365:0.04678 3368:0.02339 3369:0.02339 3380:0.02339 3382:0.04678 3387:0.02339 3401:0.02339 3402:0.02339 3410:0.04678 3411:0.02339 3414:0.02339 3418:0.02339 3419:0.04678 3424:0.02339 3425:0.02339 3429:0.02339 3430:0.07017 3432:0.02339 3448:0.02339 3449:0.02339 3450:0.04678 3451:0.02339 3453:0.02339 3455:0.02339 3456:0.02339 3457:0.02339 3466:0.04678 3468:0.02339 3476:0.04678 3478:0.02339 3481:0.09356 3491:0.02339 3494:0.02339 3503:0.02339 3504:0.02339 3517:0.02339 3523:0.02339 3539:0.02339 3540:0.02339 3543:0.02339 3550:0.04678 3555:0.02339 3558:0.02339 3561:0.02339 3563:0.02339 3574:0.02339 3582:0.02339 3587:0.04678 3608:0.02339 3615:0.02339 3617:0.04678 3621:0.04678 3623:0.02339 3626:0.02339 3628:0.02339 3632:0.02339 3634:0.02339 3645:0.02339 3646:0.04678 3648:0.02339 3649:0.04678 3658:0.02339 3662:0.02339 3666:0.02339 3667:0.07017 3669:0.02339 3678:0.02339 3680:0.04678 3683:0.02339 3684:0.02339 3688:0.02339 3689:0.02339 3690:0.02339 3692:0.02339 3695:0.02339 3696:0.02339 3701:0.04678 3705:0.04678 3707:0.02339 3711:0.02339 3712:0.02339 3716:0.02339 3727:0.02339 3729:0.02339 3730:0.04678 3731:0.02339 3734:0.02339 3735:0.02339 3739:0.04678 3743:0.02339 3745:0.07017 3749:0.02339 3750:0.02339 3751:0.07017 3755:0.02339 3759:0.04678 3760:0.02339 3771:0.02339 3774:0.02339 3790:0.02339 3800:0.02339 3808:0.02339 3816:0.02339 3823:0.02339 3824:0.02339 3833:0.02339 3838:0.04678 3839:0.07017 3840:0.07017 3841:0.02339 3844:0.04678 3854:0.02339 3864:0.02339 3868:0.02339 3876:0.02339 3880:0.02339 3886:0.02339 3898:0.02339 3901:0.02339 3907:0.02339 3918:0.02339 3923:0.02339 3925:0.07017 3926:0.02339 3927:0.07017 3928:0.02339 3930:0.09356 3934:0.02339 3935:0.04678 3939:0.02339 3943:0.04678 3945:0.02339 3948:0.02339 3952:0.02339 3957:0.04678 3961:0.02339 3969:0.02339 3978:0.02339 3981:0.02339 3984:0.04678 3987:0.02339 3988:0.02339 3989:0.02339 3992:0.02339 3994:0.02339 3995:0.02339 3999:0.04678 4000:0.02339 4007:0.02339 4010:0.02339 4011:0.02339 4012:0.02339 4016:0.02339 4020:0.02339 4024:0.02339 4032:0.04678 4033:0.04678 4036:0.02339 4049:0.02339 4052:0.02339 4054:0.09356 4055:0.02339 4056:0.04678 4057:0.02339 4058:0.04678 4059:0.02339 4060:0.02339 4062:0.02339 4069:0.04678 4072:0.02339 4074:0.02339 4075:0.04678 4077:0.02339 4080:0.04678 4081:0.02339 4086:0.09356 4088:0.02339 4092:0.04678 4094:0.04678 4095:0.02339 
0.008400281800273754 2:0.05392 3:0.02696 5:0.02696 6:0.02696 7:0.02696 9:0.02696 15:0.02696 18:0.05392 21:0.05392 22:0.02696 27:0.02696 29:0.02696 30:0.02696 31:0.05392 34:0.02696 38:0.02696 40:0.02696 41:0.02696 48:0.02696 54:0.02696 55:0.02696 59:0.02696 60:0.02696 69:0.08087 79:0.02696 81:0.05392 87:0.05392 88:0.02696 91:0.02696 92:0.02696 95:0.02696 106:0.02696 107:0.02696 108:0.02696 113:0.02696 118:0.02696 121:0.08087 125:0.02696 128:0.02696 133:0.02696 145:0.02696 149:0.02696 150:0.02696 159:0.02696 161:0.05392 163:0.02696 164:0.05392 187:0.02696 189:0.02696 191:0.02696 193:0.02696 208:0.10783 211:0.02696 213:0.08087 215:0.02696 216:0.02696 217:0.02696 220:0.02696 235:0.02696 239:0.05392 243:0.02696 252:0.02696 258:0.05392 262:0.08087 270:0.02696 272:0.02696 273:0.05392 274:0.02696 275:0.02696 276:0.08087 283:0.02696 298:0.02696 300:0.02696 313:0.02696 316:0.10783 318:0.02696 320:0.02696 321:0.02696 322:0.02696 324:0.02696 327:0.02696 345:0.02696 346:0.05392 349:0.02696 354:0.02696 363:0.02696 367:0.02696 368:0.02696 376:0.02696 377:0.02696 378:0.05392 380:0.02696 390:0.02696 400:0.02696 401:0.02696 406:0.02696 413:0.02696 418:0.02696 421:0.02696 425:0.05392 430:0.02696 432:0.02696 449:0.02696 451:0.02696 470:0.05392 481:0.02696 482:0.02696 483:0.02696 499:0.02696 511:0.02696 530:0.02696 538:0.02696 554:0.02696 556:0.02696 578:0.02696 587:0.02696 593:0.02696 594:0.02696 598:0.02696 599:0.02696 603:0.02696 609:0.02696 616:0.05392 621:0.02696 629:0.02696 633:0.02696 635:0.02696 640:0.02696 641:0.05392 646:0.02696 650:0.02696 654:0.02696 656:0.02696 658:0.05392 673:0.02696 677:0.02696 678:0.02696 683:0.02696 688:0.02696 693:0.08087 697:0.02696 702:0.02696 731:0.02696 741:0.02696 746:0.02696 755:0.02696 758:0.02696 762:0.02696 766:0.08087 767:0.02696 769:0.02696 807:0.02696 829:0.02696 830:0.02696 831:0.05392 841:0.02696 849:0.02696 850:0.02696 852:0.02696 857:0.02696 864:0.05392 865:0.02696 875:0.02696 879:0.02696 902:0.02696 932:0.02696 939:0.02696 950:0.02696 953:0.02696 955:0.02696 956:0.08087 957:0.02696 963:0.02696 965:0.02696 967:0.02696 970:0.05392 971:0.02696 978:0.02696 982:0.02696 987:0.02696 998:0.02696 999:0.02696 1004:0.02696 1005:0.02696 1007:0.02696 1009:0.02696 1011:0.02696 1014:0.02696 1021:0.02696 1025:0.02696 1026:0.02696 1029:0.02696 1030:0.05392 1032:0.02696 1036:0.02696 1042:0.02696 1046:0.05392 1047:0.05392 1051:0.02696 1056:0.02696 1076:0.05392 1077:0.02696 1078:0.02696 1085:0.02696 1089:0.05392 1090:0.05392 1092:0.02696 1093:0.05392 1099:0.05392 1103:0.08087 1104:0.05392 1118:0.02696 1122:0.02696 1124:0.02696 1132:0.02696 1137:0.02696 1159:0.02696 1161:0.02696 1163:0.02696 1171:0.02696 1178:0.02696 1182:0.02696 1184:0.02696 1189:0.02696 1193:0.02696 1194:0.02696 1198:0.08087 1200:0.02696 1214:0.02696 1216:0.05392 1226:0.02696 1250:0.02696 1262:0.02696 1263:0.08087 1264:0.02696 1270:0.02696 1277:0.02696 1280:0.02696 1281:0.02696 1282:0.02696 1283:0.02696 1286:0.02696 1287:0.02696 1294:0.02696 1297:0.02696 1300:0.02696 1305:0.05392 1312:0.02696 1315:0.05392 1320:0.02696 1323:0.05392 1331:0.02696 1344:0.02696 1349:0.02696 1351:0.02696 1353:0.02696 1360:0.02696 1364:0.02696 1368:0.02696 1373:0.02696 1378:0.02696 1379:0.02696 1380:0.02696 1381:0.05392 1383:0.02696 1388:0.02696 1390:0.02696 1392:0.02696 1393:0.05392 1397:0.02696 1403:0.05392 1412:0.02696 1413:0.05392 1415:0.02696 1416:0.02696 1418:0.02696 1422:0.02696 1425:0.02696 1427:0.02696 1433:0.02696 1442:0.02696 1448:0.02696 1450:0.02696 1456:0.02696 1462:0.02696 1463:0.02696 1468:0.02696 1470:0.02696 1471:0.02696 1472:0.02696 1473:0.02696 1474:0.02696 1476:0.02696 1491:0.02696 1501:0.02696 1503:0.02696 1507:0.02696 1510:0.02696 1512:0.02696 1513:0.05392 1519:0.05392 1525:0.02696 1526:0.02696 1527:0.05392 1533:0.02696 1547:0.05392 1549:0.02696 1553:0.02696 1554:0.02696 1559:0.02696 1562:0.02696 1563:0.02696 1566:0.02696 1574:0.02696 1590:0.02696 1597:0.02696 1600:0.02696 1601:0.02696 1604:0.02696 1610:0.02696 1623:0.02696 1634:0.02696 1643:0.02696 1649:0.02696 1652:0.02696 1654:0.02696 1657:0.02696 1666:0.02696 1669:0.02696 1671:0.02696 1680:0.02696 1681:0.02696 1686:0.02696 1693:0.02696 1697:0.05392 1699:0.05392 1703:0.02696 1704:0.02696 1710:0.02696 1712:0.05392 1718:0.02696 1719:0.02696 1727:0.05392 1732:0.02696 1751:0.02696 1754:0.02696 1755:0.02696 1759:0.02696 1771:0.02696 1772:0.02696 1774:0.02696 1781:0.02696 1787:0.02696 1792:0.02696 1795:0.02696 1796:0.02696 1797:0.02696 1800:0.02696 1804:0.02696 1805:0.05392 1808:0.02696 1851:0.02696 1867:0.02696 1868:0.02696 1877:0.02696 1879:0.05392 1888:0.02696 1899:0.02696 1905:0.02696 1915:0.05392 1923:0.02696 1926:0.08087 1930:0.02696 1931:0.02696 1936:0.02696 1942:0.02696 1947:0.02696 1951:0.02696 1953:0.02696 1954:0.05392 1957:0.02696 1961:0.02696 1978:0.02696 1980:0.02696 1985:0.02696 1988:0.02696 1996:0.02696 2003:0.02696 2005:0.02696 2009:0.02696 2010:0.02696 2033:0.02696 2035:0.02696 2038:0.02696 2043:0.02696 2048:0.02696 2049:0.02696 2056:0.08087 2058:0.02696 2062:0.02696 2072:0.02696 2075:0.02696 2079:0.02696 2089:0.10783 2100:0.02696 2102:0.02696 2108:0.02696 2114:0.02696 2117:0.05392 2119:0.02696 2127:0.02696 2129:0.02696 2130:0.02696 2135:0.02696 2137:0.02696 2140:0.02696 2143:0.08087 2149:0.02696 2150:0.02696 2153:0.02696 2155:0.02696 2166:0.02696 2197:0.02696 2198:0.02696 2201:0.02696 2207:0.02696 2213:0.02696 2218:0.02696 2223:0.02696 2231:0.02696 2240:0.02696 2264:0.02696 2267:0.02696 2289:0.02696 2290:0.05392 2293:0.02696 2299:0.02696 2300:0.02696 2301:0.02696 2302:0.02696 2305:0.02696 2309:0.02696 2312:0.02696 2317:0.05392 2321:0.05392 2322:0.02696 2323:0.02696 2333:0.02696 2341:0.02696 2348:0.05392 2369:0.02696 2376:0.02696 2377:0.02696 2389:0.02696 2390:0.02696 2393:0.02696 2395:0.02696 2398:0.02696 2399:0.02696 2401:0.02696 2409:0.02696 2416:0.02696 2424:0.02696 2428:0.02696 2435:0.02696 2439:0.02696 2461:0.02696 2463:0.02696 2473:0.02696 2476:0.05392 2481:0.02696 2487:0.02696 2488:0.02696 2500:0.05392 2511:0.02696 2515:0.02696 2518:0.02696 2520:0.02696 2523:0.02696 2530:0.05392 2535:0.02696 2537:0.02696 2545:0.05392 2557:0.02696 2558:0.02696 2561:0.02696 2562:0.08087 2563:0.02696 2564:0.02696 2568:0.02696 2571:0.02696 2575:0.02696 2578:0.02696 2580:0.02696 2581:0.05392 2583:0.02696 2587:0.02696 2598:0.02696 2599:0.02696 2606:0.02696 2608:0.02696 2615:0.02696 2621:0.05392 2622:0.02696 2623:0.02696 2624:0.02696 2626:0.02696 2628:0.02696 2629:0.08087 2635:0.02696 2648:0.02696 2649:0.02696 2670:0.02696 2673:0.02696 2678:0.02696 2679:0.02696 2685:0.02696 2688:0.02696 2689:0.10783 2692:0.02696 2698:0.02696 2700:0.05392 2705:0.02696 2707:0.02696 2711:0.02696 2716:0.02696 2718:0.02696 2720:0.02696 2725:0.02696 2728:0.02696 2730:0.02696 2741:0.02696 2751:0.05392 2752:0.02696 2771:0.08087 2772:0.02696 2773:0.05392 2776:0.02696 2780:0.02696 2785:0.02696 2805:0.02696 2811:0.02696 2812:0.08087 2815:0.05392 2816:0.02696 2830:0.05392 2890:0.05392 2892:0.02696 2895:0.02696 2897:0.02696 2899:0.05392 2907:0.02696 2908:0.02696 2909:0.02696 2919:0.02696 2921:0.05392 2923:0.02696 2924:0.02696 2927:0.02696 2937:0.02696 2944:0.02696 2946:0.02696 2948:0.02696 2962:0.05392 2965:0.02696 2968:0.05392 2980:0.02696 2984:0.02696 2985:0.05392 2990:0.02696 2998:0.02696 2999:0.02696 3000:0.02696 3002:0.02696 3004:0.02696 3007:0.02696 3008:0.05392 3017:0.02696 3019:0.02696 3025:0.02696 3026:0.02696 3031:0.02696 3046:0.02696 3048:0.02696 3049:0.02696 3052:0.02696 3054:0.02696 3055:0.05392 3062:0.08087 3065:0.02696 3067:0.02696 3068:0.05392 3071:0.02696 3072:0.05392 3073:0.02696 3076:0.02696 3082:0.02696 3083:0.02696 3086:0.02696 3087:0.02696 3092:0.02696 3104:0.02696 3109:0.02696 3110:0.02696 3120:0.02696 3121:0.02696 3124:0.02696 3126:0.05392 3127:0.02696 3135:0.02696 3140:0.02696 3176:0.02696 3211:0.02696 3223:0.02696 3226:0.02696 3228:0.02696 3234:0.02696 3243:0.02696 3244:0.02696 3258:0.02696 3264:0.02696 3305:0.02696 3315:0.05392 3319:0.02696 3322:0.05392 3330:0.02696 3348:0.02696 3352:0.02696 3362:0.02696 3367:0.02696 3368:0.02696 3372:0.02696 3376:0.08087 3388:0.02696 3393:0.02696 3394:0.02696 3397:0.02696 3402:0.02696 3403:0.05392 3405:0.02696 3410:0.05392 3411:0.02696 3417:0.02696 3418:0.02696 3420:0.05392 3423:0.02696 3426:0.05392 3434:0.02696 3438:0.02696 3441:0.02696 3454:0.10783 3456:0.02696 3459:0.02696 3472:0.02696 3483:0.02696 3486:0.02696 3489:0.02696 3492:0.02696 3494:0.02696 3497:0.02696 3498:0.02696 3500:0.02696 3502:0.02696 3515:0.05392 3522:0.02696 3551:0.02696 3556:0.02696 3562:0.02696 3563:0.02696 3584:0.02696 3590:0.02696 3591:0.02696 3595:0.02696 3598:0.02696 3606:0.02696 3608:0.08087 3624:0.02696 3627:0.02696 3647:0.02696 3653:0.02696 3656:0.02696 3667:0.02696 3670:0.02696 3672:0.02696 3676:0.02696 3678:0.02696 3679:0.02696 3691:0.05392 3694:0.02696 3706:0.02696 3709:0.02696 3715:0.02696 3717:0.02696 3718:0.05392 3728:0.08087 3730:0.02696 3742:0.02696 3744:0.02696 3745:0.05392 3747:0.02696 3754:0.02696 3766:0.05392 3776:0.05392 3780:0.02696 3797:0.02696 3799:0.02696 3803:0.05392 3808:0.02696 3809:0.02696 3813:0.02696 3814:0.08087 3817:0.02696 3819:0.02696 3822:0.05392 3823:0.05392 3824:0.08087 3827:0.02696 3834:0.02696 3839:0.02696 3840:0.02696 3841:0.02696 3843:0.02696 3844:0.02696 3850:0.05392 3854:0.02696 3857:0.02696 3866:0.02696 3875:0.02696 3878:0.02696 3879:0.02696 3881:0.02696 3883:0.05392 3887:0.02696 3888:0.02696 3901:0.02696 3905:0.02696 3909:0.02696 3910:0.02696 3916:0.02696 3923:0.02696 3925:0.05392 3927:0.05392 3928:0.02696 3929:0.02696 3936:0.05392 3940:0.02696 3944:0.02696 3946:0.02696 3970:0.02696 3990:0.02696 3991:0.02696 3995:0.02696 3996:0.02696 4000:0.02696 4002:0.02696 4004:0.02696 4008:0.02696 4014:0.02696 4016:0.05392 4017:0.02696 4023:0.02696 4026:0.05392 4027:0.02696 4028:0.05392 4033:0.05392 4035:0.02696 4043:0.02696 4044:0.02696 4048:0.02696 4054:0.10783 4056:0.05392 4065:0.02696 4071:0.02696 4073:0.02696 4074:0.02696 4076:0.02696 4079:0.05392 4081:0.02696 4084:0.02696 4086:0.02696 4090:0.02696 4091:0.02696 4093:0.02696 4094:0.02696 4095:0.02696 
2.963750872622848 1:0.02169 2:0.04338 5:0.04338 6:0.02169 11:0.02169 12:0.02169 14:0.02169 18:0.04338 23:0.02169 29:0.02169 42:0.02169 46:0.02169 48:0.02169 56:0.02169 57:0.02169 61:0.02169 62:0.02169 65:0.02169 67:0.02169 69:0.02169 71:0.04338 76:0.02169 85:0.02169 87:0.02169 90:0.02169 108:0.04338 114:0.02169 126:0.02169 128:0.02169 161:0.02169 162:0.02169 163:0.02169 164:0.02169 167:0.02169 169:0.02169 182:0.02169 183:0.04338 186:0.04338 190:0.02169 191:0.02169 212:0.02169 218:0.02169 220:0.02169 223:0.02169 225:0.02169 232:0.02169 241:0.02169 244:0.02169 246:0.06506 249:0.02169 250:0.04338 254:0.04338 257:0.02169 259:0.02169 262:0.02169 267:0.02169 268:0.02169 274:0.23857 276:0.02169 282:0.06506 283:0.02169 284:0.02169 286:0.08675 300:0.04338 303:0.02169 313:0.02169 316:0.08675 338:0.02169 347:0.04338 355:0.04338 360:0.02169 363:0.02169 364:0.04338 368:0.04338 380:0.04338 393:0.02169 400:0.02169 402:0.10844 406:0.02169 410:0.02169 423:0.02169 429:0.02169 431:0.02169 435:0.02169 444:0.02169 455:0.02169 468:0.02169 471:0.02169 474:0.06506 475:0.02169 489:0.02169 496:0.02169 502:0.04338 503:0.02169 506:0.02169 508:0.02169 511:0.02169 512:0.02169 516:0.02169 531:0.02169 538:0.02169 546:0.02169 549:0.02169 554:0.02169 571:0.02169 576:0.02169 579:0.02169 580:0.02169 581:0.02169 585:0.02169 590:0.02169 592:0.02169 593:0.02169 617:0.02169 619:0.02169 620:0.02169 644:0.04338 645:0.04338 650:0.02169 653:0.02169 666:0.02169 667:0.02169 673:0.02169 689:0.02169 699:0.02169 721:0.02169 722:0.04338 724:0.02169 727:0.02169 729:0.02169 730:0.02169 738:0.02169 741:0.02169 743:0.02169 751:0.08675 758:0.02169 762:0.02169 765:0.02169 784:0.02169 801:0.02169 802:0.02169 805:0.02169 822:0.04338 845:0.02169 851:0.02169 864:0.02169 867:0.02169 869:0.02169 870:0.02169 878:0.02169 886:0.02169 890:0.02169 897:0.02169 904:0.02169 908:0.02169 912:0.02169 915:0.02169 926:0.02169 927:0.02169 937:0.02169 951:0.02169 954:0.04338 955:0.02169 956:0.02169 962:0.02169 966:0.02169 975:0.02169 977:0.02169 979:0.02169 982:0.02169 984:0.04338 994:0.02169 997:0.02169 998:0.02169 1000:0.02169 1014:0.02169 1016:0.02169 1017:0.02169 1022:0.02169 1026:0.02169 1027:0.04338 1036:0.02169 1039:0.02169 1041:0.04338 1046:0.02169 1056:0.02169 1065:0.06506 1067:0.02169 1071:0.04338 1082:0.02169 1085:0.02169 1087:0.04338 1089:0.02169 1091:0.02169 1093:0.21688 1095:0.06506 1096:0.08675 1099:0.02169 1103:0.08675 1113:0.02169 1115:0.04338 1116:0.02169 1119:0.02169 1123:0.02169 1125:0.10844 1126:0.02169 1130:0.02169 1133:0.02169 1141:0.02169 1143:0.06506 1148:0.02169 1151:0.04338 1162:0.02169 1163:0.02169 1168:0.02169 1170:0.02169 1172:0.02169 1185:0.02169 1197:0.02169 1199:0.02169 1205:0.02169 1209:0.02169 1220:0.02169 1225:0.02169 1226:0.02169 1241:0.02169 1246:0.02169 1250:0.02169 1262:0.02169 1263:0.08675 1274:0.02169 1279:0.02169 1281:0.04338 1291:0.04338 1297:0.02169 1300:0.02169 1304:0.02169 1313:0.02169 1317:0.02169 1326:0.02169 1336:0.02169 1345:0.04338 1350:0.02169 1353:0.02169 1354:0.02169 1358:0.02169 1369:0.02169 1379:0.02169 1384:0.02169 1386:0.02169 1388:0.02169 1407:0.02169 1418:0.04338 1420:0.02169 1426:0.02169 1427:0.02169 1430:0.02169 1432:0.02169 1433:0.02169 1437:0.02169 1438:0.04338 1443:0.04338 1447:0.02169 1452:0.04338 1454:0.02169 1455:0.04338 1468:0.02169 1470:0.04338 1494:0.02169 1503:0.02169 1505:0.02169 1518:0.02169 1519:0.02169 1526:0.02169 1530:0.02169 1531:0.04338 1532:0.02169 1536:0.02169 1541:0.02169 1548:0.02169 1556:0.02169 1568:0.04338 1571:0.02169 1573:0.02169 1574:0.02169 1575:0.04338 1582:0.02169 1583:0.06506 1587:0.02169 1594:0.02169 1598:0.04338 1605:0.15182 1607:0.04338 1608:0.02169 1610:0.02169 1621:0.04338 1627:0.02169 1628:0.02169 1630:0.02169 1632:0.02169 1634:0.02169 1638:0.02169 1641:0.02169 1646:0.02169 1649:0.02169 1655:0.04338 1665:0.02169 1666:0.02169 1667:0.02169 1671:0.02169 1672:0.02169 1673:0.02169 1676:0.02169 1681:0.02169 1689:0.04338 1697:0.02169 1705:0.02169 1710:0.02169 1712:0.02169 1713:0.02169 1717:0.02169 1718:0.02169 1721:0.08675 1728:0.02169 1740:0.02169 1751:0.02169 1758:0.02169 1765:0.02169 1766:0.02169 1767:0.04338 1775:0.06506 1776:0.04338 1781:0.04338 1794:0.02169 1820:0.02169 1847:0.02169 1849:0.02169 1850:0.02169 1869:0.02169 1877:0.02169 1883:0.04338 1888:0.02169 1890:0.02169 1892:0.02169 1893:0.06506 1899:0.02169 1900:0.04338 1903:0.02169 1911:0.02169 1914:0.04338 1924:0.02169 1937:0.02169 1940:0.02169 1947:0.02169 1949:0.02169 1956:0.02169 1961:0.04338 1976:0.02169 1977:0.02169 1982:0.02169 2006:0.04338 2007:0.02169 2009:0.02169 2022:0.02169 2024:0.02169 2025:0.02169 2026:0.02169 2031:0.02169 2032:0.02169 2044:0.02169 2047:0.04338 2049:0.04338 2052:0.02169 2064:0.04338 2067:0.02169 2075:0.04338 2080:0.02169 2089:0.02169 2094:0.04338 2096:0.02169 2103:0.04338 2110:0.04338 2112:0.02169 2114:0.02169 2117:0.02169 2123:0.02169 2127:0.02169 2135:0.02169 2137:0.02169 2139:0.02169 2148:0.02169 2151:0.02169 2166:0.02169 2167:0.02169 2171:0.02169 2174:0.04338 2176:0.02169 2183:0.02169 2185:0.02169 2191:0.02169 2193:0.04338 2196:0.02169 2197:0.02169 2203:0.04338 2210:0.02169 2215:0.02169 2229:0.04338 2236:0.08675 2249:0.02169 2254:0.04338 2280:0.02169 2283:0.02169 2290:0.02169 2293:0.04338 2304:0.02169 2309:0.04338 2312:0.02169 2315:0.02169 2316:0.02169 2319:0.02169 2320:0.04338 2321:0.02169 2322:0.13013 2324:0.04338 2329:0.02169 2330:0.06506 2336:0.04338 2339:0.04338 2340:0.02169 2341:0.02169 2355:0.02169 2359:0.02169 2367:0.02169 2371:0.02169 2373:0.04338 2385:0.04338 2406:0.02169 2411:0.02169 2415:0.02169 2424:0.02169 2432:0.02169 2434:0.02169 2440:0.02169 2444:0.06506 2445:0.02169 2448:0.02169 2456:0.02169 2460:0.02169 2465:0.06506 2466:0.04338 2469:0.02169 2473:0.02169 2480:0.02169 2488:0.02169 2490:0.06506 2492:0.06506 2497:0.02169 2511:0.02169 2520:0.02169 2521:0.04338 2523:0.04338 2527:0.02169 2535:0.02169 2539:0.02169 2561:0.04338 2564:0.02169 2568:0.02169 2571:0.02169 2572:0.04338 2576:0.06506 2577:0.02169 2578:0.02169 2583:0.02169 2585:0.02169 2592:0.02169 2596:0.02169 2597:0.02169 2601:0.02169 2606:0.02169 2612:0.04338 2627:0.02169 2628:0.02169 2631:0.02169 2657:0.02169 2660:0.02169 2663:0.02169 2665:0.02169 2666:0.02169 2671:0.02169 2679:0.02169 2689:0.04338 2691:0.04338 2692:0.02169 2699:0.02169 2715:0.02169 2716:0.02169 2721:0.02169 2741:0.02169 2749:0.02169 2751:0.02169 2754:0.02169 2756:0.02169 2770:0.04338 2773:0.02169 2785:0.04338 2786:0.04338 2795:0.02169 2802:0.02169 2812:0.02169 2816:0.02169 2822:0.02169 2830:0.02169 2864:0.02169 2884:0.02169 2885:0.02169 2886:0.04338 2888:0.02169 2895:0.02169 2897:0.02169 2906:0.04338 2910:0.02169 2912:0.02169 2913:0.02169 2915:0.02169 2919:0.02169 2932:0.02169 2936:0.02169 2946:0.04338 2950:0.04338 2952:0.04338 2961:0.06506 2965:0.02169 2969:0.08675 2971:0.02169 2972:0.10844 2975:0.02169 2981:0.04338 2988:0.02169 2998:0.02169 3002:0.13013 3004:0.23857 3005:0.02169 3008:0.04338 3012:0.02169 3014:0.02169 3026:0.04338 3031:0.02169 3034:0.02169 3045:0.06506 3054:0.02169 3059:0.02169 3071:0.02169 3072:0.04338 3080:0.02169 3090:0.02169 3094:0.02169 3125:0.02169 3135:0.02169 3136:0.02169 3164:0.02169 3167:0.02169 3183:0.02169 3201:0.02169 3205:0.02169 3219:0.02169 3227:0.02169 3264:0.02169 3285:0.02169 3288:0.02169 3290:0.02169 3299:0.02169 3300:0.02169 3301:0.02169 3332:0.02169 3344:0.02169 3347:0.02169 3351:0.08675 3359:0.02169 3369:0.02169 3377:0.02169 3379:0.02169 3388:0.02169 3392:0.02169 3395:0.02169 3404:0.02169 3411:0.04338 3412:0.02169 3415:0.02169 3418:0.02169 3424:0.02169 3429:0.04338 3430:0.02169 3431:0.02169 3432:0.02169 3433:0.04338 3446:0.02169 3449:0.02169 3454:0.02169 3455:0.06506 3459:0.02169 3461:0.02169 3464:0.02169 3466:0.04338 3471:0.02169 3474:0.08675 3479:0.04338 3483:0.02169 3499:0.02169 3502:0.02169 3503:0.02169 3510:0.02169 3514:0.02169 3534:0.02169 3535:0.02169 3543:0.02169 3548:0.02169 3550:0.02169 3557:0.04338 3560:0.02169 3563:0.02169 3585:0.02169 3591:0.04338 3598:0.04338 3606:0.02169 3607:0.02169 3614:0.04338 3615:0.02169 3631:0.02169 3645:0.02169 3650:0.06506 3652:0.02169 3653:0.02169 3655:0.02169 3656:0.02169 3657:0.04338 3661:0.02169 3666:0.04338 3674:0.02169 3683:0.06506 3684:0.02169 3689:0.04338 3695:0.10844 3700:0.02169 3702:0.02169 3703:0.02169 3704:0.02169 3706:0.02169 3707:0.02169 3718:0.02169 3725:0.02169 3729:0.02169 3730:0.02169 3742:0.02169 3745:0.04338 3747:0.02169 3751:0.04338 3760:0.02169 3800:0.04338 3801:0.02169 3805:0.02169 3810:0.02169 3813:0.02169 3815:0.15182 3816:0.02169 3818:0.04338 3822:0.02169 3823:0.21688 3824:0.02169 3825:0.02169 3831:0.02169 3834:0.04338 3840:0.04338 3845:0.02169 3856:0.02169 3863:0.02169 3864:0.02169 3879:0.02169 3897:0.02169 3905:0.02169 3910:0.04338 3915:0.02169 3920:0.02169 3925:0.04338 3926:0.02169 3927:0.02169 3928:0.02169 3930:0.06506 3935:0.02169 3936:0.02169 3938:0.02169 3942:0.02169 3956:0.02169 3963:0.02169 3972:0.02169 3976:0.02169 3986:0.06506 3987:0.02169 3989:0.02169 3991:0.02169 3998:0.04338 4002:0.02169 4008:0.02169 4010:0.04338 4022:0.02169 4026:0.02169 4027:0.02169 4031:0.04338 4042:0.02169 4052:0.02169 4054:0.04338 4055:0.02169 4061:0.02169 4065:0.02169 4075:0.04338 4079:0.02169 4080:0.02169 4085:0.02169 4086:0.04338 4091:0.04338 4092:0.02169 4094:0.04338 4096:0.02169 
0.1723537689588289 1:0.02815 2:0.0563 3:0.02815 5:0.02815 6:0.0563 7:0.02815 9:0.02815 15:0.02815 18:0.0563 21:0.02815 23:0.02815 24:0.02815 25:0.02815 27:0.02815 31:0.0563 34:0.02815 38:0.02815 40:0.02815 48:0.02815 54:0.02815 55:0.02815 59:0.02815 60:0.02815 69:0.08445 79:0.02815 81:0.02815 87:0.0563 89:0.02815 95:0.02815 96:0.02815 97:0.02815 105:0.02815 121:0.0563 124:0.02815 125:0.02815 128:0.02815 136:0.02815 145:0.02815 149:0.02815 150:0.02815 159:0.02815 161:0.02815 163:0.02815 164:0.0563 176:0.02815 187:0.02815 189:0.02815 191:0.02815 193:0.02815 206:0.02815 208:0.0563 210:0.02815 211:0.02815 213:0.08445 215:0.02815 217:0.02815 220:0.02815 233:0.02815 235:0.02815 239:0.0563 243:0.02815 252:0.02815 258:0.0563 262:0.0563 270:0.02815 272:0.02815 273:0.0563 274:0.02815 275:0.02815 276:0.08445 300:0.02815 304:0.02815 316:0.1126 318:0.02815 320:0.02815 324:0.02815 327:0.02815 330:0.02815 339:0.02815 345:0.02815 346:0.0563 351:0.02815 354:0.02815 355:0.02815 376:0.02815 377:0.02815 378:0.0563 380:0.02815 381:0.02815 385:0.02815 400:0.02815 401:0.02815 411:0.02815 413:0.02815 418:0.0563 425:0.0563 438:0.02815 443:0.02815 451:0.02815 475:0.02815 481:0.02815 482:0.02815 486:0.02815 495:0.02815 499:0.02815 511:0.02815 538:0.02815 542:0.02815 554:0.0563 556:0.02815 564:0.02815 578:0.02815 587:0.02815 593:0.02815 594:0.02815 598:0.02815 599:0.02815 603:0.02815 609:0.02815 613:0.02815 618:0.02815 621:0.02815 629:0.02815 633:0.02815 635:0.02815 640:0.02815 641:0.02815 646:0.02815 650:0.02815 654:0.02815 655:0.02815 658:0.02815 659:0.02815 673:0.02815 683:0.02815 686:0.02815 693:0.0563 695:0.02815 698:0.02815 702:0.02815 704:0.02815 731:0.02815 736:0.02815 741:0.02815 746:0.02815 755:0.02815 758:0.02815 762:0.02815 766:0.02815 767:0.02815 769:0.02815 824:0.02815 829:0.02815 831:0.0563 838:0.02815 841:0.02815 849:0.02815 850:0.02815 852:0.02815 857:0.02815 864:0.0563 865:0.02815 875:0.02815 879:0.02815 887:0.02815 914:0.02815 932:0.02815 939:0.02815 953:0.02815 955:0.02815 956:0.08445 957:0.02815 963:0.02815 965:0.02815 967:0.02815 970:0.0563 971:0.02815 982:0.0563 998:0.02815 999:0.0563 1004:0.02815 1005:0.02815 1007:0.02815 1009:0.0563 1014:0.02815 1021:0.02815 1025:0.02815 1026:0.02815 1030:0.02815 1031:0.02815 1032:0.02815 1036:0.02815 1042:0.02815 1046:0.0563 1056:0.02815 1076:0.0563 1077:0.02815 1078:0.02815 1083:0.02815 1085:0.02815 1089:0.0563 1090:0.0563 1092:0.02815 1093:0.0563 1099:0.02815 1100:0.02815 1103:0.08445 1104:0.0563 1109:0.02815 1118:0.02815 1124:0.02815 1134:0.02815 1137:0.02815 1159:0.02815 1163:0.0563 1171:0.02815 1178:0.02815 1179:0.02815 1182:0.02815 1184:0.02815 1193:0.02815 1196:0.02815 1198:0.08445 1200:0.02815 1207:0.02815 1214:0.02815 1216:0.0563 1240:0.02815 1263:0.08445 1264:0.02815 1270:0.02815 1274:0.02815 1277:0.02815 1280:0.02815 1281:0.02815 1282:0.02815 1283:0.02815 1294:0.02815 1297:0.02815 1299:0.02815 1300:0.02815 1305:0.02815 1308:0.02815 1312:0.02815 1315:0.02815 1319:0.02815 1320:0.02815 1323:0.0563 1343:0.02815 1344:0.02815 1349:0.0563 1351:0.02815 1353:0.02815 1360:0.02815 1364:0.02815 1368:0.02815 1373:0.02815 1379:0.02815 1380:0.02815 1381:0.0563 1383:0.02815 1390:0.0563 1393:0.02815 1403:0.0563 1409:0.02815 1413:0.02815 1415:0.02815 1416:0.02815 1418:0.02815 1420:0.02815 1422:0.02815 1425:0.02815 1427:0.02815 1436:0.02815 1439:0.02815 1442:0.02815 1443:0.02815 1445:0.02815 1448:0.02815 1462:0.0563 1463:0.02815 1472:0.02815 1474:0.02815 1476:0.02815 1501:0.02815 1503:0.0563 1507:0.02815 1510:0.02815 1512:0.02815 1513:0.0563 1519:0.02815 1521:0.02815 1525:0.02815 1526:0.02815 1527:0.0563 1537:0.02815 1538:0.02815 1547:0.0563 1554:0.02815 1558:0.02815 1560:0.02815 1562:0.02815 1563:0.02815 1567:0.02815 1572:0.02815 1574:0.02815 1582:0.02815 1590:0.02815 1597:0.02815 1600:0.02815 1601:0.02815 1604:0.0563 1610:0.02815 1643:0.02815 1646:0.02815 1649:0.02815 1654:0.02815 1657:0.02815 1659:0.02815 1666:0.02815 1669:0.02815 1671:0.0563 1673:0.02815 1680:0.02815 1681:0.02815 1682:0.02815 1683:0.02815 1693:0.02815 1697:0.0563 1699:0.02815 1704:0.02815 1710:0.02815 1712:0.0563 1718:0.02815 1728:0.02815 1732:0.02815 1749:0.02815 1751:0.0563 1753:0.02815 1755:0.02815 1759:0.02815 1771:0.02815 1772:0.02815 1791:0.02815 1792:0.02815 1797:0.02815 1800:0.02815 1804:0.02815 1805:0.0563 1808:0.02815 1867:0.02815 1879:0.02815 1883:0.02815 1888:0.02815 1890:0.02815 1899:0.02815 1900:0.02815 1905:0.02815 1914:0.02815 1915:0.02815 1923:0.02815 1926:0.08445 1930:0.02815 1936:0.02815 1942:0.02815 1943:0.02815 1944:0.02815 1947:0.02815 1951:0.02815 1953:0.02815 1954:0.0563 1964:0.02815 1966:0.02815 1979:0.02815 1980:0.02815 1985:0.0563 1988:0.02815 1996:0.02815 2003:0.02815 2005:0.02815 2009:0.02815 2010:0.02815 2033:0.02815 2038:0.02815 2043:0.02815 2048:0.02815 2049:0.02815 2050:0.02815 2053:0.02815 2056:0.02815 2058:0.02815 2062:0.02815 2072:0.02815 2079:0.02815 2089:0.1126 2101:0.02815 2108:0.02815 2117:0.0563 2130:0.02815 2131:0.02815 2135:0.02815 2136:0.02815 2137:0.02815 2143:0.08445 2149:0.02815 2151:0.02815 2153:0.02815 2155:0.0563 2159:0.02815 2167:0.02815 2170:0.02815 2189:0.02815 2197:0.02815 2198:0.02815 2201:0.02815 2207:0.02815 2213:0.0563 2223:0.02815 2232:0.02815 2256:0.02815 2264:0.02815 2267:0.02815 2277:0.02815 2289:0.02815 2290:0.0563 2294:0.02815 2299:0.02815 2300:0.02815 2301:0.02815 2302:0.02815 2305:0.02815 2309:0.02815 2312:0.02815 2317:0.0563 2319:0.02815 2321:0.0563 2322:0.02815 2328:0.02815 2333:0.02815 2339:0.02815 2341:0.02815 2348:0.0563 2350:0.02815 2358:0.02815 2369:0.02815 2376:0.02815 2386:0.02815 2389:0.02815 2390:0.02815 2393:0.02815 2401:0.02815 2408:0.02815 2409:0.0563 2424:0.0563 2435:0.02815 2449:0.02815 2463:0.02815 2469:0.02815 2473:0.02815 2476:0.0563 2481:0.02815 2487:0.02815 2488:0.02815 2500:0.0563 2515:0.02815 2518:0.02815 2520:0.02815 2523:0.02815 2530:0.0563 2535:0.02815 2537:0.02815 2540:0.02815 2545:0.0563 2557:0.02815 2558:0.02815 2561:0.02815 2562:0.02815 2563:0.02815 2564:0.02815 2568:0.02815 2571:0.02815 2574:0.02815 2575:0.02815 2578:0.02815 2581:0.0563 2583:0.02815 2587:0.0563 2588:0.02815 2598:0.02815 2599:0.02815 2615:0.02815 2618:0.02815 2621:0.0563 2623:0.02815 2624:0.02815 2626:0.02815 2628:0.02815 2629:0.0563 2633:0.02815 2635:0.02815 2636:0.02815 2673:0.02815 2678:0.02815 2679:0.02815 2685:0.02815 2688:0.02815 2689:0.08445 2692:0.0563 2698:0.02815 2705:0.02815 2707:0.02815 2718:0.02815 2720:0.02815 2725:0.02815 2728:0.02815 2730:0.02815 2741:0.02815 2743:0.02815 2745:0.02815 2751:0.0563 2771:0.08445 2773:0.0563 2776:0.02815 2777:0.0563 2788:0.02815 2789:0.02815 2805:0.02815 2812:0.0563 2815:0.02815 2816:0.0563 2830:0.0563 2890:0.0563 2892:0.02815 2897:0.02815 2899:0.0563 2907:0.02815 2908:0.0563 2909:0.02815 2914:0.0563 2915:0.02815 2921:0.0563 2924:0.02815 2937:0.02815 2944:0.02815 2946:0.02815 2960:0.02815 2962:0.0563 2964:0.02815 2967:0.02815 2968:0.02815 2980:0.02815 2984:0.02815 2985:0.0563 2986:0.02815 2990:0.02815 2998:0.02815 2999:0.02815 3002:0.02815 3004:0.02815 3007:0.02815 3008:0.0563 3017:0.02815 3019:0.02815 3026:0.02815 3031:0.02815 3046:0.02815 3048:0.02815 3055:0.0563 3062:0.02815 3063:0.02815 3067:0.02815 3068:0.0563 3070:0.02815 3071:0.02815 3072:0.0563 3073:0.02815 3076:0.02815 3082:0.02815 3086:0.02815 3087:0.02815 3092:0.02815 3104:0.02815 3109:0.02815 3110:0.02815 3116:0.02815 3120:0.02815 3121:0.02815 3124:0.02815 3126:0.0563 3127:0.02815 3135:0.02815 3140:0.02815 3176:0.02815 3211:0.02815 3223:0.02815 3228:0.02815 3234:0.02815 3243:0.02815 3258:0.02815 3294:0.02815 3315:0.0563 3322:0.0563 3348:0.02815 3350:0.02815 3362:0.02815 3367:0.02815 3368:0.02815 3372:0.02815 3376:0.0563 3393:0.0563 3397:0.02815 3402:0.02815 3403:0.0563 3408:0.02815 3410:0.0563 3418:0.02815 3420:0.0563 3423:0.02815 3426:0.0563 3434:0.0563 3438:0.02815 3440:0.02815 3441:0.02815 3454:0.1126 3459:0.02815 3462:0.0563 3463:0.02815 3465:0.02815 3472:0.02815 3486:0.02815 3489:0.02815 3492:0.02815 3493:0.02815 3498:0.02815 3500:0.02815 3502:0.02815 3504:0.02815 3515:0.02815 3520:0.02815 3522:0.02815 3543:0.02815 3545:0.02815 3556:0.02815 3558:0.02815 3563:0.02815 3584:0.02815 3590:0.02815 3595:0.02815 3606:0.02815 3608:0.0563 3624:0.02815 3646:0.02815 3647:0.02815 3653:0.02815 3654:0.02815 3656:0.02815 3662:0.02815 3669:0.02815 3670:0.02815 3673:0.02815 3674:0.02815 3675:0.02815 3678:0.0563 3688:0.02815 3691:0.0563 3694:0.02815 3706:0.02815 3709:0.02815 3715:0.02815 3718:0.0563 3719:0.02815 3728:0.08445 3742:0.02815 3744:0.02815 3745:0.0563 3749:0.02815 3754:0.02815 3759:0.02815 3766:0.0563 3776:0.02815 3780:0.02815 3799:0.02815 3803:0.02815 3809:0.02815 3813:0.02815 3814:0.0563 3817:0.02815 3819:0.0563 3822:0.0563 3823:0.0563 3824:0.08445 3827:0.02815 3834:0.02815 3838:0.02815 3840:0.02815 3841:0.02815 3843:0.02815 3844:0.0563 3850:0.0563 3851:0.02815 3854:0.02815 3857:0.02815 3866:0.02815 3875:0.02815 3878:0.02815 3879:0.02815 3881:0.02815 3883:0.02815 3887:0.02815 3901:0.02815 3909:0.02815 3916:0.02815 3923:0.02815 3925:0.0563 3927:0.0563 3928:0.02815 3929:0.02815 3936:0.02815 3940:0.02815 3944:0.02815 3946:0.02815 3952:0.02815 3990:0.02815 3991:0.02815 3994:0.02815 3995:0.02815 3996:0.02815 4000:0.02815 4002:0.02815 4004:0.02815 4008:0.02815 4016:0.02815 4017:0.02815 4026:0.0563 4027:0.02815 4028:0.0563 4033:0.0563 4035:0.0563 4048:0.02815 4054:0.08445 4056:0.02815 4059:0.02815 4060:0.02815 4071:0.02815 4073:0.0563 4074:0.02815 4079:0.0563 4081:0.02815 4084:0.02815 4086:0.02815 4087:0.02815 4090:0.02815 4091:0.02815 4093:0.02815 4094:0.02815 4095:0.02815 4096:0.02815 
0.4869868772441981 1:0.0128 3:0.03839 4:0.06398 5:0.0128 6:0.0128 7:0.0128 8:0.0128 9:0.02559 10:0.0128 11:0.0128 12:0.02559 13:0.05118 14:0.02559 15:0.05118 16:0.05118 17:0.03839 18:0.02559 19:0.03839 20:0.0128 21:0.0128 23:0.0128 27:0.0128 28:0.02559 30:0.0128 31:0.0128 32:0.02559 33:0.03839 36:0.03839 39:0.0128 40:0.06398 42:0.0128 44:0.0128 45:0.03839 47:0.03839 48:0.03839 49:0.03839 50:0.0128 51:0.02559 52:0.02559 53:0.05118 54:0.0128 55:0.02559 56:0.0128 57:0.02559 58:0.02559 59:0.0128 60:0.03839 61:0.02559 62:0.08957 63:0.02559 64:0.07677 65:0.05118 68:0.02559 69:0.0128 70:0.02559 71:0.02559 72:0.02559 73:0.0128 74:0.0128 75:0.0128 76:0.03839 80:0.02559 81:0.0128 83:0.0128 86:0.0128 90:0.0128 92:0.0128 93:0.0128 94:0.0128 95:0.0128 100:0.0128 104:0.02559 105:0.02559 108:0.0128 110:0.0128 112:0.02559 113:0.0128 117:0.0128 118:0.0128 120:0.0128 121:0.0128 122:0.0128 125:0.03839 128:0.03839 129:0.05118 130:0.0128 131:0.0128 132:0.0128 133:0.03839 138:0.03839 139:0.03839 142:0.02559 144:0.03839 156:0.02559 158:0.0128 160:0.05118 161:0.02559 162:0.0128 163:0.02559 165:0.0128 168:0.0128 169:0.0128 173:0.0128 178:0.0128 179:0.0128 180:0.02559 182:0.0128 185:0.0128 186:0.03839 187:0.02559 188:0.03839 189:0.03839 191:0.0128 192:0.02559 193:0.02559 194:0.0128 195:0.0128 196:0.02559 197:0.0128 198:0.02559 200:0.03839 201:0.0128 202:0.03839 204:0.02559 208:0.05118 209:0.0128 210:0.02559 211:0.0128 213:0.05118 217:0.0128 219:0.02559 221:0.0128 223:0.02559 224:0.03839 225:0.07677 228:0.0128 230:0.0128 231:0.0128 232:0.05118 233:0.03839 235:0.0128 239:0.02559 240:0.02559 241:0.03839 244:0.0128 245:0.02559 246:0.08957 248:0.02559 249:0.02559 251:0.02559 252:0.02559 253:0.02559 254:0.07677 255:0.06398 256:0.05118 257:0.0128 259:0.02559 260:0.03839 261:0.0128 262:0.02559 265:0.0128 269:0.0128 271:0.02559 272:0.02559 273:0.0128 276:0.0128 279:0.0128 280:0.02559 283:0.02559 285:0.0128 286:0.0128 288:0.03839 289:0.02559 292:0.02559 293:0.02559 295:0.0128 298:0.02559 299:0.0128 301:0.0128 302:0.0128 303:0.02559 306:0.0128 310:0.0128 312:0.0128 315:0.0128 319:0.0128 320:0.03839 324:0.0128 325:0.02559 331:0.0128 339:0.0128 344:0.0128 353:0.03839 355:0.0128 358:0.0128 361:0.0128 367:0.02559 368:0.0128 371:0.0128 376:0.02559 377:0.05118 378:0.0128 384:0.0128 398:0.0128 401:0.0128 411:0.0128 414:0.0128 416:0.02559 417:0.03839 419:0.0128 429:0.02559 432:0.0128 440:0.0128 446:0.0128 448:0.02559 451:0.0128 452:0.02559 454:0.0128 464:0.02559 465:0.0128 469:0.0128 471:0.02559 473:0.03839 475:0.0128 479:0.0128 481:0.0128 485:0.0128 486:0.02559 491:0.0128 494:0.0128 496:0.03839 497:0.02559 499:0.0128 500:0.0128 501:0.02559 502:0.0128 505:0.05118 509:0.03839 510:0.03839 511:0.0128 512:0.02559 513:0.0128 514:0.0128 515:0.0128 516:0.02559 517:0.0128 518:0.02559 519:0.0128 521:0.03839 522:0.0128 525:0.0128 526:0.03839 527:0.0128 528:0.02559 529:0.0128 530:0.0128 531:0.0128 532:0.02559 533:0.0128 540:0.0128 550:0.02559 552:0.0128 554:0.0128 556:0.02559 560:0.0128 561:0.0128 563:0.0128 565:0.02559 567:0.02559 572:0.0128 573:0.02559 574:0.03839 576:0.0128 579:0.02559 584:0.02559 587:0.0128 592:0.05118 593:0.0128 595:0.02559 597:0.02559 601:0.0128 608:0.0128 609:0.02559 611:0.0128 612:0.0128 613:0.0128 619:0.0128 621:0.0128 624:0.02559 628:0.0128 629:0.0128 630:0.0128 631:0.0128 632:0.0128 633:0.02559 638:0.0128 640:0.06398 641:0.05118 642:0.0128 644:0.0128 645:0.0128 648:0.02559 649:0.0128 650:0.0128 654:0.02559 655:0.0128 657:0.0128 659:0.02559 661:0.02559 662:0.0128 666:0.0128 667:0.0128 671:0.0128 673:0.03839 677:0.0128 684:0.0128 689:0.0128 690:0.0128 691:0.02559 700:0.02559 702:0.02559 703:0.0128 705:0.0128 710:0.0128 712:0.02559 713:0.0128 714:0.0128 717:0.0128 719:0.0128 720:0.03839 722:0.02559 728:0.02559 731:0.0128 740:0.0128 741:0.03839 742:0.0128 744:0.02559 745:0.05118 750:0.02559 751:0.0128 752:0.02559 753:0.03839 756:0.0128 758:0.02559 761:0.0128 763:0.0128 765:0.0128 766:0.0128 767:0.0128 768:0.0128 769:0.02559 771:0.02559 773:0.0128 775:0.0128 776:0.0128 777:0.0128 780:0.0128 782:0.02559 784:0.0128 786:0.0128 788:0.0128 791:0.02559 797:0.0128 798:0.0128 799:0.0128 800:0.02559 801:0.0128 805:0.02559 806:0.0128 808:0.0128 813:0.02559 817:0.0128 826:0.0128 831:0.02559 832:0.02559 834:0.0128 835:0.0128 837:0.0128 840:0.0128 842:0.02559 843:0.02559 848:0.0128 849:0.02559 850:0.02559 851:0.0128 855:0.0128 861:0.0128 863:0.02559 865:0.02559 867:0.0128 872:0.0128 873:0.02559 875:0.0128 880:0.0128 882:0.02559 885:0.0128 886:0.0128 889:0.0128 891:0.0128 892:0.02559 893:0.0128 895:0.0128 896:0.03839 897:0.03839 899:0.0128 900:0.06398 905:0.0128 907:0.0128 910:0.0128 913:0.0128 914:0.0128 917:0.0128 918:0.0128 922:0.0128 925:0.0128 927:0.03839 929:0.03839 931:0.0128 937:0.0128 938:0.0128 947:0.0128 948:0.0128 952:0.02559 955:0.0128 956:0.0128 959:0.0128 960:0.0128 961:0.02559 962:0.05118 963:0.0128 969:0.0128 971:0.02559 972:0.02559 973:0.0128 976:0.02559 977:0.02559 979:0.0128 980:0.06398 981:0.05118 982:0.03839 983:0.03839 984:0.0128 985:0.0128 986:0.0128 989:0.05118 990:0.0128 991:0.0128 992:0.0128 993:0.03839 994:0.0128 1002:0.05118 1004:0.0128 1005:0.0128 1006:0.0128 1007:0.0128 1008:0.02559 1009:0.06398 1010:0.02559 1011:0.02559 1013:0.05118 1014:0.05118 1015:0.02559 1016:0.02559 1018:0.02559 1019:0.0128 1020:0.03839 1021:0.0128 1022:0.05118 1023:0.05118 1024:0.06398 1025:0.02559 1026:0.0128 1028:0.05118 1030:0.0128 1032:0.0128 1033:0.0128 1034:0.03839 1036:0.0128 1039:0.0128 1040:0.06398 1042:0.0128 1043:0.02559 1044:0.0128 1045:0.0128 1047:0.0128 1048:0.0128 1050:0.0128 1051:0.02559 1054:0.0128 1056:0.0128 1057:0.0128 1058:0.0128 1059:0.0128 1060:0.0128 1065:0.05118 1066:0.0128 1071:0.05118 1073:0.0128 1076:0.02559 1079:0.0128 1081:0.0128 1082:0.0128 1083:0.0128 1084:0.0128 1085:0.02559 1086:0.02559 1088:0.02559 1090:0.02559 1092:0.0128 1096:0.0128 1097:0.0128 1098:0.0128 1099:0.02559 1104:0.02559 1106:0.0128 1113:0.02559 1118:0.0128 1119:0.0128 1125:0.0128 1127:0.0128 1132:0.02559 1137:0.0128 1138:0.0128 1142:0.0128 1143:0.0128 1146:0.0128 1148:0.02559 1150:0.02559 1151:0.05118 1152:0.03839 1153:0.0128 1154:0.02559 1155:0.0128 1156:0.0128 1159:0.0128 1164:0.0128 1165:0.0128 1167:0.0128 1168:0.02559 1170:0.02559 1171:0.0128 1172:0.03839 1176:0.0128 1177:0.0128 1178:0.0128 1179:0.0128 1181:0.0128 1182:0.0128 1185:0.0128 1186:0.0128 1188:0.02559 1189:0.0128 1190:0.0128 1193:0.0128 1194:0.0128 1197:0.03839 1199:0.0128 1200:0.0128 1202:0.0128 1204:0.0128 1205:0.0128 1207:0.0128 1210:0.02559 1211:0.0128 1213:0.0128 1216:0.0128 1221:0.0128 1224:0.0128 1229:0.0128 1233:0.0128 1235:0.0128 1238:0.0128 1240:0.0128 1247:0.0128 1249:0.03839 1251:0.0128 1259:0.0128 1262:0.0128 1267:0.0128 1269:0.06398 1270:0.0128 1271:0.0128 1272:0.0128 1273:0.0128 1275:0.0128 1276:0.02559 1277:0.03839 1279:0.0128 1280:0.05118 1281:0.03839 1282:0.02559 1283:0.0128 1284:0.0128 1285:0.0128 1287:0.0128 1288:0.0128 1293:0.0128 1294:0.0128 1295:0.0128 1296:0.02559 1297:0.0128 1299:0.0128 1300:0.0128 1306:0.02559 1309:0.0128 1311:0.0128 1312:0.02559 1313:0.02559 1314:0.0128 1315:0.0128 1316:0.0128 1317:0.0128 1318:0.0128 1321:0.0128 1323:0.0128 1326:0.0128 1333:0.0128 1340:0.0128 1342:0.02559 1343:0.0128 1344:0.0128 1345:0.0128 1351:0.0128 1354:0.02559 1356:0.0128 1359:0.0128 1360:0.0128 1373:0.0128 1380:0.0128 1382:0.0128 1383:0.0128 1384:0.0128 1385:0.0128 1393:0.0128 1397:0.0128 1403:0.0128 1404:0.0128 1405:0.0128 1409:0.03839 1411:0.0128 1416:0.0128 1418:0.0128 1420:0.0128 1422:0.0128 1424:0.02559 1425:0.0128 1429:0.0128 1431:0.0128 1432:0.0128 1436:0.0128 1439:0.0128 1443:0.02559 1449:0.0128 1453:0.0128 1457:0.0128 1459:0.0128 1468:0.02559 1471:0.02559 1472:0.0128 1473:0.0128 1476:0.02559 1477:0.02559 1478:0.02559 1479:0.0128 1482:0.0128 1491:0.0128 1492:0.0128 1498:0.0128 1504:0.03839 1505:0.03839 1506:0.0128 1507:0.0128 1508:0.02559 1512:0.0128 1514:0.0128 1516:0.0128 1519:0.02559 1520:0.0128 1521:0.02559 1527:0.0128 1529:0.02559 1530:0.03839 1533:0.0128 1536:0.0128 1537:0.0128 1538:0.02559 1539:0.0128 1540:0.02559 1545:0.0128 1547:0.0128 1549:0.0128 1551:0.0128 1555:0.0128 1567:0.0128 1576:0.0128 1577:0.0128 1581:0.02559 1582:0.0128 1583:0.0128 1585:0.0128 1591:0.02559 1592:0.02559 1599:0.0128 1600:0.02559 1601:0.0128 1602:0.0128 1605:0.0128 1616:0.0128 1617:0.0128 1619:0.0128 1625:0.0128 1629:0.0128 1630:0.0128 1643:0.0128 1647:0.0128 1650:0.02559 1651:0.0128 1654:0.0128 1657:0.0128 1658:0.0128 1660:0.0128 1662:0.0128 1664:0.0128 1665:0.02559 1668:0.03839 1670:0.0128 1673:0.0128 1674:0.0128 1676:0.02559 1682:0.0128 1691:0.0128 1694:0.0128 1697:0.02559 1698:0.0128 1699:0.0128 1700:0.0128 1715:0.02559 1716:0.02559 1718:0.0128 1721:0.0128 1724:0.0128 1727:0.0128 1728:0.0128 1729:0.0128 1738:0.0128 1739:0.0128 1759:0.0128 1769:0.0128 1771:0.0128 1776:0.02559 1780:0.0128 1781:0.0128 1784:0.0128 1785:0.0128 1786:0.0128 1787:0.0128 1789:0.0128 1790:0.0128 1792:0.0128 1793:0.0128 1795:0.0128 1796:0.02559 1804:0.0128 1805:0.03839 1806:0.0128 1807:0.0128 1809:0.02559 1810:0.0128 1812:0.0128 1815:0.02559 1816:0.02559 1818:0.0128 1819:0.0128 1821:0.0128 1824:0.0128 1825:0.0128 1830:0.0128 1831:0.0128 1836:0.0128 1848:0.0128 1853:0.02559 1854:0.02559 1856:0.02559 1859:0.05118 1866:0.0128 1867:0.0128 1870:0.0128 1871:0.0128 1873:0.0128 1876:0.0128 1879:0.0128 1881:0.0128 1883:0.02559 1884:0.0128 1888:0.02559 1889:0.02559 1892:0.0128 1896:0.0128 1898:0.0128 1900:0.0128 1915:0.0128 1918:0.06398 1919:0.0128 1921:0.03839 1923:0.03839 1924:0.0128 1925:0.0128 1926:0.0128 1929:0.0128 1931:0.0128 1934:0.02559 1935:0.0128 1936:0.0128 1937:0.0128 1938:0.02559 1944:0.02559 1951:0.0128 1953:0.0128 1954:0.0128 1956:0.0128 1959:0.0128 1960:0.02559 1961:0.0128 1962:0.0128 1964:0.0128 1968:0.0128 1973:0.0128 1974:0.0128 1975:0.0128 1976:0.0128 1977:0.02559 1978:0.0128 1979:0.0128 1981:0.0128 1983:0.02559 1984:0.03839 1985:0.03839 1986:0.0128 1988:0.0128 1989:0.0128 1996:0.0128 1997:0.0128 2000:0.0128 2001:0.0128 2003:0.03839 2004:0.0128 2005:0.03839 2009:0.0128 2011:0.0128 2013:0.0128 2014:0.0128 2015:0.0128 2016:0.0128 2017:0.03839 2019:0.05118 2020:0.0128 2022:0.02559 2024:0.02559 2030:0.0128 2033:0.05118 2035:0.0128 2036:0.02559 2037:0.02559 2038:0.02559 2039:0.0128 2040:0.0128 2041:0.02559 2043:0.0128 2044:0.02559 2045:0.0128 2046:0.02559 2048:0.03839 2049:0.05118 2050:0.0128 2051:0.02559 2052:0.05118 2053:0.07677 2055:0.0128 2056:0.0128 2057:0.0128 2058:0.0128 2060:0.03839 2061:0.03839 2062:0.03839 2064:0.07677 2065:0.0128 2066:0.0128 2072:0.02559 2074:0.0128 2076:0.0128 2077:0.0128 2078:0.0128 2081:0.02559 2082:0.0128 2083:0.06398 2087:0.0128 2088:0.0128 2090:0.0128 2093:0.0128 2095:0.02559 2098:0.02559 2099:0.02559 2102:0.02559 2104:0.03839 2105:0.03839 2106:0.03839 2107:0.02559 2110:0.02559 2111:0.02559 2112:0.08957 2113:0.0128 2115:0.0128 2116:0.0128 2120:0.02559 2121:0.02559 2122:0.0128 2124:0.0128 2126:0.0128 2127:0.0128 2130:0.0128 2133:0.0128 2137:0.0128 2160:0.0128 2166:0.0128 2167:0.0128 2171:0.0128 2172:0.0128 2173:0.0128 2179:0.0128 2180:0.0128 2181:0.02559 2182:0.0128 2190:0.02559 2193:0.0128 2198:0.0128 2199:0.0128 2204:0.0128 2206:0.02559 2207:0.0128 2208:0.0128 2209:0.0128 2214:0.0128 2215:0.0128 2217:0.0128 2223:0.0128 2224:0.0128 2225:0.0128 2228:0.0128 2229:0.0128 2230:0.0128 2234:0.0128 2236:0.0128 2238:0.0128 2239:0.0128 2240:0.0128 2241:0.0128 2242:0.0128 2250:0.0128 2259:0.02559 2260:0.0128 2261:0.0128 2264:0.02559 2265:0.02559 2267:0.0128 2268:0.0128 2270:0.02559 2272:0.02559 2275:0.0128 2277:0.0128 2281:0.0128 2285:0.0128 2286:0.0128 2291:0.0128 2292:0.02559 2294:0.02559 2296:0.03839 2299:0.0128 2301:0.03839 2302:0.03839 2304:0.02559 2305:0.0128 2308:0.02559 2309:0.02559 2311:0.0128 2313:0.0128 2315:0.03839 2321:0.0128 2322:0.0128 2323:0.0128 2325:0.0128 2334:0.0128 2335:0.02559 2336:0.03839 2337:0.0128 2343:0.0128 2348:0.0128 2349:0.0128 2351:0.0128 2352:0.0128 2354:0.0128 2356:0.0128 2357:0.0128 2366:0.03839 2367:0.0128 2368:0.02559 2369:0.0128 2370:0.02559 2372:0.05118 2377:0.02559 2379:0.0128 2385:0.0128 2386:0.0128 2387:0.0128 2388:0.0128 2399:0.0128 2402:0.0128 2403:0.0128 2406:0.0128 2417:0.02559 2418:0.0128 2421:0.0128 2424:0.0128 2428:0.02559 2430:0.0128 2431:0.0128 2432:0.0128 2433:0.0128 2436:0.0128 2437:0.0128 2443:0.0128 2445:0.0128 2450:0.0128 2452:0.0128 2456:0.0128 2463:0.0128 2465:0.0128 2469:0.0128 2473:0.03839 2480:0.0128 2483:0.0128 2491:0.02559 2494:0.0128 2495:0.0128 2497:0.02559 2503:0.0128 2504:0.0128 2505:0.0128 2507:0.0128 2510:0.0128 2512:0.03839 2513:0.02559 2519:0.0128 2520:0.0128 2523:0.0128 2528:0.03839 2529:0.02559 2530:0.0128 2531:0.0128 2532:0.02559 2533:0.0128 2539:0.02559 2542:0.0128 2543:0.0128 2544:0.0128 2549:0.0128 2552:0.0128 2557:0.0128 2558:0.0128 2559:0.03839 2560:0.0128 2561:0.05118 2562:0.03839 2563:0.02559 2564:0.05118 2568:0.02559 2569:0.02559 2572:0.0128 2573:0.0128 2574:0.02559 2575:0.0128 2576:0.08957 2577:0.0128 2578:0.0128 2579:0.0128 2583:0.0128 2590:0.0128 2592:0.0128 2593:0.02559 2594:0.0128 2596:0.0128 2599:0.0128 2600:0.0128 2606:0.0128 2607:0.0128 2608:0.0128 2613:0.0128 2614:0.02559 2617:0.0128 2620:0.0128 2621:0.0128 2622:0.02559 2624:0.0128 2625:0.0128 2627:0.02559 2629:0.0128 2632:0.0128 2636:0.02559 2637:0.0128 2640:0.0128 2641:0.02559 2645:0.0128 2653:0.0128 2654:0.0128 2655:0.0128 2658:0.0128 2661:0.0128 2666:0.0128 2667:0.0128 2668:0.0128 2673:0.02559 2675:0.0128 2676:0.0128 2680:0.02559 2683:0.0128 2689:0.03839 2690:0.0128 2692:0.03839 2693:0.0128 2697:0.0128 2703:0.0128 2705:0.0128 2708:0.0128 2712:0.0128 2717:0.0128 2718:0.0128 2736:0.0128 2741:0.0128 2749:0.0128 2753:0.0128 2760:0.0128 2761:0.0128 2763:0.02559 2764:0.0128 2768:0.02559 2771:0.0128 2775:0.0128 2782:0.0128 2786:0.0128 2789:0.0128 2797:0.0128 2800:0.02559 2801:0.0128 2808:0.02559 2809:0.0128 2812:0.02559 2815:0.0128 2816:0.0128 2818:0.0128 2820:0.02559 2825:0.0128 2840:0.0128 2845:0.0128 2847:0.0128 2848:0.0128 2849:0.02559 2852:0.02559 2855:0.02559 2857:0.05118 2858:0.0128 2863:0.0128 2865:0.0128 2874:0.0128 2876:0.0128 2877:0.03839 2878:0.02559 2880:0.0128 2884:0.0128 2885:0.0128 2886:0.0128 2890:0.0128 2891:0.0128 2899:0.0128 2903:0.0128 2905:0.0128 2909:0.0128 2911:0.0128 2912:0.0128 2918:0.0128 2922:0.0128 2933:0.02559 2934:0.0128 2939:0.0128 2941:0.0128 2942:0.0128 2943:0.0128 2952:0.02559 2960:0.02559 2961:0.02559 2963:0.02559 2964:0.0128 2965:0.0128 2967:0.0128 2970:0.0128 2975:0.02559 2977:0.05118 2980:0.02559 2986:0.0128 2990:0.0128 2991:0.0128 2995:0.0128 2996:0.0128 2998:0.0128 3000:0.0128 3002:0.0128 3005:0.03839 3006:0.0128 3007:0.0128 3008:0.02559 3009:0.02559 3010:0.02559 3011:0.0128 3012:0.05118 3021:0.0128 3022:0.0128 3024:0.0128 3025:0.02559 3030:0.0128 3032:0.0128 3037:0.0128 3039:0.02559 3040:0.0128 3041:0.02559 3044:0.0128 3045:0.02559 3047:0.0128 3049:0.0128 3050:0.02559 3053:0.0128 3055:0.02559 3057:0.03839 3058:0.0128 3061:0.02559 3062:0.03839 3063:0.02559 3064:0.0128 3067:0.02559 3069:0.02559 3070:0.0128 3071:0.0128 3073:0.02559 3074:0.02559 3075:0.0128 3076:0.0128 3077:0.02559 3079:0.0128 3080:0.0128 3081:0.02559 3082:0.0128 3083:0.0128 3084:0.03839 3085:0.0128 3086:0.03839 3087:0.03839 3088:0.02559 3089:0.02559 3090:0.03839 3091:0.0128 3094:0.0128 3097:0.0128 3103:0.0128 3104:0.03839 3105:0.0128 3106:0.0128 3108:0.0128 3113:0.0128 3115:0.0128 3118:0.0128 3120:0.03839 3121:0.02559 3122:0.03839 3123:0.02559 3126:0.0128 3128:0.02559 3129:0.0128 3135:0.02559 3136:0.02559 3137:0.0128 3138:0.0128 3140:0.0128 3141:0.0128 3142:0.0128 3149:0.0128 3150:0.0128 3161:0.0128 3163:0.0128 3164:0.02559 3167:0.03839 3168:0.0128 3176:0.0128 3177:0.02559 3185:0.0128 3188:0.02559 3191:0.02559 3194:0.0128 3196:0.0128 3198:0.0128 3200:0.03839 3202:0.0128 3203:0.0128 3204:0.05118 3213:0.0128 3216:0.0128 3217:0.0128 3220:0.0128 3221:0.03839 3222:0.0128 3225:0.03839 3231:0.0128 3233:0.02559 3234:0.0128 3236:0.0128 3237:0.0128 3238:0.0128 3239:0.0128 3243:0.0128 3248:0.0128 3250:0.0128 3251:0.0128 3252:0.0128 3259:0.0128 3260:0.0128 3262:0.0128 3265:0.0128 3266:0.0128 3267:0.0128 3268:0.0128 3272:0.0128 3279:0.0128 3290:0.0128 3293:0.0128 3295:0.0128 3301:0.0128 3302:0.0128 3309:0.0128 3313:0.05118 3315:0.03839 3317:0.0128 3318:0.0128 3319:0.0128 3320:0.0128 3321:0.0128 3323:0.0128 3324:0.0128 3325:0.0128 3326:0.03839 3328:0.05118 3329:0.02559 3331:0.02559 3334:0.0128 3335:0.0128 3336:0.0128 3337:0.02559 3339:0.02559 3340:0.05118 3341:0.0128 3343:0.0128 3344:0.02559 3347:0.02559 3351:0.0128 3360:0.0128 3364:0.0128 3365:0.03839 3367:0.0128 3368:0.02559 3369:0.03839 3372:0.05118 3376:0.0128 3382:0.0128 3385:0.05118 3389:0.0128 3390:0.03839 3391:0.0128 3392:0.02559 3393:0.06398 3394:0.0128 3397:0.0128 3399:0.0128 3400:0.05118 3401:0.03839 3406:0.0128 3408:0.03839 3411:0.0128 3412:0.0128 3417:0.0128 3418:0.03839 3419:0.0128 3422:0.0128 3423:0.0128 3424:0.0128 3425:0.0128 3428:0.02559 3429:0.0128 3435:0.0128 3436:0.0128 3437:0.02559 3440:0.02559 3442:0.05118 3447:0.0128 3449:0.03839 3451:0.0128 3453:0.0128 3455:0.05118 3457:0.02559 3459:0.0128 3460:0.0128 3468:0.03839 3470:0.02559 3472:0.0128 3477:0.0128 3485:0.03839 3487:0.0128 3489:0.0128 3490:0.0128 3491:0.0128 3495:0.0128 3496:0.0128 3497:0.0128 3501:0.0128 3502:0.0128 3503:0.02559 3517:0.0128 3521:0.0128 3524:0.0128 3525:0.02559 3526:0.0128 3528:0.0128 3530:0.0128 3536:0.0128 3537:0.0128 3539:0.0128 3540:0.0128 3541:0.0128 3542:0.0128 3543:0.0128 3544:0.0128 3553:0.0128 3557:0.0128 3561:0.03839 3562:0.02559 3566:0.02559 3567:0.0128 3568:0.0128 3569:0.0128 3570:0.0128 3572:0.0128 3573:0.02559 3574:0.02559 3575:0.0128 3576:0.03839 3577:0.02559 3578:0.0128 3580:0.0128 3581:0.02559 3582:0.0128 3583:0.0128 3584:0.02559 3585:0.06398 3586:0.02559 3587:0.02559 3588:0.05118 3589:0.0128 3591:0.0128 3593:0.02559 3594:0.0128 3596:0.02559 3597:0.0128 3599:0.06398 3600:0.02559 3601:0.0128 3603:0.0128 3606:0.0128 3614:0.0128 3615:0.0128 3618:0.02559 3620:0.0128 3621:0.0128 3624:0.0128 3626:0.0128 3627:0.0128 3632:0.0128 3638:0.0128 3640:0.02559 3642:0.0128 3643:0.0128 3648:0.05118 3649:0.0128 3650:0.02559 3653:0.0128 3654:0.0128 3656:0.03839 3657:0.0128 3658:0.0128 3660:0.0128 3661:0.0128 3662:0.0128 3665:0.03839 3669:0.0128 3672:0.0128 3674:0.0128 3677:0.0128 3679:0.0128 3680:0.0128 3686:0.0128 3688:0.0128 3689:0.0128 3695:0.0128 3700:0.02559 3701:0.0128 3705:0.03839 3707:0.0128 3708:0.02559 3713:0.05118 3715:0.03839 3716:0.05118 3717:0.0128 3721:0.0128 3724:0.0128 3726:0.0128 3728:0.05118 3729:0.0128 3730:0.0128 3732:0.0128 3736:0.02559 3737:0.0128 3739:0.0128 3741:0.03839 3745:0.02559 3749:0.0128 3750:0.0128 3752:0.02559 3758:0.0128 3768:0.0128 3770:0.0128 3775:0.0128 3776:0.0128 3779:0.0128 3785:0.02559 3787:0.02559 3791:0.0128 3792:0.0128 3793:0.0128 3795:0.0128 3797:0.0128 3798:0.0128 3800:0.0128 3802:0.0128 3806:0.02559 3808:0.03839 3810:0.0128 3812:0.0128 3813:0.0128 3814:0.0128 3815:0.0128 3817:0.0128 3820:0.02559 3821:0.0128 3824:0.0128 3825:0.06398 3828:0.0128 3829:0.0128 3832:0.0128 3834:0.02559 3835:0.0128 3836:0.0128 3837:0.02559 3838:0.07677 3840:0.0128 3841:0.03839 3842:0.03839 3843:0.05118 3844:0.06398 3845:0.06398 3846:0.0128 3848:0.03839 3849:0.0128 3851:0.02559 3852:0.02559 3853:0.05118 3856:0.03839 3857:0.0128 3864:0.0128 3867:0.0128 3870:0.0128 3873:0.02559 3878:0.02559 3882:0.02559 3883:0.0128 3885:0.0128 3887:0.0128 3888:0.0128 3889:0.02559 3890:0.0128 3892:0.0128 3895:0.0128 3896:0.0128 3901:0.02559 3903:0.0128 3904:0.03839 3905:0.05118 3906:0.02559 3907:0.03839 3908:0.03839 3913:0.0128 3914:0.02559 3915:0.03839 3916:0.0128 3919:0.03839 3920:0.07677 3921:0.03839 3922:0.05118 3923:0.0128 3924:0.03839 3925:0.02559 3927:0.02559 3928:0.03839 3929:0.0128 3930:0.0128 3932:0.03839 3933:0.02559 3934:0.0128 3935:0.0128 3936:0.02559 3939:0.02559 3940:0.02559 3944:0.02559 3945:0.0128 3948:0.03839 3953:0.02559 3954:0.02559 3955:0.0128 3956:0.0128 3958:0.02559 3962:0.0128 3963:0.02559 3964:0.02559 3965:0.0128 3966:0.02559 3967:0.0128 3968:0.03839 3969:0.08957 3970:0.02559 3971:0.0128 3972:0.02559 3973:0.0128 3977:0.0128 3978:0.02559 3980:0.0128 3983:0.0128 3984:0.0128 3986:0.02559 3987:0.0128 3988:0.0128 3989:0.0128 3990:0.0128 3992:0.0128 3995:0.0128 3996:0.0128 3997:0.0128 3998:0.0128 4001:0.03839 4003:0.0128 4004:0.02559 4005:0.03839 4006:0.02559 4007:0.0128 4008:0.0128 4010:0.0128 4016:0.0128 4017:0.0128 4019:0.02559 4021:0.0128 4022:0.0128 4024:0.0128 4026:0.0128 4027:0.0128 4028:0.0128 4029:0.02559 4030:0.0128 4032:0.03839 4033:0.10236 4034:0.02559 4035:0.03839 4036:0.02559 4038:0.0128 4039:0.0128 4040:0.0128 4041:0.0128 4042:0.02559 4043:0.0128 4045:0.0128 4046:0.0128 4048:0.02559 4049:0.08957 4051:0.03839 4052:0.03839 4053:0.05118 4054:0.03839 4055:0.02559 4056:0.05118 4057:0.02559 4058:0.0128 4059:0.03839 4063:0.0128 4064:0.05118 4065:0.05118 4069:0.0128 4070:0.0128 4071:0.0128 4073:0.06398 4074:0.0128 4075:0.0128 4077:0.0128 4078:0.0128 4080:0.05118 4081:0.03839 4083:0.0128 4084:0.02559 4085:0.06398 4086:0.05118 4087:0.0128 4088:0.0128 4089:0.02559 4090:0.0128 4091:0.03839 4092:0.0128 4093:0.02559 4094:0.05118 4095:0.02559 4096:0.0128 
0.686162167064296 2:0.03501 3:0.07001 6:0.03501 7:0.03501 9:0.07001 22:0.03501 27:0.03501 33:0.03501 36:0.03501 38:0.03501 40:0.03501 65:0.07001 69:0.03501 85:0.03501 107:0.03501 123:0.03501 129:0.03501 131:0.03501 141:0.03501 147:0.07001 148:0.03501 150:0.03501 151:0.07001 159:0.07001 165:0.03501 169:0.03501 172:0.03501 215:0.03501 229:0.03501 246:0.07001 257:0.03501 259:0.03501 266:0.03501 273:0.03501 294:0.03501 308:0.03501 311:0.03501 337:0.03501 339:0.03501 352:0.03501 358:0.03501 405:0.03501 425:0.03501 490:0.03501 491:0.03501 513:0.03501 521:0.03501 529:0.03501 532:0.03501 554:0.14003 564:0.03501 585:0.03501 586:0.10502 589:0.03501 595:0.07001 597:0.03501 602:0.07001 603:0.03501 615:0.03501 617:0.03501 618:0.03501 631:0.03501 634:0.10502 637:0.03501 640:0.03501 657:0.03501 659:0.10502 660:0.03501 661:0.03501 662:0.07001 665:0.03501 673:0.03501 687:0.03501 741:0.03501 769:0.03501 802:0.03501 824:0.03501 828:0.03501 859:0.03501 867:0.03501 869:0.07001 896:0.03501 913:0.03501 920:0.03501 921:0.03501 928:0.03501 952:0.03501 955:0.03501 962:0.03501 982:0.07001 998:0.03501 1025:0.03501 1034:0.07001 1041:0.07001 1061:0.07001 1062:0.03501 1066:0.03501 1082:0.03501 1091:0.03501 1098:0.03501 1101:0.03501 1112:0.03501 1114:0.03501 1147:0.03501 1157:0.03501 1163:0.14003 1173:0.03501 1175:0.03501 1178:0.03501 1179:0.07001 1182:0.03501 1184:0.07001 1190:0.10502 1210:0.03501 1217:0.03501 1225:0.03501 1230:0.03501 1241:0.03501 1242:0.07001 1274:0.03501 1283:0.03501 1285:0.03501 1290:0.03501 1300:0.03501 1314:0.03501 1319:0.03501 1322:0.07001 1327:0.03501 1328:0.03501 1345:0.03501 1347:0.03501 1355:0.07001 1356:0.03501 1386:0.03501 1392:0.03501 1405:0.03501 1406:0.03501 1430:0.03501 1434:0.03501 1439:0.07001 1441:0.03501 1444:0.03501 1448:0.03501 1450:0.03501 1472:0.03501 1497:0.03501 1503:0.14003 1509:0.03501 1515:0.07001 1521:0.03501 1526:0.03501 1530:0.03501 1558:0.03501 1562:0.03501 1574:0.03501 1576:0.03501 1578:0.03501 1594:0.07001 1596:0.03501 1606:0.07001 1614:0.07001 1617:0.03501 1623:0.03501 1630:0.03501 1640:0.03501 1642:0.03501 1658:0.07001 1659:0.03501 1665:0.03501 1667:0.03501 1680:0.03501 1695:0.03501 1696:0.07001 1697:0.03501 1703:0.03501 1722:0.03501 1754:0.03501 1792:0.03501 1802:0.07001 1850:0.03501 1890:0.03501 1892:0.03501 1893:0.03501 1914:0.14003 1937:0.03501 1938:0.07001 1944:0.10502 1949:0.07001 1952:0.07001 1958:0.03501 1960:0.07001 1962:0.07001 1964:0.03501 1978:0.03501 1987:0.07001 1994:0.07001 2007:0.03501 2016:0.03501 2021:0.03501 2022:0.03501 2027:0.03501 2031:0.03501 2043:0.03501 2044:0.03501 2048:0.07001 2049:0.03501 2050:0.03501 2081:0.03501 2091:0.03501 2110:0.07001 2113:0.03501 2126:0.03501 2133:0.03501 2150:0.03501 2197:0.03501 2207:0.03501 2213:0.14003 2215:0.03501 2255:0.03501 2279:0.07001 2286:0.03501 2289:0.03501 2309:0.03501 2314:0.03501 2315:0.03501 2319:0.03501 2323:0.03501 2326:0.03501 2327:0.03501 2335:0.03501 2339:0.14003 2343:0.07001 2344:0.10502 2346:0.03501 2353:0.03501 2355:0.03501 2359:0.07001 2367:0.03501 2370:0.03501 2373:0.03501 2377:0.03501 2378:0.03501 2380:0.03501 2385:0.03501 2387:0.07001 2395:0.03501 2407:0.03501 2408:0.03501 2411:0.03501 2423:0.03501 2424:0.14003 2426:0.03501 2427:0.07001 2431:0.03501 2439:0.03501 2442:0.03501 2447:0.07001 2459:0.03501 2463:0.03501 2465:0.03501 2472:0.07001 2479:0.03501 2487:0.03501 2499:0.07001 2521:0.03501 2522:0.03501 2533:0.07001 2536:0.10502 2538:0.03501 2543:0.03501 2545:0.03501 2547:0.07001 2554:0.03501 2555:0.03501 2556:0.03501 2559:0.07001 2561:0.03501 2571:0.03501 2576:0.07001 2621:0.03501 2627:0.03501 2628:0.03501 2633:0.10502 2637:0.03501 2643:0.03501 2645:0.07001 2655:0.10502 2658:0.03501 2668:0.03501 2670:0.03501 2679:0.03501 2684:0.03501 2685:0.03501 2687:0.03501 2688:0.03501 2692:0.07001 2712:0.07001 2715:0.03501 2720:0.03501 2743:0.03501 2746:0.03501 2752:0.03501 2777:0.03501 2791:0.07001 2816:0.03501 2915:0.03501 2918:0.03501 2932:0.03501 2939:0.03501 2963:0.07001 2969:0.07001 2981:0.03501 3005:0.03501 3012:0.03501 3045:0.03501 3050:0.03501 3070:0.03501 3072:0.03501 3073:0.03501 3090:0.03501 3109:0.03501 3110:0.03501 3112:0.03501 3115:0.03501 3126:0.03501 3205:0.03501 3219:0.07001 3296:0.03501 3302:0.03501 3304:0.03501 3311:0.03501 3420:0.03501 3424:0.03501 3432:0.03501 3433:0.07001 3462:0.03501 3466:0.03501 3467:0.03501 3471:0.03501 3474:0.07001 3476:0.03501 3480:0.03501 3535:0.03501 3558:0.10502 3560:0.03501 3562:0.03501 3576:0.03501 3584:0.07001 3650:0.03501 3651:0.03501 3653:0.03501 3656:0.03501 3658:0.07001 3659:0.03501 3664:0.03501 3666:0.03501 3678:0.14003 3680:0.03501 3683:0.03501 3684:0.07001 3697:0.07001 3709:0.03501 3711:0.07001 3729:0.03501 3736:0.03501 3740:0.03501 3742:0.03501 3743:0.03501 3750:0.07001 3752:0.03501 3758:0.03501 3760:0.03501 3805:0.03501 3807:0.03501 3813:0.03501 3818:0.03501 3824:0.03501 3825:0.03501 3834:0.03501 3835:0.03501 3845:0.03501 3850:0.03501 3851:0.03501 3854:0.03501 3877:0.07001 3898:0.03501 3927:0.03501 3928:0.03501 3930:0.03501 3931:0.03501 3966:0.03501 3968:0.03501 3987:0.03501 3988:0.03501 3989:0.03501 3992:0.03501 4007:0.03501 4010:0.03501 4012:0.03501 4024:0.03501 4028:0.03501 4031:0.07001 4047:0.03501 4055:0.03501 4064:0.03501 4075:0.03501 4078:0.03501 4080:0.07001 4084:0.03501 4086:0.03501 4088:0.03501 4092:0.03501 4093:0.03501 4094:0.03501 4095:0.03501 
1.422190066432324 2:0.02503 3:0.02503 6:0.02503 7:0.02503 10:0.02503 11:0.02503 13:0.02503 15:0.02503 20:0.02503 22:0.02503 26:0.02503 27:0.02503 40:0.02503 42:0.02503 47:0.02503 49:0.02503 52:0.02503 55:0.02503 58:0.02503 60:0.02503 61:0.02503 62:0.07509 63:0.05006 64:0.05006 74:0.02503 75:0.02503 76:0.02503 77:0.02503 79:0.02503 87:0.02503 101:0.02503 104:0.02503 106:0.02503 117:0.02503 141:0.02503 147:0.02503 153:0.02503 159:0.05006 165:0.02503 170:0.02503 183:0.02503 185:0.02503 186:0.02503 187:0.02503 193:0.02503 196:0.02503 205:0.02503 206:0.02503 212:0.02503 217:0.02503 218:0.05006 223:0.02503 229:0.02503 237:0.02503 239:0.02503 244:0.02503 245:0.02503 246:0.05006 249:0.02503 250:0.02503 253:0.02503 254:0.10013 255:0.07509 258:0.02503 260:0.02503 261:0.02503 271:0.02503 273:0.02503 283:0.02503 290:0.02503 291:0.02503 293:0.02503 296:0.02503 298:0.02503 300:0.02503 302:0.02503 305:0.02503 307:0.02503 316:0.05006 319:0.02503 320:0.02503 321:0.02503 339:0.02503 346:0.02503 347:0.02503 366:0.02503 367:0.02503 378:0.02503 380:0.02503 402:0.02503 403:0.05006 405:0.02503 413:0.02503 415:0.02503 421:0.02503 422:0.02503 423:0.02503 427:0.02503 430:0.02503 431:0.02503 451:0.02503 465:0.02503 473:0.02503 475:0.02503 490:0.07509 491:0.02503 496:0.02503 506:0.05006 507:0.02503 511:0.02503 516:0.05006 531:0.02503 532:0.02503 538:0.02503 539:0.02503 541:0.02503 546:0.05006 547:0.02503 549:0.02503 551:0.02503 554:0.02503 555:0.02503 564:0.02503 569:0.02503 575:0.02503 578:0.02503 583:0.02503 585:0.05006 586:0.10013 593:0.02503 598:0.02503 611:0.02503 612:0.02503 623:0.02503 624:0.02503 631:0.02503 633:0.02503 634:0.02503 636:0.02503 637:0.02503 640:0.02503 657:0.05006 662:0.05006 667:0.02503 675:0.02503 679:0.05006 682:0.05006 689:0.02503 691:0.02503 721:0.02503 729:0.02503 730:0.02503 734:0.02503 738:0.02503 741:0.02503 742:0.02503 743:0.02503 745:0.05006 746:0.05006 762:0.02503 769:0.07509 778:0.02503 781:0.02503 784:0.02503 788:0.02503 795:0.02503 801:0.02503 803:0.02503 817:0.05006 818:0.02503 824:0.02503 829:0.02503 832:0.02503 846:0.02503 849:0.02503 867:0.02503 870:0.02503 872:0.02503 890:0.05006 895:0.02503 912:0.02503 913:0.02503 916:0.05006 917:0.02503 919:0.02503 948:0.02503 952:0.02503 955:0.05006 959:0.02503 960:0.02503 961:0.02503 973:0.02503 976:0.02503 977:0.02503 981:0.02503 982:0.02503 994:0.02503 995:0.02503 997:0.02503 1001:0.02503 1002:0.05006 1006:0.02503 1009:0.02503 1014:0.05006 1016:0.05006 1017:0.02503 1018:0.02503 1019:0.07509 1020:0.02503 1021:0.02503 1022:0.02503 1029:0.02503 1036:0.02503 1037:0.02503 1038:0.02503 1039:0.02503 1040:0.07509 1043:0.05006 1044:0.02503 1050:0.02503 1054:0.02503 1060:0.02503 1061:0.02503 1067:0.02503 1070:0.02503 1071:0.05006 1077:0.02503 1079:0.05006 1080:0.02503 1084:0.02503 1088:0.05006 1089:0.05006 1090:0.02503 1093:0.02503 1095:0.02503 1099:0.02503 1103:0.02503 1104:0.02503 1109:0.02503 1116:0.02503 1125:0.02503 1126:0.02503 1128:0.02503 1130:0.02503 1132:0.02503 1143:0.05006 1147:0.07509 1151:0.05006 1152:0.02503 1153:0.02503 1159:0.02503 1162:0.02503 1163:0.02503 1167:0.02503 1168:0.02503 1169:0.02503 1171:0.10013 1173:0.02503 1174:0.02503 1180:0.02503 1182:0.02503 1184:0.05006 1189:0.02503 1194:0.02503 1195:0.02503 1197:0.05006 1205:0.02503 1207:0.02503 1211:0.07509 1217:0.02503 1223:0.02503 1225:0.02503 1237:0.02503 1247:0.02503 1254:0.05006 1263:0.02503 1264:0.02503 1276:0.02503 1279:0.02503 1280:0.02503 1284:0.07509 1292:0.02503 1294:0.07509 1299:0.02503 1300:0.05006 1302:0.02503 1306:0.02503 1311:0.07509 1312:0.02503 1317:0.02503 1318:0.02503 1326:0.02503 1327:0.07509 1345:0.02503 1349:0.02503 1350:0.02503 1351:0.02503 1354:0.05006 1356:0.02503 1363:0.02503 1369:0.02503 1372:0.02503 1373:0.02503 1375:0.02503 1379:0.02503 1382:0.02503 1387:0.05006 1390:0.02503 1394:0.02503 1400:0.02503 1402:0.05006 1407:0.02503 1419:0.02503 1420:0.02503 1429:0.02503 1430:0.02503 1431:0.02503 1432:0.02503 1441:0.05006 1445:0.02503 1446:0.07509 1447:0.05006 1450:0.02503 1452:0.02503 1460:0.02503 1462:0.02503 1464:0.02503 1466:0.02503 1468:0.02503 1472:0.02503 1478:0.02503 1490:0.02503 1499:0.02503 1502:0.02503 1503:0.02503 1510:0.05006 1511:0.02503 1519:0.02503 1520:0.02503 1529:0.02503 1536:0.02503 1538:0.02503 1567:0.02503 1568:0.02503 1570:0.02503 1576:0.02503 1578:0.02503 1583:0.05006 1599:0.05006 1600:0.02503 1605:0.02503 1608:0.02503 1609:0.02503 1611:0.02503 1617:0.02503 1618:0.02503 1619:0.05006 1624:0.05006 1625:0.02503 1626:0.02503 1627:0.05006 1628:0.02503 1630:0.02503 1650:0.02503 1656:0.02503 1657:0.02503 1661:0.02503 1665:0.07509 1671:0.02503 1683:0.02503 1684:0.02503 1685:0.02503 1687:0.05006 1689:0.05006 1690:0.05006 1691:0.02503 1702:0.02503 1705:0.02503 1706:0.02503 1709:0.02503 1712:0.02503 1717:0.02503 1721:0.02503 1743:0.02503 1751:0.02503 1758:0.02503 1759:0.02503 1763:0.05006 1768:0.02503 1771:0.02503 1775:0.02503 1786:0.02503 1790:0.02503 1792:0.02503 1802:0.02503 1814:0.02503 1816:0.02503 1841:0.02503 1852:0.02503 1859:0.05006 1860:0.02503 1862:0.02503 1863:0.05006 1880:0.02503 1890:0.02503 1892:0.02503 1894:0.02503 1896:0.02503 1898:0.02503 1899:0.02503 1908:0.02503 1909:0.05006 1910:0.02503 1912:0.02503 1914:0.02503 1916:0.02503 1925:0.02503 1926:0.02503 1938:0.02503 1942:0.05006 1943:0.02503 1948:0.05006 1950:0.02503 1951:0.10013 1952:0.02503 1958:0.02503 1959:0.05006 1962:0.02503 1963:0.02503 1964:0.02503 1973:0.05006 1976:0.02503 1979:0.02503 1982:0.02503 1983:0.05006 1996:0.02503 1997:0.02503 2018:0.02503 2019:0.05006 2022:0.05006 2026:0.02503 2042:0.02503 2045:0.02503 2048:0.02503 2049:0.02503 2052:0.02503 2055:0.02503 2064:0.10013 2067:0.02503 2112:0.07509 2116:0.02503 2121:0.05006 2122:0.02503 2125:0.02503 2129:0.02503 2140:0.02503 2149:0.02503 2155:0.02503 2156:0.02503 2161:0.02503 2171:0.02503 2172:0.02503 2175:0.02503 2181:0.05006 2183:0.02503 2184:0.02503 2185:0.05006 2186:0.02503 2187:0.02503 2194:0.02503 2195:0.02503 2201:0.02503 2207:0.02503 2214:0.05006 2215:0.02503 2217:0.02503 2234:0.05006 2239:0.02503 2256:0.02503 2276:0.02503 2277:0.02503 2297:0.02503 2299:0.07509 2303:0.02503 2307:0.02503 2308:0.02503 2309:0.02503 2311:0.02503 2312:0.02503 2316:0.05006 2320:0.02503 2321:0.05006 2322:0.05006 2331:0.02503 2334:0.05006 2336:0.02503 2337:0.02503 2339:0.02503 2340:0.05006 2341:0.07509 2342:0.02503 2344:0.02503 2347:0.05006 2348:0.02503 2354:0.02503 2358:0.02503 2362:0.05006 2368:0.02503 2369:0.02503 2371:0.02503 2372:0.05006 2373:0.05006 2376:0.05006 2380:0.07509 2385:0.02503 2386:0.05006 2387:0.02503 2389:0.02503 2391:0.02503 2392:0.05006 2395:0.02503 2399:0.02503 2400:0.02503 2403:0.02503 2406:0.02503 2409:0.05006 2410:0.10013 2413:0.02503 2415:0.02503 2416:0.02503 2421:0.02503 2423:0.02503 2424:0.02503 2428:0.02503 2432:0.02503 2433:0.02503 2440:0.02503 2441:0.02503 2442:0.02503 2448:0.05006 2450:0.02503 2454:0.02503 2455:0.05006 2465:0.02503 2466:0.02503 2471:0.02503 2476:0.02503 2488:0.02503 2489:0.05006 2491:0.02503 2495:0.02503 2496:0.02503 2502:0.02503 2514:0.02503 2521:0.02503 2522:0.02503 2526:0.02503 2527:0.02503 2530:0.05006 2533:0.02503 2536:0.10013 2539:0.05006 2542:0.02503 2544:0.02503 2547:0.02503 2548:0.02503 2553:0.02503 2560:0.02503 2561:0.05006 2564:0.05006 2576:0.05006 2577:0.02503 2587:0.02503 2595:0.02503 2618:0.02503 2625:0.05006 2626:0.02503 2627:0.05006 2629:0.05006 2632:0.02503 2633:0.02503 2635:0.05006 2639:0.05006 2641:0.02503 2642:0.02503 2643:0.02503 2645:0.02503 2647:0.02503 2651:0.07509 2652:0.02503 2654:0.05006 2657:0.02503 2658:0.02503 2659:0.02503 2660:0.02503 2661:0.02503 2662:0.05006 2665:0.05006 2666:0.02503 2667:0.02503 2671:0.02503 2682:0.02503 2683:0.02503 2689:0.02503 2692:0.02503 2697:0.02503 2705:0.05006 2706:0.05006 2707:0.05006 2712:0.05006 2714:0.02503 2715:0.02503 2719:0.02503 2721:0.02503 2725:0.07509 2728:0.02503 2739:0.02503 2747:0.02503 2752:0.02503 2753:0.02503 2762:0.02503 2763:0.02503 2769:0.02503 2771:0.02503 2787:0.02503 2795:0.02503 2816:0.02503 2817:0.02503 2855:0.02503 2859:0.02503 2868:0.02503 2874:0.02503 2883:0.02503 2884:0.02503 2888:0.02503 2890:0.05006 2898:0.02503 2906:0.02503 2915:0.02503 2918:0.02503 2933:0.02503 2935:0.02503 2936:0.05006 2940:0.02503 2949:0.02503 2953:0.02503 2954:0.02503 2955:0.02503 2961:0.02503 2963:0.02503 2965:0.02503 2966:0.05006 2970:0.02503 2972:0.02503 2974:0.02503 2977:0.02503 2978:0.02503 2981:0.05006 2982:0.02503 2983:0.02503 2985:0.02503 2986:0.05006 3002:0.05006 3025:0.02503 3041:0.02503 3045:0.02503 3046:0.02503 3048:0.02503 3055:0.02503 3063:0.02503 3068:0.02503 3069:0.02503 3072:0.02503 3073:0.02503 3074:0.02503 3075:0.02503 3076:0.02503 3088:0.02503 3111:0.02503 3112:0.02503 3121:0.02503 3124:0.02503 3136:0.02503 3152:0.02503 3159:0.02503 3167:0.05006 3178:0.02503 3201:0.02503 3209:0.02503 3228:0.02503 3243:0.02503 3256:0.02503 3265:0.02503 3267:0.02503 3268:0.02503 3269:0.02503 3273:0.02503 3277:0.05006 3280:0.02503 3296:0.02503 3301:0.02503 3310:0.02503 3312:0.02503 3313:0.02503 3316:0.02503 3327:0.02503 3328:0.02503 3332:0.02503 3333:0.02503 3337:0.02503 3338:0.02503 3339:0.02503 3342:0.02503 3344:0.02503 3351:0.02503 3354:0.05006 3360:0.02503 3367:0.02503 3368:0.02503 3384:0.02503 3396:0.02503 3400:0.05006 3410:0.02503 3415:0.02503 3422:0.02503 3430:0.05006 3434:0.05006 3464:0.02503 3466:0.02503 3468:0.02503 3472:0.02503 3477:0.05006 3479:0.05006 3486:0.02503 3488:0.02503 3495:0.02503 3499:0.02503 3533:0.02503 3535:0.02503 3537:0.05006 3538:0.02503 3542:0.02503 3546:0.02503 3549:0.02503 3550:0.05006 3558:0.02503 3559:0.02503 3560:0.05006 3566:0.05006 3577:0.02503 3589:0.02503 3600:0.02503 3603:0.05006 3605:0.02503 3607:0.02503 3615:0.02503 3618:0.02503 3619:0.05006 3621:0.02503 3626:0.02503 3632:0.02503 3647:0.02503 3650:0.02503 3652:0.02503 3653:0.02503 3656:0.02503 3658:0.02503 3661:0.02503 3662:0.02503 3664:0.02503 3665:0.02503 3666:0.05006 3669:0.07509 3670:0.07509 3675:0.02503 3676:0.02503 3679:0.02503 3680:0.02503 3686:0.02503 3694:0.02503 3695:0.02503 3696:0.02503 3701:0.02503 3704:0.02503 3706:0.07509 3707:0.02503 3708:0.02503 3711:0.02503 3716:0.02503 3717:0.02503 3727:0.02503 3729:0.02503 3730:0.02503 3732:0.02503 3733:0.05006 3735:0.02503 3737:0.05006 3739:0.02503 3740:0.02503 3743:0.02503 3745:0.02503 3749:0.07509 3750:0.02503 3754:0.02503 3759:0.02503 3765:0.02503 3789:0.02503 3794:0.02503 3795:0.02503 3797:0.02503 3806:0.05006 3813:0.02503 3814:0.05006 3815:0.02503 3818:0.05006 3819:0.02503 3823:0.02503 3829:0.02503 3833:0.02503 3834:0.02503 3836:0.02503 3839:0.02503 3844:0.02503 3853:0.02503 3864:0.02503 3886:0.02503 3891:0.02503 3892:0.05006 3900:0.02503 3901:0.02503 3904:0.02503 3905:0.02503 3906:0.02503 3922:0.02503 3925:0.02503 3926:0.02503 3930:0.02503 3931:0.05006 3942:0.02503 3956:0.02503 3962:0.02503 3970:0.02503 3972:0.02503 3974:0.02503 3976:0.02503 3977:0.05006 3980:0.02503 3986:0.02503 3988:0.02503 3989:0.02503 3990:0.05006 3992:0.05006 3999:0.02503 4004:0.02503 4005:0.02503 4006:0.02503 4007:0.02503 4008:0.02503 4010:0.02503 4014:0.02503 4022:0.02503 4026:0.05006 4028:0.02503 4036:0.02503 4038:0.02503 4045:0.02503 4047:0.02503 4048:0.02503 4054:0.02503 4055:0.07509 4058:0.02503 4061:0.02503 4063:0.02503 4065:0.02503 4070:0.05006 4074:0.02503 4075:0.02503 4076:0.02503 4079:0.05006 4082:0.02503 4084:0.07509 4086:0.05006 4093:0.02503 4094:0.02503 
0.00732835726492775 2:0.03418 6:0.03418 8:0.03418 12:0.03418 15:0.03418 16:0.06836 17:0.03418 22:0.03418 24:0.03418 25:0.03418 32:0.06836 33:0.03418 48:0.03418 54:0.06836 57:0.03418 58:0.06836 61:0.03418 62:0.03418 63:0.03418 64:0.06836 65:0.03418 67:0.03418 75:0.03418 87:0.03418 94:0.06836 99:0.06836 109:0.03418 126:0.03418 128:0.03418 129:0.03418 131:0.03418 153:0.06836 158:0.03418 166:0.03418 187:0.03418 188:0.03418 192:0.06836 214:0.06836 215:0.03418 225:0.06836 229:0.03418 232:0.03418 233:0.03418 239:0.03418 244:0.03418 246:0.03418 249:0.03418 254:0.06836 255:0.03418 256:0.06836 258:0.03418 259:0.03418 261:0.03418 268:0.03418 271:0.03418 288:0.03418 299:0.06836 300:0.03418 305:0.03418 317:0.03418 321:0.03418 322:0.03418 323:0.03418 346:0.03418 351:0.03418 373:0.03418 374:0.03418 377:0.03418 380:0.03418 393:0.03418 395:0.03418 406:0.03418 410:0.03418 433:0.03418 447:0.03418 454:0.03418 474:0.03418 485:0.03418 497:0.03418 501:0.03418 508:0.03418 512:0.03418 514:0.03418 519:0.03418 521:0.03418 522:0.03418 532:0.03418 555:0.03418 577:0.03418 592:0.03418 593:0.06836 596:0.03418 610:0.06836 611:0.03418 629:0.03418 635:0.06836 637:0.03418 641:0.03418 645:0.03418 664:0.06836 674:0.10254 676:0.03418 679:0.03418 686:0.03418 691:0.03418 698:0.03418 702:0.03418 704:0.03418 731:0.03418 739:0.03418 743:0.03418 747:0.03418 750:0.03418 766:0.03418 768:0.03418 770:0.03418 782:0.03418 784:0.03418 853:0.03418 854:0.03418 856:0.03418 858:0.03418 899:0.03418 900:0.03418 913:0.03418 915:0.06836 923:0.03418 927:0.03418 931:0.03418 936:0.03418 952:0.03418 954:0.03418 971:0.03418 974:0.03418 975:0.03418 980:0.03418 982:0.03418 994:0.03418 1006:0.03418 1010:0.03418 1014:0.06836 1018:0.10254 1019:0.03418 1022:0.06836 1023:0.03418 1025:0.03418 1028:0.03418 1029:0.03418 1031:0.03418 1033:0.03418 1038:0.03418 1039:0.06836 1040:0.03418 1041:0.03418 1043:0.03418 1052:0.03418 1063:0.03418 1071:0.03418 1083:0.03418 1088:0.03418 1104:0.03418 1105:0.03418 1119:0.03418 1126:0.03418 1127:0.03418 1143:0.03418 1146:0.03418 1149:0.03418 1151:0.03418 1155:0.03418 1172:0.03418 1173:0.06836 1177:0.03418 1183:0.06836 1193:0.10254 1196:0.03418 1197:0.03418 1199:0.03418 1209:0.03418 1220:0.03418 1253:0.06836 1255:0.03418 1258:0.03418 1267:0.03418 1269:0.03418 1276:0.03418 1279:0.06836 1280:0.03418 1281:0.03418 1282:0.03418 1284:0.03418 1287:0.03418 1290:0.03418 1312:0.03418 1317:0.03418 1318:0.03418 1320:0.06836 1323:0.03418 1338:0.03418 1343:0.03418 1352:0.03418 1354:0.03418 1369:0.03418 1378:0.03418 1381:0.03418 1399:0.03418 1400:0.03418 1401:0.03418 1403:0.03418 1404:0.06836 1416:0.03418 1419:0.03418 1428:0.03418 1431:0.03418 1476:0.03418 1490:0.03418 1493:0.03418 1499:0.03418 1500:0.03418 1502:0.03418 1505:0.03418 1507:0.03418 1514:0.03418 1518:0.06836 1520:0.03418 1521:0.03418 1537:0.03418 1553:0.03418 1558:0.03418 1565:0.03418 1570:0.03418 1573:0.03418 1577:0.03418 1579:0.03418 1583:0.03418 1602:0.03418 1605:0.03418 1608:0.03418 1615:0.03418 1624:0.03418 1625:0.03418 1637:0.03418 1647:0.03418 1658:0.03418 1662:0.03418 1663:0.03418 1680:0.03418 1691:0.03418 1705:0.03418 1712:0.03418 1729:0.03418 1761:0.03418 1765:0.03418 1784:0.03418 1787:0.03418 1791:0.03418 1802:0.03418 1807:0.03418 1813:0.03418 1816:0.03418 1862:0.03418 1864:0.03418 1867:0.03418 1876:0.03418 1893:0.03418 1896:0.03418 1898:0.03418 1904:0.06836 1909:0.03418 1921:0.03418 1922:0.03418 1926:0.03418 1930:0.03418 1940:0.06836 1953:0.06836 1958:0.06836 1961:0.03418 1974:0.06836 1983:0.03418 1987:0.06836 1994:0.03418 2004:0.03418 2015:0.03418 2016:0.03418 2028:0.03418 2032:0.03418 2044:0.03418 2046:0.03418 2050:0.03418 2051:0.03418 2052:0.06836 2056:0.03418 2064:0.06836 2072:0.03418 2073:0.03418 2081:0.03418 2087:0.03418 2096:0.03418 2105:0.03418 2112:0.03418 2113:0.03418 2114:0.03418 2116:0.03418 2120:0.03418 2123:0.06836 2125:0.03418 2129:0.03418 2136:0.03418 2162:0.03418 2181:0.03418 2187:0.03418 2193:0.03418 2208:0.03418 2209:0.03418 2217:0.03418 2218:0.03418 2224:0.06836 2234:0.03418 2241:0.03418 2244:0.03418 2292:0.03418 2301:0.03418 2303:0.03418 2305:0.03418 2308:0.10254 2309:0.03418 2324:0.03418 2328:0.03418 2330:0.03418 2334:0.03418 2343:0.03418 2351:0.03418 2362:0.06836 2363:0.03418 2368:0.06836 2369:0.06836 2378:0.03418 2379:0.03418 2383:0.03418 2398:0.03418 2403:0.03418 2417:0.03418 2429:0.03418 2433:0.03418 2437:0.03418 2438:0.03418 2442:0.03418 2444:0.03418 2450:0.03418 2460:0.03418 2468:0.03418 2476:0.03418 2489:0.03418 2490:0.03418 2499:0.03418 2515:0.03418 2522:0.03418 2530:0.03418 2533:0.03418 2537:0.06836 2538:0.03418 2539:0.03418 2547:0.03418 2552:0.03418 2555:0.03418 2561:0.03418 2564:0.06836 2576:0.03418 2577:0.03418 2578:0.03418 2579:0.06836 2604:0.03418 2609:0.06836 2621:0.03418 2624:0.06836 2643:0.06836 2653:0.03418 2656:0.03418 2665:0.03418 2671:0.03418 2673:0.03418 2681:0.03418 2683:0.03418 2692:0.03418 2693:0.10254 2701:0.06836 2704:0.06836 2716:0.03418 2724:0.03418 2743:0.03418 2752:0.03418 2761:0.03418 2764:0.03418 2771:0.03418 2778:0.03418 2787:0.03418 2789:0.03418 2805:0.03418 2813:0.03418 2816:0.03418 2820:0.03418 2849:0.03418 2862:0.03418 2884:0.03418 2890:0.03418 2904:0.10254 2920:0.06836 2923:0.03418 2935:0.03418 2945:0.03418 2953:0.03418 2955:0.03418 2961:0.06836 2969:0.03418 2970:0.03418 2985:0.03418 2998:0.03418 3027:0.03418 3037:0.03418 3047:0.03418 3052:0.03418 3054:0.03418 3060:0.03418 3064:0.03418 3067:0.03418 3068:0.03418 3070:0.03418 3072:0.03418 3078:0.03418 3086:0.03418 3112:0.03418 3114:0.03418 3119:0.03418 3126:0.03418 3132:0.03418 3136:0.03418 3153:0.03418 3167:0.03418 3184:0.03418 3202:0.03418 3221:0.03418 3238:0.03418 3255:0.03418 3286:0.06836 3310:0.03418 3344:0.03418 3349:0.03418 3354:0.03418 3359:0.03418 3361:0.03418 3366:0.03418 3371:0.03418 3372:0.03418 3390:0.03418 3392:0.03418 3402:0.06836 3408:0.03418 3410:0.03418 3411:0.03418 3415:0.03418 3422:0.03418 3423:0.10254 3430:0.03418 3447:0.03418 3473:0.03418 3474:0.03418 3487:0.03418 3488:0.06836 3495:0.03418 3499:0.03418 3518:0.03418 3520:0.03418 3526:0.03418 3538:0.03418 3548:0.03418 3553:0.03418 3576:0.03418 3583:0.03418 3585:0.06836 3590:0.03418 3596:0.03418 3599:0.03418 3601:0.03418 3605:0.03418 3619:0.03418 3624:0.03418 3628:0.03418 3649:0.10254 3654:0.03418 3655:0.03418 3658:0.03418 3660:0.03418 3663:0.06836 3664:0.03418 3681:0.03418 3683:0.03418 3687:0.03418 3691:0.03418 3703:0.03418 3707:0.03418 3713:0.06836 3723:0.03418 3733:0.06836 3741:0.03418 3743:0.06836 3745:0.03418 3748:0.03418 3763:0.03418 3765:0.03418 3769:0.03418 3793:0.03418 3798:0.10254 3800:0.03418 3802:0.03418 3806:0.03418 3815:0.03418 3834:0.03418 3836:0.03418 3839:0.03418 3851:0.03418 3852:0.03418 3868:0.03418 3878:0.03418 3882:0.03418 3894:0.06836 3900:0.03418 3911:0.03418 3913:0.03418 3915:0.03418 3920:0.06836 3923:0.06836 3925:0.03418 3934:0.03418 3941:0.03418 3954:0.03418 3961:0.03418 3966:0.03418 3968:0.03418 3973:0.03418 3986:0.06836 3988:0.03418 3993:0.03418 3998:0.03418 4008:0.06836 4013:0.03418 4014:0.03418 4015:0.03418 4021:0.03418 4022:0.03418 4023:0.03418 4031:0.03418 4032:0.03418 4039:0.03418 4046:0.03418 4050:0.03418 4051:0.03418 4053:0.06836 4056:0.03418 4058:0.03418 4064:0.03418 4069:0.10254 4072:0.03418 4074:0.06836 4076:0.03418 4078:0.03418 4080:0.03418 4085:0.06836 4086:0.03418 4087:0.03418 4090:0.03418 4091:0.03418 4095:0.03418 
