svm_type c_svc
kernel_type rbf
gamma 8
nr_class 2
total_sv 164
rho -0.96073
label 1 -1
nr_sv 86 78
SV
0.02043234866904001 1:0.02319 2:0.02319 4:0.02319 5:0.02319 6:0.02319 7:0.02319 13:0.02319 14:0.02319 15:0.04637 16:0.02319 17:0.06956 21:0.02319 22:0.02319 23:0.02319 26:0.02319 41:0.02319 47:0.02319 48:0.02319 50:0.04637 51:0.02319 52:0.04637 53:0.04637 54:0.02319 55:0.02319 58:0.02319 60:0.02319 61:0.04637 63:0.04637 64:0.04637 65:0.06956 68:0.04637 71:0.02319 74:0.02319 75:0.02319 76:0.02319 81:0.02319 82:0.02319 85:0.02319 88:0.02319 89:0.04637 95:0.02319 101:0.02319 107:0.02319 111:0.02319 116:0.02319 118:0.02319 121:0.02319 122:0.02319 124:0.02319 128:0.02319 133:0.02319 145:0.02319 148:0.02319 149:0.02319 152:0.02319 156:0.02319 159:0.02319 161:0.02319 171:0.04637 173:0.02319 180:0.02319 185:0.02319 188:0.02319 191:0.02319 194:0.02319 197:0.02319 200:0.02319 204:0.02319 208:0.04637 209:0.02319 212:0.02319 213:0.02319 214:0.02319 215:0.02319 217:0.02319 218:0.02319 219:0.02319 228:0.02319 232:0.02319 233:0.02319 234:0.02319 237:0.04637 238:0.02319 242:0.02319 243:0.02319 244:0.02319 245:0.02319 249:0.02319 250:0.04637 251:0.04637 252:0.02319 253:0.02319 254:0.06956 255:0.02319 256:0.02319 257:0.02319 259:0.04637 260:0.04637 262:0.02319 264:0.02319 267:0.02319 270:0.02319 271:0.02319 272:0.02319 275:0.02319 276:0.02319 278:0.02319 279:0.02319 280:0.02319 281:0.02319 288:0.02319 294:0.02319 295:0.04637 297:0.02319 298:0.02319 299:0.02319 303:0.02319 304:0.02319 306:0.02319 307:0.02319 308:0.04637 313:0.02319 316:0.04637 319:0.04637 320:0.02319 321:0.02319 324:0.02319 325:0.02319 337:0.02319 339:0.02319 344:0.02319 351:0.02319 353:0.02319 356:0.04637 361:0.02319 362:0.02319 371:0.04637 379:0.02319 381:0.02319 386:0.02319 389:0.02319 403:0.02319 414:0.02319 416:0.02319 417:0.02319 424:0.02319 427:0.02319 441:0.06956 446:0.02319 463:0.02319 464:0.02319 465:0.02319 467:0.02319 472:0.02319 479:0.02319 481:0.02319 483:0.02319 486:0.02319 495:0.02319 496:0.02319 497:0.02319 507:0.02319 511:0.04637 513:0.02319 516:0.02319 517:0.02319 522:0.02319 525:0.02319 530:0.02319 532:0.02319 552:0.02319 555:0.02319 557:0.02319 566:0.04637 567:0.02319 578:0.02319 580:0.02319 582:0.02319 584:0.02319 585:0.02319 592:0.02319 594:0.02319 595:0.02319 602:0.02319 604:0.02319 607:0.02319 609:0.02319 616:0.04637 623:0.04637 632:0.02319 634:0.02319 635:0.06956 638:0.02319 642:0.02319 645:0.02319 646:0.02319 652:0.02319 654:0.02319 657:0.02319 672:0.02319 674:0.02319 676:0.02319 677:0.02319 681:0.02319 684:0.02319 688:0.02319 692:0.02319 693:0.02319 700:0.02319 703:0.02319 707:0.02319 720:0.02319 726:0.02319 737:0.02319 741:0.02319 744:0.02319 746:0.04637 750:0.02319 753:0.02319 756:0.02319 759:0.02319 762:0.02319 763:0.02319 764:0.02319 772:0.04637 776:0.02319 784:0.02319 788:0.02319 792:0.02319 800:0.02319 803:0.02319 815:0.02319 816:0.02319 817:0.02319 819:0.02319 821:0.04637 823:0.04637 828:0.04637 832:0.04637 833:0.02319 837:0.02319 839:0.02319 841:0.02319 847:0.02319 848:0.02319 849:0.06956 853:0.02319 855:0.02319 856:0.02319 859:0.02319 863:0.02319 865:0.06956 870:0.02319 874:0.02319 876:0.04637 885:0.02319 887:0.02319 890:0.02319 901:0.02319 909:0.02319 912:0.02319 916:0.04637 917:0.06956 921:0.02319 928:0.02319 930:0.02319 933:0.02319 945:0.02319 948:0.02319 949:0.02319 950:0.04637 952:0.02319 954:0.04637 955:0.02319 956:0.02319 962:0.02319 963:0.02319 965:0.02319 969:0.02319 975:0.02319 978:0.02319 979:0.02319 985:0.02319 989:0.02319 993:0.02319 995:0.04637 997:0.02319 1000:0.02319 1001:0.02319 1002:0.02319 1004:0.02319 1007:0.02319 1008:0.04637 1009:0.02319 1012:0.04637 1013:0.09275 1016:0.02319 1017:0.04637 1020:0.04637 1022:0.04637 1023:0.04637 1024:0.02319 1028:0.04637 1029:0.02319 1030:0.02319 1036:0.04637 1037:0.02319 1038:0.04637 1040:0.02319 1043:0.02319 1045:0.02319 1046:0.02319 1048:0.02319 1053:0.02319 1055:0.02319 1056:0.02319 1061:0.02319 1063:0.02319 1067:0.02319 1071:0.02319 1078:0.02319 1079:0.02319 1083:0.02319 1084:0.04637 1085:0.02319 1086:0.02319 1087:0.04637 1088:0.04637 1089:0.02319 1092:0.02319 1093:0.02319 1094:0.04637 1098:0.02319 1099:0.04637 1100:0.02319 1101:0.06956 1103:0.02319 1109:0.02319 1110:0.02319 1113:0.02319 1115:0.02319 1117:0.02319 1121:0.02319 1128:0.04637 1135:0.04637 1136:0.02319 1140:0.02319 1141:0.02319 1145:0.02319 1148:0.02319 1151:0.02319 1152:0.02319 1155:0.02319 1157:0.02319 1162:0.02319 1164:0.02319 1166:0.02319 1170:0.02319 1171:0.02319 1173:0.02319 1175:0.02319 1177:0.02319 1178:0.04637 1182:0.02319 1183:0.04637 1184:0.02319 1186:0.04637 1188:0.02319 1192:0.02319 1194:0.02319 1196:0.02319 1200:0.02319 1210:0.02319 1211:0.02319 1213:0.04637 1215:0.02319 1217:0.02319 1220:0.02319 1222:0.02319 1228:0.02319 1231:0.04637 1234:0.02319 1237:0.02319 1250:0.02319 1252:0.02319 1253:0.02319 1262:0.04637 1263:0.02319 1265:0.04637 1273:0.02319 1275:0.02319 1276:0.02319 1280:0.04637 1281:0.02319 1282:0.04637 1286:0.02319 1288:0.02319 1290:0.02319 1292:0.02319 1295:0.02319 1296:0.04637 1297:0.02319 1299:0.04637 1300:0.02319 1302:0.02319 1309:0.02319 1311:0.02319 1317:0.02319 1318:0.02319 1320:0.06956 1321:0.04637 1324:0.02319 1341:0.02319 1343:0.02319 1345:0.02319 1354:0.06956 1355:0.02319 1372:0.02319 1376:0.04637 1383:0.02319 1385:0.02319 1392:0.02319 1393:0.02319 1400:0.02319 1401:0.02319 1404:0.02319 1406:0.02319 1407:0.02319 1409:0.02319 1417:0.02319 1421:0.02319 1422:0.02319 1424:0.02319 1426:0.02319 1429:0.02319 1434:0.02319 1441:0.02319 1444:0.02319 1445:0.02319 1449:0.02319 1454:0.02319 1455:0.02319 1457:0.02319 1462:0.02319 1470:0.02319 1475:0.02319 1482:0.02319 1483:0.04637 1495:0.02319 1501:0.02319 1505:0.02319 1514:0.04637 1515:0.02319 1519:0.04637 1520:0.02319 1522:0.02319 1527:0.02319 1532:0.02319 1533:0.02319 1537:0.04637 1542:0.02319 1544:0.02319 1547:0.02319 1550:0.02319 1553:0.02319 1559:0.02319 1569:0.02319 1572:0.02319 1588:0.04637 1590:0.02319 1592:0.02319 1598:0.02319 1599:0.02319 1600:0.02319 1605:0.02319 1609:0.02319 1613:0.02319 1617:0.02319 1618:0.02319 1621:0.02319 1625:0.02319 1638:0.02319 1643:0.02319 1653:0.02319 1657:0.02319 1660:0.04637 1663:0.02319 1665:0.02319 1667:0.02319 1675:0.02319 1680:0.02319 1682:0.02319 1683:0.02319 1690:0.02319 1694:0.02319 1695:0.02319 1697:0.02319 1700:0.02319 1705:0.02319 1719:0.02319 1722:0.02319 1724:0.02319 1726:0.02319 1728:0.02319 1729:0.02319 1749:0.02319 1750:0.02319 1761:0.06956 1762:0.02319 1764:0.02319 1776:0.02319 1782:0.04637 1792:0.02319 1802:0.02319 1808:0.02319 1809:0.02319 1811:0.02319 1829:0.02319 1833:0.02319 1836:0.04637 1844:0.02319 1852:0.02319 1856:0.02319 1857:0.02319 1860:0.04637 1866:0.02319 1868:0.02319 1875:0.02319 1881:0.02319 1885:0.02319 1893:0.02319 1897:0.02319 1908:0.02319 1914:0.04637 1921:0.04637 1924:0.02319 1929:0.02319 1932:0.02319 1933:0.02319 1937:0.02319 1941:0.02319 1942:0.02319 1943:0.02319 1948:0.02319 1951:0.02319 1955:0.02319 1957:0.02319 1958:0.02319 1960:0.02319 1961:0.02319 1962:0.04637 1964:0.02319 1971:0.02319 1978:0.02319 1979:0.04637 1980:0.02319 1981:0.02319 1982:0.02319 1983:0.02319 1985:0.02319 1986:0.02319 1988:0.02319 1992:0.02319 1995:0.02319 2001:0.02319 2007:0.02319 2009:0.02319 2015:0.02319 2018:0.02319 2025:0.04637 2030:0.02319 2033:0.02319 2044:0.04637 2049:0.02319 2050:0.04637 2052:0.04637 2053:0.02319 2054:0.02319 2061:0.02319 2062:0.02319 2064:0.06956 2066:0.02319 2067:0.02319 2071:0.02319 2075:0.02319 2076:0.02319 2078:0.02319 2082:0.02319 2086:0.02319 2088:0.02319 2091:0.02319 2097:0.02319 2102:0.02319 2103:0.02319 2111:0.02319 2114:0.02319 2115:0.02319 2117:0.02319 2118:0.02319 2120:0.02319 2125:0.02319 2127:0.04637 2128:0.02319 2129:0.02319 2139:0.02319 2141:0.02319 2146:0.02319 2154:0.02319 2165:0.02319 2178:0.02319 2190:0.04637 2193:0.02319 2199:0.02319 2204:0.02319 2207:0.02319 2213:0.02319 2217:0.02319 2225:0.02319 2230:0.02319 2234:0.02319 2238:0.02319 2254:0.09275 2258:0.02319 2261:0.02319 2262:0.04637 2264:0.02319 2265:0.02319 2267:0.02319 2270:0.04637 2271:0.02319 2277:0.02319 2278:0.04637 2293:0.02319 2295:0.02319 2297:0.02319 2300:0.02319 2302:0.02319 2303:0.04637 2304:0.02319 2309:0.02319 2312:0.02319 2320:0.04637 2322:0.02319 2323:0.02319 2324:0.04637 2327:0.02319 2334:0.02319 2335:0.02319 2338:0.02319 2339:0.04637 2340:0.02319 2344:0.02319 2352:0.02319 2353:0.04637 2357:0.02319 2358:0.02319 2361:0.02319 2368:0.02319 2370:0.02319 2372:0.02319 2373:0.06956 2374:0.02319 2376:0.04637 2378:0.02319 2379:0.04637 2384:0.02319 2387:0.04637 2399:0.02319 2404:0.02319 2405:0.02319 2406:0.02319 2412:0.02319 2414:0.02319 2422:0.02319 2428:0.02319 2433:0.02319 2438:0.02319 2441:0.02319 2448:0.02319 2455:0.02319 2459:0.02319 2463:0.04637 2469:0.02319 2472:0.02319 2473:0.02319 2489:0.04637 2496:0.02319 2507:0.02319 2513:0.04637 2517:0.02319 2527:0.02319 2529:0.02319 2531:0.02319 2533:0.02319 2537:0.02319 2538:0.02319 2539:0.06956 2541:0.02319 2543:0.02319 2544:0.02319 2545:0.02319 2547:0.02319 2550:0.02319 2552:0.02319 2553:0.02319 2555:0.02319 2561:0.02319 2562:0.02319 2567:0.04637 2570:0.02319 2578:0.02319 2580:0.04637 2581:0.02319 2585:0.02319 2587:0.02319 2590:0.02319 2597:0.02319 2602:0.02319 2608:0.02319 2613:0.02319 2615:0.02319 2616:0.04637 2618:0.02319 2622:0.02319 2623:0.02319 2624:0.02319 2626:0.02319 2629:0.04637 2633:0.04637 2636:0.02319 2637:0.02319 2638:0.04637 2641:0.02319 2642:0.02319 2643:0.02319 2645:0.02319 2658:0.02319 2660:0.02319 2663:0.02319 2666:0.02319 2677:0.02319 2683:0.02319 2684:0.02319 2685:0.02319 2686:0.02319 2690:0.02319 2693:0.02319 2695:0.02319 2696:0.02319 2702:0.04637 2704:0.02319 2707:0.02319 2709:0.02319 2713:0.02319 2722:0.04637 2735:0.02319 2747:0.02319 2748:0.02319 2751:0.02319 2752:0.02319 2767:0.02319 2770:0.02319 2776:0.02319 2778:0.02319 2792:0.02319 2794:0.02319 2798:0.02319 2799:0.04637 2807:0.02319 2809:0.02319 2811:0.02319 2812:0.02319 2814:0.02319 2815:0.02319 2816:0.02319 2817:0.02319 2821:0.02319 2827:0.02319 2832:0.02319 2849:0.04637 2876:0.02319 2880:0.04637 2883:0.02319 2885:0.02319 2887:0.02319 2895:0.02319 2897:0.02319 2900:0.02319 2902:0.04637 2904:0.02319 2911:0.04637 2918:0.02319 2926:0.02319 2938:0.02319 2942:0.02319 2945:0.06956 2946:0.02319 2948:0.02319 2949:0.02319 2950:0.02319 2958:0.02319 2959:0.02319 2962:0.04637 2965:0.02319 2967:0.02319 2971:0.02319 2973:0.02319 2975:0.02319 2981:0.06956 2982:0.02319 2983:0.02319 2984:0.02319 2992:0.02319 2997:0.02319 2998:0.02319 3000:0.02319 3001:0.04637 3002:0.02319 3006:0.02319 3009:0.02319 3011:0.02319 3012:0.02319 3013:0.02319 3024:0.02319 3026:0.02319 3030:0.02319 3032:0.02319 3033:0.02319 3036:0.02319 3038:0.02319 3041:0.02319 3046:0.02319 3048:0.02319 3049:0.02319 3050:0.02319 3053:0.02319 3054:0.02319 3061:0.02319 3062:0.02319 3067:0.04637 3070:0.04637 3072:0.02319 3073:0.02319 3083:0.02319 3085:0.04637 3088:0.02319 3089:0.04637 3091:0.02319 3103:0.04637 3109:0.02319 3110:0.02319 3116:0.02319 3117:0.02319 3129:0.02319 3131:0.02319 3135:0.02319 3136:0.04637 3137:0.02319 3138:0.02319 3146:0.02319 3152:0.04637 3168:0.02319 3177:0.02319 3192:0.02319 3197:0.02319 3201:0.04637 3204:0.02319 3211:0.02319 3218:0.02319 3235:0.02319 3241:0.02319 3246:0.02319 3247:0.02319 3259:0.02319 3263:0.02319 3265:0.02319 3273:0.02319 3277:0.04637 3283:0.02319 3284:0.02319 3289:0.02319 3291:0.02319 3302:0.02319 3303:0.02319 3310:0.02319 3311:0.06956 3320:0.02319 3325:0.04637 3326:0.02319 3327:0.02319 3328:0.02319 3332:0.04637 3334:0.02319 3338:0.02319 3342:0.02319 3343:0.02319 3344:0.02319 3345:0.02319 3346:0.04637 3354:0.04637 3356:0.06956 3360:0.02319 3361:0.02319 3365:0.02319 3367:0.02319 3371:0.02319 3375:0.02319 3376:0.02319 3386:0.02319 3388:0.02319 3389:0.02319 3393:0.02319 3394:0.02319 3395:0.04637 3396:0.02319 3402:0.02319 3408:0.02319 3411:0.02319 3415:0.02319 3416:0.02319 3418:0.02319 3419:0.02319 3421:0.02319 3422:0.02319 3427:0.02319 3435:0.02319 3436:0.02319 3437:0.02319 3443:0.02319 3451:0.04637 3452:0.02319 3456:0.02319 3458:0.02319 3459:0.02319 3460:0.02319 3469:0.02319 3470:0.02319 3472:0.02319 3476:0.02319 3477:0.02319 3478:0.02319 3487:0.02319 3491:0.02319 3495:0.02319 3503:0.02319 3504:0.04637 3510:0.02319 3516:0.02319 3524:0.02319 3525:0.04637 3533:0.02319 3539:0.02319 3546:0.02319 3547:0.02319 3556:0.02319 3558:0.04637 3559:0.02319 3560:0.02319 3573:0.02319 3585:0.02319 3586:0.02319 3588:0.09275 3589:0.02319 3593:0.02319 3598:0.02319 3600:0.02319 3601:0.02319 3602:0.02319 3604:0.02319 3608:0.02319 3620:0.02319 3622:0.02319 3623:0.02319 3630:0.02319 3631:0.02319 3636:0.04637 3638:0.02319 3642:0.02319 3648:0.04637 3652:0.02319 3653:0.02319 3656:0.02319 3658:0.02319 3662:0.02319 3663:0.02319 3666:0.06956 3667:0.02319 3668:0.02319 3672:0.02319 3674:0.02319 3675:0.02319 3678:0.02319 3683:0.02319 3690:0.02319 3696:0.02319 3699:0.02319 3702:0.02319 3705:0.02319 3707:0.02319 3709:0.02319 3711:0.02319 3713:0.02319 3717:0.02319 3719:0.02319 3722:0.02319 3726:0.02319 3727:0.02319 3728:0.02319 3730:0.02319 3731:0.02319 3732:0.06956 3733:0.04637 3734:0.02319 3737:0.02319 3739:0.02319 3743:0.02319 3744:0.02319 3748:0.02319 3750:0.02319 3751:0.02319 3759:0.02319 3760:0.02319 3766:0.02319 3775:0.02319 3776:0.02319 3778:0.02319 3780:0.02319 3785:0.04637 3792:0.02319 3793:0.02319 3794:0.02319 3796:0.02319 3797:0.02319 3798:0.02319 3800:0.02319 3804:0.02319 3807:0.02319 3808:0.02319 3809:0.02319 3810:0.02319 3812:0.02319 3813:0.02319 3814:0.04637 3815:0.02319 3818:0.06956 3820:0.02319 3822:0.02319 3823:0.02319 3825:0.04637 3826:0.02319 3829:0.02319 3832:0.02319 3834:0.02319 3838:0.02319 3839:0.02319 3840:0.02319 3843:0.02319 3844:0.02319 3845:0.04637 3848:0.02319 3850:0.02319 3852:0.02319 3855:0.04637 3857:0.02319 3860:0.02319 3867:0.02319 3870:0.02319 3873:0.02319 3883:0.02319 3892:0.02319 3898:0.04637 3902:0.02319 3906:0.02319 3908:0.02319 3909:0.02319 3911:0.06956 3912:0.02319 3914:0.02319 3915:0.02319 3916:0.02319 3921:0.02319 3927:0.02319 3931:0.02319 3932:0.02319 3936:0.02319 3940:0.06956 3944:0.02319 3948:0.02319 3951:0.02319 3953:0.02319 3954:0.04637 3959:0.02319 3961:0.02319 3969:0.02319 3971:0.02319 3973:0.02319 3978:0.04637 3980:0.02319 3984:0.02319 3987:0.02319 3992:0.02319 3998:0.02319 4000:0.02319 4001:0.02319 4002:0.02319 4004:0.06956 4006:0.02319 4007:0.02319 4012:0.02319 4014:0.02319 4016:0.02319 4017:0.02319 4019:0.02319 4021:0.02319 4023:0.02319 4025:0.02319 4027:0.02319 4029:0.04637 4032:0.06956 4034:0.02319 4035:0.02319 4039:0.02319 4045:0.02319 4047:0.02319 4049:0.02319 4050:0.06956 4051:0.04637 4053:0.02319 4055:0.02319 4058:0.02319 4059:0.02319 4061:0.04637 4067:0.02319 4068:0.02319 4073:0.02319 4075:0.02319 4076:0.02319 4077:0.02319 4079:0.02319 4080:0.06956 4082:0.02319 4085:0.02319 4086:0.02319 4087:0.04637 4088:0.02319 4091:0.02319 4092:0.02319 4093:0.02319 4094:0.02319 4096:0.02319 
0.01435799567401687 1:0.11423 2:0.06854 4:0.04569 5:0.04569 6:0.04569 8:0.04569 12:0.02285 14:0.06854 16:0.04569 17:0.02285 19:0.02285 21:0.02285 22:0.06854 30:0.02285 31:0.02285 32:0.04569 36:0.02285 39:0.02285 45:0.02285 46:0.04569 48:0.06854 50:0.02285 54:0.06854 55:0.02285 58:0.02285 59:0.02285 60:0.02285 61:0.02285 62:0.02285 63:0.02285 67:0.02285 73:0.02285 81:0.02285 83:0.02285 85:0.06854 86:0.02285 117:0.02285 118:0.02285 120:0.02285 123:0.02285 128:0.06854 139:0.02285 142:0.02285 143:0.04569 145:0.02285 149:0.04569 150:0.02285 153:0.02285 161:0.02285 163:0.02285 164:0.02285 177:0.02285 182:0.02285 184:0.04569 191:0.02285 192:0.04569 194:0.02285 199:0.02285 213:0.02285 215:0.02285 216:0.02285 219:0.02285 229:0.02285 231:0.02285 233:0.04569 234:0.02285 236:0.02285 238:0.04569 242:0.04569 246:0.09138 248:0.02285 251:0.06854 252:0.02285 254:0.02285 256:0.04569 257:0.02285 259:0.02285 264:0.02285 266:0.04569 272:0.02285 273:0.02285 274:0.02285 290:0.02285 308:0.02285 310:0.04569 314:0.02285 318:0.02285 320:0.02285 324:0.02285 326:0.02285 330:0.02285 331:0.02285 336:0.02285 337:0.04569 338:0.02285 339:0.02285 342:0.02285 344:0.02285 347:0.04569 359:0.02285 374:0.02285 376:0.02285 379:0.02285 385:0.02285 390:0.02285 391:0.02285 396:0.02285 403:0.02285 405:0.02285 420:0.02285 465:0.02285 467:0.02285 470:0.04569 472:0.02285 476:0.02285 478:0.02285 487:0.02285 490:0.02285 507:0.02285 509:0.02285 510:0.06854 511:0.02285 512:0.02285 513:0.02285 528:0.02285 529:0.02285 544:0.04569 556:0.02285 560:0.02285 565:0.02285 571:0.04569 577:0.04569 593:0.04569 594:0.04569 595:0.02285 599:0.02285 602:0.04569 606:0.02285 609:0.04569 611:0.02285 615:0.02285 627:0.02285 633:0.02285 635:0.02285 641:0.02285 645:0.02285 648:0.02285 652:0.02285 655:0.02285 656:0.02285 657:0.02285 671:0.02285 673:0.04569 681:0.02285 684:0.02285 691:0.02285 697:0.02285 699:0.02285 708:0.02285 721:0.02285 723:0.02285 727:0.02285 728:0.02285 733:0.02285 735:0.02285 745:0.02285 747:0.02285 763:0.04569 764:0.02285 766:0.04569 768:0.04569 770:0.02285 774:0.02285 777:0.02285 793:0.02285 801:0.02285 806:0.02285 819:0.02285 828:0.02285 833:0.02285 842:0.02285 843:0.02285 849:0.02285 850:0.02285 852:0.02285 859:0.02285 860:0.02285 861:0.02285 864:0.02285 867:0.02285 871:0.02285 873:0.02285 893:0.02285 894:0.02285 896:0.02285 902:0.02285 907:0.02285 913:0.02285 915:0.02285 923:0.06854 929:0.02285 931:0.02285 932:0.02285 935:0.02285 937:0.06854 942:0.02285 949:0.02285 950:0.04569 951:0.02285 953:0.02285 955:0.02285 967:0.02285 968:0.02285 981:0.04569 982:0.04569 983:0.02285 986:0.04569 990:0.02285 997:0.02285 1001:0.06854 1002:0.02285 1004:0.02285 1007:0.02285 1009:0.02285 1014:0.09138 1015:0.02285 1021:0.02285 1022:0.04569 1024:0.04569 1025:0.04569 1026:0.04569 1027:0.02285 1030:0.02285 1033:0.02285 1036:0.02285 1045:0.02285 1054:0.04569 1056:0.02285 1059:0.02285 1061:0.02285 1062:0.06854 1065:0.02285 1070:0.02285 1073:0.02285 1083:0.04569 1085:0.02285 1086:0.04569 1088:0.02285 1090:0.02285 1092:0.02285 1093:0.04569 1102:0.04569 1107:0.02285 1110:0.02285 1114:0.02285 1118:0.04569 1122:0.02285 1126:0.02285 1142:0.02285 1143:0.02285 1157:0.02285 1160:0.02285 1173:0.02285 1175:0.04569 1176:0.02285 1177:0.04569 1178:0.02285 1181:0.02285 1186:0.02285 1193:0.02285 1195:0.02285 1197:0.02285 1205:0.02285 1216:0.02285 1226:0.02285 1229:0.02285 1239:0.02285 1240:0.02285 1241:0.02285 1242:0.02285 1248:0.04569 1253:0.02285 1255:0.02285 1257:0.02285 1262:0.02285 1270:0.02285 1271:0.04569 1274:0.02285 1275:0.02285 1278:0.06854 1281:0.02285 1288:0.04569 1289:0.02285 1292:0.02285 1293:0.02285 1295:0.02285 1296:0.06854 1297:0.02285 1300:0.02285 1301:0.02285 1302:0.02285 1303:0.02285 1304:0.02285 1305:0.02285 1310:0.04569 1318:0.06854 1319:0.02285 1320:0.02285 1321:0.02285 1324:0.02285 1328:0.02285 1335:0.02285 1336:0.04569 1338:0.02285 1342:0.02285 1343:0.04569 1344:0.02285 1345:0.02285 1346:0.02285 1347:0.02285 1349:0.02285 1350:0.02285 1352:0.02285 1354:0.06854 1358:0.06854 1363:0.02285 1365:0.02285 1370:0.02285 1374:0.02285 1375:0.02285 1381:0.04569 1383:0.02285 1385:0.04569 1397:0.02285 1398:0.02285 1401:0.02285 1402:0.02285 1411:0.02285 1424:0.02285 1428:0.06854 1433:0.02285 1434:0.02285 1435:0.04569 1441:0.04569 1442:0.02285 1444:0.02285 1452:0.04569 1459:0.02285 1478:0.02285 1490:0.04569 1492:0.02285 1493:0.04569 1494:0.02285 1504:0.02285 1508:0.02285 1509:0.02285 1513:0.02285 1516:0.02285 1527:0.04569 1530:0.02285 1538:0.02285 1540:0.02285 1547:0.04569 1551:0.04569 1556:0.02285 1558:0.02285 1561:0.02285 1569:0.02285 1571:0.02285 1574:0.02285 1583:0.02285 1593:0.02285 1595:0.02285 1600:0.02285 1605:0.02285 1612:0.02285 1613:0.02285 1615:0.02285 1616:0.02285 1620:0.02285 1625:0.02285 1633:0.02285 1636:0.02285 1637:0.02285 1640:0.02285 1641:0.02285 1642:0.02285 1643:0.02285 1644:0.02285 1657:0.04569 1659:0.02285 1664:0.02285 1665:0.04569 1668:0.02285 1669:0.02285 1672:0.02285 1679:0.02285 1680:0.02285 1689:0.02285 1695:0.04569 1699:0.02285 1704:0.02285 1705:0.02285 1709:0.02285 1710:0.02285 1723:0.02285 1732:0.02285 1738:0.02285 1744:0.02285 1745:0.02285 1756:0.02285 1763:0.02285 1770:0.02285 1816:0.02285 1819:0.02285 1826:0.02285 1832:0.02285 1844:0.02285 1850:0.02285 1859:0.02285 1861:0.02285 1863:0.02285 1866:0.02285 1870:0.02285 1873:0.02285 1876:0.02285 1877:0.02285 1878:0.02285 1879:0.02285 1888:0.02285 1890:0.02285 1892:0.02285 1896:0.02285 1902:0.02285 1911:0.02285 1919:0.02285 1925:0.02285 1928:0.02285 1932:0.02285 1934:0.04569 1937:0.02285 1940:0.02285 1948:0.02285 1953:0.02285 1954:0.02285 1960:0.02285 1961:0.02285 1963:0.02285 1964:0.02285 1967:0.02285 1968:0.02285 1984:0.02285 1998:0.02285 2006:0.02285 2010:0.02285 2011:0.02285 2017:0.02285 2019:0.02285 2022:0.02285 2026:0.02285 2027:0.02285 2030:0.02285 2032:0.02285 2033:0.02285 2037:0.02285 2038:0.06854 2041:0.02285 2044:0.02285 2047:0.02285 2049:0.06854 2050:0.02285 2052:0.04569 2056:0.04569 2058:0.02285 2060:0.06854 2061:0.02285 2063:0.06854 2064:0.02285 2084:0.02285 2089:0.04569 2106:0.02285 2107:0.02285 2108:0.02285 2110:0.04569 2111:0.04569 2112:0.02285 2113:0.02285 2115:0.02285 2125:0.02285 2127:0.02285 2128:0.04569 2132:0.02285 2133:0.02285 2135:0.02285 2146:0.02285 2147:0.02285 2165:0.02285 2166:0.02285 2170:0.02285 2175:0.02285 2176:0.04569 2180:0.02285 2188:0.02285 2197:0.02285 2210:0.02285 2213:0.02285 2216:0.02285 2217:0.02285 2219:0.02285 2223:0.04569 2229:0.02285 2230:0.02285 2235:0.04569 2239:0.04569 2240:0.02285 2241:0.02285 2243:0.02285 2259:0.04569 2261:0.02285 2272:0.02285 2274:0.02285 2275:0.02285 2283:0.06854 2287:0.04569 2301:0.02285 2304:0.06854 2305:0.02285 2306:0.02285 2310:0.02285 2315:0.02285 2319:0.02285 2322:0.02285 2338:0.02285 2347:0.02285 2350:0.02285 2355:0.02285 2363:0.02285 2364:0.02285 2366:0.02285 2368:0.02285 2371:0.02285 2372:0.02285 2374:0.02285 2375:0.02285 2380:0.02285 2384:0.02285 2394:0.02285 2401:0.02285 2405:0.02285 2407:0.02285 2421:0.02285 2422:0.02285 2433:0.02285 2435:0.02285 2436:0.04569 2441:0.02285 2447:0.02285 2450:0.02285 2457:0.02285 2459:0.02285 2463:0.02285 2465:0.02285 2472:0.04569 2473:0.02285 2474:0.02285 2475:0.02285 2479:0.02285 2481:0.02285 2489:0.02285 2503:0.02285 2505:0.02285 2511:0.02285 2521:0.02285 2530:0.04569 2531:0.02285 2532:0.02285 2537:0.02285 2539:0.06854 2540:0.02285 2553:0.04569 2556:0.04569 2558:0.02285 2561:0.11423 2562:0.02285 2563:0.06854 2564:0.09138 2569:0.02285 2575:0.02285 2576:0.09138 2580:0.04569 2581:0.02285 2590:0.02285 2592:0.02285 2602:0.02285 2603:0.02285 2604:0.02285 2606:0.02285 2607:0.02285 2608:0.02285 2609:0.02285 2613:0.02285 2617:0.02285 2620:0.04569 2624:0.06854 2627:0.02285 2657:0.02285 2671:0.02285 2676:0.02285 2679:0.02285 2681:0.02285 2683:0.06854 2687:0.06854 2689:0.13707 2691:0.02285 2692:0.04569 2699:0.02285 2700:0.04569 2720:0.02285 2721:0.02285 2723:0.02285 2732:0.02285 2735:0.02285 2736:0.02285 2738:0.02285 2741:0.02285 2743:0.02285 2747:0.02285 2749:0.02285 2752:0.06854 2753:0.02285 2757:0.02285 2763:0.02285 2772:0.02285 2773:0.02285 2780:0.02285 2786:0.02285 2793:0.02285 2794:0.02285 2795:0.02285 2796:0.02285 2804:0.02285 2810:0.02285 2813:0.02285 2815:0.02285 2816:0.04569 2817:0.02285 2832:0.04569 2833:0.02285 2838:0.02285 2853:0.02285 2857:0.02285 2880:0.02285 2881:0.04569 2886:0.02285 2890:0.04569 2894:0.02285 2899:0.02285 2905:0.02285 2907:0.02285 2910:0.02285 2911:0.02285 2915:0.02285 2926:0.02285 2927:0.02285 2931:0.02285 2938:0.02285 2940:0.02285 2949:0.02285 2955:0.04569 2970:0.02285 2977:0.04569 2980:0.02285 2984:0.04569 2985:0.04569 2988:0.02285 2989:0.02285 3002:0.02285 3004:0.02285 3024:0.02285 3045:0.02285 3049:0.02285 3051:0.02285 3055:0.02285 3060:0.02285 3062:0.02285 3063:0.02285 3066:0.02285 3070:0.02285 3071:0.04569 3072:0.06854 3076:0.02285 3078:0.02285 3084:0.02285 3086:0.02285 3094:0.02285 3108:0.02285 3135:0.02285 3136:0.02285 3137:0.02285 3154:0.02285 3159:0.02285 3167:0.02285 3169:0.02285 3173:0.02285 3177:0.02285 3200:0.02285 3201:0.02285 3208:0.02285 3217:0.02285 3221:0.02285 3231:0.02285 3236:0.02285 3273:0.02285 3279:0.02285 3281:0.02285 3285:0.02285 3303:0.02285 3310:0.02285 3323:0.02285 3326:0.02285 3329:0.04569 3331:0.02285 3338:0.04569 3348:0.02285 3352:0.02285 3354:0.02285 3366:0.02285 3367:0.04569 3368:0.02285 3371:0.02285 3382:0.02285 3383:0.02285 3394:0.02285 3396:0.06854 3397:0.02285 3398:0.02285 3400:0.02285 3402:0.02285 3403:0.02285 3407:0.02285 3408:0.04569 3409:0.02285 3410:0.04569 3411:0.02285 3412:0.06854 3415:0.02285 3416:0.02285 3418:0.02285 3422:0.02285 3423:0.02285 3428:0.02285 3431:0.02285 3433:0.04569 3435:0.04569 3437:0.02285 3442:0.02285 3445:0.02285 3451:0.02285 3454:0.04569 3455:0.02285 3461:0.02285 3465:0.02285 3466:0.02285 3471:0.02285 3479:0.02285 3482:0.02285 3483:0.02285 3487:0.04569 3488:0.02285 3490:0.02285 3495:0.02285 3508:0.02285 3509:0.02285 3511:0.02285 3515:0.02285 3530:0.02285 3533:0.02285 3545:0.02285 3546:0.02285 3557:0.02285 3568:0.02285 3572:0.02285 3574:0.02285 3579:0.02285 3583:0.02285 3587:0.02285 3601:0.02285 3604:0.02285 3606:0.02285 3609:0.02285 3614:0.02285 3615:0.02285 3625:0.02285 3626:0.02285 3627:0.02285 3630:0.02285 3632:0.02285 3633:0.02285 3638:0.02285 3640:0.02285 3650:0.02285 3652:0.02285 3657:0.02285 3659:0.02285 3663:0.02285 3664:0.02285 3678:0.02285 3687:0.02285 3690:0.02285 3691:0.04569 3693:0.02285 3698:0.02285 3711:0.02285 3713:0.09138 3716:0.04569 3718:0.02285 3723:0.04569 3725:0.02285 3726:0.02285 3728:0.02285 3740:0.02285 3741:0.02285 3742:0.02285 3743:0.02285 3744:0.04569 3745:0.13707 3747:0.02285 3755:0.02285 3758:0.02285 3760:0.06854 3761:0.02285 3766:0.02285 3771:0.02285 3775:0.02285 3776:0.02285 3782:0.02285 3794:0.02285 3795:0.02285 3799:0.02285 3800:0.02285 3801:0.02285 3807:0.02285 3811:0.02285 3815:0.02285 3817:0.02285 3819:0.02285 3823:0.04569 3840:0.04569 3843:0.02285 3844:0.02285 3861:0.02285 3866:0.02285 3872:0.02285 3893:0.02285 3894:0.02285 3903:0.02285 3907:0.02285 3921:0.04569 3922:0.04569 3923:0.02285 3924:0.02285 3925:0.13707 3926:0.02285 3928:0.04569 3930:0.02285 3931:0.04569 3936:0.02285 3942:0.02285 3943:0.02285 3944:0.04569 3946:0.02285 3949:0.02285 3956:0.02285 3959:0.02285 3969:0.02285 3975:0.02285 3976:0.02285 3980:0.02285 3981:0.02285 3987:0.02285 3988:0.02285 3992:0.02285 3997:0.02285 4000:0.02285 4001:0.04569 4003:0.02285 4004:0.02285 4008:0.04569 4009:0.02285 4012:0.04569 4016:0.02285 4018:0.02285 4021:0.02285 4024:0.02285 4027:0.02285 4028:0.02285 4032:0.02285 4033:0.04569 4038:0.02285 4046:0.02285 4049:0.02285 4053:0.09138 4054:0.13707 4055:0.04569 4056:0.02285 4058:0.02285 4060:0.02285 4061:0.02285 4066:0.04569 4068:0.02285 4072:0.04569 4075:0.02285 4077:0.02285 4078:0.02285 4082:0.02285 4086:0.11423 4088:0.02285 4089:0.04569 4090:0.02285 4091:0.02285 4092:0.02285 4094:0.06854 4095:0.04569 4096:0.11423 
0.02335727726136803 1:0.06413 2:0.01603 4:0.06413 5:0.01603 6:0.01603 10:0.01603 11:0.0481 13:0.03207 15:0.03207 16:0.03207 17:0.03207 19:0.01603 20:0.03207 24:0.06413 25:0.03207 28:0.01603 34:0.03207 37:0.01603 38:0.01603 41:0.03207 42:0.01603 44:0.01603 46:0.01603 49:0.03207 50:0.01603 51:0.01603 52:0.01603 54:0.01603 56:0.01603 59:0.01603 60:0.03207 61:0.01603 62:0.03207 64:0.03207 66:0.01603 68:0.0481 69:0.01603 73:0.11223 74:0.01603 75:0.01603 78:0.0481 80:0.01603 84:0.01603 85:0.03207 95:0.06413 96:0.03207 97:0.01603 99:0.01603 102:0.01603 105:0.01603 107:0.01603 111:0.01603 116:0.01603 117:0.01603 118:0.01603 120:0.03207 123:0.01603 126:0.01603 127:0.01603 129:0.03207 131:0.01603 134:0.01603 135:0.01603 147:0.01603 148:0.01603 150:0.01603 151:0.01603 153:0.01603 163:0.01603 164:0.03207 165:0.01603 166:0.01603 168:0.01603 175:0.01603 176:0.03207 182:0.01603 183:0.01603 189:0.01603 190:0.01603 194:0.01603 195:0.01603 196:0.01603 198:0.01603 200:0.01603 203:0.0481 204:0.01603 208:0.03207 209:0.01603 212:0.01603 213:0.01603 216:0.03207 223:0.03207 226:0.01603 229:0.01603 230:0.01603 236:0.01603 237:0.01603 240:0.01603 241:0.01603 244:0.06413 245:0.03207 246:0.01603 247:0.01603 254:0.01603 255:0.03207 256:0.03207 257:0.01603 260:0.01603 261:0.03207 269:0.0481 270:0.01603 273:0.03207 274:0.0481 277:0.01603 280:0.03207 282:0.01603 286:0.01603 289:0.11223 290:0.01603 291:0.0962 293:0.01603 298:0.01603 300:0.01603 306:0.01603 307:0.01603 308:0.01603 309:0.03207 311:0.01603 316:0.03207 320:0.03207 321:0.0481 323:0.01603 325:0.01603 329:0.01603 330:0.01603 335:0.01603 336:0.01603 338:0.01603 340:0.03207 341:0.01603 343:0.01603 361:0.01603 372:0.03207 377:0.03207 378:0.01603 380:0.01603 381:0.03207 384:0.01603 387:0.01603 393:0.01603 398:0.01603 402:0.01603 406:0.01603 415:0.03207 418:0.01603 427:0.03207 434:0.01603 441:0.03207 448:0.01603 459:0.01603 461:0.01603 464:0.01603 466:0.03207 467:0.01603 468:0.01603 469:0.01603 472:0.01603 473:0.01603 475:0.01603 477:0.01603 478:0.03207 483:0.03207 484:0.01603 485:0.01603 491:0.01603 503:0.01603 507:0.03207 511:0.01603 514:0.06413 516:0.06413 517:0.06413 518:0.01603 520:0.03207 521:0.01603 523:0.01603 531:0.06413 532:0.01603 533:0.03207 537:0.01603 545:0.03207 546:0.03207 547:0.1443 548:0.01603 550:0.03207 554:0.01603 555:0.01603 559:0.01603 560:0.03207 566:0.03207 569:0.01603 571:0.01603 575:0.01603 576:0.01603 577:0.01603 578:0.06413 580:0.01603 585:0.01603 590:0.01603 595:0.01603 598:0.01603 601:0.01603 607:0.01603 608:0.01603 610:0.01603 617:0.01603 621:0.01603 623:0.01603 631:0.01603 634:0.01603 641:0.03207 652:0.01603 654:0.01603 656:0.03207 657:0.01603 658:0.01603 659:0.01603 660:0.03207 662:0.03207 669:0.01603 670:0.01603 673:0.01603 675:0.01603 679:0.01603 681:0.01603 691:0.01603 700:0.03207 702:0.01603 703:0.01603 704:0.06413 711:0.01603 720:0.01603 722:0.01603 724:0.01603 725:0.01603 726:0.01603 730:0.01603 737:0.03207 739:0.01603 745:0.01603 746:0.03207 747:0.01603 750:0.01603 753:0.01603 756:0.01603 758:0.01603 759:0.01603 760:0.03207 762:0.01603 763:0.01603 776:0.01603 779:0.01603 782:0.01603 784:0.06413 785:0.03207 789:0.03207 797:0.01603 803:0.01603 806:0.01603 810:0.01603 812:0.03207 813:0.01603 816:0.01603 818:0.01603 819:0.01603 826:0.01603 828:0.01603 831:0.01603 832:0.01603 833:0.03207 834:0.01603 837:0.01603 842:0.03207 844:0.01603 846:0.06413 847:0.01603 849:0.03207 851:0.01603 854:0.01603 857:0.0481 859:0.01603 862:0.01603 864:0.03207 868:0.03207 869:0.01603 873:0.0481 878:0.01603 882:0.01603 888:0.01603 889:0.01603 890:0.0481 897:0.01603 901:0.01603 904:0.01603 906:0.01603 907:0.01603 908:0.01603 910:0.01603 911:0.0481 912:0.01603 913:0.01603 914:0.0481 918:0.01603 920:0.03207 921:0.01603 928:0.01603 930:0.01603 933:0.01603 937:0.01603 940:0.03207 943:0.01603 944:0.01603 947:0.0481 949:0.01603 952:0.01603 955:0.01603 957:0.01603 959:0.01603 960:0.03207 962:0.01603 975:0.06413 976:0.01603 977:0.03207 978:0.01603 982:0.01603 985:0.01603 987:0.01603 994:0.01603 997:0.01603 998:0.03207 999:0.01603 1000:0.01603 1003:0.01603 1005:0.01603 1008:0.0481 1013:0.01603 1014:0.01603 1016:0.06413 1017:0.03207 1019:0.01603 1020:0.01603 1022:0.03207 1024:0.06413 1025:0.01603 1027:0.03207 1029:0.03207 1030:0.01603 1031:0.03207 1033:0.01603 1034:0.01603 1036:0.01603 1038:0.01603 1040:0.03207 1041:0.01603 1043:0.06413 1044:0.01603 1046:0.01603 1048:0.01603 1054:0.01603 1055:0.01603 1061:0.01603 1062:0.01603 1063:0.01603 1066:0.03207 1070:0.01603 1072:0.01603 1073:0.01603 1074:0.01603 1075:0.03207 1076:0.01603 1077:0.01603 1078:0.03207 1080:0.01603 1081:0.01603 1082:0.01603 1089:0.01603 1090:0.01603 1093:0.03207 1094:0.03207 1095:0.01603 1097:0.03207 1101:0.01603 1107:0.03207 1108:0.01603 1117:0.01603 1120:0.01603 1125:0.01603 1128:0.01603 1131:0.01603 1133:0.01603 1136:0.01603 1141:0.03207 1142:0.01603 1143:0.01603 1144:0.01603 1145:0.03207 1146:0.01603 1153:0.03207 1154:0.06413 1155:0.01603 1157:0.03207 1158:0.01603 1161:0.08017 1162:0.03207 1166:0.03207 1168:0.03207 1169:0.08017 1179:0.01603 1180:0.03207 1182:0.01603 1190:0.01603 1192:0.01603 1193:0.01603 1195:0.01603 1200:0.06413 1206:0.01603 1209:0.01603 1211:0.03207 1215:0.01603 1220:0.06413 1221:0.01603 1222:0.01603 1225:0.01603 1226:0.01603 1229:0.03207 1233:0.01603 1235:0.03207 1236:0.0481 1241:0.03207 1243:0.01603 1245:0.01603 1246:0.01603 1250:0.01603 1251:0.01603 1252:0.01603 1253:0.03207 1254:0.01603 1258:0.01603 1260:0.01603 1262:0.03207 1271:0.01603 1274:0.01603 1275:0.01603 1278:0.01603 1280:0.03207 1281:0.01603 1283:0.0481 1284:0.01603 1286:0.01603 1288:0.01603 1290:0.03207 1291:0.01603 1292:0.03207 1295:0.01603 1300:0.01603 1306:0.01603 1310:0.03207 1311:0.03207 1315:0.01603 1317:0.01603 1319:0.01603 1323:0.03207 1328:0.01603 1329:0.03207 1331:0.01603 1336:0.01603 1338:0.03207 1344:0.01603 1345:0.01603 1347:0.0481 1348:0.01603 1351:0.01603 1352:0.01603 1354:0.01603 1356:0.01603 1357:0.03207 1358:0.01603 1362:0.01603 1363:0.01603 1369:0.01603 1372:0.03207 1375:0.01603 1377:0.01603 1391:0.01603 1392:0.01603 1398:0.01603 1400:0.01603 1403:0.03207 1409:0.01603 1410:0.01603 1412:0.01603 1420:0.01603 1422:0.03207 1423:0.01603 1439:0.01603 1442:0.03207 1444:0.01603 1454:0.01603 1466:0.01603 1470:0.03207 1475:0.01603 1484:0.01603 1488:0.0481 1492:0.01603 1494:0.01603 1497:0.01603 1498:0.01603 1502:0.03207 1507:0.03207 1509:0.01603 1510:0.01603 1513:0.01603 1514:0.01603 1518:0.01603 1520:0.01603 1522:0.01603 1524:0.01603 1528:0.01603 1529:0.01603 1531:0.01603 1534:0.01603 1536:0.0481 1537:0.03207 1539:0.01603 1544:0.01603 1548:0.01603 1551:0.01603 1552:0.01603 1554:0.01603 1568:0.01603 1571:0.01603 1576:0.01603 1577:0.01603 1578:0.01603 1582:0.01603 1583:0.01603 1590:0.06413 1593:0.01603 1594:0.01603 1596:0.01603 1604:0.01603 1606:0.01603 1609:0.03207 1614:0.01603 1622:0.01603 1624:0.01603 1657:0.01603 1658:0.01603 1659:0.01603 1663:0.01603 1666:0.01603 1669:0.03207 1670:0.03207 1678:0.06413 1683:0.01603 1696:0.01603 1705:0.01603 1706:0.01603 1708:0.01603 1718:0.01603 1731:0.01603 1736:0.01603 1760:0.01603 1762:0.01603 1763:0.01603 1765:0.01603 1771:0.01603 1775:0.01603 1782:0.03207 1790:0.01603 1791:0.03207 1797:0.01603 1801:0.01603 1812:0.0481 1816:0.01603 1833:0.01603 1838:0.01603 1844:0.01603 1851:0.01603 1852:0.01603 1854:0.01603 1855:0.03207 1856:0.01603 1863:0.01603 1864:0.01603 1867:0.03207 1868:0.03207 1869:0.03207 1871:0.01603 1873:0.01603 1878:0.01603 1880:0.01603 1888:0.01603 1889:0.01603 1891:0.03207 1894:0.01603 1897:0.01603 1904:0.01603 1908:0.01603 1909:0.03207 1910:0.01603 1911:0.01603 1912:0.1443 1915:0.01603 1916:0.0962 1921:0.01603 1922:0.01603 1925:0.01603 1929:0.0481 1932:0.01603 1934:0.01603 1935:0.03207 1937:0.03207 1939:0.03207 1941:0.01603 1943:0.01603 1944:0.01603 1945:0.01603 1946:0.01603 1952:0.01603 1956:0.01603 1960:0.01603 1961:0.01603 1963:0.01603 1967:0.03207 1973:0.03207 1976:0.06413 1978:0.03207 1982:0.06413 1983:0.06413 1984:0.01603 1985:0.01603 1991:0.01603 1995:0.01603 2000:0.01603 2012:0.01603 2015:0.01603 2016:0.01603 2018:0.01603 2022:0.01603 2026:0.01603 2027:0.0481 2028:0.01603 2038:0.01603 2039:0.01603 2043:0.0481 2046:0.03207 2047:0.03207 2049:0.01603 2050:0.01603 2051:0.03207 2052:0.03207 2053:0.03207 2054:0.03207 2055:0.01603 2057:0.01603 2059:0.01603 2061:0.0481 2062:0.01603 2063:0.01603 2064:0.01603 2065:0.01603 2066:0.01603 2067:0.06413 2070:0.01603 2072:0.01603 2075:0.03207 2078:0.0481 2080:0.01603 2081:0.01603 2089:0.01603 2096:0.01603 2099:0.01603 2106:0.01603 2109:0.03207 2112:0.03207 2117:0.03207 2118:0.01603 2120:0.01603 2121:0.08017 2123:0.01603 2127:0.03207 2129:0.03207 2134:0.01603 2139:0.01603 2148:0.01603 2163:0.01603 2167:0.01603 2169:0.01603 2175:0.01603 2176:0.01603 2178:0.0481 2181:0.03207 2185:0.1443 2187:0.03207 2188:0.03207 2191:0.01603 2193:0.01603 2197:0.01603 2200:0.01603 2207:0.01603 2212:0.01603 2213:0.0481 2217:0.01603 2218:0.01603 2226:0.01603 2229:0.01603 2233:0.03207 2235:0.03207 2236:0.01603 2238:0.0481 2239:0.01603 2257:0.01603 2258:0.01603 2259:0.01603 2260:0.01603 2261:0.03207 2262:0.01603 2263:0.06413 2264:0.01603 2266:0.01603 2267:0.03207 2268:0.01603 2271:0.03207 2273:0.01603 2276:0.06413 2279:0.01603 2280:0.01603 2283:0.01603 2288:0.0481 2292:0.01603 2298:0.0481 2300:0.01603 2302:0.01603 2303:0.01603 2306:0.03207 2309:0.0481 2310:0.01603 2312:0.01603 2314:0.01603 2317:0.01603 2318:0.0481 2319:0.01603 2322:0.01603 2323:0.03207 2325:0.03207 2331:0.01603 2338:0.01603 2340:0.0481 2341:0.01603 2343:0.01603 2344:0.01603 2346:0.01603 2348:0.01603 2351:0.01603 2354:0.01603 2356:0.01603 2357:0.01603 2359:0.01603 2361:0.01603 2363:0.03207 2366:0.01603 2367:0.01603 2371:0.01603 2376:0.03207 2379:0.01603 2383:0.01603 2385:0.0481 2389:0.01603 2391:0.01603 2398:0.01603 2401:0.03207 2420:0.01603 2421:0.01603 2423:0.01603 2424:0.01603 2426:0.01603 2428:0.01603 2431:0.03207 2432:0.01603 2437:0.01603 2440:0.01603 2443:0.01603 2446:0.01603 2449:0.01603 2451:0.01603 2466:0.01603 2481:0.01603 2491:0.01603 2492:0.01603 2511:0.01603 2516:0.01603 2521:0.01603 2527:0.03207 2530:0.01603 2532:0.03207 2533:0.01603 2534:0.03207 2539:0.01603 2540:0.01603 2544:0.01603 2554:0.01603 2555:0.03207 2559:0.01603 2560:0.01603 2561:0.01603 2562:0.01603 2563:0.01603 2564:0.01603 2565:0.01603 2567:0.03207 2568:0.01603 2576:0.01603 2578:0.03207 2582:0.01603 2583:0.01603 2591:0.01603 2592:0.01603 2595:0.01603 2603:0.01603 2607:0.01603 2608:0.01603 2613:0.03207 2615:0.06413 2616:0.03207 2623:0.03207 2624:0.01603 2627:0.01603 2628:0.03207 2629:0.03207 2634:0.03207 2635:0.01603 2637:0.01603 2639:0.01603 2640:0.01603 2645:0.03207 2655:0.01603 2656:0.01603 2659:0.01603 2672:0.01603 2676:0.01603 2680:0.03207 2687:0.01603 2688:0.01603 2689:0.01603 2690:0.03207 2692:0.01603 2696:0.01603 2697:0.01603 2699:0.01603 2702:0.01603 2708:0.01603 2712:0.03207 2713:0.01603 2716:0.01603 2720:0.01603 2723:0.01603 2724:0.01603 2727:0.01603 2728:0.01603 2733:0.01603 2734:0.01603 2737:0.01603 2738:0.01603 2742:0.01603 2750:0.01603 2751:0.01603 2753:0.01603 2758:0.03207 2761:0.01603 2767:0.01603 2768:0.01603 2775:0.03207 2783:0.01603 2784:0.01603 2789:0.01603 2791:0.01603 2798:0.01603 2799:0.03207 2801:0.01603 2805:0.01603 2808:0.01603 2810:0.01603 2811:0.01603 2814:0.03207 2815:0.01603 2816:0.01603 2817:0.01603 2827:0.01603 2837:0.01603 2838:0.01603 2844:0.01603 2846:0.01603 2849:0.03207 2850:0.01603 2852:0.01603 2868:0.01603 2874:0.01603 2876:0.01603 2879:0.01603 2880:0.01603 2883:0.01603 2884:0.01603 2887:0.01603 2890:0.01603 2895:0.01603 2896:0.01603 2900:0.01603 2901:0.01603 2906:0.01603 2907:0.03207 2908:0.01603 2917:0.01603 2920:0.01603 2930:0.01603 2936:0.03207 2937:0.01603 2938:0.01603 2940:0.01603 2944:0.03207 2946:0.01603 2948:0.01603 2952:0.01603 2956:0.03207 2958:0.01603 2964:0.0481 2965:0.01603 2968:0.01603 2972:0.01603 2977:0.01603 2981:0.03207 2987:0.01603 2988:0.01603 2989:0.01603 2997:0.01603 2998:0.03207 2999:0.01603 3001:0.01603 3002:0.01603 3004:0.0481 3006:0.01603 3009:0.01603 3012:0.01603 3017:0.01603 3024:0.01603 3026:0.01603 3027:0.01603 3030:0.03207 3031:0.01603 3035:0.01603 3038:0.0481 3039:0.06413 3044:0.01603 3045:0.01603 3048:0.06413 3049:0.03207 3055:0.01603 3056:0.01603 3062:0.01603 3064:0.06413 3065:0.0481 3066:0.03207 3070:0.01603 3072:0.01603 3073:0.0481 3092:0.01603 3093:0.01603 3101:0.01603 3104:0.01603 3105:0.03207 3116:0.03207 3125:0.01603 3133:0.03207 3134:0.03207 3136:0.01603 3137:0.01603 3140:0.01603 3149:0.03207 3152:0.01603 3153:0.03207 3154:0.01603 3157:0.01603 3158:0.01603 3165:0.01603 3176:0.01603 3183:0.01603 3188:0.01603 3189:0.01603 3201:0.0481 3205:0.01603 3212:0.01603 3215:0.01603 3224:0.01603 3233:0.03207 3237:0.01603 3245:0.01603 3247:0.01603 3252:0.01603 3253:0.01603 3261:0.01603 3269:0.01603 3276:0.01603 3279:0.03207 3299:0.03207 3301:0.01603 3302:0.01603 3305:0.01603 3307:0.03207 3309:0.03207 3311:0.01603 3317:0.01603 3321:0.01603 3322:0.01603 3324:0.0481 3326:0.0481 3328:0.03207 3329:0.01603 3330:0.0481 3332:0.03207 3333:0.01603 3339:0.01603 3341:0.01603 3346:0.01603 3356:0.03207 3358:0.03207 3359:0.01603 3362:0.01603 3364:0.01603 3365:0.03207 3367:0.01603 3372:0.03207 3374:0.01603 3375:0.03207 3377:0.03207 3381:0.0481 3383:0.01603 3384:0.01603 3385:0.03207 3386:0.01603 3391:0.01603 3393:0.01603 3394:0.03207 3400:0.01603 3403:0.01603 3405:0.01603 3409:0.03207 3411:0.01603 3412:0.01603 3415:0.01603 3416:0.01603 3422:0.01603 3423:0.01603 3427:0.01603 3428:0.0481 3432:0.01603 3433:0.03207 3436:0.01603 3440:0.01603 3441:0.01603 3443:0.01603 3447:0.01603 3454:0.01603 3456:0.03207 3457:0.03207 3460:0.01603 3466:0.01603 3467:0.01603 3468:0.01603 3471:0.03207 3475:0.01603 3476:0.01603 3478:0.01603 3488:0.01603 3489:0.01603 3492:0.0481 3493:0.01603 3496:0.01603 3499:0.01603 3512:0.01603 3520:0.03207 3522:0.01603 3525:0.0481 3526:0.01603 3535:0.01603 3539:0.0481 3542:0.01603 3548:0.01603 3550:0.1443 3551:0.08017 3553:0.03207 3557:0.01603 3559:0.03207 3560:0.01603 3564:0.01603 3566:0.08017 3567:0.03207 3568:0.11223 3569:0.01603 3571:0.01603 3576:0.01603 3582:0.01603 3583:0.01603 3585:0.0481 3588:0.01603 3589:0.01603 3590:0.01603 3597:0.01603 3600:0.03207 3602:0.01603 3603:0.03207 3604:0.01603 3613:0.01603 3614:0.01603 3617:0.01603 3619:0.03207 3621:0.01603 3626:0.01603 3629:0.01603 3631:0.03207 3632:0.01603 3637:0.03207 3638:0.03207 3641:0.0481 3642:0.01603 3644:0.03207 3645:0.01603 3647:0.01603 3649:0.01603 3650:0.01603 3652:0.01603 3653:0.01603 3654:0.01603 3655:0.01603 3657:0.01603 3658:0.01603 3659:0.01603 3660:0.01603 3661:0.01603 3663:0.03207 3664:0.01603 3665:0.01603 3666:0.03207 3668:0.01603 3669:0.01603 3673:0.01603 3677:0.01603 3678:0.0481 3680:0.01603 3682:0.01603 3684:0.01603 3685:0.03207 3695:0.01603 3701:0.01603 3705:0.03207 3706:0.01603 3707:0.01603 3708:0.01603 3711:0.01603 3712:0.01603 3713:0.01603 3720:0.01603 3724:0.01603 3726:0.03207 3728:0.01603 3729:0.03207 3730:0.01603 3731:0.01603 3742:0.01603 3745:0.0481 3746:0.01603 3749:0.01603 3750:0.03207 3754:0.01603 3756:0.01603 3757:0.01603 3760:0.03207 3762:0.01603 3764:0.03207 3768:0.03207 3770:0.03207 3772:0.01603 3773:0.01603 3785:0.0481 3789:0.01603 3791:0.01603 3793:0.03207 3795:0.01603 3796:0.01603 3799:0.03207 3802:0.01603 3805:0.01603 3806:0.03207 3807:0.03207 3812:0.01603 3813:0.01603 3814:0.03207 3820:0.01603 3822:0.03207 3823:0.03207 3824:0.01603 3827:0.01603 3829:0.01603 3830:0.01603 3832:0.06413 3833:0.01603 3834:0.0481 3836:0.03207 3838:0.03207 3839:0.03207 3840:0.01603 3841:0.03207 3846:0.01603 3848:0.01603 3849:0.01603 3856:0.01603 3862:0.01603 3866:0.01603 3873:0.01603 3881:0.01603 3897:0.03207 3899:0.03207 3903:0.01603 3904:0.03207 3905:0.06413 3912:0.03207 3913:0.03207 3918:0.01603 3922:0.01603 3925:0.0481 3928:0.01603 3929:0.01603 3933:0.03207 3937:0.03207 3939:0.01603 3946:0.03207 3947:0.01603 3952:0.01603 3953:0.01603 3954:0.03207 3957:0.01603 3960:0.03207 3964:0.11223 3965:0.03207 3966:0.01603 3969:0.03207 3972:0.03207 3973:0.03207 3982:0.01603 3983:0.01603 3984:0.01603 3987:0.03207 3988:0.01603 3989:0.03207 3992:0.01603 3994:0.01603 3998:0.01603 3999:0.08017 4003:0.01603 4004:0.03207 4005:0.01603 4009:0.03207 4010:0.0481 4013:0.03207 4014:0.03207 4020:0.03207 4028:0.03207 4030:0.01603 4031:0.01603 4032:0.03207 4034:0.01603 4035:0.01603 4038:0.01603 4049:0.03207 4051:0.01603 4052:0.01603 4053:0.01603 4054:0.01603 4056:0.03207 4057:0.03207 4059:0.01603 4061:0.0481 4063:0.03207 4064:0.03207 4065:0.06413 4068:0.03207 4069:0.01603 4072:0.01603 4073:0.01603 4075:0.01603 4076:0.0481 4077:0.01603 4079:0.01603 4081:0.03207 4082:0.01603 4085:0.0481 4086:0.01603 4087:0.03207 4089:0.01603 4091:0.01603 4092:0.01603 4093:0.0481 4094:0.01603 4095:0.01603 4096:0.06413 
0.02953589141797004 2:0.02291 4:0.02291 5:0.04581 6:0.02291 13:0.02291 14:0.02291 15:0.06872 16:0.02291 17:0.09162 18:0.02291 22:0.02291 23:0.02291 41:0.02291 47:0.02291 48:0.02291 50:0.04581 52:0.04581 53:0.04581 54:0.02291 55:0.02291 57:0.02291 58:0.02291 60:0.02291 61:0.04581 63:0.04581 64:0.04581 65:0.06872 68:0.06872 69:0.02291 71:0.02291 74:0.02291 76:0.02291 81:0.04581 82:0.02291 85:0.02291 89:0.04581 95:0.02291 100:0.02291 104:0.02291 107:0.02291 111:0.02291 116:0.02291 118:0.02291 121:0.02291 122:0.02291 124:0.02291 128:0.02291 133:0.02291 145:0.02291 148:0.02291 149:0.02291 151:0.02291 152:0.02291 159:0.02291 161:0.02291 171:0.04581 173:0.02291 180:0.02291 185:0.02291 188:0.02291 191:0.02291 194:0.02291 199:0.02291 200:0.02291 204:0.02291 208:0.04581 209:0.02291 212:0.02291 213:0.02291 214:0.02291 215:0.02291 217:0.02291 218:0.02291 219:0.02291 228:0.02291 232:0.02291 233:0.02291 234:0.02291 237:0.04581 238:0.02291 242:0.02291 243:0.02291 244:0.02291 245:0.02291 249:0.02291 250:0.04581 251:0.04581 252:0.04581 253:0.02291 254:0.06872 255:0.02291 256:0.02291 257:0.02291 259:0.04581 260:0.02291 262:0.02291 263:0.02291 264:0.02291 267:0.02291 270:0.02291 271:0.02291 272:0.04581 275:0.04581 276:0.02291 278:0.02291 279:0.02291 280:0.02291 281:0.02291 288:0.02291 289:0.02291 291:0.02291 294:0.02291 295:0.02291 297:0.02291 303:0.02291 304:0.02291 306:0.02291 307:0.02291 308:0.04581 313:0.02291 316:0.04581 319:0.04581 320:0.02291 321:0.02291 324:0.04581 325:0.02291 337:0.02291 339:0.02291 344:0.02291 353:0.02291 356:0.02291 361:0.02291 362:0.02291 371:0.04581 379:0.02291 381:0.02291 386:0.02291 389:0.02291 398:0.02291 404:0.02291 414:0.02291 415:0.02291 417:0.02291 424:0.02291 427:0.02291 436:0.04581 441:0.06872 446:0.02291 463:0.02291 464:0.02291 465:0.02291 467:0.02291 472:0.02291 479:0.02291 483:0.02291 484:0.02291 486:0.02291 495:0.02291 496:0.02291 497:0.02291 507:0.02291 511:0.04581 513:0.02291 516:0.02291 517:0.02291 522:0.02291 530:0.02291 532:0.02291 552:0.02291 555:0.02291 557:0.02291 561:0.02291 566:0.04581 567:0.02291 578:0.04581 580:0.02291 584:0.02291 585:0.02291 592:0.02291 595:0.02291 602:0.04581 604:0.02291 607:0.02291 609:0.02291 623:0.02291 624:0.02291 632:0.02291 634:0.02291 635:0.06872 638:0.02291 642:0.02291 645:0.02291 646:0.02291 652:0.02291 654:0.02291 657:0.02291 672:0.02291 674:0.02291 676:0.02291 681:0.02291 684:0.02291 692:0.02291 693:0.02291 700:0.02291 703:0.02291 706:0.02291 707:0.02291 720:0.02291 726:0.02291 737:0.02291 741:0.02291 744:0.02291 746:0.02291 750:0.02291 753:0.02291 756:0.02291 759:0.02291 762:0.02291 763:0.02291 764:0.02291 769:0.02291 770:0.02291 772:0.04581 776:0.02291 784:0.02291 788:0.02291 792:0.02291 796:0.04581 800:0.02291 803:0.02291 804:0.02291 815:0.02291 816:0.02291 817:0.02291 819:0.02291 821:0.04581 823:0.04581 828:0.04581 832:0.04581 833:0.02291 837:0.02291 839:0.02291 844:0.02291 847:0.02291 848:0.02291 849:0.04581 852:0.02291 853:0.02291 855:0.02291 856:0.02291 859:0.02291 863:0.02291 865:0.06872 870:0.02291 874:0.02291 876:0.02291 880:0.02291 884:0.02291 885:0.02291 887:0.02291 890:0.02291 900:0.02291 901:0.02291 909:0.02291 912:0.02291 916:0.04581 917:0.04581 921:0.02291 924:0.02291 928:0.02291 930:0.02291 932:0.02291 933:0.04581 945:0.02291 948:0.02291 949:0.02291 950:0.04581 952:0.02291 954:0.04581 955:0.02291 956:0.02291 962:0.02291 965:0.02291 969:0.02291 975:0.02291 978:0.02291 980:0.02291 985:0.04581 993:0.02291 995:0.04581 997:0.02291 1000:0.02291 1001:0.02291 1002:0.02291 1004:0.04581 1007:0.02291 1008:0.06872 1009:0.02291 1012:0.04581 1013:0.09162 1016:0.02291 1017:0.04581 1020:0.02291 1021:0.02291 1022:0.04581 1023:0.04581 1024:0.02291 1028:0.04581 1029:0.02291 1030:0.02291 1036:0.04581 1038:0.04581 1040:0.02291 1041:0.02291 1043:0.02291 1045:0.02291 1048:0.02291 1049:0.02291 1050:0.02291 1053:0.02291 1055:0.02291 1056:0.02291 1061:0.02291 1067:0.02291 1071:0.02291 1075:0.02291 1078:0.02291 1079:0.02291 1083:0.02291 1084:0.04581 1085:0.02291 1086:0.02291 1087:0.04581 1088:0.04581 1089:0.02291 1092:0.02291 1093:0.02291 1094:0.04581 1097:0.04581 1098:0.02291 1099:0.02291 1100:0.02291 1101:0.06872 1103:0.02291 1109:0.02291 1110:0.02291 1115:0.02291 1117:0.02291 1121:0.02291 1125:0.02291 1128:0.02291 1135:0.04581 1136:0.02291 1140:0.02291 1141:0.02291 1148:0.02291 1151:0.02291 1152:0.02291 1155:0.02291 1157:0.02291 1162:0.02291 1164:0.02291 1166:0.02291 1169:0.02291 1171:0.02291 1175:0.02291 1177:0.02291 1180:0.02291 1182:0.02291 1183:0.04581 1184:0.02291 1186:0.04581 1188:0.02291 1192:0.02291 1200:0.02291 1201:0.02291 1210:0.02291 1213:0.04581 1215:0.02291 1217:0.02291 1220:0.02291 1222:0.02291 1228:0.02291 1231:0.04581 1234:0.02291 1237:0.02291 1249:0.02291 1250:0.02291 1252:0.02291 1253:0.02291 1255:0.02291 1257:0.02291 1258:0.02291 1262:0.04581 1263:0.02291 1265:0.02291 1273:0.02291 1275:0.02291 1276:0.02291 1280:0.06872 1281:0.02291 1282:0.04581 1288:0.02291 1292:0.02291 1293:0.02291 1295:0.02291 1296:0.04581 1297:0.02291 1299:0.04581 1300:0.02291 1302:0.02291 1309:0.02291 1317:0.02291 1320:0.06872 1321:0.04581 1322:0.02291 1324:0.02291 1337:0.02291 1338:0.02291 1341:0.02291 1343:0.02291 1345:0.02291 1354:0.06872 1355:0.02291 1363:0.02291 1372:0.02291 1376:0.04581 1383:0.02291 1385:0.02291 1392:0.02291 1393:0.02291 1400:0.02291 1406:0.02291 1407:0.02291 1409:0.02291 1417:0.02291 1421:0.02291 1424:0.02291 1426:0.02291 1429:0.04581 1434:0.02291 1441:0.02291 1444:0.02291 1445:0.02291 1449:0.02291 1454:0.02291 1455:0.02291 1457:0.02291 1462:0.02291 1470:0.02291 1475:0.02291 1482:0.02291 1483:0.04581 1495:0.02291 1501:0.02291 1514:0.06872 1515:0.02291 1519:0.02291 1522:0.02291 1527:0.02291 1532:0.02291 1533:0.02291 1537:0.04581 1542:0.02291 1544:0.02291 1547:0.02291 1549:0.02291 1550:0.02291 1553:0.04581 1559:0.02291 1569:0.02291 1572:0.02291 1588:0.04581 1590:0.02291 1592:0.02291 1598:0.02291 1599:0.02291 1600:0.02291 1605:0.02291 1613:0.02291 1615:0.02291 1617:0.02291 1618:0.02291 1619:0.02291 1621:0.02291 1625:0.02291 1638:0.02291 1643:0.02291 1653:0.02291 1657:0.02291 1660:0.02291 1665:0.02291 1667:0.02291 1675:0.02291 1680:0.02291 1682:0.02291 1683:0.02291 1690:0.02291 1694:0.02291 1695:0.02291 1696:0.02291 1697:0.02291 1700:0.02291 1705:0.02291 1719:0.02291 1724:0.02291 1726:0.02291 1728:0.02291 1729:0.02291 1741:0.02291 1744:0.02291 1749:0.02291 1750:0.02291 1761:0.06872 1762:0.02291 1764:0.02291 1776:0.02291 1782:0.04581 1786:0.02291 1788:0.02291 1802:0.02291 1808:0.02291 1809:0.02291 1829:0.02291 1833:0.02291 1836:0.04581 1841:0.02291 1844:0.02291 1852:0.02291 1855:0.02291 1857:0.02291 1860:0.04581 1866:0.02291 1868:0.02291 1875:0.02291 1881:0.02291 1885:0.02291 1893:0.02291 1897:0.02291 1908:0.02291 1914:0.02291 1916:0.02291 1921:0.02291 1929:0.02291 1932:0.02291 1933:0.02291 1937:0.02291 1941:0.04581 1943:0.02291 1951:0.02291 1955:0.02291 1958:0.02291 1959:0.02291 1960:0.02291 1961:0.02291 1962:0.02291 1963:0.02291 1964:0.02291 1978:0.02291 1979:0.04581 1980:0.04581 1982:0.02291 1983:0.02291 1985:0.02291 1986:0.02291 1992:0.02291 1995:0.02291 2001:0.02291 2007:0.02291 2009:0.02291 2015:0.02291 2018:0.02291 2025:0.02291 2030:0.02291 2033:0.02291 2044:0.04581 2049:0.02291 2050:0.04581 2052:0.04581 2053:0.02291 2061:0.02291 2062:0.02291 2064:0.06872 2066:0.02291 2067:0.02291 2071:0.02291 2075:0.02291 2076:0.02291 2078:0.02291 2082:0.02291 2086:0.02291 2088:0.02291 2091:0.02291 2097:0.02291 2102:0.02291 2103:0.02291 2111:0.02291 2114:0.04581 2115:0.02291 2117:0.02291 2118:0.02291 2120:0.02291 2125:0.02291 2127:0.04581 2128:0.02291 2129:0.02291 2139:0.02291 2141:0.02291 2146:0.02291 2154:0.02291 2165:0.02291 2178:0.02291 2190:0.04581 2193:0.02291 2199:0.02291 2204:0.02291 2207:0.02291 2213:0.02291 2217:0.02291 2225:0.02291 2230:0.02291 2234:0.02291 2238:0.02291 2241:0.02291 2254:0.09162 2258:0.02291 2261:0.02291 2262:0.04581 2264:0.02291 2265:0.02291 2268:0.02291 2270:0.04581 2271:0.02291 2277:0.02291 2278:0.02291 2293:0.02291 2295:0.02291 2297:0.02291 2300:0.02291 2302:0.02291 2303:0.04581 2304:0.02291 2309:0.02291 2310:0.02291 2311:0.02291 2312:0.02291 2320:0.04581 2322:0.02291 2323:0.02291 2324:0.04581 2334:0.02291 2335:0.02291 2338:0.02291 2339:0.02291 2340:0.02291 2344:0.02291 2352:0.02291 2353:0.04581 2357:0.02291 2358:0.02291 2361:0.02291 2363:0.02291 2368:0.02291 2372:0.02291 2373:0.06872 2374:0.02291 2376:0.02291 2379:0.06872 2383:0.02291 2384:0.02291 2387:0.02291 2389:0.02291 2404:0.02291 2405:0.02291 2406:0.04581 2412:0.02291 2414:0.02291 2422:0.02291 2427:0.02291 2433:0.02291 2438:0.02291 2441:0.02291 2448:0.02291 2455:0.02291 2459:0.02291 2469:0.02291 2472:0.04581 2473:0.02291 2489:0.04581 2495:0.02291 2507:0.02291 2513:0.04581 2517:0.02291 2527:0.02291 2529:0.02291 2531:0.02291 2533:0.02291 2537:0.02291 2539:0.06872 2543:0.02291 2544:0.02291 2545:0.02291 2547:0.02291 2550:0.02291 2552:0.02291 2553:0.02291 2561:0.02291 2562:0.02291 2567:0.04581 2570:0.02291 2578:0.02291 2580:0.04581 2581:0.02291 2585:0.02291 2587:0.02291 2590:0.02291 2597:0.02291 2602:0.02291 2608:0.02291 2613:0.02291 2615:0.02291 2616:0.04581 2618:0.02291 2622:0.02291 2623:0.02291 2624:0.02291 2626:0.04581 2629:0.04581 2633:0.04581 2636:0.02291 2637:0.02291 2638:0.02291 2642:0.02291 2643:0.02291 2658:0.02291 2660:0.02291 2663:0.02291 2666:0.04581 2677:0.02291 2684:0.02291 2685:0.02291 2686:0.02291 2690:0.02291 2693:0.02291 2695:0.02291 2696:0.02291 2702:0.04581 2704:0.02291 2705:0.02291 2713:0.02291 2722:0.04581 2725:0.02291 2735:0.02291 2747:0.02291 2748:0.02291 2752:0.02291 2767:0.02291 2770:0.02291 2776:0.02291 2778:0.02291 2794:0.02291 2798:0.02291 2799:0.04581 2801:0.02291 2802:0.02291 2807:0.02291 2810:0.02291 2812:0.02291 2815:0.02291 2816:0.02291 2817:0.02291 2822:0.02291 2827:0.02291 2832:0.02291 2849:0.02291 2866:0.04581 2876:0.02291 2880:0.04581 2883:0.02291 2885:0.02291 2887:0.02291 2895:0.02291 2897:0.02291 2900:0.02291 2902:0.04581 2904:0.02291 2911:0.04581 2913:0.02291 2918:0.02291 2926:0.02291 2938:0.02291 2942:0.02291 2945:0.06872 2946:0.02291 2948:0.02291 2949:0.02291 2950:0.02291 2958:0.02291 2959:0.02291 2962:0.04581 2965:0.02291 2967:0.02291 2971:0.02291 2973:0.02291 2981:0.06872 2982:0.02291 2983:0.02291 2992:0.02291 2997:0.02291 2998:0.02291 3000:0.02291 3001:0.04581 3002:0.02291 3006:0.02291 3008:0.02291 3009:0.02291 3011:0.02291 3012:0.02291 3016:0.02291 3024:0.02291 3026:0.02291 3030:0.02291 3032:0.02291 3033:0.02291 3036:0.02291 3038:0.02291 3041:0.02291 3046:0.04581 3048:0.04581 3049:0.02291 3053:0.02291 3054:0.04581 3060:0.02291 3062:0.02291 3067:0.04581 3070:0.04581 3072:0.02291 3073:0.02291 3076:0.02291 3077:0.02291 3083:0.02291 3085:0.04581 3088:0.02291 3089:0.02291 3093:0.04581 3103:0.04581 3109:0.02291 3110:0.02291 3116:0.02291 3117:0.02291 3131:0.02291 3135:0.02291 3136:0.04581 3138:0.02291 3152:0.04581 3168:0.02291 3177:0.02291 3181:0.04581 3192:0.02291 3193:0.02291 3197:0.02291 3201:0.04581 3211:0.02291 3213:0.02291 3218:0.02291 3235:0.02291 3241:0.02291 3246:0.02291 3247:0.02291 3259:0.02291 3263:0.02291 3265:0.04581 3269:0.02291 3271:0.02291 3273:0.04581 3277:0.04581 3283:0.02291 3284:0.02291 3289:0.02291 3291:0.02291 3293:0.02291 3302:0.02291 3303:0.02291 3310:0.02291 3311:0.06872 3319:0.02291 3323:0.02291 3325:0.04581 3326:0.02291 3328:0.02291 3332:0.04581 3333:0.02291 3338:0.02291 3342:0.02291 3343:0.02291 3344:0.02291 3345:0.02291 3346:0.04581 3354:0.04581 3356:0.06872 3360:0.02291 3365:0.02291 3367:0.02291 3373:0.02291 3376:0.02291 3386:0.02291 3387:0.02291 3388:0.02291 3392:0.02291 3393:0.02291 3394:0.02291 3395:0.02291 3396:0.02291 3402:0.02291 3407:0.02291 3408:0.02291 3411:0.02291 3415:0.02291 3416:0.02291 3418:0.02291 3419:0.02291 3421:0.02291 3422:0.02291 3427:0.02291 3435:0.02291 3436:0.02291 3437:0.02291 3443:0.02291 3451:0.04581 3452:0.02291 3456:0.02291 3458:0.02291 3459:0.02291 3460:0.04581 3461:0.02291 3469:0.02291 3470:0.02291 3472:0.02291 3476:0.02291 3477:0.02291 3478:0.02291 3487:0.02291 3491:0.02291 3495:0.02291 3504:0.04581 3510:0.02291 3516:0.02291 3519:0.02291 3524:0.02291 3525:0.02291 3533:0.04581 3539:0.02291 3546:0.02291 3547:0.02291 3558:0.04581 3560:0.02291 3567:0.04581 3573:0.02291 3585:0.02291 3588:0.09162 3589:0.02291 3593:0.02291 3598:0.02291 3600:0.02291 3601:0.02291 3602:0.02291 3604:0.02291 3608:0.02291 3620:0.02291 3622:0.02291 3623:0.02291 3630:0.02291 3631:0.02291 3636:0.04581 3638:0.02291 3642:0.02291 3648:0.04581 3652:0.02291 3653:0.02291 3656:0.02291 3658:0.02291 3662:0.02291 3663:0.02291 3666:0.06872 3668:0.04581 3670:0.02291 3674:0.02291 3675:0.02291 3678:0.02291 3683:0.02291 3690:0.02291 3695:0.02291 3699:0.02291 3702:0.02291 3705:0.02291 3707:0.02291 3709:0.02291 3711:0.02291 3713:0.02291 3717:0.02291 3719:0.02291 3722:0.02291 3726:0.02291 3727:0.02291 3728:0.02291 3730:0.02291 3731:0.04581 3732:0.04581 3733:0.04581 3737:0.02291 3739:0.04581 3744:0.02291 3748:0.02291 3751:0.02291 3754:0.02291 3759:0.02291 3760:0.02291 3766:0.02291 3773:0.04581 3775:0.02291 3780:0.02291 3785:0.02291 3789:0.02291 3793:0.02291 3794:0.02291 3796:0.02291 3797:0.02291 3798:0.02291 3800:0.02291 3801:0.02291 3804:0.02291 3807:0.02291 3808:0.02291 3809:0.02291 3810:0.02291 3812:0.02291 3813:0.02291 3814:0.04581 3815:0.02291 3818:0.06872 3820:0.02291 3822:0.02291 3823:0.02291 3824:0.02291 3825:0.02291 3829:0.02291 3832:0.02291 3833:0.02291 3834:0.02291 3837:0.02291 3838:0.02291 3839:0.02291 3840:0.04581 3843:0.02291 3844:0.02291 3845:0.02291 3846:0.02291 3848:0.02291 3850:0.02291 3852:0.02291 3855:0.02291 3860:0.02291 3867:0.02291 3870:0.02291 3871:0.02291 3873:0.02291 3883:0.02291 3891:0.02291 3892:0.02291 3896:0.02291 3898:0.04581 3902:0.02291 3906:0.02291 3908:0.02291 3909:0.02291 3911:0.06872 3912:0.02291 3914:0.02291 3919:0.02291 3921:0.02291 3927:0.02291 3931:0.02291 3932:0.02291 3936:0.02291 3938:0.02291 3940:0.06872 3944:0.02291 3948:0.02291 3951:0.02291 3953:0.02291 3954:0.02291 3959:0.02291 3964:0.02291 3969:0.02291 3971:0.02291 3973:0.02291 3978:0.04581 3980:0.02291 3984:0.02291 3987:0.02291 3990:0.02291 3992:0.02291 3998:0.02291 3999:0.02291 4000:0.02291 4001:0.02291 4002:0.02291 4004:0.04581 4007:0.02291 4012:0.02291 4014:0.02291 4016:0.04581 4019:0.02291 4021:0.02291 4023:0.04581 4025:0.02291 4027:0.02291 4029:0.02291 4031:0.02291 4032:0.09162 4034:0.02291 4035:0.02291 4039:0.02291 4045:0.04581 4046:0.02291 4047:0.02291 4049:0.02291 4050:0.06872 4051:0.02291 4053:0.02291 4055:0.02291 4058:0.02291 4059:0.02291 4061:0.04581 4067:0.02291 4068:0.02291 4073:0.02291 4075:0.02291 4076:0.02291 4079:0.02291 4080:0.06872 4082:0.02291 4084:0.02291 4085:0.02291 4086:0.02291 4087:0.04581 4088:0.02291 4091:0.02291 4092:0.02291 4093:0.02291 4094:0.02291 
0.03125 1:0.0929 2:0.06635 4:0.07963 5:0.03981 6:0.06635 8:0.02654 9:0.03981 12:0.02654 13:0.10617 14:0.01327 15:0.02654 16:0.05308 17:0.01327 19:0.01327 20:0.03981 21:0.01327 22:0.02654 23:0.01327 24:0.02654 30:0.01327 32:0.02654 33:0.01327 35:0.01327 36:0.03981 38:0.01327 39:0.01327 41:0.01327 45:0.05308 46:0.02654 47:0.02654 48:0.01327 49:0.03981 50:0.0929 51:0.01327 52:0.07963 53:0.01327 54:0.01327 56:0.01327 57:0.01327 58:0.02654 59:0.01327 60:0.03981 61:0.03981 62:0.01327 63:0.01327 64:0.07963 65:0.02654 72:0.01327 73:0.01327 78:0.02654 79:0.01327 82:0.01327 85:0.02654 86:0.01327 87:0.01327 89:0.02654 93:0.02654 95:0.01327 97:0.01327 99:0.02654 105:0.02654 106:0.01327 113:0.03981 118:0.01327 119:0.01327 126:0.01327 127:0.01327 128:0.01327 129:0.01327 131:0.01327 133:0.01327 136:0.01327 137:0.01327 138:0.02654 139:0.01327 141:0.03981 144:0.01327 147:0.01327 150:0.01327 153:0.01327 154:0.01327 155:0.01327 162:0.02654 164:0.01327 177:0.01327 179:0.01327 180:0.03981 181:0.02654 182:0.02654 185:0.01327 188:0.01327 189:0.01327 192:0.02654 193:0.05308 196:0.0929 197:0.02654 198:0.01327 199:0.03981 200:0.03981 202:0.01327 204:0.01327 205:0.07963 206:0.02654 208:0.07963 209:0.01327 211:0.01327 212:0.02654 213:0.01327 218:0.01327 219:0.01327 221:0.01327 224:0.01327 225:0.01327 226:0.01327 228:0.02654 229:0.03981 231:0.01327 232:0.01327 234:0.02654 235:0.01327 237:0.02654 239:0.05308 241:0.01327 242:0.02654 243:0.01327 244:0.03981 246:0.03981 247:0.02654 249:0.02654 250:0.01327 253:0.06635 254:0.01327 255:0.01327 256:0.05308 257:0.05308 260:0.01327 264:0.01327 269:0.01327 271:0.01327 273:0.01327 276:0.01327 288:0.01327 289:0.01327 291:0.01327 308:0.01327 311:0.01327 312:0.02654 314:0.01327 315:0.01327 316:0.02654 317:0.02654 319:0.01327 320:0.03981 324:0.01327 327:0.01327 337:0.01327 339:0.01327 344:0.01327 345:0.01327 346:0.01327 349:0.01327 353:0.01327 354:0.01327 356:0.01327 369:0.02654 372:0.02654 376:0.01327 377:0.01327 378:0.01327 379:0.01327 386:0.01327 393:0.02654 394:0.02654 395:0.02654 397:0.01327 404:0.02654 407:0.01327 409:0.02654 417:0.02654 419:0.01327 422:0.01327 435:0.01327 436:0.01327 437:0.02654 449:0.01327 450:0.01327 451:0.01327 452:0.05308 456:0.01327 461:0.01327 464:0.01327 466:0.01327 469:0.01327 471:0.01327 472:0.01327 473:0.01327 478:0.01327 479:0.01327 481:0.01327 485:0.01327 498:0.01327 499:0.01327 501:0.01327 502:0.01327 505:0.01327 509:0.05308 510:0.03981 512:0.02654 513:0.06635 515:0.02654 516:0.01327 518:0.01327 521:0.01327 525:0.01327 529:0.02654 531:0.01327 537:0.01327 541:0.01327 545:0.01327 547:0.02654 549:0.02654 551:0.03981 552:0.01327 553:0.01327 554:0.01327 556:0.01327 557:0.02654 561:0.01327 562:0.01327 563:0.01327 564:0.01327 566:0.01327 567:0.01327 571:0.01327 572:0.02654 575:0.01327 576:0.01327 577:0.01327 579:0.02654 580:0.01327 581:0.03981 585:0.02654 586:0.01327 592:0.01327 600:0.01327 602:0.01327 605:0.01327 609:0.06635 610:0.01327 611:0.03981 613:0.01327 618:0.01327 627:0.02654 628:0.01327 629:0.01327 632:0.01327 633:0.01327 641:0.01327 644:0.01327 647:0.01327 648:0.01327 652:0.01327 654:0.01327 655:0.01327 659:0.02654 665:0.01327 667:0.01327 670:0.01327 675:0.02654 680:0.01327 684:0.01327 686:0.01327 689:0.02654 690:0.02654 692:0.01327 702:0.01327 704:0.02654 705:0.02654 708:0.03981 709:0.01327 713:0.01327 715:0.01327 716:0.01327 717:0.02654 718:0.01327 720:0.03981 721:0.01327 724:0.01327 725:0.01327 728:0.01327 731:0.01327 736:0.01327 737:0.02654 740:0.01327 752:0.01327 755:0.01327 756:0.01327 759:0.02654 764:0.01327 766:0.01327 768:0.02654 769:0.03981 770:0.01327 771:0.02654 772:0.11944 773:0.01327 776:0.01327 781:0.0929 782:0.02654 783:0.02654 784:0.03981 788:0.03981 790:0.01327 792:0.01327 793:0.03981 796:0.01327 797:0.02654 798:0.01327 800:0.03981 801:0.01327 804:0.01327 805:0.01327 807:0.02654 808:0.01327 809:0.01327 810:0.01327 811:0.03981 812:0.02654 813:0.02654 817:0.10617 818:0.02654 819:0.03981 820:0.02654 821:0.01327 822:0.02654 824:0.01327 828:0.01327 829:0.07963 830:0.01327 831:0.01327 832:0.07963 836:0.02654 840:0.01327 843:0.01327 846:0.01327 848:0.02654 849:0.02654 852:0.01327 858:0.01327 859:0.01327 861:0.01327 864:0.01327 865:0.01327 867:0.01327 868:0.02654 869:0.01327 871:0.02654 875:0.01327 876:0.01327 879:0.01327 881:0.03981 884:0.01327 886:0.01327 887:0.01327 889:0.01327 894:0.01327 896:0.03981 897:0.01327 899:0.01327 903:0.01327 904:0.01327 909:0.01327 912:0.02654 913:0.01327 915:0.02654 916:0.02654 923:0.01327 924:0.02654 925:0.01327 929:0.01327 931:0.02654 932:0.01327 934:0.01327 935:0.02654 937:0.01327 945:0.01327 946:0.01327 947:0.01327 948:0.03981 953:0.01327 954:0.03981 956:0.01327 960:0.03981 961:0.06635 962:0.01327 964:0.02654 967:0.01327 968:0.03981 969:0.01327 972:0.05308 973:0.05308 974:0.01327 975:0.02654 976:0.0929 977:0.01327 983:0.02654 984:0.01327 986:0.05308 990:0.01327 995:0.01327 996:0.02654 997:0.01327 998:0.01327 1000:0.01327 1001:0.01327 1004:0.01327 1005:0.01327 1007:0.01327 1009:0.03981 1010:0.03981 1011:0.01327 1012:0.11944 1013:0.01327 1014:0.01327 1015:0.02654 1016:0.01327 1017:0.01327 1020:0.01327 1021:0.06635 1022:0.03981 1023:0.01327 1024:0.07963 1025:0.05308 1026:0.02654 1027:0.02654 1028:0.01327 1033:0.01327 1034:0.01327 1037:0.01327 1040:0.01327 1047:0.01327 1049:0.01327 1051:0.01327 1053:0.01327 1057:0.01327 1059:0.01327 1063:0.02654 1065:0.01327 1072:0.01327 1073:0.01327 1076:0.01327 1077:0.01327 1080:0.01327 1082:0.01327 1083:0.01327 1084:0.01327 1086:0.02654 1088:0.01327 1092:0.01327 1103:0.01327 1104:0.05308 1105:0.01327 1124:0.01327 1141:0.01327 1142:0.01327 1152:0.02654 1153:0.02654 1157:0.01327 1161:0.01327 1163:0.01327 1164:0.01327 1166:0.01327 1169:0.01327 1170:0.01327 1175:0.01327 1177:0.01327 1182:0.01327 1189:0.01327 1191:0.01327 1197:0.02654 1200:0.01327 1201:0.01327 1207:0.01327 1220:0.02654 1222:0.01327 1223:0.01327 1225:0.01327 1227:0.01327 1229:0.01327 1234:0.01327 1240:0.01327 1241:0.02654 1242:0.01327 1245:0.02654 1246:0.01327 1253:0.01327 1257:0.01327 1261:0.02654 1263:0.01327 1264:0.01327 1265:0.02654 1266:0.01327 1267:0.02654 1268:0.02654 1271:0.01327 1274:0.01327 1275:0.01327 1276:0.01327 1277:0.02654 1278:0.03981 1280:0.02654 1281:0.01327 1287:0.02654 1289:0.01327 1294:0.01327 1295:0.01327 1305:0.01327 1324:0.01327 1331:0.02654 1333:0.01327 1336:0.01327 1340:0.01327 1342:0.01327 1343:0.01327 1344:0.01327 1346:0.01327 1355:0.01327 1360:0.01327 1373:0.01327 1380:0.01327 1383:0.02654 1394:0.01327 1396:0.03981 1399:0.01327 1409:0.01327 1416:0.01327 1421:0.01327 1424:0.01327 1428:0.01327 1429:0.01327 1431:0.01327 1432:0.01327 1433:0.03981 1440:0.01327 1441:0.02654 1444:0.01327 1445:0.01327 1446:0.01327 1447:0.01327 1463:0.01327 1470:0.02654 1471:0.01327 1473:0.01327 1474:0.01327 1477:0.01327 1480:0.01327 1485:0.03981 1486:0.03981 1487:0.01327 1498:0.01327 1500:0.02654 1501:0.01327 1503:0.01327 1504:0.01327 1505:0.01327 1508:0.01327 1510:0.01327 1511:0.01327 1515:0.01327 1521:0.01327 1529:0.01327 1533:0.01327 1537:0.01327 1539:0.01327 1540:0.02654 1543:0.03981 1544:0.02654 1545:0.01327 1546:0.01327 1549:0.01327 1551:0.01327 1552:0.02654 1558:0.01327 1559:0.01327 1562:0.01327 1563:0.01327 1567:0.01327 1569:0.02654 1570:0.01327 1571:0.01327 1572:0.01327 1573:0.01327 1574:0.01327 1575:0.01327 1577:0.01327 1578:0.01327 1579:0.01327 1584:0.01327 1587:0.02654 1591:0.02654 1592:0.01327 1594:0.01327 1596:0.01327 1597:0.01327 1598:0.01327 1601:0.02654 1610:0.02654 1611:0.01327 1613:0.01327 1614:0.01327 1616:0.01327 1620:0.02654 1626:0.01327 1627:0.01327 1630:0.01327 1631:0.01327 1633:0.02654 1634:0.01327 1636:0.02654 1642:0.01327 1643:0.02654 1646:0.02654 1652:0.02654 1654:0.01327 1655:0.01327 1656:0.03981 1658:0.01327 1663:0.02654 1664:0.01327 1665:0.01327 1667:0.01327 1668:0.02654 1676:0.01327 1677:0.02654 1683:0.01327 1685:0.01327 1687:0.05308 1691:0.01327 1692:0.01327 1695:0.01327 1701:0.01327 1709:0.01327 1712:0.01327 1719:0.01327 1727:0.01327 1728:0.01327 1732:0.01327 1734:0.01327 1738:0.01327 1743:0.01327 1744:0.03981 1745:0.01327 1747:0.01327 1748:0.01327 1752:0.01327 1753:0.01327 1754:0.01327 1757:0.01327 1772:0.01327 1782:0.01327 1783:0.03981 1787:0.02654 1793:0.03981 1795:0.01327 1796:0.01327 1798:0.01327 1800:0.01327 1804:0.01327 1805:0.02654 1807:0.02654 1808:0.01327 1812:0.01327 1820:0.01327 1822:0.02654 1824:0.01327 1825:0.01327 1826:0.01327 1827:0.02654 1829:0.02654 1832:0.02654 1841:0.03981 1844:0.03981 1845:0.01327 1846:0.01327 1847:0.02654 1848:0.01327 1851:0.02654 1854:0.01327 1856:0.01327 1857:0.01327 1860:0.01327 1862:0.01327 1865:0.01327 1876:0.02654 1880:0.02654 1884:0.01327 1885:0.01327 1891:0.02654 1892:0.01327 1896:0.03981 1901:0.03981 1902:0.01327 1904:0.02654 1906:0.01327 1907:0.02654 1910:0.01327 1911:0.01327 1912:0.02654 1914:0.02654 1916:0.01327 1918:0.02654 1919:0.01327 1920:0.01327 1921:0.01327 1923:0.01327 1927:0.01327 1930:0.01327 1936:0.01327 1937:0.01327 1940:0.02654 1943:0.01327 1944:0.02654 1945:0.01327 1946:0.02654 1949:0.02654 1952:0.01327 1964:0.01327 1976:0.01327 1984:0.01327 1985:0.01327 1989:0.01327 1990:0.01327 1996:0.01327 2002:0.02654 2003:0.01327 2004:0.01327 2007:0.01327 2009:0.01327 2010:0.01327 2016:0.01327 2017:0.02654 2018:0.01327 2024:0.02654 2025:0.01327 2033:0.03981 2034:0.01327 2035:0.01327 2036:0.02654 2039:0.01327 2040:0.02654 2042:0.02654 2045:0.02654 2046:0.01327 2047:0.02654 2049:0.05308 2050:0.02654 2051:0.01327 2052:0.03981 2054:0.01327 2056:0.01327 2060:0.03981 2062:0.01327 2063:0.03981 2064:0.01327 2066:0.01327 2072:0.01327 2073:0.02654 2075:0.02654 2077:0.01327 2078:0.01327 2082:0.02654 2083:0.02654 2084:0.01327 2085:0.01327 2093:0.01327 2096:0.01327 2097:0.01327 2099:0.01327 2100:0.01327 2103:0.01327 2107:0.01327 2110:0.02654 2111:0.02654 2112:0.01327 2113:0.02654 2114:0.01327 2121:0.01327 2136:0.01327 2137:0.01327 2147:0.01327 2149:0.01327 2151:0.02654 2153:0.01327 2158:0.02654 2161:0.01327 2169:0.01327 2173:0.02654 2176:0.02654 2177:0.02654 2178:0.01327 2180:0.01327 2181:0.01327 2186:0.03981 2188:0.01327 2190:0.01327 2191:0.01327 2193:0.03981 2194:0.01327 2200:0.01327 2201:0.06635 2205:0.01327 2207:0.01327 2209:0.02654 2213:0.01327 2215:0.01327 2217:0.01327 2221:0.01327 2227:0.02654 2228:0.01327 2233:0.02654 2238:0.01327 2240:0.01327 2241:0.01327 2244:0.01327 2248:0.01327 2250:0.02654 2251:0.03981 2253:0.02654 2256:0.02654 2264:0.01327 2265:0.02654 2266:0.01327 2270:0.01327 2271:0.01327 2276:0.01327 2279:0.01327 2281:0.02654 2285:0.01327 2288:0.02654 2289:0.01327 2292:0.02654 2294:0.01327 2298:0.01327 2299:0.01327 2301:0.01327 2302:0.01327 2304:0.01327 2305:0.02654 2307:0.02654 2313:0.01327 2314:0.01327 2318:0.01327 2319:0.01327 2320:0.01327 2324:0.03981 2337:0.01327 2338:0.01327 2339:0.02654 2341:0.02654 2342:0.01327 2343:0.01327 2346:0.01327 2348:0.01327 2349:0.01327 2353:0.01327 2354:0.01327 2359:0.01327 2364:0.01327 2365:0.02654 2367:0.01327 2368:0.02654 2381:0.01327 2384:0.02654 2394:0.01327 2397:0.01327 2405:0.01327 2406:0.02654 2407:0.01327 2408:0.01327 2409:0.01327 2410:0.02654 2416:0.01327 2420:0.01327 2423:0.01327 2424:0.01327 2425:0.01327 2426:0.01327 2433:0.02654 2434:0.03981 2435:0.01327 2436:0.05308 2438:0.01327 2439:0.01327 2441:0.02654 2443:0.01327 2446:0.01327 2447:0.01327 2448:0.01327 2449:0.01327 2451:0.02654 2464:0.01327 2468:0.01327 2470:0.03981 2471:0.01327 2472:0.01327 2474:0.01327 2476:0.01327 2481:0.01327 2482:0.01327 2485:0.01327 2486:0.01327 2487:0.01327 2503:0.01327 2505:0.02654 2506:0.02654 2509:0.01327 2510:0.02654 2512:0.01327 2513:0.01327 2515:0.01327 2518:0.01327 2521:0.01327 2524:0.02654 2525:0.01327 2526:0.03981 2528:0.02654 2530:0.01327 2533:0.01327 2535:0.02654 2536:0.01327 2546:0.01327 2551:0.01327 2553:0.01327 2554:0.01327 2557:0.01327 2559:0.01327 2561:0.02654 2562:0.01327 2564:0.01327 2567:0.01327 2572:0.01327 2574:0.01327 2576:0.03981 2586:0.01327 2592:0.02654 2595:0.01327 2596:0.01327 2599:0.01327 2605:0.01327 2607:0.01327 2608:0.01327 2609:0.01327 2611:0.01327 2612:0.02654 2616:0.01327 2617:0.01327 2624:0.01327 2628:0.01327 2633:0.01327 2635:0.01327 2644:0.01327 2650:0.03981 2651:0.01327 2652:0.01327 2657:0.02654 2665:0.01327 2666:0.02654 2669:0.01327 2679:0.01327 2682:0.01327 2688:0.01327 2689:0.01327 2697:0.01327 2698:0.01327 2705:0.01327 2720:0.01327 2736:0.01327 2740:0.01327 2743:0.01327 2749:0.02654 2752:0.02654 2753:0.01327 2755:0.01327 2757:0.01327 2759:0.01327 2767:0.01327 2768:0.01327 2777:0.01327 2778:0.01327 2787:0.01327 2801:0.01327 2803:0.01327 2808:0.01327 2809:0.01327 2814:0.01327 2816:0.06635 2819:0.01327 2820:0.03981 2826:0.01327 2828:0.01327 2829:0.01327 2831:0.01327 2832:0.02654 2833:0.02654 2834:0.01327 2836:0.01327 2840:0.02654 2842:0.01327 2845:0.01327 2851:0.01327 2853:0.01327 2857:0.01327 2859:0.01327 2861:0.01327 2865:0.01327 2868:0.02654 2872:0.01327 2873:0.01327 2874:0.01327 2877:0.02654 2880:0.0929 2881:0.01327 2882:0.01327 2883:0.01327 2890:0.01327 2893:0.01327 2896:0.01327 2897:0.01327 2912:0.02654 2913:0.02654 2919:0.01327 2920:0.01327 2924:0.01327 2931:0.01327 2935:0.01327 2938:0.01327 2942:0.02654 2945:0.01327 2947:0.02654 2956:0.01327 2959:0.01327 2973:0.01327 2974:0.01327 2975:0.01327 2992:0.01327 2993:0.01327 2994:0.01327 3006:0.01327 3012:0.01327 3019:0.01327 3020:0.01327 3021:0.02654 3025:0.01327 3029:0.01327 3033:0.01327 3034:0.03981 3036:0.01327 3038:0.01327 3042:0.01327 3049:0.01327 3051:0.01327 3054:0.01327 3057:0.01327 3060:0.01327 3061:0.01327 3062:0.01327 3069:0.01327 3070:0.02654 3071:0.02654 3072:0.06635 3073:0.03981 3074:0.01327 3075:0.02654 3076:0.06635 3077:0.02654 3081:0.01327 3082:0.01327 3083:0.01327 3084:0.05308 3085:0.10617 3086:0.01327 3087:0.02654 3088:0.06635 3089:0.01327 3094:0.02654 3101:0.01327 3104:0.01327 3113:0.01327 3118:0.02654 3121:0.07963 3122:0.02654 3124:0.07963 3125:0.02654 3127:0.01327 3129:0.03981 3130:0.02654 3132:0.02654 3133:0.05308 3136:0.03981 3137:0.01327 3140:0.01327 3141:0.02654 3149:0.01327 3150:0.01327 3151:0.02654 3152:0.02654 3159:0.01327 3165:0.02654 3166:0.01327 3167:0.02654 3171:0.03981 3173:0.01327 3174:0.01327 3181:0.02654 3185:0.03981 3186:0.01327 3188:0.02654 3190:0.01327 3192:0.02654 3194:0.01327 3198:0.01327 3200:0.05308 3201:0.03981 3207:0.01327 3209:0.01327 3210:0.01327 3211:0.01327 3213:0.01327 3215:0.02654 3216:0.01327 3218:0.01327 3219:0.02654 3220:0.01327 3225:0.02654 3229:0.02654 3230:0.01327 3235:0.01327 3236:0.01327 3240:0.01327 3241:0.01327 3242:0.01327 3243:0.01327 3244:0.01327 3245:0.02654 3248:0.02654 3249:0.03981 3250:0.01327 3252:0.02654 3256:0.01327 3261:0.01327 3262:0.01327 3263:0.01327 3265:0.13271 3266:0.02654 3268:0.05308 3269:0.01327 3272:0.02654 3273:0.01327 3274:0.01327 3275:0.03981 3276:0.01327 3277:0.07963 3278:0.02654 3279:0.01327 3280:0.07963 3281:0.01327 3284:0.01327 3285:0.02654 3287:0.02654 3291:0.01327 3292:0.01327 3293:0.01327 3296:0.03981 3297:0.01327 3298:0.01327 3301:0.01327 3303:0.01327 3305:0.01327 3306:0.01327 3309:0.01327 3313:0.05308 3314:0.01327 3315:0.02654 3316:0.0929 3317:0.01327 3319:0.01327 3320:0.01327 3321:0.01327 3324:0.01327 3325:0.10617 3327:0.01327 3328:0.10617 3329:0.02654 3332:0.01327 3334:0.01327 3338:0.01327 3339:0.01327 3340:0.01327 3341:0.01327 3344:0.02654 3348:0.01327 3349:0.01327 3358:0.02654 3360:0.01327 3364:0.01327 3368:0.01327 3370:0.01327 3372:0.01327 3374:0.01327 3377:0.01327 3378:0.01327 3382:0.01327 3389:0.03981 3392:0.01327 3393:0.01327 3394:0.01327 3395:0.01327 3396:0.01327 3405:0.01327 3406:0.02654 3407:0.01327 3412:0.01327 3421:0.01327 3422:0.01327 3430:0.01327 3433:0.02654 3434:0.01327 3438:0.01327 3440:0.02654 3442:0.01327 3444:0.01327 3447:0.01327 3448:0.01327 3453:0.01327 3455:0.01327 3456:0.01327 3457:0.01327 3458:0.01327 3459:0.01327 3462:0.01327 3463:0.01327 3465:0.01327 3466:0.01327 3468:0.01327 3470:0.02654 3471:0.02654 3473:0.01327 3475:0.01327 3477:0.01327 3480:0.01327 3483:0.03981 3484:0.02654 3485:0.02654 3486:0.06635 3487:0.01327 3488:0.01327 3500:0.01327 3502:0.01327 3504:0.02654 3508:0.03981 3512:0.01327 3515:0.01327 3518:0.02654 3519:0.01327 3521:0.03981 3524:0.01327 3528:0.01327 3529:0.02654 3530:0.02654 3533:0.01327 3535:0.01327 3537:0.01327 3541:0.01327 3542:0.01327 3545:0.01327 3546:0.02654 3548:0.02654 3549:0.01327 3551:0.01327 3552:0.01327 3555:0.01327 3557:0.01327 3558:0.01327 3560:0.02654 3566:0.01327 3568:0.01327 3573:0.03981 3575:0.01327 3576:0.01327 3578:0.01327 3579:0.01327 3581:0.01327 3583:0.01327 3584:0.03981 3585:0.02654 3586:0.01327 3588:0.01327 3589:0.01327 3593:0.03981 3596:0.01327 3597:0.01327 3601:0.01327 3610:0.01327 3612:0.02654 3616:0.02654 3617:0.01327 3621:0.01327 3624:0.01327 3631:0.01327 3635:0.01327 3636:0.01327 3643:0.01327 3645:0.02654 3647:0.01327 3648:0.01327 3649:0.01327 3652:0.01327 3657:0.01327 3658:0.01327 3660:0.01327 3661:0.01327 3663:0.01327 3664:0.03981 3671:0.01327 3675:0.01327 3678:0.01327 3679:0.01327 3681:0.01327 3684:0.01327 3685:0.02654 3688:0.01327 3690:0.01327 3693:0.01327 3694:0.01327 3698:0.01327 3699:0.02654 3700:0.01327 3701:0.01327 3703:0.01327 3704:0.02654 3706:0.02654 3710:0.01327 3713:0.01327 3714:0.01327 3720:0.01327 3721:0.01327 3724:0.01327 3725:0.02654 3728:0.01327 3735:0.01327 3737:0.01327 3739:0.01327 3745:0.01327 3760:0.02654 3769:0.01327 3776:0.01327 3777:0.01327 3779:0.01327 3781:0.02654 3782:0.01327 3784:0.01327 3787:0.01327 3789:0.01327 3792:0.02654 3793:0.01327 3806:0.01327 3807:0.01327 3808:0.01327 3809:0.01327 3816:0.03981 3821:0.02654 3828:0.01327 3829:0.01327 3837:0.02654 3840:0.03981 3841:0.06635 3842:0.01327 3843:0.03981 3844:0.03981 3846:0.01327 3851:0.01327 3853:0.05308 3854:0.01327 3855:0.02654 3856:0.01327 3858:0.01327 3860:0.01327 3864:0.02654 3866:0.01327 3869:0.03981 3871:0.01327 3872:0.01327 3873:0.01327 3876:0.03981 3884:0.02654 3885:0.03981 3886:0.01327 3888:0.03981 3889:0.05308 3890:0.01327 3891:0.03981 3892:0.10617 3894:0.01327 3896:0.01327 3897:0.01327 3898:0.01327 3901:0.07963 3902:0.01327 3903:0.01327 3904:0.03981 3905:0.01327 3907:0.02654 3909:0.01327 3912:0.02654 3915:0.01327 3916:0.01327 3917:0.01327 3920:0.01327 3921:0.01327 3924:0.01327 3925:0.01327 3931:0.02654 3932:0.02654 3934:0.02654 3938:0.02654 3940:0.01327 3941:0.01327 3942:0.02654 3943:0.02654 3944:0.06635 3948:0.01327 3952:0.01327 3953:0.01327 3955:0.01327 3956:0.01327 3957:0.01327 3959:0.02654 3960:0.01327 3962:0.01327 3964:0.01327 3967:0.01327 3968:0.01327 3969:0.01327 3970:0.01327 3972:0.01327 3973:0.01327 3975:0.01327 3976:0.01327 3977:0.01327 3978:0.01327 3981:0.01327 3984:0.01327 3987:0.01327 3988:0.01327 3990:0.01327 3993:0.01327 3994:0.01327 3998:0.03981 3999:0.01327 4001:0.01327 4002:0.01327 4004:0.02654 4012:0.01327 4015:0.01327 4018:0.02654 4021:0.01327 4024:0.02654 4028:0.01327 4029:0.01327 4032:0.01327 4033:0.07963 4035:0.01327 4036:0.06635 4037:0.01327 4038:0.01327 4040:0.02654 4041:0.03981 4043:0.01327 4044:0.01327 4045:0.13271 4046:0.01327 4048:0.05308 4049:0.01327 4050:0.01327 4051:0.01327 4052:0.01327 4053:0.01327 4054:0.01327 4055:0.01327 4056:0.01327 4057:0.01327 4058:0.02654 4059:0.01327 4061:0.03981 4062:0.02654 4063:0.02654 4064:0.01327 4065:0.01327 4066:0.01327 4067:0.01327 4069:0.01327 4071:0.02654 4072:0.01327 4073:0.01327 4077:0.01327 4078:0.02654 4080:0.02654 4081:0.06635 4083:0.03981 4084:0.03981 4085:0.02654 4086:0.02654 4087:0.01327 4088:0.06635 4089:0.02654 4090:0.02654 4091:0.01327 4092:0.05308 4093:0.03981 4094:0.05308 4095:0.05308 4096:0.0929 
0.02095196380577114 1:0.06438 2:0.0161 4:0.04829 5:0.0161 6:0.0161 10:0.0161 11:0.03219 13:0.03219 15:0.0161 16:0.03219 17:0.03219 19:0.0161 20:0.03219 24:0.06438 25:0.03219 28:0.0161 34:0.03219 37:0.0161 38:0.0161 41:0.03219 42:0.0161 44:0.0161 46:0.0161 49:0.03219 50:0.0161 51:0.0161 52:0.03219 54:0.0161 56:0.0161 59:0.0161 60:0.0161 61:0.0161 62:0.03219 64:0.03219 66:0.0161 68:0.04829 69:0.0161 73:0.11267 74:0.0161 75:0.0161 77:0.0161 78:0.04829 84:0.0161 85:0.03219 95:0.06438 96:0.03219 97:0.0161 99:0.0161 102:0.0161 105:0.0161 107:0.0161 111:0.0161 116:0.0161 117:0.0161 118:0.0161 120:0.03219 123:0.0161 126:0.0161 127:0.0161 129:0.03219 131:0.0161 134:0.0161 135:0.0161 147:0.0161 148:0.0161 150:0.0161 151:0.0161 153:0.0161 163:0.0161 164:0.03219 165:0.0161 166:0.0161 168:0.0161 175:0.0161 176:0.03219 182:0.0161 183:0.0161 189:0.0161 190:0.0161 194:0.0161 195:0.0161 196:0.0161 198:0.0161 200:0.0161 203:0.04829 204:0.0161 207:0.0161 208:0.03219 209:0.0161 212:0.0161 213:0.0161 216:0.03219 223:0.03219 226:0.0161 229:0.0161 230:0.0161 236:0.0161 237:0.0161 241:0.0161 244:0.06438 245:0.03219 246:0.0161 248:0.0161 254:0.0161 255:0.03219 256:0.03219 257:0.0161 260:0.0161 261:0.03219 269:0.04829 270:0.0161 273:0.03219 274:0.04829 277:0.0161 280:0.03219 282:0.0161 286:0.0161 289:0.11267 290:0.0161 291:0.09657 293:0.03219 298:0.0161 300:0.0161 306:0.0161 307:0.0161 308:0.03219 309:0.03219 311:0.0161 316:0.03219 320:0.0161 321:0.04829 323:0.0161 325:0.0161 329:0.0161 330:0.0161 335:0.0161 336:0.0161 338:0.0161 340:0.03219 341:0.0161 343:0.0161 361:0.0161 372:0.03219 377:0.03219 378:0.0161 380:0.0161 381:0.03219 384:0.0161 387:0.0161 393:0.0161 398:0.0161 402:0.0161 406:0.0161 415:0.03219 418:0.0161 427:0.03219 434:0.0161 441:0.03219 448:0.0161 459:0.0161 461:0.0161 464:0.0161 466:0.03219 467:0.0161 468:0.0161 469:0.0161 472:0.0161 473:0.0161 475:0.0161 477:0.0161 478:0.03219 483:0.03219 484:0.0161 485:0.0161 491:0.0161 503:0.0161 507:0.03219 511:0.0161 514:0.06438 516:0.06438 517:0.06438 518:0.0161 519:0.0161 520:0.03219 521:0.0161 523:0.0161 528:0.0161 531:0.06438 532:0.0161 533:0.03219 537:0.0161 545:0.04829 546:0.03219 547:0.12876 548:0.0161 550:0.03219 554:0.0161 555:0.0161 559:0.0161 560:0.03219 566:0.03219 569:0.0161 571:0.0161 575:0.0161 576:0.0161 577:0.0161 578:0.06438 585:0.0161 590:0.0161 595:0.0161 598:0.0161 601:0.0161 607:0.0161 608:0.0161 610:0.0161 617:0.0161 621:0.0161 623:0.0161 626:0.0161 631:0.0161 633:0.0161 634:0.0161 641:0.03219 652:0.0161 654:0.0161 656:0.03219 657:0.0161 658:0.0161 659:0.0161 660:0.03219 662:0.03219 669:0.0161 670:0.0161 675:0.0161 679:0.0161 681:0.0161 691:0.0161 700:0.03219 702:0.0161 703:0.0161 704:0.06438 711:0.0161 720:0.0161 722:0.0161 724:0.0161 725:0.0161 726:0.0161 730:0.0161 737:0.03219 739:0.0161 745:0.0161 746:0.03219 747:0.0161 750:0.0161 753:0.0161 756:0.0161 758:0.0161 759:0.0161 760:0.03219 762:0.0161 763:0.0161 776:0.0161 779:0.0161 782:0.0161 784:0.06438 785:0.03219 789:0.03219 797:0.0161 803:0.0161 806:0.0161 810:0.0161 812:0.03219 813:0.0161 816:0.0161 818:0.0161 819:0.0161 826:0.0161 828:0.03219 831:0.0161 832:0.03219 833:0.03219 834:0.0161 837:0.0161 842:0.03219 844:0.0161 846:0.06438 847:0.0161 849:0.03219 851:0.0161 854:0.0161 857:0.04829 859:0.0161 862:0.0161 864:0.03219 868:0.03219 869:0.0161 873:0.04829 878:0.0161 882:0.0161 888:0.0161 889:0.0161 890:0.04829 897:0.0161 901:0.0161 904:0.0161 907:0.0161 908:0.0161 910:0.0161 911:0.04829 912:0.0161 913:0.0161 914:0.04829 918:0.0161 920:0.03219 921:0.0161 928:0.0161 930:0.0161 933:0.0161 937:0.0161 938:0.0161 940:0.03219 943:0.0161 944:0.0161 947:0.04829 949:0.0161 952:0.0161 955:0.0161 957:0.0161 959:0.0161 960:0.03219 962:0.0161 975:0.06438 976:0.0161 977:0.03219 978:0.0161 982:0.0161 987:0.0161 989:0.0161 994:0.0161 997:0.0161 998:0.04829 999:0.0161 1003:0.0161 1005:0.0161 1008:0.04829 1013:0.0161 1014:0.0161 1016:0.06438 1017:0.04829 1019:0.0161 1020:0.0161 1022:0.03219 1024:0.04829 1027:0.03219 1029:0.03219 1030:0.0161 1031:0.03219 1033:0.0161 1034:0.0161 1036:0.0161 1037:0.0161 1038:0.0161 1040:0.03219 1041:0.0161 1043:0.06438 1044:0.0161 1046:0.0161 1048:0.0161 1054:0.0161 1055:0.0161 1061:0.0161 1062:0.0161 1063:0.0161 1066:0.03219 1070:0.0161 1072:0.0161 1073:0.0161 1074:0.0161 1075:0.03219 1076:0.0161 1077:0.0161 1078:0.03219 1080:0.0161 1081:0.0161 1082:0.0161 1089:0.0161 1090:0.0161 1093:0.03219 1094:0.03219 1095:0.0161 1097:0.03219 1101:0.0161 1107:0.03219 1108:0.0161 1117:0.0161 1120:0.0161 1125:0.0161 1128:0.0161 1131:0.0161 1133:0.0161 1136:0.0161 1141:0.03219 1142:0.0161 1143:0.0161 1144:0.0161 1145:0.03219 1146:0.0161 1153:0.03219 1154:0.06438 1155:0.0161 1157:0.03219 1158:0.0161 1161:0.09657 1162:0.03219 1166:0.03219 1168:0.03219 1169:0.08048 1179:0.0161 1180:0.03219 1181:0.0161 1182:0.0161 1190:0.0161 1192:0.0161 1195:0.0161 1200:0.06438 1206:0.0161 1209:0.0161 1211:0.03219 1215:0.0161 1220:0.06438 1221:0.0161 1222:0.0161 1225:0.0161 1226:0.0161 1229:0.03219 1232:0.0161 1233:0.0161 1235:0.03219 1236:0.04829 1241:0.03219 1243:0.0161 1245:0.0161 1246:0.0161 1250:0.0161 1252:0.0161 1253:0.03219 1254:0.0161 1258:0.0161 1259:0.0161 1260:0.0161 1262:0.03219 1271:0.0161 1274:0.0161 1275:0.0161 1278:0.0161 1280:0.0161 1281:0.0161 1283:0.04829 1284:0.0161 1286:0.0161 1288:0.0161 1290:0.03219 1291:0.0161 1292:0.03219 1295:0.0161 1300:0.0161 1306:0.0161 1310:0.03219 1311:0.03219 1315:0.03219 1317:0.0161 1319:0.0161 1323:0.0161 1328:0.0161 1329:0.03219 1331:0.0161 1336:0.0161 1337:0.0161 1338:0.03219 1344:0.0161 1345:0.0161 1347:0.04829 1348:0.0161 1351:0.0161 1352:0.0161 1354:0.0161 1356:0.0161 1357:0.03219 1358:0.0161 1359:0.0161 1362:0.0161 1363:0.0161 1369:0.0161 1372:0.03219 1375:0.0161 1377:0.0161 1391:0.0161 1392:0.0161 1398:0.0161 1400:0.0161 1403:0.0161 1409:0.0161 1410:0.0161 1412:0.0161 1420:0.0161 1422:0.03219 1423:0.0161 1439:0.0161 1442:0.03219 1444:0.0161 1454:0.0161 1466:0.0161 1470:0.03219 1475:0.0161 1484:0.0161 1488:0.04829 1492:0.0161 1494:0.0161 1497:0.0161 1498:0.0161 1502:0.03219 1507:0.03219 1509:0.0161 1510:0.0161 1513:0.0161 1518:0.0161 1520:0.0161 1522:0.0161 1524:0.0161 1528:0.0161 1529:0.0161 1531:0.0161 1534:0.03219 1536:0.03219 1537:0.0161 1539:0.0161 1544:0.0161 1548:0.0161 1551:0.0161 1554:0.0161 1568:0.0161 1571:0.0161 1576:0.0161 1577:0.0161 1578:0.0161 1582:0.0161 1583:0.0161 1590:0.06438 1593:0.0161 1594:0.0161 1596:0.0161 1604:0.0161 1606:0.0161 1609:0.03219 1614:0.0161 1622:0.0161 1624:0.0161 1657:0.0161 1658:0.0161 1659:0.0161 1663:0.0161 1666:0.0161 1669:0.03219 1670:0.03219 1678:0.06438 1683:0.0161 1696:0.0161 1705:0.0161 1706:0.0161 1708:0.0161 1718:0.0161 1731:0.0161 1736:0.0161 1760:0.0161 1762:0.0161 1763:0.0161 1765:0.0161 1771:0.0161 1775:0.0161 1782:0.0161 1784:0.0161 1790:0.0161 1791:0.03219 1793:0.0161 1797:0.0161 1801:0.0161 1811:0.0161 1812:0.04829 1816:0.0161 1833:0.0161 1838:0.0161 1844:0.0161 1851:0.0161 1852:0.0161 1854:0.0161 1855:0.03219 1856:0.0161 1863:0.0161 1864:0.0161 1867:0.03219 1868:0.03219 1869:0.03219 1873:0.0161 1878:0.0161 1880:0.0161 1888:0.0161 1889:0.0161 1891:0.03219 1894:0.0161 1897:0.0161 1904:0.0161 1908:0.0161 1909:0.03219 1910:0.0161 1911:0.0161 1912:0.12876 1915:0.03219 1916:0.09657 1921:0.0161 1922:0.0161 1925:0.0161 1929:0.04829 1932:0.0161 1934:0.0161 1935:0.03219 1937:0.03219 1939:0.03219 1941:0.0161 1943:0.0161 1944:0.0161 1945:0.0161 1946:0.0161 1952:0.0161 1956:0.0161 1960:0.0161 1961:0.0161 1963:0.0161 1967:0.03219 1971:0.0161 1973:0.03219 1976:0.06438 1978:0.03219 1982:0.06438 1983:0.06438 1984:0.0161 1985:0.0161 1991:0.0161 1995:0.0161 2000:0.0161 2012:0.0161 2015:0.0161 2016:0.0161 2018:0.0161 2022:0.0161 2026:0.0161 2027:0.04829 2028:0.0161 2037:0.0161 2038:0.0161 2039:0.0161 2043:0.04829 2046:0.0161 2047:0.03219 2050:0.0161 2051:0.0161 2052:0.03219 2053:0.03219 2054:0.03219 2055:0.0161 2057:0.0161 2059:0.03219 2061:0.04829 2062:0.0161 2063:0.0161 2064:0.0161 2065:0.0161 2066:0.0161 2067:0.06438 2070:0.0161 2072:0.0161 2075:0.03219 2078:0.04829 2080:0.0161 2081:0.0161 2089:0.0161 2096:0.0161 2099:0.0161 2106:0.0161 2109:0.03219 2112:0.03219 2117:0.03219 2118:0.0161 2120:0.0161 2121:0.08048 2123:0.0161 2127:0.03219 2129:0.03219 2134:0.0161 2139:0.0161 2148:0.0161 2163:0.0161 2167:0.0161 2169:0.0161 2175:0.0161 2176:0.0161 2178:0.06438 2181:0.03219 2185:0.12876 2187:0.03219 2188:0.03219 2191:0.0161 2197:0.0161 2200:0.0161 2207:0.0161 2212:0.0161 2213:0.04829 2217:0.0161 2218:0.0161 2226:0.0161 2229:0.0161 2233:0.03219 2235:0.03219 2236:0.0161 2238:0.04829 2239:0.0161 2257:0.0161 2258:0.0161 2259:0.0161 2260:0.0161 2261:0.03219 2262:0.0161 2263:0.06438 2264:0.0161 2266:0.0161 2267:0.03219 2268:0.0161 2271:0.03219 2273:0.0161 2276:0.06438 2279:0.0161 2280:0.0161 2283:0.0161 2288:0.04829 2292:0.0161 2298:0.04829 2300:0.0161 2302:0.0161 2303:0.0161 2306:0.03219 2309:0.04829 2310:0.0161 2312:0.0161 2314:0.0161 2317:0.0161 2318:0.04829 2319:0.0161 2322:0.0161 2323:0.03219 2325:0.03219 2331:0.0161 2338:0.0161 2340:0.04829 2341:0.0161 2343:0.0161 2344:0.0161 2346:0.0161 2348:0.0161 2351:0.0161 2354:0.0161 2356:0.0161 2357:0.0161 2359:0.0161 2361:0.0161 2363:0.03219 2366:0.0161 2367:0.0161 2371:0.0161 2376:0.03219 2377:0.0161 2383:0.0161 2385:0.04829 2388:0.0161 2389:0.0161 2391:0.0161 2398:0.0161 2401:0.03219 2420:0.0161 2421:0.0161 2423:0.0161 2424:0.0161 2426:0.0161 2428:0.0161 2431:0.03219 2432:0.0161 2437:0.0161 2440:0.0161 2443:0.0161 2446:0.0161 2449:0.0161 2451:0.0161 2466:0.0161 2481:0.0161 2491:0.0161 2492:0.0161 2501:0.0161 2511:0.0161 2521:0.0161 2527:0.03219 2530:0.0161 2532:0.03219 2533:0.0161 2534:0.03219 2539:0.0161 2540:0.0161 2541:0.0161 2544:0.0161 2554:0.0161 2555:0.03219 2559:0.0161 2560:0.0161 2561:0.0161 2562:0.0161 2563:0.0161 2564:0.0161 2565:0.0161 2567:0.0161 2568:0.0161 2576:0.0161 2578:0.03219 2582:0.0161 2583:0.0161 2591:0.0161 2592:0.0161 2595:0.0161 2603:0.0161 2607:0.0161 2608:0.0161 2613:0.03219 2615:0.06438 2616:0.03219 2623:0.03219 2624:0.0161 2627:0.0161 2628:0.04829 2629:0.03219 2634:0.03219 2635:0.0161 2637:0.0161 2639:0.0161 2640:0.0161 2645:0.03219 2655:0.0161 2656:0.0161 2659:0.0161 2672:0.0161 2676:0.0161 2680:0.03219 2687:0.0161 2688:0.0161 2689:0.0161 2690:0.0161 2692:0.0161 2696:0.0161 2697:0.0161 2699:0.0161 2702:0.0161 2705:0.0161 2708:0.0161 2712:0.03219 2713:0.0161 2716:0.0161 2720:0.0161 2723:0.0161 2724:0.0161 2727:0.0161 2728:0.0161 2733:0.0161 2734:0.0161 2737:0.0161 2738:0.0161 2742:0.0161 2750:0.0161 2751:0.0161 2753:0.0161 2758:0.03219 2761:0.0161 2767:0.0161 2768:0.0161 2775:0.03219 2783:0.0161 2784:0.0161 2789:0.0161 2791:0.0161 2798:0.0161 2799:0.03219 2801:0.0161 2805:0.0161 2808:0.0161 2810:0.0161 2811:0.0161 2814:0.03219 2815:0.0161 2816:0.0161 2817:0.0161 2827:0.0161 2837:0.0161 2838:0.0161 2844:0.0161 2846:0.0161 2849:0.03219 2850:0.0161 2852:0.0161 2856:0.0161 2868:0.0161 2874:0.0161 2876:0.0161 2879:0.0161 2880:0.0161 2883:0.0161 2884:0.0161 2887:0.0161 2890:0.0161 2895:0.0161 2896:0.0161 2900:0.0161 2901:0.0161 2906:0.0161 2907:0.03219 2908:0.0161 2917:0.0161 2920:0.0161 2930:0.0161 2936:0.03219 2937:0.0161 2938:0.0161 2940:0.0161 2944:0.03219 2946:0.0161 2948:0.0161 2952:0.0161 2956:0.03219 2958:0.0161 2964:0.04829 2965:0.0161 2968:0.0161 2972:0.0161 2977:0.0161 2981:0.03219 2987:0.0161 2988:0.0161 2989:0.0161 2997:0.0161 2998:0.03219 2999:0.0161 3001:0.0161 3002:0.0161 3004:0.04829 3006:0.0161 3009:0.0161 3012:0.0161 3017:0.0161 3024:0.0161 3026:0.0161 3027:0.0161 3030:0.0161 3031:0.0161 3035:0.0161 3038:0.06438 3039:0.06438 3044:0.0161 3045:0.0161 3048:0.06438 3049:0.03219 3055:0.0161 3056:0.0161 3062:0.0161 3064:0.06438 3065:0.04829 3066:0.03219 3070:0.0161 3072:0.0161 3073:0.06438 3092:0.0161 3093:0.0161 3101:0.0161 3104:0.0161 3105:0.03219 3116:0.03219 3125:0.0161 3133:0.03219 3134:0.03219 3136:0.0161 3137:0.0161 3140:0.0161 3146:0.0161 3149:0.03219 3152:0.0161 3153:0.03219 3154:0.0161 3157:0.0161 3158:0.0161 3165:0.0161 3176:0.0161 3183:0.0161 3188:0.0161 3189:0.0161 3201:0.04829 3204:0.0161 3205:0.0161 3212:0.0161 3215:0.0161 3224:0.0161 3231:0.0161 3233:0.03219 3237:0.0161 3245:0.0161 3247:0.0161 3252:0.0161 3253:0.0161 3261:0.0161 3269:0.0161 3276:0.0161 3279:0.03219 3299:0.03219 3301:0.0161 3302:0.0161 3305:0.0161 3307:0.03219 3309:0.03219 3311:0.0161 3312:0.0161 3317:0.0161 3321:0.0161 3322:0.0161 3324:0.04829 3326:0.04829 3327:0.0161 3328:0.03219 3330:0.04829 3332:0.04829 3333:0.0161 3339:0.0161 3341:0.0161 3346:0.0161 3356:0.03219 3358:0.03219 3359:0.0161 3362:0.0161 3364:0.0161 3365:0.0161 3367:0.0161 3368:0.0161 3372:0.03219 3374:0.0161 3375:0.03219 3377:0.03219 3381:0.04829 3383:0.0161 3384:0.0161 3386:0.0161 3387:0.0161 3391:0.0161 3393:0.0161 3394:0.03219 3400:0.0161 3403:0.0161 3405:0.0161 3409:0.03219 3411:0.0161 3412:0.0161 3415:0.0161 3416:0.0161 3422:0.0161 3427:0.0161 3428:0.04829 3432:0.0161 3433:0.03219 3436:0.0161 3440:0.0161 3441:0.0161 3443:0.0161 3447:0.0161 3454:0.0161 3456:0.03219 3457:0.0161 3466:0.0161 3467:0.0161 3468:0.0161 3471:0.03219 3475:0.0161 3476:0.0161 3478:0.0161 3488:0.0161 3489:0.0161 3492:0.04829 3493:0.0161 3496:0.0161 3499:0.0161 3512:0.0161 3520:0.03219 3521:0.0161 3522:0.0161 3525:0.04829 3526:0.0161 3535:0.0161 3539:0.04829 3542:0.0161 3548:0.0161 3550:0.12876 3551:0.09657 3553:0.03219 3557:0.0161 3559:0.03219 3560:0.0161 3562:0.0161 3564:0.0161 3566:0.08048 3567:0.03219 3568:0.11267 3569:0.0161 3571:0.0161 3576:0.0161 3582:0.0161 3583:0.0161 3585:0.03219 3587:0.0161 3588:0.0161 3589:0.0161 3590:0.0161 3597:0.0161 3600:0.03219 3602:0.0161 3603:0.03219 3604:0.0161 3613:0.0161 3614:0.0161 3617:0.0161 3619:0.03219 3626:0.0161 3629:0.0161 3631:0.03219 3632:0.0161 3637:0.03219 3638:0.03219 3641:0.04829 3642:0.0161 3644:0.03219 3645:0.0161 3647:0.0161 3649:0.0161 3650:0.0161 3652:0.0161 3653:0.0161 3654:0.0161 3655:0.0161 3657:0.0161 3658:0.0161 3659:0.0161 3660:0.0161 3661:0.0161 3663:0.03219 3664:0.0161 3665:0.0161 3666:0.03219 3668:0.0161 3669:0.03219 3673:0.0161 3677:0.0161 3678:0.04829 3680:0.0161 3682:0.0161 3684:0.0161 3685:0.03219 3695:0.0161 3705:0.0161 3706:0.0161 3707:0.0161 3708:0.03219 3711:0.0161 3712:0.0161 3713:0.0161 3720:0.0161 3724:0.0161 3726:0.03219 3728:0.0161 3729:0.03219 3730:0.0161 3731:0.0161 3742:0.0161 3745:0.04829 3746:0.0161 3749:0.03219 3750:0.03219 3754:0.0161 3756:0.0161 3757:0.0161 3760:0.03219 3762:0.0161 3764:0.03219 3768:0.03219 3770:0.03219 3772:0.0161 3773:0.0161 3785:0.04829 3786:0.0161 3789:0.0161 3791:0.0161 3793:0.03219 3795:0.0161 3796:0.0161 3799:0.03219 3802:0.0161 3805:0.0161 3806:0.03219 3807:0.03219 3812:0.0161 3813:0.0161 3814:0.03219 3820:0.0161 3822:0.03219 3823:0.03219 3824:0.0161 3827:0.0161 3829:0.0161 3830:0.0161 3832:0.06438 3833:0.0161 3834:0.04829 3836:0.03219 3838:0.03219 3839:0.03219 3840:0.0161 3841:0.03219 3846:0.0161 3848:0.0161 3849:0.0161 3856:0.0161 3862:0.0161 3866:0.0161 3873:0.03219 3881:0.0161 3897:0.03219 3899:0.03219 3903:0.0161 3904:0.03219 3905:0.06438 3912:0.03219 3913:0.03219 3918:0.0161 3922:0.0161 3925:0.04829 3929:0.0161 3933:0.03219 3939:0.0161 3946:0.03219 3947:0.0161 3952:0.0161 3953:0.03219 3954:0.03219 3957:0.0161 3960:0.04829 3964:0.11267 3965:0.03219 3966:0.0161 3969:0.03219 3972:0.03219 3973:0.03219 3982:0.0161 3983:0.0161 3984:0.0161 3987:0.03219 3988:0.0161 3989:0.03219 3990:0.0161 3992:0.0161 3994:0.0161 3999:0.08048 4003:0.0161 4004:0.03219 4005:0.0161 4009:0.03219 4010:0.04829 4013:0.03219 4014:0.03219 4020:0.03219 4028:0.03219 4030:0.0161 4031:0.0161 4032:0.03219 4034:0.0161 4035:0.0161 4038:0.0161 4041:0.0161 4049:0.03219 4051:0.0161 4052:0.0161 4053:0.0161 4054:0.0161 4056:0.03219 4057:0.0161 4059:0.0161 4061:0.04829 4063:0.03219 4064:0.03219 4065:0.06438 4068:0.03219 4069:0.0161 4072:0.0161 4073:0.0161 4075:0.0161 4076:0.04829 4077:0.0161 4079:0.0161 4081:0.03219 4082:0.0161 4083:0.0161 4085:0.03219 4086:0.0161 4087:0.0161 4091:0.0161 4092:0.0161 4093:0.06438 4096:0.06438 
