svm_type c_svc
kernel_type rbf
gamma 0.0078125
nr_class 2
total_sv 127
rho 0.479693
label 1 -1
nr_sv 57 70
SV
109.943882443181 1:0.10743 3:0.04883 4:0.0293 5:0.00977 7:0.00977 8:0.00977 9:0.01953 10:0.01953 11:0.00977 12:0.03907 13:0.0293 14:0.00977 15:0.00977 16:0.01953 17:0.00977 18:0.01953 19:0.01953 20:0.01953 23:0.00977 25:0.03907 26:0.00977 27:0.00977 29:0.00977 31:0.00977 33:0.03907 35:0.04883 36:0.0293 37:0.01953 40:0.00977 41:0.0293 42:0.00977 43:0.01953 47:0.00977 48:0.0293 49:0.07813 51:0.03907 52:0.04883 56:0.00977 57:0.03907 58:0.01953 59:0.00977 60:0.00977 61:0.0293 64:0.01953 65:0.04883 66:0.06837 67:0.01953 69:0.01953 70:0.00977 71:0.01953 72:0.00977 73:0.01953 74:0.00977 75:0.01953 77:0.01953 78:0.01953 80:0.00977 83:0.00977 88:0.01953 89:0.00977 97:0.0586 98:0.00977 99:0.00977 101:0.00977 106:0.00977 111:0.00977 113:0.00977 114:0.01953 115:0.01953 121:0.01953 122:0.00977 125:0.00977 126:0.00977 127:0.00977 128:0.0293 129:0.0586 130:0.00977 131:0.03907 132:0.00977 136:0.00977 137:0.04883 139:0.00977 141:0.01953 143:0.01953 145:0.00977 148:0.00977 153:0.01953 159:0.00977 161:0.00977 162:0.00977 164:0.03907 165:0.00977 169:0.00977 171:0.01953 174:0.00977 175:0.00977 181:0.00977 183:0.00977 184:0.00977 186:0.00977 188:0.00977 189:0.0586 193:0.0586 194:0.03907 195:0.00977 197:0.00977 198:0.01953 201:0.0293 202:0.00977 203:0.00977 205:0.0293 206:0.0293 208:0.03907 212:0.00977 216:0.01953 218:0.00977 223:0.00977 225:0.0586 226:0.00977 227:0.0293 228:0.00977 229:0.00977 230:0.01953 231:0.00977 233:0.00977 238:0.00977 240:0.00977 241:0.03907 244:0.01953 247:0.01953 251:0.00977 253:0.01953 255:0.00977 256:0.01953 257:0.04883 258:0.01953 259:0.00977 260:0.00977 261:0.09766 265:0.0293 267:0.00977 268:0.00977 274:0.01953 275:0.0293 280:0.00977 282:0.01953 283:0.00977 284:0.01953 286:0.00977 288:0.00977 289:0.00977 290:0.0293 291:0.06837 292:0.01953 294:0.01953 296:0.01953 297:0.0293 299:0.03907 300:0.00977 301:0.00977 305:0.00977 306:0.0293 308:0.00977 311:0.00977 312:0.00977 318:0.00977 320:0.00977 321:0.00977 329:0.00977 332:0.01953 334:0.00977 342:0.00977 349:0.00977 351:0.03907 353:0.00977 373:0.00977 376:0.00977 377:0.00977 378:0.00977 380:0.00977 381:0.01953 385:0.0293 387:0.01953 388:0.00977 391:0.00977 394:0.00977 397:0.00977 402:0.00977 404:0.00977 410:0.00977 414:0.00977 418:0.00977 419:0.00977 423:0.01953 433:0.00977 434:0.00977 439:0.00977 440:0.00977 441:0.00977 444:0.01953 446:0.00977 452:0.00977 454:0.00977 455:0.00977 458:0.01953 467:0.00977 468:0.00977 474:0.00977 478:0.00977 479:0.00977 481:0.00977 483:0.00977 484:0.00977 485:0.00977 488:0.00977 492:0.01953 494:0.00977 500:0.01953 501:0.00977 504:0.00977 505:0.01953 508:0.00977 512:0.03907 513:0.0293 514:0.01953 515:0.0586 516:0.0293 517:0.00977 518:0.01953 521:0.0293 523:0.01953 524:0.00977 527:0.0293 529:0.00977 531:0.07813 536:0.00977 539:0.00977 540:0.00977 543:0.00977 544:0.00977 545:0.06837 546:0.03907 547:0.2051 548:0.04883 551:0.01953 552:0.01953 555:0.00977 556:0.00977 559:0.01953 561:0.0293 563:0.09766 564:0.04883 568:0.01953 570:0.01953 571:0.0293 572:0.00977 576:0.00977 577:0.00977 585:0.01953 586:0.00977 587:0.00977 588:0.00977 589:0.00977 593:0.01953 595:0.0293 596:0.01953 606:0.00977 609:0.01953 610:0.01953 611:0.01953 612:0.00977 618:0.00977 621:0.00977 625:0.00977 626:0.0293 627:0.01953 628:0.00977 629:0.00977 630:0.01953 632:0.01953 633:0.00977 634:0.00977 635:0.00977 636:0.01953 640:0.00977 641:0.00977 642:0.00977 643:0.01953 645:0.00977 651:0.00977 653:0.0293 656:0.01953 657:0.00977 659:0.01953 670:0.00977 676:0.00977 681:0.0293 682:0.00977 683:0.00977 685:0.0293 688:0.01953 691:0.0293 696:0.00977 697:0.01953 700:0.00977 711:0.00977 719:0.00977 721:0.00977 729:0.01953 730:0.00977 731:0.00977 734:0.00977 736:0.00977 737:0.00977 738:0.00977 743:0.00977 745:0.00977 750:0.00977 752:0.00977 753:0.03907 755:0.00977 756:0.0293 761:0.01953 762:0.00977 763:0.00977 766:0.00977 768:0.00977 769:0.03907 770:0.00977 771:0.01953 772:0.09766 773:0.00977 774:0.00977 775:0.00977 776:0.0293 779:0.00977 780:0.01953 783:0.00977 784:0.01953 785:0.01953 786:0.00977 787:0.03907 788:0.00977 790:0.0293 794:0.00977 799:0.00977 801:0.01953 802:0.01953 803:0.03907 804:0.0879 807:0.00977 808:0.00977 809:0.00977 817:0.07813 818:0.00977 819:0.00977 820:0.1172 821:0.00977 824:0.04883 826:0.00977 827:0.01953 828:0.00977 829:0.00977 830:0.03907 832:0.04883 833:0.00977 835:0.00977 837:0.00977 842:0.00977 844:0.00977 847:0.00977 848:0.00977 856:0.00977 861:0.00977 864:0.03907 867:0.00977 872:0.00977 878:0.00977 881:0.00977 882:0.0293 884:0.0879 885:0.00977 887:0.00977 888:0.04883 892:0.01953 894:0.00977 896:0.0293 897:0.01953 898:0.00977 899:0.01953 900:0.01953 901:0.01953 905:0.00977 906:0.01953 908:0.00977 909:0.00977 912:0.00977 913:0.03907 915:0.00977 917:0.01953 918:0.00977 919:0.00977 922:0.01953 924:0.00977 928:0.00977 929:0.00977 930:0.00977 936:0.01953 939:0.00977 941:0.00977 947:0.00977 948:0.00977 950:0.00977 955:0.00977 957:0.00977 958:0.00977 959:0.00977 960:0.01953 961:0.0293 962:0.0293 963:0.00977 966:0.00977 969:0.00977 971:0.00977 972:0.00977 973:0.01953 974:0.00977 977:0.00977 978:0.0293 979:0.00977 980:0.01953 981:0.00977 982:0.01953 985:0.01953 986:0.00977 988:0.00977 990:0.01953 992:0.00977 993:0.01953 999:0.00977 1001:0.00977 1003:0.00977 1009:0.03907 1010:0.00977 1011:0.00977 1012:0.09766 1013:0.00977 1015:0.00977 1016:0.0293 1017:0.00977 1019:0.00977 1020:0.00977 1021:0.00977 1022:0.00977 1023:0.01953 1024:0.0293 1025:0.03907 1027:0.00977 1028:0.01953 1029:0.04883 1031:0.00977 1035:0.0293 1037:0.01953 1040:0.00977 1041:0.09766 1043:0.00977 1044:0.00977 1049:0.01953 1053:0.0293 1055:0.00977 1057:0.0293 1058:0.00977 1065:0.00977 1070:0.00977 1071:0.00977 1072:0.00977 1078:0.00977 1081:0.01953 1082:0.00977 1086:0.00977 1090:0.01953 1091:0.00977 1093:0.01953 1095:0.00977 1097:0.00977 1099:0.0293 1101:0.00977 1105:0.00977 1107:0.00977 1119:0.01953 1120:0.00977 1125:0.00977 1127:0.00977 1130:0.00977 1133:0.01953 1136:0.00977 1143:0.00977 1144:0.01953 1147:0.00977 1151:0.00977 1152:0.00977 1153:0.00977 1154:0.01953 1155:0.00977 1157:0.01953 1158:0.00977 1159:0.01953 1161:0.06837 1164:0.00977 1165:0.00977 1168:0.00977 1171:0.01953 1173:0.0293 1177:0.00977 1181:0.01953 1182:0.01953 1184:0.00977 1185:0.0293 1189:0.00977 1196:0.03907 1197:0.00977 1199:0.01953 1204:0.00977 1207:0.01953 1208:0.00977 1211:0.00977 1213:0.00977 1215:0.00977 1216:0.00977 1217:0.00977 1218:0.00977 1221:0.0293 1223:0.00977 1224:0.00977 1225:0.00977 1229:0.0293 1230:0.00977 1233:0.01953 1241:0.00977 1245:0.0293 1246:0.00977 1248:0.01953 1249:0.00977 1252:0.00977 1253:0.00977 1254:0.00977 1267:0.00977 1268:0.00977 1269:0.00977 1270:0.00977 1271:0.00977 1272:0.0293 1273:0.00977 1274:0.00977 1275:0.00977 1277:0.04883 1278:0.01953 1280:0.00977 1282:0.00977 1284:0.00977 1288:0.00977 1289:0.00977 1295:0.00977 1296:0.00977 1297:0.01953 1300:0.00977 1301:0.00977 1311:0.00977 1313:0.00977 1314:0.00977 1317:0.00977 1319:0.00977 1320:0.00977 1326:0.00977 1327:0.00977 1332:0.01953 1336:0.0293 1344:0.00977 1347:0.00977 1348:0.00977 1349:0.00977 1357:0.00977 1361:0.00977 1364:0.00977 1365:0.00977 1368:0.00977 1370:0.00977 1373:0.00977 1374:0.01953 1376:0.01953 1383:0.00977 1393:0.01953 1398:0.00977 1400:0.00977 1404:0.03907 1406:0.00977 1408:0.01953 1409:0.00977 1416:0.00977 1434:0.00977 1438:0.00977 1459:0.00977 1464:0.00977 1468:0.00977 1472:0.00977 1473:0.00977 1476:0.00977 1488:0.00977 1491:0.00977 1493:0.00977 1494:0.00977 1496:0.00977 1498:0.00977 1502:0.00977 1504:0.00977 1507:0.00977 1511:0.00977 1512:0.00977 1517:0.0293 1519:0.0293 1520:0.01953 1521:0.00977 1524:0.00977 1526:0.00977 1528:0.01953 1532:0.00977 1533:0.00977 1534:0.00977 1535:0.0293 1536:0.00977 1537:0.00977 1538:0.0293 1540:0.00977 1541:0.00977 1543:0.00977 1546:0.01953 1549:0.00977 1551:0.00977 1552:0.01953 1561:0.00977 1564:0.00977 1566:0.00977 1567:0.01953 1568:0.00977 1570:0.00977 1571:0.00977 1572:0.00977 1573:0.01953 1574:0.00977 1578:0.00977 1583:0.00977 1585:0.00977 1596:0.00977 1598:0.00977 1604:0.00977 1608:0.00977 1609:0.00977 1611:0.00977 1613:0.01953 1616:0.00977 1622:0.00977 1628:0.01953 1637:0.03907 1643:0.00977 1647:0.00977 1651:0.00977 1652:0.00977 1653:0.01953 1656:0.01953 1659:0.00977 1662:0.01953 1669:0.01953 1674:0.00977 1684:0.00977 1689:0.01953 1705:0.00977 1728:0.00977 1730:0.00977 1736:0.00977 1740:0.00977 1743:0.00977 1754:0.00977 1756:0.00977 1759:0.01953 1773:0.01953 1775:0.00977 1776:0.01953 1777:0.00977 1780:0.00977 1783:0.00977 1786:0.01953 1789:0.01953 1790:0.01953 1791:0.00977 1792:0.00977 1794:0.00977 1795:0.00977 1796:0.00977 1797:0.00977 1800:0.00977 1805:0.01953 1807:0.00977 1809:0.00977 1811:0.00977 1812:0.00977 1813:0.00977 1816:0.0293 1819:0.00977 1827:0.0293 1830:0.01953 1831:0.00977 1832:0.01953 1840:0.01953 1844:0.00977 1845:0.00977 1846:0.01953 1848:0.09766 1849:0.00977 1854:0.00977 1856:0.03907 1857:0.01953 1858:0.01953 1867:0.00977 1868:0.00977 1870:0.00977 1872:0.0293 1873:0.00977 1875:0.00977 1878:0.01953 1884:0.00977 1886:0.00977 1890:0.00977 1892:0.00977 1893:0.00977 1894:0.01953 1896:0.01953 1904:0.00977 1905:0.01953 1907:0.0293 1908:0.03907 1911:0.00977 1912:0.2051 1914:0.00977 1916:0.06837 1918:0.00977 1920:0.04883 1924:0.00977 1931:0.00977 1932:0.00977 1933:0.01953 1937:0.00977 1940:0.00977 1944:0.01953 1946:0.01953 1950:0.0293 1951:0.01953 1955:0.00977 1960:0.0293 1965:0.00977 1967:0.00977 1968:0.00977 1969:0.01953 1971:0.00977 1972:0.03907 1974:0.01953 1976:0.07813 1977:0.00977 1980:0.0293 1982:0.01953 1983:0.00977 1984:0.01953 1988:0.00977 1989:0.00977 1997:0.00977 1998:0.00977 2000:0.00977 2001:0.00977 2004:0.01953 2008:0.01953 2012:0.01953 2014:0.00977 2015:0.00977 2016:0.03907 2018:0.00977 2020:0.00977 2027:0.00977 2029:0.01953 2031:0.00977 2032:0.01953 2033:0.00977 2034:0.00977 2035:0.00977 2036:0.01953 2037:0.01953 2040:0.0586 2042:0.01953 2044:0.00977 2045:0.01953 2046:0.00977 2047:0.00977 2048:0.04883 2049:0.0293 2050:0.0293 2051:0.00977 2052:0.00977 2053:0.00977 2054:0.00977 2055:0.01953 2056:0.00977 2057:0.06837 2059:0.00977 2061:0.0293 2063:0.01953 2065:0.01953 2066:0.00977 2067:0.01953 2068:0.00977 2069:0.00977 2070:0.00977 2076:0.00977 2081:0.03907 2083:0.00977 2084:0.00977 2087:0.01953 2089:0.01953 2091:0.00977 2094:0.00977 2096:0.00977 2098:0.01953 2099:0.00977 2100:0.03907 2101:0.00977 2103:0.00977 2105:0.0293 2106:0.00977 2108:0.00977 2109:0.00977 2111:0.00977 2113:0.0293 2114:0.00977 2117:0.00977 2120:0.00977 2121:0.07813 2122:0.00977 2124:0.00977 2128:0.00977 2134:0.00977 2144:0.00977 2148:0.00977 2153:0.00977 2158:0.01953 2165:0.00977 2169:0.00977 2170:0.00977 2171:0.00977 2173:0.00977 2174:0.00977 2175:0.00977 2177:0.04883 2179:0.00977 2180:0.01953 2181:0.04883 2184:0.00977 2185:0.18556 2186:0.00977 2187:0.00977 2188:0.00977 2189:0.04883 2190:0.00977 2191:0.00977 2195:0.0293 2197:0.00977 2200:0.00977 2201:0.01953 2203:0.00977 2204:0.00977 2205:0.0293 2207:0.01953 2211:0.00977 2213:0.00977 2216:0.00977 2219:0.01953 2221:0.01953 2226:0.00977 2231:0.00977 2233:0.01953 2236:0.00977 2241:0.0293 2242:0.00977 2243:0.00977 2244:0.00977 2245:0.01953 2249:0.1172 2250:0.00977 2254:0.01953 2255:0.00977 2256:0.0293 2269:0.00977 2270:0.00977 2275:0.00977 2277:0.01953 2278:0.00977 2282:0.01953 2284:0.00977 2288:0.01953 2290:0.00977 2293:0.01953 2297:0.00977 2304:0.00977 2306:0.01953 2307:0.01953 2309:0.00977 2311:0.01953 2312:0.00977 2319:0.00977 2336:0.00977 2337:0.01953 2338:0.00977 2339:0.00977 2341:0.00977 2342:0.00977 2344:0.00977 2346:0.00977 2348:0.00977 2350:0.00977 2352:0.00977 2353:0.00977 2354:0.01953 2356:0.00977 2357:0.00977 2360:0.01953 2362:0.01953 2366:0.00977 2367:0.00977 2368:0.01953 2369:0.00977 2370:0.00977 2373:0.00977 2374:0.00977 2377:0.00977 2378:0.01953 2382:0.01953 2386:0.00977 2390:0.00977 2392:0.00977 2408:0.00977 2415:0.00977 2416:0.00977 2422:0.00977 2423:0.00977 2426:0.00977 2432:0.00977 2433:0.00977 2434:0.00977 2436:0.00977 2439:0.00977 2440:0.00977 2441:0.0293 2443:0.00977 2444:0.00977 2448:0.00977 2451:0.01953 2452:0.01953 2458:0.01953 2459:0.00977 2460:0.00977 2469:0.00977 2475:0.00977 2484:0.00977 2492:0.01953 2496:0.00977 2497:0.01953 2501:0.0293 2505:0.0293 2508:0.01953 2510:0.00977 2512:0.00977 2513:0.0293 2516:0.01953 2518:0.00977 2519:0.00977 2521:0.01953 2524:0.00977 2525:0.0293 2526:0.00977 2532:0.00977 2533:0.00977 2534:0.00977 2536:0.00977 2537:0.00977 2538:0.01953 2541:0.01953 2542:0.00977 2544:0.00977 2551:0.01953 2557:0.00977 2560:0.01953 2561:0.01953 2565:0.01953 2569:0.00977 2571:0.00977 2573:0.01953 2575:0.00977 2577:0.00977 2578:0.00977 2579:0.01953 2580:0.00977 2594:0.00977 2600:0.01953 2601:0.00977 2602:0.00977 2603:0.00977 2609:0.00977 2610:0.00977 2611:0.01953 2621:0.00977 2623:0.00977 2625:0.00977 2626:0.00977 2633:0.00977 2634:0.00977 2638:0.00977 2639:0.00977 2640:0.01953 2657:0.00977 2659:0.01953 2673:0.00977 2675:0.01953 2677:0.00977 2679:0.00977 2682:0.00977 2684:0.01953 2689:0.00977 2690:0.00977 2692:0.01953 2698:0.00977 2699:0.00977 2701:0.00977 2705:0.00977 2708:0.00977 2713:0.00977 2721:0.0293 2723:0.01953 2725:0.00977 2727:0.00977 2730:0.00977 2732:0.00977 2734:0.00977 2740:0.0293 2741:0.00977 2749:0.00977 2750:0.00977 2756:0.00977 2761:0.0293 2764:0.00977 2765:0.00977 2768:0.01953 2770:0.00977 2783:0.00977 2785:0.0293 2794:0.00977 2800:0.00977 2804:0.00977 2808:0.01953 2814:0.00977 2819:0.00977 2820:0.00977 2821:0.00977 2825:0.00977 2830:0.00977 2834:0.00977 2844:0.00977 2846:0.00977 2852:0.0293 2856:0.0293 2864:0.01953 2866:0.01953 2868:0.00977 2869:0.00977 2870:0.00977 2874:0.01953 2876:0.0293 2877:0.00977 2878:0.01953 2883:0.00977 2885:0.00977 2888:0.00977 2893:0.00977 2896:0.00977 2898:0.00977 2900:0.00977 2905:0.00977 2908:0.00977 2912:0.00977 2913:0.00977 2915:0.00977 2920:0.01953 2921:0.00977 2928:0.00977 2932:0.01953 2934:0.00977 2935:0.00977 2936:0.03907 2938:0.00977 2939:0.00977 2940:0.0293 2943:0.00977 2945:0.00977 2946:0.00977 2948:0.0293 2949:0.00977 2950:0.00977 2957:0.00977 2972:0.00977 2978:0.00977 2981:0.01953 2986:0.00977 2994:0.00977 2996:0.00977 2997:0.00977 2998:0.00977 3001:0.00977 3004:0.01953 3005:0.0293 3006:0.00977 3008:0.01953 3009:0.01953 3010:0.01953 3012:0.0293 3015:0.00977 3017:0.01953 3022:0.00977 3023:0.00977 3024:0.03907 3026:0.00977 3028:0.00977 3030:0.00977 3032:0.00977 3033:0.00977 3034:0.00977 3039:0.01953 3040:0.00977 3041:0.00977 3043:0.01953 3045:0.0293 3046:0.00977 3050:0.00977 3053:0.00977 3054:0.00977 3055:0.01953 3056:0.06837 3059:0.00977 3060:0.00977 3063:0.0293 3064:0.01953 3065:0.00977 3066:0.01953 3067:0.00977 3068:0.01953 3070:0.0293 3073:0.00977 3075:0.01953 3076:0.00977 3079:0.01953 3081:0.0293 3082:0.00977 3083:0.00977 3085:0.0879 3087:0.04883 3088:0.01953 3089:0.00977 3090:0.0293 3092:0.00977 3094:0.00977 3097:0.01953 3101:0.00977 3103:0.00977 3104:0.0586 3105:0.00977 3116:0.01953 3118:0.00977 3120:0.00977 3121:0.0293 3122:0.00977 3124:0.00977 3126:0.00977 3129:0.01953 3133:0.01953 3134:0.00977 3136:0.0293 3137:0.00977 3138:0.00977 3139:0.01953 3143:0.01953 3145:0.01953 3146:0.01953 3147:0.0293 3149:0.01953 3155:0.00977 3156:0.00977 3160:0.0293 3166:0.01953 3167:0.00977 3176:0.00977 3177:0.00977 3183:0.01953 3189:0.00977 3196:0.00977 3201:0.01953 3205:0.01953 3209:0.0586 3210:0.0293 3213:0.09766 3214:0.00977 3215:0.0293 3221:0.0293 3225:0.01953 3229:0.01953 3230:0.0293 3231:0.01953 3236:0.00977 3243:0.00977 3244:0.00977 3261:0.00977 3263:0.0293 3264:0.00977 3265:0.06837 3267:0.00977 3268:0.01953 3269:0.01953 3270:0.00977 3273:0.00977 3277:0.15626 3279:0.0293 3280:0.0293 3282:0.00977 3283:0.01953 3284:0.00977 3286:0.00977 3288:0.0293 3292:0.00977 3293:0.09766 3294:0.04883 3295:0.00977 3296:0.01953 3298:0.00977 3301:0.00977 3303:0.01953 3304:0.00977 3305:0.00977 3307:0.00977 3309:0.01953 3311:0.00977 3312:0.01953 3313:0.0293 3315:0.01953 3317:0.03907 3318:0.01953 3319:0.00977 3325:0.0879 3326:0.0293 3327:0.01953 3328:0.0293 3329:0.01953 3330:0.00977 3332:0.00977 3333:0.00977 3336:0.01953 3340:0.01953 3342:0.00977 3343:0.00977 3345:0.00977 3346:0.00977 3347:0.00977 3349:0.00977 3352:0.01953 3356:0.00977 3358:0.01953 3368:0.00977 3372:0.00977 3374:0.00977 3376:0.01953 3379:0.00977 3381:0.00977 3385:0.01953 3389:0.01953 3390:0.0293 3391:0.01953 3392:0.03907 3396:0.00977 3397:0.00977 3400:0.00977 3402:0.00977 3405:0.00977 3408:0.00977 3409:0.00977 3413:0.00977 3415:0.00977 3416:0.0293 3424:0.00977 3426:0.00977 3437:0.00977 3438:0.00977 3444:0.00977 3446:0.00977 3452:0.0293 3454:0.01953 3455:0.00977 3456:0.0293 3458:0.00977 3460:0.01953 3464:0.01953 3466:0.01953 3471:0.00977 3473:0.00977 3478:0.00977 3479:0.01953 3485:0.01953 3486:0.01953 3487:0.00977 3488:0.01953 3490:0.00977 3504:0.00977 3511:0.00977 3517:0.01953 3519:0.01953 3520:0.03907 3522:0.01953 3524:0.00977 3526:0.0293 3530:0.0293 3533:0.00977 3534:0.1172 3535:0.00977 3536:0.0293 3537:0.00977 3540:0.00977 3541:0.00977 3546:0.0293 3549:0.0586 3550:0.18556 3551:0.06837 3552:0.04883 3558:0.00977 3559:0.00977 3560:0.01953 3562:0.00977 3564:0.00977 3565:0.01953 3566:0.07813 3567:0.00977 3568:0.01953 3570:0.00977 3573:0.01953 3574:0.00977 3576:0.0293 3579:0.00977 3580:0.0293 3581:0.0293 3582:0.06837 3584:0.01953 3585:0.01953 3587:0.01953 3588:0.00977 3589:0.01953 3593:0.01953 3596:0.00977 3597:0.03907 3598:0.01953 3599:0.00977 3601:0.01953 3602:0.00977 3606:0.00977 3616:0.00977 3617:0.00977 3620:0.00977 3621:0.00977 3622:0.00977 3623:0.01953 3624:0.00977 3628:0.00977 3629:0.00977 3630:0.00977 3633:0.00977 3634:0.00977 3635:0.00977 3636:0.00977 3641:0.00977 3642:0.00977 3646:0.00977 3649:0.01953 3650:0.0293 3658:0.00977 3660:0.00977 3661:0.00977 3662:0.01953 3663:0.00977 3664:0.00977 3666:0.01953 3669:0.00977 3670:0.00977 3674:0.00977 3678:0.00977 3679:0.00977 3680:0.00977 3683:0.00977 3687:0.03907 3695:0.00977 3696:0.00977 3701:0.00977 3703:0.01953 3706:0.00977 3707:0.00977 3712:0.01953 3716:0.00977 3717:0.01953 3721:0.00977 3723:0.00977 3732:0.01953 3741:0.0293 3742:0.00977 3743:0.0293 3745:0.00977 3749:0.00977 3753:0.00977 3755:0.00977 3761:0.00977 3763:0.00977 3769:0.00977 3771:0.00977 3774:0.00977 3777:0.01953 3779:0.00977 3781:0.01953 3786:0.0293 3789:0.01953 3790:0.01953 3791:0.0293 3792:0.00977 3794:0.00977 3796:0.01953 3797:0.01953 3799:0.01953 3800:0.00977 3805:0.01953 3806:0.04883 3807:0.01953 3809:0.00977 3810:0.00977 3812:0.00977 3817:0.00977 3818:0.00977 3819:0.00977 3822:0.00977 3823:0.01953 3824:0.01953 3825:0.01953 3826:0.00977 3827:0.00977 3828:0.00977 3829:0.01953 3830:0.01953 3831:0.00977 3832:0.00977 3833:0.00977 3834:0.00977 3836:0.09766 3838:0.00977 3839:0.04883 3840:0.00977 3843:0.00977 3844:0.03907 3845:0.01953 3847:0.00977 3848:0.03907 3851:0.00977 3853:0.0293 3856:0.03907 3857:0.00977 3859:0.01953 3861:0.00977 3868:0.00977 3875:0.01953 3876:0.00977 3878:0.00977 3880:0.00977 3883:0.01953 3888:0.00977 3889:0.01953 3892:0.07813 3893:0.00977 3894:0.00977 3895:0.00977 3896:0.0293 3898:0.00977 3900:0.00977 3901:0.0293 3904:0.07813 3905:0.00977 3906:0.00977 3908:0.01953 3909:0.00977 3910:0.0293 3912:0.00977 3916:0.00977 3919:0.00977 3920:0.0586 3924:0.00977 3925:0.00977 3926:0.0293 3935:0.0293 3936:0.00977 3937:0.01953 3938:0.00977 3942:0.00977 3944:0.01953 3948:0.00977 3952:0.0586 3956:0.01953 3957:0.00977 3960:0.06837 3962:0.01953 3963:0.00977 3964:0.00977 3965:0.00977 3966:0.03907 3967:0.0293 3968:0.03907 3969:0.01953 3971:0.00977 3972:0.00977 3976:0.00977 3977:0.00977 3978:0.0293 3983:0.01953 3987:0.00977 3988:0.03907 3990:0.00977 3992:0.00977 3993:0.00977 4000:0.00977 4003:0.00977 4008:0.01953 4009:0.00977 4011:0.00977 4015:0.00977 4017:0.00977 4019:0.00977 4020:0.01953 4021:0.01953 4022:0.00977 4024:0.00977 4025:0.00977 4027:0.01953 4029:0.00977 4030:0.01953 4031:0.09766 4032:0.00977 4034:0.01953 4036:0.0293 4037:0.01953 4042:0.01953 4043:0.00977 4045:0.06837 4046:0.0293 4047:0.00977 4048:0.0586 4049:0.01953 4050:0.00977 4052:0.01953 4054:0.00977 4056:0.00977 4058:0.00977 4059:0.00977 4060:0.0293 4061:0.01953 4062:0.04883 4063:0.00977 4064:0.0586 4065:0.00977 4067:0.01953 4068:0.00977 4069:0.01953 4070:0.00977 4072:0.00977 4074:0.00977 4076:0.00977 4077:0.00977 4078:0.0293 4080:0.04883 4084:0.03907 4085:0.01953 4086:0.01953 4087:0.00977 4088:0.0293 4089:0.01953 4092:0.04883 4093:0.00977 4094:0.0293 4095:0.03907 4096:0.10743 
82.13003504831985 2:0.02181 4:0.06543 5:0.02181 7:0.02181 8:0.02181 10:0.02181 12:0.02181 13:0.02181 14:0.02181 15:0.02181 16:0.04362 17:0.06543 18:0.04362 21:0.02181 25:0.04362 31:0.04362 32:0.02181 35:0.02181 38:0.02181 41:0.02181 45:0.04362 48:0.02181 50:0.02181 51:0.02181 52:0.02181 53:0.04362 54:0.02181 55:0.04362 60:0.04362 61:0.04362 63:0.04362 65:0.04362 68:0.04362 71:0.02181 72:0.02181 74:0.02181 76:0.02181 81:0.04362 82:0.02181 89:0.02181 91:0.02181 95:0.02181 97:0.02181 100:0.02181 107:0.02181 111:0.02181 116:0.02181 120:0.02181 122:0.04362 123:0.02181 124:0.02181 125:0.02181 126:0.02181 128:0.02181 131:0.02181 133:0.02181 135:0.02181 140:0.02181 151:0.02181 156:0.02181 159:0.02181 161:0.02181 162:0.04362 171:0.04362 177:0.02181 180:0.04362 185:0.02181 188:0.02181 191:0.02181 192:0.02181 200:0.02181 202:0.02181 204:0.04362 205:0.02181 209:0.02181 212:0.02181 213:0.02181 214:0.02181 215:0.02181 217:0.04362 218:0.02181 219:0.06543 233:0.02181 234:0.02181 237:0.04362 238:0.02181 239:0.02181 242:0.02181 243:0.02181 244:0.02181 245:0.02181 249:0.04362 250:0.02181 251:0.04362 252:0.02181 253:0.02181 254:0.02181 256:0.04362 257:0.04362 259:0.02181 260:0.04362 264:0.02181 267:0.02181 270:0.02181 271:0.02181 272:0.02181 275:0.02181 276:0.02181 277:0.04362 280:0.02181 281:0.02181 284:0.02181 288:0.02181 292:0.02181 294:0.02181 295:0.02181 297:0.02181 299:0.02181 304:0.02181 306:0.02181 307:0.02181 308:0.02181 309:0.02181 313:0.02181 316:0.04362 319:0.04362 320:0.04362 321:0.02181 324:0.04362 325:0.02181 330:0.02181 344:0.02181 356:0.04362 361:0.02181 371:0.04362 379:0.02181 385:0.02181 386:0.02181 387:0.04362 391:0.02181 397:0.02181 401:0.02181 414:0.02181 415:0.02181 416:0.02181 417:0.02181 419:0.02181 424:0.04362 427:0.02181 435:0.02181 441:0.06543 444:0.02181 446:0.02181 455:0.02181 463:0.04362 464:0.04362 465:0.02181 475:0.02181 480:0.02181 486:0.04362 489:0.02181 496:0.02181 497:0.02181 500:0.02181 501:0.02181 504:0.02181 507:0.02181 509:0.02181 511:0.02181 512:0.02181 513:0.02181 514:0.02181 524:0.02181 530:0.02181 532:0.02181 539:0.04362 552:0.02181 560:0.02181 561:0.02181 563:0.02181 566:0.04362 567:0.02181 578:0.02181 602:0.02181 604:0.04362 613:0.02181 622:0.02181 623:0.04362 628:0.02181 632:0.02181 633:0.02181 634:0.02181 635:0.06543 638:0.02181 644:0.02181 645:0.04362 648:0.04362 654:0.02181 657:0.02181 659:0.02181 676:0.02181 677:0.02181 681:0.02181 684:0.02181 693:0.02181 700:0.02181 703:0.02181 705:0.02181 719:0.02181 720:0.02181 728:0.04362 737:0.02181 741:0.02181 746:0.06543 752:0.02181 755:0.02181 759:0.02181 762:0.02181 763:0.02181 764:0.02181 765:0.02181 767:0.02181 768:0.02181 770:0.02181 772:0.04362 780:0.02181 784:0.02181 785:0.02181 800:0.04362 804:0.02181 808:0.02181 811:0.02181 814:0.02181 815:0.04362 816:0.02181 817:0.02181 821:0.02181 823:0.06543 826:0.02181 828:0.02181 832:0.02181 833:0.02181 836:0.02181 837:0.02181 839:0.02181 841:0.02181 845:0.02181 847:0.02181 849:0.06543 853:0.02181 855:0.02181 856:0.02181 859:0.02181 865:0.08725 870:0.02181 873:0.04362 874:0.02181 876:0.04362 880:0.02181 884:0.02181 885:0.02181 887:0.02181 889:0.02181 892:0.02181 899:0.02181 900:0.02181 901:0.02181 909:0.02181 912:0.02181 913:0.02181 916:0.04362 917:0.04362 919:0.02181 922:0.02181 930:0.02181 933:0.04362 945:0.02181 946:0.04362 949:0.02181 950:0.04362 952:0.02181 954:0.04362 955:0.02181 956:0.02181 962:0.02181 965:0.02181 969:0.02181 975:0.02181 978:0.02181 980:0.02181 981:0.02181 983:0.02181 984:0.02181 985:0.02181 993:0.02181 995:0.04362 996:0.02181 997:0.02181 1001:0.02181 1002:0.02181 1004:0.04362 1007:0.02181 1008:0.04362 1012:0.04362 1013:0.04362 1015:0.04362 1017:0.02181 1020:0.04362 1023:0.04362 1024:0.06543 1025:0.02181 1027:0.02181 1028:0.04362 1029:0.02181 1032:0.02181 1033:0.02181 1036:0.02181 1037:0.02181 1038:0.04362 1043:0.02181 1045:0.02181 1047:0.02181 1048:0.02181 1053:0.02181 1055:0.02181 1056:0.02181 1063:0.02181 1065:0.02181 1067:0.02181 1071:0.02181 1075:0.02181 1078:0.02181 1079:0.02181 1083:0.02181 1084:0.04362 1085:0.02181 1086:0.02181 1087:0.04362 1088:0.04362 1089:0.04362 1092:0.02181 1093:0.02181 1094:0.04362 1098:0.02181 1099:0.04362 1101:0.04362 1103:0.02181 1104:0.02181 1105:0.02181 1107:0.02181 1110:0.02181 1113:0.02181 1117:0.02181 1121:0.02181 1122:0.02181 1128:0.04362 1133:0.02181 1135:0.04362 1136:0.02181 1138:0.02181 1140:0.04362 1143:0.02181 1149:0.02181 1151:0.02181 1153:0.02181 1157:0.02181 1162:0.02181 1165:0.02181 1166:0.02181 1175:0.02181 1178:0.02181 1180:0.02181 1181:0.02181 1182:0.02181 1183:0.04362 1184:0.02181 1186:0.04362 1194:0.02181 1200:0.02181 1213:0.02181 1215:0.02181 1216:0.04362 1217:0.04362 1220:0.02181 1224:0.02181 1228:0.04362 1231:0.04362 1233:0.02181 1234:0.02181 1235:0.02181 1237:0.02181 1249:0.02181 1250:0.02181 1252:0.02181 1253:0.02181 1258:0.02181 1262:0.04362 1263:0.02181 1265:0.02181 1273:0.02181 1275:0.02181 1276:0.02181 1277:0.02181 1280:0.02181 1281:0.02181 1282:0.02181 1288:0.02181 1290:0.02181 1292:0.02181 1293:0.02181 1295:0.02181 1296:0.04362 1297:0.04362 1299:0.02181 1300:0.02181 1302:0.02181 1305:0.02181 1309:0.06543 1319:0.02181 1320:0.06543 1321:0.02181 1324:0.02181 1328:0.02181 1337:0.02181 1341:0.02181 1343:0.02181 1354:0.04362 1355:0.02181 1363:0.02181 1372:0.02181 1376:0.04362 1383:0.02181 1385:0.02181 1392:0.02181 1396:0.02181 1404:0.02181 1406:0.02181 1407:0.02181 1409:0.02181 1417:0.02181 1420:0.02181 1421:0.02181 1422:0.02181 1424:0.06543 1426:0.02181 1429:0.02181 1434:0.02181 1441:0.02181 1444:0.02181 1449:0.02181 1456:0.02181 1457:0.02181 1462:0.02181 1464:0.04362 1470:0.02181 1474:0.02181 1483:0.04362 1485:0.02181 1495:0.02181 1514:0.02181 1515:0.02181 1519:0.04362 1521:0.02181 1527:0.02181 1530:0.02181 1532:0.02181 1533:0.02181 1537:0.02181 1540:0.04362 1542:0.02181 1544:0.02181 1545:0.04362 1547:0.02181 1550:0.02181 1562:0.02181 1572:0.02181 1583:0.02181 1588:0.06543 1590:0.02181 1592:0.02181 1598:0.06543 1599:0.02181 1600:0.04362 1602:0.02181 1605:0.02181 1613:0.02181 1617:0.02181 1618:0.02181 1625:0.02181 1638:0.02181 1643:0.02181 1653:0.02181 1659:0.02181 1660:0.02181 1663:0.02181 1665:0.02181 1666:0.02181 1667:0.02181 1668:0.02181 1673:0.02181 1675:0.02181 1680:0.02181 1681:0.02181 1683:0.02181 1684:0.02181 1690:0.02181 1694:0.02181 1695:0.02181 1696:0.02181 1697:0.02181 1700:0.02181 1705:0.02181 1722:0.02181 1726:0.02181 1727:0.02181 1729:0.02181 1740:0.02181 1747:0.02181 1749:0.04362 1750:0.02181 1756:0.02181 1758:0.02181 1760:0.02181 1761:0.06543 1762:0.02181 1764:0.02181 1769:0.02181 1774:0.02181 1776:0.02181 1782:0.04362 1789:0.02181 1792:0.02181 1800:0.02181 1808:0.02181 1820:0.02181 1836:0.04362 1842:0.02181 1848:0.02181 1850:0.02181 1852:0.02181 1854:0.02181 1855:0.02181 1856:0.02181 1857:0.02181 1860:0.04362 1866:0.02181 1875:0.02181 1881:0.02181 1884:0.02181 1897:0.02181 1898:0.02181 1914:0.02181 1920:0.02181 1927:0.02181 1929:0.02181 1935:0.02181 1937:0.02181 1941:0.04362 1943:0.02181 1944:0.02181 1954:0.02181 1955:0.02181 1958:0.02181 1961:0.02181 1962:0.02181 1963:0.02181 1967:0.02181 1969:0.02181 1978:0.02181 1979:0.02181 1980:0.02181 1982:0.02181 1983:0.02181 1985:0.04362 1998:0.02181 2001:0.02181 2004:0.02181 2007:0.02181 2009:0.02181 2012:0.04362 2016:0.02181 2021:0.02181 2025:0.04362 2030:0.02181 2033:0.02181 2034:0.02181 2042:0.02181 2044:0.02181 2046:0.02181 2047:0.02181 2049:0.02181 2050:0.04362 2051:0.02181 2053:0.04362 2061:0.02181 2062:0.04362 2064:0.02181 2067:0.02181 2071:0.02181 2075:0.02181 2076:0.02181 2078:0.02181 2081:0.02181 2082:0.04362 2088:0.02181 2091:0.02181 2093:0.02181 2096:0.02181 2099:0.02181 2102:0.02181 2103:0.06543 2111:0.02181 2115:0.02181 2117:0.02181 2118:0.02181 2119:0.02181 2125:0.02181 2127:0.04362 2128:0.02181 2141:0.02181 2145:0.04362 2149:0.02181 2152:0.02181 2153:0.02181 2154:0.04362 2164:0.02181 2165:0.02181 2183:0.02181 2190:0.04362 2193:0.02181 2199:0.02181 2204:0.02181 2207:0.02181 2213:0.02181 2230:0.02181 2234:0.02181 2238:0.02181 2243:0.02181 2249:0.02181 2254:0.08725 2258:0.02181 2261:0.02181 2262:0.04362 2264:0.02181 2265:0.02181 2267:0.02181 2270:0.04362 2271:0.02181 2273:0.02181 2277:0.02181 2278:0.02181 2285:0.02181 2293:0.02181 2294:0.04362 2295:0.02181 2297:0.02181 2300:0.02181 2302:0.04362 2303:0.04362 2304:0.02181 2305:0.02181 2307:0.02181 2309:0.02181 2310:0.06543 2312:0.02181 2315:0.02181 2320:0.02181 2322:0.02181 2323:0.02181 2324:0.04362 2327:0.02181 2334:0.02181 2338:0.02181 2339:0.02181 2344:0.02181 2352:0.04362 2353:0.04362 2355:0.02181 2356:0.02181 2357:0.02181 2358:0.02181 2361:0.02181 2372:0.02181 2373:0.06543 2374:0.02181 2376:0.06543 2379:0.02181 2383:0.02181 2384:0.02181 2387:0.02181 2389:0.02181 2399:0.02181 2401:0.02181 2403:0.02181 2404:0.02181 2405:0.02181 2406:0.02181 2414:0.04362 2417:0.02181 2422:0.02181 2448:0.02181 2452:0.02181 2455:0.02181 2459:0.02181 2463:0.02181 2469:0.02181 2472:0.02181 2473:0.02181 2486:0.02181 2487:0.02181 2489:0.04362 2512:0.02181 2513:0.04362 2517:0.02181 2527:0.02181 2531:0.02181 2533:0.02181 2537:0.02181 2539:0.04362 2540:0.02181 2543:0.02181 2544:0.02181 2550:0.02181 2555:0.02181 2560:0.02181 2561:0.02181 2562:0.02181 2567:0.04362 2570:0.02181 2573:0.02181 2574:0.04362 2578:0.04362 2580:0.04362 2585:0.02181 2586:0.02181 2587:0.02181 2589:0.02181 2590:0.02181 2594:0.02181 2597:0.02181 2602:0.02181 2613:0.02181 2615:0.02181 2616:0.04362 2618:0.02181 2622:0.02181 2623:0.02181 2624:0.02181 2625:0.04362 2626:0.06543 2629:0.02181 2633:0.04362 2636:0.04362 2637:0.04362 2638:0.02181 2642:0.06543 2643:0.02181 2660:0.02181 2663:0.02181 2666:0.02181 2677:0.02181 2684:0.02181 2688:0.02181 2690:0.02181 2693:0.02181 2695:0.02181 2702:0.04362 2704:0.02181 2705:0.06543 2722:0.04362 2725:0.02181 2735:0.02181 2747:0.02181 2770:0.02181 2789:0.02181 2794:0.02181 2798:0.02181 2799:0.04362 2801:0.02181 2807:0.02181 2810:0.06543 2813:0.02181 2817:0.04362 2818:0.02181 2819:0.02181 2832:0.02181 2836:0.04362 2863:0.02181 2867:0.02181 2876:0.02181 2880:0.02181 2885:0.02181 2887:0.02181 2889:0.02181 2895:0.02181 2897:0.02181 2899:0.02181 2900:0.02181 2902:0.04362 2911:0.04362 2912:0.04362 2927:0.02181 2934:0.02181 2938:0.02181 2942:0.04362 2945:0.06543 2946:0.02181 2948:0.02181 2949:0.02181 2950:0.02181 2958:0.02181 2959:0.02181 2962:0.08725 2965:0.02181 2971:0.02181 2977:0.02181 2981:0.06543 2982:0.06543 2983:0.02181 2992:0.02181 2998:0.04362 3000:0.02181 3001:0.04362 3002:0.02181 3008:0.04362 3009:0.02181 3012:0.02181 3019:0.02181 3026:0.02181 3030:0.02181 3031:0.02181 3033:0.02181 3036:0.02181 3046:0.06543 3047:0.02181 3048:0.02181 3049:0.02181 3053:0.02181 3057:0.04362 3058:0.02181 3060:0.02181 3062:0.02181 3064:0.02181 3065:0.02181 3067:0.02181 3070:0.04362 3072:0.02181 3073:0.04362 3077:0.02181 3078:0.02181 3079:0.02181 3080:0.02181 3083:0.02181 3084:0.02181 3087:0.02181 3088:0.02181 3089:0.02181 3093:0.02181 3103:0.02181 3113:0.02181 3119:0.02181 3120:0.02181 3131:0.02181 3135:0.02181 3136:0.04362 3137:0.02181 3138:0.02181 3145:0.02181 3150:0.02181 3152:0.04362 3177:0.02181 3183:0.02181 3198:0.02181 3200:0.04362 3201:0.02181 3213:0.02181 3231:0.02181 3237:0.02181 3241:0.02181 3246:0.02181 3247:0.02181 3254:0.02181 3259:0.06543 3263:0.02181 3265:0.02181 3269:0.02181 3275:0.02181 3280:0.02181 3284:0.02181 3289:0.02181 3291:0.02181 3292:0.02181 3293:0.02181 3295:0.02181 3300:0.02181 3301:0.02181 3302:0.04362 3303:0.02181 3310:0.02181 3311:0.04362 3318:0.02181 3323:0.02181 3326:0.02181 3327:0.02181 3328:0.02181 3330:0.02181 3332:0.02181 3342:0.02181 3343:0.02181 3344:0.04362 3345:0.02181 3346:0.04362 3354:0.04362 3356:0.06543 3360:0.02181 3361:0.02181 3364:0.02181 3368:0.02181 3377:0.02181 3381:0.02181 3386:0.02181 3387:0.02181 3388:0.02181 3393:0.02181 3394:0.02181 3395:0.04362 3396:0.02181 3399:0.02181 3402:0.02181 3404:0.02181 3408:0.02181 3411:0.02181 3415:0.02181 3416:0.02181 3418:0.02181 3419:0.02181 3421:0.02181 3427:0.02181 3428:0.04362 3435:0.02181 3436:0.02181 3437:0.02181 3438:0.02181 3451:0.02181 3452:0.02181 3453:0.02181 3455:0.02181 3456:0.02181 3457:0.02181 3458:0.02181 3459:0.02181 3460:0.02181 3469:0.02181 3470:0.02181 3472:0.04362 3477:0.02181 3489:0.04362 3491:0.02181 3493:0.04362 3495:0.02181 3503:0.02181 3504:0.02181 3509:0.02181 3510:0.02181 3515:0.02181 3516:0.02181 3520:0.04362 3524:0.02181 3534:0.02181 3539:0.02181 3543:0.02181 3547:0.02181 3554:0.02181 3556:0.02181 3558:0.04362 3565:0.02181 3573:0.02181 3575:0.04362 3583:0.02181 3585:0.02181 3588:0.04362 3589:0.02181 3593:0.02181 3596:0.02181 3598:0.02181 3600:0.02181 3601:0.02181 3604:0.02181 3608:0.02181 3609:0.02181 3620:0.02181 3622:0.02181 3623:0.02181 3630:0.02181 3636:0.02181 3638:0.02181 3641:0.02181 3642:0.02181 3644:0.02181 3648:0.04362 3651:0.02181 3652:0.02181 3653:0.04362 3654:0.02181 3656:0.02181 3658:0.02181 3661:0.02181 3662:0.02181 3663:0.02181 3666:0.06543 3668:0.04362 3669:0.02181 3670:0.02181 3672:0.02181 3673:0.04362 3674:0.02181 3677:0.02181 3678:0.02181 3688:0.02181 3690:0.02181 3694:0.02181 3702:0.02181 3713:0.02181 3716:0.02181 3717:0.02181 3719:0.04362 3722:0.02181 3726:0.02181 3727:0.02181 3728:0.02181 3730:0.02181 3731:0.04362 3732:0.04362 3733:0.08725 3737:0.02181 3739:0.02181 3748:0.02181 3749:0.02181 3754:0.02181 3772:0.04362 3773:0.02181 3775:0.02181 3776:0.02181 3777:0.04362 3780:0.02181 3781:0.04362 3789:0.02181 3794:0.02181 3796:0.02181 3797:0.02181 3798:0.02181 3800:0.04362 3807:0.02181 3808:0.02181 3809:0.02181 3810:0.02181 3812:0.02181 3813:0.04362 3814:0.02181 3815:0.02181 3818:0.06543 3820:0.02181 3822:0.02181 3823:0.02181 3825:0.02181 3829:0.02181 3834:0.02181 3837:0.02181 3838:0.04362 3839:0.02181 3840:0.02181 3842:0.04362 3843:0.02181 3845:0.02181 3846:0.02181 3851:0.02181 3852:0.02181 3855:0.02181 3857:0.02181 3859:0.02181 3860:0.02181 3867:0.02181 3872:0.02181 3873:0.02181 3882:0.02181 3892:0.02181 3896:0.02181 3897:0.02181 3898:0.04362 3908:0.02181 3909:0.02181 3911:0.06543 3912:0.02181 3918:0.02181 3919:0.02181 3921:0.02181 3922:0.02181 3927:0.02181 3929:0.04362 3931:0.02181 3932:0.02181 3936:0.02181 3940:0.08725 3946:0.02181 3950:0.04362 3951:0.02181 3952:0.02181 3953:0.02181 3961:0.02181 3966:0.02181 3971:0.02181 3978:0.04362 3980:0.02181 3983:0.02181 3984:0.02181 3987:0.02181 3988:0.02181 3990:0.06543 3991:0.02181 3992:0.02181 3996:0.02181 3998:0.02181 4001:0.02181 4002:0.02181 4004:0.06543 4007:0.02181 4015:0.02181 4016:0.04362 4017:0.02181 4020:0.02181 4021:0.02181 4025:0.02181 4027:0.04362 4029:0.02181 4032:0.06543 4034:0.02181 4035:0.04362 4037:0.04362 4039:0.02181 4040:0.02181 4045:0.02181 4047:0.04362 4050:0.06543 4053:0.02181 4055:0.02181 4057:0.02181 4059:0.02181 4060:0.02181 4061:0.02181 4063:0.02181 4067:0.02181 4068:0.02181 4070:0.04362 4073:0.02181 4076:0.02181 4077:0.02181 4079:0.04362 4080:0.04362 4082:0.04362 4085:0.02181 4086:0.02181 4087:0.02181 4088:0.02181 4090:0.02181 4091:0.02181 4092:0.04362 4093:0.04362 4094:0.02181 4095:0.02181 
48.70333198259909 1:0.02567 2:0.03851 3:0.01284 4:0.07701 6:0.06418 7:0.02567 8:0.02567 10:0.01284 11:0.02567 12:0.01284 13:0.05134 14:0.05134 15:0.07701 16:0.05134 17:0.03851 20:0.03851 21:0.02567 22:0.03851 24:0.01284 26:0.01284 27:0.01284 29:0.02567 30:0.01284 32:0.05134 33:0.02567 36:0.02567 37:0.02567 39:0.01284 40:0.02567 43:0.01284 44:0.02567 45:0.01284 46:0.01284 48:0.01284 49:0.01284 50:0.05134 52:0.05134 53:0.05134 54:0.05134 56:0.02567 57:0.02567 58:0.01284 59:0.03851 60:0.07701 61:0.02567 62:0.06418 63:0.03851 64:0.05134 65:0.03851 67:0.02567 68:0.02567 75:0.01284 77:0.01284 80:0.03851 81:0.01284 82:0.02567 84:0.01284 85:0.03851 86:0.01284 88:0.02567 89:0.01284 96:0.02567 101:0.01284 105:0.01284 106:0.01284 114:0.01284 116:0.01284 118:0.02567 121:0.01284 125:0.02567 126:0.03851 128:0.01284 129:0.02567 132:0.03851 137:0.02567 138:0.01284 141:0.03851 142:0.01284 144:0.01284 146:0.01284 148:0.01284 149:0.01284 151:0.01284 153:0.01284 154:0.01284 156:0.01284 157:0.02567 158:0.01284 159:0.02567 168:0.01284 170:0.01284 171:0.02567 174:0.01284 176:0.02567 177:0.01284 180:0.01284 181:0.01284 183:0.01284 189:0.01284 190:0.01284 192:0.05134 193:0.02567 194:0.01284 196:0.03851 197:0.05134 198:0.01284 199:0.02567 202:0.01284 205:0.01284 206:0.03851 207:0.05134 208:0.02567 209:0.05134 211:0.02567 212:0.03851 213:0.03851 214:0.02567 219:0.01284 221:0.01284 223:0.01284 224:0.01284 225:0.02567 226:0.01284 228:0.02567 229:0.01284 230:0.02567 233:0.03851 234:0.05134 237:0.03851 238:0.01284 239:0.01284 240:0.03851 241:0.01284 243:0.02567 244:0.03851 245:0.03851 246:0.05134 248:0.02567 249:0.02567 250:0.02567 252:0.01284 253:0.02567 254:0.02567 255:0.07701 256:0.05134 257:0.03851 258:0.01284 259:0.02567 260:0.03851 261:0.01284 262:0.02567 266:0.02567 268:0.01284 269:0.03851 272:0.01284 273:0.01284 274:0.02567 278:0.01284 281:0.01284 284:0.01284 289:0.01284 290:0.01284 291:0.01284 296:0.01284 299:0.02567 305:0.01284 308:0.02567 312:0.01284 317:0.01284 318:0.01284 320:0.07701 321:0.01284 322:0.01284 326:0.01284 327:0.01284 329:0.01284 331:0.01284 334:0.01284 337:0.05134 339:0.01284 341:0.01284 344:0.01284 345:0.02567 349:0.01284 351:0.01284 355:0.01284 357:0.01284 361:0.01284 363:0.01284 369:0.01284 378:0.01284 379:0.01284 381:0.01284 384:0.02567 385:0.02567 387:0.01284 391:0.01284 394:0.01284 395:0.01284 397:0.01284 398:0.01284 399:0.01284 401:0.01284 416:0.01284 417:0.01284 421:0.02567 422:0.01284 426:0.01284 434:0.01284 437:0.02567 444:0.01284 449:0.02567 452:0.03851 454:0.01284 461:0.01284 465:0.01284 469:0.01284 472:0.01284 474:0.01284 479:0.02567 484:0.01284 486:0.01284 497:0.01284 500:0.01284 502:0.01284 503:0.01284 504:0.01284 507:0.01284 508:0.01284 510:0.01284 511:0.01284 512:0.01284 513:0.06418 515:0.01284 516:0.01284 517:0.01284 524:0.01284 525:0.02567 528:0.02567 533:0.02567 538:0.01284 541:0.01284 545:0.03851 547:0.01284 550:0.01284 551:0.03851 557:0.01284 558:0.01284 561:0.03851 562:0.02567 564:0.02567 567:0.01284 568:0.02567 571:0.01284 572:0.01284 573:0.01284 576:0.02567 577:0.02567 580:0.02567 581:0.01284 586:0.02567 587:0.01284 591:0.01284 593:0.01284 602:0.02567 603:0.01284 608:0.01284 609:0.02567 611:0.02567 613:0.02567 617:0.02567 618:0.03851 619:0.01284 622:0.01284 625:0.01284 628:0.01284 630:0.02567 634:0.02567 636:0.01284 637:0.01284 638:0.01284 639:0.01284 640:0.02567 641:0.01284 645:0.01284 649:0.01284 650:0.01284 652:0.01284 659:0.02567 660:0.02567 665:0.01284 667:0.01284 670:0.01284 673:0.01284 676:0.01284 677:0.02567 681:0.03851 684:0.01284 688:0.02567 689:0.01284 691:0.01284 692:0.01284 695:0.01284 703:0.01284 704:0.01284 705:0.03851 708:0.01284 717:0.02567 718:0.01284 721:0.02567 729:0.01284 735:0.01284 737:0.01284 739:0.01284 743:0.01284 756:0.01284 758:0.01284 759:0.01284 762:0.01284 765:0.01284 766:0.01284 767:0.03851 768:0.02567 769:0.03851 770:0.01284 771:0.02567 772:0.01284 773:0.01284 774:0.01284 776:0.01284 777:0.05134 780:0.01284 781:0.05134 782:0.02567 783:0.01284 784:0.03851 785:0.03851 788:0.05134 790:0.01284 792:0.01284 793:0.02567 797:0.02567 800:0.01284 801:0.01284 803:0.01284 804:0.02567 805:0.01284 808:0.01284 816:0.01284 817:0.05134 818:0.01284 819:0.01284 820:0.10268 822:0.02567 823:0.01284 824:0.02567 825:0.03851 826:0.02567 828:0.02567 829:0.03851 830:0.01284 831:0.02567 832:0.05134 833:0.01284 834:0.02567 836:0.01284 841:0.01284 842:0.01284 843:0.01284 844:0.01284 845:0.02567 846:0.01284 848:0.02567 849:0.03851 850:0.01284 851:0.02567 854:0.02567 856:0.01284 859:0.01284 865:0.02567 866:0.01284 869:0.01284 870:0.01284 871:0.01284 874:0.01284 875:0.01284 877:0.01284 878:0.01284 879:0.01284 881:0.02567 884:0.02567 885:0.01284 886:0.01284 889:0.01284 890:0.02567 891:0.01284 893:0.02567 894:0.01284 896:0.02567 897:0.02567 900:0.01284 903:0.02567 906:0.01284 909:0.01284 911:0.01284 912:0.03851 913:0.02567 915:0.01284 917:0.01284 919:0.01284 920:0.02567 922:0.01284 923:0.01284 928:0.01284 929:0.02567 930:0.01284 934:0.05134 935:0.01284 938:0.01284 944:0.01284 945:0.02567 948:0.05134 949:0.01284 954:0.01284 958:0.01284 960:0.03851 961:0.01284 964:0.05134 965:0.01284 966:0.01284 968:0.01284 971:0.01284 972:0.03851 973:0.06418 974:0.01284 975:0.01284 976:0.03851 977:0.02567 978:0.01284 980:0.01284 981:0.01284 982:0.03851 983:0.01284 985:0.01284 986:0.02567 991:0.01284 992:0.03851 994:0.02567 995:0.01284 996:0.01284 997:0.02567 998:0.02567 999:0.01284 1000:0.02567 1003:0.01284 1006:0.02567 1008:0.02567 1009:0.01284 1010:0.03851 1011:0.02567 1012:0.01284 1013:0.02567 1014:0.03851 1015:0.02567 1016:0.01284 1017:0.03851 1018:0.03851 1019:0.03851 1020:0.03851 1021:0.05134 1022:0.05134 1023:0.05134 1024:0.07701 1025:0.06418 1026:0.03851 1028:0.05134 1032:0.03851 1033:0.02567 1034:0.02567 1035:0.01284 1036:0.01284 1037:0.02567 1038:0.03851 1039:0.01284 1040:0.07701 1041:0.03851 1043:0.01284 1045:0.02567 1046:0.02567 1048:0.01284 1055:0.01284 1057:0.01284 1059:0.01284 1062:0.01284 1063:0.02567 1064:0.01284 1066:0.01284 1069:0.01284 1070:0.01284 1073:0.01284 1074:0.02567 1076:0.02567 1077:0.02567 1078:0.01284 1083:0.03851 1086:0.02567 1088:0.03851 1090:0.02567 1091:0.01284 1093:0.03851 1095:0.01284 1097:0.02567 1104:0.01284 1105:0.01284 1111:0.01284 1114:0.01284 1121:0.02567 1124:0.01284 1133:0.01284 1137:0.01284 1141:0.01284 1143:0.01284 1153:0.01284 1154:0.01284 1156:0.01284 1160:0.01284 1161:0.01284 1162:0.01284 1164:0.02567 1165:0.02567 1166:0.01284 1168:0.01284 1169:0.01284 1171:0.02567 1175:0.02567 1177:0.01284 1179:0.02567 1182:0.01284 1184:0.02567 1185:0.01284 1186:0.01284 1187:0.03851 1189:0.03851 1191:0.02567 1193:0.01284 1194:0.01284 1196:0.01284 1197:0.02567 1201:0.01284 1215:0.01284 1217:0.01284 1220:0.01284 1222:0.01284 1225:0.01284 1229:0.02567 1230:0.01284 1232:0.05134 1235:0.02567 1236:0.01284 1238:0.01284 1244:0.01284 1245:0.01284 1246:0.01284 1253:0.01284 1256:0.01284 1265:0.01284 1266:0.01284 1267:0.01284 1268:0.01284 1270:0.01284 1271:0.03851 1273:0.01284 1274:0.02567 1277:0.03851 1278:0.02567 1279:0.01284 1280:0.07701 1281:0.01284 1282:0.01284 1283:0.03851 1284:0.03851 1285:0.01284 1286:0.02567 1289:0.01284 1290:0.01284 1292:0.01284 1294:0.01284 1297:0.01284 1298:0.02567 1301:0.01284 1303:0.01284 1305:0.02567 1313:0.01284 1315:0.01284 1316:0.01284 1317:0.01284 1319:0.01284 1321:0.02567 1322:0.01284 1324:0.01284 1331:0.01284 1335:0.01284 1336:0.01284 1342:0.01284 1343:0.03851 1344:0.03851 1345:0.05134 1347:0.01284 1348:0.01284 1349:0.01284 1355:0.03851 1357:0.01284 1361:0.01284 1367:0.01284 1370:0.02567 1374:0.02567 1376:0.02567 1378:0.01284 1380:0.01284 1381:0.01284 1382:0.01284 1384:0.01284 1388:0.01284 1390:0.01284 1393:0.01284 1399:0.03851 1402:0.01284 1404:0.02567 1405:0.01284 1406:0.01284 1408:0.01284 1409:0.01284 1413:0.01284 1414:0.01284 1419:0.01284 1422:0.01284 1424:0.01284 1425:0.01284 1427:0.01284 1428:0.01284 1429:0.01284 1431:0.02567 1432:0.01284 1435:0.02567 1438:0.05134 1439:0.02567 1441:0.02567 1443:0.01284 1444:0.01284 1446:0.01284 1447:0.01284 1448:0.01284 1449:0.01284 1453:0.01284 1454:0.01284 1462:0.01284 1463:0.02567 1470:0.01284 1472:0.01284 1474:0.01284 1475:0.01284 1476:0.01284 1498:0.01284 1499:0.01284 1500:0.01284 1506:0.01284 1507:0.01284 1508:0.01284 1509:0.01284 1510:0.02567 1511:0.02567 1512:0.01284 1515:0.03851 1516:0.01284 1517:0.01284 1520:0.01284 1522:0.01284 1523:0.01284 1527:0.01284 1529:0.01284 1535:0.01284 1536:0.02567 1537:0.03851 1540:0.02567 1543:0.01284 1544:0.01284 1545:0.01284 1547:0.01284 1548:0.01284 1551:0.03851 1553:0.01284 1559:0.01284 1560:0.01284 1561:0.01284 1563:0.02567 1568:0.01284 1573:0.01284 1575:0.03851 1579:0.03851 1583:0.01284 1587:0.02567 1588:0.01284 1590:0.01284 1591:0.05134 1592:0.01284 1595:0.01284 1597:0.01284 1601:0.02567 1604:0.01284 1605:0.02567 1608:0.01284 1609:0.01284 1610:0.02567 1611:0.02567 1613:0.01284 1614:0.01284 1620:0.01284 1625:0.01284 1626:0.02567 1627:0.01284 1631:0.02567 1633:0.01284 1636:0.01284 1642:0.02567 1653:0.01284 1655:0.03851 1656:0.03851 1658:0.02567 1659:0.01284 1663:0.02567 1664:0.01284 1665:0.02567 1667:0.03851 1668:0.01284 1673:0.01284 1674:0.01284 1677:0.01284 1681:0.02567 1683:0.03851 1684:0.01284 1685:0.03851 1689:0.02567 1691:0.02567 1695:0.02567 1696:0.01284 1697:0.01284 1698:0.01284 1701:0.01284 1705:0.01284 1707:0.01284 1709:0.01284 1711:0.01284 1714:0.01284 1719:0.01284 1723:0.01284 1725:0.01284 1729:0.01284 1734:0.01284 1744:0.02567 1747:0.01284 1748:0.02567 1750:0.02567 1753:0.02567 1756:0.01284 1757:0.01284 1769:0.01284 1772:0.01284 1774:0.01284 1775:0.01284 1783:0.01284 1792:0.02567 1793:0.03851 1794:0.02567 1796:0.02567 1798:0.01284 1802:0.01284 1803:0.01284 1805:0.01284 1807:0.01284 1808:0.02567 1816:0.01284 1841:0.01284 1844:0.01284 1847:0.02567 1851:0.01284 1853:0.01284 1857:0.01284 1859:0.01284 1860:0.01284 1864:0.01284 1867:0.01284 1870:0.01284 1874:0.01284 1881:0.01284 1883:0.01284 1887:0.03851 1890:0.01284 1893:0.02567 1896:0.02567 1900:0.01284 1901:0.02567 1908:0.01284 1910:0.01284 1912:0.01284 1913:0.01284 1914:0.01284 1915:0.01284 1916:0.01284 1917:0.01284 1918:0.01284 1919:0.01284 1921:0.01284 1925:0.01284 1927:0.01284 1929:0.01284 1935:0.02567 1936:0.02567 1937:0.02567 1940:0.01284 1942:0.01284 1943:0.03851 1944:0.02567 1945:0.01284 1946:0.03851 1947:0.01284 1950:0.01284 1951:0.02567 1953:0.01284 1956:0.02567 1958:0.01284 1961:0.02567 1964:0.01284 1966:0.02567 1969:0.01284 1970:0.01284 1973:0.01284 1978:0.02567 1983:0.01284 1987:0.02567 1989:0.01284 1993:0.01284 1995:0.01284 1997:0.05134 1998:0.01284 2005:0.02567 2007:0.03851 2009:0.01284 2010:0.01284 2012:0.01284 2014:0.01284 2018:0.01284 2019:0.01284 2022:0.01284 2025:0.02567 2027:0.01284 2031:0.01284 2032:0.02567 2034:0.01284 2036:0.02567 2037:0.01284 2040:0.01284 2041:0.01284 2043:0.03851 2044:0.02567 2046:0.03851 2048:0.01284 2049:0.05134 2050:0.01284 2051:0.03851 2052:0.05134 2053:0.01284 2054:0.01284 2056:0.01284 2057:0.01284 2060:0.01284 2061:0.02567 2062:0.02567 2063:0.02567 2064:0.02567 2068:0.01284 2075:0.01284 2078:0.01284 2080:0.01284 2081:0.01284 2083:0.01284 2084:0.01284 2088:0.01284 2091:0.01284 2096:0.03851 2097:0.01284 2100:0.01284 2101:0.01284 2105:0.01284 2106:0.01284 2107:0.01284 2108:0.01284 2110:0.02567 2111:0.02567 2112:0.06418 2113:0.01284 2116:0.02567 2119:0.01284 2121:0.01284 2128:0.01284 2131:0.02567 2134:0.01284 2139:0.01284 2144:0.01284 2145:0.01284 2146:0.01284 2148:0.01284 2152:0.01284 2154:0.02567 2155:0.01284 2158:0.02567 2161:0.01284 2168:0.01284 2175:0.01284 2176:0.01284 2177:0.02567 2179:0.01284 2182:0.01284 2185:0.01284 2186:0.01284 2190:0.01284 2191:0.01284 2193:0.02567 2195:0.01284 2200:0.01284 2201:0.02567 2202:0.01284 2203:0.05134 2207:0.01284 2208:0.01284 2217:0.01284 2219:0.02567 2225:0.01284 2229:0.01284 2233:0.01284 2234:0.01284 2238:0.01284 2240:0.01284 2241:0.02567 2243:0.01284 2244:0.01284 2245:0.02567 2248:0.01284 2249:0.01284 2250:0.01284 2253:0.01284 2255:0.01284 2256:0.03851 2261:0.01284 2265:0.02567 2266:0.02567 2267:0.01284 2268:0.01284 2270:0.01284 2271:0.01284 2272:0.01284 2275:0.01284 2276:0.01284 2278:0.01284 2279:0.01284 2282:0.01284 2284:0.01284 2285:0.01284 2289:0.01284 2290:0.01284 2292:0.02567 2293:0.01284 2297:0.01284 2298:0.01284 2299:0.01284 2301:0.01284 2302:0.02567 2303:0.03851 2304:0.05134 2305:0.06418 2308:0.03851 2310:0.01284 2312:0.01284 2314:0.01284 2317:0.02567 2318:0.01284 2319:0.02567 2320:0.02567 2321:0.01284 2323:0.02567 2324:0.01284 2334:0.01284 2339:0.01284 2340:0.02567 2341:0.01284 2342:0.02567 2343:0.02567 2344:0.02567 2345:0.01284 2346:0.03851 2347:0.01284 2348:0.01284 2349:0.01284 2353:0.01284 2356:0.02567 2357:0.01284 2358:0.01284 2362:0.02567 2365:0.01284 2366:0.01284 2368:0.01284 2369:0.02567 2370:0.01284 2373:0.01284 2374:0.01284 2378:0.01284 2382:0.01284 2384:0.05134 2388:0.01284 2396:0.01284 2399:0.01284 2400:0.01284 2402:0.01284 2404:0.01284 2405:0.01284 2406:0.02567 2407:0.02567 2408:0.03851 2409:0.01284 2410:0.02567 2414:0.02567 2416:0.01284 2417:0.01284 2425:0.01284 2426:0.03851 2427:0.01284 2431:0.01284 2433:0.01284 2434:0.02567 2435:0.01284 2436:0.02567 2438:0.01284 2442:0.02567 2443:0.01284 2444:0.01284 2445:0.01284 2446:0.02567 2451:0.03851 2452:0.01284 2462:0.01284 2464:0.01284 2465:0.03851 2469:0.03851 2470:0.01284 2471:0.02567 2472:0.02567 2473:0.01284 2475:0.02567 2479:0.01284 2488:0.01284 2496:0.01284 2497:0.01284 2510:0.01284 2512:0.01284 2513:0.02567 2516:0.01284 2519:0.01284 2520:0.01284 2521:0.01284 2522:0.02567 2524:0.01284 2525:0.01284 2526:0.01284 2527:0.01284 2528:0.01284 2532:0.01284 2533:0.01284 2534:0.02567 2535:0.02567 2536:0.02567 2537:0.01284 2538:0.01284 2541:0.01284 2545:0.01284 2547:0.01284 2550:0.01284 2554:0.01284 2555:0.01284 2556:0.02567 2557:0.02567 2559:0.02567 2560:0.01284 2561:0.03851 2562:0.02567 2564:0.03851 2568:0.01284 2569:0.02567 2570:0.01284 2572:0.01284 2575:0.01284 2576:0.05134 2578:0.01284 2582:0.01284 2585:0.01284 2587:0.01284 2595:0.01284 2596:0.01284 2600:0.02567 2608:0.02567 2609:0.01284 2612:0.02567 2615:0.01284 2618:0.01284 2623:0.01284 2624:0.05134 2625:0.02567 2626:0.01284 2627:0.01284 2628:0.02567 2633:0.01284 2634:0.02567 2635:0.02567 2636:0.01284 2637:0.01284 2638:0.01284 2640:0.02567 2641:0.01284 2642:0.01284 2643:0.01284 2644:0.05134 2650:0.01284 2651:0.01284 2652:0.01284 2657:0.01284 2658:0.01284 2660:0.01284 2665:0.01284 2666:0.02567 2667:0.01284 2680:0.01284 2682:0.02567 2685:0.01284 2687:0.01284 2689:0.05134 2690:0.01284 2692:0.03851 2695:0.02567 2703:0.01284 2704:0.02567 2705:0.03851 2707:0.01284 2721:0.02567 2722:0.01284 2724:0.02567 2729:0.01284 2734:0.01284 2736:0.01284 2737:0.01284 2738:0.01284 2740:0.01284 2742:0.01284 2748:0.01284 2749:0.01284 2751:0.02567 2752:0.03851 2753:0.01284 2756:0.01284 2757:0.01284 2759:0.01284 2764:0.01284 2767:0.01284 2768:0.01284 2773:0.01284 2778:0.01284 2779:0.01284 2781:0.01284 2782:0.01284 2794:0.01284 2796:0.01284 2797:0.01284 2803:0.01284 2804:0.01284 2810:0.01284 2811:0.02567 2812:0.02567 2814:0.01284 2816:0.06418 2817:0.01284 2818:0.03851 2819:0.01284 2820:0.03851 2827:0.01284 2829:0.01284 2830:0.01284 2831:0.01284 2833:0.02567 2835:0.01284 2838:0.01284 2839:0.01284 2844:0.01284 2864:0.01284 2866:0.02567 2868:0.01284 2869:0.01284 2872:0.02567 2873:0.01284 2877:0.01284 2879:0.02567 2880:0.05134 2881:0.02567 2883:0.01284 2884:0.02567 2889:0.01284 2891:0.01284 2893:0.01284 2896:0.01284 2900:0.01284 2902:0.01284 2903:0.01284 2911:0.01284 2913:0.01284 2915:0.01284 2916:0.01284 2918:0.01284 2922:0.01284 2923:0.01284 2926:0.01284 2929:0.02567 2933:0.01284 2940:0.01284 2948:0.01284 2953:0.01284 2961:0.01284 2969:0.03851 2976:0.01284 2979:0.01284 2980:0.01284 2981:0.01284 2982:0.01284 2985:0.01284 2992:0.02567 2993:0.01284 2998:0.01284 3003:0.02567 3004:0.02567 3019:0.01284 3021:0.02567 3024:0.01284 3030:0.01284 3034:0.02567 3039:0.01284 3044:0.02567 3045:0.01284 3046:0.01284 3049:0.01284 3050:0.01284 3052:0.01284 3053:0.01284 3055:0.02567 3058:0.03851 3059:0.02567 3060:0.01284 3061:0.01284 3062:0.02567 3065:0.01284 3067:0.01284 3068:0.01284 3069:0.02567 3070:0.01284 3071:0.03851 3072:0.03851 3073:0.01284 3074:0.02567 3076:0.05134 3077:0.06418 3080:0.01284 3081:0.01284 3082:0.02567 3085:0.01284 3086:0.01284 3087:0.03851 3088:0.02567 3089:0.01284 3094:0.01284 3095:0.01284 3104:0.01284 3105:0.01284 3107:0.01284 3108:0.02567 3110:0.01284 3112:0.01284 3115:0.01284 3116:0.01284 3120:0.02567 3121:0.03851 3122:0.01284 3123:0.01284 3124:0.03851 3125:0.02567 3127:0.01284 3128:0.01284 3129:0.02567 3130:0.01284 3132:0.01284 3133:0.05134 3136:0.02567 3137:0.06418 3138:0.01284 3142:0.01284 3146:0.01284 3147:0.01284 3149:0.02567 3150:0.01284 3152:0.03851 3157:0.02567 3159:0.01284 3163:0.01284 3165:0.01284 3167:0.02567 3171:0.02567 3172:0.01284 3183:0.01284 3185:0.03851 3192:0.01284 3194:0.01284 3199:0.01284 3200:0.01284 3201:0.02567 3206:0.01284 3207:0.01284 3210:0.01284 3213:0.02567 3215:0.01284 3216:0.01284 3217:0.01284 3232:0.02567 3237:0.01284 3244:0.01284 3245:0.01284 3249:0.01284 3252:0.02567 3256:0.01284 3257:0.01284 3264:0.02567 3265:0.02567 3266:0.02567 3267:0.05134 3268:0.06418 3269:0.01284 3272:0.02567 3273:0.02567 3276:0.01284 3277:0.12835 3278:0.01284 3279:0.02567 3280:0.01284 3284:0.01284 3285:0.02567 3287:0.01284 3289:0.01284 3290:0.01284 3292:0.01284 3293:0.02567 3295:0.02567 3296:0.03851 3297:0.01284 3298:0.01284 3300:0.02567 3301:0.01284 3302:0.01284 3303:0.01284 3307:0.01284 3309:0.02567 3312:0.01284 3313:0.02567 3314:0.01284 3315:0.01284 3316:0.05134 3320:0.02567 3322:0.02567 3324:0.03851 3325:0.01284 3326:0.02567 3327:0.02567 3328:0.05134 3329:0.03851 3330:0.01284 3331:0.01284 3332:0.03851 3333:0.02567 3337:0.01284 3339:0.01284 3342:0.01284 3343:0.01284 3344:0.02567 3357:0.01284 3358:0.01284 3361:0.01284 3363:0.01284 3364:0.01284 3365:0.01284 3369:0.02567 3370:0.01284 3376:0.01284 3378:0.01284 3380:0.03851 3381:0.02567 3389:0.02567 3390:0.01284 3392:0.02567 3393:0.01284 3394:0.01284 3395:0.02567 3397:0.01284 3399:0.01284 3401:0.02567 3402:0.01284 3408:0.03851 3409:0.01284 3410:0.01284 3411:0.02567 3414:0.01284 3415:0.01284 3416:0.03851 3418:0.01284 3419:0.01284 3422:0.01284 3423:0.01284 3425:0.01284 3430:0.01284 3432:0.02567 3433:0.02567 3434:0.01284 3436:0.01284 3440:0.01284 3449:0.02567 3450:0.01284 3451:0.02567 3457:0.01284 3459:0.01284 3460:0.01284 3463:0.02567 3464:0.01284 3466:0.01284 3469:0.01284 3470:0.02567 3473:0.01284 3474:0.03851 3475:0.01284 3479:0.02567 3480:0.01284 3481:0.02567 3486:0.02567 3487:0.01284 3488:0.01284 3491:0.01284 3493:0.01284 3495:0.01284 3500:0.02567 3504:0.01284 3505:0.01284 3508:0.02567 3509:0.01284 3510:0.01284 3511:0.01284 3515:0.02567 3516:0.01284 3521:0.05134 3523:0.01284 3533:0.02567 3534:0.01284 3535:0.01284 3538:0.01284 3539:0.01284 3543:0.01284 3544:0.01284 3550:0.01284 3551:0.01284 3552:0.02567 3553:0.01284 3554:0.01284 3556:0.01284 3557:0.01284 3558:0.01284 3559:0.01284 3561:0.02567 3564:0.01284 3566:0.01284 3567:0.02567 3572:0.05134 3574:0.02567 3575:0.01284 3577:0.01284 3579:0.01284 3581:0.01284 3582:0.01284 3583:0.02567 3585:0.01284 3586:0.01284 3587:0.01284 3588:0.02567 3598:0.01284 3600:0.03851 3601:0.02567 3603:0.01284 3604:0.01284 3609:0.01284 3612:0.02567 3614:0.01284 3616:0.01284 3618:0.01284 3620:0.01284 3621:0.02567 3623:0.01284 3631:0.01284 3634:0.01284 3641:0.02567 3642:0.01284 3645:0.02567 3646:0.01284 3647:0.02567 3648:0.05134 3649:0.02567 3650:0.01284 3652:0.02567 3653:0.01284 3657:0.01284 3658:0.01284 3659:0.01284 3661:0.01284 3663:0.01284 3664:0.01284 3665:0.01284 3666:0.01284 3669:0.01284 3671:0.01284 3672:0.02567 3673:0.01284 3674:0.03851 3676:0.02567 3677:0.01284 3679:0.03851 3681:0.02567 3683:0.02567 3684:0.01284 3685:0.02567 3688:0.02567 3690:0.01284 3691:0.01284 3692:0.01284 3696:0.01284 3700:0.01284 3701:0.02567 3703:0.01284 3705:0.01284 3706:0.01284 3707:0.01284 3712:0.02567 3713:0.01284 3715:0.02567 3716:0.01284 3718:0.01284 3724:0.01284 3725:0.02567 3726:0.01284 3728:0.03851 3729:0.01284 3732:0.01284 3733:0.05134 3735:0.03851 3739:0.01284 3744:0.01284 3745:0.05134 3749:0.01284 3756:0.01284 3757:0.02567 3760:0.03851 3768:0.02567 3771:0.01284 3775:0.02567 3776:0.02567 3777:0.03851 3779:0.01284 3780:0.01284 3781:0.02567 3782:0.01284 3789:0.01284 3790:0.02567 3792:0.05134 3793:0.03851 3795:0.01284 3800:0.01284 3803:0.01284 3813:0.01284 3815:0.02567 3816:0.01284 3817:0.01284 3818:0.01284 3819:0.01284 3823:0.03851 3828:0.01284 3832:0.01284 3833:0.02567 3835:0.01284 3836:0.01284 3837:0.06418 3838:0.01284 3844:0.01284 3850:0.01284 3852:0.01284 3853:0.02567 3854:0.01284 3855:0.01284 3856:0.01284 3857:0.01284 3858:0.01284 3859:0.01284 3860:0.02567 3862:0.01284 3864:0.01284 3865:0.01284 3869:0.01284 3870:0.01284 3871:0.01284 3872:0.01284 3873:0.01284 3874:0.02567 3876:0.02567 3880:0.01284 3882:0.01284 3883:0.01284 3884:0.01284 3885:0.03851 3886:0.01284 3887:0.01284 3889:0.10268 3891:0.01284 3892:0.05134 3894:0.01284 3896:0.03851 3898:0.01284 3900:0.01284 3901:0.03851 3902:0.01284 3903:0.01284 3904:0.01284 3905:0.05134 3912:0.01284 3913:0.01284 3917:0.01284 3920:0.02567 3921:0.01284 3923:0.01284 3924:0.02567 3925:0.05134 3926:0.02567 3927:0.01284 3928:0.01284 3930:0.03851 3931:0.02567 3932:0.01284 3935:0.01284 3938:0.01284 3940:0.02567 3941:0.02567 3942:0.01284 3943:0.01284 3944:0.02567 3945:0.01284 3950:0.01284 3951:0.02567 3953:0.01284 3956:0.01284 3960:0.03851 3961:0.01284 3963:0.01284 3964:0.01284 3965:0.01284 3966:0.01284 3967:0.01284 3968:0.02567 3969:0.02567 3972:0.02567 3973:0.03851 3976:0.02567 3978:0.02567 3980:0.01284 3984:0.05134 3986:0.01284 3987:0.02567 3988:0.02567 3989:0.01284 3990:0.03851 3991:0.02567 3993:0.01284 3995:0.01284 3996:0.01284 3997:0.01284 3998:0.02567 3999:0.01284 4001:0.01284 4004:0.03851 4005:0.01284 4006:0.01284 4008:0.01284 4009:0.01284 4011:0.01284 4012:0.05134 4015:0.01284 4016:0.01284 4017:0.01284 4018:0.02567 4020:0.03851 4021:0.02567 4023:0.01284 4026:0.01284 4027:0.01284 4028:0.01284 4029:0.01284 4031:0.03851 4032:0.03851 4036:0.01284 4037:0.03851 4038:0.01284 4039:0.01284 4040:0.03851 4041:0.05134 4042:0.01284 4044:0.02567 4045:0.02567 4046:0.02567 4047:0.01284 4048:0.02567 4049:0.02567 4051:0.01284 4052:0.02567 4053:0.01284 4054:0.05134 4055:0.02567 4056:0.01284 4057:0.01284 4058:0.01284 4059:0.01284 4060:0.02567 4061:0.02567 4062:0.02567 4063:0.01284 4064:0.02567 4065:0.05134 4066:0.02567 4067:0.01284 4068:0.01284 4069:0.02567 4070:0.02567 4071:0.02567 4072:0.02567 4073:0.01284 4074:0.02567 4075:0.05134 4076:0.01284 4077:0.06418 4078:0.01284 4080:0.03851 4082:0.01284 4083:0.03851 4084:0.03851 4085:0.01284 4086:0.03851 4087:0.03851 4088:0.06418 4089:0.03851 4090:0.06418 4091:0.01284 4092:0.03851 4093:0.01284 4094:0.05134 4095:0.06418 4096:0.02567 
22.87282766115867 4:0.07968 13:0.07968 14:0.07968 15:0.03984 51:0.03984 52:0.03984 54:0.03984 56:0.03984 58:0.07968 67:0.03984 105:0.03984 116:0.03984 121:0.07968 129:0.03984 148:0.03984 169:0.03984 185:0.03984 186:0.03984 195:0.03984 204:0.03984 206:0.03984 216:0.03984 218:0.03984 222:0.03984 229:0.07968 266:0.03984 268:0.03984 307:0.03984 314:0.03984 328:0.03984 337:0.03984 353:0.03984 359:0.03984 420:0.03984 433:0.03984 434:0.03984 435:0.03984 441:0.03984 442:0.07968 451:0.03984 455:0.03984 464:0.03984 470:0.03984 483:0.07968 484:0.03984 485:0.03984 506:0.03984 508:0.03984 513:0.03984 541:0.03984 570:0.03984 576:0.03984 578:0.03984 579:0.07968 582:0.03984 586:0.07968 589:0.03984 626:0.03984 628:0.03984 630:0.03984 634:0.03984 656:0.03984 661:0.03984 675:0.03984 706:0.03984 711:0.03984 722:0.03984 733:0.03984 739:0.03984 741:0.03984 748:0.03984 753:0.03984 754:0.03984 762:0.03984 777:0.03984 788:0.03984 789:0.03984 808:0.03984 810:0.03984 816:0.03984 821:0.07968 822:0.07968 826:0.03984 832:0.03984 836:0.03984 843:0.03984 844:0.03984 849:0.03984 851:0.03984 860:0.03984 863:0.03984 865:0.03984 869:0.03984 885:0.03984 891:0.03984 914:0.03984 915:0.07968 916:0.07968 919:0.03984 921:0.03984 922:0.07968 923:0.03984 928:0.03984 948:0.03984 955:0.03984 966:0.03984 996:0.03984 1009:0.03984 1022:0.07968 1023:0.03984 1024:0.07968 1025:0.07968 1028:0.03984 1055:0.03984 1061:0.03984 1067:0.03984 1071:0.07968 1073:0.03984 1103:0.03984 1113:0.03984 1133:0.11952 1137:0.03984 1151:0.07968 1167:0.03984 1169:0.03984 1171:0.07968 1181:0.03984 1188:0.03984 1202:0.03984 1205:0.03984 1213:0.03984 1215:0.03984 1221:0.03984 1222:0.03984 1226:0.03984 1227:0.03984 1230:0.03984 1241:0.03984 1247:0.03984 1253:0.03984 1255:0.07968 1263:0.03984 1277:0.03984 1280:0.03984 1281:0.11952 1300:0.03984 1309:0.03984 1316:0.03984 1345:0.03984 1381:0.03984 1407:0.03984 1410:0.03984 1428:0.03984 1434:0.07968 1469:0.03984 1487:0.03984 1508:0.03984 1530:0.03984 1537:0.03984 1541:0.03984 1594:0.03984 1597:0.03984 1607:0.07968 1613:0.07968 1615:0.07968 1637:0.07968 1642:0.03984 1644:0.03984 1677:0.03984 1684:0.03984 1699:0.03984 1713:0.03984 1722:0.03984 1730:0.03984 1736:0.03984 1740:0.03984 1762:0.03984 1767:0.07968 1778:0.03984 1801:0.03984 1809:0.03984 1814:0.03984 1820:0.03984 1850:0.03984 1852:0.03984 1856:0.03984 1864:0.03984 1868:0.07968 1879:0.03984 1880:0.03984 1929:0.03984 1930:0.03984 1933:0.03984 1934:0.03984 1940:0.07968 1941:0.03984 1951:0.07968 1956:0.03984 1996:0.03984 2000:0.03984 2024:0.07968 2029:0.03984 2032:0.03984 2052:0.07968 2065:0.03984 2162:0.03984 2169:0.03984 2192:0.03984 2193:0.07968 2205:0.03984 2225:0.03984 2254:0.07968 2255:0.03984 2256:0.03984 2259:0.03984 2261:0.03984 2277:0.03984 2278:0.03984 2290:0.03984 2304:0.07968 2312:0.03984 2315:0.03984 2316:0.03984 2327:0.03984 2332:0.07968 2336:0.03984 2341:0.11952 2344:0.03984 2349:0.03984 2354:0.07968 2355:0.03984 2356:0.03984 2359:0.03984 2360:0.03984 2362:0.07968 2364:0.03984 2368:0.07968 2369:0.03984 2373:0.03984 2407:0.03984 2420:0.03984 2448:0.03984 2450:0.07968 2452:0.07968 2459:0.07968 2469:0.03984 2473:0.03984 2477:0.03984 2501:0.03984 2511:0.03984 2514:0.03984 2515:0.03984 2518:0.03984 2533:0.03984 2534:0.03984 2536:0.07968 2556:0.03984 2600:0.03984 2605:0.03984 2612:0.07968 2613:0.03984 2624:0.03984 2634:0.03984 2638:0.03984 2641:0.03984 2653:0.03984 2698:0.03984 2700:0.03984 2739:0.03984 2756:0.03984 2761:0.03984 2767:0.03984 2792:0.03984 2823:0.03984 2824:0.03984 2830:0.03984 2844:0.03984 2847:0.03984 2850:0.03984 2856:0.03984 2862:0.03984 2874:0.07968 2887:0.03984 2930:0.03984 2941:0.03984 2952:0.03984 2954:0.03984 2964:0.03984 2970:0.07968 2981:0.03984 2989:0.03984 3009:0.03984 3015:0.03984 3016:0.03984 3035:0.03984 3048:0.03984 3087:0.03984 3099:0.03984 3101:0.03984 3103:0.03984 3105:0.03984 3106:0.03984 3127:0.03984 3139:0.03984 3149:0.03984 3154:0.03984 3157:0.03984 3162:0.03984 3183:0.11952 3190:0.03984 3194:0.03984 3208:0.03984 3230:0.03984 3231:0.03984 3238:0.03984 3256:0.03984 3259:0.03984 3261:0.03984 3281:0.03984 3283:0.03984 3285:0.03984 3287:0.03984 3301:0.03984 3303:0.07968 3304:0.03984 3309:0.03984 3321:0.03984 3328:0.07968 3341:0.03984 3356:0.03984 3360:0.03984 3369:0.03984 3374:0.03984 3376:0.07968 3393:0.03984 3401:0.03984 3418:0.03984 3424:0.03984 3440:0.03984 3449:0.03984 3457:0.03984 3471:0.03984 3476:0.03984 3503:0.03984 3526:0.03984 3539:0.03984 3561:0.03984 3571:0.03984 3572:0.03984 3615:0.03984 3620:0.03984 3621:0.07968 3636:0.07968 3638:0.03984 3656:0.03984 3658:0.03984 3660:0.03984 3661:0.03984 3662:0.03984 3663:0.03984 3664:0.07968 3666:0.03984 3674:0.03984 3684:0.03984 3685:0.07968 3687:0.07968 3691:0.03984 3701:0.07968 3706:0.11952 3711:0.03984 3725:0.03984 3726:0.03984 3731:0.03984 3736:0.03984 3757:0.03984 3764:0.03984 3786:0.03984 3791:0.03984 3818:0.03984 3831:0.03984 3844:0.03984 3848:0.03984 3863:0.03984 3868:0.03984 3870:0.03984 3887:0.03984 3903:0.03984 3940:0.03984 3948:0.03984 3965:0.03984 3981:0.03984 3998:0.07968 3999:0.03984 4004:0.03984 4006:0.03984 4012:0.03984 4019:0.03984 4030:0.03984 4034:0.03984 4057:0.03984 4064:0.03984 4073:0.03984 4074:0.03984 4075:0.03984 4087:0.03984 4088:0.03984 4091:0.11952 4095:0.07968 
9.682324166236752 1:0.04423 2:0.01106 3:0.04423 4:0.03317 5:0.01106 6:0.03317 8:0.03317 9:0.03317 10:0.02211 11:0.02211 12:0.01106 13:0.05528 14:0.02211 15:0.02211 16:0.02211 17:0.02211 18:0.01106 20:0.02211 21:0.05528 22:0.02211 23:0.02211 24:0.01106 25:0.01106 26:0.02211 27:0.02211 29:0.01106 30:0.01106 31:0.02211 33:0.02211 35:0.03317 36:0.03317 37:0.01106 38:0.02211 39:0.01106 40:0.02211 41:0.01106 42:0.01106 44:0.01106 45:0.01106 46:0.01106 47:0.05528 48:0.01106 49:0.05528 52:0.06634 53:0.01106 55:0.01106 56:0.01106 57:0.03317 58:0.02211 59:0.02211 60:0.04423 61:0.03317 62:0.02211 63:0.04423 65:0.01106 66:0.01106 67:0.01106 68:0.02211 69:0.02211 71:0.01106 72:0.02211 73:0.02211 76:0.03317 77:0.02211 79:0.01106 80:0.02211 81:0.03317 82:0.02211 83:0.01106 84:0.01106 85:0.02211 88:0.01106 89:0.04423 94:0.01106 95:0.01106 97:0.02211 98:0.01106 99:0.01106 101:0.03317 102:0.01106 104:0.01106 105:0.02211 107:0.01106 108:0.01106 114:0.03317 115:0.01106 116:0.02211 117:0.01106 118:0.04423 119:0.01106 120:0.01106 121:0.02211 122:0.03317 123:0.01106 124:0.01106 125:0.01106 128:0.01106 129:0.02211 137:0.04423 138:0.03317 139:0.01106 140:0.01106 141:0.01106 142:0.02211 147:0.01106 148:0.02211 149:0.04423 155:0.03317 159:0.01106 160:0.02211 161:0.01106 165:0.01106 167:0.01106 168:0.01106 169:0.01106 173:0.01106 175:0.01106 179:0.02211 181:0.01106 183:0.02211 186:0.03317 187:0.03317 191:0.02211 193:0.0774 194:0.02211 195:0.01106 196:0.02211 205:0.05528 207:0.01106 208:0.04423 209:0.01106 210:0.01106 211:0.01106 212:0.02211 213:0.03317 217:0.01106 218:0.01106 219:0.01106 222:0.01106 225:0.02211 226:0.02211 227:0.01106 228:0.02211 229:0.01106 230:0.01106 231:0.01106 232:0.01106 233:0.02211 234:0.01106 235:0.01106 238:0.02211 239:0.01106 240:0.02211 241:0.01106 242:0.01106 244:0.03317 245:0.01106 246:0.01106 247:0.02211 248:0.02211 250:0.04423 251:0.01106 252:0.01106 253:0.02211 254:0.03317 255:0.02211 256:0.02211 257:0.01106 258:0.01106 259:0.02211 260:0.02211 261:0.02211 262:0.01106 264:0.03317 266:0.01106 267:0.01106 269:0.01106 270:0.02211 272:0.01106 273:0.03317 274:0.03317 277:0.01106 278:0.01106 279:0.01106 280:0.02211 282:0.01106 284:0.04423 285:0.02211 286:0.03317 289:0.02211 291:0.02211 292:0.01106 294:0.01106 295:0.01106 299:0.02211 300:0.03317 302:0.02211 304:0.01106 305:0.01106 307:0.01106 308:0.03317 309:0.01106 314:0.01106 315:0.01106 317:0.01106 320:0.04423 321:0.02211 322:0.02211 325:0.01106 326:0.02211 328:0.01106 330:0.01106 332:0.02211 333:0.01106 334:0.01106 337:0.03317 339:0.01106 341:0.01106 346:0.01106 350:0.02211 353:0.04423 356:0.01106 363:0.01106 368:0.01106 375:0.03317 376:0.01106 377:0.01106 378:0.01106 379:0.01106 380:0.03317 383:0.01106 384:0.01106 387:0.02211 388:0.02211 389:0.01106 392:0.01106 393:0.01106 395:0.01106 396:0.02211 398:0.02211 401:0.01106 402:0.01106 403:0.01106 404:0.01106 406:0.01106 407:0.02211 409:0.01106 411:0.01106 415:0.01106 419:0.02211 420:0.02211 421:0.02211 426:0.01106 430:0.01106 435:0.02211 444:0.04423 453:0.02211 455:0.01106 456:0.01106 458:0.02211 459:0.01106 461:0.01106 463:0.02211 465:0.01106 466:0.01106 467:0.01106 470:0.01106 471:0.02211 472:0.01106 474:0.04423 475:0.01106 476:0.02211 478:0.04423 479:0.01106 480:0.01106 482:0.01106 483:0.01106 484:0.01106 486:0.02211 487:0.01106 492:0.02211 496:0.03317 500:0.01106 502:0.01106 504:0.01106 507:0.02211 509:0.01106 510:0.02211 511:0.04423 512:0.01106 513:0.03317 514:0.03317 518:0.01106 519:0.02211 522:0.01106 524:0.01106 528:0.02211 531:0.01106 532:0.01106 535:0.01106 537:0.01106 539:0.01106 541:0.01106 542:0.01106 545:0.04423 546:0.01106 547:0.04423 548:0.01106 550:0.03317 551:0.03317 553:0.03317 555:0.02211 556:0.01106 558:0.01106 559:0.04423 560:0.01106 561:0.01106 562:0.02211 563:0.01106 564:0.01106 566:0.01106 567:0.02211 570:0.02211 576:0.01106 577:0.01106 578:0.02211 580:0.01106 582:0.01106 584:0.01106 585:0.01106 586:0.01106 589:0.02211 591:0.01106 592:0.01106 593:0.03317 594:0.02211 595:0.02211 596:0.03317 597:0.01106 598:0.01106 599:0.01106 601:0.01106 608:0.01106 609:0.02211 611:0.01106 613:0.05528 617:0.01106 618:0.03317 619:0.02211 624:0.01106 625:0.01106 627:0.01106 628:0.01106 630:0.02211 634:0.02211 635:0.04423 638:0.01106 640:0.02211 641:0.04423 643:0.02211 645:0.01106 652:0.01106 655:0.01106 658:0.01106 659:0.01106 662:0.01106 666:0.01106 667:0.01106 671:0.01106 673:0.01106 675:0.01106 678:0.01106 682:0.01106 687:0.01106 688:0.01106 689:0.02211 691:0.01106 694:0.01106 695:0.01106 698:0.01106 699:0.01106 700:0.02211 702:0.01106 704:0.01106 707:0.01106 713:0.01106 716:0.01106 717:0.01106 723:0.02211 725:0.02211 727:0.01106 729:0.01106 730:0.01106 731:0.01106 732:0.01106 734:0.01106 735:0.01106 737:0.01106 738:0.01106 739:0.01106 742:0.01106 743:0.02211 744:0.01106 745:0.01106 746:0.03317 748:0.01106 751:0.03317 752:0.02211 753:0.01106 754:0.01106 756:0.02211 758:0.01106 759:0.03317 761:0.02211 762:0.04423 763:0.01106 764:0.03317 766:0.01106 768:0.03317 769:0.02211 770:0.02211 771:0.03317 772:0.05528 773:0.02211 776:0.02211 780:0.01106 781:0.02211 782:0.01106 784:0.03317 785:0.01106 786:0.02211 787:0.02211 788:0.02211 790:0.02211 793:0.01106 794:0.01106 798:0.01106 802:0.01106 803:0.01106 805:0.01106 808:0.01106 815:0.01106 816:0.02211 817:0.03317 818:0.02211 819:0.01106 820:0.06634 821:0.02211 822:0.01106 824:0.01106 825:0.01106 826:0.03317 827:0.01106 828:0.03317 829:0.01106 830:0.02211 831:0.01106 832:0.06634 833:0.03317 834:0.01106 835:0.01106 837:0.03317 844:0.01106 846:0.01106 848:0.02211 849:0.01106 850:0.01106 851:0.02211 852:0.01106 854:0.01106 855:0.01106 858:0.02211 860:0.02211 862:0.01106 865:0.02211 866:0.01106 868:0.02211 869:0.02211 870:0.03317 871:0.01106 874:0.01106 876:0.01106 877:0.01106 879:0.01106 885:0.01106 886:0.02211 888:0.01106 890:0.02211 891:0.01106 892:0.01106 896:0.03317 897:0.03317 899:0.01106 900:0.01106 901:0.01106 902:0.01106 905:0.02211 911:0.01106 912:0.02211 913:0.03317 915:0.02211 916:0.02211 917:0.02211 918:0.01106 921:0.01106 922:0.02211 923:0.01106 924:0.01106 925:0.01106 927:0.01106 928:0.02211 929:0.04423 932:0.01106 933:0.02211 934:0.03317 935:0.02211 936:0.03317 938:0.01106 943:0.01106 944:0.01106 948:0.02211 949:0.01106 950:0.01106 951:0.01106 952:0.01106 953:0.02211 957:0.01106 959:0.02211 960:0.02211 961:0.03317 962:0.01106 964:0.02211 965:0.03317 970:0.01106 973:0.03317 975:0.01106 976:0.02211 977:0.01106 979:0.01106 980:0.01106 981:0.03317 982:0.01106 985:0.03317 988:0.02211 989:0.01106 990:0.01106 993:0.01106 997:0.05528 998:0.01106 999:0.01106 1000:0.01106 1001:0.01106 1002:0.01106 1003:0.01106 1005:0.01106 1007:0.01106 1008:0.02211 1009:0.03317 1010:0.02211 1012:0.05528 1013:0.03317 1014:0.02211 1015:0.01106 1017:0.02211 1018:0.01106 1019:0.02211 1020:0.02211 1021:0.03317 1022:0.04423 1023:0.01106 1024:0.03317 1025:0.04423 1026:0.02211 1027:0.02211 1028:0.01106 1030:0.03317 1031:0.03317 1033:0.02211 1034:0.01106 1035:0.01106 1036:0.04423 1037:0.02211 1039:0.03317 1040:0.02211 1041:0.03317 1042:0.03317 1043:0.04423 1044:0.02211 1045:0.02211 1047:0.01106 1050:0.02211 1051:0.01106 1053:0.03317 1054:0.01106 1055:0.04423 1056:0.02211 1059:0.02211 1061:0.01106 1062:0.01106 1066:0.02211 1067:0.01106 1068:0.01106 1069:0.01106 1071:0.01106 1073:0.01106 1076:0.01106 1077:0.02211 1078:0.03317 1081:0.02211 1082:0.01106 1085:0.01106 1086:0.01106 1088:0.04423 1089:0.03317 1090:0.02211 1092:0.01106 1093:0.03317 1094:0.02211 1095:0.01106 1096:0.03317 1099:0.02211 1102:0.01106 1104:0.01106 1105:0.01106 1106:0.02211 1108:0.01106 1112:0.01106 1113:0.01106 1115:0.01106 1118:0.02211 1119:0.01106 1120:0.01106 1124:0.01106 1125:0.01106 1127:0.02211 1130:0.01106 1133:0.02211 1135:0.02211 1139:0.02211 1140:0.01106 1143:0.03317 1144:0.04423 1145:0.01106 1151:0.01106 1152:0.05528 1153:0.02211 1157:0.01106 1159:0.01106 1160:0.01106 1161:0.02211 1162:0.01106 1163:0.01106 1164:0.01106 1165:0.02211 1167:0.02211 1169:0.03317 1170:0.01106 1171:0.01106 1172:0.01106 1173:0.03317 1174:0.02211 1176:0.01106 1177:0.02211 1178:0.02211 1179:0.01106 1180:0.01106 1181:0.03317 1182:0.02211 1184:0.01106 1185:0.01106 1190:0.01106 1193:0.01106 1195:0.01106 1197:0.02211 1198:0.01106 1199:0.01106 1200:0.01106 1206:0.02211 1207:0.01106 1209:0.01106 1214:0.01106 1215:0.04423 1216:0.02211 1217:0.02211 1220:0.01106 1221:0.01106 1222:0.01106 1223:0.01106 1225:0.01106 1226:0.02211 1228:0.02211 1229:0.04423 1230:0.01106 1231:0.02211 1232:0.01106 1233:0.02211 1236:0.01106 1239:0.01106 1240:0.01106 1241:0.01106 1242:0.02211 1243:0.01106 1247:0.02211 1249:0.01106 1251:0.01106 1253:0.02211 1254:0.01106 1256:0.01106 1257:0.01106 1258:0.03317 1262:0.01106 1264:0.01106 1265:0.02211 1266:0.01106 1267:0.01106 1269:0.01106 1270:0.01106 1274:0.02211 1275:0.01106 1277:0.06634 1279:0.03317 1280:0.02211 1281:0.05528 1282:0.03317 1283:0.02211 1284:0.02211 1285:0.0774 1286:0.01106 1287:0.01106 1288:0.01106 1289:0.01106 1291:0.01106 1292:0.02211 1294:0.01106 1295:0.01106 1296:0.01106 1297:0.01106 1299:0.01106 1303:0.01106 1304:0.01106 1310:0.02211 1312:0.03317 1315:0.01106 1316:0.01106 1317:0.03317 1318:0.02211 1319:0.02211 1320:0.04423 1321:0.01106 1324:0.01106 1326:0.01106 1328:0.01106 1329:0.01106 1330:0.01106 1331:0.03317 1332:0.01106 1333:0.01106 1334:0.01106 1335:0.02211 1338:0.01106 1339:0.02211 1340:0.01106 1341:0.01106 1342:0.01106 1344:0.02211 1345:0.03317 1346:0.02211 1347:0.01106 1348:0.01106 1353:0.01106 1354:0.03317 1360:0.01106 1361:0.03317 1367:0.01106 1370:0.02211 1375:0.01106 1378:0.02211 1379:0.01106 1381:0.01106 1382:0.01106 1383:0.03317 1384:0.02211 1388:0.01106 1392:0.01106 1399:0.01106 1400:0.02211 1404:0.02211 1407:0.01106 1409:0.04423 1410:0.02211 1413:0.02211 1416:0.01106 1419:0.01106 1420:0.01106 1423:0.01106 1424:0.01106 1427:0.01106 1428:0.01106 1429:0.03317 1432:0.01106 1433:0.02211 1435:0.02211 1436:0.01106 1438:0.02211 1439:0.01106 1440:0.03317 1449:0.01106 1455:0.01106 1459:0.02211 1463:0.01106 1464:0.01106 1465:0.01106 1470:0.01106 1471:0.01106 1472:0.02211 1477:0.01106 1479:0.02211 1484:0.01106 1490:0.01106 1497:0.01106 1498:0.02211 1499:0.01106 1500:0.01106 1501:0.01106 1502:0.03317 1503:0.01106 1504:0.01106 1505:0.02211 1509:0.01106 1513:0.02211 1517:0.02211 1518:0.01106 1519:0.02211 1529:0.02211 1531:0.01106 1532:0.01106 1535:0.01106 1536:0.02211 1537:0.02211 1538:0.04423 1539:0.02211 1540:0.01106 1543:0.02211 1544:0.03317 1545:0.02211 1546:0.01106 1549:0.01106 1550:0.02211 1552:0.02211 1553:0.01106 1554:0.02211 1555:0.01106 1556:0.01106 1558:0.01106 1560:0.01106 1563:0.01106 1566:0.01106 1567:0.01106 1568:0.02211 1571:0.04423 1574:0.01106 1578:0.01106 1579:0.01106 1580:0.03317 1581:0.02211 1582:0.01106 1583:0.03317 1584:0.01106 1586:0.01106 1589:0.01106 1591:0.04423 1592:0.02211 1594:0.02211 1595:0.02211 1598:0.02211 1600:0.01106 1601:0.01106 1602:0.01106 1603:0.01106 1604:0.01106 1605:0.03317 1608:0.02211 1609:0.03317 1610:0.04423 1612:0.01106 1613:0.03317 1614:0.01106 1616:0.01106 1617:0.01106 1620:0.02211 1621:0.01106 1623:0.02211 1625:0.02211 1626:0.03317 1630:0.01106 1632:0.01106 1633:0.02211 1634:0.01106 1635:0.03317 1636:0.01106 1637:0.02211 1641:0.01106 1642:0.01106 1643:0.03317 1647:0.02211 1651:0.02211 1653:0.01106 1656:0.03317 1658:0.03317 1659:0.02211 1660:0.01106 1661:0.01106 1662:0.01106 1664:0.01106 1665:0.01106 1672:0.01106 1673:0.02211 1676:0.02211 1677:0.01106 1678:0.02211 1679:0.01106 1681:0.02211 1682:0.01106 1683:0.02211 1689:0.02211 1690:0.01106 1692:0.02211 1694:0.01106 1698:0.01106 1700:0.01106 1701:0.03317 1702:0.01106 1703:0.02211 1704:0.01106 1705:0.01106 1707:0.01106 1709:0.01106 1720:0.01106 1723:0.01106 1724:0.01106 1725:0.01106 1727:0.01106 1728:0.02211 1729:0.01106 1735:0.02211 1737:0.02211 1739:0.02211 1740:0.01106 1741:0.01106 1743:0.01106 1749:0.01106 1753:0.01106 1758:0.01106 1759:0.01106 1763:0.02211 1765:0.01106 1766:0.01106 1773:0.01106 1774:0.02211 1775:0.01106 1776:0.01106 1777:0.01106 1783:0.02211 1784:0.02211 1786:0.02211 1787:0.01106 1790:0.02211 1791:0.03317 1793:0.01106 1798:0.01106 1807:0.01106 1809:0.01106 1811:0.02211 1814:0.01106 1816:0.01106 1817:0.01106 1819:0.02211 1820:0.02211 1824:0.02211 1830:0.01106 1831:0.02211 1832:0.01106 1833:0.01106 1839:0.02211 1840:0.01106 1844:0.01106 1848:0.01106 1850:0.01106 1851:0.03317 1852:0.01106 1857:0.01106 1858:0.01106 1859:0.01106 1861:0.01106 1863:0.02211 1864:0.01106 1868:0.01106 1871:0.01106 1872:0.01106 1873:0.01106 1875:0.03317 1877:0.01106 1878:0.01106 1880:0.01106 1882:0.02211 1884:0.02211 1885:0.01106 1889:0.01106 1890:0.02211 1893:0.03317 1894:0.01106 1895:0.03317 1896:0.01106 1897:0.01106 1899:0.01106 1901:0.01106 1902:0.01106 1904:0.01106 1906:0.02211 1908:0.01106 1909:0.02211 1910:0.01106 1911:0.04423 1912:0.04423 1914:0.02211 1915:0.01106 1916:0.02211 1918:0.04423 1919:0.02211 1920:0.03317 1921:0.01106 1922:0.01106 1924:0.01106 1928:0.02211 1932:0.01106 1936:0.01106 1937:0.03317 1938:0.01106 1940:0.02211 1941:0.01106 1943:0.02211 1944:0.01106 1945:0.03317 1946:0.03317 1947:0.01106 1948:0.01106 1951:0.01106 1952:0.01106 1953:0.02211 1954:0.01106 1955:0.03317 1956:0.02211 1960:0.02211 1961:0.01106 1962:0.02211 1964:0.01106 1965:0.01106 1966:0.01106 1968:0.01106 1971:0.02211 1972:0.02211 1973:0.02211 1975:0.01106 1976:0.01106 1977:0.01106 1979:0.01106 1981:0.01106 1983:0.04423 1986:0.01106 1992:0.01106 2000:0.01106 2002:0.01106 2004:0.01106 2008:0.02211 2010:0.01106 2012:0.02211 2013:0.01106 2014:0.01106 2017:0.01106 2019:0.01106 2020:0.01106 2023:0.01106 2025:0.01106 2026:0.02211 2027:0.01106 2029:0.01106 2032:0.01106 2036:0.03317 2037:0.02211 2038:0.02211 2039:0.02211 2041:0.02211 2042:0.02211 2043:0.02211 2044:0.02211 2046:0.02211 2047:0.02211 2048:0.04423 2049:0.02211 2050:0.04423 2051:0.02211 2052:0.04423 2053:0.02211 2054:0.04423 2055:0.02211 2056:0.01106 2057:0.02211 2058:0.02211 2060:0.02211 2061:0.02211 2062:0.01106 2064:0.03317 2070:0.01106 2072:0.01106 2073:0.02211 2074:0.01106 2075:0.01106 2077:0.01106 2078:0.02211 2079:0.01106 2083:0.04423 2086:0.01106 2087:0.01106 2088:0.01106 2094:0.02211 2097:0.02211 2100:0.02211 2103:0.02211 2106:0.01106 2107:0.01106 2109:0.01106 2110:0.02211 2111:0.01106 2112:0.02211 2114:0.02211 2117:0.01106 2118:0.02211 2119:0.02211 2121:0.01106 2122:0.02211 2123:0.01106 2125:0.01106 2127:0.01106 2128:0.02211 2131:0.01106 2134:0.01106 2140:0.01106 2142:0.01106 2143:0.01106 2145:0.01106 2147:0.01106 2153:0.02211 2162:0.01106 2165:0.02211 2167:0.01106 2168:0.01106 2171:0.01106 2172:0.02211 2174:0.02211 2176:0.01106 2177:0.02211 2178:0.02211 2179:0.01106 2180:0.01106 2182:0.01106 2183:0.01106 2184:0.01106 2185:0.02211 2186:0.02211 2187:0.03317 2188:0.04423 2189:0.02211 2190:0.01106 2192:0.01106 2197:0.02211 2198:0.01106 2199:0.01106 2201:0.01106 2202:0.01106 2203:0.02211 2207:0.02211 2209:0.03317 2212:0.01106 2215:0.01106 2218:0.01106 2220:0.02211 2222:0.01106 2223:0.02211 2224:0.01106 2225:0.01106 2228:0.01106 2229:0.01106 2230:0.01106 2231:0.01106 2232:0.01106 2233:0.01106 2234:0.01106 2235:0.02211 2236:0.03317 2237:0.03317 2238:0.02211 2239:0.01106 2240:0.01106 2242:0.01106 2245:0.03317 2249:0.01106 2253:0.01106 2254:0.02211 2255:0.01106 2257:0.01106 2258:0.01106 2261:0.02211 2262:0.02211 2263:0.02211 2265:0.03317 2266:0.02211 2268:0.02211 2270:0.01106 2272:0.02211 2273:0.01106 2276:0.01106 2277:0.03317 2279:0.01106 2281:0.01106 2282:0.02211 2284:0.01106 2287:0.01106 2290:0.01106 2292:0.01106 2295:0.02211 2297:0.01106 2298:0.01106 2299:0.01106 2300:0.02211 2302:0.01106 2304:0.02211 2305:0.03317 2306:0.01106 2307:0.02211 2308:0.01106 2309:0.01106 2310:0.01106 2311:0.02211 2312:0.04423 2313:0.01106 2317:0.01106 2318:0.01106 2319:0.02211 2320:0.04423 2322:0.04423 2325:0.03317 2328:0.01106 2329:0.01106 2330:0.01106 2334:0.01106 2336:0.03317 2338:0.02211 2339:0.02211 2340:0.02211 2341:0.03317 2342:0.02211 2343:0.03317 2344:0.02211 2348:0.01106 2352:0.03317 2353:0.01106 2354:0.02211 2355:0.01106 2356:0.03317 2359:0.02211 2360:0.02211 2362:0.02211 2363:0.01106 2364:0.01106 2366:0.01106 2367:0.01106 2368:0.02211 2369:0.06634 2370:0.03317 2371:0.02211 2372:0.01106 2376:0.03317 2378:0.02211 2381:0.04423 2382:0.02211 2383:0.03317 2384:0.01106 2387:0.02211 2388:0.01106 2389:0.01106 2392:0.01106 2393:0.02211 2394:0.04423 2396:0.01106 2398:0.01106 2401:0.02211 2402:0.01106 2404:0.01106 2406:0.01106 2407:0.01106 2408:0.03317 2413:0.01106 2415:0.01106 2418:0.01106 2423:0.01106 2425:0.01106 2431:0.02211 2432:0.01106 2433:0.02211 2434:0.02211 2435:0.01106 2438:0.01106 2440:0.01106 2441:0.01106 2442:0.01106 2443:0.02211 2444:0.04423 2445:0.01106 2446:0.02211 2447:0.02211 2448:0.01106 2449:0.03317 2450:0.01106 2451:0.03317 2452:0.02211 2455:0.01106 2456:0.01106 2457:0.02211 2461:0.02211 2462:0.01106 2463:0.02211 2465:0.01106 2467:0.02211 2468:0.02211 2469:0.02211 2471:0.03317 2474:0.04423 2475:0.02211 2476:0.01106 2482:0.01106 2484:0.01106 2489:0.01106 2490:0.01106 2492:0.01106 2494:0.01106 2495:0.02211 2496:0.02211 2497:0.01106 2498:0.01106 2500:0.01106 2506:0.02211 2508:0.02211 2511:0.02211 2514:0.01106 2517:0.02211 2522:0.01106 2526:0.02211 2527:0.01106 2528:0.03317 2529:0.01106 2533:0.03317 2534:0.02211 2535:0.04423 2536:0.01106 2537:0.05528 2538:0.02211 2539:0.03317 2540:0.01106 2542:0.02211 2545:0.01106 2546:0.01106 2549:0.01106 2551:0.01106 2552:0.01106 2553:0.01106 2556:0.01106 2557:0.01106 2558:0.02211 2559:0.01106 2560:0.02211 2561:0.04423 2562:0.02211 2563:0.02211 2564:0.02211 2568:0.01106 2569:0.01106 2572:0.01106 2573:0.02211 2575:0.01106 2576:0.01106 2578:0.02211 2580:0.01106 2584:0.01106 2585:0.01106 2590:0.01106 2591:0.02211 2593:0.01106 2594:0.01106 2595:0.01106 2596:0.02211 2600:0.02211 2608:0.04423 2612:0.01106 2613:0.01106 2614:0.04423 2616:0.01106 2617:0.01106 2619:0.01106 2623:0.03317 2625:0.02211 2626:0.02211 2628:0.01106 2629:0.01106 2630:0.02211 2631:0.01106 2632:0.01106 2634:0.02211 2636:0.02211 2637:0.01106 2639:0.01106 2640:0.01106 2641:0.05528 2642:0.01106 2644:0.03317 2647:0.01106 2648:0.01106 2655:0.01106 2659:0.01106 2660:0.03317 2662:0.02211 2665:0.02211 2666:0.01106 2667:0.01106 2669:0.02211 2672:0.01106 2675:0.01106 2679:0.01106 2680:0.03317 2681:0.01106 2682:0.02211 2683:0.02211 2684:0.01106 2686:0.01106 2687:0.01106 2688:0.02211 2689:0.02211 2692:0.01106 2693:0.01106 2697:0.01106 2700:0.01106 2702:0.02211 2705:0.02211 2706:0.02211 2708:0.01106 2709:0.01106 2712:0.01106 2713:0.02211 2716:0.01106 2718:0.01106 2719:0.02211 2721:0.01106 2723:0.01106 2724:0.01106 2725:0.01106 2728:0.01106 2729:0.01106 2734:0.01106 2739:0.01106 2740:0.02211 2743:0.01106 2748:0.01106 2750:0.01106 2752:0.02211 2753:0.02211 2754:0.01106 2761:0.02211 2765:0.01106 2767:0.01106 2772:0.01106 2773:0.01106 2777:0.01106 2778:0.01106 2782:0.01106 2789:0.01106 2790:0.02211 2792:0.01106 2796:0.02211 2797:0.01106 2798:0.02211 2799:0.02211 2803:0.01106 2805:0.01106 2808:0.01106 2810:0.01106 2811:0.01106 2812:0.01106 2814:0.04423 2815:0.03317 2816:0.03317 2817:0.01106 2820:0.02211 2824:0.01106 2826:0.01106 2830:0.01106 2831:0.01106 2832:0.01106 2841:0.01106 2842:0.01106 2849:0.03317 2851:0.02211 2857:0.02211 2858:0.01106 2862:0.01106 2864:0.03317 2865:0.04423 2868:0.02211 2871:0.01106 2872:0.02211 2874:0.02211 2875:0.01106 2882:0.01106 2885:0.02211 2888:0.01106 2889:0.01106 2892:0.01106 2896:0.02211 2897:0.04423 2899:0.01106 2903:0.01106 2905:0.01106 2909:0.01106 2914:0.02211 2915:0.02211 2916:0.01106 2917:0.01106 2919:0.01106 2922:0.01106 2923:0.02211 2925:0.01106 2928:0.01106 2932:0.01106 2933:0.01106 2934:0.01106 2936:0.01106 2937:0.01106 2938:0.02211 2945:0.01106 2947:0.01106 2949:0.03317 2953:0.01106 2954:0.01106 2955:0.01106 2956:0.01106 2957:0.01106 2958:0.01106 2960:0.01106 2961:0.01106 2963:0.01106 2965:0.01106 2966:0.02211 2967:0.01106 2968:0.01106 2969:0.03317 2970:0.01106 2972:0.01106 2973:0.01106 2975:0.01106 2977:0.01106 2980:0.01106 2982:0.01106 2984:0.02211 2991:0.02211 2992:0.02211 2996:0.02211 2997:0.01106 2998:0.02211 2999:0.02211 3001:0.02211 3002:0.04423 3004:0.03317 3005:0.01106 3007:0.03317 3008:0.01106 3009:0.01106 3011:0.01106 3012:0.01106 3014:0.01106 3018:0.01106 3021:0.01106 3022:0.01106 3024:0.02211 3027:0.01106 3029:0.01106 3033:0.01106 3034:0.02211 3035:0.02211 3037:0.01106 3038:0.02211 3041:0.01106 3042:0.01106 3043:0.01106 3044:0.01106 3045:0.03317 3046:0.02211 3047:0.01106 3048:0.02211 3049:0.03317 3050:0.03317 3051:0.02211 3052:0.02211 3053:0.01106 3054:0.02211 3055:0.02211 3056:0.01106 3060:0.02211 3062:0.02211 3063:0.04423 3064:0.03317 3065:0.01106 3066:0.01106 3067:0.03317 3068:0.01106 3070:0.04423 3071:0.02211 3072:0.01106 3073:0.02211 3076:0.03317 3077:0.02211 3081:0.01106 3082:0.01106 3084:0.01106 3085:0.02211 3087:0.06634 3088:0.02211 3090:0.01106 3091:0.01106 3092:0.01106 3095:0.01106 3097:0.01106 3101:0.01106 3102:0.03317 3109:0.01106 3111:0.01106 3120:0.01106 3121:0.04423 3124:0.01106 3125:0.02211 3129:0.02211 3131:0.01106 3132:0.01106 3134:0.01106 3135:0.01106 3136:0.03317 3137:0.02211 3138:0.01106 3139:0.01106 3140:0.01106 3142:0.01106 3143:0.01106 3145:0.02211 3147:0.02211 3149:0.02211 3155:0.01106 3157:0.02211 3159:0.01106 3167:0.02211 3168:0.01106 3169:0.01106 3170:0.01106 3171:0.01106 3172:0.01106 3174:0.02211 3178:0.01106 3183:0.02211 3191:0.02211 3199:0.01106 3200:0.01106 3202:0.01106 3203:0.01106 3204:0.01106 3205:0.01106 3209:0.02211 3211:0.01106 3217:0.01106 3218:0.01106 3220:0.01106 3221:0.01106 3226:0.02211 3231:0.03317 3233:0.01106 3234:0.01106 3235:0.01106 3237:0.01106 3256:0.01106 3257:0.01106 3260:0.02211 3261:0.01106 3262:0.01106 3263:0.03317 3264:0.01106 3265:0.03317 3266:0.01106 3268:0.03317 3269:0.03317 3270:0.01106 3271:0.01106 3272:0.01106 3276:0.01106 3277:0.02211 3278:0.01106 3279:0.04423 3280:0.05528 3281:0.01106 3282:0.01106 3287:0.01106 3290:0.01106 3294:0.02211 3295:0.02211 3296:0.01106 3297:0.01106 3301:0.01106 3302:0.01106 3303:0.03317 3304:0.02211 3305:0.01106 3306:0.04423 3308:0.01106 3309:0.02211 3310:0.01106 3312:0.02211 3313:0.03317 3316:0.02211 3317:0.01106 3318:0.02211 3319:0.01106 3322:0.01106 3324:0.01106 3325:0.02211 3326:0.02211 3327:0.02211 3328:0.05528 3330:0.01106 3331:0.02211 3332:0.02211 3333:0.02211 3336:0.02211 3338:0.01106 3339:0.02211 3342:0.01106 3345:0.02211 3346:0.02211 3347:0.01106 3348:0.02211 3354:0.01106 3355:0.01106 3357:0.01106 3358:0.01106 3359:0.01106 3362:0.01106 3366:0.01106 3370:0.01106 3372:0.01106 3375:0.01106 3376:0.02211 3380:0.01106 3381:0.01106 3382:0.01106 3385:0.02211 3389:0.02211 3391:0.02211 3392:0.03317 3393:0.01106 3394:0.03317 3395:0.01106 3396:0.01106 3397:0.01106 3400:0.01106 3401:0.01106 3402:0.05528 3403:0.02211 3405:0.01106 3406:0.01106 3407:0.01106 3408:0.02211 3409:0.01106 3411:0.01106 3413:0.01106 3414:0.01106 3415:0.01106 3417:0.01106 3419:0.01106 3423:0.01106 3424:0.01106 3427:0.01106 3429:0.01106 3430:0.02211 3431:0.01106 3432:0.01106 3438:0.02211 3440:0.02211 3442:0.02211 3443:0.01106 3445:0.01106 3448:0.03317 3451:0.01106 3456:0.01106 3457:0.03317 3458:0.01106 3460:0.03317 3461:0.02211 3462:0.01106 3463:0.01106 3464:0.01106 3465:0.02211 3467:0.01106 3470:0.03317 3471:0.01106 3472:0.01106 3474:0.03317 3475:0.03317 3476:0.01106 3478:0.02211 3479:0.02211 3481:0.02211 3482:0.02211 3483:0.02211 3484:0.01106 3486:0.01106 3487:0.02211 3490:0.01106 3493:0.01106 3495:0.02211 3496:0.01106 3497:0.01106 3498:0.02211 3503:0.01106 3504:0.04423 3505:0.01106 3506:0.01106 3507:0.01106 3508:0.01106 3510:0.01106 3512:0.01106 3514:0.01106 3517:0.01106 3518:0.02211 3520:0.01106 3526:0.02211 3527:0.02211 3528:0.01106 3534:0.01106 3535:0.01106 3537:0.02211 3538:0.01106 3540:0.02211 3541:0.02211 3542:0.01106 3543:0.02211 3545:0.02211 3546:0.01106 3548:0.01106 3549:0.02211 3550:0.02211 3551:0.02211 3552:0.04423 3554:0.01106 3557:0.02211 3559:0.03317 3560:0.01106 3561:0.01106 3563:0.01106 3565:0.02211 3566:0.01106 3568:0.02211 3573:0.01106 3574:0.01106 3575:0.02211 3578:0.01106 3579:0.01106 3581:0.01106 3582:0.02211 3583:0.02211 3584:0.03317 3585:0.03317 3587:0.02211 3588:0.03317 3590:0.01106 3593:0.01106 3594:0.01106 3597:0.01106 3599:0.01106 3600:0.01106 3601:0.01106 3602:0.01106 3603:0.02211 3604:0.01106 3605:0.01106 3614:0.01106 3616:0.01106 3617:0.01106 3618:0.01106 3619:0.02211 3620:0.01106 3623:0.01106 3625:0.01106 3630:0.02211 3632:0.01106 3636:0.02211 3638:0.01106 3639:0.01106 3641:0.01106 3643:0.01106 3644:0.01106 3645:0.02211 3647:0.02211 3648:0.01106 3649:0.03317 3650:0.03317 3652:0.05528 3654:0.01106 3655:0.01106 3657:0.02211 3658:0.03317 3659:0.01106 3661:0.01106 3662:0.03317 3663:0.02211 3664:0.01106 3665:0.03317 3668:0.02211 3669:0.01106 3670:0.01106 3671:0.03317 3673:0.01106 3674:0.02211 3676:0.02211 3677:0.01106 3680:0.01106 3681:0.01106 3682:0.01106 3683:0.03317 3684:0.02211 3685:0.02211 3687:0.02211 3688:0.05528 3689:0.01106 3691:0.01106 3695:0.01106 3696:0.03317 3697:0.02211 3700:0.01106 3706:0.03317 3707:0.03317 3709:0.01106 3711:0.01106 3712:0.01106 3713:0.03317 3714:0.01106 3716:0.03317 3717:0.01106 3718:0.01106 3719:0.01106 3720:0.02211 3721:0.02211 3722:0.02211 3726:0.02211 3728:0.03317 3729:0.01106 3730:0.01106 3731:0.01106 3732:0.02211 3733:0.08845 3734:0.01106 3739:0.03317 3741:0.01106 3742:0.02211 3743:0.03317 3744:0.04423 3745:0.01106 3747:0.01106 3749:0.01106 3751:0.01106 3752:0.01106 3753:0.01106 3754:0.01106 3756:0.01106 3757:0.02211 3760:0.02211 3761:0.01106 3765:0.01106 3770:0.03317 3772:0.01106 3775:0.02211 3776:0.05528 3780:0.03317 3787:0.01106 3788:0.02211 3789:0.03317 3790:0.03317 3791:0.01106 3793:0.01106 3794:0.03317 3796:0.01106 3797:0.01106 3798:0.01106 3800:0.01106 3801:0.02211 3803:0.02211 3804:0.01106 3805:0.01106 3807:0.01106 3809:0.01106 3810:0.02211 3811:0.01106 3812:0.03317 3814:0.01106 3815:0.03317 3817:0.01106 3820:0.01106 3822:0.01106 3823:0.03317 3824:0.02211 3825:0.01106 3828:0.02211 3833:0.02211 3834:0.01106 3835:0.0774 3836:0.02211 3837:0.02211 3838:0.02211 3840:0.01106 3841:0.01106 3844:0.03317 3845:0.01106 3847:0.01106 3848:0.01106 3850:0.01106 3853:0.03317 3855:0.02211 3856:0.01106 3857:0.03317 3861:0.01106 3864:0.02211 3865:0.01106 3870:0.01106 3877:0.02211 3880:0.01106 3890:0.04423 3892:0.03317 3896:0.01106 3898:0.01106 3899:0.01106 3900:0.01106 3901:0.04423 3902:0.02211 3903:0.01106 3904:0.05528 3905:0.01106 3906:0.01106 3907:0.01106 3908:0.01106 3909:0.01106 3912:0.01106 3914:0.01106 3915:0.02211 3917:0.01106 3918:0.01106 3919:0.01106 3920:0.02211 3922:0.01106 3923:0.02211 3924:0.04423 3925:0.01106 3926:0.01106 3928:0.01106 3930:0.01106 3933:0.01106 3934:0.03317 3935:0.01106 3936:0.01106 3937:0.04423 3939:0.01106 3940:0.02211 3941:0.01106 3943:0.02211 3944:0.02211 3946:0.02211 3948:0.04423 3949:0.01106 3950:0.01106 3952:0.02211 3954:0.03317 3957:0.01106 3958:0.01106 3960:0.04423 3964:0.02211 3968:0.02211 3969:0.03317 3972:0.01106 3973:0.01106 3977:0.02211 3980:0.01106 3981:0.01106 3982:0.01106 3983:0.02211 3984:0.01106 3985:0.04423 3986:0.01106 3987:0.03317 3988:0.03317 3989:0.01106 3990:0.02211 3991:0.02211 3994:0.03317 3996:0.01106 3997:0.01106 3999:0.03317 4002:0.04423 4003:0.01106 4004:0.01106 4005:0.03317 4006:0.05528 4007:0.01106 4008:0.03317 4009:0.01106 4011:0.03317 4012:0.03317 4015:0.01106 4016:0.03317 4017:0.03317 4019:0.01106 4020:0.01106 4021:0.01106 4023:0.01106 4025:0.02211 4027:0.01106 4028:0.03317 4031:0.03317 4032:0.02211 4034:0.01106 4036:0.03317 4038:0.02211 4039:0.01106 4042:0.01106 4045:0.03317 4047:0.02211 4048:0.0774 4049:0.03317 4050:0.01106 4051:0.01106 4052:0.03317 4053:0.03317 4054:0.02211 4055:0.01106 4056:0.04423 4057:0.03317 4058:0.02211 4059:0.04423 4062:0.02211 4063:0.02211 4064:0.02211 4065:0.01106 4067:0.01106 4068:0.03317 4069:0.03317 4070:0.02211 4071:0.01106 4072:0.01106 4073:0.01106 4074:0.06634 4075:0.03317 4076:0.02211 4077:0.02211 4079:0.03317 4080:0.01106 4081:0.01106 4082:0.01106 4083:0.01106 4084:0.02211 4085:0.03317 4086:0.04423 4087:0.02211 4088:0.03317 4090:0.03317 4091:0.05528 4092:0.01106 4093:0.02211 4094:0.02211 4095:0.04423 4096:0.04423 
52.91274527548121 1:0.03315 3:0.0663 5:0.0663 7:0.03315 9:0.03315 11:0.03315 12:0.03315 18:0.0663 19:0.03315 26:0.03315 30:0.03315 35:0.03315 37:0.03315 41:0.03315 46:0.03315 54:0.03315 56:0.03315 69:0.03315 72:0.03315 73:0.03315 75:0.03315 79:0.03315 101:0.03315 111:0.03315 118:0.03315 119:0.03315 124:0.03315 137:0.03315 143:0.03315 145:0.03315 147:0.03315 164:0.03315 174:0.03315 181:0.03315 216:0.03315 222:0.0663 223:0.03315 225:0.03315 231:0.03315 233:0.03315 247:0.03315 271:0.03315 275:0.03315 282:0.03315 286:0.03315 292:0.03315 300:0.03315 304:0.03315 314:0.03315 315:0.03315 316:0.0663 321:0.03315 331:0.03315 337:0.03315 338:0.03315 365:0.03315 377:0.03315 380:0.03315 383:0.03315 385:0.03315 395:0.0663 399:0.03315 402:0.03315 403:0.03315 404:0.03315 418:0.03315 431:0.03315 437:0.03315 442:0.03315 443:0.03315 446:0.03315 453:0.03315 469:0.03315 471:0.03315 473:0.0663 479:0.03315 483:0.03315 490:0.0663 491:0.03315 495:0.03315 512:0.03315 514:0.03315 530:0.03315 547:0.03315 554:0.03315 558:0.03315 562:0.03315 569:0.03315 574:0.03315 575:0.03315 576:0.03315 578:0.03315 580:0.0663 584:0.03315 585:0.03315 594:0.0663 629:0.03315 631:0.09945 633:0.0663 642:0.03315 647:0.03315 648:0.03315 655:0.03315 656:0.03315 658:0.03315 665:0.03315 673:0.03315 689:0.03315 693:0.03315 695:0.03315 724:0.03315 728:0.03315 741:0.03315 742:0.03315 744:0.03315 745:0.03315 747:0.03315 752:0.03315 758:0.03315 762:0.03315 766:0.03315 772:0.03315 793:0.03315 842:0.03315 845:0.03315 862:0.03315 864:0.03315 877:0.03315 885:0.0663 890:0.03315 892:0.03315 894:0.03315 897:0.03315 899:0.03315 902:0.03315 903:0.03315 904:0.03315 906:0.03315 911:0.03315 918:0.03315 924:0.03315 930:0.03315 931:0.0663 938:0.03315 947:0.03315 950:0.03315 954:0.03315 957:0.03315 979:0.03315 985:0.03315 998:0.03315 1000:0.0663 1007:0.03315 1010:0.03315 1012:0.03315 1026:0.03315 1027:0.03315 1034:0.03315 1043:0.03315 1055:0.03315 1068:0.03315 1080:0.03315 1081:0.03315 1082:0.03315 1083:0.03315 1092:0.03315 1100:0.03315 1103:0.03315 1109:0.03315 1116:0.03315 1125:0.0663 1129:0.03315 1134:0.03315 1136:0.03315 1138:0.03315 1142:0.03315 1143:0.03315 1145:0.03315 1147:0.09945 1157:0.03315 1164:0.03315 1165:0.03315 1168:0.03315 1169:0.0663 1170:0.03315 1173:0.0663 1182:0.0663 1189:0.03315 1197:0.03315 1198:0.03315 1210:0.03315 1211:0.0663 1215:0.03315 1217:0.03315 1235:0.03315 1236:0.03315 1240:0.03315 1244:0.03315 1248:0.03315 1250:0.03315 1254:0.03315 1257:0.03315 1259:0.03315 1261:0.03315 1262:0.03315 1263:0.03315 1264:0.03315 1274:0.0663 1276:0.03315 1281:0.03315 1283:0.03315 1302:0.03315 1303:0.03315 1307:0.03315 1308:0.03315 1311:0.0663 1314:0.03315 1317:0.03315 1322:0.03315 1327:0.09945 1334:0.03315 1337:0.03315 1340:0.03315 1343:0.03315 1345:0.03315 1351:0.03315 1352:0.03315 1356:0.03315 1359:0.03315 1397:0.03315 1418:0.03315 1458:0.03315 1467:0.03315 1491:0.03315 1493:0.0663 1500:0.0663 1502:0.03315 1507:0.03315 1516:0.03315 1520:0.03315 1530:0.03315 1536:0.03315 1537:0.03315 1538:0.03315 1552:0.03315 1560:0.03315 1576:0.09945 1577:0.0663 1583:0.03315 1584:0.03315 1593:0.03315 1601:0.03315 1605:0.03315 1610:0.03315 1616:0.03315 1621:0.03315 1630:0.03315 1669:0.03315 1676:0.03315 1723:0.03315 1729:0.03315 1734:0.03315 1742:0.03315 1748:0.03315 1749:0.03315 1752:0.03315 1765:0.03315 1766:0.03315 1769:0.03315 1771:0.03315 1774:0.03315 1782:0.03315 1792:0.03315 1812:0.03315 1866:0.0663 1867:0.03315 1868:0.03315 1870:0.03315 1874:0.03315 1876:0.0663 1881:0.03315 1889:0.03315 1890:0.03315 1891:0.0663 1897:0.03315 1902:0.0663 1912:0.03315 1913:0.03315 1920:0.03315 1924:0.03315 1926:0.03315 1929:0.09945 1931:0.03315 1935:0.03315 1938:0.03315 1948:0.03315 1952:0.03315 1957:0.1326 1962:0.03315 1966:0.03315 1980:0.03315 1983:0.03315 1984:0.03315 1990:0.03315 2004:0.03315 2022:0.03315 2043:0.03315 2047:0.03315 2048:0.0663 2049:0.03315 2050:0.0663 2053:0.03315 2056:0.03315 2076:0.03315 2078:0.03315 2084:0.03315 2104:0.03315 2110:0.0663 2119:0.03315 2127:0.03315 2131:0.03315 2133:0.03315 2143:0.03315 2144:0.03315 2147:0.0663 2159:0.03315 2168:0.03315 2176:0.03315 2177:0.03315 2187:0.03315 2192:0.0663 2206:0.0663 2207:0.0663 2209:0.03315 2210:0.0663 2212:0.03315 2215:0.03315 2217:0.03315 2230:0.03315 2234:0.03315 2236:0.03315 2238:0.03315 2240:0.03315 2247:0.03315 2273:0.03315 2274:0.0663 2275:0.03315 2281:0.03315 2293:0.03315 2298:0.03315 2301:0.0663 2305:0.03315 2309:0.03315 2312:0.03315 2315:0.03315 2318:0.03315 2319:0.0663 2321:0.03315 2324:0.03315 2330:0.03315 2332:0.03315 2333:0.03315 2334:0.03315 2335:0.03315 2340:0.03315 2341:0.0663 2364:0.03315 2367:0.03315 2374:0.0663 2377:0.03315 2378:0.03315 2380:0.0663 2387:0.03315 2388:0.03315 2424:0.03315 2427:0.03315 2433:0.03315 2449:0.03315 2454:0.03315 2490:0.03315 2492:0.03315 2496:0.03315 2516:0.03315 2521:0.0663 2523:0.03315 2530:0.03315 2531:0.0663 2532:0.03315 2533:0.03315 2535:0.03315 2538:0.03315 2546:0.03315 2559:0.03315 2561:0.03315 2567:0.03315 2568:0.03315 2580:0.03315 2582:0.03315 2585:0.0663 2590:0.03315 2601:0.0663 2607:0.03315 2608:0.03315 2619:0.03315 2624:0.03315 2627:0.03315 2628:0.03315 2629:0.03315 2631:0.03315 2632:0.03315 2639:0.03315 2657:0.03315 2661:0.03315 2681:0.0663 2689:0.03315 2690:0.03315 2708:0.03315 2714:0.03315 2742:0.03315 2747:0.03315 2755:0.03315 2759:0.03315 2771:0.03315 2772:0.03315 2773:0.03315 2777:0.03315 2794:0.0663 2820:0.03315 2826:0.03315 2837:0.03315 2843:0.03315 2863:0.03315 2872:0.03315 2890:0.03315 2894:0.0663 2895:0.03315 2898:0.03315 2900:0.03315 2908:0.03315 2910:0.0663 2915:0.03315 2939:0.03315 2961:0.03315 2963:0.03315 2965:0.0663 2968:0.03315 2972:0.03315 2975:0.03315 2978:0.03315 2979:0.03315 2984:0.0663 2985:0.03315 2988:0.03315 3000:0.03315 3008:0.0663 3009:0.03315 3030:0.03315 3032:0.03315 3045:0.03315 3048:0.03315 3063:0.03315 3064:0.03315 3070:0.0663 3071:0.03315 3073:0.03315 3086:0.0663 3092:0.03315 3109:0.03315 3151:0.03315 3153:0.03315 3167:0.03315 3169:0.03315 3172:0.03315 3180:0.03315 3258:0.03315 3295:0.03315 3300:0.03315 3363:0.03315 3366:0.0663 3368:0.0663 3372:0.03315 3375:0.03315 3377:0.03315 3381:0.0663 3383:0.03315 3384:0.03315 3387:0.03315 3391:0.03315 3399:0.03315 3400:0.03315 3406:0.03315 3407:0.03315 3408:0.03315 3410:0.03315 3422:0.03315 3427:0.03315 3439:0.03315 3446:0.0663 3447:0.0663 3456:0.03315 3460:0.03315 3462:0.03315 3466:0.0663 3468:0.0663 3480:0.03315 3491:0.03315 3505:0.03315 3508:0.03315 3510:0.0663 3539:0.09945 3552:0.03315 3553:0.03315 3560:0.03315 3562:0.03315 3568:0.03315 3573:0.03315 3584:0.03315 3585:0.03315 3593:0.03315 3598:0.03315 3605:0.03315 3608:0.03315 3612:0.03315 3616:0.03315 3617:0.03315 3620:0.0663 3624:0.03315 3627:0.03315 3641:0.0663 3650:0.03315 3655:0.03315 3656:0.03315 3658:0.03315 3667:0.1326 3669:0.03315 3679:0.03315 3686:0.03315 3695:0.0663 3696:0.03315 3706:0.0663 3707:0.03315 3709:0.03315 3712:0.03315 3718:0.03315 3719:0.03315 3723:0.0663 3724:0.03315 3729:0.0663 3730:0.0663 3743:0.0663 3745:0.03315 3749:0.03315 3751:0.03315 3758:0.03315 3759:0.03315 3762:0.03315 3765:0.03315 3788:0.03315 3799:0.03315 3807:0.03315 3814:0.03315 3815:0.03315 3824:0.03315 3825:0.03315 3834:0.03315 3838:0.03315 3840:0.0663 3841:0.03315 3845:0.03315 3864:0.03315 3865:0.03315 3897:0.03315 3913:0.03315 3918:0.03315 3920:0.03315 3925:0.03315 3928:0.03315 3934:0.03315 3939:0.03315 3942:0.03315 3949:0.03315 3957:0.03315 3986:0.03315 3989:0.0663 3994:0.03315 3999:0.0663 4000:0.03315 4012:0.03315 4013:0.03315 4026:0.03315 4034:0.03315 4039:0.03315 4047:0.03315 4052:0.03315 4054:0.03315 4058:0.03315 4060:0.03315 4062:0.03315 4071:0.03315 4075:0.03315 4076:0.03315 4081:0.03315 4085:0.03315 4086:0.03315 4087:0.03315 4090:0.03315 4091:0.03315 4093:0.03315 4094:0.03315 4096:0.03315 
