svm_type c_svc
kernel_type rbf
gamma 0.5
nr_class 2
total_sv 150
rho 0.945748
label 1 -1
nr_sv 74 76
SV
0.03125 1:0.03916 2:0.03916 3:0.03916 4:0.07833 5:0.03916 11:0.03916 12:0.03916 13:0.03916 15:0.11749 18:0.03916 42:0.07833 46:0.03916 49:0.03916 50:0.03916 51:0.03916 52:0.03916 54:0.03916 58:0.11749 60:0.07833 65:0.03916 68:0.03916 71:0.03916 75:0.03916 80:0.03916 147:0.03916 159:0.03916 161:0.03916 165:0.03916 166:0.03916 183:0.03916 196:0.03916 198:0.03916 204:0.03916 205:0.03916 213:0.03916 230:0.07833 232:0.03916 233:0.03916 239:0.07833 240:0.03916 244:0.03916 245:0.03916 249:0.07833 257:0.03916 259:0.03916 260:0.03916 261:0.07833 271:0.03916 273:0.03916 275:0.03916 281:0.03916 282:0.03916 289:0.03916 292:0.03916 293:0.03916 300:0.03916 317:0.03916 320:0.07833 330:0.03916 380:0.03916 391:0.03916 397:0.03916 406:0.03916 410:0.03916 423:0.03916 464:0.03916 487:0.03916 512:0.03916 513:0.03916 517:0.03916 564:0.07833 581:0.03916 586:0.03916 592:0.03916 602:0.03916 629:0.03916 633:0.03916 634:0.03916 635:0.03916 639:0.03916 641:0.03916 657:0.03916 660:0.07833 661:0.03916 698:0.03916 718:0.03916 727:0.03916 730:0.03916 747:0.03916 772:0.07833 784:0.03916 789:0.03916 801:0.03916 804:0.03916 814:0.03916 817:0.03916 819:0.03916 820:0.07833 824:0.07833 827:0.03916 832:0.03916 852:0.03916 855:0.03916 878:0.03916 884:0.03916 892:0.03916 906:0.03916 913:0.03916 914:0.03916 915:0.03916 917:0.03916 920:0.07833 927:0.03916 930:0.03916 932:0.03916 954:0.07833 958:0.03916 971:0.03916 976:0.03916 978:0.03916 993:0.03916 994:0.03916 1008:0.03916 1010:0.03916 1012:0.07833 1013:0.03916 1018:0.03916 1020:0.03916 1022:0.07833 1024:0.07833 1025:0.07833 1035:0.03916 1037:0.03916 1039:0.03916 1041:0.03916 1043:0.03916 1061:0.03916 1064:0.03916 1065:0.03916 1083:0.03916 1085:0.03916 1086:0.03916 1090:0.07833 1093:0.07833 1095:0.03916 1097:0.03916 1098:0.03916 1104:0.07833 1119:0.03916 1122:0.03916 1126:0.03916 1127:0.03916 1146:0.03916 1154:0.03916 1165:0.03916 1170:0.03916 1172:0.03916 1175:0.03916 1182:0.03916 1183:0.07833 1184:0.03916 1189:0.03916 1199:0.03916 1211:0.03916 1217:0.03916 1225:0.03916 1229:0.03916 1238:0.03916 1251:0.03916 1253:0.03916 1267:0.03916 1276:0.03916 1277:0.03916 1279:0.03916 1280:0.11749 1298:0.03916 1299:0.03916 1311:0.03916 1320:0.03916 1332:0.03916 1343:0.03916 1352:0.03916 1385:0.03916 1427:0.03916 1442:0.03916 1449:0.03916 1463:0.03916 1476:0.03916 1511:0.03916 1520:0.03916 1530:0.03916 1535:0.03916 1536:0.03916 1537:0.03916 1555:0.03916 1563:0.03916 1568:0.03916 1586:0.03916 1605:0.03916 1610:0.03916 1611:0.03916 1612:0.03916 1621:0.03916 1628:0.03916 1637:0.03916 1647:0.03916 1672:0.03916 1689:0.03916 1695:0.03916 1700:0.03916 1749:0.03916 1756:0.03916 1761:0.03916 1775:0.03916 1776:0.03916 1807:0.03916 1844:0.03916 1850:0.03916 1856:0.03916 1871:0.03916 1922:0.03916 1940:0.03916 1945:0.03916 1946:0.03916 1947:0.03916 1952:0.03916 1965:0.03916 1975:0.03916 1979:0.03916 1980:0.03916 1983:0.03916 2017:0.03916 2021:0.03916 2022:0.03916 2044:0.03916 2046:0.03916 2048:0.03916 2049:0.07833 2051:0.03916 2052:0.07833 2061:0.03916 2065:0.03916 2068:0.03916 2111:0.03916 2113:0.03916 2121:0.03916 2148:0.03916 2154:0.03916 2164:0.03916 2176:0.03916 2207:0.03916 2248:0.03916 2253:0.07833 2277:0.03916 2301:0.03916 2305:0.03916 2308:0.03916 2314:0.03916 2315:0.03916 2321:0.03916 2322:0.03916 2324:0.07833 2328:0.03916 2341:0.03916 2342:0.03916 2344:0.03916 2346:0.03916 2351:0.03916 2353:0.03916 2355:0.03916 2358:0.03916 2361:0.03916 2368:0.11749 2373:0.07833 2386:0.03916 2405:0.03916 2414:0.03916 2417:0.03916 2426:0.03916 2432:0.07833 2433:0.03916 2437:0.03916 2440:0.03916 2451:0.03916 2460:0.03916 2472:0.03916 2489:0.03916 2492:0.03916 2516:0.03916 2529:0.03916 2533:0.03916 2535:0.03916 2536:0.03916 2540:0.03916 2543:0.03916 2553:0.03916 2554:0.03916 2561:0.03916 2585:0.03916 2589:0.03916 2618:0.03916 2624:0.03916 2627:0.03916 2637:0.03916 2640:0.07833 2642:0.03916 2656:0.03916 2658:0.03916 2671:0.03916 2682:0.03916 2703:0.03916 2716:0.03916 2768:0.03916 2789:0.03916 2820:0.03916 2871:0.03916 2880:0.03916 2884:0.03916 2900:0.03916 2907:0.03916 2917:0.03916 2918:0.03916 2927:0.03916 2945:0.03916 2948:0.03916 2961:0.07833 2964:0.03916 2969:0.03916 2975:0.03916 2981:0.03916 2982:0.03916 2986:0.03916 3001:0.03916 3002:0.03916 3003:0.03916 3008:0.03916 3027:0.03916 3039:0.03916 3055:0.07833 3072:0.03916 3085:0.03916 3086:0.03916 3087:0.03916 3132:0.03916 3135:0.03916 3137:0.03916 3155:0.03916 3201:0.03916 3213:0.03916 3237:0.03916 3254:0.03916 3265:0.03916 3273:0.03916 3278:0.07833 3279:0.03916 3280:0.03916 3292:0.03916 3293:0.03916 3295:0.03916 3301:0.03916 3302:0.03916 3305:0.03916 3325:0.03916 3326:0.03916 3327:0.03916 3328:0.03916 3338:0.03916 3344:0.07833 3346:0.03916 3354:0.03916 3368:0.03916 3386:0.03916 3405:0.03916 3408:0.03916 3419:0.03916 3435:0.03916 3455:0.03916 3474:0.03916 3475:0.03916 3479:0.03916 3510:0.03916 3516:0.03916 3533:0.03916 3535:0.03916 3566:0.03916 3567:0.03916 3585:0.07833 3588:0.03916 3589:0.03916 3600:0.03916 3601:0.03916 3624:0.03916 3649:0.07833 3651:0.03916 3653:0.07833 3654:0.03916 3658:0.03916 3661:0.03916 3662:0.03916 3663:0.03916 3666:0.03916 3677:0.03916 3679:0.03916 3680:0.03916 3681:0.03916 3682:0.03916 3687:0.03916 3690:0.03916 3706:0.03916 3708:0.03916 3711:0.03916 3719:0.03916 3728:0.03916 3732:0.03916 3736:0.03916 3751:0.03916 3764:0.03916 3777:0.03916 3793:0.03916 3802:0.03916 3809:0.03916 3813:0.07833 3815:0.03916 3816:0.03916 3818:0.07833 3823:0.07833 3829:0.03916 3832:0.03916 3836:0.07833 3840:0.03916 3857:0.03916 3882:0.03916 3892:0.03916 3898:0.03916 3904:0.03916 3907:0.03916 3908:0.03916 3909:0.03916 3911:0.03916 3914:0.03916 3936:0.03916 3941:0.03916 3956:0.03916 3964:0.03916 3969:0.07833 3973:0.03916 3986:0.07833 3988:0.03916 3992:0.03916 4017:0.03916 4021:0.03916 4026:0.03916 4028:0.03916 4030:0.03916 4031:0.03916 4037:0.03916 4045:0.03916 4047:0.03916 4049:0.07833 4050:0.03916 4056:0.03916 4058:0.03916 4061:0.03916 4069:0.07833 4077:0.03916 4078:0.03916 4080:0.03916 4085:0.07833 4086:0.03916 4087:0.03916 4088:0.03916 4090:0.03916 4092:0.03916 4094:0.07833 4095:0.07833 4096:0.03916 
0.03125 1:0.01252 3:0.05009 4:0.05009 6:0.01252 7:0.01252 8:0.02505 9:0.02505 10:0.03757 11:0.01252 12:0.05009 13:0.05009 14:0.02505 15:0.05009 16:0.03757 17:0.03757 18:0.01252 19:0.02505 21:0.01252 23:0.01252 27:0.01252 28:0.01252 29:0.01252 30:0.02505 31:0.01252 32:0.05009 33:0.03757 36:0.03757 39:0.01252 40:0.03757 42:0.01252 44:0.01252 45:0.05009 47:0.05009 48:0.03757 49:0.02505 50:0.01252 51:0.02505 52:0.03757 53:0.03757 54:0.01252 55:0.01252 57:0.02505 58:0.01252 59:0.01252 60:0.02505 61:0.07514 62:0.08766 63:0.02505 64:0.10019 65:0.06262 67:0.01252 69:0.01252 70:0.02505 72:0.01252 74:0.01252 75:0.01252 76:0.01252 80:0.02505 81:0.01252 83:0.01252 90:0.01252 92:0.01252 93:0.01252 94:0.01252 95:0.01252 100:0.01252 104:0.02505 105:0.03757 108:0.01252 112:0.02505 113:0.01252 116:0.01252 117:0.01252 118:0.01252 120:0.01252 121:0.01252 125:0.03757 126:0.01252 128:0.03757 129:0.06262 130:0.01252 131:0.01252 132:0.03757 133:0.01252 138:0.02505 139:0.03757 142:0.02505 144:0.02505 146:0.01252 150:0.01252 156:0.01252 158:0.01252 160:0.05009 162:0.01252 163:0.02505 165:0.02505 168:0.01252 169:0.01252 170:0.01252 173:0.01252 177:0.01252 178:0.02505 179:0.01252 180:0.01252 182:0.01252 185:0.01252 186:0.06262 187:0.03757 188:0.02505 189:0.02505 191:0.01252 192:0.05009 193:0.03757 195:0.02505 196:0.01252 197:0.01252 198:0.01252 200:0.02505 202:0.03757 204:0.02505 205:0.01252 208:0.05009 209:0.01252 210:0.02505 211:0.01252 213:0.02505 215:0.01252 219:0.01252 221:0.01252 224:0.02505 225:0.08766 228:0.01252 229:0.02505 230:0.01252 232:0.01252 233:0.05009 234:0.01252 235:0.01252 236:0.01252 237:0.01252 239:0.02505 240:0.02505 241:0.06262 242:0.02505 243:0.02505 245:0.03757 246:0.08766 248:0.01252 249:0.05009 251:0.02505 252:0.01252 253:0.06262 254:0.10019 255:0.08766 256:0.03757 257:0.01252 259:0.02505 260:0.05009 262:0.01252 263:0.01252 265:0.01252 266:0.01252 271:0.01252 272:0.01252 273:0.01252 276:0.01252 279:0.01252 280:0.02505 285:0.01252 286:0.01252 288:0.02505 290:0.01252 292:0.01252 293:0.01252 295:0.01252 298:0.02505 299:0.01252 302:0.01252 303:0.01252 310:0.01252 312:0.01252 315:0.01252 318:0.03757 320:0.02505 323:0.01252 324:0.01252 325:0.02505 331:0.01252 336:0.01252 346:0.01252 353:0.03757 356:0.01252 358:0.01252 361:0.01252 365:0.01252 366:0.01252 368:0.01252 370:0.01252 376:0.02505 377:0.05009 378:0.01252 384:0.01252 398:0.01252 401:0.01252 411:0.01252 413:0.01252 414:0.01252 416:0.01252 417:0.03757 419:0.02505 420:0.01252 429:0.01252 430:0.01252 432:0.01252 446:0.01252 448:0.01252 451:0.01252 454:0.01252 457:0.01252 464:0.02505 465:0.02505 469:0.01252 471:0.03757 473:0.02505 479:0.01252 481:0.01252 485:0.01252 486:0.02505 491:0.01252 494:0.01252 496:0.01252 497:0.02505 499:0.01252 500:0.01252 501:0.03757 502:0.01252 504:0.01252 505:0.05009 509:0.02505 510:0.05009 511:0.01252 512:0.05009 513:0.01252 514:0.02505 515:0.01252 516:0.06262 517:0.01252 518:0.02505 521:0.03757 524:0.01252 525:0.05009 526:0.01252 527:0.02505 528:0.01252 529:0.01252 530:0.01252 532:0.02505 533:0.01252 535:0.01252 539:0.01252 550:0.01252 552:0.02505 554:0.01252 556:0.02505 560:0.01252 561:0.02505 565:0.02505 566:0.02505 567:0.02505 572:0.01252 573:0.01252 574:0.02505 579:0.02505 581:0.01252 584:0.02505 585:0.01252 587:0.03757 592:0.01252 595:0.01252 597:0.02505 598:0.01252 608:0.01252 609:0.01252 611:0.01252 618:0.01252 621:0.01252 624:0.02505 625:0.02505 629:0.01252 631:0.01252 632:0.02505 633:0.01252 637:0.01252 638:0.02505 640:0.03757 641:0.03757 644:0.01252 645:0.01252 648:0.02505 649:0.01252 650:0.01252 654:0.02505 655:0.01252 657:0.01252 659:0.02505 661:0.02505 662:0.01252 666:0.02505 667:0.01252 671:0.01252 673:0.03757 677:0.02505 678:0.01252 682:0.01252 690:0.01252 691:0.03757 700:0.02505 702:0.02505 703:0.01252 708:0.01252 710:0.01252 712:0.02505 713:0.01252 717:0.01252 720:0.02505 722:0.02505 726:0.01252 728:0.02505 730:0.01252 731:0.01252 737:0.01252 740:0.01252 741:0.06262 742:0.01252 744:0.02505 745:0.03757 750:0.02505 751:0.01252 752:0.01252 753:0.02505 758:0.01252 761:0.01252 763:0.01252 765:0.02505 766:0.03757 767:0.01252 768:0.02505 769:0.03757 771:0.01252 772:0.02505 773:0.01252 775:0.01252 777:0.01252 780:0.01252 783:0.01252 786:0.01252 788:0.01252 791:0.01252 798:0.01252 799:0.01252 800:0.01252 801:0.01252 804:0.01252 805:0.02505 806:0.01252 814:0.01252 816:0.01252 819:0.01252 820:0.07514 829:0.01252 831:0.01252 832:0.03757 834:0.01252 837:0.01252 840:0.01252 842:0.02505 843:0.01252 848:0.01252 849:0.01252 850:0.01252 851:0.02505 855:0.01252 857:0.01252 860:0.01252 861:0.01252 863:0.02505 865:0.01252 873:0.02505 875:0.01252 876:0.01252 880:0.01252 882:0.02505 884:0.01252 885:0.01252 886:0.01252 890:0.01252 891:0.01252 892:0.01252 895:0.01252 896:0.03757 897:0.03757 899:0.02505 900:0.06262 905:0.01252 907:0.01252 910:0.01252 913:0.02505 915:0.01252 917:0.01252 918:0.01252 927:0.01252 929:0.03757 931:0.01252 934:0.01252 937:0.01252 938:0.01252 939:0.01252 943:0.01252 947:0.01252 948:0.01252 952:0.02505 954:0.01252 956:0.01252 957:0.01252 959:0.01252 961:0.01252 962:0.03757 963:0.02505 964:0.02505 965:0.02505 966:0.01252 968:0.01252 969:0.01252 970:0.02505 971:0.02505 976:0.01252 977:0.03757 978:0.01252 979:0.02505 980:0.06262 981:0.06262 982:0.03757 983:0.03757 984:0.01252 985:0.01252 986:0.01252 989:0.02505 990:0.01252 991:0.02505 992:0.03757 993:0.05009 994:0.01252 995:0.01252 998:0.01252 1002:0.02505 1004:0.01252 1005:0.01252 1007:0.01252 1009:0.06262 1011:0.01252 1012:0.02505 1013:0.03757 1014:0.02505 1015:0.02505 1016:0.06262 1018:0.03757 1019:0.02505 1020:0.05009 1021:0.01252 1022:0.05009 1023:0.05009 1024:0.05009 1025:0.02505 1026:0.01252 1027:0.01252 1028:0.05009 1030:0.01252 1032:0.01252 1033:0.02505 1036:0.01252 1037:0.01252 1039:0.01252 1040:0.08766 1042:0.01252 1044:0.01252 1045:0.01252 1047:0.01252 1048:0.01252 1050:0.01252 1051:0.03757 1054:0.01252 1056:0.01252 1057:0.02505 1058:0.01252 1060:0.01252 1062:0.01252 1065:0.02505 1066:0.01252 1067:0.01252 1071:0.05009 1073:0.01252 1076:0.01252 1081:0.01252 1082:0.01252 1083:0.01252 1085:0.02505 1086:0.01252 1087:0.02505 1088:0.02505 1090:0.02505 1092:0.01252 1096:0.01252 1097:0.01252 1098:0.01252 1099:0.02505 1104:0.02505 1105:0.01252 1106:0.01252 1108:0.01252 1113:0.01252 1118:0.01252 1119:0.01252 1125:0.01252 1127:0.01252 1129:0.01252 1138:0.01252 1142:0.01252 1143:0.02505 1146:0.01252 1148:0.01252 1149:0.01252 1150:0.02505 1151:0.05009 1152:0.05009 1153:0.01252 1154:0.01252 1156:0.02505 1157:0.01252 1158:0.01252 1162:0.01252 1164:0.01252 1165:0.01252 1166:0.01252 1167:0.01252 1170:0.02505 1171:0.02505 1172:0.01252 1176:0.01252 1177:0.01252 1182:0.01252 1185:0.02505 1186:0.01252 1188:0.02505 1189:0.01252 1190:0.02505 1193:0.01252 1194:0.01252 1197:0.03757 1199:0.01252 1200:0.01252 1204:0.01252 1205:0.01252 1206:0.01252 1207:0.01252 1210:0.02505 1216:0.01252 1217:0.01252 1221:0.01252 1225:0.01252 1238:0.01252 1240:0.01252 1247:0.01252 1249:0.03757 1251:0.01252 1259:0.01252 1262:0.01252 1265:0.02505 1267:0.02505 1268:0.01252 1269:0.07514 1270:0.01252 1271:0.01252 1272:0.02505 1273:0.01252 1275:0.01252 1276:0.01252 1277:0.01252 1279:0.01252 1280:0.05009 1281:0.05009 1282:0.01252 1283:0.01252 1284:0.02505 1288:0.01252 1289:0.01252 1291:0.01252 1295:0.01252 1296:0.02505 1297:0.01252 1299:0.01252 1301:0.01252 1306:0.02505 1312:0.03757 1313:0.01252 1315:0.02505 1316:0.01252 1317:0.01252 1318:0.01252 1321:0.01252 1323:0.01252 1326:0.01252 1329:0.01252 1340:0.01252 1341:0.02505 1342:0.03757 1343:0.01252 1344:0.01252 1345:0.02505 1350:0.01252 1351:0.01252 1353:0.01252 1354:0.01252 1356:0.01252 1357:0.01252 1359:0.01252 1360:0.01252 1363:0.01252 1364:0.01252 1373:0.01252 1380:0.01252 1382:0.01252 1383:0.01252 1393:0.01252 1395:0.01252 1397:0.01252 1403:0.01252 1404:0.01252 1405:0.01252 1407:0.01252 1409:0.03757 1411:0.02505 1416:0.01252 1418:0.01252 1421:0.01252 1422:0.02505 1424:0.01252 1431:0.01252 1432:0.01252 1436:0.01252 1437:0.01252 1443:0.01252 1453:0.01252 1457:0.02505 1459:0.01252 1464:0.01252 1465:0.01252 1471:0.03757 1472:0.01252 1476:0.02505 1477:0.01252 1478:0.03757 1479:0.01252 1481:0.01252 1491:0.01252 1492:0.01252 1498:0.01252 1504:0.03757 1505:0.05009 1506:0.01252 1507:0.01252 1508:0.01252 1512:0.03757 1514:0.01252 1516:0.01252 1519:0.02505 1520:0.01252 1521:0.03757 1527:0.01252 1529:0.02505 1530:0.01252 1531:0.01252 1533:0.01252 1536:0.01252 1537:0.02505 1538:0.02505 1539:0.01252 1540:0.02505 1545:0.01252 1546:0.02505 1547:0.01252 1549:0.01252 1551:0.01252 1555:0.01252 1565:0.01252 1567:0.01252 1576:0.01252 1577:0.01252 1583:0.02505 1585:0.01252 1591:0.02505 1592:0.02505 1600:0.01252 1601:0.01252 1602:0.02505 1605:0.01252 1619:0.01252 1625:0.01252 1629:0.02505 1630:0.01252 1633:0.01252 1634:0.01252 1643:0.01252 1647:0.01252 1649:0.01252 1650:0.01252 1651:0.01252 1654:0.01252 1660:0.01252 1664:0.01252 1665:0.01252 1668:0.03757 1670:0.01252 1673:0.01252 1676:0.03757 1678:0.01252 1680:0.01252 1682:0.01252 1686:0.01252 1691:0.01252 1699:0.01252 1700:0.01252 1709:0.01252 1715:0.03757 1716:0.01252 1718:0.01252 1720:0.01252 1724:0.01252 1727:0.01252 1728:0.01252 1729:0.01252 1731:0.01252 1738:0.01252 1739:0.01252 1757:0.01252 1762:0.01252 1770:0.01252 1771:0.01252 1777:0.01252 1780:0.01252 1782:0.01252 1785:0.01252 1786:0.02505 1788:0.01252 1789:0.01252 1792:0.01252 1795:0.01252 1796:0.01252 1797:0.01252 1802:0.01252 1804:0.01252 1805:0.01252 1807:0.02505 1808:0.02505 1810:0.01252 1812:0.01252 1815:0.03757 1816:0.03757 1818:0.01252 1819:0.01252 1824:0.01252 1825:0.03757 1826:0.02505 1831:0.01252 1835:0.01252 1837:0.01252 1844:0.01252 1850:0.01252 1854:0.03757 1856:0.02505 1859:0.05009 1860:0.01252 1867:0.01252 1870:0.01252 1871:0.01252 1873:0.01252 1876:0.01252 1879:0.01252 1881:0.01252 1883:0.01252 1884:0.02505 1888:0.02505 1889:0.02505 1896:0.01252 1898:0.01252 1915:0.02505 1918:0.06262 1921:0.02505 1923:0.03757 1924:0.02505 1925:0.01252 1931:0.01252 1934:0.02505 1936:0.01252 1938:0.02505 1940:0.01252 1941:0.01252 1942:0.01252 1944:0.02505 1949:0.02505 1951:0.02505 1953:0.01252 1956:0.02505 1959:0.01252 1960:0.01252 1961:0.01252 1962:0.01252 1963:0.01252 1968:0.01252 1973:0.01252 1975:0.01252 1977:0.02505 1978:0.01252 1979:0.01252 1981:0.01252 1984:0.02505 1985:0.03757 1986:0.01252 1988:0.02505 1991:0.01252 1994:0.01252 1996:0.01252 2000:0.02505 2001:0.01252 2003:0.03757 2004:0.02505 2005:0.02505 2009:0.02505 2011:0.02505 2013:0.02505 2014:0.01252 2016:0.01252 2017:0.02505 2019:0.05009 2022:0.01252 2024:0.02505 2025:0.01252 2028:0.01252 2030:0.01252 2032:0.01252 2033:0.03757 2035:0.01252 2036:0.01252 2037:0.01252 2038:0.02505 2039:0.01252 2040:0.01252 2043:0.01252 2044:0.02505 2045:0.02505 2046:0.03757 2047:0.01252 2048:0.05009 2049:0.03757 2050:0.01252 2051:0.03757 2052:0.05009 2053:0.06262 2056:0.03757 2057:0.01252 2060:0.05009 2061:0.02505 2062:0.02505 2064:0.10019 2065:0.01252 2066:0.01252 2072:0.02505 2076:0.01252 2077:0.01252 2081:0.03757 2083:0.06262 2088:0.02505 2090:0.01252 2093:0.01252 2094:0.01252 2095:0.02505 2096:0.01252 2097:0.02505 2098:0.02505 2099:0.03757 2101:0.01252 2102:0.02505 2104:0.02505 2105:0.03757 2106:0.01252 2107:0.03757 2108:0.03757 2109:0.01252 2110:0.02505 2111:0.01252 2112:0.08766 2113:0.01252 2115:0.01252 2120:0.02505 2121:0.01252 2124:0.01252 2126:0.01252 2127:0.01252 2130:0.01252 2137:0.01252 2140:0.01252 2156:0.01252 2164:0.01252 2166:0.02505 2170:0.01252 2171:0.01252 2172:0.01252 2174:0.01252 2179:0.01252 2180:0.01252 2181:0.01252 2182:0.01252 2190:0.02505 2193:0.01252 2198:0.01252 2204:0.01252 2206:0.02505 2207:0.01252 2208:0.01252 2209:0.01252 2214:0.01252 2215:0.01252 2217:0.01252 2223:0.01252 2224:0.01252 2228:0.01252 2229:0.01252 2230:0.01252 2233:0.01252 2234:0.01252 2236:0.01252 2239:0.01252 2240:0.02505 2241:0.01252 2242:0.02505 2259:0.02505 2260:0.01252 2261:0.02505 2263:0.01252 2264:0.02505 2265:0.01252 2267:0.02505 2268:0.01252 2269:0.01252 2270:0.02505 2271:0.01252 2272:0.02505 2275:0.01252 2285:0.01252 2286:0.01252 2290:0.01252 2293:0.01252 2294:0.03757 2296:0.01252 2301:0.01252 2302:0.02505 2304:0.02505 2305:0.02505 2306:0.01252 2308:0.03757 2309:0.02505 2311:0.02505 2313:0.02505 2315:0.01252 2317:0.01252 2321:0.01252 2322:0.01252 2323:0.01252 2324:0.01252 2325:0.02505 2334:0.01252 2335:0.02505 2336:0.06262 2337:0.02505 2338:0.01252 2340:0.01252 2341:0.01252 2345:0.02505 2348:0.01252 2349:0.01252 2350:0.01252 2351:0.01252 2354:0.01252 2355:0.01252 2365:0.01252 2366:0.01252 2367:0.01252 2368:0.01252 2369:0.01252 2370:0.01252 2372:0.02505 2375:0.01252 2377:0.01252 2379:0.01252 2384:0.01252 2385:0.01252 2386:0.01252 2387:0.01252 2388:0.01252 2392:0.01252 2397:0.01252 2399:0.01252 2400:0.01252 2402:0.01252 2403:0.01252 2408:0.01252 2417:0.01252 2418:0.01252 2421:0.01252 2424:0.01252 2425:0.01252 2428:0.02505 2429:0.01252 2430:0.01252 2431:0.01252 2432:0.01252 2433:0.02505 2436:0.01252 2437:0.01252 2440:0.01252 2443:0.01252 2449:0.01252 2450:0.01252 2456:0.02505 2469:0.01252 2473:0.01252 2476:0.01252 2480:0.01252 2483:0.01252 2491:0.02505 2493:0.01252 2495:0.01252 2497:0.02505 2499:0.01252 2500:0.02505 2503:0.01252 2505:0.01252 2512:0.03757 2513:0.02505 2520:0.01252 2523:0.01252 2527:0.01252 2528:0.02505 2529:0.01252 2532:0.02505 2533:0.01252 2537:0.01252 2539:0.01252 2543:0.01252 2544:0.01252 2545:0.01252 2547:0.01252 2551:0.02505 2556:0.01252 2557:0.01252 2560:0.03757 2561:0.05009 2562:0.02505 2563:0.02505 2564:0.02505 2567:0.01252 2568:0.01252 2569:0.01252 2572:0.01252 2573:0.01252 2574:0.03757 2575:0.01252 2576:0.08766 2578:0.01252 2583:0.01252 2590:0.01252 2591:0.01252 2592:0.01252 2593:0.02505 2594:0.01252 2596:0.01252 2599:0.01252 2606:0.02505 2607:0.01252 2608:0.01252 2613:0.01252 2614:0.02505 2616:0.02505 2617:0.01252 2620:0.01252 2622:0.02505 2624:0.01252 2625:0.01252 2627:0.01252 2628:0.01252 2629:0.01252 2632:0.01252 2633:0.02505 2636:0.02505 2637:0.01252 2640:0.01252 2641:0.01252 2644:0.01252 2645:0.01252 2648:0.01252 2649:0.01252 2654:0.01252 2655:0.02505 2658:0.01252 2661:0.02505 2667:0.01252 2668:0.01252 2673:0.01252 2676:0.01252 2680:0.01252 2683:0.01252 2687:0.01252 2689:0.03757 2690:0.02505 2692:0.03757 2696:0.01252 2697:0.01252 2703:0.01252 2705:0.01252 2707:0.01252 2708:0.01252 2711:0.01252 2712:0.01252 2717:0.01252 2718:0.01252 2720:0.01252 2721:0.02505 2728:0.01252 2737:0.01252 2756:0.01252 2760:0.01252 2761:0.02505 2763:0.03757 2764:0.01252 2768:0.01252 2775:0.01252 2782:0.01252 2783:0.01252 2789:0.02505 2795:0.01252 2797:0.01252 2800:0.02505 2808:0.02505 2809:0.02505 2812:0.01252 2815:0.01252 2816:0.01252 2818:0.01252 2825:0.01252 2829:0.01252 2830:0.01252 2832:0.02505 2840:0.01252 2845:0.01252 2848:0.02505 2849:0.02505 2852:0.02505 2855:0.01252 2857:0.03757 2858:0.01252 2860:0.01252 2863:0.01252 2865:0.01252 2874:0.01252 2877:0.01252 2878:0.02505 2880:0.01252 2884:0.01252 2885:0.01252 2887:0.01252 2891:0.01252 2901:0.01252 2905:0.01252 2909:0.01252 2911:0.01252 2912:0.01252 2918:0.01252 2919:0.01252 2922:0.01252 2931:0.02505 2933:0.01252 2934:0.01252 2938:0.01252 2940:0.01252 2943:0.01252 2948:0.01252 2952:0.02505 2960:0.02505 2961:0.05009 2962:0.02505 2963:0.02505 2965:0.01252 2967:0.01252 2970:0.01252 2975:0.02505 2976:0.01252 2977:0.02505 2980:0.01252 2981:0.01252 2985:0.01252 2986:0.01252 2990:0.01252 2991:0.01252 2995:0.01252 2996:0.01252 2998:0.01252 3000:0.01252 3002:0.01252 3005:0.01252 3006:0.01252 3007:0.01252 3008:0.01252 3009:0.02505 3011:0.01252 3012:0.03757 3017:0.01252 3022:0.02505 3025:0.01252 3030:0.02505 3037:0.01252 3039:0.01252 3040:0.01252 3041:0.03757 3044:0.01252 3045:0.02505 3047:0.02505 3050:0.01252 3055:0.02505 3057:0.03757 3058:0.01252 3061:0.02505 3062:0.02505 3063:0.02505 3064:0.02505 3066:0.01252 3067:0.01252 3069:0.02505 3070:0.01252 3071:0.01252 3073:0.03757 3074:0.02505 3075:0.02505 3076:0.01252 3077:0.01252 3079:0.01252 3080:0.02505 3081:0.01252 3082:0.01252 3083:0.01252 3084:0.02505 3085:0.01252 3086:0.01252 3087:0.01252 3088:0.06262 3089:0.02505 3090:0.01252 3091:0.01252 3092:0.01252 3097:0.01252 3098:0.01252 3104:0.02505 3105:0.02505 3109:0.01252 3112:0.01252 3113:0.01252 3114:0.01252 3115:0.01252 3119:0.01252 3120:0.03757 3121:0.01252 3122:0.01252 3124:0.01252 3128:0.01252 3129:0.02505 3130:0.01252 3131:0.02505 3134:0.01252 3135:0.02505 3136:0.07514 3137:0.01252 3140:0.01252 3141:0.01252 3142:0.01252 3150:0.01252 3152:0.01252 3159:0.01252 3161:0.02505 3163:0.01252 3164:0.01252 3167:0.03757 3168:0.01252 3176:0.01252 3177:0.02505 3180:0.01252 3187:0.01252 3189:0.01252 3194:0.01252 3198:0.01252 3200:0.05009 3201:0.03757 3202:0.01252 3203:0.02505 3204:0.02505 3205:0.01252 3207:0.01252 3213:0.01252 3214:0.01252 3216:0.01252 3217:0.01252 3219:0.02505 3221:0.01252 3222:0.01252 3225:0.01252 3227:0.01252 3228:0.01252 3229:0.02505 3233:0.01252 3234:0.01252 3236:0.01252 3239:0.02505 3242:0.01252 3243:0.01252 3248:0.01252 3250:0.01252 3255:0.01252 3260:0.01252 3262:0.01252 3264:0.01252 3265:0.01252 3272:0.01252 3273:0.01252 3277:0.07514 3280:0.01252 3291:0.01252 3293:0.01252 3295:0.01252 3301:0.01252 3302:0.01252 3307:0.01252 3313:0.01252 3314:0.01252 3315:0.01252 3317:0.01252 3318:0.01252 3319:0.01252 3320:0.05009 3321:0.01252 3322:0.01252 3325:0.01252 3326:0.02505 3327:0.01252 3328:0.05009 3329:0.01252 3334:0.02505 3335:0.01252 3336:0.01252 3339:0.02505 3340:0.05009 3341:0.01252 3343:0.01252 3344:0.05009 3347:0.02505 3355:0.01252 3358:0.01252 3360:0.01252 3361:0.01252 3365:0.02505 3368:0.01252 3369:0.02505 3370:0.01252 3372:0.05009 3376:0.01252 3382:0.01252 3385:0.05009 3389:0.02505 3390:0.03757 3391:0.01252 3392:0.02505 3393:0.06262 3395:0.01252 3400:0.03757 3401:0.02505 3402:0.01252 3408:0.05009 3409:0.01252 3410:0.01252 3411:0.01252 3412:0.01252 3413:0.02505 3417:0.01252 3418:0.01252 3422:0.01252 3423:0.01252 3424:0.01252 3425:0.02505 3428:0.02505 3436:0.01252 3437:0.02505 3439:0.01252 3440:0.03757 3442:0.03757 3447:0.01252 3449:0.02505 3450:0.02505 3451:0.01252 3453:0.01252 3455:0.02505 3457:0.02505 3459:0.02505 3460:0.01252 3468:0.02505 3470:0.01252 3473:0.01252 3477:0.01252 3481:0.02505 3485:0.01252 3487:0.01252 3489:0.01252 3490:0.01252 3491:0.01252 3492:0.01252 3494:0.01252 3495:0.01252 3497:0.01252 3501:0.02505 3502:0.01252 3503:0.01252 3517:0.01252 3522:0.01252 3524:0.01252 3525:0.01252 3526:0.02505 3528:0.01252 3529:0.02505 3530:0.01252 3531:0.01252 3532:0.01252 3533:0.01252 3535:0.01252 3537:0.01252 3540:0.01252 3541:0.01252 3542:0.01252 3543:0.01252 3544:0.01252 3553:0.01252 3557:0.01252 3558:0.02505 3560:0.01252 3561:0.02505 3562:0.01252 3563:0.01252 3566:0.01252 3567:0.01252 3570:0.01252 3572:0.01252 3573:0.03757 3574:0.01252 3575:0.01252 3576:0.03757 3578:0.02505 3579:0.01252 3580:0.01252 3581:0.01252 3582:0.01252 3583:0.02505 3584:0.02505 3585:0.05009 3586:0.02505 3587:0.01252 3588:0.03757 3589:0.01252 3593:0.03757 3596:0.03757 3597:0.01252 3598:0.01252 3599:0.07514 3600:0.03757 3601:0.01252 3603:0.01252 3614:0.01252 3615:0.01252 3618:0.01252 3620:0.01252 3621:0.01252 3624:0.01252 3626:0.01252 3627:0.01252 3629:0.01252 3632:0.01252 3638:0.01252 3640:0.02505 3646:0.01252 3648:0.03757 3649:0.05009 3650:0.02505 3653:0.01252 3654:0.02505 3656:0.06262 3657:0.01252 3658:0.01252 3660:0.01252 3661:0.01252 3664:0.02505 3665:0.03757 3666:0.01252 3669:0.01252 3672:0.02505 3674:0.01252 3679:0.01252 3680:0.02505 3681:0.01252 3686:0.02505 3695:0.01252 3697:0.01252 3700:0.02505 3701:0.01252 3705:0.02505 3706:0.01252 3707:0.01252 3708:0.01252 3709:0.01252 3713:0.03757 3715:0.02505 3716:0.06262 3721:0.01252 3724:0.01252 3726:0.02505 3728:0.02505 3729:0.01252 3730:0.01252 3731:0.01252 3732:0.01252 3736:0.02505 3737:0.01252 3741:0.01252 3745:0.03757 3746:0.01252 3749:0.01252 3750:0.01252 3752:0.02505 3753:0.02505 3768:0.01252 3770:0.02505 3771:0.01252 3775:0.01252 3776:0.01252 3780:0.02505 3785:0.01252 3787:0.01252 3791:0.01252 3792:0.01252 3793:0.01252 3795:0.01252 3800:0.01252 3802:0.01252 3805:0.01252 3806:0.01252 3807:0.01252 3808:0.01252 3810:0.01252 3812:0.01252 3813:0.01252 3814:0.01252 3815:0.01252 3816:0.01252 3820:0.02505 3821:0.01252 3824:0.01252 3825:0.03757 3827:0.01252 3828:0.01252 3829:0.01252 3832:0.01252 3834:0.02505 3837:0.01252 3838:0.06262 3841:0.06262 3842:0.03757 3843:0.03757 3844:0.06262 3845:0.03757 3847:0.01252 3848:0.02505 3850:0.01252 3851:0.03757 3852:0.02505 3853:0.01252 3855:0.02505 3856:0.06262 3857:0.02505 3862:0.01252 3867:0.02505 3872:0.01252 3873:0.02505 3877:0.01252 3878:0.01252 3879:0.01252 3880:0.02505 3882:0.01252 3883:0.01252 3888:0.01252 3890:0.01252 3895:0.01252 3896:0.02505 3899:0.01252 3901:0.01252 3902:0.02505 3903:0.01252 3904:0.02505 3905:0.01252 3906:0.03757 3907:0.02505 3908:0.05009 3912:0.01252 3913:0.01252 3914:0.01252 3915:0.05009 3916:0.01252 3919:0.03757 3920:0.08766 3921:0.05009 3922:0.02505 3923:0.01252 3924:0.03757 3925:0.03757 3926:0.02505 3928:0.03757 3929:0.01252 3932:0.03757 3933:0.01252 3934:0.01252 3935:0.02505 3937:0.02505 3939:0.02505 3940:0.01252 3941:0.01252 3943:0.01252 3944:0.01252 3945:0.02505 3948:0.03757 3953:0.02505 3954:0.02505 3955:0.03757 3956:0.01252 3958:0.02505 3961:0.01252 3962:0.02505 3963:0.01252 3965:0.02505 3966:0.03757 3967:0.02505 3968:0.03757 3969:0.06262 3970:0.01252 3971:0.01252 3972:0.03757 3973:0.01252 3977:0.01252 3978:0.02505 3980:0.02505 3984:0.01252 3986:0.05009 3988:0.02505 3989:0.01252 3990:0.01252 3992:0.01252 3993:0.01252 3994:0.01252 3996:0.01252 3997:0.01252 3998:0.01252 4001:0.05009 4003:0.01252 4004:0.01252 4005:0.03757 4006:0.01252 4009:0.01252 4010:0.01252 4015:0.01252 4016:0.01252 4017:0.02505 4021:0.01252 4024:0.01252 4026:0.01252 4027:0.01252 4028:0.01252 4029:0.02505 4030:0.01252 4032:0.03757 4033:0.12524 4034:0.02505 4035:0.03757 4036:0.01252 4039:0.01252 4042:0.02505 4045:0.01252 4046:0.01252 4047:0.01252 4048:0.03757 4049:0.06262 4051:0.02505 4052:0.03757 4053:0.03757 4054:0.03757 4055:0.01252 4056:0.03757 4057:0.02505 4058:0.02505 4059:0.03757 4061:0.03757 4063:0.01252 4064:0.06262 4065:0.01252 4069:0.05009 4070:0.01252 4071:0.01252 4073:0.06262 4074:0.01252 4075:0.02505 4077:0.01252 4078:0.01252 4080:0.06262 4081:0.06262 4084:0.03757 4085:0.05009 4086:0.05009 4087:0.02505 4088:0.01252 4089:0.01252 4090:0.02505 4091:0.05009 4092:0.01252 4093:0.03757 4094:0.03757 4095:0.02505 4096:0.01252 
0.03125 3:0.0242 5:0.0242 6:0.0242 7:0.0242 11:0.0242 15:0.07259 17:0.04839 21:0.0242 22:0.0242 25:0.0242 27:0.0242 38:0.0242 40:0.0242 41:0.0242 47:0.0242 54:0.0242 56:0.0242 58:0.09679 59:0.0242 62:0.0242 65:0.04839 69:0.0242 72:0.0242 79:0.0242 81:0.04839 82:0.0242 85:0.0242 88:0.0242 98:0.0242 107:0.0242 121:0.04839 123:0.0242 125:0.0242 145:0.0242 148:0.0242 149:0.0242 150:0.0242 153:0.04839 159:0.0242 161:0.04839 164:0.0242 165:0.0242 173:0.0242 181:0.0242 186:0.0242 187:0.0242 188:0.0242 191:0.0242 193:0.0242 205:0.0242 211:0.0242 213:0.04839 215:0.07259 221:0.0242 223:0.0242 230:0.04839 231:0.09679 235:0.0242 238:0.0242 245:0.0242 246:0.0242 251:0.0242 254:0.0242 257:0.04839 260:0.0242 261:0.0242 270:0.0242 271:0.0242 276:0.0242 277:0.0242 278:0.0242 288:0.0242 290:0.0242 294:0.0242 298:0.0242 302:0.0242 316:0.04839 319:0.0242 323:0.0242 324:0.0242 326:0.0242 334:0.0242 337:0.0242 338:0.0242 345:0.0242 349:0.0242 353:0.0242 364:0.04839 382:0.0242 386:0.0242 387:0.0242 391:0.0242 401:0.0242 405:0.0242 409:0.0242 418:0.04839 420:0.0242 422:0.0242 425:0.04839 426:0.04839 451:0.0242 481:0.0242 482:0.0242 491:0.0242 495:0.0242 499:0.0242 503:0.0242 506:0.04839 511:0.0242 518:0.0242 537:0.0242 538:0.0242 553:0.0242 554:0.04839 563:0.0242 570:0.0242 575:0.0242 576:0.0242 578:0.0242 590:0.0242 593:0.0242 595:0.0242 597:0.07259 598:0.0242 599:0.0242 601:0.0242 602:0.0242 603:0.0242 606:0.0242 610:0.0242 612:0.0242 633:0.0242 640:0.0242 641:0.0242 644:0.04839 654:0.0242 657:0.0242 658:0.0242 659:0.07259 661:0.07259 665:0.07259 671:0.0242 677:0.0242 688:0.0242 691:0.0242 723:0.0242 730:0.0242 741:0.0242 743:0.0242 747:0.0242 752:0.0242 757:0.0242 758:0.0242 759:0.0242 762:0.0242 769:0.04839 801:0.0242 804:0.0242 819:0.0242 831:0.0242 841:0.0242 849:0.0242 851:0.0242 857:0.0242 858:0.0242 859:0.0242 860:0.0242 864:0.0242 866:0.0242 870:0.0242 872:0.0242 875:0.0242 881:0.0242 884:0.0242 890:0.0242 891:0.0242 914:0.0242 917:0.0242 919:0.0242 921:0.0242 922:0.0242 923:0.04839 928:0.0242 935:0.0242 939:0.0242 943:0.0242 949:0.0242 956:0.0242 959:0.0242 963:0.0242 967:0.0242 971:0.0242 977:0.0242 984:0.04839 993:0.04839 1002:0.07259 1003:0.0242 1004:0.0242 1007:0.04839 1014:0.0242 1015:0.04839 1018:0.0242 1020:0.0242 1021:0.04839 1023:0.0242 1026:0.04839 1028:0.0242 1031:0.0242 1036:0.0242 1039:0.04839 1042:0.04839 1044:0.0242 1045:0.0242 1056:0.0242 1063:0.04839 1070:0.0242 1071:0.0242 1076:0.0242 1077:0.0242 1078:0.04839 1080:0.0242 1082:0.0242 1084:0.0242 1086:0.0242 1089:0.0242 1090:0.0242 1092:0.04839 1094:0.0242 1100:0.0242 1103:0.0242 1108:0.0242 1111:0.0242 1113:0.04839 1115:0.0242 1121:0.0242 1130:0.0242 1137:0.0242 1150:0.0242 1151:0.0242 1152:0.0242 1159:0.04839 1163:0.04839 1165:0.0242 1168:0.0242 1175:0.04839 1176:0.0242 1184:0.0242 1189:0.09679 1190:0.07259 1207:0.0242 1214:0.07259 1217:0.0242 1239:0.0242 1242:0.0242 1245:0.0242 1263:0.0242 1264:0.0242 1270:0.0242 1275:0.0242 1276:0.0242 1279:0.04839 1280:0.07259 1281:0.0242 1285:0.0242 1286:0.0242 1290:0.04839 1293:0.0242 1294:0.04839 1295:0.0242 1296:0.0242 1297:0.04839 1299:0.0242 1303:0.04839 1305:0.0242 1307:0.0242 1312:0.0242 1316:0.0242 1322:0.04839 1328:0.0242 1334:0.0242 1335:0.0242 1344:0.0242 1346:0.0242 1347:0.0242 1348:0.0242 1349:0.0242 1351:0.0242 1352:0.0242 1356:0.0242 1360:0.0242 1364:0.0242 1380:0.0242 1386:0.0242 1389:0.04839 1390:0.0242 1392:0.0242 1393:0.0242 1399:0.0242 1409:0.0242 1415:0.0242 1418:0.0242 1419:0.0242 1422:0.0242 1426:0.0242 1428:0.04839 1429:0.0242 1431:0.0242 1442:0.0242 1444:0.0242 1446:0.0242 1447:0.0242 1448:0.0242 1450:0.0242 1454:0.0242 1455:0.0242 1457:0.0242 1458:0.0242 1462:0.04839 1463:0.04839 1467:0.0242 1472:0.0242 1476:0.0242 1491:0.0242 1498:0.0242 1499:0.0242 1501:0.0242 1503:0.04839 1507:0.0242 1510:0.07259 1514:0.04839 1518:0.0242 1525:0.0242 1527:0.07259 1536:0.0242 1540:0.04839 1542:0.0242 1544:0.0242 1547:0.07259 1548:0.0242 1555:0.0242 1562:0.0242 1563:0.04839 1567:0.0242 1574:0.07259 1578:0.0242 1579:0.0242 1590:0.0242 1591:0.04839 1595:0.0242 1601:0.0242 1602:0.0242 1605:0.0242 1608:0.0242 1616:0.09679 1617:0.0242 1620:0.0242 1627:0.0242 1630:0.07259 1633:0.07259 1634:0.0242 1637:0.07259 1646:0.0242 1663:0.04839 1666:0.0242 1669:0.04839 1671:0.04839 1679:0.0242 1680:0.07259 1684:0.0242 1686:0.0242 1687:0.04839 1691:0.0242 1694:0.0242 1695:0.04839 1697:0.04839 1701:0.0242 1702:0.0242 1704:0.0242 1711:0.0242 1717:0.0242 1722:0.0242 1723:0.04839 1729:0.0242 1732:0.0242 1733:0.0242 1751:0.04839 1754:0.0242 1755:0.0242 1756:0.0242 1759:0.04839 1770:0.0242 1771:0.0242 1791:0.0242 1792:0.0242 1802:0.04839 1804:0.0242 1805:0.0242 1814:0.0242 1816:0.0242 1844:0.0242 1848:0.0242 1866:0.0242 1867:0.0242 1891:0.04839 1894:0.0242 1898:0.04839 1906:0.0242 1913:0.0242 1914:0.0242 1923:0.0242 1925:0.0242 1926:0.0242 1928:0.0242 1930:0.0242 1931:0.0242 1936:0.0242 1937:0.0242 1942:0.04839 1944:0.07259 1956:0.0242 1957:0.0242 1960:0.0242 1962:0.0242 1974:0.04839 1975:0.0242 1979:0.0242 1988:0.0242 1993:0.0242 1994:0.0242 1996:0.0242 2003:0.0242 2010:0.07259 2012:0.0242 2021:0.0242 2022:0.0242 2027:0.0242 2028:0.0242 2033:0.0242 2038:0.0242 2042:0.0242 2048:0.0242 2050:0.0242 2053:0.0242 2058:0.0242 2062:0.04839 2064:0.0242 2069:0.0242 2070:0.0242 2079:0.07259 2089:0.04839 2090:0.0242 2092:0.0242 2095:0.0242 2106:0.0242 2111:0.0242 2112:0.0242 2121:0.0242 2122:0.0242 2123:0.0242 2128:0.0242 2139:0.0242 2145:0.0242 2149:0.0242 2151:0.0242 2153:0.07259 2155:0.0242 2172:0.0242 2175:0.0242 2198:0.07259 2199:0.0242 2209:0.0242 2215:0.07259 2216:0.0242 2218:0.0242 2249:0.0242 2264:0.0242 2265:0.0242 2266:0.0242 2267:0.0242 2280:0.0242 2282:0.0242 2284:0.0242 2289:0.0242 2290:0.0242 2297:0.0242 2299:0.04839 2300:0.0242 2302:0.04839 2306:0.0242 2307:0.0242 2308:0.0242 2309:0.0242 2312:0.0242 2316:0.04839 2321:0.04839 2322:0.0242 2327:0.0242 2333:0.0242 2336:0.0242 2339:0.0242 2340:0.0242 2342:0.0242 2346:0.07259 2353:0.0242 2360:0.0242 2366:0.0242 2367:0.0242 2368:0.09679 2370:0.0242 2372:0.07259 2373:0.04839 2374:0.0242 2375:0.0242 2379:0.04839 2382:0.0242 2385:0.04839 2386:0.0242 2387:0.0242 2389:0.0242 2395:0.0242 2396:0.04839 2398:0.0242 2403:0.04839 2405:0.0242 2406:0.0242 2409:0.04839 2411:0.0242 2415:0.0242 2421:0.0242 2423:0.0242 2424:0.04839 2425:0.0242 2426:0.07259 2427:0.04839 2428:0.0242 2430:0.0242 2433:0.0242 2434:0.0242 2435:0.07259 2439:0.0242 2440:0.0242 2443:0.0242 2446:0.0242 2447:0.0242 2449:0.0242 2450:0.0242 2452:0.0242 2457:0.07259 2465:0.0242 2466:0.0242 2468:0.0242 2469:0.0242 2472:0.0242 2481:0.0242 2487:0.0242 2488:0.0242 2499:0.0242 2502:0.04839 2515:0.0242 2521:0.04839 2523:0.0242 2530:0.0242 2531:0.0242 2534:0.0242 2542:0.0242 2545:0.0242 2547:0.04839 2555:0.04839 2557:0.0242 2558:0.0242 2561:0.0242 2562:0.0242 2563:0.0242 2564:0.0242 2568:0.0242 2575:0.0242 2576:0.0242 2579:0.04839 2587:0.04839 2615:0.0242 2619:0.0242 2621:0.04839 2623:0.04839 2624:0.0242 2625:0.04839 2627:0.0242 2629:0.0242 2633:0.0242 2634:0.0242 2635:0.07259 2640:0.04839 2641:0.04839 2642:0.07259 2647:0.0242 2649:0.0242 2651:0.0242 2652:0.0242 2655:0.07259 2657:0.0242 2659:0.0242 2660:0.0242 2665:0.0242 2666:0.0242 2669:0.0242 2673:0.0242 2674:0.0242 2677:0.0242 2679:0.07259 2681:0.0242 2682:0.0242 2684:0.0242 2685:0.0242 2688:0.0242 2689:0.07259 2705:0.0242 2707:0.04839 2711:0.0242 2717:0.0242 2718:0.07259 2720:0.0242 2728:0.0242 2739:0.0242 2748:0.0242 2750:0.0242 2752:0.0242 2762:0.04839 2771:0.0242 2789:0.0242 2794:0.0242 2796:0.0242 2797:0.0242 2799:0.0242 2807:0.0242 2808:0.0242 2811:0.0242 2813:0.0242 2816:0.0242 2818:0.0242 2830:0.0242 2834:0.0242 2843:0.0242 2851:0.0242 2853:0.0242 2854:0.0242 2889:0.0242 2890:0.0242 2892:0.0242 2906:0.0242 2907:0.0242 2908:0.04839 2916:0.0242 2919:0.0242 2920:0.0242 2921:0.0242 2928:0.0242 2937:0.0242 2940:0.0242 2962:0.04839 2964:0.0242 2968:0.0242 2970:0.0242 2971:0.0242 2981:0.0242 2982:0.07259 2985:0.0242 2986:0.0242 2988:0.0242 2992:0.0242 2994:0.0242 3002:0.0242 3007:0.04839 3025:0.0242 3031:0.0242 3034:0.0242 3036:0.0242 3037:0.0242 3047:0.0242 3048:0.0242 3050:0.0242 3051:0.0242 3055:0.0242 3058:0.0242 3062:0.0242 3066:0.0242 3070:0.0242 3071:0.04839 3073:0.0242 3076:0.04839 3078:0.0242 3082:0.0242 3109:0.04839 3110:0.0242 3120:0.0242 3121:0.0242 3126:0.04839 3142:0.0242 3157:0.0242 3168:0.0242 3174:0.0242 3179:0.04839 3202:0.0242 3211:0.0242 3215:0.0242 3216:0.0242 3221:0.0242 3222:0.0242 3244:0.0242 3258:0.0242 3273:0.0242 3280:0.0242 3295:0.0242 3301:0.0242 3315:0.0242 3321:0.0242 3323:0.0242 3341:0.0242 3342:0.0242 3362:0.0242 3363:0.0242 3366:0.0242 3368:0.0242 3370:0.0242 3376:0.04839 3393:0.0242 3401:0.0242 3410:0.0242 3420:0.04839 3426:0.0242 3429:0.04839 3430:0.0242 3434:0.04839 3438:0.07259 3448:0.0242 3454:0.04839 3456:0.0242 3461:0.0242 3466:0.04839 3470:0.0242 3476:0.0242 3480:0.07259 3482:0.07259 3484:0.0242 3488:0.04839 3492:0.0242 3494:0.0242 3496:0.0242 3500:0.0242 3503:0.04839 3512:0.0242 3515:0.0242 3520:0.0242 3523:0.0242 3533:0.0242 3534:0.0242 3554:0.0242 3556:0.0242 3557:0.0242 3558:0.0242 3561:0.0242 3566:0.0242 3592:0.0242 3595:0.0242 3600:0.0242 3604:0.0242 3607:0.0242 3616:0.0242 3622:0.0242 3626:0.0242 3647:0.0242 3651:0.0242 3653:0.0242 3654:0.0242 3656:0.0242 3657:0.0242 3661:0.0242 3666:0.0242 3667:0.0242 3669:0.0242 3671:0.0242 3672:0.0242 3674:0.0242 3679:0.09679 3680:0.0242 3681:0.0242 3687:0.07259 3689:0.04839 3690:0.0242 3694:0.0242 3698:0.0242 3709:0.04839 3728:0.04839 3729:0.0242 3732:0.0242 3733:0.04839 3736:0.07259 3739:0.0242 3740:0.0242 3741:0.0242 3744:0.0242 3745:0.0242 3749:0.0242 3752:0.07259 3754:0.0242 3757:0.0242 3760:0.0242 3772:0.0242 3774:0.0242 3775:0.0242 3776:0.0242 3783:0.0242 3795:0.0242 3799:0.04839 3801:0.0242 3813:0.0242 3814:0.0242 3815:0.0242 3818:0.04839 3819:0.0242 3824:0.0242 3834:0.0242 3835:0.0242 3836:0.0242 3838:0.0242 3840:0.0242 3841:0.0242 3843:0.0242 3850:0.0242 3854:0.0242 3866:0.0242 3867:0.0242 3876:0.0242 3878:0.0242 3883:0.0242 3887:0.0242 3898:0.0242 3901:0.0242 3908:0.04839 3916:0.0242 3925:0.0242 3927:0.04839 3930:0.0242 3934:0.0242 3936:0.04839 3941:0.0242 3942:0.0242 3943:0.07259 3948:0.0242 3950:0.0242 3951:0.0242 3956:0.0242 3970:0.0242 3972:0.0242 3987:0.0242 3989:0.0242 3990:0.0242 3992:0.0242 3994:0.0242 3996:0.0242 4000:0.0242 4004:0.0242 4006:0.04839 4007:0.0242 4008:0.0242 4010:0.04839 4012:0.0242 4016:0.04839 4026:0.04839 4027:0.04839 4032:0.04839 4033:0.04839 4039:0.0242 4047:0.0242 4048:0.0242 4054:0.07259 4056:0.0242 4058:0.0242 4059:0.0242 4070:0.04839 4071:0.0242 4073:0.0242 4079:0.0242 4080:0.04839 4081:0.0242 4084:0.04839 4086:0.0242 4091:0.0242 4092:0.04839 4093:0.0242 
0.03125 1:0.02088 3:0.04176 4:0.02088 5:0.04176 6:0.02088 7:0.02088 9:0.02088 11:0.06264 12:0.04176 13:0.06264 18:0.04176 19:0.02088 22:0.02088 26:0.02088 30:0.04176 35:0.02088 40:0.02088 41:0.06264 44:0.04176 46:0.02088 47:0.02088 49:0.02088 50:0.02088 52:0.08351 54:0.04176 55:0.02088 56:0.02088 58:0.02088 61:0.02088 62:0.04176 71:0.02088 72:0.02088 73:0.02088 75:0.02088 79:0.04176 82:0.02088 86:0.02088 89:0.02088 100:0.02088 101:0.02088 102:0.02088 111:0.02088 118:0.04176 119:0.04176 122:0.02088 137:0.02088 143:0.02088 145:0.02088 147:0.02088 149:0.02088 157:0.02088 159:0.02088 163:0.02088 164:0.04176 171:0.02088 174:0.04176 175:0.02088 181:0.02088 185:0.02088 193:0.02088 196:0.02088 197:0.02088 208:0.08351 209:0.02088 211:0.02088 213:0.02088 214:0.02088 216:0.02088 219:0.04176 222:0.02088 223:0.02088 225:0.02088 229:0.02088 230:0.02088 231:0.02088 233:0.02088 244:0.02088 245:0.02088 246:0.02088 253:0.02088 254:0.02088 255:0.02088 257:0.02088 260:0.04176 263:0.02088 271:0.02088 275:0.02088 280:0.02088 282:0.02088 284:0.02088 286:0.02088 292:0.04176 299:0.02088 300:0.02088 306:0.02088 308:0.04176 314:0.04176 315:0.02088 316:0.04176 327:0.02088 331:0.02088 337:0.04176 344:0.02088 353:0.04176 356:0.02088 363:0.02088 375:0.02088 377:0.02088 380:0.02088 383:0.02088 384:0.04176 395:0.04176 396:0.02088 399:0.04176 402:0.02088 403:0.02088 404:0.02088 406:0.02088 415:0.04176 418:0.02088 421:0.02088 427:0.02088 433:0.02088 437:0.02088 439:0.02088 442:0.02088 443:0.04176 444:0.02088 446:0.02088 453:0.02088 469:0.02088 470:0.02088 471:0.02088 472:0.02088 473:0.04176 476:0.02088 479:0.02088 483:0.02088 485:0.02088 488:0.02088 490:0.04176 512:0.04176 514:0.04176 516:0.02088 530:0.02088 539:0.02088 547:0.02088 552:0.02088 554:0.02088 558:0.02088 563:0.04176 565:0.02088 568:0.04176 569:0.02088 574:0.02088 576:0.02088 577:0.02088 580:0.02088 584:0.02088 585:0.02088 588:0.02088 593:0.02088 594:0.02088 598:0.02088 602:0.02088 607:0.02088 611:0.04176 612:0.02088 618:0.02088 622:0.02088 623:0.02088 626:0.02088 629:0.06264 630:0.02088 631:0.04176 632:0.02088 633:0.02088 635:0.02088 637:0.02088 640:0.02088 642:0.02088 643:0.02088 645:0.02088 647:0.02088 648:0.02088 649:0.02088 652:0.02088 654:0.02088 655:0.04176 656:0.02088 658:0.02088 659:0.02088 665:0.04176 667:0.02088 671:0.02088 673:0.02088 675:0.02088 679:0.04176 681:0.02088 684:0.02088 689:0.02088 693:0.02088 695:0.06264 700:0.02088 714:0.02088 722:0.02088 724:0.04176 728:0.02088 737:0.02088 741:0.04176 744:0.02088 745:0.02088 752:0.02088 758:0.02088 759:0.02088 762:0.02088 766:0.04176 772:0.06264 778:0.02088 784:0.02088 785:0.02088 788:0.06264 801:0.02088 804:0.02088 809:0.02088 818:0.02088 820:0.08351 826:0.02088 828:0.04176 832:0.08351 835:0.02088 841:0.02088 842:0.02088 843:0.02088 845:0.02088 846:0.02088 847:0.02088 852:0.02088 853:0.02088 862:0.02088 863:0.02088 864:0.04176 872:0.02088 875:0.02088 876:0.02088 877:0.02088 880:0.02088 881:0.02088 884:0.02088 885:0.02088 886:0.02088 890:0.02088 892:0.04176 894:0.02088 897:0.04176 899:0.02088 902:0.02088 903:0.02088 904:0.04176 906:0.02088 909:0.02088 910:0.02088 911:0.02088 913:0.02088 914:0.02088 918:0.06264 919:0.02088 923:0.02088 924:0.02088 930:0.02088 931:0.02088 932:0.02088 938:0.04176 947:0.02088 948:0.06264 950:0.02088 954:0.02088 957:0.02088 959:0.02088 969:0.02088 971:0.02088 976:0.02088 977:0.02088 979:0.02088 982:0.08351 998:0.02088 1000:0.02088 1003:0.02088 1007:0.02088 1010:0.04176 1012:0.06264 1013:0.02088 1015:0.02088 1016:0.02088 1017:0.02088 1020:0.04176 1022:0.04176 1024:0.02088 1025:0.02088 1026:0.06264 1027:0.04176 1029:0.02088 1034:0.02088 1037:0.02088 1038:0.02088 1040:0.02088 1043:0.02088 1044:0.02088 1049:0.02088 1050:0.02088 1055:0.02088 1067:0.02088 1068:0.02088 1078:0.02088 1081:0.02088 1082:0.04176 1089:0.02088 1092:0.02088 1094:0.02088 1097:0.02088 1099:0.02088 1103:0.02088 1109:0.02088 1113:0.02088 1120:0.02088 1123:0.02088 1125:0.04176 1128:0.02088 1129:0.02088 1130:0.02088 1133:0.02088 1134:0.04176 1136:0.02088 1138:0.02088 1142:0.02088 1143:0.02088 1145:0.02088 1147:0.02088 1152:0.02088 1153:0.02088 1157:0.02088 1159:0.02088 1164:0.02088 1165:0.02088 1166:0.02088 1168:0.02088 1170:0.02088 1173:0.02088 1176:0.02088 1177:0.04176 1179:0.02088 1180:0.04176 1182:0.02088 1184:0.02088 1185:0.02088 1188:0.02088 1189:0.02088 1191:0.02088 1192:0.02088 1193:0.02088 1194:0.02088 1195:0.02088 1197:0.02088 1198:0.02088 1205:0.04176 1210:0.02088 1211:0.02088 1215:0.02088 1217:0.02088 1221:0.02088 1229:0.06264 1235:0.02088 1236:0.02088 1240:0.04176 1242:0.02088 1244:0.04176 1248:0.02088 1249:0.02088 1250:0.02088 1252:0.02088 1253:0.02088 1254:0.04176 1255:0.02088 1257:0.02088 1259:0.02088 1261:0.02088 1262:0.02088 1263:0.02088 1264:0.04176 1267:0.02088 1274:0.02088 1275:0.02088 1276:0.02088 1278:0.02088 1281:0.02088 1282:0.02088 1283:0.02088 1295:0.02088 1302:0.02088 1303:0.02088 1307:0.02088 1308:0.04176 1311:0.02088 1314:0.02088 1317:0.02088 1318:0.02088 1319:0.02088 1320:0.02088 1321:0.04176 1322:0.02088 1323:0.02088 1326:0.02088 1327:0.02088 1334:0.02088 1335:0.02088 1337:0.02088 1340:0.02088 1341:0.02088 1345:0.04176 1348:0.02088 1350:0.02088 1351:0.02088 1354:0.04176 1355:0.02088 1358:0.02088 1359:0.02088 1369:0.02088 1372:0.02088 1375:0.02088 1376:0.02088 1380:0.02088 1381:0.02088 1382:0.02088 1383:0.02088 1388:0.02088 1390:0.02088 1397:0.02088 1398:0.02088 1401:0.02088 1403:0.02088 1404:0.02088 1407:0.02088 1409:0.02088 1410:0.02088 1411:0.02088 1418:0.04176 1419:0.02088 1424:0.04176 1428:0.02088 1430:0.02088 1431:0.02088 1432:0.02088 1433:0.02088 1439:0.02088 1449:0.02088 1453:0.02088 1464:0.02088 1465:0.02088 1467:0.02088 1476:0.02088 1478:0.02088 1486:0.02088 1491:0.02088 1493:0.02088 1494:0.02088 1495:0.02088 1497:0.02088 1499:0.02088 1500:0.04176 1502:0.02088 1506:0.02088 1507:0.04176 1508:0.02088 1514:0.04176 1515:0.02088 1516:0.02088 1519:0.02088 1520:0.02088 1529:0.02088 1530:0.02088 1534:0.04176 1536:0.06264 1539:0.02088 1540:0.02088 1542:0.02088 1544:0.02088 1546:0.02088 1560:0.06264 1564:0.02088 1571:0.02088 1573:0.02088 1574:0.02088 1576:0.04176 1577:0.06264 1580:0.02088 1583:0.02088 1584:0.04176 1593:0.04176 1595:0.02088 1598:0.02088 1600:0.02088 1601:0.02088 1605:0.02088 1610:0.02088 1615:0.02088 1616:0.02088 1621:0.02088 1623:0.02088 1624:0.04176 1625:0.02088 1630:0.04176 1631:0.02088 1633:0.02088 1643:0.02088 1653:0.02088 1657:0.04176 1658:0.04176 1659:0.02088 1669:0.02088 1675:0.02088 1676:0.02088 1683:0.02088 1684:0.02088 1685:0.02088 1691:0.02088 1694:0.02088 1697:0.04176 1699:0.02088 1703:0.02088 1705:0.02088 1706:0.02088 1715:0.04176 1723:0.02088 1726:0.02088 1729:0.02088 1730:0.02088 1747:0.02088 1748:0.02088 1749:0.02088 1752:0.02088 1754:0.02088 1759:0.02088 1762:0.04176 1763:0.02088 1765:0.02088 1766:0.02088 1769:0.02088 1771:0.02088 1772:0.02088 1774:0.02088 1776:0.02088 1782:0.02088 1785:0.02088 1788:0.02088 1792:0.02088 1805:0.02088 1807:0.02088 1812:0.02088 1815:0.04176 1822:0.02088 1846:0.02088 1848:0.04176 1857:0.02088 1858:0.02088 1863:0.02088 1866:0.02088 1867:0.04176 1868:0.02088 1870:0.02088 1874:0.02088 1876:0.02088 1877:0.02088 1879:0.02088 1880:0.02088 1881:0.02088 1882:0.02088 1885:0.02088 1888:0.02088 1890:0.04176 1891:0.04176 1896:0.04176 1897:0.02088 1898:0.02088 1902:0.04176 1903:0.02088 1911:0.02088 1912:0.02088 1913:0.02088 1920:0.02088 1924:0.02088 1925:0.02088 1927:0.02088 1929:0.04176 1930:0.02088 1931:0.02088 1934:0.02088 1935:0.02088 1936:0.02088 1939:0.04176 1943:0.02088 1944:0.02088 1948:0.02088 1950:0.02088 1952:0.02088 1953:0.02088 1957:0.06264 1958:0.06264 1961:0.06264 1966:0.02088 1977:0.02088 1980:0.02088 1983:0.02088 1984:0.02088 1990:0.02088 1998:0.02088 2004:0.02088 2008:0.02088 2011:0.02088 2020:0.02088 2022:0.02088 2038:0.02088 2039:0.02088 2043:0.02088 2046:0.04176 2047:0.04176 2048:0.04176 2049:0.02088 2050:0.02088 2051:0.04176 2052:0.04176 2056:0.04176 2059:0.04176 2062:0.02088 2063:0.02088 2064:0.02088 2071:0.02088 2076:0.02088 2078:0.04176 2084:0.02088 2085:0.02088 2086:0.02088 2101:0.04176 2103:0.02088 2104:0.02088 2112:0.04176 2113:0.02088 2114:0.02088 2119:0.02088 2127:0.02088 2131:0.02088 2133:0.02088 2142:0.02088 2143:0.02088 2144:0.04176 2147:0.04176 2152:0.02088 2155:0.02088 2159:0.04176 2168:0.02088 2170:0.02088 2171:0.02088 2176:0.02088 2177:0.02088 2186:0.02088 2187:0.02088 2190:0.02088 2192:0.02088 2195:0.02088 2198:0.02088 2199:0.02088 2201:0.02088 2206:0.12527 2207:0.02088 2209:0.02088 2210:0.04176 2212:0.02088 2215:0.04176 2217:0.02088 2218:0.02088 2222:0.02088 2227:0.02088 2230:0.02088 2234:0.02088 2236:0.02088 2238:0.04176 2240:0.04176 2243:0.02088 2249:0.04176 2251:0.02088 2259:0.02088 2260:0.02088 2264:0.02088 2269:0.02088 2270:0.02088 2271:0.02088 2273:0.02088 2274:0.06264 2275:0.02088 2276:0.02088 2281:0.02088 2283:0.02088 2293:0.02088 2294:0.06264 2298:0.02088 2301:0.04176 2302:0.02088 2303:0.02088 2305:0.06264 2309:0.04176 2312:0.02088 2315:0.02088 2318:0.02088 2319:0.02088 2321:0.04176 2324:0.02088 2330:0.02088 2332:0.02088 2333:0.02088 2334:0.02088 2335:0.02088 2337:0.02088 2340:0.02088 2342:0.02088 2343:0.04176 2350:0.02088 2352:0.02088 2356:0.02088 2361:0.04176 2364:0.04176 2367:0.04176 2368:0.02088 2369:0.02088 2374:0.02088 2377:0.02088 2378:0.02088 2379:0.04176 2380:0.04176 2385:0.02088 2386:0.02088 2388:0.04176 2391:0.02088 2394:0.02088 2398:0.02088 2399:0.02088 2401:0.02088 2403:0.02088 2406:0.02088 2408:0.02088 2415:0.02088 2417:0.02088 2422:0.02088 2424:0.02088 2425:0.04176 2427:0.02088 2433:0.02088 2434:0.02088 2438:0.02088 2439:0.02088 2441:0.02088 2442:0.02088 2447:0.02088 2449:0.02088 2454:0.02088 2467:0.02088 2469:0.02088 2472:0.02088 2473:0.04176 2474:0.02088 2485:0.02088 2489:0.02088 2490:0.02088 2492:0.02088 2495:0.02088 2496:0.02088 2502:0.02088 2504:0.02088 2513:0.04176 2514:0.02088 2515:0.02088 2516:0.02088 2518:0.02088 2521:0.02088 2522:0.02088 2523:0.04176 2526:0.02088 2530:0.02088 2531:0.02088 2532:0.02088 2533:0.02088 2534:0.02088 2535:0.02088 2537:0.02088 2538:0.02088 2539:0.04176 2546:0.02088 2548:0.02088 2550:0.02088 2551:0.02088 2559:0.02088 2561:0.04176 2563:0.02088 2567:0.02088 2568:0.02088 2570:0.02088 2574:0.06264 2576:0.02088 2577:0.02088 2580:0.02088 2582:0.02088 2585:0.04176 2590:0.02088 2596:0.02088 2600:0.02088 2601:0.02088 2602:0.02088 2603:0.02088 2605:0.02088 2607:0.02088 2608:0.04176 2611:0.02088 2613:0.02088 2617:0.02088 2619:0.02088 2623:0.02088 2624:0.04176 2627:0.02088 2628:0.02088 2629:0.02088 2631:0.02088 2633:0.02088 2634:0.02088 2637:0.02088 2639:0.04176 2640:0.02088 2643:0.06264 2649:0.02088 2657:0.02088 2658:0.04176 2661:0.02088 2665:0.02088 2666:0.02088 2667:0.02088 2672:0.02088 2677:0.02088 2679:0.02088 2682:0.02088 2683:0.02088 2686:0.02088 2689:0.04176 2690:0.02088 2692:0.08351 2698:0.02088 2699:0.02088 2700:0.02088 2704:0.02088 2708:0.06264 2713:0.02088 2714:0.02088 2715:0.02088 2716:0.02088 2718:0.02088 2721:0.04176 2728:0.02088 2736:0.02088 2742:0.02088 2747:0.02088 2752:0.02088 2755:0.02088 2762:0.02088 2763:0.02088 2770:0.02088 2772:0.02088 2773:0.02088 2777:0.04176 2778:0.02088 2794:0.02088 2795:0.02088 2799:0.02088 2802:0.02088 2807:0.02088 2816:0.02088 2820:0.04176 2822:0.02088 2826:0.02088 2853:0.02088 2856:0.02088 2857:0.02088 2863:0.02088 2865:0.02088 2868:0.02088 2876:0.02088 2880:0.02088 2887:0.04176 2890:0.02088 2891:0.02088 2894:0.06264 2895:0.02088 2898:0.02088 2900:0.02088 2908:0.02088 2909:0.02088 2910:0.04176 2915:0.04176 2918:0.04176 2937:0.02088 2939:0.02088 2945:0.06264 2950:0.02088 2952:0.02088 2954:0.02088 2961:0.06264 2964:0.02088 2965:0.02088 2968:0.02088 2972:0.02088 2975:0.02088 2978:0.02088 2979:0.02088 2984:0.02088 2985:0.02088 2986:0.02088 2992:0.02088 2993:0.02088 3000:0.02088 3001:0.02088 3008:0.04176 3009:0.02088 3015:0.02088 3030:0.02088 3032:0.02088 3034:0.02088 3035:0.02088 3043:0.02088 3045:0.06264 3054:0.02088 3064:0.04176 3067:0.02088 3070:0.02088 3071:0.06264 3073:0.02088 3085:0.04176 3086:0.04176 3088:0.02088 3092:0.02088 3093:0.02088 3109:0.02088 3112:0.02088 3121:0.02088 3131:0.02088 3136:0.02088 3137:0.02088 3141:0.02088 3149:0.06264 3151:0.02088 3161:0.02088 3163:0.02088 3167:0.02088 3172:0.02088 3183:0.02088 3190:0.02088 3201:0.02088 3213:0.02088 3214:0.02088 3217:0.02088 3232:0.02088 3234:0.02088 3235:0.02088 3237:0.02088 3258:0.02088 3265:0.02088 3269:0.04176 3277:0.04176 3279:0.06264 3284:0.02088 3285:0.02088 3293:0.02088 3295:0.02088 3300:0.02088 3302:0.02088 3309:0.06264 3315:0.02088 3325:0.04176 3327:0.02088 3328:0.06264 3329:0.02088 3332:0.02088 3335:0.02088 3339:0.02088 3346:0.02088 3347:0.02088 3353:0.02088 3354:0.02088 3355:0.02088 3360:0.02088 3362:0.02088 3363:0.02088 3367:0.04176 3368:0.02088 3370:0.04176 3371:0.02088 3372:0.02088 3375:0.02088 3377:0.02088 3381:0.04176 3382:0.02088 3383:0.04176 3384:0.02088 3386:0.04176 3387:0.02088 3391:0.02088 3399:0.02088 3400:0.02088 3402:0.02088 3406:0.02088 3407:0.02088 3408:0.02088 3410:0.02088 3411:0.06264 3415:0.02088 3416:0.02088 3418:0.04176 3419:0.02088 3422:0.02088 3423:0.02088 3427:0.02088 3430:0.02088 3439:0.02088 3442:0.02088 3444:0.02088 3446:0.02088 3447:0.06264 3451:0.04176 3456:0.06264 3462:0.04176 3466:0.02088 3467:0.02088 3468:0.04176 3478:0.02088 3480:0.04176 3483:0.02088 3486:0.02088 3487:0.04176 3491:0.02088 3494:0.02088 3495:0.02088 3499:0.02088 3501:0.02088 3503:0.02088 3504:0.02088 3505:0.02088 3510:0.04176 3513:0.02088 3519:0.02088 3524:0.02088 3534:0.04176 3539:0.04176 3544:0.02088 3546:0.02088 3552:0.02088 3553:0.02088 3556:0.02088 3558:0.02088 3560:0.02088 3562:0.02088 3567:0.02088 3568:0.02088 3573:0.02088 3584:0.02088 3585:0.08351 3588:0.02088 3593:0.02088 3598:0.02088 3600:0.02088 3601:0.02088 3605:0.02088 3608:0.02088 3610:0.02088 3612:0.02088 3615:0.04176 3616:0.02088 3617:0.02088 3620:0.02088 3622:0.02088 3623:0.02088 3624:0.06264 3627:0.02088 3633:0.02088 3638:0.02088 3640:0.02088 3641:0.04176 3646:0.04176 3649:0.02088 3650:0.06264 3653:0.02088 3655:0.02088 3656:0.04176 3658:0.02088 3660:0.02088 3663:0.02088 3664:0.02088 3667:0.06264 3669:0.06264 3674:0.02088 3676:0.02088 3677:0.02088 3679:0.02088 3686:0.02088 3691:0.02088 3695:0.04176 3696:0.02088 3698:0.02088 3703:0.02088 3707:0.02088 3709:0.02088 3710:0.02088 3713:0.02088 3718:0.02088 3719:0.02088 3723:0.02088 3724:0.02088 3725:0.02088 3728:0.02088 3729:0.04176 3730:0.02088 3733:0.04176 3735:0.02088 3743:0.02088 3744:0.02088 3745:0.04176 3747:0.02088 3748:0.02088 3749:0.06264 3751:0.02088 3758:0.02088 3759:0.02088 3765:0.02088 3773:0.02088 3777:0.02088 3788:0.02088 3789:0.04176 3791:0.02088 3792:0.02088 3795:0.02088 3799:0.02088 3800:0.02088 3807:0.02088 3809:0.04176 3813:0.02088 3814:0.02088 3815:0.02088 3821:0.02088 3825:0.02088 3834:0.04176 3839:0.02088 3840:0.04176 3841:0.02088 3845:0.02088 3858:0.02088 3864:0.02088 3865:0.02088 3868:0.02088 3876:0.02088 3882:0.02088 3890:0.02088 3893:0.02088 3897:0.02088 3901:0.02088 3904:0.02088 3905:0.02088 3909:0.04176 3912:0.02088 3913:0.02088 3918:0.02088 3919:0.02088 3920:0.02088 3923:0.02088 3925:0.04176 3926:0.04176 3927:0.04176 3928:0.02088 3934:0.02088 3935:0.02088 3942:0.02088 3943:0.02088 3946:0.02088 3948:0.04176 3956:0.02088 3957:0.02088 3962:0.02088 3972:0.02088 3978:0.04176 3984:0.02088 3986:0.06264 3988:0.02088 3989:0.04176 3994:0.02088 3997:0.02088 4000:0.02088 4008:0.02088 4010:0.02088 4012:0.04176 4020:0.02088 4021:0.02088 4022:0.02088 4026:0.04176 4034:0.02088 4037:0.02088 4039:0.02088 4045:0.02088 4047:0.02088 4048:0.02088 4050:0.06264 4052:0.04176 4053:0.02088 4054:0.04176 4058:0.02088 4059:0.02088 4061:0.02088 4062:0.02088 4063:0.02088 4065:0.02088 4067:0.02088 4069:0.02088 4071:0.02088 4072:0.02088 4074:0.02088 4075:0.04176 4077:0.02088 4078:0.02088 4079:0.02088 4081:0.02088 4085:0.08351 4086:0.04176 4089:0.02088 4090:0.06264 4091:0.02088 4092:0.02088 4093:0.02088 4094:0.02088 4095:0.02088 4096:0.02088 
0.03125 1:0.05 2:0.025 3:0.025 6:0.025 7:0.025 8:0.025 11:0.025 15:0.025 22:0.025 27:0.025 31:0.025 39:0.05 43:0.025 54:0.025 57:0.025 88:0.025 102:0.025 105:0.025 123:0.025 151:0.025 155:0.05 169:0.05 193:0.025 202:0.025 210:0.025 214:0.05 215:0.05 228:0.025 230:0.025 234:0.025 246:0.075 248:0.025 269:0.025 277:0.05 279:0.025 283:0.025 300:0.025 321:0.025 333:0.225 337:0.025 340:0.025 351:0.025 362:0.025 376:0.025 378:0.025 379:0.025 380:0.025 386:0.025 389:0.025 407:0.05 412:0.05 420:0.025 422:0.025 423:0.025 427:0.025 461:0.025 470:0.025 485:0.025 489:0.025 528:0.025 533:0.075 537:0.025 538:0.025 541:0.025 556:0.025 582:0.025 584:0.025 587:0.025 596:0.05 597:0.025 602:0.025 603:0.025 611:0.025 613:0.025 617:0.025 618:0.025 619:0.025 644:0.025 659:0.025 667:0.025 673:0.025 675:0.025 688:0.025 691:0.025 694:0.05 698:0.025 733:0.025 741:0.025 744:0.025 768:0.025 769:0.025 771:0.025 786:0.05 789:0.075 790:0.05 794:0.025 802:0.125 806:0.075 809:0.025 814:0.025 818:0.075 819:0.125 820:0.05 821:0.025 823:0.025 827:0.2 837:0.025 848:0.025 854:0.025 855:0.025 859:0.025 860:0.025 870:0.025 909:0.025 917:0.025 922:0.025 933:0.025 935:0.025 936:0.05 940:0.025 941:0.075 942:0.075 943:0.075 961:0.025 967:0.025 969:0.025 981:0.025 982:0.075 984:0.025 989:0.025 999:0.025 1006:0.025 1014:0.025 1023:0.025 1026:0.025 1028:0.025 1073:0.025 1082:0.025 1083:0.025 1099:0.025 1108:0.075 1115:0.025 1118:0.025 1130:0.025 1142:0.025 1146:0.025 1159:0.025 1170:0.05 1175:0.025 1177:0.025 1178:0.025 1189:0.025 1196:0.025 1197:0.025 1198:0.05 1210:0.025 1216:0.025 1221:0.05 1223:0.025 1225:0.075 1229:0.175 1230:0.025 1274:0.025 1280:0.025 1281:0.05 1317:0.05 1318:0.025 1323:0.025 1324:0.025 1328:0.025 1330:0.05 1331:0.075 1332:0.2 1343:0.025 1345:0.025 1354:0.05 1355:0.025 1357:0.025 1372:0.025 1377:0.025 1378:0.025 1382:0.05 1384:0.025 1389:0.025 1403:0.025 1406:0.025 1408:0.025 1409:0.025 1415:0.05 1429:0.025 1432:0.025 1438:0.025 1440:0.05 1441:0.025 1444:0.025 1448:0.025 1455:0.025 1457:0.025 1463:0.025 1468:0.025 1472:0.025 1485:0.025 1497:0.025 1501:0.025 1511:0.025 1512:0.025 1514:0.025 1515:0.025 1519:0.025 1526:0.025 1536:0.025 1537:0.025 1543:0.025 1554:0.05 1562:0.025 1563:0.025 1573:0.025 1575:0.025 1578:0.025 1588:0.025 1604:0.025 1606:0.025 1609:0.025 1610:0.025 1611:0.025 1613:0.025 1619:0.025 1620:0.025 1625:0.025 1628:0.025 1630:0.025 1646:0.05 1655:0.025 1658:0.05 1661:0.025 1664:0.05 1665:0.025 1667:0.025 1680:0.05 1686:0.025 1692:0.05 1695:0.025 1696:0.025 1697:0.05 1698:0.05 1700:0.025 1705:0.025 1724:0.025 1731:0.025 1732:0.025 1743:0.025 1755:0.05 1757:0.025 1759:0.025 1774:0.025 1783:0.025 1792:0.025 1806:0.025 1816:0.025 1841:0.025 1844:0.125 1851:0.075 1854:0.025 1880:0.025 1890:0.025 1893:0.025 1896:0.025 1905:0.025 1938:0.025 1944:0.025 1946:0.075 1950:0.025 1953:0.025 1954:0.025 1959:0.025 1961:0.025 1962:0.05 1977:0.025 1990:0.025 1991:0.025 2007:0.025 2036:0.025 2038:0.025 2048:0.025 2050:0.025 2058:0.025 2062:0.025 2074:0.025 2091:0.025 2099:0.025 2102:0.025 2110:0.1 2116:0.025 2118:0.025 2119:0.025 2132:0.075 2143:0.05 2146:0.025 2151:0.05 2154:0.025 2164:0.025 2195:0.025 2203:0.025 2215:0.025 2223:0.025 2234:0.025 2253:0.025 2255:0.025 2289:0.025 2290:0.025 2291:0.025 2294:0.025 2302:0.025 2319:0.025 2325:0.025 2328:0.025 2334:0.025 2335:0.025 2338:0.025 2343:0.05 2346:0.025 2348:0.025 2351:0.025 2354:0.025 2367:0.025 2379:0.025 2381:0.075 2384:0.025 2387:0.05 2402:0.025 2408:0.025 2412:0.025 2414:0.025 2415:0.025 2423:0.025 2426:0.025 2442:0.05 2445:0.025 2449:0.025 2451:0.075 2452:0.025 2463:0.025 2465:0.025 2472:0.025 2473:0.075 2484:0.025 2487:0.025 2488:0.025 2494:0.025 2509:0.05 2512:0.025 2522:0.05 2534:0.025 2535:0.025 2537:0.025 2539:0.05 2546:0.05 2557:0.025 2558:0.025 2563:0.025 2564:0.025 2571:0.025 2573:0.025 2574:0.025 2576:0.075 2577:0.025 2584:0.05 2607:0.025 2621:0.05 2622:0.025 2624:0.025 2634:0.025 2640:0.025 2645:0.025 2652:0.025 2660:0.025 2667:0.05 2669:0.025 2672:0.025 2676:0.075 2683:0.025 2685:0.025 2689:0.025 2692:0.075 2694:0.05 2700:0.025 2704:0.05 2711:0.025 2717:0.025 2724:0.025 2740:0.05 2752:0.025 2755:0.025 2761:0.025 2765:0.125 2774:0.05 2781:0.075 2791:0.025 2792:0.025 2797:0.05 2798:0.025 2816:0.025 2826:0.05 2830:0.025 2849:0.025 2866:0.05 2868:0.075 2874:0.025 2875:0.05 2899:0.025 2903:0.05 2915:0.025 2922:0.025 2923:0.025 2926:0.025 2932:0.125 2938:0.025 2960:0.025 2963:0.025 2969:0.025 2975:0.05 2996:0.05 2999:0.05 3036:0.025 3070:0.025 3071:0.025 3072:0.025 3073:0.05 3082:0.025 3110:0.025 3111:0.025 3125:0.025 3126:0.05 3142:0.05 3153:0.025 3156:0.075 3157:0.05 3167:0.025 3169:0.025 3174:0.025 3179:0.025 3204:0.025 3206:0.075 3207:0.025 3208:0.025 3211:0.025 3221:0.05 3222:0.025 3233:0.025 3256:0.025 3265:0.025 3270:0.125 3273:0.05 3274:0.05 3275:0.025 3276:0.025 3277:0.05 3278:0.025 3279:0.175 3284:0.025 3290:0.025 3303:0.025 3306:0.075 3307:0.025 3308:0.225 3318:0.025 3324:0.025 3347:0.025 3392:0.025 3402:0.025 3404:0.025 3411:0.025 3415:0.025 3417:0.05 3418:0.075 3424:0.05 3432:0.025 3433:0.05 3440:0.025 3444:0.025 3461:0.025 3467:0.025 3474:0.025 3477:0.025 3487:0.025 3495:0.025 3497:0.05 3505:0.025 3512:0.025 3524:0.025 3526:0.025 3533:0.05 3535:0.075 3559:0.025 3636:0.025 3645:0.025 3656:0.025 3660:0.025 3668:0.025 3679:0.025 3683:0.025 3685:0.1 3688:0.025 3703:0.025 3707:0.05 3716:0.025 3717:0.025 3732:0.025 3737:0.025 3739:0.025 3741:0.05 3745:0.025 3750:0.025 3752:0.025 3757:0.05 3761:0.025 3764:0.075 3768:0.075 3770:0.025 3772:0.05 3791:0.05 3797:0.025 3801:0.025 3804:0.025 3812:0.025 3841:0.025 3854:0.025 3861:0.025 3865:0.025 3867:0.025 3875:0.025 3891:0.025 3903:0.025 3923:0.025 3925:0.025 3927:0.05 3928:0.025 3930:0.025 3931:0.025 3933:0.025 3947:0.025 3949:0.025 3954:0.025 3994:0.025 4012:0.025 4013:0.025 4022:0.025 4036:0.025 4045:0.025 4048:0.025 4054:0.025 4055:0.025 4059:0.025 4075:0.025 4076:0.025 4081:0.025 4084:0.025 4087:0.025 4091:0.05 4093:0.05 4096:0.05 
0.03125 1:0.03383 2:0.03383 4:0.03383 6:0.03383 8:0.03383 12:0.03383 13:0.03383 15:0.03383 16:0.06765 17:0.06765 22:0.03383 24:0.03383 32:0.03383 41:0.03383 48:0.03383 49:0.03383 56:0.03383 57:0.03383 58:0.10148 61:0.03383 62:0.03383 63:0.03383 64:0.06765 65:0.06765 67:0.03383 75:0.03383 81:0.03383 87:0.03383 94:0.06765 99:0.03383 126:0.03383 128:0.03383 131:0.03383 153:0.06765 158:0.03383 161:0.03383 162:0.03383 187:0.06765 190:0.03383 192:0.03383 196:0.03383 214:0.03383 223:0.03383 225:0.06765 229:0.10148 232:0.03383 233:0.03383 239:0.03383 244:0.03383 246:0.03383 249:0.03383 254:0.06765 255:0.03383 256:0.06765 257:0.03383 258:0.03383 259:0.03383 261:0.03383 268:0.03383 271:0.03383 299:0.03383 300:0.03383 317:0.03383 321:0.03383 323:0.03383 326:0.03383 328:0.03383 345:0.03383 351:0.03383 365:0.03383 374:0.03383 375:0.03383 377:0.03383 380:0.03383 395:0.03383 406:0.03383 410:0.03383 425:0.03383 431:0.03383 452:0.03383 454:0.03383 474:0.03383 485:0.03383 497:0.03383 501:0.03383 508:0.03383 512:0.03383 519:0.03383 521:0.03383 522:0.03383 555:0.03383 576:0.03383 577:0.03383 592:0.03383 593:0.06765 610:0.03383 611:0.06765 629:0.03383 635:0.06765 637:0.03383 642:0.03383 647:0.03383 648:0.03383 649:0.03383 674:0.03383 676:0.06765 679:0.03383 686:0.03383 691:0.03383 698:0.03383 702:0.03383 704:0.03383 728:0.03383 731:0.03383 738:0.03383 743:0.03383 747:0.03383 748:0.03383 758:0.03383 768:0.03383 770:0.03383 782:0.03383 784:0.03383 822:0.03383 825:0.03383 853:0.03383 854:0.03383 856:0.06765 890:0.03383 899:0.03383 900:0.03383 902:0.03383 913:0.03383 915:0.06765 927:0.03383 931:0.03383 954:0.03383 972:0.03383 974:0.03383 976:0.03383 980:0.03383 982:0.03383 987:0.03383 994:0.03383 1006:0.03383 1010:0.03383 1014:0.06765 1018:0.10148 1019:0.03383 1022:0.06765 1023:0.03383 1024:0.03383 1025:0.06765 1028:0.03383 1029:0.06765 1035:0.03383 1039:0.10148 1040:0.03383 1041:0.03383 1043:0.03383 1063:0.03383 1071:0.03383 1083:0.03383 1088:0.03383 1104:0.03383 1105:0.03383 1116:0.03383 1119:0.03383 1126:0.03383 1127:0.03383 1143:0.03383 1146:0.03383 1149:0.03383 1151:0.03383 1155:0.03383 1168:0.03383 1172:0.03383 1173:0.06765 1177:0.03383 1183:0.06765 1193:0.06765 1196:0.03383 1197:0.03383 1199:0.03383 1209:0.03383 1230:0.03383 1267:0.03383 1269:0.03383 1271:0.03383 1276:0.03383 1279:0.10148 1280:0.03383 1281:0.03383 1282:0.03383 1284:0.03383 1290:0.03383 1303:0.03383 1312:0.06765 1317:0.03383 1318:0.03383 1320:0.06765 1323:0.03383 1343:0.03383 1352:0.03383 1354:0.03383 1367:0.03383 1369:0.03383 1370:0.03383 1377:0.03383 1378:0.03383 1381:0.03383 1390:0.03383 1399:0.03383 1400:0.03383 1401:0.03383 1403:0.03383 1404:0.03383 1412:0.03383 1416:0.03383 1427:0.03383 1457:0.03383 1462:0.03383 1490:0.03383 1493:0.03383 1498:0.03383 1500:0.03383 1502:0.03383 1505:0.03383 1507:0.03383 1514:0.03383 1518:0.03383 1520:0.03383 1521:0.03383 1535:0.03383 1537:0.03383 1551:0.03383 1558:0.03383 1565:0.03383 1573:0.03383 1579:0.03383 1580:0.03383 1583:0.03383 1602:0.03383 1605:0.03383 1608:0.03383 1609:0.03383 1624:0.03383 1637:0.03383 1647:0.03383 1658:0.03383 1662:0.03383 1663:0.03383 1698:0.03383 1705:0.03383 1707:0.03383 1712:0.03383 1723:0.03383 1729:0.03383 1752:0.03383 1761:0.03383 1765:0.03383 1784:0.03383 1798:0.03383 1802:0.03383 1807:0.03383 1816:0.03383 1862:0.03383 1867:0.03383 1876:0.03383 1886:0.03383 1893:0.03383 1896:0.06765 1904:0.03383 1910:0.03383 1921:0.03383 1922:0.03383 1926:0.03383 1930:0.03383 1940:0.06765 1947:0.03383 1953:0.06765 1958:0.06765 1961:0.03383 1974:0.03383 1983:0.03383 1987:0.06765 1994:0.03383 2004:0.03383 2015:0.03383 2016:0.03383 2028:0.03383 2032:0.03383 2044:0.03383 2046:0.03383 2050:0.03383 2051:0.03383 2052:0.06765 2064:0.06765 2072:0.03383 2073:0.03383 2080:0.03383 2081:0.03383 2087:0.03383 2096:0.03383 2105:0.03383 2106:0.03383 2112:0.03383 2113:0.03383 2114:0.03383 2116:0.03383 2123:0.03383 2130:0.06765 2136:0.03383 2155:0.03383 2161:0.03383 2162:0.03383 2187:0.03383 2193:0.03383 2208:0.03383 2211:0.03383 2217:0.03383 2218:0.03383 2224:0.06765 2234:0.03383 2241:0.03383 2244:0.03383 2255:0.03383 2292:0.03383 2301:0.03383 2305:0.03383 2308:0.10148 2309:0.03383 2324:0.03383 2328:0.03383 2330:0.03383 2334:0.03383 2340:0.03383 2343:0.03383 2351:0.03383 2366:0.03383 2368:0.10148 2369:0.06765 2378:0.03383 2379:0.03383 2398:0.03383 2433:0.03383 2438:0.03383 2442:0.03383 2443:0.03383 2444:0.03383 2450:0.03383 2460:0.03383 2475:0.03383 2489:0.03383 2490:0.03383 2499:0.03383 2515:0.03383 2522:0.03383 2530:0.03383 2533:0.03383 2537:0.06765 2538:0.03383 2539:0.03383 2547:0.03383 2552:0.03383 2555:0.03383 2561:0.03383 2564:0.06765 2568:0.03383 2576:0.03383 2577:0.03383 2579:0.03383 2587:0.03383 2589:0.03383 2595:0.03383 2604:0.03383 2609:0.06765 2612:0.03383 2621:0.03383 2643:0.06765 2671:0.03383 2673:0.03383 2681:0.03383 2683:0.03383 2689:0.03383 2692:0.03383 2693:0.06765 2701:0.10148 2704:0.03383 2716:0.03383 2721:0.03383 2724:0.03383 2729:0.03383 2743:0.03383 2752:0.03383 2764:0.03383 2771:0.03383 2772:0.03383 2778:0.03383 2787:0.03383 2789:0.03383 2796:0.03383 2803:0.03383 2805:0.03383 2813:0.03383 2816:0.03383 2820:0.03383 2862:0.03383 2884:0.03383 2888:0.03383 2890:0.03383 2893:0.03383 2903:0.03383 2904:0.03383 2912:0.03383 2920:0.03383 2923:0.03383 2945:0.03383 2949:0.03383 2955:0.03383 2961:0.06765 2969:0.03383 2970:0.03383 2985:0.03383 2990:0.06765 3017:0.03383 3027:0.03383 3032:0.03383 3037:0.03383 3047:0.03383 3054:0.03383 3060:0.03383 3067:0.03383 3068:0.03383 3070:0.03383 3072:0.03383 3078:0.03383 3086:0.03383 3093:0.03383 3112:0.03383 3113:0.03383 3119:0.03383 3126:0.03383 3132:0.03383 3136:0.03383 3167:0.03383 3180:0.03383 3202:0.03383 3221:0.03383 3254:0.03383 3255:0.03383 3286:0.10148 3298:0.03383 3328:0.03383 3344:0.03383 3349:0.03383 3354:0.03383 3359:0.03383 3361:0.03383 3366:0.03383 3371:0.03383 3372:0.03383 3380:0.03383 3390:0.03383 3392:0.03383 3402:0.06765 3408:0.03383 3410:0.03383 3411:0.03383 3414:0.03383 3415:0.03383 3420:0.03383 3422:0.03383 3423:0.06765 3445:0.03383 3453:0.03383 3456:0.03383 3473:0.03383 3474:0.03383 3487:0.03383 3488:0.06765 3499:0.03383 3500:0.03383 3518:0.03383 3522:0.03383 3544:0.03383 3553:0.03383 3559:0.03383 3576:0.03383 3585:0.06765 3590:0.03383 3596:0.03383 3599:0.03383 3601:0.06765 3605:0.06765 3624:0.03383 3625:0.03383 3649:0.10148 3654:0.03383 3655:0.03383 3658:0.03383 3660:0.03383 3664:0.10148 3681:0.03383 3683:0.03383 3687:0.03383 3691:0.03383 3703:0.03383 3707:0.03383 3713:0.06765 3723:0.03383 3733:0.06765 3741:0.03383 3743:0.06765 3745:0.03383 3748:0.03383 3765:0.06765 3769:0.03383 3773:0.03383 3793:0.03383 3794:0.03383 3798:0.06765 3815:0.03383 3834:0.03383 3836:0.03383 3839:0.06765 3851:0.03383 3852:0.03383 3867:0.03383 3873:0.03383 3878:0.03383 3886:0.03383 3894:0.06765 3904:0.03383 3911:0.03383 3913:0.03383 3915:0.03383 3920:0.06765 3923:0.06765 3925:0.03383 3926:0.03383 3936:0.03383 3941:0.03383 3947:0.03383 3953:0.03383 3961:0.03383 3966:0.03383 3973:0.03383 3986:0.06765 3988:0.03383 3993:0.03383 3998:0.03383 4008:0.06765 4015:0.03383 4016:0.03383 4021:0.06765 4022:0.03383 4031:0.03383 4032:0.06765 4039:0.03383 4046:0.03383 4050:0.03383 4051:0.03383 4053:0.06765 4054:0.03383 4058:0.03383 4069:0.10148 4072:0.03383 4074:0.06765 4076:0.03383 4078:0.03383 4080:0.06765 4085:0.06765 4086:0.03383 4087:0.03383 4090:0.03383 4091:0.03383 4092:0.03383 4095:0.06765 4096:0.03383 
0.03125 3:0.05176 4:0.05176 6:0.01294 7:0.01294 8:0.02588 9:0.02588 10:0.02588 11:0.01294 12:0.02588 13:0.05176 14:0.02588 15:0.05176 16:0.05176 17:0.03882 19:0.02588 21:0.02588 23:0.01294 27:0.01294 28:0.01294 29:0.01294 30:0.01294 31:0.01294 32:0.03882 33:0.03882 36:0.03882 38:0.01294 39:0.01294 40:0.07764 42:0.01294 44:0.01294 45:0.02588 47:0.05176 48:0.01294 49:0.02588 50:0.01294 51:0.02588 52:0.02588 53:0.03882 55:0.01294 56:0.01294 57:0.02588 58:0.01294 59:0.02588 60:0.02588 61:0.0647 62:0.09058 63:0.03882 64:0.10352 65:0.0647 69:0.01294 70:0.01294 72:0.01294 73:0.01294 74:0.01294 75:0.01294 76:0.01294 80:0.02588 81:0.01294 83:0.01294 84:0.01294 90:0.01294 92:0.01294 93:0.01294 94:0.01294 95:0.01294 100:0.01294 104:0.03882 105:0.03882 108:0.01294 112:0.02588 113:0.01294 116:0.01294 117:0.01294 118:0.01294 120:0.02588 121:0.01294 125:0.03882 126:0.01294 128:0.01294 129:0.03882 130:0.01294 131:0.01294 132:0.03882 133:0.01294 138:0.02588 139:0.02588 140:0.01294 142:0.02588 144:0.02588 146:0.01294 150:0.01294 156:0.02588 160:0.07764 161:0.01294 163:0.02588 165:0.02588 168:0.01294 169:0.01294 170:0.01294 173:0.01294 178:0.01294 179:0.01294 180:0.01294 182:0.02588 185:0.01294 186:0.0647 187:0.03882 188:0.02588 189:0.02588 192:0.03882 193:0.03882 195:0.02588 196:0.01294 197:0.01294 198:0.01294 200:0.02588 202:0.03882 204:0.02588 208:0.05176 209:0.01294 210:0.02588 211:0.01294 213:0.03882 219:0.01294 223:0.01294 224:0.02588 225:0.07764 228:0.01294 229:0.01294 230:0.01294 232:0.01294 233:0.05176 234:0.01294 235:0.01294 236:0.01294 237:0.01294 239:0.02588 240:0.02588 241:0.0647 242:0.01294 243:0.02588 245:0.03882 246:0.09058 248:0.01294 249:0.02588 250:0.01294 251:0.02588 252:0.01294 253:0.05176 254:0.10352 255:0.09058 256:0.05176 257:0.02588 259:0.01294 260:0.05176 262:0.01294 263:0.01294 265:0.01294 272:0.01294 276:0.01294 280:0.02588 285:0.01294 286:0.01294 288:0.02588 290:0.01294 292:0.02588 293:0.01294 295:0.01294 298:0.02588 299:0.01294 302:0.01294 303:0.01294 310:0.01294 312:0.01294 315:0.01294 318:0.03882 320:0.02588 324:0.01294 325:0.02588 331:0.01294 336:0.01294 353:0.02588 356:0.01294 358:0.01294 361:0.01294 365:0.01294 366:0.01294 368:0.01294 370:0.01294 376:0.02588 377:0.05176 378:0.01294 384:0.01294 398:0.01294 401:0.01294 411:0.01294 414:0.01294 416:0.02588 417:0.03882 418:0.01294 419:0.02588 429:0.01294 430:0.01294 432:0.01294 446:0.01294 448:0.01294 451:0.01294 454:0.01294 457:0.01294 464:0.02588 465:0.03882 469:0.01294 471:0.03882 473:0.01294 479:0.01294 480:0.01294 481:0.01294 486:0.02588 491:0.01294 494:0.01294 496:0.01294 497:0.02588 499:0.01294 500:0.01294 501:0.03882 502:0.01294 503:0.01294 504:0.01294 505:0.05176 509:0.03882 510:0.02588 512:0.02588 514:0.01294 515:0.01294 516:0.0647 517:0.01294 518:0.02588 521:0.03882 522:0.01294 524:0.01294 525:0.05176 526:0.01294 527:0.02588 528:0.01294 529:0.01294 530:0.01294 532:0.02588 533:0.01294 535:0.01294 539:0.01294 550:0.01294 552:0.01294 554:0.01294 556:0.02588 560:0.02588 561:0.02588 565:0.02588 566:0.01294 567:0.03882 572:0.01294 574:0.02588 576:0.01294 579:0.02588 581:0.01294 584:0.03882 585:0.01294 587:0.01294 592:0.01294 593:0.02588 595:0.02588 597:0.02588 598:0.01294 608:0.01294 611:0.01294 618:0.01294 619:0.01294 624:0.03882 629:0.01294 631:0.01294 632:0.01294 633:0.01294 640:0.07764 641:0.02588 642:0.01294 643:0.01294 644:0.01294 648:0.02588 649:0.01294 650:0.01294 654:0.02588 655:0.01294 657:0.01294 659:0.02588 661:0.03882 662:0.01294 666:0.01294 667:0.01294 671:0.01294 673:0.03882 677:0.02588 678:0.01294 682:0.01294 690:0.01294 691:0.03882 700:0.02588 702:0.02588 703:0.01294 705:0.01294 710:0.01294 712:0.02588 713:0.01294 717:0.01294 720:0.02588 722:0.02588 727:0.01294 728:0.02588 730:0.01294 731:0.01294 740:0.01294 741:0.05176 742:0.01294 744:0.03882 745:0.02588 747:0.01294 750:0.02588 751:0.01294 752:0.01294 753:0.02588 758:0.02588 761:0.01294 763:0.01294 765:0.02588 766:0.01294 767:0.01294 768:0.02588 769:0.03882 771:0.01294 772:0.02588 773:0.01294 775:0.01294 777:0.01294 780:0.01294 782:0.01294 786:0.01294 788:0.01294 791:0.01294 798:0.01294 799:0.01294 800:0.01294 801:0.01294 805:0.02588 806:0.01294 814:0.01294 816:0.01294 831:0.02588 832:0.02588 834:0.01294 835:0.01294 837:0.01294 840:0.01294 842:0.02588 843:0.01294 848:0.01294 849:0.02588 850:0.01294 851:0.02588 855:0.01294 861:0.01294 863:0.02588 865:0.02588 873:0.02588 875:0.01294 876:0.01294 880:0.01294 882:0.02588 885:0.01294 886:0.01294 890:0.01294 891:0.01294 892:0.02588 895:0.01294 896:0.03882 897:0.02588 899:0.02588 900:0.0647 905:0.01294 907:0.01294 910:0.01294 913:0.01294 914:0.01294 915:0.01294 917:0.01294 918:0.01294 927:0.01294 929:0.03882 931:0.01294 934:0.01294 937:0.01294 938:0.01294 939:0.01294 944:0.01294 947:0.01294 948:0.01294 952:0.02588 954:0.01294 956:0.01294 957:0.01294 959:0.01294 961:0.01294 962:0.03882 963:0.02588 964:0.02588 965:0.02588 969:0.01294 970:0.01294 971:0.02588 976:0.01294 977:0.03882 979:0.02588 980:0.0647 981:0.0647 982:0.03882 983:0.03882 984:0.01294 985:0.01294 986:0.01294 989:0.02588 990:0.01294 991:0.02588 992:0.03882 993:0.02588 994:0.01294 995:0.01294 998:0.02588 1002:0.03882 1004:0.01294 1005:0.01294 1009:0.05176 1010:0.01294 1011:0.01294 1012:0.02588 1013:0.03882 1014:0.03882 1015:0.01294 1016:0.0647 1018:0.02588 1019:0.02588 1020:0.05176 1021:0.02588 1022:0.05176 1023:0.05176 1024:0.05176 1025:0.01294 1026:0.01294 1027:0.01294 1028:0.05176 1030:0.02588 1032:0.01294 1033:0.02588 1034:0.05176 1039:0.01294 1040:0.09058 1042:0.01294 1044:0.01294 1045:0.01294 1047:0.01294 1048:0.01294 1050:0.02588 1051:0.03882 1054:0.02588 1057:0.01294 1058:0.01294 1059:0.01294 1060:0.01294 1065:0.03882 1066:0.01294 1067:0.01294 1071:0.05176 1073:0.01294 1076:0.02588 1082:0.01294 1083:0.01294 1085:0.02588 1086:0.01294 1088:0.03882 1090:0.02588 1096:0.01294 1097:0.01294 1098:0.01294 1099:0.02588 1104:0.02588 1106:0.01294 1118:0.01294 1119:0.01294 1125:0.01294 1127:0.01294 1129:0.01294 1138:0.01294 1141:0.01294 1142:0.01294 1146:0.01294 1148:0.01294 1149:0.01294 1150:0.02588 1151:0.05176 1152:0.05176 1153:0.01294 1154:0.01294 1155:0.01294 1156:0.02588 1157:0.01294 1158:0.01294 1164:0.01294 1165:0.01294 1166:0.01294 1167:0.01294 1168:0.01294 1170:0.03882 1171:0.01294 1172:0.01294 1173:0.01294 1176:0.01294 1177:0.01294 1179:0.01294 1182:0.01294 1185:0.02588 1188:0.02588 1189:0.01294 1190:0.02588 1193:0.01294 1194:0.01294 1197:0.03882 1199:0.01294 1200:0.01294 1204:0.01294 1205:0.01294 1207:0.01294 1210:0.02588 1216:0.01294 1217:0.01294 1221:0.01294 1225:0.01294 1233:0.01294 1238:0.01294 1240:0.01294 1247:0.01294 1249:0.03882 1251:0.01294 1259:0.01294 1262:0.01294 1265:0.02588 1267:0.02588 1269:0.0647 1270:0.01294 1271:0.01294 1272:0.02588 1273:0.01294 1275:0.01294 1277:0.02588 1279:0.01294 1280:0.05176 1281:0.03882 1282:0.03882 1283:0.02588 1284:0.02588 1287:0.01294 1288:0.01294 1289:0.01294 1293:0.01294 1295:0.01294 1296:0.02588 1297:0.01294 1299:0.01294 1306:0.02588 1312:0.03882 1313:0.02588 1315:0.01294 1316:0.01294 1317:0.01294 1318:0.01294 1321:0.01294 1323:0.01294 1326:0.01294 1329:0.01294 1340:0.01294 1341:0.02588 1342:0.02588 1343:0.01294 1344:0.02588 1345:0.03882 1351:0.01294 1352:0.01294 1354:0.01294 1356:0.01294 1357:0.01294 1359:0.01294 1360:0.01294 1361:0.01294 1364:0.01294 1373:0.01294 1380:0.01294 1382:0.01294 1383:0.01294 1384:0.01294 1393:0.01294 1395:0.01294 1397:0.01294 1403:0.01294 1404:0.01294 1405:0.01294 1407:0.01294 1409:0.02588 1410:0.01294 1411:0.01294 1416:0.01294 1418:0.01294 1421:0.01294 1422:0.02588 1424:0.01294 1425:0.01294 1431:0.01294 1432:0.01294 1436:0.01294 1437:0.01294 1439:0.01294 1443:0.01294 1453:0.01294 1457:0.02588 1459:0.01294 1464:0.01294 1465:0.01294 1471:0.03882 1472:0.01294 1473:0.02588 1476:0.02588 1478:0.03882 1479:0.01294 1481:0.01294 1491:0.01294 1492:0.01294 1498:0.01294 1502:0.01294 1504:0.02588 1505:0.05176 1506:0.01294 1507:0.01294 1508:0.01294 1509:0.01294 1512:0.01294 1514:0.01294 1516:0.01294 1519:0.02588 1520:0.01294 1521:0.02588 1527:0.01294 1529:0.03882 1530:0.02588 1533:0.01294 1536:0.01294 1537:0.01294 1538:0.01294 1540:0.01294 1541:0.01294 1545:0.01294 1547:0.01294 1548:0.01294 1549:0.01294 1551:0.01294 1555:0.01294 1565:0.01294 1567:0.01294 1576:0.01294 1577:0.01294 1581:0.01294 1585:0.01294 1591:0.02588 1592:0.03882 1600:0.01294 1601:0.01294 1602:0.02588 1605:0.01294 1619:0.01294 1625:0.01294 1629:0.01294 1630:0.01294 1633:0.01294 1634:0.01294 1643:0.01294 1647:0.01294 1649:0.01294 1654:0.01294 1657:0.01294 1660:0.01294 1662:0.01294 1664:0.01294 1665:0.03882 1668:0.03882 1670:0.01294 1672:0.01294 1673:0.01294 1676:0.03882 1682:0.01294 1686:0.01294 1691:0.01294 1698:0.01294 1699:0.01294 1700:0.01294 1701:0.01294 1715:0.03882 1716:0.01294 1718:0.01294 1720:0.01294 1727:0.01294 1728:0.01294 1729:0.01294 1731:0.01294 1739:0.01294 1757:0.01294 1762:0.01294 1770:0.01294 1771:0.01294 1780:0.01294 1781:0.01294 1782:0.01294 1785:0.01294 1786:0.02588 1787:0.01294 1788:0.01294 1789:0.01294 1792:0.01294 1793:0.02588 1795:0.02588 1796:0.01294 1804:0.01294 1807:0.02588 1808:0.02588 1812:0.01294 1815:0.03882 1816:0.03882 1819:0.01294 1824:0.01294 1825:0.03882 1826:0.02588 1830:0.01294 1835:0.01294 1837:0.01294 1850:0.01294 1854:0.03882 1856:0.02588 1859:0.0647 1860:0.01294 1867:0.01294 1870:0.01294 1871:0.01294 1873:0.01294 1876:0.01294 1877:0.01294 1879:0.01294 1881:0.01294 1883:0.01294 1884:0.02588 1888:0.02588 1889:0.01294 1896:0.01294 1898:0.01294 1910:0.01294 1915:0.01294 1918:0.05176 1919:0.01294 1921:0.03882 1923:0.03882 1924:0.02588 1925:0.01294 1931:0.01294 1934:0.02588 1936:0.01294 1937:0.01294 1938:0.02588 1940:0.01294 1941:0.01294 1942:0.01294 1944:0.02588 1949:0.01294 1951:0.01294 1953:0.01294 1956:0.02588 1959:0.01294 1960:0.02588 1961:0.01294 1962:0.01294 1968:0.01294 1973:0.01294 1975:0.01294 1977:0.02588 1978:0.01294 1979:0.01294 1981:0.01294 1982:0.01294 1984:0.02588 1985:0.02588 1986:0.01294 1988:0.02588 1991:0.01294 1996:0.01294 2000:0.02588 2001:0.01294 2003:0.03882 2004:0.02588 2008:0.01294 2009:0.01294 2010:0.01294 2011:0.01294 2013:0.02588 2014:0.01294 2015:0.01294 2016:0.01294 2017:0.02588 2019:0.0647 2020:0.01294 2022:0.01294 2024:0.02588 2025:0.01294 2030:0.01294 2033:0.03882 2035:0.02588 2036:0.01294 2037:0.02588 2038:0.01294 2040:0.01294 2041:0.02588 2042:0.01294 2043:0.02588 2044:0.01294 2045:0.01294 2046:0.01294 2047:0.01294 2048:0.05176 2049:0.03882 2050:0.01294 2051:0.01294 2052:0.05176 2053:0.05176 2056:0.01294 2057:0.01294 2058:0.01294 2060:0.02588 2061:0.02588 2062:0.02588 2064:0.10352 2065:0.01294 2066:0.01294 2067:0.01294 2072:0.02588 2074:0.01294 2076:0.01294 2077:0.01294 2078:0.01294 2081:0.02588 2083:0.05176 2087:0.01294 2090:0.01294 2093:0.01294 2094:0.02588 2095:0.02588 2096:0.01294 2097:0.02588 2098:0.02588 2099:0.03882 2101:0.01294 2102:0.02588 2104:0.02588 2105:0.03882 2106:0.01294 2107:0.02588 2108:0.03882 2109:0.01294 2110:0.02588 2111:0.01294 2112:0.09058 2113:0.01294 2115:0.01294 2120:0.02588 2121:0.01294 2124:0.01294 2126:0.01294 2127:0.01294 2130:0.01294 2137:0.01294 2140:0.01294 2156:0.01294 2164:0.01294 2166:0.02588 2171:0.01294 2172:0.01294 2174:0.02588 2179:0.01294 2180:0.01294 2181:0.01294 2182:0.01294 2187:0.01294 2190:0.02588 2193:0.01294 2198:0.01294 2204:0.01294 2206:0.02588 2207:0.01294 2209:0.01294 2214:0.01294 2215:0.01294 2217:0.01294 2223:0.01294 2224:0.01294 2225:0.01294 2228:0.01294 2229:0.01294 2230:0.01294 2234:0.01294 2236:0.01294 2238:0.01294 2239:0.02588 2240:0.01294 2241:0.01294 2242:0.02588 2259:0.02588 2260:0.01294 2261:0.02588 2264:0.02588 2265:0.02588 2267:0.02588 2268:0.01294 2269:0.01294 2270:0.02588 2271:0.01294 2272:0.02588 2275:0.01294 2277:0.01294 2285:0.01294 2286:0.01294 2292:0.01294 2293:0.01294 2294:0.03882 2296:0.01294 2301:0.01294 2302:0.02588 2304:0.02588 2305:0.01294 2307:0.01294 2308:0.02588 2309:0.02588 2311:0.02588 2313:0.01294 2315:0.02588 2317:0.01294 2320:0.01294 2321:0.01294 2322:0.01294 2323:0.01294 2324:0.01294 2325:0.01294 2334:0.01294 2335:0.02588 2336:0.0647 2337:0.02588 2338:0.01294 2340:0.01294 2341:0.01294 2342:0.01294 2345:0.01294 2348:0.01294 2349:0.01294 2351:0.01294 2354:0.01294 2355:0.01294 2357:0.01294 2366:0.01294 2367:0.01294 2368:0.01294 2369:0.02588 2370:0.02588 2372:0.03882 2375:0.01294 2377:0.02588 2379:0.01294 2384:0.01294 2385:0.01294 2386:0.01294 2387:0.01294 2388:0.01294 2392:0.01294 2394:0.01294 2397:0.01294 2399:0.01294 2400:0.01294 2402:0.01294 2403:0.01294 2408:0.01294 2417:0.01294 2418:0.01294 2421:0.01294 2424:0.01294 2425:0.01294 2428:0.02588 2429:0.01294 2430:0.01294 2431:0.01294 2432:0.01294 2435:0.01294 2436:0.01294 2437:0.01294 2440:0.01294 2443:0.01294 2450:0.01294 2456:0.01294 2465:0.01294 2469:0.01294 2473:0.02588 2474:0.01294 2480:0.01294 2491:0.02588 2494:0.01294 2495:0.02588 2497:0.02588 2500:0.01294 2505:0.01294 2512:0.03882 2513:0.02588 2520:0.01294 2523:0.01294 2528:0.02588 2529:0.02588 2532:0.02588 2533:0.02588 2537:0.01294 2539:0.01294 2543:0.01294 2544:0.01294 2545:0.01294 2549:0.01294 2552:0.01294 2557:0.01294 2558:0.01294 2559:0.05176 2560:0.02588 2561:0.0647 2562:0.02588 2563:0.01294 2564:0.03882 2567:0.01294 2568:0.02588 2572:0.01294 2573:0.01294 2574:0.03882 2575:0.01294 2576:0.09058 2578:0.01294 2583:0.01294 2590:0.01294 2592:0.02588 2593:0.02588 2594:0.01294 2595:0.01294 2596:0.01294 2599:0.01294 2606:0.02588 2607:0.01294 2608:0.01294 2613:0.01294 2614:0.02588 2616:0.01294 2617:0.01294 2620:0.01294 2621:0.01294 2622:0.02588 2625:0.01294 2627:0.01294 2628:0.02588 2629:0.01294 2632:0.01294 2633:0.02588 2636:0.02588 2637:0.01294 2640:0.01294 2641:0.02588 2644:0.01294 2645:0.01294 2648:0.01294 2649:0.01294 2653:0.01294 2654:0.01294 2655:0.02588 2658:0.01294 2661:0.01294 2667:0.01294 2668:0.01294 2673:0.02588 2675:0.01294 2676:0.01294 2680:0.01294 2682:0.01294 2683:0.01294 2688:0.01294 2689:0.03882 2690:0.02588 2692:0.03882 2693:0.01294 2697:0.02588 2703:0.01294 2705:0.02588 2707:0.01294 2708:0.01294 2711:0.01294 2712:0.01294 2717:0.01294 2718:0.01294 2720:0.01294 2721:0.02588 2728:0.01294 2760:0.01294 2761:0.02588 2763:0.03882 2764:0.01294 2768:0.01294 2775:0.01294 2782:0.01294 2783:0.01294 2789:0.01294 2797:0.01294 2800:0.01294 2808:0.02588 2809:0.02588 2812:0.01294 2815:0.02588 2816:0.01294 2818:0.01294 2820:0.01294 2825:0.01294 2829:0.01294 2832:0.01294 2840:0.01294 2845:0.01294 2848:0.01294 2849:0.02588 2852:0.02588 2857:0.02588 2858:0.01294 2860:0.01294 2863:0.01294 2865:0.01294 2874:0.01294 2877:0.01294 2878:0.02588 2880:0.01294 2884:0.01294 2885:0.01294 2887:0.01294 2891:0.01294 2903:0.01294 2905:0.01294 2908:0.01294 2909:0.02588 2918:0.01294 2919:0.01294 2922:0.01294 2931:0.02588 2933:0.01294 2934:0.01294 2938:0.01294 2940:0.01294 2943:0.01294 2952:0.02588 2960:0.02588 2961:0.03882 2963:0.02588 2964:0.01294 2965:0.01294 2967:0.01294 2970:0.01294 2975:0.03882 2976:0.01294 2977:0.01294 2980:0.01294 2981:0.01294 2985:0.01294 2986:0.01294 2990:0.01294 2991:0.01294 2996:0.01294 2998:0.01294 3000:0.01294 3002:0.01294 3005:0.01294 3006:0.01294 3007:0.01294 3009:0.01294 3011:0.01294 3012:0.03882 3022:0.02588 3025:0.02588 3030:0.02588 3032:0.01294 3035:0.01294 3037:0.01294 3039:0.01294 3040:0.01294 3041:0.03882 3044:0.01294 3045:0.02588 3047:0.02588 3050:0.02588 3055:0.02588 3057:0.03882 3058:0.01294 3061:0.01294 3062:0.02588 3063:0.01294 3064:0.01294 3067:0.03882 3069:0.02588 3070:0.01294 3071:0.01294 3073:0.05176 3074:0.02588 3075:0.01294 3076:0.02588 3077:0.01294 3079:0.01294 3080:0.02588 3081:0.01294 3082:0.01294 3083:0.01294 3084:0.03882 3085:0.01294 3086:0.01294 3087:0.02588 3088:0.05176 3089:0.01294 3090:0.01294 3091:0.01294 3092:0.01294 3097:0.01294 3104:0.02588 3105:0.02588 3109:0.01294 3114:0.01294 3115:0.01294 3119:0.01294 3120:0.03882 3121:0.01294 3122:0.01294 3126:0.01294 3129:0.02588 3131:0.02588 3134:0.01294 3135:0.02588 3136:0.0647 3137:0.01294 3140:0.01294 3142:0.01294 3150:0.01294 3152:0.01294 3161:0.02588 3163:0.01294 3164:0.01294 3167:0.03882 3168:0.01294 3177:0.02588 3180:0.01294 3187:0.01294 3189:0.01294 3191:0.01294 3194:0.01294 3198:0.01294 3200:0.02588 3201:0.03882 3202:0.01294 3203:0.02588 3204:0.02588 3205:0.01294 3207:0.01294 3213:0.01294 3214:0.01294 3217:0.01294 3219:0.01294 3221:0.03882 3222:0.01294 3227:0.01294 3233:0.01294 3234:0.02588 3236:0.01294 3238:0.01294 3239:0.01294 3242:0.01294 3243:0.01294 3248:0.01294 3250:0.01294 3255:0.01294 3260:0.01294 3262:0.01294 3264:0.01294 3265:0.01294 3272:0.01294 3291:0.01294 3293:0.01294 3295:0.01294 3301:0.01294 3302:0.01294 3307:0.01294 3313:0.01294 3314:0.01294 3317:0.01294 3318:0.01294 3319:0.01294 3320:0.05176 3321:0.01294 3322:0.01294 3323:0.01294 3325:0.01294 3326:0.02588 3328:0.05176 3329:0.01294 3331:0.02588 3334:0.02588 3335:0.01294 3336:0.01294 3337:0.01294 3339:0.03882 3340:0.05176 3341:0.01294 3343:0.01294 3344:0.02588 3347:0.02588 3355:0.01294 3360:0.01294 3361:0.01294 3365:0.02588 3367:0.01294 3368:0.01294 3369:0.02588 3370:0.01294 3372:0.05176 3376:0.01294 3382:0.01294 3385:0.05176 3389:0.02588 3390:0.03882 3392:0.02588 3393:0.0647 3395:0.01294 3400:0.02588 3401:0.02588 3402:0.01294 3408:0.05176 3409:0.01294 3410:0.01294 3411:0.01294 3412:0.01294 3413:0.02588 3417:0.01294 3418:0.02588 3422:0.01294 3423:0.01294 3424:0.01294 3425:0.02588 3428:0.02588 3429:0.01294 3436:0.01294 3437:0.02588 3439:0.01294 3440:0.03882 3441:0.02588 3442:0.02588 3447:0.01294 3449:0.02588 3450:0.01294 3451:0.01294 3455:0.03882 3457:0.01294 3459:0.01294 3460:0.01294 3468:0.01294 3470:0.02588 3473:0.01294 3477:0.01294 3481:0.02588 3487:0.01294 3489:0.02588 3490:0.01294 3491:0.01294 3494:0.01294 3495:0.01294 3497:0.01294 3501:0.02588 3502:0.01294 3517:0.01294 3521:0.01294 3524:0.01294 3525:0.01294 3526:0.02588 3528:0.01294 3529:0.02588 3530:0.01294 3531:0.01294 3532:0.01294 3535:0.01294 3537:0.01294 3540:0.01294 3541:0.01294 3542:0.02588 3543:0.01294 3544:0.01294 3553:0.01294 3557:0.01294 3558:0.02588 3560:0.01294 3561:0.02588 3562:0.02588 3566:0.01294 3567:0.01294 3568:0.01294 3570:0.01294 3572:0.01294 3573:0.02588 3575:0.01294 3576:0.03882 3577:0.01294 3578:0.01294 3579:0.01294 3580:0.01294 3581:0.01294 3582:0.01294 3583:0.02588 3584:0.02588 3585:0.03882 3586:0.01294 3587:0.02588 3588:0.03882 3589:0.01294 3591:0.01294 3593:0.02588 3594:0.01294 3596:0.03882 3597:0.01294 3598:0.01294 3599:0.0647 3600:0.03882 3601:0.01294 3603:0.01294 3614:0.01294 3615:0.01294 3618:0.01294 3620:0.01294 3621:0.01294 3624:0.01294 3626:0.01294 3627:0.01294 3629:0.01294 3631:0.01294 3632:0.01294 3638:0.01294 3640:0.02588 3642:0.01294 3646:0.01294 3648:0.03882 3649:0.02588 3650:0.02588 3653:0.01294 3654:0.01294 3656:0.05176 3657:0.01294 3658:0.02588 3659:0.01294 3661:0.01294 3662:0.01294 3664:0.01294 3665:0.03882 3666:0.01294 3669:0.01294 3671:0.01294 3672:0.02588 3674:0.01294 3679:0.01294 3680:0.02588 3681:0.01294 3686:0.01294 3689:0.01294 3695:0.01294 3700:0.02588 3701:0.01294 3705:0.02588 3706:0.01294 3707:0.01294 3708:0.01294 3709:0.01294 3713:0.03882 3716:0.0647 3721:0.01294 3724:0.01294 3726:0.02588 3728:0.03882 3729:0.01294 3730:0.01294 3731:0.01294 3732:0.01294 3736:0.03882 3737:0.01294 3741:0.03882 3743:0.01294 3745:0.03882 3747:0.01294 3749:0.01294 3750:0.01294 3752:0.02588 3753:0.02588 3768:0.01294 3770:0.01294 3775:0.01294 3776:0.02588 3780:0.02588 3785:0.01294 3791:0.01294 3792:0.01294 3793:0.01294 3795:0.01294 3798:0.01294 3802:0.01294 3805:0.01294 3806:0.01294 3807:0.01294 3808:0.01294 3810:0.01294 3812:0.01294 3813:0.01294 3814:0.01294 3815:0.01294 3816:0.01294 3820:0.02588 3824:0.01294 3825:0.03882 3828:0.01294 3829:0.01294 3831:0.01294 3832:0.01294 3834:0.02588 3837:0.01294 3838:0.05176 3841:0.05176 3842:0.03882 3843:0.03882 3844:0.05176 3845:0.03882 3848:0.02588 3850:0.01294 3851:0.02588 3852:0.02588 3853:0.01294 3855:0.02588 3856:0.0647 3857:0.02588 3867:0.02588 3870:0.01294 3873:0.02588 3878:0.02588 3879:0.01294 3881:0.02588 3882:0.01294 3883:0.01294 3888:0.01294 3890:0.01294 3895:0.01294 3896:0.02588 3899:0.01294 3901:0.01294 3902:0.02588 3903:0.01294 3904:0.02588 3905:0.03882 3906:0.03882 3907:0.02588 3908:0.02588 3913:0.01294 3914:0.02588 3915:0.05176 3916:0.01294 3919:0.03882 3920:0.07764 3921:0.03882 3922:0.01294 3923:0.01294 3924:0.03882 3925:0.03882 3926:0.02588 3928:0.03882 3929:0.02588 3930:0.01294 3932:0.03882 3933:0.01294 3934:0.01294 3935:0.02588 3936:0.01294 3939:0.01294 3940:0.02588 3941:0.01294 3943:0.01294 3945:0.02588 3948:0.02588 3953:0.02588 3954:0.02588 3955:0.03882 3956:0.01294 3958:0.02588 3961:0.01294 3962:0.02588 3963:0.02588 3965:0.02588 3966:0.02588 3967:0.01294 3968:0.03882 3969:0.05176 3970:0.02588 3971:0.01294 3972:0.03882 3973:0.01294 3977:0.01294 3978:0.02588 3980:0.03882 3983:0.01294 3984:0.01294 3986:0.03882 3987:0.01294 3988:0.01294 3989:0.01294 3990:0.02588 3992:0.01294 3993:0.01294 3995:0.01294 3996:0.01294 3997:0.01294 3998:0.01294 4001:0.03882 4003:0.01294 4004:0.02588 4005:0.03882 4006:0.02588 4008:0.02588 4009:0.01294 4010:0.01294 4011:0.01294 4016:0.01294 4017:0.02588 4021:0.01294 4024:0.01294 4026:0.01294 4027:0.01294 4029:0.01294 4030:0.01294 4032:0.03882 4033:0.1294 4034:0.01294 4035:0.02588 4036:0.01294 4039:0.01294 4040:0.01294 4041:0.01294 4042:0.02588 4043:0.02588 4045:0.01294 4046:0.01294 4047:0.01294 4048:0.03882 4049:0.05176 4051:0.03882 4052:0.02588 4053:0.03882 4054:0.03882 4055:0.03882 4056:0.02588 4057:0.01294 4059:0.02588 4061:0.03882 4063:0.01294 4064:0.03882 4065:0.03882 4069:0.02588 4070:0.01294 4071:0.01294 4073:0.0647 4074:0.02588 4075:0.03882 4077:0.01294 4078:0.01294 4080:0.0647 4081:0.05176 4083:0.02588 4084:0.03882 4085:0.03882 4086:0.0647 4087:0.01294 4089:0.01294 4090:0.01294 4091:0.03882 4092:0.02588 4093:0.05176 4094:0.03882 4095:0.01294 
0.03125 1:0.051 4:0.051 13:0.0255 14:0.0255 15:0.0255 16:0.051 20:0.0255 25:0.0255 33:0.0255 35:0.0255 44:0.0255 52:0.0255 56:0.051 57:0.0255 58:0.051 62:0.0255 63:0.051 64:0.051 65:0.0255 79:0.0255 95:0.0255 97:0.0255 99:0.0255 103:0.0255 123:0.0255 131:0.051 139:0.0255 140:0.0255 145:0.0255 154:0.0255 155:0.051 159:0.0255 162:0.0255 165:0.0255 174:0.0255 175:0.0255 196:0.0255 197:0.0255 206:0.0255 207:0.0255 212:0.0255 222:0.0255 223:0.051 228:0.0255 230:0.0255 232:0.0255 234:0.0255 238:0.0255 244:0.0255 246:0.0255 247:0.0765 250:0.051 254:0.051 255:0.0255 256:0.051 257:0.0255 271:0.0255 283:0.0255 292:0.0255 297:0.0255 298:0.051 300:0.0255 303:0.0255 308:0.0255 316:0.051 319:0.0255 321:0.0255 330:0.0255 358:0.0255 367:0.0255 375:0.0255 377:0.0255 378:0.0255 380:0.0255 383:0.0255 384:0.0255 388:0.0765 389:0.0255 393:0.0255 395:0.0255 403:0.0255 410:0.0255 430:0.0255 443:0.0255 452:0.0255 480:0.0255 486:0.0765 488:0.051 490:0.051 495:0.0255 515:0.0255 521:0.0255 522:0.0255 545:0.0255 548:0.0255 549:0.0255 553:0.0255 554:0.0255 558:0.0255 564:0.0255 573:0.0255 576:0.051 577:0.0255 581:0.051 586:0.0255 588:0.051 592:0.0255 607:0.0255 613:0.0255 617:0.051 618:0.0255 619:0.0255 635:0.0255 638:0.0255 641:0.0255 645:0.0255 647:0.0255 651:0.0255 655:0.0255 657:0.0255 659:0.0255 665:0.051 666:0.051 671:0.0255 673:0.0255 677:0.0255 679:0.0255 682:0.0255 689:0.0255 692:0.0255 693:0.0255 694:0.0255 697:0.0255 702:0.0255 714:0.0255 715:0.0255 723:0.0255 725:0.0255 742:0.0255 746:0.102 754:0.0255 769:0.0255 773:0.0255 779:0.0255 781:0.0255 784:0.0255 788:0.0255 792:0.0255 805:0.0255 817:0.0255 820:0.051 821:0.0255 823:0.0255 824:0.0255 825:0.0255 828:0.0255 831:0.0255 832:0.0255 847:0.0255 848:0.0255 849:0.0255 857:0.0255 862:0.0255 865:0.0255 888:0.0255 890:0.051 892:0.0255 897:0.0255 903:0.051 909:0.0255 912:0.0255 913:0.0255 918:0.0255 922:0.0255 927:0.0255 934:0.051 937:0.0255 939:0.0255 948:0.0255 949:0.0255 955:0.0255 960:0.0255 970:0.0255 972:0.0255 975:0.0255 976:0.0255 982:0.0255 988:0.0765 997:0.0255 998:0.0255 1001:0.0255 1002:0.0255 1003:0.0255 1006:0.0255 1014:0.051 1015:0.0255 1018:0.051 1019:0.0255 1022:0.0255 1023:0.051 1024:0.051 1028:0.051 1029:0.0255 1035:0.0255 1038:0.0255 1039:0.0255 1040:0.0255 1050:0.0255 1063:0.051 1066:0.0255 1068:0.0255 1076:0.0255 1077:0.0255 1083:0.0255 1084:0.0255 1088:0.051 1095:0.0255 1099:0.0255 1100:0.0255 1103:0.0255 1105:0.0255 1120:0.0255 1125:0.0255 1132:0.0255 1146:0.0765 1147:0.0255 1148:0.0255 1163:0.0255 1165:0.0255 1168:0.051 1170:0.0255 1171:0.0255 1172:0.0255 1176:0.0255 1179:0.0255 1184:0.0255 1185:0.0255 1186:0.0255 1187:0.0255 1191:0.0765 1192:0.0255 1194:0.0255 1195:0.0255 1197:0.051 1200:0.0255 1203:0.051 1210:0.0255 1211:0.102 1213:0.0255 1219:0.0255 1220:0.0255 1229:0.0255 1232:0.0255 1237:0.0255 1240:0.0255 1252:0.0255 1255:0.0255 1258:0.0255 1259:0.0255 1263:0.0255 1264:0.0255 1275:0.0255 1276:0.0255 1278:0.0255 1279:0.0255 1280:0.0255 1282:0.0255 1283:0.0255 1284:0.0255 1290:0.0255 1293:0.0255 1294:0.0255 1295:0.0255 1300:0.0255 1301:0.0255 1306:0.0255 1308:0.0255 1311:0.102 1317:0.0255 1319:0.0255 1320:0.0255 1321:0.0255 1327:0.0255 1328:0.0255 1334:0.0255 1337:0.0255 1338:0.0255 1343:0.0255 1348:0.0255 1351:0.0255 1354:0.0255 1358:0.0255 1359:0.0255 1363:0.0255 1364:0.0255 1365:0.0255 1375:0.0255 1384:0.0255 1393:0.0255 1394:0.0255 1401:0.0255 1402:0.0255 1411:0.0255 1415:0.0255 1430:0.0255 1437:0.0255 1439:0.0255 1440:0.051 1441:0.0255 1445:0.051 1446:0.0765 1468:0.0255 1473:0.0255 1480:0.0255 1496:0.0255 1500:0.0255 1503:0.0255 1504:0.0255 1506:0.051 1507:0.051 1510:0.051 1511:0.0255 1513:0.0255 1518:0.0765 1519:0.0255 1524:0.0255 1530:0.051 1535:0.0255 1540:0.0255 1546:0.0255 1552:0.0765 1555:0.0765 1559:0.0255 1561:0.0255 1571:0.0255 1580:0.0255 1588:0.0255 1601:0.0255 1609:0.0255 1611:0.0255 1615:0.0255 1624:0.0255 1630:0.0255 1631:0.0765 1638:0.0255 1639:0.102 1648:0.0255 1649:0.0255 1659:0.0255 1662:0.0255 1663:0.051 1665:0.0255 1667:0.0255 1669:0.0255 1677:0.0255 1681:0.051 1683:0.0255 1685:0.051 1687:0.051 1702:0.0255 1717:0.0255 1719:0.0255 1748:0.051 1752:0.0255 1755:0.0255 1770:0.0255 1771:0.0255 1775:0.0255 1782:0.0255 1785:0.0255 1790:0.0255 1795:0.0255 1805:0.0255 1806:0.0255 1823:0.051 1841:0.0255 1867:0.051 1887:0.0255 1902:0.0255 1904:0.0255 1909:0.051 1911:0.0255 1913:0.0255 1918:0.0255 1920:0.0255 1925:0.0255 1926:0.0255 1928:0.0255 1929:0.051 1941:0.0765 1942:0.0765 1943:0.0255 1944:0.0255 1945:0.0255 1948:0.0255 1949:0.0255 1950:0.0255 1951:0.0255 1953:0.0255 1954:0.0255 1957:0.0255 1958:0.0255 1961:0.0255 1963:0.0255 1966:0.0255 1974:0.0255 1975:0.0765 1978:0.051 1999:0.0255 2006:0.0255 2007:0.0255 2011:0.0255 2016:0.051 2021:0.0255 2022:0.051 2025:0.0255 2035:0.0255 2040:0.0255 2043:0.0255 2049:0.0255 2052:0.0255 2055:0.0255 2057:0.0255 2063:0.0255 2064:0.051 2072:0.0255 2073:0.0255 2081:0.0255 2083:0.0255 2085:0.0255 2087:0.0255 2088:0.0255 2109:0.0255 2110:0.051 2112:0.0255 2116:0.0255 2121:0.0255 2123:0.0765 2128:0.0255 2131:0.0255 2138:0.0255 2140:0.0255 2142:0.0255 2144:0.0255 2145:0.051 2146:0.0255 2147:0.0255 2161:0.0255 2168:0.0255 2177:0.0255 2185:0.051 2186:0.0255 2192:0.0255 2195:0.0255 2212:0.0255 2213:0.0255 2215:0.0255 2222:0.0255 2229:0.0255 2246:0.0255 2253:0.051 2256:0.0255 2277:0.0255 2283:0.0255 2291:0.0255 2299:0.0255 2303:0.0255 2304:0.0255 2305:0.0255 2308:0.051 2314:0.0255 2315:0.051 2320:0.051 2322:0.0255 2323:0.051 2335:0.0255 2340:0.051 2341:0.051 2342:0.0255 2346:0.0255 2347:0.0255 2348:0.0255 2349:0.051 2351:0.0765 2358:0.0255 2363:0.0255 2368:0.051 2369:0.0255 2372:0.0255 2373:0.0255 2374:0.0255 2375:0.0255 2376:0.102 2380:0.051 2383:0.0255 2384:0.0255 2385:0.0255 2389:0.0255 2390:0.0255 2392:0.0255 2394:0.0255 2397:0.0255 2399:0.0255 2401:0.0255 2408:0.0255 2409:0.0255 2410:0.102 2422:0.0255 2424:0.0255 2425:0.0255 2426:0.0255 2428:0.051 2431:0.0255 2437:0.051 2438:0.0255 2449:0.0255 2452:0.0255 2456:0.051 2458:0.102 2460:0.0255 2464:0.0255 2465:0.0255 2466:0.0255 2469:0.0255 2474:0.0255 2478:0.0255 2491:0.0255 2495:0.0255 2500:0.0255 2504:0.0255 2509:0.0255 2526:0.0255 2534:0.051 2536:0.0255 2537:0.0255 2539:0.0255 2540:0.0255 2550:0.0255 2551:0.0255 2552:0.0255 2554:0.0255 2555:0.0255 2561:0.0255 2562:0.0255 2564:0.051 2566:0.0255 2567:0.0255 2569:0.0255 2570:0.0255 2576:0.0255 2577:0.0255 2579:0.0255 2584:0.0255 2585:0.0255 2589:0.0255 2602:0.0255 2610:0.0255 2618:0.0255 2619:0.0255 2627:0.051 2628:0.0255 2629:0.0255 2632:0.0255 2633:0.0255 2634:0.051 2635:0.051 2636:0.0765 2640:0.0255 2641:0.051 2642:0.102 2643:0.0255 2644:0.051 2647:0.0255 2649:0.0255 2651:0.0765 2658:0.051 2661:0.0255 2663:0.0255 2668:0.0255 2682:0.0255 2689:0.0255 2690:0.0255 2691:0.0255 2692:0.0255 2706:0.0255 2707:0.0765 2708:0.0255 2709:0.0255 2715:0.0255 2725:0.0765 2730:0.0255 2754:0.0255 2766:0.0255 2769:0.0255 2770:0.0255 2771:0.0255 2773:0.0255 2778:0.0255 2786:0.0255 2794:0.0255 2806:0.0255 2824:0.0255 2853:0.0255 2859:0.0255 2870:0.0255 2877:0.0255 2882:0.0255 2886:0.0255 2889:0.0255 2891:0.051 2893:0.051 2897:0.0255 2899:0.0255 2906:0.0255 2911:0.0255 2912:0.0255 2917:0.0255 2918:0.051 2921:0.0255 2926:0.0255 2950:0.0255 2965:0.0255 2966:0.0255 2973:0.0255 2975:0.0255 2981:0.0765 2982:0.102 2985:0.0255 3002:0.0255 3014:0.0255 3021:0.0255 3029:0.0255 3030:0.0255 3042:0.0255 3062:0.0255 3067:0.0255 3073:0.0255 3081:0.0255 3089:0.0255 3103:0.0255 3113:0.0255 3121:0.0255 3122:0.0255 3128:0.0255 3134:0.0255 3149:0.0255 3167:0.051 3194:0.051 3218:0.0255 3219:0.0255 3227:0.0255 3241:0.0255 3242:0.0255 3254:0.0255 3265:0.0255 3266:0.0255 3274:0.0255 3278:0.051 3279:0.0255 3284:0.0255 3287:0.0255 3289:0.0255 3295:0.0255 3297:0.0255 3298:0.051 3309:0.0255 3315:0.0255 3316:0.0255 3323:0.0255 3328:0.0255 3335:0.0255 3352:0.0255 3363:0.0255 3369:0.0255 3370:0.0255 3371:0.0255 3372:0.0255 3377:0.051 3380:0.0255 3387:0.0255 3392:0.0255 3393:0.0255 3395:0.0255 3396:0.0255 3402:0.0255 3403:0.0255 3410:0.0255 3411:0.0255 3412:0.0255 3421:0.0255 3426:0.0255 3432:0.051 3434:0.0255 3448:0.0255 3449:0.0255 3451:0.0255 3452:0.0255 3453:0.0255 3457:0.0255 3469:0.0255 3475:0.0255 3480:0.051 3492:0.0255 3494:0.0255 3509:0.051 3510:0.0255 3511:0.0255 3518:0.0255 3520:0.0255 3539:0.051 3548:0.0255 3550:0.051 3554:0.0255 3558:0.0255 3559:0.0255 3566:0.0255 3574:0.0255 3576:0.0255 3581:0.0255 3582:0.0255 3585:0.0255 3604:0.0255 3605:0.0255 3607:0.0255 3608:0.0255 3609:0.051 3614:0.0255 3619:0.051 3636:0.0255 3647:0.0255 3649:0.0255 3651:0.0255 3652:0.0255 3662:0.0255 3666:0.0765 3667:0.0255 3669:0.0255 3670:0.0765 3672:0.0255 3674:0.0255 3675:0.051 3678:0.0255 3680:0.0255 3682:0.0255 3686:0.0255 3688:0.0255 3695:0.0255 3698:0.0255 3700:0.0255 3704:0.0255 3706:0.051 3707:0.0255 3710:0.0255 3713:0.0255 3714:0.0255 3718:0.0255 3720:0.0255 3727:0.0255 3730:0.0255 3731:0.0765 3733:0.15299 3734:0.0255 3735:0.051 3745:0.0765 3749:0.0255 3754:0.0255 3755:0.0255 3765:0.0255 3771:0.0255 3792:0.0255 3795:0.0255 3799:0.0255 3800:0.0255 3802:0.051 3804:0.0255 3814:0.0255 3816:0.051 3818:0.0255 3828:0.0255 3839:0.0255 3864:0.0255 3879:0.0255 3883:0.0255 3886:0.0255 3891:0.0255 3892:0.0255 3897:0.051 3901:0.0255 3917:0.0255 3921:0.0255 3923:0.0255 3925:0.0765 3928:0.0255 3930:0.0255 3931:0.0255 3935:0.0255 3940:0.0255 3946:0.0255 3950:0.051 3952:0.0255 3960:0.0255 3966:0.0255 3968:0.0255 3974:0.0255 3985:0.051 3988:0.0255 3991:0.051 3992:0.0255 3994:0.0255 4000:0.0255 4001:0.0255 4002:0.0255 4004:0.0255 4006:0.051 4010:0.0255 4015:0.0255 4022:0.0255 4029:0.0255 4043:0.0255 4045:0.0255 4052:0.0255 4053:0.0255 4054:0.0255 4055:0.0255 4056:0.0255 4057:0.0255 4062:0.0255 4069:0.0255 4071:0.0255 4072:0.0255 4073:0.0255 4074:0.0255 4076:0.0255 4080:0.0255 4084:0.0255 4085:0.0255 4086:0.0255 4090:0.0255 4092:0.0255 4093:0.0255 4094:0.0255 4096:0.051 
