svm_type c_svc
kernel_type rbf
gamma 0.5
nr_class 2
total_sv 120
rho 0.686678
label 1 -1
nr_sv 45 75
SV
1.711628144576409 1:0.06712 2:0.06712 3:0.02237 4:0.11186 5:0.04474 6:0.04474 8:0.06712 9:0.02237 11:0.02237 12:0.02237 13:0.06712 15:0.04474 16:0.06712 17:0.04474 19:0.02237 21:0.02237 24:0.02237 25:0.02237 29:0.02237 31:0.02237 32:0.06712 33:0.02237 34:0.02237 35:0.04474 44:0.04474 47:0.02237 48:0.04474 49:0.08949 50:0.02237 52:0.11186 53:0.02237 57:0.02237 60:0.02237 62:0.04474 64:0.08949 65:0.04474 66:0.02237 68:0.04474 71:0.02237 74:0.02237 76:0.02237 83:0.02237 87:0.02237 90:0.02237 96:0.02237 99:0.02237 101:0.02237 113:0.04474 117:0.02237 119:0.02237 124:0.02237 125:0.02237 126:0.02237 128:0.04474 129:0.02237 131:0.02237 132:0.02237 134:0.02237 135:0.02237 137:0.02237 140:0.02237 153:0.02237 158:0.02237 173:0.04474 176:0.02237 178:0.02237 185:0.02237 186:0.04474 190:0.02237 192:0.06712 193:0.11186 195:0.02237 197:0.02237 205:0.02237 207:0.02237 208:0.17897 209:0.06712 212:0.02237 222:0.02237 228:0.02237 237:0.02237 241:0.06712 242:0.02237 245:0.02237 247:0.04474 249:0.02237 251:0.04474 253:0.02237 254:0.04474 256:0.06712 257:0.04474 258:0.02237 261:0.02237 269:0.04474 284:0.02237 294:0.02237 301:0.06712 304:0.02237 308:0.04474 320:0.02237 324:0.02237 331:0.02237 347:0.02237 357:0.02237 359:0.02237 363:0.02237 378:0.02237 379:0.02237 382:0.02237 384:0.04474 395:0.02237 401:0.04474 402:0.02237 409:0.04474 412:0.04474 420:0.02237 437:0.02237 444:0.02237 449:0.04474 459:0.02237 465:0.02237 474:0.02237 480:0.02237 493:0.02237 494:0.02237 495:0.02237 496:0.02237 498:0.02237 500:0.02237 504:0.02237 505:0.04474 510:0.04474 512:0.02237 513:0.02237 514:0.02237 516:0.02237 521:0.02237 524:0.02237 526:0.02237 533:0.02237 538:0.02237 548:0.02237 549:0.02237 551:0.04474 552:0.02237 557:0.02237 574:0.02237 584:0.02237 599:0.02237 603:0.04474 611:0.02237 618:0.02237 619:0.02237 632:0.02237 639:0.02237 657:0.02237 662:0.02237 677:0.02237 678:0.02237 681:0.02237 689:0.06712 698:0.02237 704:0.02237 708:0.02237 709:0.02237 711:0.02237 712:0.04474 713:0.02237 737:0.02237 741:0.02237 744:0.02237 753:0.02237 759:0.04474 761:0.02237 762:0.02237 766:0.02237 767:0.02237 768:0.06712 769:0.11186 772:0.02237 777:0.02237 780:0.02237 788:0.02237 817:0.02237 821:0.02237 825:0.02237 827:0.02237 828:0.04474 829:0.04474 831:0.06712 832:0.11186 833:0.04474 835:0.04474 836:0.02237 843:0.02237 845:0.02237 848:0.02237 858:0.02237 860:0.02237 865:0.02237 888:0.02237 909:0.02237 912:0.02237 914:0.02237 923:0.02237 929:0.02237 934:0.02237 945:0.02237 948:0.02237 949:0.02237 961:0.06712 962:0.02237 963:0.02237 966:0.02237 968:0.02237 977:0.02237 979:0.02237 985:0.04474 992:0.02237 993:0.02237 996:0.02237 998:0.02237 999:0.04474 1001:0.02237 1004:0.02237 1008:0.04474 1009:0.04474 1010:0.02237 1012:0.02237 1013:0.04474 1015:0.02237 1016:0.02237 1017:0.06712 1021:0.02237 1022:0.04474 1024:0.11186 1025:0.04474 1026:0.04474 1027:0.02237 1032:0.02237 1037:0.06712 1041:0.04474 1043:0.02237 1047:0.02237 1050:0.02237 1053:0.02237 1064:0.02237 1069:0.02237 1071:0.02237 1073:0.04474 1076:0.06712 1077:0.02237 1085:0.04474 1086:0.02237 1100:0.02237 1114:0.02237 1119:0.02237 1134:0.02237 1149:0.02237 1151:0.02237 1152:0.02237 1153:0.04474 1155:0.02237 1174:0.02237 1189:0.02237 1194:0.02237 1197:0.02237 1199:0.02237 1202:0.04474 1203:0.02237 1216:0.02237 1230:0.02237 1231:0.04474 1232:0.02237 1233:0.02237 1239:0.04474 1280:0.04474 1281:0.02237 1290:0.02237 1296:0.04474 1313:0.02237 1324:0.02237 1332:0.02237 1334:0.02237 1366:0.02237 1367:0.02237 1370:0.02237 1374:0.02237 1384:0.02237 1386:0.04474 1388:0.02237 1394:0.02237 1399:0.02237 1402:0.02237 1409:0.04474 1418:0.02237 1425:0.02237 1428:0.02237 1433:0.02237 1438:0.04474 1448:0.04474 1450:0.04474 1452:0.02237 1453:0.02237 1457:0.02237 1479:0.02237 1484:0.02237 1500:0.02237 1508:0.02237 1509:0.04474 1516:0.02237 1526:0.02237 1534:0.02237 1536:0.02237 1537:0.06712 1539:0.06712 1540:0.02237 1544:0.04474 1552:0.04474 1562:0.04474 1571:0.02237 1574:0.02237 1579:0.02237 1584:0.02237 1589:0.02237 1602:0.02237 1604:0.04474 1606:0.02237 1614:0.02237 1617:0.02237 1625:0.02237 1633:0.04474 1634:0.02237 1644:0.02237 1645:0.02237 1646:0.06712 1656:0.04474 1662:0.02237 1679:0.04474 1681:0.02237 1686:0.02237 1689:0.02237 1693:0.02237 1694:0.02237 1702:0.02237 1704:0.02237 1707:0.02237 1712:0.02237 1713:0.02237 1722:0.02237 1727:0.02237 1731:0.02237 1736:0.02237 1739:0.02237 1746:0.02237 1749:0.02237 1753:0.02237 1754:0.02237 1760:0.02237 1776:0.02237 1786:0.02237 1790:0.02237 1793:0.04474 1795:0.02237 1797:0.02237 1818:0.02237 1823:0.02237 1834:0.02237 1837:0.02237 1858:0.02237 1878:0.02237 1894:0.02237 1896:0.02237 1898:0.02237 1904:0.02237 1905:0.02237 1906:0.02237 1910:0.02237 1911:0.02237 1920:0.04474 1924:0.02237 1934:0.02237 1937:0.02237 1939:0.04474 1958:0.02237 1968:0.02237 1970:0.02237 1973:0.02237 1977:0.02237 1983:0.02237 1984:0.02237 1988:0.02237 1989:0.02237 1991:0.02237 1998:0.02237 2000:0.02237 2005:0.04474 2015:0.02237 2016:0.02237 2020:0.04474 2026:0.02237 2033:0.02237 2035:0.02237 2038:0.02237 2039:0.06712 2046:0.02237 2047:0.02237 2048:0.02237 2049:0.02237 2050:0.02237 2051:0.02237 2052:0.04474 2055:0.02237 2056:0.02237 2057:0.02237 2059:0.02237 2060:0.04474 2061:0.02237 2062:0.02237 2064:0.04474 2078:0.02237 2080:0.02237 2081:0.02237 2087:0.02237 2092:0.02237 2096:0.02237 2101:0.02237 2104:0.02237 2111:0.02237 2112:0.04474 2124:0.02237 2125:0.02237 2129:0.02237 2149:0.02237 2151:0.06712 2159:0.02237 2186:0.04474 2192:0.02237 2194:0.02237 2199:0.02237 2203:0.04474 2208:0.02237 2219:0.02237 2226:0.02237 2237:0.02237 2238:0.02237 2243:0.02237 2255:0.02237 2259:0.02237 2265:0.02237 2277:0.02237 2279:0.02237 2281:0.02237 2290:0.02237 2293:0.02237 2296:0.02237 2298:0.02237 2302:0.02237 2309:0.02237 2311:0.02237 2312:0.02237 2317:0.04474 2318:0.02237 2327:0.02237 2328:0.02237 2336:0.04474 2337:0.02237 2347:0.02237 2348:0.02237 2357:0.02237 2358:0.02237 2371:0.02237 2377:0.02237 2381:0.02237 2395:0.04474 2397:0.02237 2399:0.02237 2401:0.04474 2403:0.02237 2408:0.02237 2411:0.04474 2419:0.02237 2425:0.02237 2433:0.02237 2434:0.04474 2439:0.02237 2441:0.02237 2444:0.02237 2468:0.02237 2469:0.02237 2475:0.02237 2479:0.02237 2480:0.02237 2482:0.02237 2483:0.02237 2486:0.02237 2487:0.04474 2488:0.02237 2495:0.02237 2498:0.02237 2523:0.02237 2525:0.04474 2526:0.04474 2544:0.02237 2550:0.02237 2555:0.02237 2563:0.02237 2570:0.02237 2571:0.02237 2586:0.02237 2595:0.02237 2618:0.02237 2619:0.02237 2626:0.02237 2628:0.02237 2630:0.02237 2643:0.02237 2644:0.02237 2647:0.02237 2648:0.02237 2649:0.02237 2653:0.02237 2657:0.02237 2659:0.02237 2673:0.02237 2679:0.02237 2684:0.02237 2689:0.02237 2697:0.02237 2706:0.02237 2711:0.02237 2712:0.02237 2719:0.02237 2721:0.02237 2723:0.02237 2729:0.02237 2731:0.02237 2749:0.02237 2753:0.02237 2754:0.04474 2756:0.02237 2784:0.02237 2790:0.02237 2791:0.02237 2802:0.02237 2809:0.02237 2816:0.04474 2818:0.02237 2820:0.02237 2821:0.02237 2822:0.02237 2825:0.02237 2828:0.02237 2830:0.02237 2832:0.02237 2835:0.02237 2842:0.02237 2846:0.02237 2847:0.04474 2848:0.02237 2851:0.02237 2859:0.02237 2880:0.02237 2881:0.02237 2882:0.02237 2885:0.02237 2897:0.02237 2913:0.02237 2919:0.02237 2941:0.02237 2944:0.02237 2945:0.02237 2951:0.02237 2964:0.02237 2966:0.02237 2972:0.02237 2974:0.02237 3005:0.02237 3012:0.02237 3014:0.04474 3018:0.02237 3034:0.04474 3041:0.02237 3042:0.02237 3043:0.02237 3045:0.02237 3046:0.02237 3047:0.02237 3056:0.02237 3058:0.02237 3061:0.02237 3064:0.02237 3068:0.02237 3069:0.02237 3070:0.02237 3071:0.04474 3072:0.06712 3073:0.1566 3074:0.02237 3076:0.02237 3077:0.02237 3081:0.04474 3085:0.06712 3088:0.02237 3089:0.02237 3090:0.02237 3094:0.02237 3102:0.02237 3105:0.02237 3106:0.02237 3119:0.02237 3120:0.02237 3124:0.04474 3125:0.02237 3133:0.04474 3135:0.04474 3137:0.02237 3148:0.02237 3149:0.02237 3152:0.02237 3163:0.02237 3167:0.02237 3168:0.04474 3173:0.02237 3175:0.02237 3177:0.02237 3187:0.02237 3192:0.02237 3196:0.06712 3199:0.02237 3210:0.04474 3223:0.02237 3238:0.02237 3242:0.02237 3249:0.02237 3263:0.02237 3264:0.02237 3265:0.02237 3280:0.02237 3281:0.02237 3284:0.02237 3300:0.02237 3306:0.02237 3309:0.02237 3310:0.02237 3313:0.04474 3321:0.02237 3322:0.04474 3324:0.04474 3325:0.06712 3326:0.02237 3327:0.06712 3328:0.06712 3329:0.04474 3332:0.06712 3333:0.02237 3334:0.02237 3336:0.02237 3340:0.04474 3341:0.02237 3344:0.02237 3347:0.02237 3360:0.02237 3361:0.02237 3370:0.02237 3380:0.02237 3392:0.02237 3393:0.02237 3396:0.02237 3406:0.02237 3414:0.02237 3416:0.02237 3429:0.02237 3437:0.02237 3457:0.08949 3460:0.04474 3463:0.02237 3470:0.02237 3477:0.02237 3479:0.02237 3483:0.02237 3484:0.04474 3488:0.02237 3493:0.02237 3494:0.02237 3495:0.02237 3520:0.02237 3521:0.02237 3528:0.02237 3542:0.02237 3546:0.02237 3552:0.02237 3553:0.02237 3557:0.02237 3562:0.02237 3569:0.02237 3570:0.02237 3572:0.02237 3576:0.02237 3581:0.04474 3582:0.02237 3584:0.02237 3585:0.02237 3586:0.02237 3588:0.04474 3598:0.02237 3600:0.02237 3603:0.02237 3604:0.02237 3612:0.02237 3632:0.02237 3633:0.02237 3636:0.02237 3639:0.02237 3642:0.02237 3645:0.02237 3646:0.02237 3647:0.02237 3648:0.02237 3650:0.02237 3656:0.02237 3657:0.02237 3659:0.04474 3662:0.02237 3672:0.02237 3673:0.02237 3674:0.02237 3679:0.02237 3689:0.02237 3692:0.02237 3693:0.02237 3694:0.02237 3696:0.02237 3704:0.02237 3715:0.04474 3719:0.02237 3733:0.04474 3737:0.02237 3768:0.02237 3776:0.02237 3777:0.02237 3779:0.02237 3784:0.02237 3792:0.02237 3793:0.04474 3810:0.02237 3826:0.02237 3827:0.02237 3833:0.02237 3834:0.02237 3836:0.02237 3837:0.02237 3840:0.04474 3841:0.04474 3843:0.02237 3844:0.04474 3848:0.02237 3849:0.02237 3853:0.04474 3856:0.06712 3857:0.02237 3860:0.02237 3863:0.02237 3864:0.06712 3867:0.02237 3869:0.02237 3875:0.02237 3878:0.02237 3888:0.04474 3892:0.02237 3893:0.02237 3903:0.04474 3904:0.08949 3905:0.04474 3906:0.02237 3908:0.02237 3912:0.02237 3913:0.02237 3921:0.02237 3924:0.02237 3926:0.02237 3937:0.08949 3938:0.02237 3940:0.02237 3942:0.02237 3943:0.04474 3946:0.04474 3961:0.02237 3962:0.02237 3963:0.02237 3965:0.02237 3966:0.02237 3968:0.02237 3969:0.06712 3972:0.02237 3973:0.04474 3980:0.02237 3981:0.02237 3983:0.02237 3984:0.06712 3987:0.02237 3991:0.02237 3992:0.02237 3995:0.02237 3996:0.04474 4001:0.02237 4002:0.02237 4007:0.02237 4014:0.02237 4017:0.02237 4029:0.02237 4031:0.04474 4032:0.04474 4033:0.04474 4036:0.06712 4037:0.02237 4038:0.02237 4041:0.02237 4044:0.04474 4045:0.02237 4048:0.11186 4049:0.06712 4050:0.02237 4054:0.02237 4057:0.08949 4058:0.02237 4059:0.04474 4063:0.04474 4064:0.02237 4065:0.04474 4066:0.02237 4068:0.04474 4073:0.02237 4077:0.02237 4080:0.04474 4081:0.04474 4083:0.04474 4084:0.11186 4085:0.02237 4087:0.06712 4088:0.02237 4089:0.04474 4091:0.02237 4092:0.04474 4093:0.1566 4094:0.02237 4095:0.04474 4096:0.06712 
2.08842175659083 1:0.06836 3:0.03418 4:0.06836 8:0.03418 9:0.06836 13:0.10254 15:0.03418 16:0.03418 17:0.03418 26:0.03418 32:0.03418 34:0.03418 35:0.03418 36:0.03418 40:0.03418 49:0.10254 54:0.03418 60:0.03418 63:0.03418 67:0.03418 85:0.03418 104:0.03418 113:0.03418 127:0.03418 131:0.03418 132:0.03418 133:0.03418 137:0.03418 139:0.03418 144:0.03418 147:0.03418 151:0.03418 154:0.03418 156:0.03418 159:0.03418 181:0.03418 192:0.03418 193:0.10254 215:0.03418 224:0.03418 229:0.03418 235:0.03418 239:0.03418 241:0.03418 244:0.06836 246:0.06836 249:0.03418 250:0.03418 256:0.03418 257:0.03418 265:0.03418 270:0.03418 271:0.03418 282:0.03418 300:0.03418 310:0.03418 320:0.03418 321:0.03418 338:0.03418 374:0.03418 376:0.03418 379:0.06836 380:0.03418 401:0.03418 406:0.03418 413:0.03418 415:0.03418 416:0.03418 449:0.03418 474:0.03418 482:0.03418 487:0.03418 504:0.03418 507:0.03418 524:0.03418 527:0.03418 529:0.06836 547:0.03418 550:0.03418 556:0.03418 575:0.03418 579:0.03418 581:0.06836 586:0.10254 595:0.03418 601:0.03418 603:0.03418 607:0.03418 611:0.03418 613:0.03418 623:0.06836 624:0.03418 633:0.03418 640:0.03418 644:0.03418 654:0.03418 661:0.03418 663:0.03418 669:0.03418 689:0.03418 691:0.06836 693:0.06836 721:0.06836 723:0.03418 743:0.03418 757:0.03418 768:0.03418 769:0.10254 784:0.06836 845:0.03418 850:0.03418 859:0.03418 862:0.03418 871:0.03418 896:0.03418 902:0.03418 903:0.03418 910:0.03418 913:0.03418 929:0.03418 938:0.03418 954:0.03418 955:0.03418 963:0.03418 975:0.06836 981:0.03418 984:0.03418 992:0.03418 994:0.03418 998:0.03418 1006:0.03418 1007:0.03418 1011:0.03418 1021:0.06836 1022:0.03418 1024:0.06836 1025:0.10254 1026:0.03418 1031:0.03418 1033:0.03418 1059:0.03418 1061:0.03418 1072:0.03418 1080:0.03418 1082:0.03418 1085:0.03418 1088:0.03418 1092:0.03418 1095:0.03418 1102:0.03418 1104:0.03418 1126:0.03418 1128:0.06836 1143:0.03418 1169:0.03418 1173:0.03418 1177:0.03418 1180:0.03418 1184:0.03418 1190:0.06836 1192:0.03418 1197:0.06836 1198:0.03418 1205:0.06836 1217:0.03418 1220:0.06836 1237:0.03418 1242:0.03418 1272:0.03418 1276:0.03418 1280:0.03418 1281:0.03418 1282:0.03418 1292:0.03418 1300:0.03418 1306:0.06836 1322:0.10254 1324:0.06836 1329:0.03418 1342:0.03418 1349:0.03418 1351:0.03418 1360:0.03418 1418:0.06836 1433:0.03418 1444:0.03418 1448:0.03418 1473:0.03418 1493:0.03418 1498:0.03418 1504:0.03418 1513:0.03418 1514:0.13672 1517:0.03418 1537:0.03418 1557:0.03418 1573:0.06836 1577:0.03418 1583:0.03418 1593:0.03418 1601:0.03418 1608:0.03418 1612:0.03418 1621:0.03418 1635:0.03418 1636:0.03418 1637:0.03418 1642:0.03418 1649:0.03418 1657:0.03418 1658:0.03418 1661:0.06836 1680:0.03418 1685:0.03418 1688:0.03418 1694:0.03418 1696:0.03418 1748:0.03418 1769:0.03418 1771:0.03418 1775:0.03418 1791:0.03418 1794:0.03418 1795:0.03418 1796:0.03418 1802:0.03418 1816:0.06836 1861:0.03418 1875:0.03418 1895:0.03418 1896:0.03418 1898:0.06836 1912:0.03418 1919:0.03418 1920:0.03418 1922:0.03418 1926:0.03418 1928:0.03418 1946:0.03418 1950:0.06836 1952:0.03418 1955:0.03418 1957:0.03418 1958:0.06836 1960:0.03418 1969:0.03418 1987:0.06836 1988:0.03418 1989:0.03418 1994:0.03418 2016:0.03418 2024:0.03418 2026:0.03418 2032:0.03418 2035:0.03418 2042:0.03418 2045:0.03418 2048:0.03418 2052:0.03418 2077:0.03418 2094:0.03418 2107:0.03418 2110:0.06836 2113:0.03418 2116:0.03418 2129:0.03418 2142:0.03418 2143:0.03418 2149:0.03418 2169:0.03418 2170:0.03418 2174:0.03418 2181:0.03418 2186:0.03418 2195:0.06836 2199:0.03418 2212:0.03418 2221:0.03418 2222:0.03418 2234:0.03418 2260:0.03418 2264:0.03418 2274:0.03418 2287:0.03418 2300:0.03418 2301:0.03418 2305:0.06836 2307:0.03418 2314:0.03418 2320:0.03418 2322:0.03418 2324:0.03418 2334:0.03418 2341:0.03418 2342:0.03418 2343:0.03418 2350:0.03418 2367:0.03418 2369:0.03418 2371:0.03418 2379:0.13672 2386:0.03418 2388:0.03418 2403:0.06836 2407:0.03418 2409:0.03418 2427:0.10254 2443:0.03418 2444:0.03418 2447:0.03418 2450:0.03418 2451:0.03418 2457:0.03418 2464:0.03418 2470:0.03418 2485:0.03418 2491:0.06836 2492:0.03418 2496:0.03418 2497:0.03418 2499:0.03418 2502:0.06836 2523:0.06836 2526:0.03418 2529:0.03418 2530:0.03418 2536:0.10254 2545:0.03418 2546:0.03418 2547:0.03418 2554:0.03418 2557:0.03418 2576:0.06836 2604:0.03418 2613:0.03418 2620:0.03418 2624:0.03418 2625:0.03418 2628:0.03418 2641:0.03418 2643:0.06836 2645:0.03418 2649:0.03418 2650:0.03418 2655:0.06836 2671:0.03418 2674:0.03418 2680:0.03418 2682:0.03418 2685:0.03418 2709:0.03418 2716:0.03418 2749:0.03418 2754:0.03418 2762:0.06836 2771:0.03418 2772:0.03418 2777:0.03418 2802:0.03418 2822:0.03418 2826:0.03418 2853:0.03418 2854:0.03418 2882:0.03418 2884:0.03418 2890:0.03418 2892:0.03418 2893:0.03418 2894:0.03418 2913:0.03418 2933:0.03418 2944:0.03418 2953:0.03418 2970:0.03418 2973:0.06836 2980:0.03418 2986:0.03418 2988:0.03418 3002:0.03418 3014:0.03418 3027:0.03418 3042:0.03418 3059:0.03418 3067:0.03418 3071:0.03418 3075:0.03418 3076:0.06836 3077:0.03418 3082:0.03418 3086:0.03418 3094:0.03418 3105:0.06836 3110:0.03418 3111:0.06836 3133:0.06836 3135:0.03418 3147:0.03418 3166:0.03418 3167:0.06836 3218:0.06836 3224:0.03418 3228:0.03418 3233:0.03418 3262:0.03418 3298:0.03418 3300:0.03418 3305:0.03418 3328:0.10254 3344:0.03418 3345:0.03418 3367:0.03418 3368:0.03418 3374:0.03418 3377:0.06836 3383:0.03418 3399:0.03418 3403:0.03418 3405:0.03418 3434:0.03418 3441:0.03418 3447:0.03418 3457:0.03418 3462:0.03418 3482:0.03418 3483:0.03418 3487:0.03418 3494:0.03418 3496:0.03418 3538:0.03418 3552:0.03418 3569:0.06836 3580:0.03418 3583:0.03418 3584:0.06836 3592:0.03418 3608:0.06836 3610:0.03418 3615:0.06836 3616:0.03418 3618:0.03418 3638:0.03418 3649:0.03418 3664:0.03418 3665:0.03418 3667:0.03418 3687:0.03418 3688:0.03418 3694:0.03418 3697:0.03418 3698:0.03418 3703:0.06836 3706:0.03418 3711:0.03418 3716:0.03418 3723:0.03418 3727:0.03418 3729:0.06836 3734:0.03418 3735:0.03418 3736:0.03418 3743:0.03418 3750:0.03418 3751:0.03418 3760:0.03418 3767:0.03418 3779:0.03418 3806:0.03418 3808:0.03418 3811:0.03418 3816:0.06836 3819:0.03418 3837:0.03418 3849:0.06836 3850:0.03418 3856:0.03418 3859:0.03418 3864:0.03418 3877:0.03418 3879:0.03418 3881:0.03418 3888:0.03418 3897:0.06836 3899:0.03418 3904:0.10254 3914:0.03418 3924:0.03418 3933:0.03418 3938:0.03418 3965:0.06836 3976:0.06836 3988:0.03418 3989:0.06836 3996:0.03418 3999:0.03418 4005:0.03418 4006:0.03418 4014:0.03418 4024:0.06836 4025:0.03418 4032:0.03418 4042:0.03418 4043:0.03418 4044:0.03418 4047:0.03418 4048:0.10254 4057:0.03418 4069:0.03418 4070:0.03418 4071:0.03418 4074:0.03418 4076:0.03418 4078:0.03418 4084:0.10254 4087:0.03418 4090:0.06836 4091:0.03418 4092:0.03418 4095:0.10254 4096:0.06836 
0.3111053540607943 1:0.02451 2:0.02451 3:0.04903 5:0.02451 8:0.02451 9:0.04903 10:0.02451 12:0.07354 15:0.04903 16:0.02451 17:0.02451 18:0.04903 19:0.04903 20:0.02451 29:0.02451 33:0.02451 35:0.02451 36:0.04903 37:0.02451 41:0.04903 47:0.02451 48:0.04903 49:0.04903 51:0.02451 52:0.04903 57:0.02451 59:0.02451 60:0.02451 61:0.02451 64:0.04903 66:0.04903 67:0.04903 69:0.02451 70:0.02451 71:0.02451 72:0.02451 73:0.04903 78:0.02451 80:0.02451 83:0.02451 87:0.02451 88:0.02451 98:0.02451 99:0.02451 101:0.02451 111:0.02451 113:0.02451 114:0.02451 127:0.02451 128:0.04903 129:0.02451 130:0.02451 134:0.02451 138:0.02451 139:0.02451 141:0.02451 143:0.02451 144:0.02451 145:0.02451 149:0.04903 155:0.02451 161:0.02451 162:0.02451 166:0.02451 170:0.02451 175:0.02451 188:0.04903 189:0.07354 193:0.02451 194:0.04903 195:0.02451 201:0.02451 205:0.02451 206:0.02451 215:0.02451 217:0.02451 224:0.02451 226:0.02451 227:0.02451 230:0.02451 233:0.02451 240:0.02451 241:0.07354 246:0.02451 247:0.02451 253:0.02451 254:0.02451 256:0.02451 257:0.02451 258:0.02451 261:0.04903 265:0.04903 267:0.04903 270:0.02451 273:0.04903 274:0.12257 280:0.02451 283:0.02451 284:0.04903 286:0.02451 288:0.04903 289:0.04903 312:0.02451 320:0.02451 326:0.02451 328:0.02451 329:0.02451 337:0.02451 340:0.02451 347:0.02451 349:0.02451 353:0.02451 377:0.02451 378:0.02451 381:0.02451 391:0.02451 394:0.02451 396:0.02451 397:0.02451 402:0.02451 403:0.02451 420:0.02451 426:0.02451 434:0.02451 438:0.02451 440:0.02451 444:0.04903 446:0.02451 452:0.02451 454:0.02451 466:0.02451 467:0.02451 468:0.02451 476:0.02451 479:0.02451 486:0.02451 506:0.02451 507:0.02451 512:0.07354 513:0.02451 514:0.02451 515:0.04903 517:0.02451 533:0.02451 535:0.02451 539:0.02451 540:0.02451 551:0.02451 553:0.02451 559:0.02451 561:0.04903 563:0.02451 564:0.02451 566:0.02451 567:0.02451 572:0.02451 575:0.02451 577:0.04903 579:0.02451 587:0.02451 589:0.02451 593:0.04903 603:0.04903 609:0.02451 610:0.02451 616:0.04903 619:0.02451 631:0.02451 634:0.02451 641:0.02451 647:0.02451 651:0.02451 663:0.02451 677:0.02451 682:0.02451 683:0.02451 688:0.02451 691:0.02451 697:0.02451 700:0.02451 711:0.02451 727:0.02451 729:0.02451 739:0.02451 748:0.02451 750:0.02451 751:0.02451 752:0.02451 753:0.04903 754:0.02451 755:0.02451 768:0.02451 769:0.02451 772:0.09806 774:0.02451 775:0.02451 778:0.02451 783:0.04903 785:0.04903 801:0.02451 805:0.02451 817:0.02451 818:0.02451 824:0.02451 826:0.02451 832:0.04903 833:0.02451 837:0.02451 852:0.02451 860:0.02451 867:0.02451 869:0.02451 875:0.02451 878:0.02451 883:0.02451 886:0.02451 887:0.02451 889:0.02451 891:0.02451 895:0.02451 896:0.04903 897:0.04903 898:0.02451 901:0.02451 906:0.02451 908:0.02451 913:0.02451 918:0.02451 919:0.02451 921:0.02451 925:0.02451 932:0.02451 940:0.02451 958:0.02451 960:0.02451 962:0.04903 963:0.02451 971:0.02451 972:0.02451 973:0.02451 974:0.02451 987:0.04903 993:0.02451 1005:0.02451 1012:0.09806 1013:0.04903 1018:0.02451 1019:0.02451 1022:0.04903 1023:0.02451 1025:0.02451 1026:0.02451 1027:0.02451 1028:0.02451 1029:0.07354 1037:0.04903 1041:0.07354 1045:0.02451 1049:0.02451 1057:0.02451 1058:0.02451 1059:0.02451 1060:0.02451 1062:0.02451 1063:0.02451 1066:0.02451 1067:0.02451 1071:0.02451 1072:0.02451 1078:0.02451 1080:0.02451 1091:0.04903 1093:0.14709 1095:0.04903 1096:0.02451 1106:0.02451 1109:0.02451 1119:0.02451 1120:0.02451 1125:0.02451 1129:0.02451 1133:0.02451 1136:0.02451 1141:0.02451 1143:0.02451 1144:0.02451 1151:0.02451 1152:0.02451 1153:0.04903 1159:0.02451 1164:0.02451 1166:0.04903 1175:0.02451 1178:0.02451 1182:0.02451 1197:0.02451 1199:0.02451 1206:0.02451 1229:0.02451 1233:0.02451 1242:0.02451 1248:0.02451 1249:0.04903 1253:0.02451 1254:0.02451 1255:0.02451 1259:0.02451 1268:0.04903 1278:0.02451 1280:0.04903 1281:0.02451 1284:0.02451 1289:0.02451 1290:0.02451 1292:0.02451 1301:0.02451 1310:0.02451 1313:0.02451 1316:0.02451 1318:0.02451 1338:0.02451 1344:0.02451 1345:0.02451 1354:0.02451 1359:0.02451 1363:0.02451 1368:0.02451 1370:0.02451 1374:0.04903 1379:0.02451 1380:0.02451 1381:0.02451 1384:0.02451 1386:0.07354 1390:0.02451 1393:0.02451 1398:0.02451 1399:0.02451 1407:0.02451 1412:0.04903 1418:0.02451 1422:0.02451 1425:0.02451 1427:0.02451 1440:0.02451 1446:0.02451 1448:0.04903 1449:0.02451 1450:0.02451 1452:0.02451 1464:0.02451 1468:0.02451 1476:0.02451 1496:0.02451 1497:0.02451 1504:0.02451 1507:0.02451 1512:0.02451 1521:0.02451 1532:0.04903 1534:0.04903 1539:0.02451 1543:0.02451 1550:0.02451 1552:0.02451 1561:0.04903 1566:0.02451 1572:0.02451 1575:0.02451 1576:0.02451 1579:0.02451 1583:0.02451 1585:0.02451 1592:0.02451 1593:0.02451 1598:0.02451 1602:0.02451 1603:0.02451 1605:0.02451 1609:0.04903 1615:0.02451 1653:0.02451 1655:0.02451 1656:0.02451 1658:0.02451 1663:0.02451 1672:0.02451 1680:0.02451 1684:0.02451 1688:0.02451 1694:0.02451 1695:0.02451 1697:0.02451 1699:0.02451 1701:0.07354 1702:0.02451 1706:0.02451 1712:0.02451 1720:0.02451 1736:0.02451 1752:0.02451 1754:0.02451 1756:0.02451 1758:0.02451 1759:0.02451 1763:0.02451 1775:0.04903 1776:0.02451 1777:0.02451 1780:0.02451 1783:0.02451 1785:0.02451 1800:0.02451 1805:0.04903 1816:0.02451 1828:0.02451 1829:0.02451 1848:0.02451 1856:0.02451 1858:0.02451 1863:0.02451 1864:0.02451 1865:0.02451 1867:0.02451 1870:0.02451 1872:0.02451 1878:0.02451 1879:0.02451 1886:0.02451 1892:0.02451 1893:0.02451 1899:0.02451 1902:0.02451 1904:0.02451 1914:0.02451 1919:0.02451 1920:0.02451 1930:0.02451 1932:0.02451 1941:0.02451 1942:0.04903 1947:0.02451 1948:0.02451 1950:0.02451 1958:0.02451 1963:0.02451 1968:0.02451 1984:0.04903 1988:0.02451 2000:0.02451 2022:0.02451 2023:0.02451 2024:0.02451 2025:0.02451 2026:0.04903 2031:0.04903 2032:0.04903 2037:0.02451 2039:0.02451 2040:0.04903 2045:0.02451 2046:0.04903 2047:0.02451 2048:0.04903 2049:0.04903 2051:0.04903 2052:0.04903 2053:0.04903 2057:0.04903 2059:0.04903 2063:0.02451 2064:0.02451 2066:0.02451 2068:0.02451 2070:0.02451 2076:0.02451 2103:0.02451 2110:0.04903 2113:0.02451 2120:0.02451 2130:0.02451 2137:0.02451 2147:0.02451 2148:0.02451 2155:0.02451 2158:0.04903 2165:0.02451 2170:0.02451 2183:0.02451 2189:0.04903 2193:0.02451 2195:0.02451 2199:0.02451 2201:0.04903 2202:0.02451 2207:0.02451 2211:0.02451 2219:0.04903 2226:0.02451 2231:0.02451 2233:0.02451 2235:0.02451 2236:0.02451 2241:0.07354 2244:0.02451 2250:0.02451 2256:0.02451 2261:0.02451 2267:0.02451 2271:0.04903 2273:0.02451 2275:0.02451 2288:0.02451 2295:0.02451 2297:0.02451 2300:0.02451 2306:0.04903 2308:0.02451 2309:0.02451 2310:0.02451 2313:0.02451 2314:0.02451 2316:0.02451 2322:0.02451 2326:0.02451 2338:0.02451 2339:0.02451 2343:0.02451 2344:0.02451 2348:0.02451 2350:0.02451 2356:0.02451 2362:0.04903 2363:0.02451 2365:0.02451 2369:0.02451 2371:0.04903 2377:0.02451 2391:0.02451 2392:0.02451 2393:0.02451 2394:0.02451 2395:0.02451 2396:0.02451 2400:0.02451 2405:0.02451 2411:0.07354 2431:0.02451 2433:0.02451 2439:0.02451 2441:0.02451 2447:0.02451 2462:0.02451 2463:0.02451 2469:0.02451 2474:0.02451 2475:0.02451 2489:0.02451 2493:0.02451 2505:0.02451 2510:0.02451 2513:0.02451 2515:0.02451 2516:0.02451 2518:0.02451 2523:0.02451 2524:0.02451 2528:0.02451 2534:0.04903 2539:0.02451 2548:0.02451 2554:0.02451 2555:0.02451 2560:0.02451 2561:0.04903 2562:0.02451 2566:0.02451 2576:0.02451 2588:0.02451 2591:0.02451 2596:0.02451 2598:0.02451 2603:0.02451 2616:0.02451 2623:0.02451 2625:0.02451 2627:0.02451 2630:0.02451 2634:0.04903 2636:0.02451 2639:0.02451 2640:0.02451 2643:0.02451 2647:0.02451 2651:0.02451 2656:0.02451 2678:0.02451 2683:0.02451 2685:0.02451 2687:0.02451 2689:0.04903 2697:0.02451 2698:0.02451 2705:0.04903 2706:0.02451 2707:0.04903 2708:0.02451 2709:0.02451 2721:0.02451 2723:0.02451 2725:0.04903 2729:0.02451 2737:0.02451 2746:0.02451 2749:0.02451 2750:0.02451 2754:0.02451 2764:0.02451 2781:0.02451 2784:0.02451 2785:0.02451 2790:0.02451 2796:0.02451 2800:0.02451 2804:0.02451 2806:0.02451 2810:0.02451 2824:0.02451 2844:0.02451 2846:0.02451 2864:0.02451 2865:0.02451 2868:0.02451 2885:0.02451 2896:0.02451 2905:0.02451 2912:0.02451 2913:0.02451 2920:0.02451 2928:0.02451 2929:0.02451 2933:0.02451 2938:0.02451 2943:0.02451 2945:0.04903 2949:0.02451 2953:0.02451 2956:0.02451 2957:0.02451 2966:0.02451 2972:0.02451 2990:0.02451 2991:0.02451 2997:0.02451 3001:0.07354 3002:0.02451 3004:0.12257 3005:0.02451 3006:0.02451 3008:0.04903 3010:0.04903 3012:0.04903 3014:0.02451 3017:0.02451 3024:0.04903 3028:0.02451 3029:0.02451 3033:0.02451 3040:0.02451 3043:0.02451 3045:0.02451 3047:0.02451 3056:0.04903 3062:0.02451 3064:0.02451 3066:0.04903 3068:0.02451 3071:0.02451 3072:0.02451 3075:0.02451 3085:0.07354 3088:0.02451 3090:0.02451 3094:0.02451 3097:0.02451 3098:0.02451 3101:0.02451 3104:0.07354 3110:0.02451 3116:0.02451 3121:0.04903 3129:0.02451 3130:0.02451 3133:0.04903 3136:0.02451 3137:0.02451 3140:0.02451 3157:0.02451 3167:0.02451 3183:0.02451 3189:0.02451 3201:0.02451 3206:0.02451 3213:0.02451 3217:0.02451 3220:0.02451 3244:0.02451 3261:0.02451 3264:0.02451 3265:0.02451 3268:0.02451 3269:0.04903 3279:0.02451 3280:0.02451 3282:0.02451 3292:0.02451 3293:0.02451 3294:0.04903 3296:0.02451 3304:0.02451 3315:0.04903 3325:0.07354 3327:0.04903 3329:0.04903 3335:0.02451 3342:0.02451 3346:0.07354 3352:0.02451 3354:0.02451 3358:0.02451 3364:0.02451 3372:0.02451 3381:0.02451 3383:0.02451 3385:0.04903 3389:0.02451 3392:0.02451 3395:0.02451 3408:0.02451 3413:0.02451 3414:0.02451 3417:0.02451 3419:0.02451 3425:0.02451 3439:0.02451 3448:0.02451 3456:0.04903 3458:0.02451 3464:0.02451 3467:0.02451 3472:0.02451 3473:0.02451 3476:0.02451 3486:0.04903 3490:0.02451 3497:0.02451 3498:0.02451 3502:0.02451 3511:0.04903 3517:0.02451 3519:0.02451 3522:0.02451 3530:0.02451 3536:0.02451 3538:0.02451 3542:0.02451 3546:0.02451 3555:0.02451 3559:0.04903 3562:0.02451 3564:0.02451 3568:0.04903 3578:0.02451 3579:0.02451 3580:0.04903 3582:0.04903 3584:0.04903 3585:0.07354 3587:0.02451 3588:0.04903 3589:0.02451 3601:0.02451 3602:0.02451 3618:0.02451 3621:0.04903 3623:0.02451 3629:0.02451 3630:0.02451 3631:0.02451 3633:0.02451 3641:0.02451 3650:0.02451 3663:0.02451 3665:0.02451 3670:0.04903 3671:0.07354 3672:0.02451 3674:0.02451 3683:0.02451 3684:0.02451 3690:0.02451 3691:0.02451 3695:0.02451 3696:0.02451 3699:0.02451 3700:0.02451 3701:0.04903 3712:0.02451 3714:0.02451 3726:0.02451 3731:0.02451 3734:0.02451 3744:0.04903 3753:0.02451 3757:0.02451 3759:0.02451 3768:0.02451 3771:0.02451 3775:0.02451 3789:0.04903 3794:0.02451 3796:0.02451 3809:0.02451 3810:0.02451 3812:0.02451 3815:0.02451 3823:0.14709 3824:0.02451 3825:0.02451 3829:0.02451 3832:0.02451 3834:0.02451 3836:0.04903 3838:0.04903 3839:0.07354 3840:0.02451 3845:0.02451 3847:0.02451 3848:0.04903 3851:0.02451 3856:0.07354 3862:0.02451 3874:0.02451 3883:0.02451 3888:0.02451 3890:0.02451 3892:0.02451 3893:0.02451 3895:0.02451 3896:0.04903 3901:0.04903 3904:0.04903 3905:0.02451 3908:0.02451 3909:0.02451 3910:0.02451 3918:0.02451 3919:0.04903 3921:0.02451 3926:0.02451 3927:0.02451 3936:0.02451 3938:0.02451 3944:0.02451 3945:0.02451 3948:0.02451 3956:0.02451 3963:0.02451 3964:0.04903 3967:0.02451 3968:0.02451 3969:0.04903 3978:0.02451 3983:0.02451 3988:0.02451 3990:0.04903 3993:0.02451 3995:0.02451 3997:0.02451 3998:0.02451 4000:0.02451 4001:0.02451 4005:0.02451 4008:0.04903 4012:0.02451 4020:0.04903 4021:0.02451 4028:0.04903 4031:0.07354 4032:0.02451 4045:0.02451 4046:0.07354 4048:0.02451 4049:0.04903 4050:0.04903 4052:0.04903 4054:0.04903 4056:0.02451 4058:0.02451 4061:0.02451 4063:0.04903 4064:0.02451 4065:0.02451 4068:0.02451 4070:0.02451 4072:0.04903 4074:0.02451 4075:0.02451 4077:0.02451 4078:0.02451 4084:0.02451 4085:0.07354 4086:0.04903 4088:0.02451 4089:0.04903 4091:0.02451 4092:0.02451 4094:0.04903 4095:0.02451 4096:0.02451 
2.650355550606116 1:0.10743 3:0.04883 4:0.0293 5:0.00977 7:0.00977 8:0.00977 9:0.01953 10:0.01953 11:0.00977 12:0.03907 13:0.0293 14:0.00977 15:0.00977 16:0.01953 17:0.00977 18:0.01953 19:0.01953 20:0.01953 23:0.00977 25:0.03907 26:0.00977 27:0.00977 29:0.00977 31:0.00977 33:0.03907 35:0.04883 36:0.0293 37:0.01953 40:0.00977 41:0.0293 42:0.00977 43:0.01953 47:0.00977 48:0.0293 49:0.07813 51:0.03907 52:0.04883 56:0.00977 57:0.03907 58:0.01953 59:0.00977 60:0.00977 61:0.0293 64:0.01953 65:0.04883 66:0.06837 67:0.01953 69:0.01953 70:0.00977 71:0.01953 72:0.00977 73:0.01953 74:0.00977 75:0.01953 77:0.01953 78:0.01953 80:0.00977 83:0.00977 88:0.01953 89:0.00977 97:0.0586 98:0.00977 99:0.00977 101:0.00977 106:0.00977 111:0.00977 113:0.00977 114:0.01953 115:0.01953 121:0.01953 122:0.00977 125:0.00977 126:0.00977 127:0.00977 128:0.0293 129:0.0586 130:0.00977 131:0.03907 132:0.00977 136:0.00977 137:0.04883 139:0.00977 141:0.01953 143:0.01953 145:0.00977 148:0.00977 153:0.01953 159:0.00977 161:0.00977 162:0.00977 164:0.03907 165:0.00977 169:0.00977 171:0.01953 174:0.00977 175:0.00977 181:0.00977 183:0.00977 184:0.00977 186:0.00977 188:0.00977 189:0.0586 193:0.0586 194:0.03907 195:0.00977 197:0.00977 198:0.01953 201:0.0293 202:0.00977 203:0.00977 205:0.0293 206:0.0293 208:0.03907 212:0.00977 216:0.01953 218:0.00977 223:0.00977 225:0.0586 226:0.00977 227:0.0293 228:0.00977 229:0.00977 230:0.01953 231:0.00977 233:0.00977 238:0.00977 240:0.00977 241:0.03907 244:0.01953 247:0.01953 251:0.00977 253:0.01953 255:0.00977 256:0.01953 257:0.04883 258:0.01953 259:0.00977 260:0.00977 261:0.09766 265:0.0293 267:0.00977 268:0.00977 274:0.01953 275:0.0293 280:0.00977 282:0.01953 283:0.00977 284:0.01953 286:0.00977 288:0.00977 289:0.00977 290:0.0293 291:0.06837 292:0.01953 294:0.01953 296:0.01953 297:0.0293 299:0.03907 300:0.00977 301:0.00977 305:0.00977 306:0.0293 308:0.00977 311:0.00977 312:0.00977 318:0.00977 320:0.00977 321:0.00977 329:0.00977 332:0.01953 334:0.00977 342:0.00977 349:0.00977 351:0.03907 353:0.00977 373:0.00977 376:0.00977 377:0.00977 378:0.00977 380:0.00977 381:0.01953 385:0.0293 387:0.01953 388:0.00977 391:0.00977 394:0.00977 397:0.00977 402:0.00977 404:0.00977 410:0.00977 414:0.00977 418:0.00977 419:0.00977 423:0.01953 433:0.00977 434:0.00977 439:0.00977 440:0.00977 441:0.00977 444:0.01953 446:0.00977 452:0.00977 454:0.00977 455:0.00977 458:0.01953 467:0.00977 468:0.00977 474:0.00977 478:0.00977 479:0.00977 481:0.00977 483:0.00977 484:0.00977 485:0.00977 488:0.00977 492:0.01953 494:0.00977 500:0.01953 501:0.00977 504:0.00977 505:0.01953 508:0.00977 512:0.03907 513:0.0293 514:0.01953 515:0.0586 516:0.0293 517:0.00977 518:0.01953 521:0.0293 523:0.01953 524:0.00977 527:0.0293 529:0.00977 531:0.07813 536:0.00977 539:0.00977 540:0.00977 543:0.00977 544:0.00977 545:0.06837 546:0.03907 547:0.2051 548:0.04883 551:0.01953 552:0.01953 555:0.00977 556:0.00977 559:0.01953 561:0.0293 563:0.09766 564:0.04883 568:0.01953 570:0.01953 571:0.0293 572:0.00977 576:0.00977 577:0.00977 585:0.01953 586:0.00977 587:0.00977 588:0.00977 589:0.00977 593:0.01953 595:0.0293 596:0.01953 606:0.00977 609:0.01953 610:0.01953 611:0.01953 612:0.00977 618:0.00977 621:0.00977 625:0.00977 626:0.0293 627:0.01953 628:0.00977 629:0.00977 630:0.01953 632:0.01953 633:0.00977 634:0.00977 635:0.00977 636:0.01953 640:0.00977 641:0.00977 642:0.00977 643:0.01953 645:0.00977 651:0.00977 653:0.0293 656:0.01953 657:0.00977 659:0.01953 670:0.00977 676:0.00977 681:0.0293 682:0.00977 683:0.00977 685:0.0293 688:0.01953 691:0.0293 696:0.00977 697:0.01953 700:0.00977 711:0.00977 719:0.00977 721:0.00977 729:0.01953 730:0.00977 731:0.00977 734:0.00977 736:0.00977 737:0.00977 738:0.00977 743:0.00977 745:0.00977 750:0.00977 752:0.00977 753:0.03907 755:0.00977 756:0.0293 761:0.01953 762:0.00977 763:0.00977 766:0.00977 768:0.00977 769:0.03907 770:0.00977 771:0.01953 772:0.09766 773:0.00977 774:0.00977 775:0.00977 776:0.0293 779:0.00977 780:0.01953 783:0.00977 784:0.01953 785:0.01953 786:0.00977 787:0.03907 788:0.00977 790:0.0293 794:0.00977 799:0.00977 801:0.01953 802:0.01953 803:0.03907 804:0.0879 807:0.00977 808:0.00977 809:0.00977 817:0.07813 818:0.00977 819:0.00977 820:0.1172 821:0.00977 824:0.04883 826:0.00977 827:0.01953 828:0.00977 829:0.00977 830:0.03907 832:0.04883 833:0.00977 835:0.00977 837:0.00977 842:0.00977 844:0.00977 847:0.00977 848:0.00977 856:0.00977 861:0.00977 864:0.03907 867:0.00977 872:0.00977 878:0.00977 881:0.00977 882:0.0293 884:0.0879 885:0.00977 887:0.00977 888:0.04883 892:0.01953 894:0.00977 896:0.0293 897:0.01953 898:0.00977 899:0.01953 900:0.01953 901:0.01953 905:0.00977 906:0.01953 908:0.00977 909:0.00977 912:0.00977 913:0.03907 915:0.00977 917:0.01953 918:0.00977 919:0.00977 922:0.01953 924:0.00977 928:0.00977 929:0.00977 930:0.00977 936:0.01953 939:0.00977 941:0.00977 947:0.00977 948:0.00977 950:0.00977 955:0.00977 957:0.00977 958:0.00977 959:0.00977 960:0.01953 961:0.0293 962:0.0293 963:0.00977 966:0.00977 969:0.00977 971:0.00977 972:0.00977 973:0.01953 974:0.00977 977:0.00977 978:0.0293 979:0.00977 980:0.01953 981:0.00977 982:0.01953 985:0.01953 986:0.00977 988:0.00977 990:0.01953 992:0.00977 993:0.01953 999:0.00977 1001:0.00977 1003:0.00977 1009:0.03907 1010:0.00977 1011:0.00977 1012:0.09766 1013:0.00977 1015:0.00977 1016:0.0293 1017:0.00977 1019:0.00977 1020:0.00977 1021:0.00977 1022:0.00977 1023:0.01953 1024:0.0293 1025:0.03907 1027:0.00977 1028:0.01953 1029:0.04883 1031:0.00977 1035:0.0293 1037:0.01953 1040:0.00977 1041:0.09766 1043:0.00977 1044:0.00977 1049:0.01953 1053:0.0293 1055:0.00977 1057:0.0293 1058:0.00977 1065:0.00977 1070:0.00977 1071:0.00977 1072:0.00977 1078:0.00977 1081:0.01953 1082:0.00977 1086:0.00977 1090:0.01953 1091:0.00977 1093:0.01953 1095:0.00977 1097:0.00977 1099:0.0293 1101:0.00977 1105:0.00977 1107:0.00977 1119:0.01953 1120:0.00977 1125:0.00977 1127:0.00977 1130:0.00977 1133:0.01953 1136:0.00977 1143:0.00977 1144:0.01953 1147:0.00977 1151:0.00977 1152:0.00977 1153:0.00977 1154:0.01953 1155:0.00977 1157:0.01953 1158:0.00977 1159:0.01953 1161:0.06837 1164:0.00977 1165:0.00977 1168:0.00977 1171:0.01953 1173:0.0293 1177:0.00977 1181:0.01953 1182:0.01953 1184:0.00977 1185:0.0293 1189:0.00977 1196:0.03907 1197:0.00977 1199:0.01953 1204:0.00977 1207:0.01953 1208:0.00977 1211:0.00977 1213:0.00977 1215:0.00977 1216:0.00977 1217:0.00977 1218:0.00977 1221:0.0293 1223:0.00977 1224:0.00977 1225:0.00977 1229:0.0293 1230:0.00977 1233:0.01953 1241:0.00977 1245:0.0293 1246:0.00977 1248:0.01953 1249:0.00977 1252:0.00977 1253:0.00977 1254:0.00977 1267:0.00977 1268:0.00977 1269:0.00977 1270:0.00977 1271:0.00977 1272:0.0293 1273:0.00977 1274:0.00977 1275:0.00977 1277:0.04883 1278:0.01953 1280:0.00977 1282:0.00977 1284:0.00977 1288:0.00977 1289:0.00977 1295:0.00977 1296:0.00977 1297:0.01953 1300:0.00977 1301:0.00977 1311:0.00977 1313:0.00977 1314:0.00977 1317:0.00977 1319:0.00977 1320:0.00977 1326:0.00977 1327:0.00977 1332:0.01953 1336:0.0293 1344:0.00977 1347:0.00977 1348:0.00977 1349:0.00977 1357:0.00977 1361:0.00977 1364:0.00977 1365:0.00977 1368:0.00977 1370:0.00977 1373:0.00977 1374:0.01953 1376:0.01953 1383:0.00977 1393:0.01953 1398:0.00977 1400:0.00977 1404:0.03907 1406:0.00977 1408:0.01953 1409:0.00977 1416:0.00977 1434:0.00977 1438:0.00977 1459:0.00977 1464:0.00977 1468:0.00977 1472:0.00977 1473:0.00977 1476:0.00977 1488:0.00977 1491:0.00977 1493:0.00977 1494:0.00977 1496:0.00977 1498:0.00977 1502:0.00977 1504:0.00977 1507:0.00977 1511:0.00977 1512:0.00977 1517:0.0293 1519:0.0293 1520:0.01953 1521:0.00977 1524:0.00977 1526:0.00977 1528:0.01953 1532:0.00977 1533:0.00977 1534:0.00977 1535:0.0293 1536:0.00977 1537:0.00977 1538:0.0293 1540:0.00977 1541:0.00977 1543:0.00977 1546:0.01953 1549:0.00977 1551:0.00977 1552:0.01953 1561:0.00977 1564:0.00977 1566:0.00977 1567:0.01953 1568:0.00977 1570:0.00977 1571:0.00977 1572:0.00977 1573:0.01953 1574:0.00977 1578:0.00977 1583:0.00977 1585:0.00977 1596:0.00977 1598:0.00977 1604:0.00977 1608:0.00977 1609:0.00977 1611:0.00977 1613:0.01953 1616:0.00977 1622:0.00977 1628:0.01953 1637:0.03907 1643:0.00977 1647:0.00977 1651:0.00977 1652:0.00977 1653:0.01953 1656:0.01953 1659:0.00977 1662:0.01953 1669:0.01953 1674:0.00977 1684:0.00977 1689:0.01953 1705:0.00977 1728:0.00977 1730:0.00977 1736:0.00977 1740:0.00977 1743:0.00977 1754:0.00977 1756:0.00977 1759:0.01953 1773:0.01953 1775:0.00977 1776:0.01953 1777:0.00977 1780:0.00977 1783:0.00977 1786:0.01953 1789:0.01953 1790:0.01953 1791:0.00977 1792:0.00977 1794:0.00977 1795:0.00977 1796:0.00977 1797:0.00977 1800:0.00977 1805:0.01953 1807:0.00977 1809:0.00977 1811:0.00977 1812:0.00977 1813:0.00977 1816:0.0293 1819:0.00977 1827:0.0293 1830:0.01953 1831:0.00977 1832:0.01953 1840:0.01953 1844:0.00977 1845:0.00977 1846:0.01953 1848:0.09766 1849:0.00977 1854:0.00977 1856:0.03907 1857:0.01953 1858:0.01953 1867:0.00977 1868:0.00977 1870:0.00977 1872:0.0293 1873:0.00977 1875:0.00977 1878:0.01953 1884:0.00977 1886:0.00977 1890:0.00977 1892:0.00977 1893:0.00977 1894:0.01953 1896:0.01953 1904:0.00977 1905:0.01953 1907:0.0293 1908:0.03907 1911:0.00977 1912:0.2051 1914:0.00977 1916:0.06837 1918:0.00977 1920:0.04883 1924:0.00977 1931:0.00977 1932:0.00977 1933:0.01953 1937:0.00977 1940:0.00977 1944:0.01953 1946:0.01953 1950:0.0293 1951:0.01953 1955:0.00977 1960:0.0293 1965:0.00977 1967:0.00977 1968:0.00977 1969:0.01953 1971:0.00977 1972:0.03907 1974:0.01953 1976:0.07813 1977:0.00977 1980:0.0293 1982:0.01953 1983:0.00977 1984:0.01953 1988:0.00977 1989:0.00977 1997:0.00977 1998:0.00977 2000:0.00977 2001:0.00977 2004:0.01953 2008:0.01953 2012:0.01953 2014:0.00977 2015:0.00977 2016:0.03907 2018:0.00977 2020:0.00977 2027:0.00977 2029:0.01953 2031:0.00977 2032:0.01953 2033:0.00977 2034:0.00977 2035:0.00977 2036:0.01953 2037:0.01953 2040:0.0586 2042:0.01953 2044:0.00977 2045:0.01953 2046:0.00977 2047:0.00977 2048:0.04883 2049:0.0293 2050:0.0293 2051:0.00977 2052:0.00977 2053:0.00977 2054:0.00977 2055:0.01953 2056:0.00977 2057:0.06837 2059:0.00977 2061:0.0293 2063:0.01953 2065:0.01953 2066:0.00977 2067:0.01953 2068:0.00977 2069:0.00977 2070:0.00977 2076:0.00977 2081:0.03907 2083:0.00977 2084:0.00977 2087:0.01953 2089:0.01953 2091:0.00977 2094:0.00977 2096:0.00977 2098:0.01953 2099:0.00977 2100:0.03907 2101:0.00977 2103:0.00977 2105:0.0293 2106:0.00977 2108:0.00977 2109:0.00977 2111:0.00977 2113:0.0293 2114:0.00977 2117:0.00977 2120:0.00977 2121:0.07813 2122:0.00977 2124:0.00977 2128:0.00977 2134:0.00977 2144:0.00977 2148:0.00977 2153:0.00977 2158:0.01953 2165:0.00977 2169:0.00977 2170:0.00977 2171:0.00977 2173:0.00977 2174:0.00977 2175:0.00977 2177:0.04883 2179:0.00977 2180:0.01953 2181:0.04883 2184:0.00977 2185:0.18556 2186:0.00977 2187:0.00977 2188:0.00977 2189:0.04883 2190:0.00977 2191:0.00977 2195:0.0293 2197:0.00977 2200:0.00977 2201:0.01953 2203:0.00977 2204:0.00977 2205:0.0293 2207:0.01953 2211:0.00977 2213:0.00977 2216:0.00977 2219:0.01953 2221:0.01953 2226:0.00977 2231:0.00977 2233:0.01953 2236:0.00977 2241:0.0293 2242:0.00977 2243:0.00977 2244:0.00977 2245:0.01953 2249:0.1172 2250:0.00977 2254:0.01953 2255:0.00977 2256:0.0293 2269:0.00977 2270:0.00977 2275:0.00977 2277:0.01953 2278:0.00977 2282:0.01953 2284:0.00977 2288:0.01953 2290:0.00977 2293:0.01953 2297:0.00977 2304:0.00977 2306:0.01953 2307:0.01953 2309:0.00977 2311:0.01953 2312:0.00977 2319:0.00977 2336:0.00977 2337:0.01953 2338:0.00977 2339:0.00977 2341:0.00977 2342:0.00977 2344:0.00977 2346:0.00977 2348:0.00977 2350:0.00977 2352:0.00977 2353:0.00977 2354:0.01953 2356:0.00977 2357:0.00977 2360:0.01953 2362:0.01953 2366:0.00977 2367:0.00977 2368:0.01953 2369:0.00977 2370:0.00977 2373:0.00977 2374:0.00977 2377:0.00977 2378:0.01953 2382:0.01953 2386:0.00977 2390:0.00977 2392:0.00977 2408:0.00977 2415:0.00977 2416:0.00977 2422:0.00977 2423:0.00977 2426:0.00977 2432:0.00977 2433:0.00977 2434:0.00977 2436:0.00977 2439:0.00977 2440:0.00977 2441:0.0293 2443:0.00977 2444:0.00977 2448:0.00977 2451:0.01953 2452:0.01953 2458:0.01953 2459:0.00977 2460:0.00977 2469:0.00977 2475:0.00977 2484:0.00977 2492:0.01953 2496:0.00977 2497:0.01953 2501:0.0293 2505:0.0293 2508:0.01953 2510:0.00977 2512:0.00977 2513:0.0293 2516:0.01953 2518:0.00977 2519:0.00977 2521:0.01953 2524:0.00977 2525:0.0293 2526:0.00977 2532:0.00977 2533:0.00977 2534:0.00977 2536:0.00977 2537:0.00977 2538:0.01953 2541:0.01953 2542:0.00977 2544:0.00977 2551:0.01953 2557:0.00977 2560:0.01953 2561:0.01953 2565:0.01953 2569:0.00977 2571:0.00977 2573:0.01953 2575:0.00977 2577:0.00977 2578:0.00977 2579:0.01953 2580:0.00977 2594:0.00977 2600:0.01953 2601:0.00977 2602:0.00977 2603:0.00977 2609:0.00977 2610:0.00977 2611:0.01953 2621:0.00977 2623:0.00977 2625:0.00977 2626:0.00977 2633:0.00977 2634:0.00977 2638:0.00977 2639:0.00977 2640:0.01953 2657:0.00977 2659:0.01953 2673:0.00977 2675:0.01953 2677:0.00977 2679:0.00977 2682:0.00977 2684:0.01953 2689:0.00977 2690:0.00977 2692:0.01953 2698:0.00977 2699:0.00977 2701:0.00977 2705:0.00977 2708:0.00977 2713:0.00977 2721:0.0293 2723:0.01953 2725:0.00977 2727:0.00977 2730:0.00977 2732:0.00977 2734:0.00977 2740:0.0293 2741:0.00977 2749:0.00977 2750:0.00977 2756:0.00977 2761:0.0293 2764:0.00977 2765:0.00977 2768:0.01953 2770:0.00977 2783:0.00977 2785:0.0293 2794:0.00977 2800:0.00977 2804:0.00977 2808:0.01953 2814:0.00977 2819:0.00977 2820:0.00977 2821:0.00977 2825:0.00977 2830:0.00977 2834:0.00977 2844:0.00977 2846:0.00977 2852:0.0293 2856:0.0293 2864:0.01953 2866:0.01953 2868:0.00977 2869:0.00977 2870:0.00977 2874:0.01953 2876:0.0293 2877:0.00977 2878:0.01953 2883:0.00977 2885:0.00977 2888:0.00977 2893:0.00977 2896:0.00977 2898:0.00977 2900:0.00977 2905:0.00977 2908:0.00977 2912:0.00977 2913:0.00977 2915:0.00977 2920:0.01953 2921:0.00977 2928:0.00977 2932:0.01953 2934:0.00977 2935:0.00977 2936:0.03907 2938:0.00977 2939:0.00977 2940:0.0293 2943:0.00977 2945:0.00977 2946:0.00977 2948:0.0293 2949:0.00977 2950:0.00977 2957:0.00977 2972:0.00977 2978:0.00977 2981:0.01953 2986:0.00977 2994:0.00977 2996:0.00977 2997:0.00977 2998:0.00977 3001:0.00977 3004:0.01953 3005:0.0293 3006:0.00977 3008:0.01953 3009:0.01953 3010:0.01953 3012:0.0293 3015:0.00977 3017:0.01953 3022:0.00977 3023:0.00977 3024:0.03907 3026:0.00977 3028:0.00977 3030:0.00977 3032:0.00977 3033:0.00977 3034:0.00977 3039:0.01953 3040:0.00977 3041:0.00977 3043:0.01953 3045:0.0293 3046:0.00977 3050:0.00977 3053:0.00977 3054:0.00977 3055:0.01953 3056:0.06837 3059:0.00977 3060:0.00977 3063:0.0293 3064:0.01953 3065:0.00977 3066:0.01953 3067:0.00977 3068:0.01953 3070:0.0293 3073:0.00977 3075:0.01953 3076:0.00977 3079:0.01953 3081:0.0293 3082:0.00977 3083:0.00977 3085:0.0879 3087:0.04883 3088:0.01953 3089:0.00977 3090:0.0293 3092:0.00977 3094:0.00977 3097:0.01953 3101:0.00977 3103:0.00977 3104:0.0586 3105:0.00977 3116:0.01953 3118:0.00977 3120:0.00977 3121:0.0293 3122:0.00977 3124:0.00977 3126:0.00977 3129:0.01953 3133:0.01953 3134:0.00977 3136:0.0293 3137:0.00977 3138:0.00977 3139:0.01953 3143:0.01953 3145:0.01953 3146:0.01953 3147:0.0293 3149:0.01953 3155:0.00977 3156:0.00977 3160:0.0293 3166:0.01953 3167:0.00977 3176:0.00977 3177:0.00977 3183:0.01953 3189:0.00977 3196:0.00977 3201:0.01953 3205:0.01953 3209:0.0586 3210:0.0293 3213:0.09766 3214:0.00977 3215:0.0293 3221:0.0293 3225:0.01953 3229:0.01953 3230:0.0293 3231:0.01953 3236:0.00977 3243:0.00977 3244:0.00977 3261:0.00977 3263:0.0293 3264:0.00977 3265:0.06837 3267:0.00977 3268:0.01953 3269:0.01953 3270:0.00977 3273:0.00977 3277:0.15626 3279:0.0293 3280:0.0293 3282:0.00977 3283:0.01953 3284:0.00977 3286:0.00977 3288:0.0293 3292:0.00977 3293:0.09766 3294:0.04883 3295:0.00977 3296:0.01953 3298:0.00977 3301:0.00977 3303:0.01953 3304:0.00977 3305:0.00977 3307:0.00977 3309:0.01953 3311:0.00977 3312:0.01953 3313:0.0293 3315:0.01953 3317:0.03907 3318:0.01953 3319:0.00977 3325:0.0879 3326:0.0293 3327:0.01953 3328:0.0293 3329:0.01953 3330:0.00977 3332:0.00977 3333:0.00977 3336:0.01953 3340:0.01953 3342:0.00977 3343:0.00977 3345:0.00977 3346:0.00977 3347:0.00977 3349:0.00977 3352:0.01953 3356:0.00977 3358:0.01953 3368:0.00977 3372:0.00977 3374:0.00977 3376:0.01953 3379:0.00977 3381:0.00977 3385:0.01953 3389:0.01953 3390:0.0293 3391:0.01953 3392:0.03907 3396:0.00977 3397:0.00977 3400:0.00977 3402:0.00977 3405:0.00977 3408:0.00977 3409:0.00977 3413:0.00977 3415:0.00977 3416:0.0293 3424:0.00977 3426:0.00977 3437:0.00977 3438:0.00977 3444:0.00977 3446:0.00977 3452:0.0293 3454:0.01953 3455:0.00977 3456:0.0293 3458:0.00977 3460:0.01953 3464:0.01953 3466:0.01953 3471:0.00977 3473:0.00977 3478:0.00977 3479:0.01953 3485:0.01953 3486:0.01953 3487:0.00977 3488:0.01953 3490:0.00977 3504:0.00977 3511:0.00977 3517:0.01953 3519:0.01953 3520:0.03907 3522:0.01953 3524:0.00977 3526:0.0293 3530:0.0293 3533:0.00977 3534:0.1172 3535:0.00977 3536:0.0293 3537:0.00977 3540:0.00977 3541:0.00977 3546:0.0293 3549:0.0586 3550:0.18556 3551:0.06837 3552:0.04883 3558:0.00977 3559:0.00977 3560:0.01953 3562:0.00977 3564:0.00977 3565:0.01953 3566:0.07813 3567:0.00977 3568:0.01953 3570:0.00977 3573:0.01953 3574:0.00977 3576:0.0293 3579:0.00977 3580:0.0293 3581:0.0293 3582:0.06837 3584:0.01953 3585:0.01953 3587:0.01953 3588:0.00977 3589:0.01953 3593:0.01953 3596:0.00977 3597:0.03907 3598:0.01953 3599:0.00977 3601:0.01953 3602:0.00977 3606:0.00977 3616:0.00977 3617:0.00977 3620:0.00977 3621:0.00977 3622:0.00977 3623:0.01953 3624:0.00977 3628:0.00977 3629:0.00977 3630:0.00977 3633:0.00977 3634:0.00977 3635:0.00977 3636:0.00977 3641:0.00977 3642:0.00977 3646:0.00977 3649:0.01953 3650:0.0293 3658:0.00977 3660:0.00977 3661:0.00977 3662:0.01953 3663:0.00977 3664:0.00977 3666:0.01953 3669:0.00977 3670:0.00977 3674:0.00977 3678:0.00977 3679:0.00977 3680:0.00977 3683:0.00977 3687:0.03907 3695:0.00977 3696:0.00977 3701:0.00977 3703:0.01953 3706:0.00977 3707:0.00977 3712:0.01953 3716:0.00977 3717:0.01953 3721:0.00977 3723:0.00977 3732:0.01953 3741:0.0293 3742:0.00977 3743:0.0293 3745:0.00977 3749:0.00977 3753:0.00977 3755:0.00977 3761:0.00977 3763:0.00977 3769:0.00977 3771:0.00977 3774:0.00977 3777:0.01953 3779:0.00977 3781:0.01953 3786:0.0293 3789:0.01953 3790:0.01953 3791:0.0293 3792:0.00977 3794:0.00977 3796:0.01953 3797:0.01953 3799:0.01953 3800:0.00977 3805:0.01953 3806:0.04883 3807:0.01953 3809:0.00977 3810:0.00977 3812:0.00977 3817:0.00977 3818:0.00977 3819:0.00977 3822:0.00977 3823:0.01953 3824:0.01953 3825:0.01953 3826:0.00977 3827:0.00977 3828:0.00977 3829:0.01953 3830:0.01953 3831:0.00977 3832:0.00977 3833:0.00977 3834:0.00977 3836:0.09766 3838:0.00977 3839:0.04883 3840:0.00977 3843:0.00977 3844:0.03907 3845:0.01953 3847:0.00977 3848:0.03907 3851:0.00977 3853:0.0293 3856:0.03907 3857:0.00977 3859:0.01953 3861:0.00977 3868:0.00977 3875:0.01953 3876:0.00977 3878:0.00977 3880:0.00977 3883:0.01953 3888:0.00977 3889:0.01953 3892:0.07813 3893:0.00977 3894:0.00977 3895:0.00977 3896:0.0293 3898:0.00977 3900:0.00977 3901:0.0293 3904:0.07813 3905:0.00977 3906:0.00977 3908:0.01953 3909:0.00977 3910:0.0293 3912:0.00977 3916:0.00977 3919:0.00977 3920:0.0586 3924:0.00977 3925:0.00977 3926:0.0293 3935:0.0293 3936:0.00977 3937:0.01953 3938:0.00977 3942:0.00977 3944:0.01953 3948:0.00977 3952:0.0586 3956:0.01953 3957:0.00977 3960:0.06837 3962:0.01953 3963:0.00977 3964:0.00977 3965:0.00977 3966:0.03907 3967:0.0293 3968:0.03907 3969:0.01953 3971:0.00977 3972:0.00977 3976:0.00977 3977:0.00977 3978:0.0293 3983:0.01953 3987:0.00977 3988:0.03907 3990:0.00977 3992:0.00977 3993:0.00977 4000:0.00977 4003:0.00977 4008:0.01953 4009:0.00977 4011:0.00977 4015:0.00977 4017:0.00977 4019:0.00977 4020:0.01953 4021:0.01953 4022:0.00977 4024:0.00977 4025:0.00977 4027:0.01953 4029:0.00977 4030:0.01953 4031:0.09766 4032:0.00977 4034:0.01953 4036:0.0293 4037:0.01953 4042:0.01953 4043:0.00977 4045:0.06837 4046:0.0293 4047:0.00977 4048:0.0586 4049:0.01953 4050:0.00977 4052:0.01953 4054:0.00977 4056:0.00977 4058:0.00977 4059:0.00977 4060:0.0293 4061:0.01953 4062:0.04883 4063:0.00977 4064:0.0586 4065:0.00977 4067:0.01953 4068:0.00977 4069:0.01953 4070:0.00977 4072:0.00977 4074:0.00977 4076:0.00977 4077:0.00977 4078:0.0293 4080:0.04883 4084:0.03907 4085:0.01953 4086:0.01953 4087:0.00977 4088:0.0293 4089:0.01953 4092:0.04883 4093:0.00977 4094:0.0293 4095:0.03907 4096:0.10743 
0.9517288685729992 1:0.02262 2:0.02262 3:0.06787 5:0.02262 8:0.02262 9:0.02262 12:0.06787 15:0.02262 16:0.02262 18:0.04524 19:0.04524 20:0.02262 25:0.02262 29:0.02262 35:0.02262 36:0.04524 41:0.04524 42:0.02262 47:0.02262 48:0.04524 49:0.04524 52:0.04524 57:0.02262 59:0.02262 60:0.02262 61:0.02262 64:0.04524 66:0.04524 69:0.02262 70:0.02262 71:0.02262 72:0.02262 73:0.04524 75:0.02262 78:0.02262 80:0.02262 83:0.04524 85:0.04524 88:0.02262 98:0.02262 99:0.04524 102:0.02262 107:0.02262 110:0.02262 111:0.02262 113:0.02262 121:0.02262 122:0.02262 123:0.02262 127:0.02262 128:0.04524 137:0.02262 141:0.02262 143:0.02262 144:0.02262 149:0.02262 161:0.04524 162:0.02262 165:0.02262 166:0.02262 172:0.02262 175:0.04524 185:0.02262 188:0.02262 189:0.04524 191:0.02262 193:0.02262 194:0.04524 195:0.02262 205:0.02262 206:0.02262 214:0.02262 220:0.02262 224:0.02262 226:0.02262 227:0.02262 229:0.02262 233:0.02262 240:0.02262 241:0.06787 245:0.02262 246:0.04524 251:0.02262 253:0.02262 254:0.02262 256:0.02262 257:0.02262 258:0.02262 261:0.02262 263:0.02262 267:0.04524 270:0.02262 273:0.04524 274:0.06787 276:0.02262 280:0.02262 284:0.04524 286:0.02262 288:0.02262 289:0.06787 291:0.02262 299:0.02262 310:0.02262 312:0.02262 315:0.02262 320:0.02262 323:0.02262 330:0.04524 332:0.02262 337:0.02262 339:0.02262 340:0.02262 349:0.02262 352:0.02262 360:0.02262 375:0.02262 377:0.02262 378:0.02262 381:0.04524 386:0.02262 391:0.04524 395:0.04524 396:0.02262 397:0.02262 400:0.02262 407:0.02262 414:0.02262 423:0.02262 424:0.02262 425:0.04524 427:0.02262 434:0.02262 439:0.02262 444:0.04524 446:0.02262 447:0.02262 452:0.02262 456:0.02262 467:0.02262 468:0.02262 476:0.02262 478:0.04524 479:0.02262 481:0.02262 487:0.02262 492:0.02262 507:0.04524 512:0.06787 514:0.02262 515:0.04524 523:0.02262 530:0.02262 531:0.02262 545:0.02262 547:0.04524 548:0.02262 549:0.02262 551:0.04524 553:0.02262 554:0.02262 555:0.02262 557:0.02262 559:0.04524 561:0.04524 562:0.02262 564:0.02262 571:0.02262 572:0.02262 575:0.02262 577:0.04524 586:0.02262 587:0.02262 593:0.02262 594:0.02262 604:0.02262 613:0.02262 616:0.04524 619:0.02262 620:0.02262 641:0.02262 644:0.02262 646:0.02262 655:0.04524 657:0.04524 661:0.02262 675:0.06787 676:0.02262 685:0.02262 688:0.02262 691:0.02262 694:0.02262 697:0.04524 700:0.02262 711:0.02262 716:0.02262 726:0.04524 729:0.02262 737:0.02262 747:0.02262 750:0.02262 752:0.02262 753:0.06787 759:0.02262 761:0.02262 762:0.02262 768:0.02262 769:0.02262 772:0.09049 773:0.02262 774:0.02262 778:0.02262 783:0.04524 785:0.04524 789:0.02262 811:0.02262 817:0.02262 818:0.02262 824:0.02262 825:0.02262 832:0.04524 833:0.02262 837:0.04524 855:0.02262 856:0.02262 862:0.04524 878:0.02262 879:0.02262 882:0.02262 888:0.02262 889:0.02262 890:0.02262 895:0.02262 896:0.04524 897:0.02262 898:0.02262 901:0.04524 905:0.04524 906:0.02262 908:0.02262 913:0.02262 914:0.02262 918:0.02262 923:0.02262 929:0.04524 937:0.02262 939:0.02262 940:0.02262 949:0.02262 956:0.02262 958:0.02262 960:0.02262 962:0.04524 963:0.02262 971:0.02262 972:0.02262 973:0.02262 974:0.02262 979:0.02262 981:0.02262 984:0.02262 993:0.02262 995:0.02262 1003:0.02262 1005:0.02262 1012:0.09049 1013:0.04524 1018:0.02262 1019:0.02262 1022:0.02262 1023:0.02262 1025:0.02262 1026:0.02262 1028:0.02262 1029:0.06787 1035:0.02262 1037:0.02262 1039:0.02262 1041:0.04524 1050:0.02262 1052:0.02262 1055:0.02262 1056:0.02262 1060:0.02262 1065:0.02262 1067:0.02262 1071:0.02262 1072:0.02262 1078:0.02262 1079:0.02262 1080:0.02262 1086:0.02262 1091:0.04524 1093:0.09049 1095:0.02262 1103:0.02262 1119:0.02262 1120:0.04524 1121:0.02262 1122:0.02262 1124:0.02262 1130:0.02262 1133:0.02262 1136:0.02262 1144:0.04524 1151:0.02262 1152:0.02262 1153:0.06787 1157:0.04524 1161:0.02262 1164:0.02262 1165:0.02262 1167:0.02262 1169:0.02262 1171:0.02262 1178:0.04524 1193:0.02262 1197:0.02262 1199:0.02262 1213:0.02262 1214:0.02262 1215:0.02262 1227:0.02262 1229:0.02262 1233:0.02262 1240:0.04524 1247:0.02262 1248:0.02262 1249:0.04524 1251:0.02262 1253:0.02262 1254:0.02262 1255:0.02262 1259:0.02262 1263:0.02262 1268:0.04524 1278:0.02262 1279:0.02262 1280:0.02262 1284:0.02262 1285:0.02262 1289:0.02262 1292:0.04524 1296:0.02262 1305:0.02262 1307:0.02262 1310:0.02262 1314:0.02262 1315:0.02262 1317:0.02262 1319:0.02262 1328:0.02262 1334:0.02262 1336:0.02262 1340:0.02262 1344:0.02262 1346:0.02262 1348:0.02262 1352:0.02262 1353:0.04524 1358:0.04524 1359:0.02262 1362:0.02262 1363:0.02262 1364:0.02262 1365:0.02262 1372:0.02262 1377:0.04524 1378:0.02262 1384:0.02262 1389:0.02262 1390:0.02262 1392:0.02262 1393:0.02262 1396:0.02262 1398:0.02262 1400:0.02262 1404:0.02262 1407:0.02262 1410:0.04524 1414:0.02262 1428:0.02262 1438:0.04524 1457:0.02262 1458:0.02262 1462:0.02262 1467:0.02262 1470:0.02262 1476:0.02262 1487:0.02262 1494:0.02262 1500:0.04524 1502:0.06787 1507:0.02262 1512:0.02262 1520:0.02262 1521:0.04524 1528:0.02262 1532:0.04524 1534:0.04524 1535:0.02262 1542:0.02262 1543:0.04524 1544:0.02262 1557:0.02262 1561:0.02262 1564:0.02262 1566:0.02262 1577:0.02262 1580:0.02262 1582:0.02262 1585:0.02262 1599:0.02262 1612:0.02262 1615:0.02262 1628:0.02262 1650:0.02262 1653:0.02262 1656:0.04524 1658:0.02262 1659:0.02262 1683:0.02262 1692:0.02262 1694:0.02262 1697:0.06787 1698:0.02262 1699:0.02262 1700:0.02262 1705:0.02262 1718:0.02262 1730:0.02262 1734:0.02262 1736:0.02262 1737:0.02262 1750:0.02262 1756:0.04524 1762:0.02262 1765:0.02262 1769:0.02262 1770:0.02262 1775:0.02262 1776:0.02262 1777:0.02262 1782:0.02262 1783:0.04524 1786:0.02262 1788:0.02262 1789:0.02262 1805:0.04524 1814:0.02262 1816:0.02262 1817:0.02262 1822:0.02262 1849:0.02262 1858:0.02262 1860:0.02262 1867:0.02262 1869:0.02262 1870:0.02262 1871:0.02262 1872:0.02262 1874:0.02262 1878:0.04524 1879:0.02262 1880:0.06787 1901:0.02262 1904:0.04524 1906:0.02262 1909:0.04524 1910:0.11311 1912:0.04524 1915:0.02262 1916:0.02262 1920:0.02262 1921:0.02262 1924:0.02262 1925:0.02262 1932:0.02262 1941:0.02262 1943:0.02262 1946:0.02262 1950:0.02262 1951:0.02262 1963:0.02262 1964:0.02262 1965:0.02262 1968:0.04524 1973:0.02262 1976:0.02262 1982:0.02262 1984:0.04524 1985:0.02262 1988:0.02262 2000:0.02262 2014:0.02262 2026:0.04524 2028:0.02262 2031:0.04524 2037:0.04524 2038:0.02262 2040:0.04524 2041:0.02262 2045:0.02262 2048:0.06787 2049:0.06787 2052:0.02262 2053:0.02262 2057:0.06787 2059:0.04524 2063:0.02262 2064:0.02262 2067:0.02262 2068:0.02262 2070:0.04524 2073:0.02262 2075:0.02262 2076:0.02262 2079:0.02262 2090:0.02262 2110:0.04524 2111:0.02262 2113:0.02262 2117:0.02262 2120:0.02262 2121:0.04524 2126:0.02262 2129:0.02262 2138:0.02262 2142:0.02262 2148:0.02262 2155:0.02262 2160:0.02262 2162:0.02262 2165:0.02262 2167:0.02262 2179:0.02262 2185:0.04524 2186:0.04524 2187:0.06787 2188:0.04524 2189:0.02262 2193:0.02262 2195:0.02262 2197:0.02262 2199:0.02262 2203:0.04524 2204:0.02262 2212:0.04524 2213:0.02262 2217:0.04524 2222:0.02262 2226:0.02262 2227:0.02262 2230:0.02262 2231:0.02262 2235:0.02262 2236:0.02262 2241:0.06787 2244:0.02262 2246:0.02262 2256:0.02262 2258:0.02262 2262:0.02262 2275:0.02262 2283:0.04524 2286:0.02262 2288:0.02262 2297:0.04524 2300:0.02262 2305:0.02262 2306:0.04524 2308:0.02262 2311:0.02262 2312:0.02262 2329:0.02262 2340:0.02262 2341:0.02262 2343:0.02262 2348:0.02262 2352:0.02262 2361:0.02262 2362:0.04524 2365:0.02262 2369:0.02262 2371:0.04524 2375:0.02262 2385:0.02262 2389:0.02262 2405:0.02262 2413:0.02262 2415:0.02262 2424:0.02262 2430:0.02262 2432:0.02262 2451:0.02262 2461:0.02262 2463:0.04524 2469:0.02262 2473:0.02262 2478:0.02262 2495:0.02262 2502:0.02262 2513:0.04524 2516:0.02262 2518:0.02262 2525:0.02262 2526:0.04524 2534:0.02262 2536:0.02262 2540:0.04524 2548:0.02262 2561:0.02262 2563:0.02262 2565:0.02262 2566:0.02262 2567:0.02262 2576:0.04524 2583:0.02262 2584:0.02262 2587:0.02262 2589:0.02262 2590:0.02262 2595:0.11311 2598:0.02262 2603:0.02262 2613:0.02262 2619:0.02262 2620:0.02262 2623:0.02262 2625:0.04524 2626:0.02262 2633:0.02262 2634:0.02262 2639:0.02262 2641:0.02262 2656:0.02262 2672:0.02262 2677:0.02262 2678:0.02262 2685:0.02262 2690:0.06787 2694:0.02262 2695:0.02262 2696:0.04524 2697:0.09049 2698:0.02262 2699:0.02262 2702:0.02262 2704:0.02262 2705:0.02262 2708:0.02262 2722:0.02262 2723:0.04524 2725:0.02262 2729:0.02262 2738:0.02262 2739:0.02262 2749:0.02262 2750:0.04524 2759:0.02262 2761:0.02262 2762:0.02262 2766:0.02262 2774:0.02262 2776:0.02262 2779:0.02262 2785:0.04524 2800:0.02262 2801:0.02262 2802:0.02262 2804:0.02262 2806:0.02262 2807:0.02262 2822:0.02262 2838:0.02262 2843:0.02262 2844:0.02262 2846:0.02262 2851:0.02262 2852:0.02262 2855:0.02262 2862:0.02262 2865:0.02262 2868:0.02262 2872:0.02262 2887:0.02262 2889:0.02262 2893:0.02262 2896:0.02262 2901:0.04524 2902:0.02262 2903:0.02262 2912:0.02262 2913:0.02262 2923:0.02262 2927:0.02262 2928:0.02262 2937:0.02262 2939:0.02262 2945:0.06787 2949:0.02262 2957:0.02262 2958:0.02262 2964:0.02262 2979:0.02262 2984:0.02262 2987:0.02262 2997:0.02262 3000:0.02262 3001:0.04524 3004:0.06787 3005:0.04524 3008:0.04524 3010:0.09049 3012:0.04524 3015:0.02262 3024:0.04524 3028:0.02262 3030:0.06787 3033:0.02262 3035:0.04524 3036:0.02262 3043:0.02262 3045:0.02262 3046:0.02262 3051:0.02262 3056:0.04524 3057:0.02262 3064:0.02262 3066:0.04524 3068:0.02262 3071:0.02262 3072:0.02262 3075:0.02262 3079:0.02262 3085:0.06787 3088:0.02262 3090:0.04524 3093:0.04524 3094:0.02262 3097:0.02262 3103:0.02262 3104:0.04524 3110:0.02262 3116:0.04524 3121:0.04524 3129:0.02262 3130:0.02262 3133:0.04524 3136:0.02262 3137:0.02262 3140:0.02262 3155:0.02262 3157:0.02262 3160:0.02262 3167:0.02262 3171:0.02262 3178:0.02262 3179:0.02262 3183:0.02262 3189:0.02262 3192:0.02262 3210:0.02262 3213:0.02262 3226:0.02262 3241:0.02262 3244:0.02262 3254:0.02262 3264:0.02262 3265:0.02262 3268:0.02262 3269:0.04524 3279:0.02262 3280:0.02262 3282:0.02262 3292:0.02262 3293:0.02262 3294:0.02262 3295:0.02262 3296:0.02262 3298:0.02262 3299:0.02262 3315:0.04524 3325:0.06787 3327:0.02262 3329:0.02262 3331:0.02262 3336:0.02262 3342:0.04524 3346:0.04524 3352:0.04524 3353:0.02262 3360:0.02262 3362:0.02262 3364:0.02262 3372:0.02262 3376:0.02262 3379:0.02262 3380:0.02262 3381:0.02262 3385:0.04524 3386:0.02262 3389:0.02262 3392:0.02262 3399:0.02262 3408:0.02262 3412:0.02262 3413:0.02262 3414:0.02262 3415:0.02262 3417:0.06787 3418:0.02262 3420:0.04524 3421:0.02262 3422:0.04524 3423:0.02262 3447:0.02262 3448:0.02262 3455:0.02262 3456:0.04524 3458:0.02262 3464:0.02262 3497:0.06787 3507:0.02262 3511:0.02262 3513:0.02262 3514:0.02262 3515:0.02262 3517:0.02262 3518:0.02262 3520:0.02262 3526:0.02262 3527:0.02262 3540:0.04524 3541:0.02262 3542:0.09049 3550:0.04524 3551:0.02262 3552:0.02262 3553:0.02262 3554:0.02262 3558:0.02262 3563:0.04524 3566:0.04524 3568:0.04524 3579:0.02262 3582:0.06787 3584:0.02262 3585:0.06787 3587:0.04524 3588:0.04524 3589:0.02262 3600:0.02262 3601:0.02262 3602:0.02262 3603:0.02262 3604:0.02262 3619:0.04524 3621:0.02262 3622:0.02262 3623:0.02262 3629:0.02262 3630:0.02262 3633:0.02262 3638:0.02262 3641:0.02262 3650:0.02262 3655:0.02262 3663:0.02262 3664:0.02262 3665:0.02262 3669:0.02262 3670:0.02262 3674:0.02262 3678:0.02262 3680:0.02262 3688:0.02262 3690:0.02262 3701:0.02262 3704:0.02262 3706:0.02262 3707:0.02262 3713:0.02262 3716:0.02262 3721:0.02262 3731:0.02262 3736:0.02262 3742:0.02262 3744:0.02262 3746:0.04524 3749:0.02262 3753:0.02262 3754:0.02262 3755:0.02262 3757:0.02262 3760:0.04524 3764:0.02262 3767:0.02262 3773:0.04524 3789:0.04524 3794:0.02262 3795:0.02262 3796:0.04524 3807:0.04524 3812:0.04524 3822:0.02262 3823:0.09049 3824:0.02262 3825:0.02262 3828:0.02262 3829:0.02262 3830:0.02262 3835:0.02262 3836:0.02262 3838:0.02262 3839:0.06787 3840:0.02262 3842:0.02262 3845:0.02262 3846:0.02262 3847:0.02262 3848:0.06787 3851:0.04524 3856:0.06787 3867:0.02262 3883:0.02262 3888:0.02262 3890:0.02262 3892:0.02262 3893:0.02262 3895:0.02262 3896:0.04524 3901:0.04524 3904:0.04524 3905:0.02262 3908:0.02262 3910:0.04524 3912:0.02262 3913:0.02262 3916:0.02262 3919:0.04524 3924:0.04524 3927:0.06787 3936:0.04524 3938:0.02262 3947:0.04524 3951:0.02262 3960:0.02262 3964:0.06787 3969:0.04524 3978:0.04524 3983:0.02262 3988:0.02262 3990:0.02262 3992:0.04524 3998:0.02262 3999:0.02262 4005:0.02262 4006:0.02262 4008:0.02262 4010:0.02262 4012:0.02262 4014:0.02262 4020:0.04524 4021:0.02262 4028:0.04524 4031:0.04524 4035:0.02262 4045:0.02262 4046:0.06787 4048:0.02262 4049:0.04524 4050:0.06787 4051:0.02262 4052:0.02262 4053:0.02262 4056:0.02262 4063:0.06787 4065:0.02262 4068:0.02262 4070:0.04524 4072:0.04524 4074:0.02262 4077:0.02262 4078:0.02262 4084:0.02262 4085:0.06787 4086:0.02262 4089:0.02262 4090:0.02262 4092:0.02262 4094:0.06787 4095:0.02262 4096:0.02262 
1.158213157593392 1:0.09381 2:0.02345 3:0.07036 4:0.04691 5:0.04691 9:0.02345 10:0.02345 11:0.02345 12:0.04691 13:0.04691 14:0.02345 16:0.07036 17:0.02345 20:0.04691 29:0.04691 30:0.04691 32:0.02345 33:0.02345 39:0.02345 41:0.02345 46:0.02345 48:0.07036 49:0.02345 51:0.02345 52:0.02345 54:0.02345 56:0.04691 61:0.02345 63:0.04691 64:0.04691 65:0.02345 68:0.02345 71:0.02345 74:0.02345 77:0.02345 80:0.02345 101:0.02345 104:0.02345 107:0.02345 108:0.02345 113:0.09381 114:0.02345 117:0.04691 118:0.02345 128:0.07036 129:0.02345 130:0.02345 144:0.02345 145:0.02345 156:0.02345 161:0.02345 173:0.02345 177:0.02345 180:0.02345 183:0.02345 185:0.04691 187:0.02345 189:0.02345 190:0.02345 192:0.02345 195:0.02345 196:0.02345 199:0.02345 202:0.02345 207:0.02345 213:0.02345 217:0.02345 221:0.02345 222:0.02345 224:0.02345 229:0.02345 237:0.02345 239:0.02345 240:0.02345 241:0.02345 242:0.02345 243:0.04691 246:0.02345 247:0.02345 249:0.02345 250:0.02345 252:0.07036 253:0.02345 254:0.02345 256:0.07036 259:0.02345 260:0.02345 261:0.02345 265:0.02345 268:0.02345 272:0.07036 273:0.04691 281:0.04691 296:0.02345 305:0.02345 308:0.04691 311:0.02345 317:0.02345 319:0.04691 325:0.02345 337:0.02345 345:0.02345 353:0.02345 356:0.04691 368:0.02345 383:0.02345 385:0.02345 391:0.02345 392:0.02345 393:0.02345 396:0.02345 397:0.02345 399:0.02345 401:0.04691 416:0.02345 418:0.02345 421:0.02345 422:0.04691 425:0.02345 430:0.02345 434:0.02345 442:0.02345 449:0.07036 450:0.04691 452:0.02345 454:0.02345 456:0.04691 465:0.02345 466:0.04691 469:0.07036 476:0.02345 478:0.02345 489:0.02345 505:0.04691 507:0.04691 508:0.02345 510:0.02345 511:0.02345 512:0.04691 513:0.02345 519:0.02345 530:0.02345 547:0.02345 557:0.02345 562:0.02345 569:0.02345 574:0.02345 576:0.04691 580:0.02345 586:0.02345 587:0.02345 597:0.02345 614:0.02345 617:0.02345 624:0.02345 625:0.02345 626:0.02345 627:0.02345 628:0.02345 629:0.02345 634:0.04691 636:0.02345 644:0.02345 655:0.02345 657:0.02345 659:0.02345 665:0.02345 666:0.02345 679:0.02345 682:0.02345 692:0.02345 708:0.02345 714:0.02345 716:0.04691 717:0.02345 722:0.04691 729:0.02345 730:0.02345 731:0.02345 732:0.02345 737:0.02345 738:0.04691 747:0.02345 753:0.02345 755:0.04691 757:0.02345 762:0.04691 765:0.04691 766:0.02345 767:0.04691 769:0.04691 775:0.02345 777:0.02345 783:0.02345 788:0.02345 791:0.02345 792:0.02345 793:0.04691 800:0.02345 806:0.02345 807:0.02345 808:0.02345 810:0.02345 811:0.02345 818:0.02345 819:0.02345 821:0.02345 822:0.02345 823:0.02345 828:0.04691 832:0.02345 835:0.02345 851:0.02345 854:0.02345 862:0.02345 865:0.04691 866:0.07036 867:0.02345 868:0.04691 869:0.02345 876:0.04691 877:0.02345 878:0.02345 881:0.02345 883:0.02345 885:0.02345 887:0.02345 893:0.02345 902:0.02345 906:0.02345 914:0.02345 917:0.02345 923:0.02345 934:0.02345 946:0.02345 948:0.02345 953:0.02345 954:0.02345 955:0.02345 960:0.04691 961:0.02345 968:0.02345 969:0.04691 970:0.02345 972:0.02345 976:0.02345 983:0.02345 984:0.02345 985:0.02345 987:0.02345 993:0.02345 995:0.02345 997:0.02345 998:0.02345 1000:0.02345 1007:0.04691 1008:0.02345 1009:0.04691 1013:0.02345 1017:0.02345 1020:0.02345 1022:0.02345 1023:0.07036 1024:0.04691 1027:0.02345 1028:0.07036 1032:0.04691 1036:0.02345 1038:0.04691 1041:0.02345 1043:0.02345 1050:0.02345 1053:0.02345 1054:0.02345 1057:0.02345 1068:0.02345 1069:0.04691 1071:0.07036 1074:0.02345 1084:0.04691 1085:0.04691 1086:0.02345 1088:0.04691 1089:0.02345 1090:0.02345 1091:0.02345 1092:0.04691 1095:0.02345 1101:0.02345 1102:0.02345 1104:0.02345 1106:0.02345 1109:0.02345 1111:0.02345 1121:0.02345 1122:0.02345 1125:0.02345 1130:0.04691 1133:0.02345 1137:0.02345 1151:0.07036 1181:0.02345 1183:0.04691 1189:0.02345 1191:0.02345 1203:0.02345 1218:0.02345 1230:0.02345 1232:0.02345 1240:0.02345 1243:0.04691 1244:0.02345 1246:0.02345 1267:0.02345 1268:0.02345 1273:0.02345 1274:0.02345 1281:0.02345 1282:0.02345 1287:0.02345 1291:0.02345 1292:0.04691 1297:0.04691 1298:0.02345 1300:0.02345 1301:0.02345 1302:0.02345 1307:0.02345 1312:0.02345 1325:0.02345 1335:0.02345 1345:0.02345 1349:0.02345 1350:0.02345 1351:0.02345 1352:0.02345 1362:0.02345 1365:0.02345 1374:0.02345 1378:0.02345 1382:0.02345 1392:0.02345 1396:0.02345 1399:0.02345 1410:0.02345 1412:0.02345 1416:0.02345 1423:0.04691 1428:0.02345 1429:0.02345 1430:0.02345 1438:0.02345 1462:0.02345 1463:0.02345 1465:0.02345 1467:0.02345 1469:0.02345 1470:0.02345 1486:0.04691 1489:0.02345 1494:0.02345 1498:0.02345 1510:0.02345 1512:0.02345 1531:0.02345 1536:0.02345 1538:0.02345 1539:0.02345 1543:0.02345 1550:0.02345 1552:0.02345 1553:0.02345 1561:0.02345 1563:0.02345 1565:0.02345 1566:0.04691 1568:0.02345 1571:0.02345 1572:0.02345 1579:0.02345 1582:0.02345 1585:0.04691 1586:0.07036 1587:0.07036 1588:0.02345 1594:0.02345 1595:0.02345 1596:0.02345 1598:0.02345 1601:0.02345 1602:0.02345 1607:0.02345 1614:0.02345 1617:0.02345 1621:0.02345 1624:0.02345 1630:0.02345 1631:0.02345 1652:0.02345 1654:0.02345 1664:0.02345 1666:0.02345 1668:0.02345 1671:0.02345 1674:0.02345 1682:0.02345 1685:0.02345 1687:0.04691 1699:0.04691 1711:0.02345 1714:0.02345 1715:0.02345 1716:0.02345 1717:0.02345 1733:0.02345 1734:0.02345 1742:0.02345 1744:0.02345 1746:0.02345 1751:0.02345 1753:0.02345 1756:0.02345 1762:0.02345 1766:0.02345 1767:0.02345 1771:0.02345 1775:0.02345 1776:0.02345 1780:0.02345 1783:0.02345 1784:0.02345 1787:0.02345 1793:0.04691 1794:0.04691 1800:0.04691 1805:0.02345 1807:0.02345 1808:0.04691 1815:0.02345 1821:0.02345 1822:0.04691 1823:0.02345 1828:0.02345 1832:0.02345 1844:0.02345 1847:0.07036 1856:0.02345 1857:0.02345 1859:0.02345 1860:0.02345 1861:0.02345 1862:0.02345 1870:0.02345 1874:0.07036 1879:0.04691 1882:0.02345 1892:0.02345 1894:0.02345 1901:0.02345 1902:0.02345 1911:0.02345 1912:0.02345 1937:0.02345 1944:0.02345 1949:0.02345 1950:0.02345 1956:0.02345 1983:0.02345 1985:0.02345 2000:0.02345 2019:0.02345 2020:0.02345 2026:0.07036 2030:0.02345 2031:0.02345 2039:0.02345 2044:0.02345 2046:0.02345 2047:0.02345 2048:0.07036 2049:0.04691 2050:0.02345 2051:0.02345 2052:0.02345 2056:0.02345 2060:0.02345 2064:0.02345 2066:0.02345 2074:0.02345 2075:0.02345 2080:0.02345 2103:0.02345 2104:0.02345 2109:0.02345 2111:0.02345 2115:0.02345 2117:0.04691 2140:0.02345 2147:0.02345 2148:0.02345 2153:0.02345 2154:0.02345 2161:0.02345 2162:0.02345 2165:0.02345 2166:0.02345 2167:0.02345 2176:0.02345 2185:0.02345 2188:0.02345 2191:0.02345 2192:0.02345 2195:0.02345 2203:0.02345 2205:0.02345 2212:0.02345 2215:0.02345 2219:0.02345 2227:0.04691 2229:0.02345 2231:0.04691 2239:0.02345 2240:0.04691 2241:0.04691 2245:0.02345 2246:0.04691 2247:0.02345 2250:0.02345 2251:0.04691 2253:0.04691 2255:0.02345 2275:0.02345 2278:0.02345 2279:0.02345 2282:0.02345 2287:0.02345 2294:0.02345 2295:0.02345 2303:0.04691 2304:0.02345 2305:0.02345 2309:0.02345 2312:0.04691 2317:0.02345 2319:0.02345 2320:0.02345 2324:0.02345 2330:0.02345 2332:0.02345 2344:0.04691 2346:0.04691 2358:0.02345 2359:0.02345 2365:0.02345 2369:0.02345 2370:0.02345 2371:0.07036 2382:0.02345 2386:0.04691 2392:0.02345 2397:0.02345 2401:0.02345 2414:0.02345 2415:0.04691 2420:0.02345 2422:0.02345 2426:0.04691 2440:0.02345 2443:0.02345 2445:0.02345 2456:0.02345 2461:0.02345 2465:0.04691 2467:0.02345 2473:0.02345 2490:0.02345 2494:0.02345 2495:0.02345 2497:0.02345 2500:0.02345 2504:0.02345 2505:0.02345 2509:0.02345 2510:0.02345 2512:0.02345 2516:0.02345 2518:0.02345 2519:0.02345 2533:0.02345 2536:0.02345 2544:0.02345 2545:0.02345 2560:0.02345 2561:0.02345 2565:0.02345 2574:0.02345 2576:0.02345 2587:0.02345 2597:0.02345 2599:0.02345 2602:0.02345 2605:0.02345 2606:0.02345 2608:0.02345 2612:0.02345 2618:0.02345 2624:0.02345 2626:0.04691 2628:0.02345 2631:0.02345 2635:0.02345 2638:0.02345 2641:0.04691 2644:0.02345 2649:0.02345 2652:0.04691 2658:0.02345 2659:0.02345 2664:0.02345 2665:0.02345 2667:0.02345 2676:0.02345 2689:0.02345 2698:0.02345 2699:0.02345 2701:0.02345 2705:0.02345 2713:0.02345 2715:0.02345 2717:0.02345 2724:0.02345 2725:0.02345 2729:0.02345 2745:0.02345 2747:0.02345 2759:0.02345 2764:0.02345 2766:0.04691 2772:0.02345 2787:0.02345 2793:0.02345 2795:0.02345 2832:0.02345 2836:0.02345 2839:0.02345 2841:0.02345 2844:0.02345 2856:0.02345 2861:0.02345 2862:0.02345 2864:0.02345 2868:0.02345 2871:0.07036 2872:0.02345 2879:0.02345 2885:0.02345 2887:0.02345 2888:0.04691 2908:0.02345 2916:0.07036 2918:0.02345 2923:0.02345 2925:0.02345 2927:0.02345 2929:0.02345 2945:0.02345 2949:0.02345 2951:0.02345 2952:0.04691 2956:0.04691 2964:0.02345 2967:0.02345 2969:0.02345 2979:0.07036 2985:0.02345 2986:0.04691 2987:0.02345 2991:0.02345 2997:0.02345 3000:0.02345 3003:0.02345 3006:0.02345 3009:0.02345 3020:0.04691 3023:0.02345 3025:0.02345 3031:0.02345 3035:0.02345 3040:0.02345 3046:0.04691 3047:0.02345 3050:0.02345 3055:0.02345 3057:0.02345 3059:0.04691 3063:0.02345 3065:0.02345 3067:0.02345 3070:0.02345 3072:0.02345 3073:0.09381 3077:0.02345 3080:0.04691 3085:0.02345 3088:0.02345 3099:0.02345 3101:0.04691 3104:0.02345 3108:0.02345 3109:0.02345 3121:0.02345 3130:0.02345 3132:0.02345 3134:0.02345 3135:0.04691 3136:0.02345 3149:0.02345 3152:0.02345 3161:0.07036 3168:0.02345 3170:0.02345 3171:0.02345 3172:0.02345 3183:0.02345 3186:0.02345 3190:0.02345 3192:0.02345 3195:0.02345 3199:0.04691 3205:0.02345 3213:0.02345 3216:0.02345 3219:0.02345 3222:0.02345 3226:0.02345 3229:0.04691 3230:0.02345 3231:0.02345 3237:0.02345 3242:0.02345 3251:0.02345 3253:0.02345 3255:0.02345 3257:0.02345 3261:0.04691 3263:0.02345 3264:0.04691 3272:0.02345 3274:0.02345 3278:0.04691 3281:0.02345 3286:0.02345 3289:0.16417 3290:0.02345 3292:0.02345 3293:0.02345 3309:0.02345 3311:0.02345 3312:0.02345 3315:0.02345 3322:0.02345 3325:0.02345 3328:0.04691 3329:0.04691 3330:0.02345 3332:0.02345 3340:0.04691 3343:0.02345 3344:0.02345 3345:0.02345 3348:0.02345 3350:0.02345 3355:0.02345 3357:0.02345 3360:0.04691 3384:0.02345 3397:0.04691 3398:0.02345 3404:0.02345 3410:0.02345 3414:0.02345 3418:0.02345 3420:0.02345 3429:0.02345 3430:0.02345 3432:0.02345 3438:0.02345 3445:0.02345 3456:0.02345 3457:0.02345 3460:0.02345 3461:0.02345 3463:0.02345 3464:0.02345 3465:0.02345 3469:0.16417 3472:0.02345 3474:0.02345 3478:0.02345 3480:0.02345 3494:0.02345 3500:0.02345 3501:0.07036 3506:0.02345 3508:0.04691 3509:0.02345 3511:0.02345 3516:0.04691 3524:0.04691 3530:0.02345 3537:0.02345 3545:0.02345 3548:0.02345 3550:0.02345 3572:0.02345 3580:0.02345 3584:0.02345 3585:0.07036 3588:0.02345 3592:0.02345 3602:0.02345 3607:0.02345 3609:0.02345 3613:0.02345 3614:0.02345 3620:0.02345 3624:0.02345 3625:0.02345 3630:0.02345 3632:0.04691 3636:0.02345 3652:0.02345 3653:0.02345 3658:0.02345 3664:0.02345 3665:0.04691 3670:0.02345 3676:0.02345 3677:0.02345 3679:0.02345 3684:0.02345 3689:0.02345 3695:0.02345 3696:0.02345 3697:0.02345 3702:0.02345 3709:0.02345 3724:0.07036 3728:0.02345 3729:0.02345 3732:0.02345 3733:0.04691 3735:0.02345 3739:0.02345 3745:0.02345 3751:0.02345 3752:0.02345 3755:0.02345 3759:0.02345 3771:0.02345 3783:0.02345 3790:0.02345 3794:0.02345 3801:0.02345 3805:0.02345 3810:0.02345 3811:0.02345 3813:0.02345 3817:0.04691 3819:0.02345 3820:0.02345 3822:0.04691 3830:0.02345 3834:0.02345 3836:0.02345 3837:0.02345 3840:0.04691 3842:0.02345 3844:0.04691 3848:0.02345 3850:0.02345 3856:0.02345 3872:0.02345 3874:0.02345 3876:0.02345 3877:0.02345 3880:0.02345 3886:0.02345 3887:0.02345 3888:0.09381 3895:0.04691 3900:0.02345 3901:0.02345 3904:0.02345 3905:0.07036 3908:0.02345 3912:0.02345 3925:0.02345 3930:0.04691 3936:0.02345 3940:0.04691 3946:0.02345 3948:0.02345 3951:0.02345 3967:0.02345 3968:0.02345 3969:0.07036 3970:0.02345 3977:0.02345 3979:0.02345 3980:0.02345 3981:0.02345 3987:0.02345 3989:0.02345 3990:0.02345 3992:0.02345 3996:0.04691 4000:0.02345 4005:0.04691 4006:0.04691 4007:0.02345 4012:0.02345 4023:0.02345 4025:0.02345 4027:0.04691 4028:0.04691 4031:0.02345 4032:0.02345 4034:0.02345 4035:0.02345 4036:0.02345 4042:0.02345 4044:0.07036 4046:0.04691 4049:0.07036 4050:0.02345 4054:0.02345 4057:0.02345 4060:0.02345 4064:0.02345 4065:0.07036 4067:0.02345 4071:0.02345 4074:0.02345 4075:0.02345 4079:0.02345 4080:0.02345 4083:0.04691 4084:0.04691 4085:0.07036 4086:0.02345 4088:0.02345 4089:0.04691 4090:0.02345 4091:0.02345 4093:0.09381 4094:0.04691 4096:0.09381 
1.03600860514354 1:0.12866 2:0.05848 3:0.03509 4:0.10526 5:0.0117 6:0.0117 7:0.02339 8:0.03509 10:0.0117 11:0.0117 12:0.05848 13:0.05848 14:0.07018 15:0.07018 16:0.02339 17:0.02339 18:0.02339 19:0.02339 20:0.0117 21:0.0117 22:0.0117 23:0.0117 25:0.0117 26:0.02339 27:0.0117 29:0.0117 30:0.02339 31:0.02339 32:0.0117 33:0.03509 34:0.02339 37:0.02339 38:0.0117 40:0.0117 41:0.0117 42:0.02339 43:0.0117 44:0.0117 46:0.05848 47:0.02339 48:0.0117 49:0.05848 50:0.0117 51:0.03509 52:0.05848 53:0.07018 55:0.0117 56:0.02339 57:0.04678 58:0.0117 59:0.03509 60:0.04678 61:0.02339 62:0.02339 65:0.02339 66:0.02339 67:0.0117 68:0.02339 69:0.07018 71:0.02339 74:0.03509 76:0.0117 78:0.0117 80:0.02339 81:0.02339 86:0.0117 91:0.0117 94:0.0117 95:0.0117 97:0.0117 98:0.02339 99:0.0117 100:0.0117 101:0.0117 102:0.02339 105:0.0117 107:0.0117 114:0.0117 116:0.0117 118:0.02339 120:0.0117 121:0.02339 124:0.02339 125:0.03509 126:0.02339 127:0.0117 128:0.0117 129:0.0117 130:0.02339 131:0.04678 132:0.0117 133:0.0117 134:0.02339 135:0.0117 136:0.0117 145:0.0117 147:0.0117 148:0.0117 149:0.0117 153:0.0117 155:0.0117 161:0.02339 162:0.0117 164:0.0117 165:0.0117 166:0.0117 172:0.02339 174:0.0117 177:0.02339 178:0.02339 179:0.0117 181:0.09357 183:0.02339 185:0.02339 187:0.0117 188:0.0117 189:0.02339 190:0.03509 191:0.0117 192:0.0117 193:0.08187 196:0.03509 198:0.0117 201:0.0117 203:0.0117 204:0.02339 205:0.0117 206:0.0117 207:0.02339 208:0.07018 209:0.03509 210:0.02339 211:0.0117 212:0.0117 216:0.0117 217:0.02339 221:0.0117 222:0.0117 223:0.02339 225:0.03509 226:0.03509 227:0.0117 228:0.0117 229:0.0117 231:0.0117 232:0.0117 233:0.02339 234:0.02339 236:0.0117 237:0.0117 238:0.03509 240:0.02339 241:0.0117 242:0.02339 243:0.0117 244:0.02339 245:0.02339 246:0.0117 248:0.0117 250:0.0117 251:0.0117 252:0.02339 253:0.0117 255:0.0117 256:0.02339 257:0.04678 258:0.0117 259:0.0117 260:0.0117 261:0.05848 263:0.0117 264:0.0117 265:0.0117 268:0.0117 269:0.02339 271:0.02339 272:0.02339 273:0.04678 275:0.0117 276:0.03509 281:0.02339 288:0.0117 292:0.02339 293:0.0117 295:0.02339 298:0.03509 302:0.0117 304:0.02339 307:0.0117 308:0.0117 309:0.0117 313:0.03509 314:0.0117 315:0.0117 316:0.02339 317:0.0117 319:0.0117 320:0.04678 321:0.02339 322:0.0117 323:0.03509 324:0.0117 333:0.02339 336:0.0117 339:0.02339 344:0.0117 347:0.0117 352:0.02339 360:0.0117 363:0.0117 375:0.0117 376:0.0117 377:0.0117 378:0.0117 379:0.0117 384:0.0117 385:0.02339 388:0.0117 389:0.0117 392:0.0117 393:0.02339 399:0.02339 401:0.0117 405:0.0117 406:0.0117 407:0.0117 410:0.0117 414:0.0117 417:0.0117 421:0.0117 424:0.0117 426:0.0117 449:0.0117 451:0.02339 452:0.02339 456:0.0117 457:0.0117 461:0.02339 464:0.02339 469:0.0117 471:0.02339 472:0.0117 475:0.0117 478:0.03509 481:0.04678 482:0.0117 490:0.02339 491:0.02339 493:0.0117 494:0.0117 496:0.0117 497:0.02339 498:0.0117 499:0.0117 500:0.0117 501:0.0117 502:0.03509 503:0.03509 504:0.02339 506:0.0117 507:0.02339 508:0.0117 509:0.0117 511:0.02339 512:0.05848 516:0.02339 517:0.0117 518:0.0117 521:0.02339 522:0.0117 524:0.02339 525:0.02339 528:0.0117 529:0.0117 530:0.02339 532:0.02339 534:0.0117 536:0.0117 538:0.0117 541:0.0117 547:0.0117 548:0.02339 549:0.02339 551:0.0117 555:0.0117 556:0.0117 558:0.02339 560:0.0117 561:0.02339 564:0.0117 566:0.02339 570:0.0117 574:0.0117 575:0.0117 576:0.02339 577:0.0117 578:0.0117 579:0.0117 580:0.02339 581:0.0117 582:0.0117 585:0.02339 587:0.03509 592:0.0117 593:0.0117 594:0.0117 595:0.0117 597:0.0117 600:0.0117 604:0.0117 607:0.0117 609:0.0117 610:0.0117 612:0.0117 613:0.0117 617:0.0117 618:0.0117 620:0.0117 621:0.0117 640:0.0117 641:0.0117 642:0.02339 643:0.03509 644:0.02339 646:0.02339 651:0.0117 652:0.0117 654:0.0117 656:0.0117 657:0.02339 661:0.02339 663:0.03509 666:0.02339 669:0.0117 677:0.0117 680:0.0117 684:0.0117 686:0.0117 687:0.0117 693:0.0117 694:0.02339 696:0.0117 701:0.02339 705:0.0117 706:0.03509 707:0.0117 709:0.0117 710:0.03509 711:0.0117 714:0.02339 715:0.0117 716:0.0117 721:0.0117 722:0.02339 723:0.02339 724:0.07018 729:0.0117 730:0.03509 731:0.0117 732:0.0117 736:0.0117 738:0.0117 740:0.0117 742:0.0117 743:0.0117 745:0.02339 746:0.0117 747:0.0117 749:0.0117 754:0.0117 755:0.0117 756:0.0117 757:0.0117 758:0.02339 759:0.02339 763:0.0117 764:0.0117 765:0.0117 767:0.02339 768:0.03509 769:0.10526 770:0.03509 771:0.02339 772:0.04678 773:0.0117 776:0.0117 777:0.0117 780:0.0117 781:0.0117 784:0.02339 789:0.0117 802:0.02339 804:0.0117 805:0.02339 809:0.0117 810:0.0117 813:0.02339 815:0.0117 816:0.0117 817:0.02339 819:0.0117 820:0.02339 821:0.02339 822:0.0117 824:0.0117 826:0.02339 827:0.02339 828:0.0117 829:0.02339 830:0.02339 831:0.0117 832:0.05848 833:0.03509 837:0.0117 840:0.0117 842:0.0117 845:0.02339 846:0.0117 847:0.02339 848:0.0117 852:0.03509 853:0.02339 859:0.0117 862:0.0117 864:0.0117 865:0.02339 869:0.0117 872:0.0117 879:0.0117 880:0.0117 881:0.0117 882:0.0117 884:0.0117 886:0.0117 887:0.0117 888:0.02339 890:0.0117 892:0.02339 897:0.03509 899:0.0117 901:0.02339 904:0.07018 906:0.0117 909:0.02339 911:0.03509 912:0.0117 913:0.0117 914:0.02339 917:0.03509 921:0.02339 922:0.0117 923:0.0117 928:0.0117 929:0.0117 932:0.03509 933:0.02339 934:0.05848 935:0.0117 937:0.0117 938:0.0117 939:0.0117 941:0.0117 942:0.0117 943:0.0117 947:0.0117 949:0.02339 950:0.0117 951:0.02339 952:0.02339 954:0.0117 955:0.0117 956:0.03509 957:0.0117 958:0.0117 960:0.0117 962:0.0117 963:0.0117 965:0.02339 966:0.0117 969:0.0117 970:0.0117 972:0.02339 976:0.03509 977:0.0117 978:0.0117 982:0.0117 984:0.02339 985:0.0117 987:0.02339 988:0.0117 989:0.0117 990:0.0117 992:0.0117 993:0.0117 997:0.0117 998:0.03509 1000:0.02339 1002:0.0117 1003:0.0117 1004:0.0117 1005:0.0117 1006:0.02339 1007:0.0117 1008:0.02339 1009:0.0117 1012:0.04678 1013:0.04678 1014:0.0117 1016:0.02339 1017:0.03509 1018:0.04678 1020:0.0117 1021:0.05848 1022:0.02339 1023:0.02339 1024:0.10526 1025:0.07018 1027:0.02339 1028:0.02339 1029:0.02339 1031:0.0117 1032:0.02339 1033:0.0117 1035:0.0117 1036:0.02339 1037:0.03509 1039:0.04678 1040:0.0117 1041:0.03509 1042:0.05848 1043:0.0117 1049:0.02339 1050:0.0117 1051:0.0117 1055:0.0117 1056:0.0117 1057:0.03509 1063:0.0117 1065:0.02339 1067:0.0117 1069:0.02339 1070:0.0117 1072:0.0117 1073:0.03509 1076:0.0117 1080:0.0117 1081:0.03509 1082:0.0117 1083:0.02339 1084:0.0117 1085:0.02339 1087:0.02339 1089:0.02339 1090:0.03509 1092:0.0117 1097:0.0117 1099:0.02339 1103:0.05848 1105:0.04678 1108:0.0117 1112:0.0117 1121:0.02339 1123:0.0117 1124:0.0117 1130:0.02339 1137:0.0117 1140:0.0117 1142:0.0117 1143:0.0117 1147:0.0117 1149:0.0117 1150:0.0117 1152:0.02339 1153:0.0117 1155:0.0117 1157:0.0117 1161:0.0117 1163:0.0117 1165:0.0117 1168:0.02339 1169:0.02339 1170:0.0117 1173:0.0117 1177:0.02339 1178:0.0117 1179:0.0117 1185:0.03509 1186:0.0117 1187:0.0117 1190:0.04678 1191:0.0117 1192:0.0117 1195:0.0117 1198:0.02339 1200:0.0117 1201:0.0117 1202:0.03509 1203:0.0117 1205:0.0117 1207:0.0117 1210:0.0117 1214:0.0117 1215:0.0117 1216:0.02339 1217:0.09357 1219:0.0117 1225:0.02339 1226:0.0117 1227:0.0117 1229:0.0117 1231:0.02339 1232:0.02339 1236:0.03509 1237:0.02339 1238:0.02339 1242:0.02339 1244:0.02339 1246:0.0117 1249:0.0117 1252:0.02339 1253:0.0117 1258:0.0117 1262:0.02339 1263:0.05848 1265:0.0117 1267:0.0117 1271:0.0117 1274:0.04678 1275:0.0117 1276:0.02339 1278:0.02339 1279:0.04678 1280:0.07018 1281:0.05848 1282:0.0117 1283:0.02339 1287:0.0117 1288:0.0117 1291:0.03509 1292:0.02339 1293:0.0117 1295:0.0117 1296:0.0117 1299:0.0117 1300:0.0117 1301:0.0117 1302:0.0117 1305:0.02339 1307:0.0117 1309:0.02339 1310:0.0117 1312:0.0117 1317:0.0117 1322:0.0117 1323:0.0117 1324:0.0117 1325:0.02339 1326:0.0117 1327:0.0117 1329:0.04678 1331:0.02339 1332:0.02339 1334:0.03509 1335:0.0117 1340:0.0117 1343:0.02339 1344:0.03509 1345:0.02339 1347:0.0117 1348:0.0117 1350:0.0117 1351:0.0117 1352:0.0117 1354:0.0117 1356:0.02339 1357:0.02339 1358:0.0117 1364:0.0117 1367:0.0117 1371:0.0117 1375:0.0117 1387:0.02339 1388:0.0117 1392:0.0117 1398:0.0117 1400:0.0117 1403:0.0117 1407:0.0117 1408:0.0117 1409:0.0117 1412:0.02339 1416:0.0117 1417:0.0117 1418:0.0117 1419:0.0117 1420:0.0117 1428:0.0117 1430:0.0117 1438:0.0117 1439:0.0117 1440:0.0117 1443:0.02339 1444:0.0117 1445:0.0117 1449:0.0117 1451:0.0117 1452:0.0117 1456:0.0117 1466:0.0117 1467:0.0117 1471:0.0117 1472:0.0117 1474:0.0117 1480:0.0117 1487:0.0117 1488:0.0117 1495:0.02339 1496:0.0117 1497:0.0117 1499:0.0117 1502:0.0117 1503:0.0117 1507:0.0117 1509:0.02339 1510:0.02339 1511:0.0117 1512:0.03509 1514:0.03509 1518:0.0117 1519:0.02339 1525:0.0117 1531:0.03509 1533:0.0117 1534:0.02339 1535:0.0117 1536:0.0117 1537:0.02339 1538:0.0117 1539:0.0117 1544:0.02339 1548:0.03509 1549:0.02339 1550:0.0117 1551:0.0117 1553:0.02339 1556:0.02339 1565:0.0117 1566:0.02339 1567:0.0117 1568:0.02339 1569:0.0117 1571:0.04678 1572:0.0117 1573:0.0117 1574:0.0117 1575:0.0117 1577:0.0117 1580:0.0117 1583:0.0117 1593:0.0117 1594:0.02339 1595:0.0117 1598:0.0117 1600:0.0117 1601:0.0117 1602:0.0117 1608:0.0117 1609:0.0117 1610:0.0117 1611:0.0117 1614:0.03509 1616:0.0117 1620:0.0117 1621:0.02339 1625:0.02339 1626:0.0117 1629:0.0117 1631:0.0117 1633:0.0117 1634:0.02339 1635:0.02339 1639:0.02339 1646:0.0117 1655:0.0117 1656:0.0117 1657:0.0117 1658:0.0117 1660:0.02339 1662:0.0117 1663:0.0117 1665:0.04678 1673:0.0117 1675:0.02339 1676:0.02339 1678:0.0117 1681:0.0117 1682:0.0117 1685:0.0117 1688:0.03509 1689:0.02339 1692:0.0117 1693:0.0117 1699:0.0117 1702:0.0117 1707:0.0117 1710:0.0117 1713:0.0117 1728:0.0117 1729:0.0117 1736:0.0117 1760:0.0117 1765:0.0117 1769:0.0117 1770:0.0117 1771:0.0117 1776:0.02339 1778:0.0117 1782:0.0117 1785:0.0117 1786:0.0117 1787:0.0117 1788:0.0117 1790:0.0117 1791:0.0117 1792:0.02339 1793:0.04678 1800:0.0117 1801:0.0117 1804:0.0117 1805:0.0117 1806:0.0117 1807:0.0117 1808:0.0117 1809:0.0117 1812:0.0117 1821:0.02339 1823:0.0117 1824:0.0117 1825:0.0117 1838:0.0117 1841:0.02339 1844:0.0117 1849:0.0117 1851:0.02339 1852:0.0117 1854:0.0117 1856:0.03509 1867:0.0117 1872:0.0117 1874:0.02339 1879:0.0117 1881:0.0117 1882:0.02339 1883:0.02339 1885:0.0117 1887:0.0117 1889:0.0117 1890:0.02339 1893:0.0117 1895:0.02339 1897:0.0117 1898:0.03509 1903:0.0117 1904:0.0117 1905:0.0117 1906:0.0117 1909:0.0117 1910:0.0117 1911:0.04678 1912:0.0117 1913:0.0117 1914:0.0117 1921:0.03509 1922:0.0117 1925:0.0117 1926:0.0117 1928:0.02339 1929:0.0117 1936:0.0117 1937:0.03509 1938:0.0117 1941:0.0117 1942:0.0117 1945:0.0117 1946:0.0117 1949:0.0117 1950:0.03509 1952:0.0117 1957:0.0117 1958:0.03509 1960:0.0117 1961:0.0117 1964:0.02339 1969:0.02339 1973:0.02339 1977:0.0117 1979:0.0117 1980:0.0117 1982:0.0117 1983:0.0117 1984:0.02339 1985:0.02339 1988:0.0117 1992:0.0117 1996:0.02339 1998:0.0117 1999:0.0117 2001:0.0117 2004:0.0117 2005:0.0117 2008:0.03509 2009:0.0117 2010:0.02339 2015:0.0117 2016:0.04678 2017:0.0117 2018:0.0117 2021:0.0117 2024:0.0117 2026:0.0117 2027:0.0117 2028:0.03509 2029:0.0117 2032:0.0117 2033:0.0117 2034:0.0117 2036:0.02339 2037:0.04678 2038:0.02339 2039:0.0117 2041:0.0117 2043:0.02339 2044:0.0117 2045:0.0117 2046:0.0117 2047:0.02339 2048:0.03509 2049:0.03509 2051:0.0117 2052:0.02339 2053:0.02339 2054:0.02339 2055:0.0117 2057:0.03509 2058:0.02339 2059:0.02339 2061:0.02339 2062:0.03509 2063:0.02339 2066:0.0117 2067:0.0117 2068:0.0117 2069:0.0117 2073:0.0117 2078:0.0117 2079:0.0117 2080:0.03509 2081:0.0117 2082:0.02339 2087:0.0117 2089:0.0117 2093:0.02339 2094:0.04678 2095:0.0117 2096:0.02339 2097:0.02339 2099:0.0117 2100:0.02339 2103:0.0117 2104:0.0117 2106:0.0117 2110:0.02339 2112:0.02339 2114:0.02339 2116:0.02339 2117:0.02339 2123:0.0117 2124:0.0117 2125:0.02339 2127:0.02339 2128:0.03509 2132:0.0117 2135:0.0117 2136:0.0117 2142:0.0117 2143:0.02339 2144:0.0117 2151:0.0117 2161:0.02339 2163:0.0117 2166:0.0117 2168:0.02339 2171:0.0117 2172:0.0117 2174:0.04678 2175:0.0117 2176:0.05848 2180:0.0117 2181:0.0117 2185:0.02339 2186:0.0117 2187:0.0117 2188:0.03509 2190:0.02339 2191:0.0117 2192:0.0117 2193:0.0117 2195:0.03509 2197:0.0117 2203:0.0117 2204:0.0117 2209:0.02339 2212:0.0117 2218:0.02339 2222:0.0117 2224:0.0117 2229:0.0117 2231:0.02339 2234:0.0117 2235:0.0117 2238:0.0117 2240:0.02339 2241:0.0117 2243:0.0117 2253:0.03509 2256:0.0117 2263:0.0117 2264:0.0117 2270:0.02339 2274:0.0117 2276:0.0117 2278:0.02339 2279:0.03509 2281:0.02339 2282:0.0117 2283:0.0117 2288:0.0117 2290:0.0117 2291:0.0117 2294:0.0117 2295:0.0117 2297:0.0117 2302:0.03509 2304:0.07018 2305:0.0117 2306:0.02339 2308:0.04678 2309:0.0117 2311:0.0117 2314:0.0117 2316:0.0117 2317:0.0117 2319:0.04678 2320:0.0117 2321:0.0117 2324:0.0117 2325:0.02339 2331:0.0117 2334:0.0117 2335:0.0117 2337:0.02339 2338:0.0117 2339:0.0117 2340:0.0117 2343:0.0117 2345:0.05848 2346:0.02339 2348:0.0117 2356:0.02339 2357:0.0117 2358:0.0117 2359:0.02339 2360:0.0117 2364:0.0117 2366:0.0117 2367:0.0117 2368:0.0117 2369:0.03509 2370:0.0117 2371:0.0117 2372:0.0117 2375:0.0117 2376:0.0117 2379:0.03509 2380:0.02339 2381:0.04678 2382:0.0117 2383:0.0117 2384:0.02339 2385:0.02339 2386:0.02339 2388:0.0117 2396:0.0117 2398:0.02339 2401:0.02339 2402:0.0117 2403:0.03509 2408:0.0117 2409:0.0117 2415:0.02339 2418:0.0117 2420:0.0117 2426:0.02339 2427:0.0117 2428:0.03509 2432:0.02339 2433:0.0117 2434:0.0117 2435:0.02339 2437:0.02339 2440:0.03509 2441:0.02339 2442:0.0117 2447:0.02339 2449:0.0117 2451:0.0117 2452:0.0117 2456:0.02339 2457:0.0117 2460:0.0117 2463:0.0117 2465:0.0117 2467:0.02339 2471:0.0117 2477:0.0117 2481:0.0117 2482:0.0117 2488:0.0117 2495:0.0117 2496:0.02339 2497:0.02339 2500:0.0117 2504:0.02339 2509:0.0117 2511:0.0117 2516:0.0117 2521:0.0117 2522:0.0117 2523:0.0117 2525:0.02339 2526:0.0117 2530:0.02339 2532:0.0117 2535:0.0117 2539:0.0117 2544:0.03509 2545:0.0117 2552:0.0117 2554:0.0117 2557:0.0117 2558:0.02339 2560:0.0117 2561:0.03509 2562:0.04678 2563:0.02339 2564:0.0117 2565:0.0117 2567:0.0117 2568:0.02339 2569:0.0117 2572:0.03509 2573:0.0117 2574:0.0117 2576:0.0117 2580:0.0117 2581:0.0117 2584:0.02339 2594:0.0117 2595:0.0117 2596:0.0117 2601:0.02339 2603:0.0117 2606:0.0117 2607:0.0117 2608:0.02339 2612:0.0117 2616:0.02339 2618:0.0117 2619:0.03509 2621:0.0117 2625:0.03509 2628:0.03509 2632:0.0117 2635:0.02339 2637:0.0117 2638:0.02339 2641:0.02339 2643:0.03509 2644:0.05848 2645:0.02339 2647:0.0117 2649:0.04678 2655:0.04678 2656:0.0117 2657:0.0117 2658:0.0117 2661:0.02339 2665:0.0117 2669:0.0117 2672:0.02339 2673:0.02339 2674:0.02339 2679:0.0117 2681:0.0117 2688:0.0117 2689:0.03509 2690:0.0117 2692:0.0117 2697:0.0117 2703:0.02339 2707:0.0117 2709:0.03509 2715:0.0117 2716:0.0117 2717:0.02339 2721:0.02339 2729:0.0117 2736:0.0117 2738:0.02339 2741:0.0117 2744:0.0117 2747:0.0117 2752:0.0117 2756:0.0117 2760:0.03509 2768:0.0117 2770:0.0117 2771:0.0117 2773:0.0117 2776:0.02339 2784:0.02339 2785:0.0117 2786:0.0117 2789:0.0117 2792:0.0117 2793:0.0117 2795:0.0117 2801:0.0117 2802:0.0117 2808:0.0117 2814:0.02339 2816:0.0117 2817:0.02339 2819:0.0117 2821:0.0117 2822:0.0117 2823:0.0117 2824:0.0117 2828:0.0117 2830:0.0117 2832:0.02339 2833:0.02339 2834:0.0117 2837:0.0117 2838:0.02339 2842:0.0117 2847:0.03509 2848:0.02339 2851:0.0117 2852:0.0117 2854:0.02339 2858:0.0117 2864:0.0117 2880:0.0117 2882:0.02339 2883:0.0117 2885:0.0117 2886:0.0117 2888:0.0117 2889:0.0117 2890:0.02339 2892:0.0117 2893:0.04678 2894:0.0117 2896:0.03509 2897:0.0117 2898:0.0117 2911:0.0117 2912:0.0117 2915:0.02339 2917:0.0117 2918:0.0117 2919:0.02339 2920:0.0117 2922:0.0117 2928:0.02339 2932:0.02339 2934:0.0117 2938:0.0117 2941:0.0117 2942:0.02339 2944:0.02339 2948:0.0117 2950:0.0117 2952:0.02339 2960:0.02339 2963:0.0117 2964:0.02339 2967:0.0117 2969:0.0117 2973:0.0117 2975:0.0117 2977:0.03509 2978:0.0117 2979:0.02339 2981:0.0117 2984:0.0117 2985:0.0117 2986:0.02339 2994:0.0117 3000:0.02339 3006:0.0117 3007:0.05848 3008:0.02339 3009:0.0117 3012:0.0117 3013:0.0117 3016:0.03509 3019:0.0117 3021:0.02339 3025:0.0117 3027:0.0117 3029:0.0117 3030:0.0117 3032:0.02339 3033:0.0117 3034:0.0117 3040:0.02339 3041:0.02339 3042:0.02339 3047:0.0117 3048:0.0117 3050:0.0117 3052:0.0117 3054:0.02339 3055:0.03509 3056:0.02339 3060:0.03509 3062:0.04678 3063:0.0117 3065:0.0117 3066:0.02339 3067:0.0117 3068:0.0117 3069:0.02339 3072:0.05848 3073:0.09357 3074:0.02339 3075:0.0117 3076:0.05848 3077:0.02339 3080:0.0117 3081:0.0117 3082:0.0117 3083:0.0117 3084:0.0117 3085:0.04678 3088:0.0117 3089:0.02339 3092:0.0117 3096:0.02339 3097:0.0117 3101:0.0117 3104:0.02339 3105:0.0117 3106:0.0117 3109:0.0117 3117:0.0117 3119:0.0117 3120:0.03509 3124:0.02339 3125:0.0117 3126:0.0117 3129:0.0117 3132:0.0117 3133:0.02339 3135:0.02339 3136:0.02339 3137:0.03509 3139:0.0117 3140:0.0117 3144:0.0117 3145:0.0117 3148:0.0117 3152:0.0117 3153:0.0117 3156:0.0117 3157:0.02339 3162:0.0117 3174:0.0117 3176:0.0117 3185:0.02339 3188:0.02339 3193:0.03509 3195:0.02339 3197:0.0117 3198:0.02339 3199:0.02339 3204:0.0117 3205:0.02339 3210:0.02339 3213:0.02339 3216:0.0117 3217:0.0117 3218:0.0117 3219:0.0117 3222:0.02339 3223:0.0117 3224:0.0117 3233:0.0117 3235:0.0117 3237:0.0117 3239:0.0117 3249:0.02339 3251:0.02339 3253:0.0117 3255:0.0117 3256:0.0117 3259:0.02339 3261:0.0117 3264:0.0117 3265:0.02339 3266:0.02339 3274:0.0117 3276:0.02339 3278:0.03509 3279:0.0117 3280:0.0117 3284:0.02339 3285:0.0117 3293:0.02339 3295:0.0117 3298:0.04678 3300:0.02339 3301:0.0117 3302:0.0117 3306:0.04678 3307:0.02339 3308:0.02339 3310:0.02339 3315:0.0117 3316:0.0117 3318:0.0117 3319:0.02339 3320:0.02339 3322:0.0117 3323:0.0117 3324:0.02339 3325:0.04678 3326:0.02339 3327:0.03509 3328:0.05848 3330:0.0117 3331:0.0117 3332:0.03509 3333:0.03509 3335:0.0117 3337:0.02339 3342:0.0117 3345:0.0117 3347:0.0117 3349:0.02339 3360:0.02339 3363:0.0117 3365:0.0117 3366:0.0117 3367:0.0117 3372:0.0117 3373:0.03509 3376:0.02339 3377:0.05848 3379:0.0117 3381:0.0117 3383:0.0117 3388:0.03509 3389:0.0117 3391:0.03509 3392:0.04678 3393:0.0117 3397:0.02339 3398:0.0117 3399:0.0117 3400:0.02339 3406:0.02339 3408:0.02339 3409:0.02339 3410:0.0117 3411:0.0117 3412:0.0117 3413:0.0117 3414:0.0117 3419:0.0117 3425:0.0117 3427:0.0117 3429:0.0117 3430:0.0117 3432:0.0117 3433:0.02339 3434:0.0117 3440:0.0117 3441:0.0117 3444:0.0117 3446:0.02339 3447:0.0117 3450:0.05848 3454:0.0117 3455:0.02339 3456:0.0117 3458:0.0117 3459:0.0117 3460:0.0117 3461:0.0117 3464:0.0117 3465:0.0117 3466:0.0117 3467:0.0117 3472:0.02339 3474:0.0117 3475:0.0117 3476:0.02339 3479:0.02339 3481:0.04678 3482:0.0117 3487:0.02339 3488:0.0117 3489:0.02339 3491:0.0117 3494:0.04678 3495:0.02339 3515:0.02339 3516:0.02339 3517:0.0117 3518:0.0117 3519:0.02339 3520:0.0117 3521:0.0117 3524:0.0117 3525:0.02339 3532:0.0117 3535:0.02339 3536:0.0117 3539:0.0117 3541:0.0117 3542:0.0117 3543:0.0117 3545:0.0117 3546:0.02339 3547:0.0117 3548:0.02339 3550:0.02339 3551:0.0117 3554:0.0117 3557:0.02339 3559:0.0117 3560:0.02339 3565:0.0117 3567:0.0117 3571:0.0117 3572:0.0117 3574:0.0117 3576:0.02339 3577:0.02339 3580:0.0117 3581:0.0117 3582:0.03509 3583:0.0117 3585:0.0117 3587:0.04678 3588:0.04678 3589:0.0117 3592:0.0117 3595:0.0117 3596:0.0117 3600:0.02339 3601:0.0117 3603:0.02339 3604:0.02339 3606:0.0117 3608:0.0117 3613:0.0117 3614:0.0117 3615:0.0117 3616:0.09357 3619:0.0117 3621:0.0117 3636:0.02339 3641:0.0117 3642:0.0117 3644:0.0117 3645:0.0117 3648:0.07018 3649:0.02339 3651:0.0117 3652:0.0117 3653:0.0117 3654:0.0117 3655:0.0117 3657:0.02339 3659:0.02339 3661:0.0117 3663:0.0117 3664:0.0117 3665:0.03509 3666:0.0117 3667:0.0117 3668:0.02339 3672:0.0117 3675:0.0117 3676:0.0117 3677:0.0117 3680:0.0117 3681:0.0117 3682:0.0117 3683:0.0117 3684:0.0117 3686:0.02339 3688:0.0117 3689:0.0117 3696:0.0117 3697:0.0117 3700:0.02339 3701:0.0117 3703:0.0117 3704:0.02339 3705:0.0117 3707:0.0117 3708:0.0117 3709:0.0117 3712:0.02339 3713:0.02339 3714:0.0117 3715:0.0117 3717:0.0117 3718:0.0117 3721:0.0117 3724:0.0117 3725:0.0117 3727:0.02339 3729:0.03509 3731:0.0117 3732:0.03509 3733:0.04678 3734:0.03509 3735:0.0117 3736:0.02339 3740:0.0117 3742:0.0117 3743:0.0117 3744:0.0117 3745:0.03509 3748:0.02339 3750:0.02339 3751:0.02339 3752:0.0117 3753:0.0117 3757:0.02339 3762:0.0117 3764:0.0117 3766:0.0117 3769:0.02339 3770:0.02339 3771:0.0117 3774:0.0117 3776:0.0117 3777:0.0117 3778:0.0117 3780:0.02339 3781:0.02339 3784:0.0117 3785:0.02339 3793:0.02339 3795:0.0117 3796:0.02339 3797:0.0117 3801:0.0117 3802:0.02339 3804:0.0117 3805:0.02339 3806:0.0117 3807:0.0117 3808:0.0117 3810:0.0117 3812:0.0117 3813:0.0117 3816:0.0117 3817:0.02339 3822:0.02339 3824:0.07018 3825:0.0117 3826:0.0117 3828:0.0117 3829:0.0117 3830:0.0117 3832:0.0117 3833:0.03509 3834:0.0117 3836:0.05848 3837:0.02339 3838:0.02339 3839:0.02339 3840:0.0117 3841:0.0117 3843:0.0117 3844:0.0117 3845:0.0117 3846:0.0117 3850:0.0117 3852:0.02339 3855:0.0117 3856:0.0117 3857:0.02339 3859:0.02339 3863:0.0117 3866:0.0117 3869:0.02339 3871:0.0117 3872:0.02339 3875:0.0117 3876:0.0117 3877:0.0117 3878:0.02339 3881:0.0117 3885:0.02339 3886:0.02339 3887:0.0117 3891:0.02339 3892:0.02339 3896:0.02339 3897:0.05848 3899:0.04678 3902:0.02339 3903:0.03509 3904:0.05848 3905:0.02339 3906:0.02339 3907:0.0117 3908:0.0117 3910:0.0117 3916:0.04678 3919:0.0117 3920:0.03509 3922:0.03509 3924:0.0117 3925:0.03509 3926:0.02339 3929:0.02339 3930:0.0117 3932:0.0117 3933:0.0117 3934:0.02339 3935:0.03509 3936:0.02339 3939:0.0117 3940:0.02339 3941:0.0117 3942:0.0117 3943:0.0117 3944:0.0117 3945:0.0117 3946:0.02339 3951:0.02339 3952:0.0117 3955:0.0117 3959:0.0117 3962:0.02339 3965:0.0117 3966:0.0117 3967:0.03509 3968:0.03509 3969:0.03509 3970:0.0117 3971:0.0117 3972:0.0117 3973:0.02339 3976:0.0117 3984:0.03509 3987:0.03509 3988:0.0117 3989:0.03509 3991:0.0117 3992:0.02339 3994:0.0117 3996:0.0117 3997:0.0117 3998:0.0117 3999:0.02339 4000:0.0117 4002:0.0117 4005:0.03509 4006:0.02339 4008:0.0117 4009:0.02339 4010:0.02339 4013:0.0117 4015:0.04678 4016:0.02339 4017:0.02339 4018:0.02339 4019:0.0117 4021:0.0117 4023:0.02339 4024:0.0117 4025:0.0117 4026:0.0117 4028:0.04678 4029:0.02339 4031:0.03509 4032:0.02339 4034:0.0117 4035:0.02339 4037:0.0117 4039:0.0117 4040:0.0117 4041:0.0117 4042:0.02339 4044:0.0117 4045:0.02339 4046:0.0117 4047:0.09357 4048:0.08187 4049:0.03509 4051:0.03509 4052:0.03509 4053:0.02339 4054:0.03509 4055:0.04678 4056:0.0117 4058:0.0117 4059:0.0117 4060:0.02339 4063:0.0117 4064:0.0117 4065:0.02339 4068:0.03509 4069:0.02339 4070:0.03509 4071:0.0117 4072:0.0117 4073:0.0117 4074:0.03509 4075:0.02339 4076:0.02339 4077:0.03509 4079:0.02339 4080:0.02339 4081:0.0117 4082:0.02339 4083:0.04678 4084:0.10526 4085:0.0117 4086:0.03509 4087:0.02339 4090:0.0117 4091:0.05848 4092:0.04678 4093:0.09357 4094:0.03509 4095:0.07018 4096:0.12866 
