svm_type c_svc
kernel_type rbf
gamma 0.5
nr_class 2
total_sv 120
rho 0.431168
label 1 -1
nr_sv 49 71
SV
0.4783137187905842 1:0.1735 2:0.06506 3:0.04338 4:0.02169 5:0.04338 6:0.02169 7:0.02169 8:0.04338 9:0.06506 11:0.04338 14:0.02169 15:0.02169 17:0.06506 19:0.02169 20:0.02169 21:0.04338 23:0.02169 26:0.02169 31:0.02169 32:0.06506 33:0.06506 43:0.02169 44:0.02169 47:0.02169 48:0.02169 49:0.04338 50:0.04338 52:0.04338 53:0.02169 55:0.02169 56:0.02169 59:0.02169 60:0.06506 61:0.04338 62:0.02169 63:0.02169 65:0.04338 66:0.02169 67:0.02169 71:0.02169 73:0.02169 79:0.02169 80:0.06506 82:0.02169 84:0.02169 90:0.02169 92:0.02169 94:0.04338 101:0.04338 108:0.02169 117:0.02169 121:0.04338 123:0.02169 124:0.02169 125:0.02169 126:0.02169 127:0.02169 128:0.02169 129:0.06506 131:0.02169 132:0.02169 134:0.02169 141:0.02169 153:0.02169 156:0.02169 157:0.02169 165:0.02169 169:0.02169 173:0.02169 178:0.02169 180:0.04338 185:0.02169 186:0.02169 191:0.02169 192:0.06506 193:0.02169 196:0.06506 197:0.04338 199:0.02169 205:0.02169 207:0.02169 210:0.02169 211:0.02169 217:0.02169 219:0.04338 220:0.02169 221:0.02169 222:0.02169 230:0.02169 231:0.02169 233:0.02169 234:0.02169 237:0.02169 240:0.06506 241:0.10844 244:0.04338 245:0.04338 246:0.02169 247:0.02169 249:0.02169 251:0.04338 253:0.04338 255:0.04338 257:0.10844 260:0.06506 261:0.04338 264:0.02169 265:0.04338 268:0.02169 273:0.02169 275:0.02169 279:0.02169 281:0.04338 284:0.02169 289:0.04338 303:0.04338 304:0.02169 306:0.02169 315:0.02169 319:0.02169 320:0.06506 321:0.02169 322:0.02169 324:0.04338 325:0.02169 335:0.02169 340:0.02169 350:0.04338 351:0.02169 354:0.02169 358:0.02169 368:0.02169 373:0.04338 384:0.02169 385:0.02169 386:0.02169 400:0.02169 401:0.02169 403:0.02169 404:0.02169 406:0.02169 416:0.02169 417:0.02169 432:0.02169 437:0.02169 444:0.02169 465:0.02169 467:0.02169 481:0.02169 483:0.02169 490:0.02169 493:0.02169 494:0.02169 495:0.02169 500:0.02169 503:0.02169 504:0.02169 505:0.02169 506:0.04338 508:0.02169 510:0.04338 513:0.02169 514:0.04338 516:0.04338 522:0.02169 524:0.02169 527:0.02169 529:0.02169 530:0.02169 532:0.02169 533:0.02169 534:0.02169 546:0.02169 548:0.02169 555:0.02169 561:0.02169 562:0.02169 574:0.02169 576:0.02169 577:0.04338 579:0.02169 594:0.04338 601:0.02169 603:0.02169 609:0.02169 615:0.02169 622:0.02169 625:0.02169 638:0.02169 644:0.02169 658:0.02169 676:0.02169 679:0.02169 681:0.02169 685:0.04338 686:0.02169 689:0.02169 703:0.04338 709:0.02169 717:0.02169 718:0.02169 719:0.02169 737:0.04338 741:0.02169 743:0.02169 753:0.02169 759:0.02169 761:0.02169 763:0.02169 764:0.02169 766:0.04338 768:0.04338 769:0.04338 777:0.02169 779:0.02169 780:0.02169 781:0.04338 784:0.04338 785:0.04338 790:0.02169 793:0.02169 794:0.02169 798:0.02169 800:0.04338 817:0.02169 820:0.04338 827:0.02169 832:0.04338 835:0.02169 836:0.04338 837:0.02169 841:0.04338 845:0.02169 856:0.02169 865:0.04338 873:0.02169 874:0.02169 879:0.02169 888:0.02169 890:0.02169 893:0.02169 897:0.02169 901:0.02169 911:0.02169 919:0.02169 924:0.02169 931:0.02169 933:0.02169 940:0.02169 944:0.02169 945:0.02169 952:0.02169 958:0.04338 959:0.02169 960:0.02169 961:0.06506 962:0.02169 963:0.02169 965:0.04338 974:0.02169 976:0.06506 977:0.04338 984:0.02169 985:0.04338 986:0.02169 992:0.02169 993:0.04338 996:0.04338 999:0.04338 1004:0.04338 1009:0.04338 1011:0.02169 1013:0.02169 1015:0.04338 1016:0.04338 1017:0.02169 1018:0.04338 1019:0.02169 1020:0.06506 1023:0.02169 1024:0.02169 1025:0.04338 1027:0.04338 1028:0.02169 1030:0.02169 1037:0.04338 1038:0.02169 1039:0.04338 1040:0.04338 1041:0.02169 1044:0.02169 1048:0.04338 1050:0.02169 1051:0.02169 1055:0.04338 1056:0.02169 1057:0.04338 1069:0.04338 1071:0.02169 1072:0.02169 1077:0.02169 1079:0.04338 1083:0.02169 1084:0.02169 1085:0.02169 1086:0.02169 1088:0.02169 1089:0.06506 1091:0.02169 1094:0.02169 1097:0.02169 1100:0.02169 1105:0.04338 1113:0.02169 1121:0.02169 1124:0.02169 1129:0.02169 1134:0.02169 1148:0.04338 1151:0.02169 1152:0.02169 1153:0.04338 1155:0.02169 1157:0.04338 1161:0.04338 1163:0.02169 1165:0.02169 1169:0.06506 1178:0.02169 1196:0.02169 1209:0.02169 1210:0.02169 1213:0.02169 1215:0.04338 1216:0.02169 1217:0.02169 1224:0.02169 1232:0.02169 1236:0.02169 1238:0.02169 1260:0.02169 1264:0.02169 1271:0.02169 1272:0.02169 1273:0.02169 1274:0.02169 1278:0.02169 1279:0.04338 1280:0.02169 1284:0.02169 1288:0.02169 1296:0.04338 1297:0.02169 1298:0.02169 1301:0.02169 1315:0.02169 1328:0.02169 1332:0.02169 1340:0.02169 1343:0.02169 1344:0.02169 1353:0.02169 1357:0.02169 1374:0.02169 1394:0.02169 1398:0.02169 1399:0.02169 1400:0.02169 1402:0.02169 1408:0.02169 1409:0.04338 1414:0.02169 1419:0.02169 1424:0.04338 1431:0.02169 1443:0.02169 1448:0.02169 1465:0.02169 1471:0.02169 1479:0.02169 1489:0.04338 1494:0.04338 1499:0.02169 1503:0.02169 1509:0.02169 1524:0.02169 1536:0.04338 1537:0.06506 1539:0.02169 1540:0.04338 1544:0.02169 1548:0.02169 1550:0.02169 1551:0.02169 1552:0.02169 1554:0.02169 1557:0.02169 1562:0.02169 1574:0.02169 1579:0.02169 1589:0.02169 1597:0.02169 1599:0.04338 1600:0.02169 1604:0.04338 1608:0.02169 1610:0.02169 1616:0.02169 1624:0.02169 1625:0.02169 1634:0.02169 1640:0.02169 1658:0.02169 1662:0.04338 1665:0.02169 1667:0.02169 1673:0.02169 1684:0.02169 1685:0.02169 1691:0.02169 1693:0.02169 1694:0.02169 1724:0.02169 1726:0.02169 1728:0.02169 1739:0.02169 1742:0.02169 1744:0.02169 1746:0.02169 1753:0.02169 1761:0.02169 1774:0.04338 1776:0.02169 1785:0.04338 1792:0.02169 1796:0.02169 1797:0.02169 1814:0.02169 1818:0.02169 1858:0.06506 1868:0.02169 1876:0.02169 1877:0.02169 1878:0.02169 1883:0.02169 1890:0.02169 1898:0.02169 1913:0.02169 1914:0.02169 1915:0.02169 1921:0.02169 1923:0.02169 1932:0.02169 1934:0.02169 1936:0.02169 1937:0.02169 1938:0.02169 1939:0.08675 1941:0.02169 1948:0.02169 1958:0.02169 1961:0.02169 1970:0.02169 1973:0.02169 1977:0.02169 1980:0.02169 1984:0.02169 1988:0.02169 1997:0.02169 1998:0.04338 2002:0.02169 2003:0.02169 2007:0.02169 2009:0.02169 2015:0.02169 2016:0.02169 2020:0.02169 2021:0.02169 2024:0.02169 2029:0.02169 2031:0.02169 2032:0.02169 2037:0.02169 2039:0.02169 2046:0.02169 2047:0.04338 2048:0.04338 2049:0.04338 2050:0.04338 2051:0.02169 2053:0.04338 2056:0.04338 2060:0.04338 2061:0.06506 2062:0.02169 2063:0.02169 2068:0.04338 2071:0.02169 2078:0.02169 2082:0.02169 2087:0.04338 2088:0.02169 2093:0.02169 2096:0.02169 2104:0.02169 2106:0.04338 2110:0.04338 2111:0.02169 2112:0.02169 2114:0.04338 2117:0.02169 2119:0.04338 2124:0.02169 2125:0.02169 2129:0.04338 2136:0.02169 2152:0.02169 2159:0.02169 2181:0.02169 2182:0.02169 2192:0.02169 2197:0.02169 2199:0.02169 2209:0.02169 2219:0.02169 2220:0.04338 2224:0.04338 2228:0.02169 2238:0.02169 2243:0.04338 2244:0.02169 2247:0.02169 2248:0.02169 2259:0.02169 2265:0.02169 2273:0.02169 2274:0.02169 2290:0.02169 2295:0.02169 2297:0.04338 2298:0.02169 2302:0.02169 2303:0.02169 2304:0.02169 2308:0.04338 2316:0.04338 2318:0.02169 2319:0.02169 2325:0.02169 2335:0.02169 2336:0.02169 2337:0.02169 2338:0.02169 2339:0.02169 2340:0.02169 2341:0.04338 2343:0.02169 2347:0.02169 2366:0.04338 2373:0.02169 2374:0.02169 2380:0.02169 2384:0.02169 2397:0.02169 2401:0.04338 2403:0.02169 2404:0.02169 2409:0.02169 2429:0.02169 2436:0.02169 2437:0.02169 2449:0.02169 2450:0.02169 2457:0.02169 2463:0.02169 2480:0.02169 2483:0.02169 2484:0.02169 2487:0.02169 2495:0.02169 2496:0.02169 2497:0.02169 2498:0.02169 2502:0.02169 2517:0.02169 2521:0.02169 2529:0.02169 2533:0.04338 2535:0.02169 2549:0.02169 2550:0.02169 2552:0.02169 2562:0.02169 2570:0.02169 2576:0.02169 2594:0.02169 2598:0.02169 2601:0.02169 2603:0.02169 2617:0.02169 2630:0.02169 2633:0.02169 2640:0.02169 2643:0.02169 2649:0.02169 2668:0.02169 2669:0.02169 2673:0.02169 2674:0.02169 2678:0.02169 2679:0.02169 2699:0.04338 2703:0.02169 2716:0.02169 2723:0.02169 2738:0.02169 2739:0.02169 2740:0.02169 2744:0.02169 2753:0.02169 2757:0.02169 2762:0.02169 2765:0.02169 2779:0.02169 2782:0.02169 2784:0.02169 2790:0.02169 2794:0.02169 2799:0.02169 2805:0.02169 2809:0.04338 2813:0.02169 2815:0.02169 2816:0.02169 2817:0.02169 2818:0.02169 2829:0.02169 2830:0.02169 2833:0.02169 2835:0.02169 2838:0.02169 2848:0.02169 2854:0.02169 2859:0.02169 2866:0.04338 2869:0.02169 2872:0.02169 2876:0.02169 2877:0.02169 2880:0.04338 2881:0.02169 2882:0.02169 2885:0.02169 2894:0.02169 2915:0.02169 2919:0.02169 2924:0.02169 2934:0.02169 2936:0.02169 2937:0.02169 2938:0.02169 2942:0.02169 2945:0.04338 2946:0.02169 2947:0.02169 2951:0.02169 2960:0.02169 2963:0.02169 2968:0.02169 2970:0.02169 2984:0.04338 2992:0.02169 2993:0.02169 2997:0.02169 2999:0.02169 3000:0.02169 3003:0.02169 3005:0.02169 3012:0.02169 3018:0.02169 3025:0.04338 3026:0.02169 3036:0.02169 3041:0.02169 3042:0.02169 3043:0.06506 3052:0.02169 3054:0.04338 3056:0.02169 3057:0.02169 3058:0.02169 3061:0.02169 3062:0.02169 3064:0.04338 3065:0.02169 3069:0.02169 3070:0.04338 3072:0.06506 3073:0.04338 3074:0.02169 3077:0.02169 3078:0.02169 3085:0.02169 3088:0.04338 3090:0.02169 3103:0.02169 3108:0.02169 3114:0.02169 3120:0.02169 3121:0.04338 3122:0.02169 3127:0.02169 3133:0.08675 3135:0.02169 3136:0.04338 3137:0.06506 3139:0.02169 3141:0.02169 3148:0.02169 3152:0.02169 3157:0.02169 3160:0.04338 3168:0.02169 3169:0.02169 3173:0.02169 3174:0.02169 3189:0.02169 3198:0.02169 3199:0.04338 3216:0.02169 3221:0.02169 3223:0.02169 3232:0.02169 3242:0.02169 3267:0.02169 3270:0.02169 3272:0.02169 3277:0.04338 3280:0.02169 3281:0.06506 3295:0.02169 3296:0.02169 3300:0.02169 3307:0.02169 3310:0.02169 3314:0.02169 3316:0.04338 3325:0.02169 3326:0.06506 3327:0.04338 3330:0.02169 3332:0.02169 3334:0.04338 3335:0.04338 3336:0.02169 3340:0.02169 3342:0.04338 3343:0.02169 3344:0.02169 3345:0.04338 3347:0.02169 3355:0.02169 3359:0.02169 3360:0.02169 3362:0.02169 3363:0.02169 3365:0.02169 3376:0.04338 3377:0.02169 3381:0.02169 3382:0.02169 3408:0.02169 3411:0.02169 3416:0.02169 3424:0.02169 3428:0.02169 3434:0.02169 3439:0.02169 3446:0.02169 3457:0.06506 3459:0.02169 3460:0.04338 3463:0.02169 3466:0.02169 3470:0.02169 3472:0.02169 3482:0.02169 3488:0.02169 3489:0.02169 3493:0.02169 3494:0.02169 3495:0.02169 3496:0.02169 3503:0.02169 3508:0.02169 3516:0.04338 3543:0.02169 3551:0.04338 3556:0.04338 3557:0.06506 3558:0.02169 3563:0.02169 3567:0.02169 3568:0.02169 3569:0.02169 3572:0.02169 3573:0.02169 3580:0.04338 3584:0.06506 3585:0.02169 3586:0.02169 3587:0.02169 3588:0.02169 3589:0.04338 3590:0.02169 3593:0.02169 3594:0.02169 3600:0.04338 3601:0.02169 3602:0.02169 3603:0.02169 3612:0.02169 3628:0.04338 3629:0.02169 3632:0.02169 3633:0.04338 3634:0.02169 3639:0.02169 3641:0.02169 3647:0.02169 3648:0.02169 3651:0.02169 3656:0.02169 3657:0.06506 3658:0.04338 3659:0.02169 3668:0.02169 3673:0.02169 3680:0.02169 3685:0.04338 3693:0.02169 3696:0.04338 3705:0.02169 3706:0.04338 3722:0.02169 3731:0.02169 3735:0.02169 3741:0.02169 3742:0.02169 3747:0.02169 3757:0.02169 3767:0.02169 3768:0.02169 3770:0.02169 3771:0.02169 3776:0.04338 3777:0.02169 3780:0.04338 3782:0.02169 3784:0.02169 3792:0.04338 3793:0.04338 3796:0.02169 3802:0.02169 3806:0.02169 3807:0.04338 3809:0.02169 3810:0.02169 3812:0.02169 3818:0.02169 3820:0.02169 3821:0.02169 3822:0.02169 3827:0.02169 3829:0.04338 3836:0.04338 3837:0.02169 3838:0.04338 3840:0.04338 3842:0.02169 3844:0.04338 3848:0.02169 3849:0.02169 3856:0.10844 3857:0.02169 3858:0.02169 3860:0.02169 3864:0.02169 3878:0.02169 3880:0.02169 3892:0.02169 3893:0.04338 3896:0.02169 3897:0.02169 3901:0.04338 3904:0.04338 3905:0.02169 3906:0.02169 3908:0.04338 3909:0.02169 3911:0.02169 3912:0.04338 3914:0.02169 3916:0.02169 3918:0.02169 3929:0.02169 3932:0.02169 3934:0.02169 3937:0.08675 3940:0.04338 3944:0.02169 3946:0.04338 3949:0.02169 3951:0.02169 3962:0.02169 3964:0.04338 3967:0.04338 3968:0.06506 3970:0.04338 3972:0.04338 3973:0.04338 3979:0.04338 3980:0.02169 3981:0.06506 3987:0.02169 3994:0.02169 3996:0.02169 3999:0.06506 4014:0.04338 4015:0.04338 4017:0.02169 4018:0.02169 4020:0.04338 4021:0.02169 4024:0.02169 4025:0.04338 4027:0.02169 4028:0.02169 4031:0.02169 4032:0.06506 4036:0.06506 4037:0.02169 4038:0.02169 4042:0.02169 4047:0.02169 4048:0.02169 4050:0.04338 4051:0.02169 4052:0.02169 4055:0.02169 4057:0.06506 4059:0.04338 4060:0.02169 4063:0.04338 4064:0.06506 4065:0.02169 4066:0.02169 4072:0.04338 4076:0.02169 4077:0.06506 4079:0.06506 4080:0.04338 4082:0.02169 4084:0.04338 4085:0.02169 4087:0.06506 4088:0.02169 4092:0.10844 4093:0.04338 4094:0.04338 4095:0.04338 4096:0.1735 
1.352363155569374 1:0.02892 2:0.02892 4:0.02892 5:0.02892 8:0.02892 9:0.02892 14:0.02892 16:0.05783 17:0.05783 18:0.02892 20:0.02892 27:0.02892 30:0.02892 32:0.02892 33:0.02892 39:0.02892 47:0.02892 49:0.02892 50:0.02892 53:0.02892 57:0.02892 58:0.02892 61:0.02892 62:0.05783 63:0.02892 64:0.11566 65:0.08675 68:0.02892 70:0.02892 74:0.02892 79:0.02892 83:0.02892 102:0.02892 107:0.02892 118:0.02892 120:0.05783 126:0.02892 129:0.02892 137:0.02892 140:0.02892 145:0.02892 153:0.02892 179:0.02892 185:0.05783 192:0.02892 193:0.05783 196:0.02892 200:0.02892 201:0.02892 211:0.02892 225:0.02892 226:0.02892 231:0.05783 239:0.02892 241:0.02892 242:0.02892 243:0.02892 244:0.02892 247:0.02892 248:0.02892 249:0.02892 251:0.02892 253:0.02892 254:0.05783 255:0.08675 256:0.05783 257:0.05783 258:0.02892 260:0.05783 264:0.02892 269:0.02892 274:0.08675 275:0.02892 277:0.02892 281:0.02892 286:0.05783 290:0.02892 293:0.02892 294:0.02892 298:0.02892 314:0.02892 317:0.02892 321:0.05783 329:0.05783 330:0.08675 355:0.02892 385:0.02892 392:0.02892 395:0.02892 401:0.02892 405:0.02892 417:0.02892 425:0.05783 466:0.02892 470:0.02892 473:0.02892 478:0.05783 479:0.08675 480:0.02892 484:0.02892 490:0.02892 500:0.02892 501:0.05783 511:0.02892 516:0.02892 519:0.02892 521:0.02892 522:0.02892 528:0.02892 533:0.02892 539:0.02892 542:0.02892 547:0.08675 557:0.02892 558:0.05783 559:0.02892 560:0.05783 566:0.02892 578:0.02892 582:0.02892 583:0.02892 596:0.02892 597:0.02892 609:0.02892 614:0.02892 615:0.02892 619:0.02892 631:0.02892 633:0.02892 635:0.05783 649:0.02892 651:0.02892 654:0.02892 657:0.02892 660:0.02892 666:0.02892 708:0.02892 711:0.02892 713:0.02892 720:0.02892 726:0.02892 732:0.02892 735:0.02892 737:0.02892 739:0.02892 750:0.05783 761:0.02892 764:0.02892 767:0.02892 768:0.02892 769:0.02892 772:0.02892 780:0.02892 784:0.02892 798:0.02892 801:0.02892 803:0.02892 836:0.02892 842:0.02892 844:0.02892 862:0.02892 871:0.02892 882:0.02892 900:0.02892 902:0.02892 903:0.02892 920:0.02892 921:0.05783 936:0.02892 954:0.02892 960:0.02892 961:0.02892 965:0.02892 968:0.02892 970:0.02892 971:0.02892 976:0.02892 980:0.02892 986:0.05783 990:0.02892 996:0.02892 999:0.02892 1001:0.02892 1008:0.02892 1012:0.02892 1014:0.05783 1015:0.02892 1016:0.02892 1018:0.02892 1019:0.05783 1020:0.05783 1022:0.02892 1023:0.02892 1024:0.02892 1025:0.02892 1026:0.02892 1027:0.02892 1028:0.02892 1031:0.02892 1032:0.02892 1034:0.02892 1036:0.02892 1037:0.05783 1040:0.08675 1043:0.02892 1054:0.05783 1073:0.02892 1075:0.02892 1085:0.02892 1088:0.02892 1093:0.08675 1095:0.02892 1097:0.02892 1099:0.02892 1104:0.02892 1105:0.02892 1107:0.02892 1121:0.02892 1122:0.02892 1141:0.02892 1144:0.02892 1149:0.02892 1152:0.02892 1158:0.02892 1159:0.02892 1160:0.02892 1164:0.08675 1170:0.05783 1173:0.02892 1174:0.02892 1178:0.02892 1182:0.02892 1183:0.05783 1189:0.02892 1191:0.02892 1201:0.02892 1207:0.02892 1235:0.02892 1254:0.02892 1255:0.02892 1258:0.02892 1264:0.02892 1266:0.02892 1269:0.02892 1271:0.02892 1278:0.05783 1281:0.02892 1283:0.02892 1284:0.05783 1296:0.02892 1299:0.02892 1314:0.05783 1315:0.02892 1318:0.02892 1319:0.02892 1320:0.05783 1322:0.02892 1325:0.02892 1338:0.02892 1349:0.02892 1354:0.02892 1355:0.02892 1367:0.02892 1370:0.02892 1379:0.02892 1381:0.02892 1384:0.02892 1390:0.02892 1392:0.02892 1417:0.02892 1418:0.05783 1425:0.02892 1430:0.02892 1433:0.02892 1438:0.02892 1458:0.02892 1464:0.02892 1472:0.02892 1476:0.02892 1494:0.02892 1496:0.02892 1500:0.02892 1515:0.02892 1519:0.02892 1538:0.02892 1540:0.02892 1541:0.02892 1551:0.02892 1552:0.02892 1557:0.02892 1567:0.02892 1569:0.05783 1575:0.02892 1576:0.02892 1577:0.02892 1581:0.02892 1587:0.02892 1601:0.02892 1604:0.02892 1609:0.05783 1615:0.02892 1616:0.05783 1619:0.02892 1621:0.02892 1626:0.02892 1631:0.02892 1633:0.02892 1634:0.02892 1636:0.02892 1640:0.02892 1641:0.02892 1649:0.02892 1655:0.02892 1659:0.02892 1664:0.02892 1666:0.02892 1669:0.02892 1690:0.02892 1698:0.05783 1699:0.02892 1701:0.02892 1707:0.02892 1718:0.02892 1733:0.02892 1736:0.02892 1748:0.02892 1759:0.02892 1768:0.02892 1775:0.02892 1784:0.02892 1791:0.02892 1805:0.02892 1808:0.02892 1824:0.02892 1847:0.02892 1855:0.02892 1864:0.02892 1878:0.02892 1879:0.02892 1886:0.05783 1891:0.05783 1899:0.02892 1900:0.02892 1902:0.02892 1908:0.02892 1912:0.08675 1914:0.05783 1915:0.02892 1917:0.02892 1918:0.02892 1923:0.02892 1935:0.02892 1936:0.02892 1946:0.05783 1954:0.02892 1959:0.02892 1962:0.05783 1966:0.08675 1967:0.02892 1968:0.02892 1969:0.02892 1979:0.02892 1980:0.02892 1983:0.02892 1989:0.02892 1998:0.02892 2002:0.02892 2003:0.02892 2013:0.02892 2014:0.02892 2042:0.02892 2043:0.02892 2047:0.02892 2052:0.02892 2053:0.05783 2063:0.05783 2064:0.05783 2065:0.02892 2069:0.02892 2074:0.02892 2083:0.02892 2085:0.02892 2093:0.02892 2096:0.02892 2105:0.02892 2106:0.02892 2112:0.05783 2113:0.02892 2120:0.05783 2129:0.02892 2131:0.08675 2137:0.02892 2147:0.02892 2155:0.02892 2168:0.05783 2169:0.02892 2178:0.02892 2179:0.02892 2180:0.02892 2185:0.02892 2188:0.05783 2203:0.02892 2207:0.02892 2211:0.05783 2212:0.02892 2226:0.02892 2228:0.02892 2230:0.02892 2232:0.02892 2236:0.05783 2239:0.05783 2240:0.02892 2243:0.02892 2249:0.02892 2264:0.02892 2269:0.02892 2274:0.02892 2304:0.02892 2305:0.02892 2307:0.02892 2308:0.02892 2309:0.02892 2317:0.02892 2324:0.02892 2325:0.02892 2329:0.02892 2339:0.05783 2363:0.02892 2364:0.02892 2366:0.02892 2368:0.02892 2380:0.02892 2383:0.02892 2386:0.02892 2387:0.05783 2393:0.02892 2406:0.02892 2417:0.02892 2427:0.02892 2428:0.02892 2433:0.02892 2434:0.02892 2436:0.05783 2438:0.02892 2445:0.02892 2451:0.05783 2455:0.02892 2456:0.02892 2457:0.05783 2461:0.02892 2463:0.02892 2466:0.02892 2471:0.02892 2473:0.02892 2475:0.02892 2482:0.02892 2494:0.02892 2500:0.02892 2523:0.05783 2529:0.02892 2532:0.02892 2539:0.02892 2540:0.08675 2541:0.02892 2544:0.02892 2552:0.02892 2559:0.02892 2561:0.02892 2564:0.05783 2566:0.02892 2578:0.05783 2583:0.02892 2590:0.02892 2593:0.02892 2601:0.05783 2608:0.02892 2616:0.02892 2625:0.05783 2629:0.02892 2639:0.02892 2661:0.02892 2664:0.02892 2666:0.02892 2672:0.02892 2683:0.02892 2684:0.02892 2694:0.02892 2696:0.02892 2699:0.02892 2700:0.02892 2705:0.02892 2706:0.02892 2715:0.02892 2719:0.02892 2723:0.02892 2729:0.02892 2769:0.02892 2772:0.02892 2774:0.02892 2778:0.02892 2783:0.02892 2792:0.02892 2800:0.02892 2806:0.02892 2821:0.02892 2825:0.02892 2831:0.02892 2832:0.02892 2833:0.02892 2842:0.02892 2843:0.02892 2846:0.02892 2852:0.02892 2880:0.02892 2881:0.02892 2882:0.02892 2894:0.02892 2896:0.02892 2899:0.02892 2903:0.05783 2906:0.02892 2919:0.02892 2927:0.02892 2939:0.05783 2940:0.02892 2945:0.02892 2947:0.02892 2956:0.02892 2966:0.02892 2975:0.05783 2986:0.02892 2993:0.02892 2998:0.05783 3001:0.02892 3004:0.08675 3008:0.02892 3013:0.02892 3031:0.02892 3034:0.02892 3038:0.02892 3042:0.02892 3048:0.02892 3053:0.02892 3057:0.02892 3061:0.02892 3063:0.02892 3065:0.02892 3068:0.02892 3071:0.02892 3072:0.02892 3073:0.02892 3077:0.02892 3088:0.02892 3089:0.02892 3107:0.02892 3119:0.02892 3121:0.02892 3132:0.02892 3133:0.05783 3135:0.02892 3136:0.02892 3137:0.02892 3138:0.02892 3141:0.02892 3146:0.02892 3173:0.02892 3177:0.02892 3191:0.02892 3192:0.02892 3195:0.02892 3198:0.02892 3203:0.02892 3209:0.02892 3214:0.02892 3226:0.02892 3237:0.02892 3281:0.02892 3290:0.02892 3315:0.02892 3322:0.02892 3324:0.02892 3327:0.05783 3330:0.02892 3336:0.02892 3344:0.02892 3346:0.02892 3360:0.05783 3365:0.02892 3368:0.02892 3374:0.02892 3381:0.02892 3390:0.02892 3392:0.02892 3393:0.05783 3396:0.02892 3401:0.02892 3414:0.02892 3418:0.02892 3420:0.05783 3431:0.02892 3437:0.02892 3446:0.05783 3447:0.02892 3465:0.02892 3468:0.02892 3476:0.05783 3482:0.05783 3483:0.02892 3488:0.02892 3498:0.02892 3502:0.02892 3509:0.02892 3514:0.02892 3516:0.02892 3528:0.02892 3534:0.02892 3536:0.02892 3544:0.02892 3545:0.02892 3547:0.02892 3549:0.02892 3550:0.02892 3552:0.02892 3559:0.05783 3561:0.02892 3564:0.05783 3567:0.02892 3570:0.02892 3576:0.02892 3584:0.02892 3586:0.02892 3596:0.05783 3599:0.02892 3601:0.02892 3605:0.05783 3609:0.02892 3631:0.02892 3633:0.02892 3641:0.02892 3648:0.02892 3669:0.02892 3671:0.02892 3677:0.02892 3679:0.02892 3681:0.05783 3686:0.02892 3691:0.02892 3693:0.02892 3705:0.02892 3708:0.02892 3710:0.02892 3713:0.08675 3717:0.02892 3740:0.02892 3743:0.02892 3749:0.02892 3751:0.02892 3752:0.02892 3765:0.05783 3767:0.02892 3768:0.02892 3770:0.02892 3772:0.02892 3774:0.02892 3778:0.02892 3779:0.02892 3780:0.02892 3783:0.02892 3793:0.02892 3797:0.02892 3799:0.02892 3809:0.02892 3814:0.02892 3819:0.02892 3821:0.02892 3823:0.08675 3826:0.02892 3831:0.02892 3834:0.02892 3837:0.02892 3838:0.05783 3840:0.02892 3842:0.02892 3856:0.02892 3857:0.02892 3858:0.02892 3859:0.02892 3871:0.02892 3879:0.02892 3882:0.02892 3893:0.02892 3901:0.02892 3903:0.02892 3904:0.02892 3909:0.02892 3912:0.02892 3914:0.02892 3920:0.02892 3921:0.08675 3932:0.02892 3941:0.05783 3943:0.02892 3944:0.02892 3951:0.02892 3956:0.02892 3958:0.02892 3959:0.05783 3968:0.02892 3973:0.02892 3974:0.02892 3981:0.02892 3990:0.02892 3992:0.02892 3995:0.02892 3996:0.02892 4000:0.02892 4001:0.08675 4014:0.02892 4015:0.02892 4017:0.02892 4018:0.02892 4021:0.02892 4029:0.02892 4030:0.02892 4032:0.05783 4036:0.02892 4048:0.05783 4050:0.02892 4053:0.08675 4058:0.02892 4060:0.02892 4064:0.02892 4066:0.02892 4070:0.05783 4071:0.02892 4073:0.05783 4076:0.05783 4077:0.02892 4078:0.02892 4080:0.08675 4084:0.02892 4086:0.02892 4090:0.02892 4091:0.02892 4092:0.05783 4093:0.02892 4095:0.02892 4096:0.02892 
0.6960082866178829 1:0.09435 2:0.05392 3:0.01348 4:0.02696 5:0.0674 6:0.02696 7:0.02696 8:0.05392 9:0.01348 10:0.02696 12:0.04044 13:0.04044 14:0.04044 15:0.05392 16:0.01348 17:0.10783 18:0.05392 19:0.05392 20:0.01348 22:0.02696 23:0.04044 26:0.01348 27:0.02696 29:0.01348 31:0.05392 32:0.02696 33:0.04044 34:0.01348 35:0.01348 39:0.04044 43:0.01348 44:0.02696 45:0.02696 47:0.02696 48:0.02696 49:0.01348 50:0.01348 51:0.01348 52:0.01348 53:0.02696 56:0.04044 57:0.01348 58:0.05392 59:0.02696 60:0.01348 61:0.05392 62:0.02696 63:0.0674 65:0.04044 67:0.05392 68:0.02696 69:0.01348 70:0.01348 71:0.01348 72:0.02696 74:0.04044 76:0.02696 77:0.01348 78:0.02696 84:0.01348 85:0.01348 86:0.02696 89:0.02696 90:0.01348 91:0.01348 100:0.01348 101:0.01348 104:0.01348 105:0.01348 106:0.01348 113:0.01348 115:0.01348 116:0.01348 121:0.01348 122:0.02696 124:0.01348 126:0.01348 128:0.02696 129:0.01348 130:0.02696 131:0.01348 135:0.01348 138:0.01348 139:0.01348 140:0.02696 141:0.01348 142:0.01348 144:0.05392 145:0.01348 147:0.01348 155:0.02696 156:0.01348 157:0.01348 161:0.01348 165:0.01348 166:0.01348 170:0.01348 171:0.01348 172:0.01348 175:0.02696 177:0.02696 179:0.01348 186:0.01348 188:0.01348 189:0.01348 192:0.02696 193:0.01348 196:0.01348 197:0.01348 198:0.01348 200:0.01348 204:0.01348 205:0.01348 208:0.02696 209:0.01348 210:0.02696 217:0.01348 219:0.02696 220:0.01348 221:0.01348 223:0.01348 224:0.05392 225:0.02696 227:0.01348 229:0.05392 230:0.02696 231:0.04044 232:0.01348 233:0.01348 234:0.01348 235:0.01348 239:0.01348 241:0.04044 242:0.01348 243:0.04044 244:0.01348 245:0.01348 246:0.01348 248:0.01348 249:0.02696 250:0.01348 251:0.01348 252:0.02696 253:0.05392 254:0.02696 255:0.05392 256:0.01348 257:0.04044 259:0.01348 261:0.01348 265:0.04044 266:0.01348 271:0.02696 272:0.02696 274:0.02696 275:0.01348 278:0.01348 280:0.01348 282:0.04044 286:0.05392 287:0.01348 288:0.01348 289:0.01348 291:0.01348 292:0.01348 293:0.01348 294:0.01348 295:0.01348 296:0.01348 301:0.01348 302:0.01348 303:0.01348 304:0.01348 305:0.02696 306:0.01348 307:0.01348 308:0.02696 310:0.01348 311:0.01348 316:0.02696 320:0.01348 321:0.01348 333:0.02696 340:0.02696 341:0.02696 343:0.01348 344:0.01348 349:0.01348 352:0.01348 353:0.02696 356:0.01348 357:0.02696 361:0.01348 370:0.01348 379:0.02696 384:0.02696 385:0.01348 390:0.01348 391:0.01348 399:0.01348 400:0.01348 401:0.01348 402:0.01348 403:0.04044 404:0.02696 410:0.02696 414:0.01348 415:0.04044 416:0.01348 417:0.02696 420:0.01348 421:0.01348 423:0.02696 424:0.01348 449:0.01348 452:0.01348 457:0.01348 461:0.01348 464:0.01348 465:0.02696 467:0.01348 470:0.01348 473:0.01348 474:0.02696 475:0.01348 480:0.02696 484:0.01348 485:0.04044 487:0.01348 491:0.01348 493:0.01348 494:0.01348 496:0.02696 497:0.01348 501:0.01348 510:0.04044 512:0.04044 513:0.04044 515:0.02696 517:0.01348 518:0.01348 519:0.01348 523:0.01348 526:0.02696 528:0.01348 529:0.01348 530:0.01348 533:0.01348 538:0.01348 549:0.02696 550:0.02696 553:0.01348 557:0.02696 561:0.02696 562:0.05392 563:0.01348 564:0.01348 568:0.02696 573:0.02696 574:0.01348 576:0.04044 577:0.04044 578:0.01348 582:0.01348 585:0.01348 590:0.01348 592:0.01348 596:0.02696 597:0.01348 598:0.01348 602:0.0674 604:0.01348 611:0.01348 612:0.01348 613:0.01348 618:0.04044 619:0.01348 621:0.02696 622:0.02696 624:0.01348 625:0.02696 636:0.01348 639:0.01348 641:0.01348 642:0.01348 654:0.01348 655:0.01348 658:0.01348 663:0.01348 667:0.01348 673:0.05392 675:0.01348 678:0.01348 684:0.01348 685:0.01348 687:0.01348 690:0.01348 692:0.01348 697:0.01348 698:0.01348 700:0.01348 705:0.02696 708:0.01348 709:0.01348 712:0.02696 715:0.01348 717:0.02696 719:0.01348 720:0.01348 725:0.01348 737:0.01348 738:0.02696 741:0.02696 749:0.01348 751:0.04044 752:0.02696 753:0.01348 758:0.01348 761:0.01348 765:0.01348 766:0.01348 767:0.01348 768:0.05392 769:0.05392 770:0.01348 771:0.01348 772:0.01348 777:0.01348 779:0.04044 782:0.01348 783:0.01348 784:0.01348 786:0.04044 787:0.02696 788:0.01348 790:0.01348 791:0.01348 792:0.01348 794:0.01348 795:0.01348 797:0.01348 798:0.02696 799:0.01348 801:0.02696 802:0.01348 815:0.01348 816:0.01348 818:0.04044 819:0.01348 820:0.08087 822:0.02696 824:0.01348 828:0.02696 830:0.01348 831:0.01348 832:0.01348 835:0.01348 837:0.01348 839:0.01348 844:0.01348 851:0.01348 852:0.01348 855:0.01348 857:0.01348 858:0.01348 859:0.01348 860:0.01348 861:0.01348 863:0.01348 865:0.01348 867:0.01348 870:0.02696 872:0.01348 875:0.01348 876:0.01348 879:0.01348 880:0.01348 881:0.04044 882:0.01348 890:0.04044 891:0.01348 892:0.01348 893:0.01348 895:0.0674 897:0.04044 899:0.01348 900:0.01348 903:0.01348 906:0.01348 913:0.04044 915:0.04044 917:0.02696 922:0.01348 923:0.02696 924:0.02696 926:0.01348 927:0.01348 929:0.01348 931:0.01348 932:0.01348 933:0.01348 934:0.02696 936:0.02696 938:0.01348 939:0.01348 940:0.02696 941:0.01348 944:0.01348 946:0.01348 947:0.02696 948:0.01348 949:0.01348 953:0.04044 959:0.02696 960:0.01348 961:0.04044 962:0.01348 964:0.02696 967:0.01348 968:0.01348 969:0.04044 971:0.01348 972:0.01348 974:0.02696 976:0.01348 977:0.01348 978:0.02696 980:0.01348 982:0.02696 985:0.01348 989:0.01348 990:0.01348 991:0.01348 993:0.04044 994:0.01348 995:0.02696 998:0.01348 999:0.01348 1002:0.01348 1006:0.01348 1007:0.01348 1008:0.02696 1009:0.05392 1011:0.02696 1012:0.01348 1013:0.02696 1014:0.01348 1015:0.01348 1018:0.0674 1019:0.01348 1021:0.02696 1022:0.02696 1023:0.0674 1024:0.02696 1025:0.01348 1026:0.01348 1027:0.01348 1028:0.0674 1029:0.05392 1032:0.01348 1033:0.02696 1035:0.01348 1037:0.01348 1039:0.01348 1040:0.05392 1044:0.02696 1053:0.01348 1059:0.02696 1060:0.0674 1061:0.01348 1064:0.01348 1067:0.01348 1073:0.01348 1074:0.02696 1076:0.01348 1082:0.02696 1083:0.01348 1086:0.01348 1088:0.0674 1090:0.01348 1092:0.01348 1095:0.02696 1096:0.04044 1097:0.01348 1098:0.01348 1103:0.02696 1104:0.01348 1110:0.02696 1112:0.01348 1117:0.01348 1120:0.02696 1124:0.01348 1125:0.05392 1127:0.01348 1140:0.01348 1141:0.04044 1142:0.01348 1143:0.02696 1146:0.01348 1148:0.01348 1152:0.02696 1153:0.01348 1156:0.01348 1157:0.02696 1162:0.01348 1165:0.05392 1168:0.01348 1169:0.01348 1170:0.01348 1172:0.01348 1173:0.01348 1175:0.05392 1177:0.02696 1178:0.01348 1179:0.01348 1180:0.04044 1181:0.01348 1188:0.01348 1193:0.01348 1197:0.02696 1202:0.02696 1204:0.01348 1206:0.01348 1209:0.01348 1212:0.01348 1216:0.05392 1217:0.0674 1219:0.01348 1221:0.02696 1222:0.01348 1224:0.01348 1225:0.02696 1229:0.02696 1237:0.01348 1238:0.01348 1240:0.01348 1242:0.02696 1244:0.01348 1249:0.04044 1257:0.01348 1258:0.02696 1259:0.02696 1263:0.02696 1265:0.04044 1266:0.01348 1267:0.01348 1268:0.01348 1274:0.01348 1276:0.02696 1277:0.02696 1278:0.01348 1279:0.01348 1280:0.05392 1281:0.02696 1282:0.02696 1283:0.02696 1284:0.01348 1289:0.01348 1291:0.01348 1296:0.01348 1298:0.01348 1306:0.01348 1316:0.01348 1317:0.02696 1319:0.04044 1324:0.02696 1325:0.01348 1329:0.05392 1330:0.01348 1331:0.01348 1337:0.01348 1339:0.05392 1343:0.01348 1344:0.02696 1345:0.04044 1347:0.01348 1349:0.01348 1354:0.01348 1355:0.01348 1356:0.01348 1357:0.01348 1359:0.02696 1360:0.01348 1361:0.01348 1362:0.01348 1363:0.04044 1364:0.01348 1369:0.02696 1371:0.01348 1376:0.01348 1377:0.01348 1378:0.01348 1379:0.01348 1380:0.01348 1382:0.01348 1384:0.01348 1386:0.01348 1394:0.02696 1398:0.01348 1399:0.02696 1402:0.01348 1406:0.01348 1407:0.01348 1408:0.01348 1409:0.02696 1411:0.02696 1413:0.01348 1420:0.01348 1424:0.02696 1425:0.01348 1427:0.02696 1428:0.02696 1431:0.01348 1432:0.01348 1433:0.01348 1434:0.01348 1438:0.01348 1439:0.01348 1440:0.02696 1444:0.01348 1445:0.02696 1446:0.01348 1451:0.01348 1456:0.01348 1457:0.01348 1460:0.01348 1461:0.02696 1463:0.01348 1472:0.02696 1476:0.01348 1477:0.01348 1479:0.01348 1480:0.01348 1489:0.01348 1494:0.01348 1497:0.01348 1498:0.01348 1504:0.01348 1505:0.01348 1510:0.01348 1514:0.01348 1515:0.01348 1524:0.04044 1528:0.01348 1531:0.01348 1533:0.01348 1534:0.01348 1535:0.01348 1537:0.02696 1538:0.04044 1539:0.01348 1540:0.01348 1542:0.01348 1545:0.01348 1546:0.01348 1550:0.01348 1555:0.01348 1558:0.01348 1559:0.01348 1563:0.01348 1575:0.01348 1579:0.02696 1581:0.02696 1583:0.02696 1585:0.01348 1590:0.01348 1593:0.01348 1594:0.01348 1596:0.01348 1598:0.05392 1601:0.02696 1604:0.01348 1606:0.02696 1609:0.02696 1610:0.04044 1612:0.01348 1613:0.01348 1614:0.01348 1616:0.04044 1617:0.02696 1619:0.02696 1623:0.01348 1626:0.01348 1628:0.02696 1630:0.01348 1635:0.01348 1637:0.02696 1638:0.01348 1639:0.02696 1642:0.02696 1646:0.01348 1647:0.01348 1653:0.01348 1655:0.01348 1658:0.04044 1659:0.04044 1660:0.01348 1664:0.04044 1665:0.02696 1677:0.05392 1681:0.02696 1682:0.02696 1685:0.01348 1688:0.01348 1689:0.02696 1691:0.01348 1693:0.01348 1694:0.01348 1695:0.05392 1698:0.01348 1700:0.01348 1701:0.01348 1703:0.01348 1706:0.02696 1708:0.01348 1716:0.01348 1719:0.01348 1726:0.01348 1728:0.04044 1729:0.02696 1730:0.01348 1732:0.01348 1737:0.01348 1739:0.01348 1742:0.02696 1746:0.02696 1747:0.01348 1748:0.01348 1750:0.01348 1756:0.01348 1760:0.01348 1764:0.01348 1766:0.01348 1770:0.01348 1775:0.02696 1776:0.01348 1777:0.01348 1784:0.01348 1790:0.01348 1792:0.02696 1793:0.02696 1795:0.01348 1796:0.02696 1797:0.01348 1801:0.01348 1806:0.01348 1807:0.01348 1808:0.04044 1812:0.02696 1817:0.01348 1818:0.01348 1824:0.01348 1827:0.01348 1840:0.01348 1844:0.01348 1848:0.01348 1851:0.01348 1852:0.01348 1856:0.01348 1857:0.01348 1859:0.01348 1860:0.02696 1866:0.01348 1872:0.01348 1876:0.01348 1877:0.01348 1878:0.01348 1880:0.01348 1889:0.01348 1892:0.01348 1894:0.02696 1895:0.01348 1896:0.01348 1899:0.01348 1906:0.01348 1907:0.01348 1916:0.01348 1917:0.01348 1919:0.02696 1920:0.01348 1921:0.01348 1927:0.01348 1932:0.01348 1933:0.01348 1937:0.01348 1938:0.02696 1940:0.04044 1941:0.01348 1942:0.02696 1946:0.01348 1947:0.02696 1948:0.04044 1952:0.01348 1954:0.01348 1956:0.01348 1957:0.02696 1959:0.02696 1963:0.04044 1972:0.02696 1973:0.01348 1975:0.01348 1977:0.01348 1980:0.01348 1982:0.01348 1984:0.05392 1986:0.01348 1994:0.01348 1998:0.04044 1999:0.01348 2004:0.01348 2011:0.02696 2016:0.01348 2019:0.01348 2020:0.01348 2021:0.02696 2025:0.01348 2027:0.01348 2032:0.05392 2033:0.01348 2035:0.01348 2036:0.01348 2037:0.01348 2038:0.01348 2039:0.01348 2040:0.02696 2043:0.02696 2044:0.01348 2045:0.01348 2046:0.04044 2047:0.01348 2048:0.01348 2049:0.02696 2050:0.0674 2051:0.04044 2052:0.02696 2053:0.05392 2054:0.02696 2055:0.01348 2056:0.01348 2057:0.01348 2059:0.01348 2060:0.04044 2062:0.01348 2063:0.01348 2064:0.02696 2065:0.01348 2067:0.01348 2070:0.01348 2071:0.01348 2074:0.01348 2077:0.01348 2081:0.01348 2085:0.01348 2091:0.01348 2096:0.01348 2100:0.01348 2101:0.01348 2103:0.05392 2104:0.01348 2111:0.01348 2112:0.02696 2116:0.01348 2117:0.01348 2121:0.01348 2124:0.01348 2125:0.01348 2129:0.01348 2133:0.01348 2138:0.01348 2146:0.01348 2151:0.01348 2152:0.02696 2153:0.01348 2154:0.02696 2172:0.01348 2180:0.01348 2190:0.01348 2193:0.02696 2196:0.01348 2197:0.01348 2198:0.01348 2199:0.01348 2203:0.01348 2204:0.01348 2209:0.01348 2215:0.01348 2217:0.04044 2225:0.01348 2226:0.01348 2228:0.02696 2233:0.01348 2234:0.01348 2236:0.05392 2241:0.01348 2243:0.04044 2244:0.02696 2245:0.04044 2247:0.02696 2249:0.01348 2253:0.04044 2264:0.01348 2265:0.01348 2270:0.01348 2272:0.01348 2274:0.01348 2277:0.01348 2279:0.01348 2280:0.01348 2288:0.02696 2291:0.01348 2292:0.01348 2293:0.02696 2294:0.01348 2295:0.01348 2296:0.02696 2301:0.01348 2302:0.01348 2304:0.04044 2305:0.02696 2306:0.04044 2308:0.0674 2309:0.01348 2313:0.01348 2314:0.01348 2319:0.01348 2320:0.01348 2321:0.01348 2322:0.02696 2326:0.02696 2328:0.01348 2330:0.01348 2334:0.01348 2336:0.01348 2337:0.01348 2338:0.02696 2340:0.04044 2342:0.02696 2343:0.04044 2347:0.01348 2349:0.01348 2351:0.01348 2352:0.02696 2354:0.02696 2358:0.02696 2359:0.01348 2365:0.05392 2367:0.02696 2368:0.05392 2369:0.04044 2372:0.01348 2375:0.01348 2377:0.01348 2378:0.02696 2379:0.01348 2381:0.02696 2383:0.02696 2384:0.01348 2385:0.01348 2388:0.01348 2389:0.04044 2391:0.02696 2393:0.01348 2394:0.01348 2400:0.01348 2405:0.02696 2406:0.01348 2407:0.02696 2408:0.04044 2410:0.02696 2411:0.01348 2413:0.01348 2414:0.02696 2416:0.01348 2421:0.01348 2429:0.02696 2433:0.01348 2442:0.01348 2443:0.01348 2444:0.02696 2445:0.01348 2447:0.02696 2449:0.01348 2450:0.01348 2451:0.01348 2452:0.01348 2453:0.02696 2458:0.02696 2459:0.01348 2460:0.02696 2463:0.01348 2468:0.01348 2469:0.01348 2470:0.01348 2471:0.01348 2472:0.0674 2473:0.01348 2474:0.01348 2478:0.01348 2480:0.01348 2481:0.02696 2483:0.01348 2484:0.01348 2485:0.01348 2486:0.01348 2488:0.01348 2490:0.01348 2491:0.01348 2492:0.04044 2494:0.01348 2496:0.01348 2497:0.01348 2498:0.01348 2499:0.01348 2516:0.01348 2517:0.01348 2518:0.01348 2522:0.01348 2525:0.02696 2527:0.01348 2528:0.01348 2530:0.01348 2531:0.01348 2533:0.01348 2534:0.01348 2535:0.04044 2537:0.02696 2538:0.02696 2539:0.01348 2543:0.01348 2544:0.04044 2551:0.01348 2554:0.01348 2556:0.01348 2557:0.01348 2560:0.02696 2561:0.0674 2562:0.01348 2563:0.01348 2564:0.01348 2568:0.01348 2574:0.01348 2576:0.01348 2586:0.01348 2591:0.01348 2597:0.01348 2598:0.01348 2603:0.01348 2607:0.01348 2609:0.02696 2610:0.01348 2612:0.02696 2615:0.01348 2618:0.02696 2620:0.01348 2625:0.02696 2628:0.01348 2629:0.02696 2631:0.01348 2633:0.01348 2634:0.01348 2635:0.01348 2640:0.02696 2641:0.01348 2642:0.01348 2644:0.02696 2645:0.01348 2646:0.04044 2648:0.01348 2650:0.01348 2651:0.01348 2656:0.01348 2657:0.01348 2659:0.02696 2660:0.02696 2661:0.01348 2663:0.01348 2666:0.01348 2667:0.01348 2673:0.01348 2678:0.01348 2680:0.02696 2681:0.02696 2682:0.02696 2684:0.01348 2689:0.04044 2692:0.02696 2695:0.01348 2698:0.01348 2699:0.01348 2700:0.01348 2703:0.01348 2707:0.02696 2709:0.04044 2710:0.02696 2713:0.01348 2717:0.01348 2718:0.01348 2723:0.01348 2725:0.01348 2726:0.04044 2728:0.01348 2735:0.02696 2736:0.02696 2740:0.01348 2743:0.01348 2746:0.02696 2748:0.01348 2750:0.01348 2752:0.02696 2753:0.01348 2757:0.01348 2765:0.01348 2767:0.01348 2768:0.01348 2777:0.01348 2780:0.01348 2781:0.01348 2786:0.01348 2791:0.02696 2792:0.01348 2797:0.01348 2800:0.01348 2802:0.01348 2807:0.01348 2808:0.01348 2813:0.01348 2814:0.02696 2816:0.02696 2817:0.02696 2818:0.04044 2822:0.01348 2831:0.01348 2832:0.01348 2833:0.01348 2836:0.01348 2840:0.01348 2846:0.01348 2847:0.02696 2851:0.01348 2852:0.01348 2859:0.02696 2860:0.01348 2868:0.04044 2870:0.01348 2872:0.05392 2874:0.02696 2875:0.01348 2876:0.01348 2879:0.02696 2880:0.01348 2884:0.01348 2886:0.01348 2888:0.02696 2890:0.01348 2894:0.01348 2899:0.01348 2903:0.01348 2913:0.01348 2923:0.01348 2925:0.01348 2926:0.01348 2932:0.01348 2938:0.02696 2944:0.01348 2945:0.04044 2948:0.02696 2949:0.01348 2951:0.02696 2960:0.02696 2961:0.01348 2963:0.02696 2967:0.02696 2968:0.01348 2970:0.01348 2972:0.01348 2975:0.01348 2982:0.01348 2987:0.01348 2996:0.04044 3000:0.01348 3002:0.02696 3003:0.01348 3004:0.02696 3005:0.01348 3008:0.05392 3011:0.01348 3012:0.01348 3015:0.01348 3018:0.01348 3025:0.01348 3032:0.01348 3033:0.01348 3037:0.01348 3040:0.02696 3041:0.01348 3048:0.01348 3055:0.01348 3057:0.02696 3058:0.04044 3060:0.01348 3061:0.05392 3062:0.01348 3063:0.04044 3066:0.04044 3067:0.02696 3069:0.04044 3070:0.0674 3071:0.01348 3072:0.05392 3073:0.05392 3074:0.04044 3075:0.01348 3076:0.02696 3077:0.05392 3078:0.01348 3080:0.01348 3081:0.01348 3082:0.01348 3083:0.01348 3086:0.01348 3087:0.02696 3088:0.05392 3090:0.01348 3093:0.01348 3097:0.01348 3104:0.01348 3107:0.01348 3108:0.01348 3113:0.01348 3114:0.02696 3117:0.01348 3128:0.02696 3129:0.02696 3130:0.05392 3133:0.05392 3136:0.05392 3137:0.01348 3141:0.01348 3142:0.01348 3144:0.01348 3145:0.01348 3148:0.01348 3149:0.05392 3156:0.01348 3160:0.01348 3161:0.01348 3167:0.02696 3169:0.01348 3170:0.01348 3173:0.02696 3176:0.02696 3177:0.01348 3178:0.01348 3185:0.01348 3191:0.02696 3192:0.02696 3194:0.01348 3195:0.01348 3196:0.01348 3197:0.01348 3200:0.02696 3201:0.04044 3202:0.01348 3204:0.01348 3206:0.01348 3210:0.02696 3213:0.04044 3216:0.01348 3222:0.01348 3223:0.01348 3231:0.01348 3232:0.01348 3236:0.01348 3241:0.01348 3244:0.01348 3247:0.01348 3252:0.01348 3257:0.01348 3262:0.01348 3263:0.01348 3264:0.01348 3270:0.01348 3272:0.02696 3276:0.01348 3277:0.05392 3278:0.04044 3279:0.02696 3280:0.01348 3283:0.01348 3285:0.01348 3287:0.05392 3290:0.01348 3293:0.04044 3295:0.05392 3296:0.01348 3301:0.01348 3303:0.01348 3305:0.01348 3306:0.02696 3307:0.01348 3308:0.02696 3309:0.05392 3310:0.01348 3312:0.01348 3317:0.01348 3321:0.05392 3327:0.01348 3328:0.04044 3329:0.01348 3336:0.01348 3337:0.02696 3341:0.05392 3344:0.02696 3345:0.01348 3347:0.01348 3348:0.04044 3352:0.01348 3353:0.01348 3357:0.01348 3358:0.01348 3359:0.01348 3366:0.02696 3369:0.01348 3376:0.01348 3383:0.01348 3385:0.02696 3387:0.01348 3389:0.02696 3392:0.01348 3395:0.01348 3402:0.02696 3405:0.01348 3407:0.01348 3408:0.01348 3409:0.02696 3413:0.01348 3417:0.01348 3418:0.01348 3421:0.01348 3422:0.04044 3423:0.01348 3425:0.01348 3429:0.01348 3436:0.01348 3437:0.01348 3438:0.01348 3440:0.01348 3441:0.01348 3448:0.01348 3449:0.01348 3453:0.01348 3457:0.04044 3458:0.01348 3460:0.01348 3462:0.01348 3467:0.01348 3468:0.01348 3470:0.01348 3472:0.01348 3477:0.02696 3478:0.01348 3479:0.02696 3483:0.01348 3487:0.02696 3492:0.01348 3497:0.01348 3498:0.01348 3499:0.02696 3501:0.01348 3504:0.02696 3505:0.01348 3507:0.01348 3509:0.01348 3513:0.01348 3517:0.01348 3521:0.04044 3524:0.04044 3525:0.01348 3527:0.01348 3532:0.01348 3534:0.01348 3535:0.02696 3537:0.01348 3557:0.02696 3558:0.01348 3559:0.02696 3560:0.01348 3562:0.01348 3565:0.01348 3566:0.01348 3567:0.01348 3571:0.01348 3572:0.01348 3575:0.01348 3577:0.02696 3578:0.01348 3579:0.01348 3580:0.04044 3581:0.01348 3582:0.01348 3583:0.02696 3584:0.01348 3585:0.02696 3586:0.05392 3587:0.01348 3588:0.02696 3589:0.01348 3596:0.01348 3597:0.01348 3598:0.02696 3600:0.01348 3603:0.01348 3604:0.01348 3609:0.01348 3610:0.01348 3611:0.02696 3617:0.01348 3623:0.01348 3626:0.01348 3631:0.04044 3633:0.01348 3646:0.01348 3648:0.02696 3649:0.04044 3651:0.02696 3653:0.01348 3656:0.02696 3657:0.02696 3658:0.01348 3660:0.04044 3661:0.01348 3662:0.01348 3664:0.05392 3665:0.01348 3667:0.02696 3668:0.01348 3670:0.01348 3671:0.01348 3674:0.01348 3675:0.02696 3676:0.01348 3680:0.01348 3686:0.01348 3687:0.02696 3688:0.01348 3689:0.01348 3690:0.02696 3692:0.02696 3693:0.02696 3695:0.05392 3696:0.01348 3702:0.01348 3704:0.02696 3707:0.02696 3708:0.01348 3710:0.01348 3711:0.01348 3713:0.02696 3720:0.01348 3722:0.01348 3725:0.01348 3727:0.01348 3729:0.01348 3731:0.01348 3732:0.02696 3734:0.04044 3735:0.01348 3737:0.02696 3738:0.02696 3742:0.01348 3743:0.01348 3745:0.01348 3747:0.01348 3750:0.01348 3752:0.01348 3753:0.01348 3754:0.04044 3756:0.02696 3758:0.01348 3760:0.01348 3761:0.01348 3768:0.01348 3773:0.01348 3782:0.01348 3784:0.01348 3785:0.01348 3787:0.01348 3790:0.04044 3791:0.02696 3792:0.01348 3793:0.01348 3794:0.01348 3803:0.01348 3807:0.02696 3809:0.05392 3812:0.01348 3813:0.01348 3814:0.02696 3819:0.01348 3821:0.01348 3822:0.01348 3824:0.01348 3827:0.01348 3829:0.01348 3832:0.01348 3834:0.01348 3836:0.01348 3837:0.05392 3838:0.05392 3839:0.05392 3840:0.0674 3841:0.02696 3842:0.02696 3843:0.01348 3844:0.05392 3847:0.01348 3848:0.01348 3852:0.01348 3855:0.04044 3856:0.04044 3861:0.01348 3865:0.01348 3866:0.02696 3867:0.01348 3870:0.01348 3872:0.02696 3873:0.04044 3876:0.04044 3878:0.01348 3880:0.02696 3881:0.01348 3885:0.01348 3888:0.01348 3893:0.01348 3894:0.02696 3895:0.01348 3896:0.02696 3899:0.05392 3900:0.02696 3903:0.01348 3904:0.01348 3906:0.01348 3908:0.04044 3909:0.05392 3912:0.01348 3915:0.01348 3919:0.04044 3920:0.02696 3921:0.01348 3924:0.01348 3925:0.01348 3928:0.05392 3932:0.02696 3934:0.01348 3936:0.01348 3937:0.02696 3938:0.01348 3939:0.01348 3940:0.01348 3942:0.01348 3945:0.01348 3947:0.01348 3948:0.02696 3949:0.01348 3953:0.04044 3956:0.02696 3957:0.01348 3962:0.01348 3964:0.01348 3966:0.01348 3968:0.04044 3969:0.02696 3970:0.01348 3972:0.01348 3973:0.01348 3977:0.01348 3979:0.01348 3980:0.02696 3984:0.01348 3986:0.01348 3987:0.01348 3988:0.04044 3989:0.01348 3991:0.02696 3994:0.01348 3995:0.01348 3996:0.01348 3998:0.02696 3999:0.01348 4000:0.01348 4001:0.01348 4005:0.01348 4006:0.01348 4007:0.02696 4009:0.02696 4010:0.01348 4011:0.01348 4014:0.01348 4018:0.01348 4024:0.01348 4025:0.01348 4026:0.01348 4030:0.01348 4032:0.10783 4033:0.08087 4036:0.04044 4038:0.01348 4039:0.02696 4040:0.02696 4041:0.04044 4042:0.01348 4044:0.01348 4046:0.01348 4047:0.0674 4048:0.01348 4049:0.02696 4050:0.04044 4051:0.01348 4052:0.04044 4053:0.02696 4054:0.04044 4055:0.02696 4056:0.01348 4057:0.04044 4058:0.01348 4059:0.02696 4060:0.01348 4061:0.04044 4063:0.01348 4064:0.01348 4067:0.01348 4069:0.04044 4070:0.02696 4071:0.02696 4072:0.04044 4074:0.04044 4075:0.04044 4076:0.01348 4077:0.01348 4080:0.04044 4081:0.02696 4082:0.02696 4083:0.02696 4084:0.05392 4085:0.02696 4086:0.0674 4087:0.02696 4088:0.04044 4089:0.01348 4090:0.02696 4091:0.02696 4092:0.04044 4093:0.05392 4094:0.02696 4095:0.01348 4096:0.09435 
0.2619617633662899 1:0.0276 2:0.0276 3:0.0276 4:0.0414 5:0.0414 6:0.0138 7:0.0276 8:0.05521 9:0.0276 10:0.0138 11:0.0138 12:0.0276 13:0.05521 14:0.0276 15:0.0138 16:0.0276 17:0.05521 18:0.0414 20:0.0138 24:0.0138 25:0.0138 27:0.0276 29:0.0414 30:0.0138 31:0.0414 33:0.0414 34:0.0138 36:0.0138 39:0.0138 41:0.0414 43:0.0138 44:0.0276 45:0.0414 47:0.0414 49:0.05521 51:0.0138 52:0.0276 53:0.0138 55:0.0276 56:0.0138 57:0.0414 58:0.0138 59:0.0138 60:0.0276 61:0.0414 62:0.0138 63:0.0138 64:0.0276 65:0.05521 67:0.0276 68:0.0276 69:0.0138 70:0.0138 71:0.0276 72:0.0138 75:0.0276 77:0.0138 80:0.0138 81:0.0138 83:0.0138 84:0.0276 85:0.0138 87:0.0138 89:0.0276 90:0.0276 93:0.0138 95:0.0138 96:0.0138 97:0.0276 103:0.0138 105:0.0138 106:0.0138 107:0.0276 108:0.0138 111:0.0138 113:0.0276 114:0.0138 115:0.0138 117:0.0138 118:0.0138 121:0.0276 122:0.0276 125:0.0138 129:0.0414 130:0.0138 132:0.0138 134:0.0276 135:0.0138 138:0.0138 141:0.0414 144:0.0138 145:0.0138 149:0.0138 152:0.0138 155:0.0138 156:0.0138 161:0.0276 162:0.0138 163:0.0138 165:0.0138 167:0.0138 170:0.0276 172:0.0276 173:0.0138 174:0.0138 175:0.0138 176:0.0138 177:0.0414 180:0.0138 181:0.0138 185:0.0138 186:0.0138 188:0.0138 190:0.0138 193:0.0276 195:0.0138 196:0.0138 197:0.0138 200:0.0138 202:0.0138 205:0.0276 206:0.0138 207:0.0276 208:0.0276 210:0.0276 212:0.0276 216:0.0138 217:0.0138 219:0.0138 220:0.0138 221:0.0138 224:0.0138 225:0.0276 227:0.0276 228:0.0138 229:0.0276 230:0.0276 231:0.0276 232:0.0138 233:0.0138 236:0.0138 238:0.0138 239:0.0138 240:0.0138 241:0.0276 243:0.0414 248:0.0414 251:0.0138 253:0.0414 255:0.0276 256:0.0276 257:0.0414 258:0.0138 259:0.0138 260:0.0138 261:0.0276 263:0.0276 265:0.0276 266:0.0138 267:0.0138 269:0.0276 270:0.0138 271:0.0276 274:0.0138 275:0.0138 278:0.0138 279:0.0276 280:0.0138 282:0.0276 283:0.0276 284:0.0138 286:0.0138 288:0.0138 289:0.0138 290:0.0138 291:0.0276 293:0.0138 297:0.0138 299:0.0138 300:0.0138 306:0.0138 308:0.0414 310:0.0138 315:0.0138 316:0.0276 318:0.0138 320:0.0276 321:0.0138 322:0.0138 330:0.0276 333:0.0138 336:0.0138 337:0.0138 339:0.0138 340:0.0138 343:0.0138 347:0.0276 352:0.0276 353:0.0276 354:0.0276 355:0.0138 357:0.0414 359:0.0138 363:0.0138 365:0.0138 366:0.0138 367:0.0138 368:0.0138 369:0.0138 370:0.0276 379:0.0138 380:0.0138 381:0.0138 382:0.0138 384:0.0276 385:0.0276 390:0.0138 395:0.0138 396:0.0138 399:0.0138 400:0.0138 401:0.0276 402:0.0138 403:0.0138 407:0.0138 410:0.0414 413:0.0138 414:0.0138 416:0.0138 417:0.0138 420:0.0138 421:0.0138 423:0.0138 424:0.0276 425:0.0138 426:0.0276 429:0.0138 430:0.0138 431:0.0276 444:0.0138 446:0.0138 449:0.0138 450:0.0276 452:0.0138 453:0.0138 456:0.0138 457:0.0138 461:0.0138 465:0.0138 468:0.0276 471:0.0276 474:0.0138 476:0.0138 481:0.0138 484:0.0276 485:0.0138 488:0.0276 490:0.0138 497:0.0276 507:0.0138 509:0.0138 510:0.0414 512:0.0276 513:0.0276 515:0.0276 517:0.0138 518:0.0276 520:0.0138 521:0.0138 527:0.0138 528:0.0414 529:0.0414 530:0.0138 533:0.0138 535:0.0138 536:0.0138 537:0.0138 538:0.0276 545:0.0138 546:0.0138 547:0.0138 549:0.0276 550:0.0414 551:0.0138 555:0.0138 561:0.0138 562:0.0414 564:0.0414 568:0.0276 569:0.0138 575:0.0138 576:0.0138 577:0.0138 578:0.0138 582:0.0138 585:0.0138 588:0.0276 589:0.0138 590:0.0276 592:0.0138 593:0.0414 594:0.0138 596:0.0276 600:0.0138 601:0.0138 602:0.0138 604:0.0276 605:0.0138 606:0.0138 613:0.0138 615:0.0138 616:0.0276 617:0.0414 618:0.0138 621:0.0138 622:0.0276 626:0.0138 628:0.0138 641:0.0414 646:0.0138 649:0.0138 655:0.0138 656:0.0138 658:0.0138 665:0.0276 667:0.0138 671:0.0138 672:0.0138 673:0.0138 674:0.0276 677:0.0138 679:0.0276 680:0.0138 682:0.0276 685:0.0138 687:0.0138 689:0.0138 690:0.0138 696:0.0138 697:0.0276 700:0.0138 701:0.0138 703:0.0138 704:0.0138 707:0.0138 708:0.0276 711:0.0276 716:0.0138 717:0.0138 718:0.0138 720:0.0138 721:0.0276 725:0.0138 738:0.0138 740:0.0276 741:0.0138 743:0.0276 749:0.0138 752:0.0138 753:0.0138 757:0.0138 760:0.0138 762:0.0138 766:0.0276 767:0.0138 768:0.05521 769:0.06901 772:0.0138 773:0.0138 777:0.0276 778:0.0138 779:0.0138 783:0.0138 785:0.0414 787:0.0414 788:0.0276 795:0.0138 797:0.0138 798:0.0138 800:0.0138 801:0.0138 804:0.0414 808:0.0138 810:0.0138 813:0.0138 818:0.0138 819:0.0414 820:0.05521 821:0.0138 822:0.0276 824:0.0414 825:0.0138 827:0.0138 828:0.0414 829:0.0138 830:0.0276 831:0.0276 832:0.0276 837:0.0138 840:0.0276 844:0.0276 845:0.0138 847:0.0138 848:0.0138 853:0.0138 855:0.0276 858:0.0414 859:0.0138 860:0.0138 861:0.0138 863:0.0138 865:0.0138 868:0.0276 870:0.0414 873:0.0138 874:0.0414 875:0.0138 877:0.0276 881:0.0138 882:0.0138 884:0.0414 887:0.0138 890:0.0138 894:0.0138 895:0.0276 896:0.0138 897:0.0414 899:0.0138 901:0.0138 905:0.0138 906:0.0414 908:0.0276 909:0.0138 912:0.0276 913:0.0138 915:0.0138 917:0.0276 918:0.0138 919:0.0414 921:0.0138 923:0.0276 926:0.0138 927:0.0414 929:0.0276 930:0.0138 935:0.0414 936:0.0276 937:0.0138 938:0.0138 940:0.0138 944:0.0276 947:0.0138 948:0.0276 949:0.0138 950:0.0138 953:0.0414 955:0.0138 957:0.0138 960:0.0138 964:0.05521 967:0.0138 968:0.0276 969:0.0138 971:0.0138 972:0.0138 976:0.0138 978:0.0138 979:0.0138 981:0.0276 983:0.0276 987:0.0276 990:0.0276 991:0.0138 992:0.0138 994:0.0138 995:0.0138 999:0.0138 1002:0.0138 1005:0.0138 1006:0.0138 1007:0.0138 1008:0.0276 1011:0.0414 1012:0.0138 1013:0.0414 1014:0.0276 1015:0.0276 1017:0.0138 1018:0.0276 1019:0.0138 1020:0.0138 1021:0.0138 1022:0.0414 1023:0.0276 1024:0.0414 1025:0.05521 1026:0.0138 1027:0.0276 1028:0.0276 1029:0.0276 1032:0.0138 1033:0.0138 1035:0.05521 1037:0.0138 1039:0.0276 1040:0.0276 1041:0.0276 1042:0.0138 1045:0.0138 1046:0.0276 1048:0.0138 1049:0.0138 1050:0.0138 1051:0.0276 1053:0.0138 1058:0.0276 1060:0.0276 1062:0.0276 1067:0.0276 1070:0.0138 1074:0.0138 1076:0.0276 1077:0.0138 1080:0.0138 1082:0.0414 1088:0.0138 1092:0.0138 1094:0.0138 1095:0.0138 1097:0.0138 1102:0.0138 1103:0.0276 1104:0.0138 1111:0.0138 1112:0.0138 1113:0.0276 1116:0.0276 1117:0.0138 1119:0.0138 1120:0.0138 1125:0.0414 1127:0.0138 1131:0.0138 1132:0.0138 1136:0.0138 1137:0.0138 1141:0.0138 1142:0.0138 1145:0.0138 1146:0.0138 1152:0.0414 1154:0.0138 1155:0.0138 1156:0.0138 1157:0.0414 1159:0.0138 1161:0.0138 1162:0.0276 1163:0.0138 1165:0.0138 1169:0.0138 1171:0.0138 1172:0.0414 1173:0.0276 1175:0.0276 1176:0.0138 1178:0.0276 1188:0.0138 1191:0.0138 1193:0.0138 1194:0.0138 1195:0.0276 1199:0.0138 1200:0.0138 1206:0.0138 1209:0.0138 1210:0.0138 1213:0.0138 1216:0.0414 1217:0.05521 1221:0.0276 1229:0.0414 1232:0.0276 1238:0.0276 1239:0.0276 1240:0.0138 1241:0.0138 1242:0.0414 1243:0.0276 1244:0.0138 1246:0.0138 1249:0.0276 1251:0.0138 1252:0.0138 1254:0.0138 1258:0.0138 1259:0.0414 1262:0.0138 1263:0.0276 1265:0.0138 1266:0.0138 1268:0.0138 1269:0.0138 1270:0.0138 1271:0.0138 1272:0.0138 1274:0.0138 1276:0.0276 1278:0.05521 1279:0.0276 1280:0.0138 1281:0.0414 1283:0.0138 1284:0.0138 1286:0.0414 1287:0.0276 1290:0.0138 1291:0.0138 1292:0.0138 1296:0.0138 1297:0.0138 1300:0.0138 1302:0.0138 1306:0.0138 1313:0.0138 1315:0.0138 1317:0.0414 1318:0.0138 1324:0.0138 1326:0.0138 1329:0.0414 1332:0.0138 1335:0.0414 1337:0.0276 1338:0.0138 1340:0.0138 1342:0.0138 1344:0.0138 1347:0.0138 1353:0.0138 1359:0.0414 1369:0.0138 1371:0.0138 1375:0.0276 1377:0.0138 1380:0.0138 1385:0.0138 1386:0.0414 1388:0.0138 1391:0.0138 1392:0.0276 1397:0.0138 1398:0.0138 1400:0.0138 1401:0.0138 1402:0.0276 1404:0.0138 1406:0.0138 1407:0.0276 1408:0.0138 1409:0.0414 1412:0.0276 1414:0.0276 1417:0.0276 1421:0.0276 1423:0.0276 1424:0.0138 1426:0.0138 1427:0.0276 1428:0.0276 1429:0.0276 1431:0.0414 1432:0.0138 1435:0.0276 1438:0.0414 1440:0.0138 1443:0.0138 1444:0.0138 1445:0.0138 1446:0.0276 1447:0.0414 1449:0.0138 1450:0.0138 1451:0.0138 1452:0.0276 1453:0.0138 1457:0.0138 1459:0.0138 1460:0.0138 1461:0.0138 1463:0.0276 1468:0.0276 1469:0.0138 1471:0.0276 1472:0.0276 1473:0.0138 1474:0.0138 1476:0.0138 1477:0.0138 1479:0.0138 1486:0.0138 1490:0.0138 1493:0.0138 1495:0.0138 1500:0.0138 1503:0.0138 1505:0.0138 1509:0.0138 1510:0.0276 1513:0.0138 1518:0.0138 1520:0.0276 1522:0.0138 1523:0.0138 1524:0.0138 1525:0.0276 1527:0.0138 1531:0.0138 1532:0.0138 1533:0.0138 1535:0.05521 1536:0.0138 1537:0.0138 1538:0.0276 1540:0.0276 1542:0.0138 1547:0.0138 1549:0.0138 1551:0.0138 1553:0.0138 1554:0.0138 1558:0.0276 1559:0.0414 1563:0.0276 1569:0.0138 1570:0.0138 1572:0.0138 1574:0.0138 1578:0.0138 1581:0.0276 1585:0.0138 1586:0.0276 1593:0.0276 1594:0.0276 1595:0.0414 1597:0.0138 1600:0.0276 1601:0.0276 1602:0.0138 1604:0.0138 1608:0.0276 1609:0.0276 1610:0.0276 1614:0.0138 1616:0.0276 1617:0.0138 1618:0.0138 1619:0.0138 1620:0.0414 1623:0.0138 1624:0.0276 1625:0.0276 1626:0.0138 1627:0.0414 1628:0.0138 1630:0.0138 1631:0.0138 1632:0.0138 1637:0.0138 1638:0.0138 1639:0.0276 1640:0.0138 1642:0.0138 1644:0.0138 1646:0.0138 1647:0.0138 1648:0.0138 1649:0.0276 1653:0.0414 1654:0.0138 1656:0.0138 1658:0.0276 1661:0.0138 1664:0.0138 1665:0.0138 1668:0.0276 1669:0.0138 1674:0.0138 1675:0.0138 1676:0.0276 1677:0.0414 1679:0.0276 1681:0.0276 1682:0.0138 1684:0.0414 1685:0.0138 1686:0.0138 1687:0.0276 1689:0.0414 1691:0.0414 1692:0.0138 1693:0.0138 1694:0.0138 1695:0.0276 1697:0.0138 1700:0.0276 1701:0.0138 1702:0.0138 1703:0.0138 1706:0.0138 1708:0.0138 1711:0.0138 1712:0.0138 1713:0.0138 1714:0.0138 1719:0.0414 1720:0.0138 1721:0.0138 1722:0.0138 1724:0.0276 1726:0.05521 1729:0.0138 1730:0.0138 1731:0.0138 1732:0.0138 1734:0.0138 1736:0.0276 1737:0.0138 1739:0.0138 1742:0.0138 1746:0.0138 1747:0.0138 1754:0.0276 1758:0.0138 1759:0.0138 1760:0.0138 1766:0.0138 1770:0.0138 1774:0.0276 1775:0.0138 1776:0.0276 1777:0.0138 1782:0.0138 1787:0.0276 1788:0.0276 1790:0.0138 1792:0.0276 1795:0.0276 1796:0.0414 1797:0.0414 1798:0.0138 1803:0.0138 1808:0.0414 1809:0.0276 1810:0.0138 1812:0.0138 1818:0.0138 1819:0.0138 1821:0.0138 1827:0.0138 1840:0.0138 1842:0.0138 1844:0.0414 1846:0.0276 1856:0.0138 1857:0.0276 1860:0.0138 1862:0.0276 1870:0.0414 1871:0.0138 1872:0.0276 1873:0.0138 1874:0.0138 1881:0.0138 1882:0.0276 1883:0.0138 1888:0.0138 1890:0.0138 1894:0.0276 1898:0.0138 1900:0.0138 1901:0.0138 1902:0.0138 1905:0.0276 1907:0.0138 1910:0.0138 1912:0.0138 1913:0.0138 1915:0.0138 1916:0.0276 1917:0.0138 1921:0.0138 1922:0.0138 1923:0.0276 1924:0.0138 1927:0.0138 1933:0.0276 1938:0.0138 1939:0.0276 1940:0.0138 1941:0.0138 1942:0.0414 1946:0.0138 1947:0.0276 1948:0.0138 1950:0.0276 1951:0.0138 1953:0.0414 1957:0.0138 1959:0.0138 1964:0.0138 1966:0.0138 1968:0.0138 1972:0.0414 1974:0.0276 1980:0.0138 1981:0.0276 1986:0.0276 1991:0.0138 1992:0.0138 1994:0.0138 1998:0.0414 2000:0.0138 2003:0.0276 2004:0.0138 2009:0.0138 2015:0.0138 2018:0.0138 2021:0.0138 2025:0.0138 2026:0.0138 2027:0.0138 2029:0.0276 2032:0.0276 2034:0.0138 2035:0.0276 2037:0.0138 2038:0.0138 2040:0.0276 2041:0.0138 2042:0.0276 2043:0.0138 2044:0.0138 2045:0.0276 2047:0.0276 2048:0.0276 2050:0.05521 2052:0.0414 2053:0.0276 2055:0.0138 2056:0.0276 2057:0.0138 2060:0.0414 2061:0.0276 2062:0.0138 2063:0.05521 2066:0.0138 2069:0.0276 2071:0.05521 2076:0.0138 2078:0.0138 2080:0.0138 2081:0.0138 2084:0.0138 2090:0.0138 2091:0.0138 2092:0.0138 2098:0.0138 2100:0.0276 2101:0.0138 2102:0.0138 2105:0.0138 2106:0.0138 2107:0.0138 2108:0.0138 2110:0.0276 2112:0.0138 2113:0.0138 2114:0.0276 2116:0.0138 2118:0.0276 2119:0.0276 2121:0.0138 2123:0.0138 2127:0.0138 2128:0.0138 2129:0.0138 2131:0.0138 2133:0.0276 2134:0.0138 2137:0.0138 2138:0.0276 2140:0.0138 2144:0.0138 2147:0.0138 2151:0.0138 2152:0.0276 2154:0.0276 2156:0.0138 2161:0.0138 2171:0.0138 2175:0.0138 2178:0.0276 2180:0.0276 2182:0.0138 2183:0.0138 2185:0.0138 2186:0.0138 2190:0.0138 2191:0.0138 2194:0.0138 2195:0.0276 2196:0.0138 2197:0.0414 2198:0.0138 2199:0.0138 2202:0.0138 2203:0.0414 2204:0.0138 2215:0.0138 2216:0.0138 2217:0.0276 2218:0.0138 2226:0.0276 2228:0.0138 2234:0.0138 2236:0.0138 2238:0.0138 2240:0.0138 2242:0.0138 2243:0.0414 2245:0.05521 2247:0.0138 2248:0.0138 2249:0.0138 2251:0.0138 2253:0.0138 2254:0.05521 2256:0.0138 2269:0.0138 2270:0.0138 2275:0.0414 2278:0.0414 2279:0.0138 2280:0.0276 2281:0.0138 2282:0.0276 2287:0.0138 2289:0.0138 2290:0.0138 2293:0.0138 2294:0.0138 2297:0.0138 2300:0.0138 2301:0.0138 2302:0.0138 2304:0.0276 2305:0.0276 2306:0.0276 2307:0.0276 2308:0.0276 2309:0.0138 2310:0.0138 2312:0.0138 2313:0.0138 2319:0.0138 2322:0.0138 2327:0.0138 2330:0.0138 2334:0.0138 2335:0.0138 2336:0.0138 2338:0.0276 2340:0.0138 2341:0.0138 2342:0.0414 2343:0.0276 2346:0.0138 2347:0.0276 2351:0.0138 2352:0.0276 2354:0.0138 2358:0.05521 2359:0.0276 2363:0.0138 2365:0.0276 2366:0.0138 2367:0.0414 2368:0.0138 2369:0.0276 2370:0.0276 2371:0.0138 2372:0.0138 2373:0.0138 2374:0.0138 2375:0.0138 2378:0.0138 2380:0.0138 2381:0.0276 2382:0.0276 2383:0.0138 2388:0.0138 2391:0.0138 2392:0.0276 2395:0.0138 2396:0.0276 2398:0.0138 2399:0.0138 2400:0.0276 2401:0.0276 2403:0.0138 2404:0.0414 2405:0.0138 2406:0.0276 2407:0.0138 2408:0.0138 2409:0.0138 2410:0.0276 2411:0.0414 2413:0.0138 2414:0.0276 2416:0.0138 2420:0.0138 2422:0.0138 2423:0.0138 2426:0.0138 2429:0.0138 2430:0.0138 2434:0.0138 2437:0.0138 2438:0.0276 2439:0.0276 2442:0.0138 2444:0.0138 2447:0.0414 2449:0.0276 2451:0.0138 2453:0.0138 2454:0.0138 2458:0.0276 2460:0.0414 2461:0.0138 2462:0.0138 2463:0.0276 2465:0.0276 2466:0.0138 2467:0.0276 2468:0.0414 2469:0.0276 2470:0.0138 2471:0.0138 2472:0.0138 2478:0.0276 2480:0.0276 2481:0.0138 2482:0.0138 2483:0.0138 2485:0.0138 2488:0.0276 2490:0.0138 2491:0.0138 2492:0.0276 2495:0.0138 2497:0.0138 2498:0.0138 2499:0.0138 2501:0.0138 2512:0.0138 2513:0.0276 2516:0.0414 2517:0.0138 2519:0.0138 2522:0.0138 2525:0.0276 2526:0.0138 2527:0.0276 2528:0.0138 2530:0.0138 2533:0.0276 2534:0.0276 2535:0.0276 2537:0.0138 2538:0.0138 2540:0.0276 2541:0.0138 2546:0.0138 2548:0.0138 2555:0.0138 2556:0.0138 2560:0.0138 2561:0.0414 2562:0.0276 2563:0.0138 2564:0.0276 2566:0.0414 2567:0.0138 2573:0.0276 2574:0.0138 2575:0.0138 2578:0.0138 2579:0.0276 2580:0.0138 2581:0.0138 2582:0.0138 2591:0.0138 2595:0.0138 2598:0.0138 2599:0.0138 2602:0.0138 2603:0.0138 2607:0.0138 2608:0.0138 2611:0.0276 2612:0.0276 2618:0.05521 2620:0.0138 2622:0.0138 2625:0.05521 2629:0.0138 2631:0.0138 2634:0.0276 2635:0.0276 2638:0.0414 2639:0.0138 2640:0.0276 2641:0.0138 2647:0.0138 2649:0.0138 2650:0.0138 2651:0.0276 2657:0.0138 2658:0.05521 2659:0.0276 2660:0.0414 2661:0.0138 2663:0.0138 2665:0.05521 2666:0.0276 2669:0.0138 2673:0.0138 2678:0.0138 2679:0.0138 2680:0.0414 2681:0.0138 2682:0.0414 2683:0.0138 2687:0.0276 2690:0.0276 2693:0.0276 2701:0.0138 2703:0.0276 2705:0.0276 2707:0.0414 2708:0.0138 2711:0.0138 2713:0.0276 2714:0.0138 2718:0.0138 2725:0.0414 2734:0.0138 2737:0.0138 2742:0.0138 2743:0.0276 2747:0.0138 2748:0.0138 2751:0.0276 2753:0.0414 2757:0.0138 2759:0.0138 2773:0.0138 2776:0.0138 2778:0.0276 2779:0.0276 2780:0.0138 2782:0.0138 2784:0.0276 2786:0.0138 2787:0.0276 2792:0.0138 2794:0.0138 2798:0.0276 2799:0.0138 2800:0.0138 2802:0.0138 2803:0.0138 2806:0.0414 2807:0.0138 2808:0.0276 2810:0.0138 2811:0.0414 2816:0.0138 2817:0.0414 2818:0.0138 2819:0.0138 2822:0.0138 2826:0.0138 2827:0.0138 2829:0.0138 2830:0.0138 2831:0.0138 2834:0.0138 2839:0.0138 2840:0.0138 2841:0.0276 2842:0.0138 2846:0.0276 2850:0.0138 2852:0.0138 2856:0.0138 2860:0.0276 2861:0.0138 2864:0.0138 2867:0.0138 2868:0.0138 2869:0.0138 2871:0.0276 2872:0.0414 2874:0.0138 2876:0.0138 2878:0.0138 2879:0.0138 2883:0.0138 2884:0.0138 2886:0.0138 2888:0.0138 2890:0.0138 2893:0.0138 2897:0.0276 2900:0.0138 2904:0.0276 2906:0.0138 2912:0.0138 2915:0.0138 2917:0.0138 2918:0.05521 2924:0.0276 2925:0.0138 2930:0.0138 2935:0.0138 2936:0.0138 2937:0.0138 2938:0.0276 2940:0.0138 2943:0.0276 2944:0.0138 2945:0.0138 2948:0.0138 2949:0.0138 2951:0.0138 2953:0.0138 2955:0.0138 2957:0.0138 2960:0.0276 2963:0.0138 2967:0.0138 2968:0.0138 2971:0.0138 2972:0.0138 2974:0.0138 2979:0.0138 2981:0.0138 2983:0.0138 2984:0.0138 2994:0.0138 2995:0.0138 2997:0.0138 2998:0.0138 2999:0.0138 3000:0.0138 3002:0.0138 3004:0.0138 3006:0.0138 3007:0.0138 3008:0.0414 3009:0.0138 3011:0.0276 3015:0.0138 3018:0.0138 3019:0.0138 3020:0.0276 3022:0.0138 3027:0.0138 3029:0.0276 3030:0.0276 3034:0.0138 3038:0.0276 3039:0.0138 3040:0.0138 3045:0.0138 3047:0.0138 3048:0.0138 3049:0.0276 3050:0.0276 3052:0.0138 3053:0.0276 3054:0.0276 3058:0.0138 3061:0.0138 3062:0.0276 3063:0.0276 3066:0.0276 3068:0.0138 3069:0.0414 3070:0.05521 3071:0.0138 3072:0.0276 3073:0.0414 3074:0.0414 3075:0.0276 3076:0.0138 3077:0.0138 3081:0.0138 3083:0.0138 3084:0.0138 3086:0.0138 3088:0.0414 3089:0.0276 3091:0.0276 3092:0.0138 3093:0.0138 3096:0.0138 3099:0.0138 3103:0.0138 3105:0.0138 3107:0.0138 3109:0.0138 3111:0.0138 3113:0.0138 3114:0.0138 3116:0.0138 3117:0.0138 3120:0.0138 3124:0.0138 3125:0.0138 3127:0.0138 3129:0.0138 3130:0.0276 3133:0.0276 3136:0.0414 3137:0.0138 3138:0.0276 3139:0.0276 3140:0.0138 3141:0.0138 3144:0.0138 3145:0.0276 3146:0.0138 3149:0.0414 3160:0.0138 3163:0.0138 3164:0.0138 3165:0.0138 3168:0.0138 3170:0.0138 3171:0.0138 3172:0.0276 3173:0.0138 3174:0.0138 3176:0.0138 3177:0.0138 3178:0.0138 3180:0.0138 3186:0.0138 3188:0.0138 3189:0.0138 3191:0.0276 3197:0.0138 3200:0.0414 3201:0.0138 3205:0.0138 3209:0.0138 3210:0.0276 3213:0.0414 3214:0.0138 3216:0.0138 3223:0.0138 3226:0.0138 3228:0.0138 3229:0.0276 3233:0.0138 3236:0.0138 3240:0.0138 3245:0.0138 3247:0.0138 3248:0.0138 3251:0.0138 3252:0.0138 3253:0.0138 3257:0.0138 3263:0.0138 3264:0.0414 3269:0.0138 3272:0.0138 3273:0.0414 3276:0.0138 3277:0.0276 3278:0.0138 3279:0.0414 3280:0.0276 3282:0.0138 3283:0.0276 3284:0.0138 3286:0.0138 3287:0.0414 3289:0.0138 3291:0.0276 3293:0.0414 3295:0.0138 3296:0.0414 3298:0.0138 3300:0.0138 3304:0.0138 3305:0.0138 3306:0.0276 3308:0.0138 3309:0.0414 3312:0.0138 3314:0.0138 3318:0.0276 3319:0.0138 3321:0.0138 3324:0.0276 3326:0.0276 3327:0.0138 3328:0.05521 3329:0.0138 3331:0.0138 3332:0.0138 3337:0.0138 3341:0.0138 3342:0.0138 3348:0.0414 3351:0.0138 3352:0.0276 3357:0.0138 3359:0.0138 3360:0.0138 3361:0.0138 3362:0.0138 3363:0.0138 3366:0.0138 3371:0.0138 3375:0.0138 3376:0.0276 3377:0.0138 3380:0.0138 3383:0.0276 3384:0.0138 3385:0.0276 3387:0.0276 3389:0.0138 3390:0.0138 3392:0.0414 3393:0.0276 3394:0.0276 3395:0.0138 3397:0.0138 3401:0.0138 3402:0.0138 3403:0.0138 3405:0.0138 3406:0.0138 3408:0.0138 3412:0.0138 3417:0.0138 3419:0.0138 3420:0.0138 3422:0.0276 3423:0.0138 3428:0.0138 3429:0.0138 3430:0.05521 3432:0.0414 3434:0.0138 3435:0.0138 3437:0.0138 3440:0.0138 3441:0.0276 3452:0.0138 3453:0.0138 3456:0.0414 3459:0.0138 3461:0.0138 3465:0.0138 3469:0.0138 3471:0.0138 3472:0.0138 3476:0.0138 3477:0.0414 3478:0.0276 3479:0.0414 3480:0.0276 3491:0.0138 3493:0.0276 3494:0.0138 3495:0.0276 3496:0.0138 3497:0.0138 3499:0.0138 3502:0.0138 3503:0.0276 3504:0.0276 3505:0.0276 3506:0.0276 3512:0.0138 3519:0.0138 3520:0.0138 3521:0.0276 3524:0.0138 3525:0.0138 3527:0.0138 3532:0.0138 3533:0.0414 3534:0.0138 3538:0.0138 3540:0.0138 3544:0.0138 3545:0.0138 3547:0.0276 3549:0.0138 3550:0.0138 3551:0.0138 3553:0.0414 3559:0.0276 3560:0.0138 3561:0.0138 3563:0.0138 3565:0.0276 3566:0.0138 3567:0.0138 3572:0.0276 3573:0.0138 3576:0.0138 3577:0.0138 3578:0.0138 3580:0.0276 3581:0.0138 3582:0.0138 3583:0.0138 3584:0.0276 3585:0.0138 3586:0.0138 3587:0.0138 3588:0.0414 3592:0.0138 3593:0.0138 3595:0.0276 3598:0.0138 3599:0.0138 3602:0.0138 3604:0.0138 3610:0.0138 3611:0.0138 3613:0.0138 3616:0.0138 3617:0.0276 3621:0.0276 3623:0.0414 3627:0.0138 3629:0.0138 3631:0.0138 3632:0.0138 3633:0.0276 3634:0.0138 3636:0.0138 3645:0.0138 3646:0.0138 3647:0.0138 3648:0.0138 3649:0.0138 3650:0.0138 3651:0.0138 3656:0.0138 3658:0.0276 3659:0.0138 3660:0.0138 3664:0.0276 3665:0.0138 3666:0.0138 3667:0.0138 3669:0.0138 3670:0.0414 3671:0.0138 3672:0.0138 3673:0.0276 3674:0.0276 3675:0.0138 3676:0.0138 3680:0.0138 3682:0.0138 3686:0.0138 3687:0.0138 3688:0.0138 3689:0.0138 3690:0.0138 3692:0.0414 3693:0.0138 3695:0.0414 3701:0.0276 3704:0.0276 3706:0.0138 3707:0.0414 3708:0.0138 3709:0.0138 3713:0.05521 3714:0.0276 3716:0.0276 3717:0.0138 3718:0.0138 3720:0.0138 3722:0.0138 3723:0.0138 3731:0.0138 3732:0.0276 3735:0.0138 3737:0.0414 3738:0.0138 3739:0.0276 3742:0.0414 3743:0.0276 3744:0.0138 3748:0.0138 3749:0.0138 3758:0.0276 3760:0.0138 3766:0.0138 3768:0.0138 3773:0.0138 3774:0.0276 3775:0.0138 3777:0.0138 3782:0.0138 3785:0.0138 3786:0.0138 3787:0.0138 3788:0.0138 3789:0.0138 3790:0.05521 3791:0.0276 3792:0.0138 3794:0.0138 3796:0.0138 3797:0.0138 3798:0.0276 3799:0.0138 3801:0.0138 3802:0.0138 3805:0.0138 3807:0.0414 3809:0.0276 3812:0.0138 3814:0.0138 3817:0.0138 3818:0.0138 3821:0.0138 3824:0.0138 3825:0.0138 3827:0.0414 3828:0.0138 3832:0.0138 3834:0.0138 3836:0.0276 3837:0.0138 3838:0.0276 3839:0.0276 3840:0.0414 3841:0.0138 3845:0.0138 3847:0.0138 3848:0.0138 3852:0.0276 3854:0.0138 3855:0.0138 3856:0.0276 3857:0.0138 3862:0.0138 3863:0.0138 3864:0.0138 3865:0.0276 3866:0.0138 3867:0.0138 3872:0.0414 3875:0.0276 3876:0.0138 3878:0.0138 3879:0.0276 3881:0.0276 3884:0.0138 3886:0.0138 3887:0.0138 3888:0.0276 3893:0.0276 3895:0.0138 3896:0.0138 3897:0.0138 3899:0.0414 3904:0.05521 3905:0.0138 3909:0.0276 3913:0.0414 3915:0.0138 3916:0.0138 3919:0.0276 3920:0.0276 3921:0.0276 3923:0.0414 3924:0.0276 3927:0.0138 3928:0.0138 3930:0.0276 3932:0.0138 3933:0.0138 3936:0.0276 3940:0.0138 3942:0.0138 3946:0.0276 3947:0.0138 3948:0.0276 3952:0.0276 3956:0.0138 3957:0.0276 3959:0.0138 3960:0.0138 3961:0.0138 3963:0.0138 3964:0.0138 3965:0.0138 3966:0.0138 3968:0.0414 3969:0.0138 3976:0.0276 3978:0.0276 3980:0.0138 3985:0.0276 3988:0.0138 3990:0.0276 3991:0.0276 3994:0.0276 3996:0.0276 3999:0.0138 4000:0.0138 4001:0.0276 4002:0.0276 4003:0.0138 4005:0.0138 4006:0.0138 4007:0.0138 4008:0.0414 4012:0.0138 4014:0.0138 4016:0.0138 4017:0.0138 4019:0.0276 4020:0.0414 4023:0.0138 4024:0.0414 4027:0.0138 4029:0.0276 4031:0.0276 4032:0.05521 4034:0.0138 4037:0.0138 4038:0.0414 4039:0.0138 4041:0.0276 4042:0.0138 4043:0.0138 4044:0.0138 4047:0.05521 4048:0.0276 4049:0.0138 4050:0.0138 4051:0.0138 4052:0.0414 4053:0.05521 4055:0.0138 4056:0.0414 4059:0.0414 4060:0.0276 4061:0.0138 4064:0.0414 4065:0.0138 4067:0.0276 4069:0.0138 4070:0.05521 4071:0.0276 4072:0.0138 4073:0.0276 4074:0.0276 4076:0.0138 4077:0.0138 4078:0.0138 4080:0.05521 4081:0.0138 4082:0.0414 4084:0.06901 4085:0.0138 4086:0.0414 4087:0.0138 4088:0.0276 4089:0.0138 4090:0.0276 4091:0.0414 4092:0.0414 4093:0.0414 4095:0.05521 4096:0.0276 
2 1:0.03352 2:0.03352 3:0.04469 4:0.05587 5:0.04469 6:0.02235 7:0.01117 8:0.04469 9:0.06704 10:0.01117 12:0.03352 13:0.08939 14:0.03352 15:0.04469 16:0.14525 17:0.02235 18:0.03352 20:0.04469 21:0.01117 22:0.01117 23:0.01117 25:0.01117 27:0.01117 31:0.01117 32:0.04469 33:0.03352 34:0.01117 35:0.02235 36:0.03352 37:0.01117 40:0.02235 41:0.02235 42:0.01117 45:0.04469 47:0.02235 48:0.02235 49:0.08939 50:0.01117 51:0.02235 52:0.12291 53:0.03352 54:0.01117 57:0.02235 58:0.02235 60:0.05587 61:0.04469 62:0.04469 63:0.07821 64:0.06704 65:0.07821 66:0.01117 67:0.02235 68:0.05587 69:0.03352 70:0.01117 71:0.01117 74:0.02235 75:0.01117 77:0.02235 80:0.02235 81:0.02235 84:0.01117 87:0.01117 89:0.01117 96:0.01117 97:0.01117 104:0.01117 105:0.01117 106:0.01117 113:0.01117 116:0.01117 117:0.01117 118:0.01117 119:0.01117 121:0.02235 125:0.03352 126:0.02235 127:0.01117 128:0.02235 129:0.04469 130:0.01117 131:0.04469 132:0.03352 133:0.01117 137:0.01117 140:0.02235 141:0.03352 142:0.01117 146:0.01117 148:0.01117 153:0.01117 154:0.01117 157:0.02235 159:0.02235 161:0.02235 164:0.01117 168:0.01117 173:0.03352 176:0.01117 177:0.01117 178:0.03352 179:0.01117 180:0.02235 181:0.01117 185:0.03352 188:0.01117 190:0.02235 191:0.02235 192:0.04469 193:0.10056 194:0.02235 195:0.01117 196:0.03352 197:0.01117 200:0.03352 201:0.02235 204:0.01117 205:0.04469 206:0.01117 207:0.05587 208:0.08939 209:0.02235 211:0.03352 212:0.02235 213:0.01117 215:0.01117 217:0.01117 221:0.01117 225:0.01117 226:0.01117 228:0.01117 229:0.03352 230:0.02235 231:0.01117 232:0.01117 237:0.02235 238:0.01117 239:0.01117 240:0.02235 241:0.02235 242:0.02235 244:0.03352 245:0.01117 246:0.01117 247:0.02235 248:0.01117 249:0.10056 250:0.01117 251:0.01117 252:0.02235 253:0.02235 254:0.02235 255:0.04469 256:0.14525 257:0.08939 258:0.01117 259:0.02235 260:0.03352 261:0.04469 262:0.01117 264:0.01117 265:0.01117 267:0.01117 268:0.01117 269:0.04469 270:0.01117 272:0.02235 273:0.03352 274:0.04469 275:0.01117 280:0.03352 284:0.01117 286:0.01117 288:0.01117 289:0.01117 291:0.02235 293:0.01117 295:0.01117 296:0.02235 300:0.02235 302:0.01117 305:0.02235 307:0.01117 308:0.05587 312:0.01117 316:0.02235 318:0.01117 320:0.05587 321:0.04469 322:0.01117 324:0.01117 330:0.01117 335:0.01117 347:0.01117 350:0.01117 353:0.01117 365:0.01117 369:0.02235 370:0.01117 372:0.01117 380:0.02235 381:0.02235 382:0.01117 383:0.01117 385:0.01117 397:0.02235 404:0.03352 409:0.01117 415:0.01117 420:0.01117 421:0.01117 431:0.01117 437:0.01117 439:0.01117 442:0.01117 444:0.01117 449:0.03352 450:0.01117 455:0.01117 456:0.01117 461:0.02235 464:0.01117 465:0.01117 468:0.01117 469:0.01117 473:0.02235 479:0.01117 480:0.02235 481:0.05587 484:0.01117 495:0.01117 497:0.01117 499:0.01117 500:0.01117 501:0.03352 502:0.01117 504:0.03352 505:0.01117 508:0.01117 509:0.02235 510:0.02235 511:0.01117 512:0.03352 513:0.02235 515:0.01117 516:0.02235 517:0.01117 521:0.01117 523:0.01117 524:0.03352 525:0.02235 526:0.01117 527:0.01117 528:0.01117 529:0.01117 532:0.01117 545:0.01117 546:0.01117 547:0.04469 549:0.01117 551:0.01117 555:0.01117 557:0.02235 558:0.01117 561:0.02235 562:0.02235 564:0.01117 568:0.02235 572:0.01117 573:0.01117 578:0.02235 579:0.01117 580:0.01117 581:0.03352 584:0.01117 586:0.01117 589:0.01117 592:0.01117 608:0.01117 609:0.01117 610:0.02235 611:0.01117 615:0.02235 624:0.01117 625:0.02235 628:0.01117 629:0.01117 633:0.01117 635:0.01117 636:0.02235 637:0.01117 638:0.01117 640:0.02235 641:0.03352 653:0.01117 663:0.01117 667:0.01117 671:0.01117 677:0.01117 685:0.01117 689:0.02235 690:0.01117 692:0.02235 693:0.01117 700:0.03352 703:0.01117 705:0.01117 706:0.01117 709:0.01117 710:0.01117 711:0.01117 712:0.02235 713:0.01117 716:0.01117 717:0.02235 719:0.01117 720:0.03352 721:0.01117 722:0.01117 724:0.01117 725:0.01117 729:0.01117 737:0.03352 738:0.01117 740:0.01117 741:0.01117 744:0.01117 751:0.02235 753:0.01117 754:0.01117 756:0.01117 759:0.02235 761:0.04469 764:0.01117 766:0.01117 768:0.04469 769:0.06704 770:0.02235 771:0.04469 772:0.03352 773:0.02235 774:0.01117 776:0.01117 777:0.02235 778:0.02235 779:0.02235 780:0.01117 781:0.02235 782:0.01117 784:0.03352 785:0.04469 786:0.02235 788:0.04469 790:0.01117 792:0.02235 797:0.01117 798:0.03352 800:0.02235 804:0.02235 805:0.02235 808:0.01117 812:0.01117 814:0.01117 815:0.01117 816:0.01117 817:0.02235 818:0.01117 819:0.02235 820:0.04469 821:0.01117 822:0.01117 824:0.01117 825:0.02235 826:0.01117 828:0.05587 829:0.02235 830:0.02235 831:0.03352 832:0.12291 833:0.01117 834:0.01117 836:0.04469 840:0.01117 841:0.02235 842:0.04469 844:0.01117 845:0.01117 847:0.01117 848:0.01117 849:0.01117 850:0.01117 858:0.01117 860:0.01117 864:0.01117 865:0.02235 868:0.02235 877:0.01117 878:0.01117 883:0.02235 884:0.02235 889:0.01117 893:0.01117 896:0.03352 900:0.02235 901:0.01117 904:0.01117 905:0.01117 908:0.01117 909:0.01117 912:0.02235 913:0.03352 916:0.02235 918:0.02235 919:0.01117 924:0.03352 926:0.01117 928:0.01117 934:0.01117 944:0.01117 945:0.03352 947:0.01117 948:0.04469 949:0.01117 952:0.01117 953:0.01117 954:0.01117 955:0.01117 960:0.04469 961:0.06704 965:0.01117 966:0.02235 970:0.01117 971:0.01117 973:0.02235 974:0.01117 976:0.03352 977:0.02235 979:0.02235 980:0.02235 981:0.01117 985:0.01117 987:0.02235 990:0.01117 991:0.01117 992:0.03352 993:0.05587 994:0.02235 995:0.02235 996:0.04469 997:0.03352 1000:0.01117 1004:0.01117 1005:0.01117 1007:0.01117 1008:0.05587 1009:0.05587 1010:0.03352 1011:0.01117 1012:0.03352 1013:0.02235 1015:0.02235 1016:0.02235 1017:0.04469 1019:0.03352 1020:0.03352 1021:0.10056 1022:0.05587 1023:0.10056 1024:0.05587 1025:0.04469 1026:0.02235 1027:0.02235 1028:0.10056 1029:0.01117 1033:0.01117 1034:0.01117 1036:0.01117 1037:0.03352 1038:0.01117 1039:0.02235 1040:0.04469 1041:0.07821 1042:0.01117 1043:0.01117 1048:0.01117 1053:0.01117 1054:0.01117 1055:0.01117 1056:0.02235 1057:0.03352 1063:0.01117 1068:0.01117 1071:0.01117 1072:0.01117 1073:0.02235 1075:0.01117 1076:0.03352 1077:0.01117 1078:0.01117 1079:0.01117 1081:0.01117 1082:0.02235 1085:0.02235 1087:0.04469 1088:0.07821 1089:0.04469 1090:0.01117 1092:0.01117 1093:0.02235 1094:0.01117 1096:0.02235 1097:0.01117 1098:0.01117 1100:0.01117 1102:0.01117 1103:0.01117 1104:0.01117 1116:0.01117 1117:0.02235 1119:0.01117 1127:0.01117 1134:0.02235 1138:0.01117 1140:0.01117 1143:0.01117 1145:0.02235 1150:0.01117 1151:0.01117 1152:0.02235 1156:0.01117 1161:0.02235 1164:0.01117 1167:0.01117 1169:0.02235 1170:0.02235 1176:0.01117 1177:0.02235 1180:0.01117 1181:0.01117 1182:0.01117 1184:0.02235 1197:0.01117 1199:0.01117 1201:0.01117 1202:0.01117 1205:0.01117 1210:0.02235 1215:0.01117 1216:0.01117 1217:0.01117 1219:0.02235 1221:0.02235 1224:0.01117 1226:0.01117 1229:0.02235 1230:0.01117 1232:0.05587 1233:0.01117 1237:0.01117 1241:0.01117 1247:0.01117 1249:0.01117 1252:0.01117 1254:0.01117 1260:0.01117 1261:0.01117 1263:0.01117 1265:0.01117 1269:0.02235 1272:0.01117 1273:0.01117 1274:0.02235 1277:0.02235 1278:0.01117 1279:0.02235 1280:0.04469 1281:0.03352 1284:0.03352 1285:0.03352 1289:0.01117 1296:0.01117 1299:0.01117 1300:0.01117 1306:0.01117 1317:0.01117 1320:0.01117 1333:0.01117 1337:0.01117 1345:0.01117 1346:0.01117 1377:0.01117 1386:0.01117 1394:0.01117 1400:0.01117 1409:0.01117 1412:0.02235 1432:0.01117 1433:0.01117 1434:0.01117 1447:0.01117 1452:0.01117 1458:0.01117 1469:0.01117 1472:0.01117 1473:0.01117 1476:0.01117 1477:0.01117 1479:0.01117 1485:0.01117 1489:0.01117 1490:0.01117 1497:0.01117 1501:0.01117 1518:0.01117 1520:0.01117 1521:0.01117 1524:0.02235 1528:0.01117 1532:0.01117 1533:0.01117 1534:0.02235 1537:0.03352 1538:0.01117 1539:0.02235 1540:0.02235 1543:0.01117 1544:0.02235 1549:0.01117 1552:0.02235 1553:0.01117 1555:0.01117 1562:0.01117 1564:0.01117 1565:0.01117 1573:0.01117 1578:0.01117 1583:0.01117 1584:0.01117 1585:0.02235 1589:0.01117 1594:0.01117 1599:0.01117 1613:0.01117 1614:0.01117 1616:0.01117 1627:0.01117 1630:0.01117 1633:0.01117 1634:0.02235 1640:0.02235 1641:0.01117 1642:0.01117 1647:0.01117 1651:0.01117 1656:0.01117 1658:0.02235 1660:0.01117 1661:0.01117 1663:0.01117 1667:0.01117 1677:0.01117 1680:0.01117 1681:0.01117 1684:0.01117 1688:0.01117 1689:0.01117 1697:0.01117 1712:0.01117 1721:0.01117 1728:0.01117 1730:0.01117 1736:0.01117 1739:0.01117 1740:0.01117 1746:0.01117 1749:0.01117 1754:0.02235 1765:0.01117 1769:0.01117 1776:0.01117 1779:0.01117 1783:0.01117 1789:0.01117 1792:0.01117 1793:0.04469 1795:0.01117 1796:0.01117 1797:0.01117 1799:0.01117 1804:0.01117 1805:0.01117 1806:0.01117 1812:0.01117 1818:0.02235 1821:0.01117 1824:0.01117 1828:0.02235 1829:0.01117 1831:0.01117 1842:0.02235 1844:0.02235 1845:0.01117 1852:0.01117 1855:0.01117 1856:0.02235 1858:0.01117 1860:0.02235 1861:0.01117 1869:0.02235 1874:0.01117 1889:0.02235 1890:0.01117 1896:0.01117 1905:0.01117 1906:0.01117 1912:0.04469 1913:0.01117 1916:0.02235 1918:0.01117 1920:0.02235 1921:0.02235 1922:0.01117 1924:0.02235 1933:0.02235 1934:0.02235 1936:0.03352 1938:0.01117 1950:0.01117 1958:0.01117 1965:0.01117 1970:0.01117 1973:0.01117 1974:0.01117 1975:0.01117 1978:0.01117 1979:0.01117 1980:0.01117 1982:0.02235 1983:0.01117 1987:0.04469 1989:0.01117 1994:0.01117 1997:0.01117 1998:0.03352 1999:0.02235 2000:0.01117 2001:0.03352 2002:0.04469 2007:0.01117 2013:0.01117 2016:0.04469 2018:0.01117 2022:0.01117 2024:0.01117 2025:0.01117 2029:0.01117 2032:0.02235 2035:0.01117 2036:0.04469 2037:0.02235 2039:0.02235 2040:0.01117 2042:0.01117 2044:0.02235 2045:0.04469 2047:0.02235 2048:0.04469 2049:0.03352 2050:0.02235 2052:0.05587 2053:0.02235 2054:0.01117 2056:0.01117 2058:0.01117 2059:0.02235 2060:0.02235 2061:0.03352 2063:0.01117 2064:0.02235 2065:0.01117 2067:0.02235 2069:0.01117 2074:0.01117 2080:0.02235 2081:0.03352 2083:0.01117 2088:0.01117 2092:0.01117 2093:0.03352 2094:0.01117 2095:0.01117 2096:0.02235 2097:0.02235 2098:0.02235 2100:0.02235 2101:0.01117 2106:0.02235 2108:0.01117 2109:0.01117 2112:0.04469 2113:0.01117 2114:0.01117 2117:0.02235 2121:0.01117 2122:0.01117 2123:0.01117 2125:0.01117 2128:0.01117 2129:0.01117 2141:0.01117 2148:0.01117 2149:0.01117 2159:0.02235 2161:0.01117 2164:0.01117 2168:0.01117 2172:0.01117 2174:0.01117 2177:0.01117 2180:0.01117 2181:0.01117 2185:0.03352 2186:0.01117 2195:0.01117 2196:0.01117 2201:0.01117 2207:0.01117 2209:0.01117 2214:0.01117 2215:0.01117 2220:0.01117 2228:0.03352 2230:0.01117 2236:0.01117 2237:0.02235 2239:0.01117 2241:0.01117 2242:0.01117 2243:0.03352 2244:0.01117 2245:0.03352 2246:0.02235 2250:0.01117 2253:0.01117 2255:0.01117 2256:0.01117 2258:0.01117 2259:0.02235 2265:0.01117 2269:0.01117 2272:0.01117 2277:0.01117 2279:0.01117 2282:0.01117 2287:0.01117 2289:0.01117 2291:0.01117 2292:0.01117 2296:0.01117 2297:0.02235 2300:0.01117 2303:0.01117 2304:0.03352 2305:0.02235 2307:0.01117 2309:0.02235 2313:0.01117 2314:0.01117 2317:0.01117 2319:0.02235 2320:0.01117 2321:0.01117 2323:0.01117 2324:0.01117 2332:0.01117 2335:0.02235 2343:0.02235 2354:0.02235 2356:0.01117 2358:0.01117 2359:0.01117 2361:0.01117 2365:0.01117 2366:0.02235 2367:0.02235 2368:0.02235 2378:0.01117 2382:0.01117 2385:0.01117 2397:0.01117 2401:0.01117 2407:0.01117 2411:0.01117 2416:0.01117 2421:0.01117 2423:0.01117 2432:0.01117 2433:0.02235 2437:0.03352 2439:0.02235 2442:0.01117 2457:0.01117 2459:0.01117 2461:0.01117 2464:0.01117 2465:0.01117 2468:0.01117 2470:0.01117 2483:0.02235 2487:0.01117 2491:0.01117 2494:0.01117 2499:0.01117 2500:0.01117 2505:0.02235 2509:0.01117 2510:0.01117 2511:0.01117 2513:0.01117 2522:0.01117 2525:0.01117 2526:0.01117 2532:0.04469 2533:0.01117 2536:0.01117 2538:0.01117 2540:0.01117 2542:0.01117 2543:0.01117 2544:0.02235 2546:0.01117 2548:0.02235 2549:0.01117 2554:0.01117 2558:0.01117 2559:0.01117 2560:0.01117 2561:0.03352 2566:0.01117 2572:0.01117 2576:0.01117 2579:0.01117 2585:0.01117 2590:0.01117 2608:0.01117 2610:0.01117 2612:0.01117 2618:0.01117 2623:0.01117 2624:0.01117 2627:0.01117 2639:0.01117 2640:0.02235 2643:0.01117 2644:0.01117 2650:0.01117 2654:0.01117 2658:0.01117 2665:0.01117 2681:0.01117 2690:0.01117 2693:0.01117 2708:0.02235 2740:0.01117 2752:0.01117 2753:0.03352 2756:0.02235 2757:0.01117 2760:0.01117 2765:0.01117 2766:0.02235 2769:0.02235 2785:0.01117 2797:0.01117 2799:0.01117 2800:0.01117 2804:0.01117 2806:0.01117 2812:0.01117 2814:0.01117 2816:0.02235 2817:0.04469 2820:0.03352 2821:0.01117 2824:0.01117 2826:0.01117 2829:0.01117 2832:0.02235 2833:0.01117 2835:0.01117 2837:0.01117 2840:0.01117 2843:0.01117 2845:0.01117 2847:0.01117 2848:0.03352 2851:0.01117 2859:0.01117 2860:0.01117 2861:0.01117 2863:0.01117 2865:0.04469 2867:0.02235 2868:0.01117 2869:0.02235 2870:0.01117 2872:0.02235 2873:0.01117 2874:0.02235 2877:0.01117 2878:0.02235 2880:0.01117 2881:0.02235 2882:0.01117 2883:0.01117 2884:0.02235 2885:0.01117 2888:0.01117 2893:0.01117 2896:0.01117 2897:0.01117 2898:0.01117 2901:0.01117 2915:0.01117 2918:0.01117 2919:0.02235 2920:0.02235 2936:0.01117 2944:0.01117 2945:0.02235 2947:0.04469 2951:0.01117 2952:0.01117 2955:0.01117 2958:0.01117 2961:0.01117 2963:0.01117 2973:0.01117 2975:0.02235 2976:0.01117 2978:0.01117 2979:0.01117 2980:0.01117 2996:0.02235 2997:0.02235 3001:0.01117 3004:0.04469 3005:0.01117 3007:0.01117 3008:0.03352 3009:0.03352 3015:0.01117 3016:0.01117 3017:0.01117 3020:0.01117 3021:0.01117 3022:0.01117 3024:0.02235 3025:0.01117 3027:0.01117 3030:0.01117 3033:0.03352 3040:0.01117 3041:0.01117 3042:0.01117 3043:0.01117 3044:0.01117 3048:0.02235 3049:0.01117 3051:0.01117 3052:0.01117 3053:0.03352 3054:0.01117 3055:0.01117 3056:0.01117 3057:0.01117 3060:0.02235 3061:0.03352 3063:0.01117 3068:0.01117 3069:0.04469 3070:0.02235 3071:0.02235 3072:0.03352 3073:0.05587 3074:0.04469 3075:0.04469 3076:0.10056 3077:0.02235 3079:0.01117 3081:0.02235 3083:0.01117 3084:0.02235 3085:0.08939 3087:0.02235 3088:0.02235 3089:0.05587 3090:0.01117 3093:0.01117 3099:0.01117 3101:0.01117 3102:0.02235 3105:0.03352 3108:0.01117 3109:0.01117 3111:0.01117 3112:0.01117 3113:0.01117 3116:0.02235 3120:0.03352 3121:0.03352 3122:0.01117 3124:0.02235 3125:0.02235 3128:0.01117 3130:0.01117 3134:0.01117 3135:0.02235 3136:0.04469 3137:0.02235 3138:0.03352 3139:0.01117 3140:0.01117 3141:0.01117 3142:0.01117 3145:0.01117 3149:0.05587 3151:0.01117 3152:0.02235 3153:0.03352 3155:0.01117 3160:0.01117 3165:0.01117 3167:0.01117 3168:0.03352 3172:0.01117 3173:0.02235 3180:0.01117 3185:0.02235 3186:0.01117 3189:0.01117 3192:0.02235 3193:0.02235 3198:0.03352 3200:0.04469 3203:0.01117 3210:0.01117 3211:0.01117 3213:0.02235 3214:0.01117 3216:0.01117 3217:0.02235 3218:0.01117 3226:0.01117 3231:0.01117 3232:0.02235 3242:0.01117 3245:0.01117 3246:0.01117 3247:0.02235 3250:0.01117 3251:0.01117 3252:0.01117 3253:0.01117 3255:0.01117 3257:0.02235 3261:0.01117 3263:0.01117 3265:0.04469 3266:0.01117 3267:0.01117 3268:0.02235 3269:0.04469 3270:0.01117 3272:0.02235 3274:0.01117 3275:0.01117 3276:0.02235 3277:0.02235 3278:0.01117 3279:0.02235 3280:0.04469 3281:0.03352 3283:0.02235 3284:0.01117 3287:0.01117 3288:0.01117 3292:0.02235 3293:0.02235 3296:0.03352 3298:0.01117 3299:0.02235 3300:0.01117 3301:0.01117 3303:0.01117 3304:0.01117 3309:0.05587 3310:0.01117 3312:0.02235 3313:0.02235 3314:0.01117 3315:0.01117 3316:0.02235 3317:0.03352 3319:0.01117 3320:0.02235 3321:0.01117 3322:0.01117 3324:0.04469 3325:0.08939 3326:0.03352 3327:0.03352 3328:0.08939 3329:0.04469 3332:0.04469 3336:0.04469 3340:0.01117 3341:0.01117 3342:0.02235 3343:0.01117 3344:0.10056 3345:0.02235 3346:0.01117 3348:0.01117 3351:0.01117 3357:0.02235 3360:0.03352 3363:0.01117 3364:0.01117 3365:0.02235 3366:0.01117 3368:0.01117 3373:0.02235 3375:0.02235 3376:0.02235 3377:0.01117 3378:0.01117 3380:0.02235 3386:0.01117 3387:0.01117 3391:0.01117 3392:0.02235 3393:0.01117 3394:0.01117 3395:0.01117 3397:0.02235 3399:0.01117 3409:0.01117 3417:0.01117 3430:0.01117 3431:0.01117 3440:0.01117 3445:0.01117 3453:0.01117 3456:0.02235 3457:0.04469 3458:0.03352 3460:0.01117 3464:0.01117 3467:0.01117 3468:0.02235 3470:0.01117 3471:0.01117 3472:0.01117 3479:0.01117 3482:0.01117 3483:0.01117 3484:0.01117 3486:0.01117 3487:0.02235 3488:0.01117 3493:0.01117 3497:0.01117 3504:0.01117 3505:0.01117 3510:0.01117 3520:0.01117 3521:0.01117 3522:0.01117 3528:0.01117 3530:0.02235 3536:0.02235 3540:0.01117 3550:0.03352 3551:0.02235 3552:0.01117 3556:0.02235 3565:0.01117 3566:0.01117 3567:0.01117 3569:0.02235 3572:0.02235 3573:0.03352 3576:0.01117 3578:0.01117 3579:0.01117 3580:0.01117 3581:0.02235 3583:0.01117 3584:0.06704 3585:0.02235 3586:0.03352 3587:0.02235 3588:0.02235 3589:0.02235 3593:0.03352 3594:0.01117 3596:0.03352 3597:0.03352 3599:0.02235 3600:0.01117 3602:0.02235 3603:0.01117 3604:0.01117 3605:0.01117 3608:0.01117 3612:0.01117 3613:0.01117 3615:0.01117 3616:0.01117 3617:0.01117 3624:0.01117 3625:0.01117 3626:0.01117 3629:0.01117 3632:0.01117 3633:0.02235 3634:0.02235 3635:0.01117 3636:0.01117 3637:0.02235 3639:0.01117 3643:0.01117 3645:0.02235 3646:0.01117 3647:0.01117 3648:0.03352 3649:0.03352 3652:0.03352 3655:0.01117 3656:0.01117 3658:0.01117 3661:0.01117 3662:0.01117 3664:0.03352 3669:0.01117 3672:0.01117 3673:0.01117 3676:0.01117 3693:0.02235 3694:0.01117 3699:0.01117 3700:0.02235 3703:0.01117 3704:0.01117 3705:0.02235 3707:0.01117 3708:0.01117 3709:0.01117 3712:0.01117 3716:0.01117 3719:0.01117 3720:0.01117 3724:0.01117 3727:0.01117 3728:0.01117 3733:0.02235 3746:0.01117 3749:0.01117 3761:0.03352 3762:0.01117 3765:0.01117 3773:0.01117 3774:0.01117 3776:0.01117 3777:0.03352 3779:0.01117 3780:0.01117 3782:0.01117 3784:0.01117 3787:0.01117 3789:0.04469 3790:0.03352 3791:0.02235 3792:0.01117 3793:0.03352 3796:0.01117 3798:0.01117 3802:0.03352 3806:0.01117 3808:0.01117 3809:0.02235 3810:0.01117 3811:0.01117 3816:0.03352 3817:0.02235 3821:0.01117 3822:0.02235 3823:0.02235 3824:0.03352 3825:0.02235 3826:0.01117 3827:0.01117 3828:0.02235 3829:0.02235 3832:0.01117 3834:0.02235 3835:0.03352 3836:0.04469 3837:0.02235 3838:0.02235 3839:0.01117 3840:0.04469 3841:0.08939 3842:0.01117 3844:0.05587 3845:0.02235 3848:0.01117 3849:0.02235 3851:0.01117 3852:0.01117 3853:0.02235 3854:0.01117 3855:0.01117 3856:0.02235 3857:0.02235 3860:0.03352 3861:0.03352 3864:0.02235 3865:0.01117 3871:0.01117 3872:0.01117 3873:0.01117 3875:0.01117 3880:0.02235 3884:0.02235 3885:0.02235 3886:0.01117 3888:0.01117 3889:0.02235 3890:0.04469 3892:0.02235 3893:0.02235 3895:0.02235 3896:0.02235 3897:0.01117 3900:0.02235 3901:0.03352 3902:0.02235 3903:0.02235 3904:0.08939 3905:0.05587 3906:0.01117 3908:0.05587 3909:0.02235 3910:0.01117 3912:0.03352 3916:0.05587 3919:0.01117 3920:0.01117 3921:0.01117 3927:0.01117 3930:0.01117 3934:0.01117 3936:0.02235 3937:0.04469 3939:0.02235 3940:0.02235 3943:0.01117 3944:0.01117 3946:0.01117 3947:0.01117 3948:0.01117 3952:0.01117 3953:0.01117 3957:0.01117 3960:0.01117 3964:0.01117 3965:0.03352 3966:0.03352 3967:0.03352 3968:0.03352 3969:0.05587 3970:0.01117 3971:0.03352 3972:0.02235 3973:0.03352 3974:0.02235 3976:0.01117 3978:0.01117 3979:0.01117 3980:0.01117 3981:0.03352 3983:0.01117 3984:0.02235 3985:0.02235 3986:0.01117 3988:0.03352 3991:0.01117 3997:0.02235 3999:0.02235 4001:0.01117 4002:0.01117 4004:0.01117 4009:0.01117 4010:0.01117 4013:0.03352 4014:0.01117 4016:0.02235 4017:0.02235 4018:0.01117 4020:0.04469 4023:0.01117 4024:0.01117 4025:0.02235 4026:0.01117 4028:0.03352 4029:0.05587 4030:0.01117 4031:0.07821 4032:0.02235 4033:0.06704 4034:0.03352 4036:0.06704 4037:0.03352 4038:0.03352 4040:0.01117 4041:0.01117 4043:0.01117 4044:0.03352 4045:0.04469 4046:0.01117 4047:0.01117 4048:0.10056 4049:0.05587 4050:0.02235 4051:0.02235 4056:0.03352 4057:0.04469 4058:0.02235 4059:0.01117 4060:0.01117 4062:0.01117 4064:0.04469 4065:0.05587 4066:0.02235 4068:0.01117 4069:0.03352 4073:0.01117 4075:0.01117 4076:0.04469 4077:0.02235 4078:0.01117 4079:0.04469 4080:0.07821 4081:0.08939 4082:0.04469 4083:0.04469 4084:0.06704 4085:0.02235 4086:0.03352 4087:0.03352 4088:0.02235 4089:0.04469 4090:0.02235 4091:0.03352 4092:0.08939 4093:0.05587 4094:0.03352 4095:0.04469 4096:0.03352 
1.362101808936288 1:0.1661 2:0.04746 4:0.07119 5:0.04746 10:0.02373 12:0.02373 13:0.02373 14:0.04746 15:0.02373 16:0.09492 17:0.04746 20:0.02373 21:0.02373 26:0.02373 29:0.02373 30:0.04746 32:0.02373 33:0.02373 38:0.02373 39:0.02373 48:0.04746 51:0.02373 53:0.02373 56:0.04746 59:0.02373 61:0.07119 63:0.04746 64:0.09492 65:0.04746 68:0.02373 71:0.02373 74:0.02373 77:0.02373 81:0.02373 84:0.02373 101:0.02373 104:0.02373 107:0.02373 113:0.07119 115:0.02373 117:0.04746 118:0.02373 128:0.04746 129:0.02373 131:0.02373 144:0.02373 145:0.04746 152:0.02373 156:0.02373 173:0.02373 177:0.02373 180:0.02373 183:0.02373 185:0.04746 190:0.02373 192:0.02373 199:0.02373 202:0.02373 211:0.02373 217:0.02373 221:0.02373 222:0.02373 224:0.02373 233:0.02373 236:0.02373 237:0.02373 239:0.02373 241:0.02373 242:0.04746 243:0.02373 244:0.02373 246:0.02373 247:0.02373 249:0.02373 252:0.07119 253:0.04746 254:0.02373 255:0.04746 256:0.09492 257:0.02373 259:0.02373 260:0.07119 261:0.02373 272:0.07119 273:0.02373 277:0.02373 281:0.04746 296:0.02373 305:0.02373 308:0.02373 315:0.02373 319:0.04746 321:0.02373 323:0.02373 325:0.02373 336:0.02373 337:0.02373 340:0.02373 345:0.02373 349:0.02373 353:0.02373 383:0.02373 385:0.02373 392:0.02373 393:0.02373 394:0.02373 397:0.02373 399:0.02373 401:0.04746 416:0.02373 418:0.02373 421:0.02373 422:0.02373 425:0.02373 434:0.02373 442:0.02373 449:0.07119 450:0.02373 452:0.02373 453:0.02373 456:0.02373 458:0.02373 465:0.02373 466:0.04746 468:0.02373 469:0.04746 478:0.02373 484:0.02373 504:0.02373 505:0.04746 507:0.04746 510:0.02373 512:0.02373 514:0.02373 521:0.02373 524:0.02373 547:0.02373 557:0.02373 562:0.04746 569:0.02373 574:0.02373 576:0.04746 577:0.04746 580:0.02373 586:0.04746 587:0.02373 596:0.02373 607:0.02373 611:0.02373 612:0.02373 617:0.02373 624:0.02373 634:0.07119 636:0.02373 655:0.02373 657:0.02373 659:0.02373 665:0.02373 672:0.02373 679:0.02373 682:0.02373 685:0.02373 692:0.02373 708:0.02373 714:0.02373 716:0.02373 718:0.02373 722:0.02373 729:0.02373 730:0.02373 731:0.02373 732:0.02373 737:0.02373 738:0.04746 747:0.02373 753:0.02373 755:0.02373 757:0.02373 762:0.04746 765:0.04746 766:0.02373 767:0.02373 775:0.02373 778:0.02373 784:0.02373 788:0.02373 790:0.04746 792:0.02373 793:0.04746 800:0.02373 805:0.02373 810:0.02373 811:0.02373 818:0.02373 822:0.02373 823:0.02373 828:0.02373 841:0.02373 844:0.02373 846:0.02373 854:0.02373 862:0.02373 865:0.04746 866:0.04746 868:0.09492 869:0.02373 870:0.02373 872:0.02373 877:0.02373 879:0.02373 881:0.02373 885:0.04746 887:0.04746 894:0.02373 906:0.02373 908:0.02373 911:0.02373 914:0.02373 917:0.02373 923:0.02373 929:0.02373 934:0.02373 936:0.02373 940:0.02373 944:0.02373 946:0.02373 947:0.02373 948:0.02373 954:0.02373 960:0.02373 961:0.02373 966:0.02373 968:0.02373 970:0.02373 972:0.02373 975:0.02373 981:0.02373 983:0.02373 985:0.02373 987:0.02373 993:0.02373 995:0.02373 997:0.02373 1000:0.02373 1007:0.04746 1008:0.02373 1009:0.02373 1011:0.02373 1013:0.02373 1020:0.07119 1021:0.04746 1023:0.07119 1024:0.07119 1025:0.07119 1027:0.02373 1028:0.07119 1032:0.02373 1033:0.02373 1034:0.02373 1038:0.02373 1040:0.04746 1041:0.02373 1043:0.02373 1045:0.02373 1050:0.02373 1053:0.02373 1054:0.02373 1068:0.02373 1069:0.04746 1071:0.04746 1074:0.02373 1084:0.04746 1085:0.02373 1086:0.02373 1088:0.04746 1089:0.04746 1090:0.02373 1092:0.04746 1095:0.02373 1104:0.02373 1106:0.02373 1109:0.02373 1111:0.02373 1121:0.02373 1124:0.02373 1125:0.02373 1130:0.02373 1133:0.02373 1137:0.02373 1141:0.02373 1151:0.04746 1155:0.02373 1183:0.09492 1189:0.02373 1192:0.02373 1203:0.02373 1218:0.02373 1220:0.02373 1230:0.02373 1236:0.02373 1240:0.02373 1241:0.02373 1242:0.04746 1244:0.02373 1246:0.02373 1259:0.02373 1261:0.02373 1267:0.02373 1273:0.02373 1274:0.02373 1280:0.02373 1281:0.04746 1282:0.02373 1287:0.02373 1291:0.02373 1292:0.04746 1297:0.04746 1298:0.02373 1302:0.02373 1307:0.02373 1310:0.02373 1335:0.04746 1340:0.02373 1341:0.02373 1344:0.02373 1345:0.02373 1350:0.02373 1351:0.02373 1352:0.02373 1359:0.02373 1362:0.02373 1365:0.02373 1374:0.02373 1378:0.02373 1379:0.02373 1382:0.02373 1392:0.02373 1394:0.02373 1396:0.02373 1399:0.02373 1412:0.02373 1416:0.02373 1418:0.02373 1428:0.02373 1429:0.02373 1430:0.02373 1438:0.02373 1462:0.02373 1463:0.02373 1467:0.02373 1469:0.02373 1477:0.02373 1486:0.04746 1489:0.02373 1494:0.02373 1498:0.02373 1510:0.02373 1512:0.02373 1531:0.02373 1538:0.02373 1539:0.02373 1550:0.02373 1552:0.02373 1553:0.02373 1563:0.02373 1565:0.02373 1566:0.04746 1568:0.02373 1571:0.02373 1572:0.04746 1574:0.02373 1579:0.02373 1585:0.02373 1586:0.07119 1587:0.04746 1588:0.02373 1589:0.02373 1593:0.04746 1595:0.04746 1598:0.02373 1601:0.02373 1602:0.02373 1607:0.02373 1614:0.02373 1617:0.02373 1621:0.02373 1623:0.02373 1624:0.02373 1630:0.02373 1651:0.02373 1653:0.02373 1654:0.02373 1664:0.02373 1666:0.02373 1668:0.02373 1671:0.02373 1674:0.02373 1682:0.02373 1685:0.02373 1699:0.04746 1703:0.02373 1711:0.02373 1714:0.02373 1733:0.02373 1734:0.02373 1742:0.02373 1744:0.02373 1746:0.02373 1751:0.02373 1753:0.02373 1766:0.02373 1767:0.02373 1771:0.02373 1775:0.02373 1776:0.02373 1780:0.02373 1787:0.02373 1789:0.02373 1794:0.04746 1796:0.02373 1800:0.02373 1801:0.02373 1807:0.02373 1808:0.02373 1810:0.02373 1812:0.02373 1821:0.02373 1822:0.02373 1823:0.02373 1831:0.02373 1840:0.02373 1847:0.04746 1856:0.02373 1857:0.02373 1859:0.04746 1860:0.02373 1861:0.02373 1862:0.02373 1870:0.04746 1874:0.04746 1879:0.04746 1882:0.02373 1890:0.02373 1894:0.02373 1896:0.02373 1899:0.02373 1901:0.02373 1902:0.02373 1911:0.02373 1912:0.02373 1934:0.02373 1936:0.02373 1937:0.02373 1944:0.02373 1949:0.04746 1950:0.02373 1983:0.02373 1985:0.02373 1993:0.02373 1998:0.02373 2015:0.02373 2016:0.02373 2019:0.04746 2026:0.04746 2028:0.02373 2039:0.02373 2042:0.02373 2044:0.02373 2046:0.02373 2047:0.02373 2049:0.04746 2051:0.02373 2054:0.02373 2056:0.02373 2060:0.02373 2064:0.02373 2066:0.02373 2080:0.02373 2084:0.02373 2094:0.02373 2103:0.02373 2104:0.02373 2109:0.02373 2111:0.02373 2113:0.02373 2117:0.02373 2147:0.02373 2153:0.02373 2154:0.02373 2161:0.02373 2162:0.02373 2165:0.02373 2166:0.02373 2174:0.02373 2185:0.02373 2188:0.02373 2189:0.04746 2191:0.02373 2192:0.02373 2195:0.02373 2197:0.02373 2201:0.02373 2203:0.02373 2212:0.02373 2215:0.02373 2219:0.02373 2227:0.02373 2231:0.04746 2235:0.02373 2239:0.02373 2240:0.04746 2243:0.02373 2245:0.02373 2246:0.04746 2247:0.02373 2248:0.02373 2251:0.04746 2253:0.02373 2255:0.02373 2259:0.02373 2265:0.02373 2275:0.04746 2276:0.02373 2278:0.02373 2279:0.02373 2282:0.04746 2294:0.02373 2295:0.02373 2303:0.02373 2304:0.04746 2305:0.04746 2307:0.02373 2309:0.02373 2312:0.04746 2317:0.02373 2319:0.02373 2324:0.02373 2330:0.02373 2332:0.02373 2344:0.07119 2346:0.04746 2353:0.02373 2357:0.02373 2358:0.02373 2369:0.02373 2370:0.02373 2371:0.04746 2382:0.04746 2386:0.02373 2392:0.02373 2393:0.02373 2397:0.02373 2414:0.02373 2415:0.02373 2420:0.02373 2422:0.02373 2426:0.04746 2440:0.02373 2441:0.02373 2443:0.02373 2445:0.02373 2447:0.04746 2465:0.04746 2467:0.02373 2473:0.02373 2490:0.02373 2495:0.02373 2496:0.02373 2500:0.02373 2504:0.02373 2508:0.02373 2512:0.02373 2516:0.02373 2518:0.02373 2519:0.02373 2523:0.02373 2524:0.02373 2533:0.02373 2536:0.04746 2544:0.02373 2545:0.02373 2548:0.02373 2559:0.02373 2560:0.02373 2561:0.02373 2565:0.02373 2574:0.02373 2576:0.02373 2587:0.02373 2597:0.02373 2599:0.02373 2602:0.02373 2606:0.02373 2608:0.02373 2612:0.02373 2618:0.02373 2626:0.04746 2631:0.02373 2635:0.02373 2638:0.02373 2641:0.04746 2644:0.02373 2652:0.02373 2658:0.02373 2659:0.02373 2660:0.02373 2665:0.02373 2667:0.02373 2679:0.02373 2688:0.02373 2689:0.02373 2698:0.02373 2699:0.02373 2701:0.02373 2705:0.02373 2713:0.04746 2715:0.02373 2724:0.02373 2725:0.02373 2729:0.02373 2740:0.04746 2745:0.02373 2747:0.02373 2756:0.02373 2759:0.02373 2765:0.02373 2766:0.04746 2787:0.02373 2795:0.02373 2797:0.02373 2809:0.02373 2814:0.02373 2832:0.04746 2836:0.02373 2839:0.02373 2841:0.02373 2844:0.02373 2853:0.02373 2859:0.02373 2861:0.02373 2862:0.02373 2868:0.02373 2871:0.07119 2872:0.04746 2879:0.02373 2885:0.02373 2888:0.04746 2908:0.02373 2915:0.02373 2916:0.04746 2918:0.02373 2923:0.02373 2925:0.02373 2945:0.02373 2949:0.02373 2951:0.02373 2952:0.02373 2956:0.04746 2964:0.02373 2967:0.02373 2969:0.02373 2979:0.04746 2985:0.02373 2986:0.02373 2987:0.02373 2991:0.02373 2995:0.02373 2997:0.02373 3003:0.02373 3006:0.02373 3009:0.02373 3020:0.02373 3023:0.02373 3025:0.02373 3031:0.02373 3041:0.02373 3046:0.04746 3047:0.02373 3050:0.02373 3055:0.02373 3057:0.04746 3059:0.04746 3063:0.02373 3064:0.02373 3067:0.02373 3072:0.04746 3076:0.04746 3077:0.02373 3079:0.02373 3080:0.04746 3088:0.04746 3099:0.02373 3101:0.04746 3105:0.02373 3109:0.04746 3131:0.02373 3134:0.02373 3135:0.02373 3136:0.07119 3142:0.02373 3149:0.02373 3151:0.02373 3152:0.02373 3153:0.02373 3157:0.02373 3160:0.02373 3161:0.02373 3168:0.02373 3170:0.02373 3171:0.02373 3172:0.02373 3183:0.02373 3186:0.02373 3192:0.02373 3193:0.02373 3199:0.04746 3216:0.02373 3217:0.02373 3219:0.04746 3225:0.02373 3237:0.02373 3242:0.02373 3244:0.02373 3251:0.02373 3253:0.02373 3255:0.02373 3257:0.02373 3261:0.04746 3263:0.02373 3264:0.02373 3270:0.02373 3278:0.02373 3286:0.02373 3289:0.11864 3290:0.02373 3292:0.02373 3294:0.04746 3301:0.02373 3309:0.02373 3312:0.02373 3322:0.02373 3328:0.02373 3329:0.04746 3334:0.02373 3340:0.04746 3343:0.02373 3344:0.02373 3345:0.04746 3350:0.02373 3357:0.02373 3360:0.04746 3361:0.02373 3373:0.02373 3383:0.04746 3384:0.02373 3397:0.04746 3408:0.02373 3410:0.02373 3414:0.02373 3418:0.02373 3420:0.02373 3429:0.02373 3430:0.02373 3432:0.02373 3438:0.02373 3445:0.02373 3457:0.02373 3460:0.02373 3461:0.02373 3463:0.02373 3464:0.02373 3465:0.02373 3469:0.11864 3470:0.02373 3471:0.02373 3472:0.02373 3474:0.02373 3478:0.04746 3480:0.02373 3485:0.02373 3486:0.02373 3498:0.02373 3500:0.02373 3501:0.02373 3506:0.02373 3508:0.04746 3509:0.02373 3516:0.04746 3523:0.02373 3537:0.04746 3545:0.02373 3546:0.02373 3548:0.02373 3550:0.02373 3556:0.02373 3571:0.02373 3576:0.02373 3583:0.02373 3585:0.04746 3588:0.02373 3592:0.02373 3602:0.02373 3609:0.02373 3613:0.02373 3620:0.04746 3623:0.02373 3625:0.02373 3630:0.02373 3631:0.02373 3632:0.04746 3639:0.02373 3642:0.02373 3648:0.02373 3652:0.02373 3653:0.02373 3658:0.02373 3661:0.02373 3665:0.02373 3670:0.02373 3676:0.02373 3677:0.02373 3679:0.02373 3684:0.02373 3689:0.02373 3695:0.02373 3696:0.02373 3697:0.02373 3698:0.02373 3700:0.02373 3702:0.02373 3709:0.04746 3716:0.02373 3724:0.04746 3732:0.02373 3733:0.04746 3735:0.02373 3739:0.02373 3742:0.02373 3745:0.02373 3751:0.02373 3755:0.02373 3757:0.02373 3759:0.02373 3761:0.02373 3772:0.02373 3775:0.02373 3776:0.02373 3783:0.02373 3787:0.02373 3788:0.02373 3790:0.02373 3794:0.02373 3801:0.02373 3810:0.02373 3811:0.02373 3813:0.02373 3817:0.04746 3820:0.02373 3822:0.02373 3830:0.02373 3834:0.02373 3836:0.02373 3837:0.02373 3840:0.04746 3841:0.04746 3842:0.04746 3844:0.02373 3848:0.02373 3850:0.02373 3856:0.02373 3861:0.02373 3872:0.02373 3876:0.02373 3877:0.02373 3886:0.02373 3887:0.02373 3888:0.07119 3895:0.02373 3898:0.02373 3900:0.02373 3905:0.02373 3906:0.02373 3908:0.02373 3912:0.02373 3924:0.02373 3925:0.02373 3930:0.04746 3940:0.04746 3948:0.02373 3951:0.02373 3961:0.02373 3965:0.02373 3968:0.02373 3969:0.04746 3970:0.02373 3977:0.04746 3979:0.02373 3980:0.02373 3987:0.02373 3990:0.02373 3992:0.02373 3996:0.04746 3997:0.02373 4000:0.04746 4005:0.02373 4006:0.04746 4007:0.02373 4012:0.02373 4013:0.02373 4016:0.02373 4023:0.02373 4025:0.04746 4027:0.04746 4028:0.02373 4031:0.02373 4032:0.04746 4033:0.04746 4034:0.02373 4035:0.02373 4036:0.02373 4044:0.07119 4049:0.04746 4050:0.02373 4054:0.02373 4057:0.02373 4060:0.02373 4064:0.02373 4065:0.02373 4067:0.02373 4071:0.02373 4072:0.04746 4074:0.02373 4075:0.02373 4076:0.02373 4078:0.02373 4079:0.04746 4080:0.04746 4081:0.04746 4085:0.04746 4086:0.02373 4089:0.04746 4090:0.04746 4091:0.04746 4092:0.02373 4094:0.04746 4095:0.07119 4096:0.1661 
