svm_type c_svc
kernel_type rbf
gamma 0.0078125
nr_class 2
total_sv 108
rho 0.999609
label 1 -1
nr_sv 54 54
SV
0.03125 1:0.1735 2:0.06506 3:0.04338 4:0.02169 5:0.04338 6:0.02169 7:0.02169 8:0.04338 9:0.06506 11:0.04338 14:0.02169 15:0.02169 17:0.06506 19:0.02169 20:0.02169 21:0.04338 23:0.02169 26:0.02169 31:0.02169 32:0.06506 33:0.06506 43:0.02169 44:0.02169 47:0.02169 48:0.02169 49:0.04338 50:0.04338 52:0.04338 53:0.02169 55:0.02169 56:0.02169 59:0.02169 60:0.06506 61:0.04338 62:0.02169 63:0.02169 65:0.04338 66:0.02169 67:0.02169 71:0.02169 73:0.02169 79:0.02169 80:0.06506 82:0.02169 84:0.02169 90:0.02169 92:0.02169 94:0.04338 101:0.04338 108:0.02169 117:0.02169 121:0.04338 123:0.02169 124:0.02169 125:0.02169 126:0.02169 127:0.02169 128:0.02169 129:0.06506 131:0.02169 132:0.02169 134:0.02169 141:0.02169 153:0.02169 156:0.02169 157:0.02169 165:0.02169 169:0.02169 173:0.02169 178:0.02169 180:0.04338 185:0.02169 186:0.02169 191:0.02169 192:0.06506 193:0.02169 196:0.06506 197:0.04338 199:0.02169 205:0.02169 207:0.02169 210:0.02169 211:0.02169 217:0.02169 219:0.04338 220:0.02169 221:0.02169 222:0.02169 230:0.02169 231:0.02169 233:0.02169 234:0.02169 237:0.02169 240:0.06506 241:0.10844 244:0.04338 245:0.04338 246:0.02169 247:0.02169 249:0.02169 251:0.04338 253:0.04338 255:0.04338 257:0.10844 260:0.06506 261:0.04338 264:0.02169 265:0.04338 268:0.02169 273:0.02169 275:0.02169 279:0.02169 281:0.04338 284:0.02169 289:0.04338 303:0.04338 304:0.02169 306:0.02169 315:0.02169 319:0.02169 320:0.06506 321:0.02169 322:0.02169 324:0.04338 325:0.02169 335:0.02169 340:0.02169 350:0.04338 351:0.02169 354:0.02169 358:0.02169 368:0.02169 373:0.04338 384:0.02169 385:0.02169 386:0.02169 400:0.02169 401:0.02169 403:0.02169 404:0.02169 406:0.02169 416:0.02169 417:0.02169 432:0.02169 437:0.02169 444:0.02169 465:0.02169 467:0.02169 481:0.02169 483:0.02169 490:0.02169 493:0.02169 494:0.02169 495:0.02169 500:0.02169 503:0.02169 504:0.02169 505:0.02169 506:0.04338 508:0.02169 510:0.04338 513:0.02169 514:0.04338 516:0.04338 522:0.02169 524:0.02169 527:0.02169 529:0.02169 530:0.02169 532:0.02169 533:0.02169 534:0.02169 546:0.02169 548:0.02169 555:0.02169 561:0.02169 562:0.02169 574:0.02169 576:0.02169 577:0.04338 579:0.02169 594:0.04338 601:0.02169 603:0.02169 609:0.02169 615:0.02169 622:0.02169 625:0.02169 638:0.02169 644:0.02169 658:0.02169 676:0.02169 679:0.02169 681:0.02169 685:0.04338 686:0.02169 689:0.02169 703:0.04338 709:0.02169 717:0.02169 718:0.02169 719:0.02169 737:0.04338 741:0.02169 743:0.02169 753:0.02169 759:0.02169 761:0.02169 763:0.02169 764:0.02169 766:0.04338 768:0.04338 769:0.04338 777:0.02169 779:0.02169 780:0.02169 781:0.04338 784:0.04338 785:0.04338 790:0.02169 793:0.02169 794:0.02169 798:0.02169 800:0.04338 817:0.02169 820:0.04338 827:0.02169 832:0.04338 835:0.02169 836:0.04338 837:0.02169 841:0.04338 845:0.02169 856:0.02169 865:0.04338 873:0.02169 874:0.02169 879:0.02169 888:0.02169 890:0.02169 893:0.02169 897:0.02169 901:0.02169 911:0.02169 919:0.02169 924:0.02169 931:0.02169 933:0.02169 940:0.02169 944:0.02169 945:0.02169 952:0.02169 958:0.04338 959:0.02169 960:0.02169 961:0.06506 962:0.02169 963:0.02169 965:0.04338 974:0.02169 976:0.06506 977:0.04338 984:0.02169 985:0.04338 986:0.02169 992:0.02169 993:0.04338 996:0.04338 999:0.04338 1004:0.04338 1009:0.04338 1011:0.02169 1013:0.02169 1015:0.04338 1016:0.04338 1017:0.02169 1018:0.04338 1019:0.02169 1020:0.06506 1023:0.02169 1024:0.02169 1025:0.04338 1027:0.04338 1028:0.02169 1030:0.02169 1037:0.04338 1038:0.02169 1039:0.04338 1040:0.04338 1041:0.02169 1044:0.02169 1048:0.04338 1050:0.02169 1051:0.02169 1055:0.04338 1056:0.02169 1057:0.04338 1069:0.04338 1071:0.02169 1072:0.02169 1077:0.02169 1079:0.04338 1083:0.02169 1084:0.02169 1085:0.02169 1086:0.02169 1088:0.02169 1089:0.06506 1091:0.02169 1094:0.02169 1097:0.02169 1100:0.02169 1105:0.04338 1113:0.02169 1121:0.02169 1124:0.02169 1129:0.02169 1134:0.02169 1148:0.04338 1151:0.02169 1152:0.02169 1153:0.04338 1155:0.02169 1157:0.04338 1161:0.04338 1163:0.02169 1165:0.02169 1169:0.06506 1178:0.02169 1196:0.02169 1209:0.02169 1210:0.02169 1213:0.02169 1215:0.04338 1216:0.02169 1217:0.02169 1224:0.02169 1232:0.02169 1236:0.02169 1238:0.02169 1260:0.02169 1264:0.02169 1271:0.02169 1272:0.02169 1273:0.02169 1274:0.02169 1278:0.02169 1279:0.04338 1280:0.02169 1284:0.02169 1288:0.02169 1296:0.04338 1297:0.02169 1298:0.02169 1301:0.02169 1315:0.02169 1328:0.02169 1332:0.02169 1340:0.02169 1343:0.02169 1344:0.02169 1353:0.02169 1357:0.02169 1374:0.02169 1394:0.02169 1398:0.02169 1399:0.02169 1400:0.02169 1402:0.02169 1408:0.02169 1409:0.04338 1414:0.02169 1419:0.02169 1424:0.04338 1431:0.02169 1443:0.02169 1448:0.02169 1465:0.02169 1471:0.02169 1479:0.02169 1489:0.04338 1494:0.04338 1499:0.02169 1503:0.02169 1509:0.02169 1524:0.02169 1536:0.04338 1537:0.06506 1539:0.02169 1540:0.04338 1544:0.02169 1548:0.02169 1550:0.02169 1551:0.02169 1552:0.02169 1554:0.02169 1557:0.02169 1562:0.02169 1574:0.02169 1579:0.02169 1589:0.02169 1597:0.02169 1599:0.04338 1600:0.02169 1604:0.04338 1608:0.02169 1610:0.02169 1616:0.02169 1624:0.02169 1625:0.02169 1634:0.02169 1640:0.02169 1658:0.02169 1662:0.04338 1665:0.02169 1667:0.02169 1673:0.02169 1684:0.02169 1685:0.02169 1691:0.02169 1693:0.02169 1694:0.02169 1724:0.02169 1726:0.02169 1728:0.02169 1739:0.02169 1742:0.02169 1744:0.02169 1746:0.02169 1753:0.02169 1761:0.02169 1774:0.04338 1776:0.02169 1785:0.04338 1792:0.02169 1796:0.02169 1797:0.02169 1814:0.02169 1818:0.02169 1858:0.06506 1868:0.02169 1876:0.02169 1877:0.02169 1878:0.02169 1883:0.02169 1890:0.02169 1898:0.02169 1913:0.02169 1914:0.02169 1915:0.02169 1921:0.02169 1923:0.02169 1932:0.02169 1934:0.02169 1936:0.02169 1937:0.02169 1938:0.02169 1939:0.08675 1941:0.02169 1948:0.02169 1958:0.02169 1961:0.02169 1970:0.02169 1973:0.02169 1977:0.02169 1980:0.02169 1984:0.02169 1988:0.02169 1997:0.02169 1998:0.04338 2002:0.02169 2003:0.02169 2007:0.02169 2009:0.02169 2015:0.02169 2016:0.02169 2020:0.02169 2021:0.02169 2024:0.02169 2029:0.02169 2031:0.02169 2032:0.02169 2037:0.02169 2039:0.02169 2046:0.02169 2047:0.04338 2048:0.04338 2049:0.04338 2050:0.04338 2051:0.02169 2053:0.04338 2056:0.04338 2060:0.04338 2061:0.06506 2062:0.02169 2063:0.02169 2068:0.04338 2071:0.02169 2078:0.02169 2082:0.02169 2087:0.04338 2088:0.02169 2093:0.02169 2096:0.02169 2104:0.02169 2106:0.04338 2110:0.04338 2111:0.02169 2112:0.02169 2114:0.04338 2117:0.02169 2119:0.04338 2124:0.02169 2125:0.02169 2129:0.04338 2136:0.02169 2152:0.02169 2159:0.02169 2181:0.02169 2182:0.02169 2192:0.02169 2197:0.02169 2199:0.02169 2209:0.02169 2219:0.02169 2220:0.04338 2224:0.04338 2228:0.02169 2238:0.02169 2243:0.04338 2244:0.02169 2247:0.02169 2248:0.02169 2259:0.02169 2265:0.02169 2273:0.02169 2274:0.02169 2290:0.02169 2295:0.02169 2297:0.04338 2298:0.02169 2302:0.02169 2303:0.02169 2304:0.02169 2308:0.04338 2316:0.04338 2318:0.02169 2319:0.02169 2325:0.02169 2335:0.02169 2336:0.02169 2337:0.02169 2338:0.02169 2339:0.02169 2340:0.02169 2341:0.04338 2343:0.02169 2347:0.02169 2366:0.04338 2373:0.02169 2374:0.02169 2380:0.02169 2384:0.02169 2397:0.02169 2401:0.04338 2403:0.02169 2404:0.02169 2409:0.02169 2429:0.02169 2436:0.02169 2437:0.02169 2449:0.02169 2450:0.02169 2457:0.02169 2463:0.02169 2480:0.02169 2483:0.02169 2484:0.02169 2487:0.02169 2495:0.02169 2496:0.02169 2497:0.02169 2498:0.02169 2502:0.02169 2517:0.02169 2521:0.02169 2529:0.02169 2533:0.04338 2535:0.02169 2549:0.02169 2550:0.02169 2552:0.02169 2562:0.02169 2570:0.02169 2576:0.02169 2594:0.02169 2598:0.02169 2601:0.02169 2603:0.02169 2617:0.02169 2630:0.02169 2633:0.02169 2640:0.02169 2643:0.02169 2649:0.02169 2668:0.02169 2669:0.02169 2673:0.02169 2674:0.02169 2678:0.02169 2679:0.02169 2699:0.04338 2703:0.02169 2716:0.02169 2723:0.02169 2738:0.02169 2739:0.02169 2740:0.02169 2744:0.02169 2753:0.02169 2757:0.02169 2762:0.02169 2765:0.02169 2779:0.02169 2782:0.02169 2784:0.02169 2790:0.02169 2794:0.02169 2799:0.02169 2805:0.02169 2809:0.04338 2813:0.02169 2815:0.02169 2816:0.02169 2817:0.02169 2818:0.02169 2829:0.02169 2830:0.02169 2833:0.02169 2835:0.02169 2838:0.02169 2848:0.02169 2854:0.02169 2859:0.02169 2866:0.04338 2869:0.02169 2872:0.02169 2876:0.02169 2877:0.02169 2880:0.04338 2881:0.02169 2882:0.02169 2885:0.02169 2894:0.02169 2915:0.02169 2919:0.02169 2924:0.02169 2934:0.02169 2936:0.02169 2937:0.02169 2938:0.02169 2942:0.02169 2945:0.04338 2946:0.02169 2947:0.02169 2951:0.02169 2960:0.02169 2963:0.02169 2968:0.02169 2970:0.02169 2984:0.04338 2992:0.02169 2993:0.02169 2997:0.02169 2999:0.02169 3000:0.02169 3003:0.02169 3005:0.02169 3012:0.02169 3018:0.02169 3025:0.04338 3026:0.02169 3036:0.02169 3041:0.02169 3042:0.02169 3043:0.06506 3052:0.02169 3054:0.04338 3056:0.02169 3057:0.02169 3058:0.02169 3061:0.02169 3062:0.02169 3064:0.04338 3065:0.02169 3069:0.02169 3070:0.04338 3072:0.06506 3073:0.04338 3074:0.02169 3077:0.02169 3078:0.02169 3085:0.02169 3088:0.04338 3090:0.02169 3103:0.02169 3108:0.02169 3114:0.02169 3120:0.02169 3121:0.04338 3122:0.02169 3127:0.02169 3133:0.08675 3135:0.02169 3136:0.04338 3137:0.06506 3139:0.02169 3141:0.02169 3148:0.02169 3152:0.02169 3157:0.02169 3160:0.04338 3168:0.02169 3169:0.02169 3173:0.02169 3174:0.02169 3189:0.02169 3198:0.02169 3199:0.04338 3216:0.02169 3221:0.02169 3223:0.02169 3232:0.02169 3242:0.02169 3267:0.02169 3270:0.02169 3272:0.02169 3277:0.04338 3280:0.02169 3281:0.06506 3295:0.02169 3296:0.02169 3300:0.02169 3307:0.02169 3310:0.02169 3314:0.02169 3316:0.04338 3325:0.02169 3326:0.06506 3327:0.04338 3330:0.02169 3332:0.02169 3334:0.04338 3335:0.04338 3336:0.02169 3340:0.02169 3342:0.04338 3343:0.02169 3344:0.02169 3345:0.04338 3347:0.02169 3355:0.02169 3359:0.02169 3360:0.02169 3362:0.02169 3363:0.02169 3365:0.02169 3376:0.04338 3377:0.02169 3381:0.02169 3382:0.02169 3408:0.02169 3411:0.02169 3416:0.02169 3424:0.02169 3428:0.02169 3434:0.02169 3439:0.02169 3446:0.02169 3457:0.06506 3459:0.02169 3460:0.04338 3463:0.02169 3466:0.02169 3470:0.02169 3472:0.02169 3482:0.02169 3488:0.02169 3489:0.02169 3493:0.02169 3494:0.02169 3495:0.02169 3496:0.02169 3503:0.02169 3508:0.02169 3516:0.04338 3543:0.02169 3551:0.04338 3556:0.04338 3557:0.06506 3558:0.02169 3563:0.02169 3567:0.02169 3568:0.02169 3569:0.02169 3572:0.02169 3573:0.02169 3580:0.04338 3584:0.06506 3585:0.02169 3586:0.02169 3587:0.02169 3588:0.02169 3589:0.04338 3590:0.02169 3593:0.02169 3594:0.02169 3600:0.04338 3601:0.02169 3602:0.02169 3603:0.02169 3612:0.02169 3628:0.04338 3629:0.02169 3632:0.02169 3633:0.04338 3634:0.02169 3639:0.02169 3641:0.02169 3647:0.02169 3648:0.02169 3651:0.02169 3656:0.02169 3657:0.06506 3658:0.04338 3659:0.02169 3668:0.02169 3673:0.02169 3680:0.02169 3685:0.04338 3693:0.02169 3696:0.04338 3705:0.02169 3706:0.04338 3722:0.02169 3731:0.02169 3735:0.02169 3741:0.02169 3742:0.02169 3747:0.02169 3757:0.02169 3767:0.02169 3768:0.02169 3770:0.02169 3771:0.02169 3776:0.04338 3777:0.02169 3780:0.04338 3782:0.02169 3784:0.02169 3792:0.04338 3793:0.04338 3796:0.02169 3802:0.02169 3806:0.02169 3807:0.04338 3809:0.02169 3810:0.02169 3812:0.02169 3818:0.02169 3820:0.02169 3821:0.02169 3822:0.02169 3827:0.02169 3829:0.04338 3836:0.04338 3837:0.02169 3838:0.04338 3840:0.04338 3842:0.02169 3844:0.04338 3848:0.02169 3849:0.02169 3856:0.10844 3857:0.02169 3858:0.02169 3860:0.02169 3864:0.02169 3878:0.02169 3880:0.02169 3892:0.02169 3893:0.04338 3896:0.02169 3897:0.02169 3901:0.04338 3904:0.04338 3905:0.02169 3906:0.02169 3908:0.04338 3909:0.02169 3911:0.02169 3912:0.04338 3914:0.02169 3916:0.02169 3918:0.02169 3929:0.02169 3932:0.02169 3934:0.02169 3937:0.08675 3940:0.04338 3944:0.02169 3946:0.04338 3949:0.02169 3951:0.02169 3962:0.02169 3964:0.04338 3967:0.04338 3968:0.06506 3970:0.04338 3972:0.04338 3973:0.04338 3979:0.04338 3980:0.02169 3981:0.06506 3987:0.02169 3994:0.02169 3996:0.02169 3999:0.06506 4014:0.04338 4015:0.04338 4017:0.02169 4018:0.02169 4020:0.04338 4021:0.02169 4024:0.02169 4025:0.04338 4027:0.02169 4028:0.02169 4031:0.02169 4032:0.06506 4036:0.06506 4037:0.02169 4038:0.02169 4042:0.02169 4047:0.02169 4048:0.02169 4050:0.04338 4051:0.02169 4052:0.02169 4055:0.02169 4057:0.06506 4059:0.04338 4060:0.02169 4063:0.04338 4064:0.06506 4065:0.02169 4066:0.02169 4072:0.04338 4076:0.02169 4077:0.06506 4079:0.06506 4080:0.04338 4082:0.02169 4084:0.04338 4085:0.02169 4087:0.06506 4088:0.02169 4092:0.10844 4093:0.04338 4094:0.04338 4095:0.04338 4096:0.1735 
0.03125 1:0.09435 2:0.05392 3:0.01348 4:0.02696 5:0.0674 6:0.02696 7:0.02696 8:0.05392 9:0.01348 10:0.02696 12:0.04044 13:0.04044 14:0.04044 15:0.05392 16:0.01348 17:0.10783 18:0.05392 19:0.05392 20:0.01348 22:0.02696 23:0.04044 26:0.01348 27:0.02696 29:0.01348 31:0.05392 32:0.02696 33:0.04044 34:0.01348 35:0.01348 39:0.04044 43:0.01348 44:0.02696 45:0.02696 47:0.02696 48:0.02696 49:0.01348 50:0.01348 51:0.01348 52:0.01348 53:0.02696 56:0.04044 57:0.01348 58:0.05392 59:0.02696 60:0.01348 61:0.05392 62:0.02696 63:0.0674 65:0.04044 67:0.05392 68:0.02696 69:0.01348 70:0.01348 71:0.01348 72:0.02696 74:0.04044 76:0.02696 77:0.01348 78:0.02696 84:0.01348 85:0.01348 86:0.02696 89:0.02696 90:0.01348 91:0.01348 100:0.01348 101:0.01348 104:0.01348 105:0.01348 106:0.01348 113:0.01348 115:0.01348 116:0.01348 121:0.01348 122:0.02696 124:0.01348 126:0.01348 128:0.02696 129:0.01348 130:0.02696 131:0.01348 135:0.01348 138:0.01348 139:0.01348 140:0.02696 141:0.01348 142:0.01348 144:0.05392 145:0.01348 147:0.01348 155:0.02696 156:0.01348 157:0.01348 161:0.01348 165:0.01348 166:0.01348 170:0.01348 171:0.01348 172:0.01348 175:0.02696 177:0.02696 179:0.01348 186:0.01348 188:0.01348 189:0.01348 192:0.02696 193:0.01348 196:0.01348 197:0.01348 198:0.01348 200:0.01348 204:0.01348 205:0.01348 208:0.02696 209:0.01348 210:0.02696 217:0.01348 219:0.02696 220:0.01348 221:0.01348 223:0.01348 224:0.05392 225:0.02696 227:0.01348 229:0.05392 230:0.02696 231:0.04044 232:0.01348 233:0.01348 234:0.01348 235:0.01348 239:0.01348 241:0.04044 242:0.01348 243:0.04044 244:0.01348 245:0.01348 246:0.01348 248:0.01348 249:0.02696 250:0.01348 251:0.01348 252:0.02696 253:0.05392 254:0.02696 255:0.05392 256:0.01348 257:0.04044 259:0.01348 261:0.01348 265:0.04044 266:0.01348 271:0.02696 272:0.02696 274:0.02696 275:0.01348 278:0.01348 280:0.01348 282:0.04044 286:0.05392 287:0.01348 288:0.01348 289:0.01348 291:0.01348 292:0.01348 293:0.01348 294:0.01348 295:0.01348 296:0.01348 301:0.01348 302:0.01348 303:0.01348 304:0.01348 305:0.02696 306:0.01348 307:0.01348 308:0.02696 310:0.01348 311:0.01348 316:0.02696 320:0.01348 321:0.01348 333:0.02696 340:0.02696 341:0.02696 343:0.01348 344:0.01348 349:0.01348 352:0.01348 353:0.02696 356:0.01348 357:0.02696 361:0.01348 370:0.01348 379:0.02696 384:0.02696 385:0.01348 390:0.01348 391:0.01348 399:0.01348 400:0.01348 401:0.01348 402:0.01348 403:0.04044 404:0.02696 410:0.02696 414:0.01348 415:0.04044 416:0.01348 417:0.02696 420:0.01348 421:0.01348 423:0.02696 424:0.01348 449:0.01348 452:0.01348 457:0.01348 461:0.01348 464:0.01348 465:0.02696 467:0.01348 470:0.01348 473:0.01348 474:0.02696 475:0.01348 480:0.02696 484:0.01348 485:0.04044 487:0.01348 491:0.01348 493:0.01348 494:0.01348 496:0.02696 497:0.01348 501:0.01348 510:0.04044 512:0.04044 513:0.04044 515:0.02696 517:0.01348 518:0.01348 519:0.01348 523:0.01348 526:0.02696 528:0.01348 529:0.01348 530:0.01348 533:0.01348 538:0.01348 549:0.02696 550:0.02696 553:0.01348 557:0.02696 561:0.02696 562:0.05392 563:0.01348 564:0.01348 568:0.02696 573:0.02696 574:0.01348 576:0.04044 577:0.04044 578:0.01348 582:0.01348 585:0.01348 590:0.01348 592:0.01348 596:0.02696 597:0.01348 598:0.01348 602:0.0674 604:0.01348 611:0.01348 612:0.01348 613:0.01348 618:0.04044 619:0.01348 621:0.02696 622:0.02696 624:0.01348 625:0.02696 636:0.01348 639:0.01348 641:0.01348 642:0.01348 654:0.01348 655:0.01348 658:0.01348 663:0.01348 667:0.01348 673:0.05392 675:0.01348 678:0.01348 684:0.01348 685:0.01348 687:0.01348 690:0.01348 692:0.01348 697:0.01348 698:0.01348 700:0.01348 705:0.02696 708:0.01348 709:0.01348 712:0.02696 715:0.01348 717:0.02696 719:0.01348 720:0.01348 725:0.01348 737:0.01348 738:0.02696 741:0.02696 749:0.01348 751:0.04044 752:0.02696 753:0.01348 758:0.01348 761:0.01348 765:0.01348 766:0.01348 767:0.01348 768:0.05392 769:0.05392 770:0.01348 771:0.01348 772:0.01348 777:0.01348 779:0.04044 782:0.01348 783:0.01348 784:0.01348 786:0.04044 787:0.02696 788:0.01348 790:0.01348 791:0.01348 792:0.01348 794:0.01348 795:0.01348 797:0.01348 798:0.02696 799:0.01348 801:0.02696 802:0.01348 815:0.01348 816:0.01348 818:0.04044 819:0.01348 820:0.08087 822:0.02696 824:0.01348 828:0.02696 830:0.01348 831:0.01348 832:0.01348 835:0.01348 837:0.01348 839:0.01348 844:0.01348 851:0.01348 852:0.01348 855:0.01348 857:0.01348 858:0.01348 859:0.01348 860:0.01348 861:0.01348 863:0.01348 865:0.01348 867:0.01348 870:0.02696 872:0.01348 875:0.01348 876:0.01348 879:0.01348 880:0.01348 881:0.04044 882:0.01348 890:0.04044 891:0.01348 892:0.01348 893:0.01348 895:0.0674 897:0.04044 899:0.01348 900:0.01348 903:0.01348 906:0.01348 913:0.04044 915:0.04044 917:0.02696 922:0.01348 923:0.02696 924:0.02696 926:0.01348 927:0.01348 929:0.01348 931:0.01348 932:0.01348 933:0.01348 934:0.02696 936:0.02696 938:0.01348 939:0.01348 940:0.02696 941:0.01348 944:0.01348 946:0.01348 947:0.02696 948:0.01348 949:0.01348 953:0.04044 959:0.02696 960:0.01348 961:0.04044 962:0.01348 964:0.02696 967:0.01348 968:0.01348 969:0.04044 971:0.01348 972:0.01348 974:0.02696 976:0.01348 977:0.01348 978:0.02696 980:0.01348 982:0.02696 985:0.01348 989:0.01348 990:0.01348 991:0.01348 993:0.04044 994:0.01348 995:0.02696 998:0.01348 999:0.01348 1002:0.01348 1006:0.01348 1007:0.01348 1008:0.02696 1009:0.05392 1011:0.02696 1012:0.01348 1013:0.02696 1014:0.01348 1015:0.01348 1018:0.0674 1019:0.01348 1021:0.02696 1022:0.02696 1023:0.0674 1024:0.02696 1025:0.01348 1026:0.01348 1027:0.01348 1028:0.0674 1029:0.05392 1032:0.01348 1033:0.02696 1035:0.01348 1037:0.01348 1039:0.01348 1040:0.05392 1044:0.02696 1053:0.01348 1059:0.02696 1060:0.0674 1061:0.01348 1064:0.01348 1067:0.01348 1073:0.01348 1074:0.02696 1076:0.01348 1082:0.02696 1083:0.01348 1086:0.01348 1088:0.0674 1090:0.01348 1092:0.01348 1095:0.02696 1096:0.04044 1097:0.01348 1098:0.01348 1103:0.02696 1104:0.01348 1110:0.02696 1112:0.01348 1117:0.01348 1120:0.02696 1124:0.01348 1125:0.05392 1127:0.01348 1140:0.01348 1141:0.04044 1142:0.01348 1143:0.02696 1146:0.01348 1148:0.01348 1152:0.02696 1153:0.01348 1156:0.01348 1157:0.02696 1162:0.01348 1165:0.05392 1168:0.01348 1169:0.01348 1170:0.01348 1172:0.01348 1173:0.01348 1175:0.05392 1177:0.02696 1178:0.01348 1179:0.01348 1180:0.04044 1181:0.01348 1188:0.01348 1193:0.01348 1197:0.02696 1202:0.02696 1204:0.01348 1206:0.01348 1209:0.01348 1212:0.01348 1216:0.05392 1217:0.0674 1219:0.01348 1221:0.02696 1222:0.01348 1224:0.01348 1225:0.02696 1229:0.02696 1237:0.01348 1238:0.01348 1240:0.01348 1242:0.02696 1244:0.01348 1249:0.04044 1257:0.01348 1258:0.02696 1259:0.02696 1263:0.02696 1265:0.04044 1266:0.01348 1267:0.01348 1268:0.01348 1274:0.01348 1276:0.02696 1277:0.02696 1278:0.01348 1279:0.01348 1280:0.05392 1281:0.02696 1282:0.02696 1283:0.02696 1284:0.01348 1289:0.01348 1291:0.01348 1296:0.01348 1298:0.01348 1306:0.01348 1316:0.01348 1317:0.02696 1319:0.04044 1324:0.02696 1325:0.01348 1329:0.05392 1330:0.01348 1331:0.01348 1337:0.01348 1339:0.05392 1343:0.01348 1344:0.02696 1345:0.04044 1347:0.01348 1349:0.01348 1354:0.01348 1355:0.01348 1356:0.01348 1357:0.01348 1359:0.02696 1360:0.01348 1361:0.01348 1362:0.01348 1363:0.04044 1364:0.01348 1369:0.02696 1371:0.01348 1376:0.01348 1377:0.01348 1378:0.01348 1379:0.01348 1380:0.01348 1382:0.01348 1384:0.01348 1386:0.01348 1394:0.02696 1398:0.01348 1399:0.02696 1402:0.01348 1406:0.01348 1407:0.01348 1408:0.01348 1409:0.02696 1411:0.02696 1413:0.01348 1420:0.01348 1424:0.02696 1425:0.01348 1427:0.02696 1428:0.02696 1431:0.01348 1432:0.01348 1433:0.01348 1434:0.01348 1438:0.01348 1439:0.01348 1440:0.02696 1444:0.01348 1445:0.02696 1446:0.01348 1451:0.01348 1456:0.01348 1457:0.01348 1460:0.01348 1461:0.02696 1463:0.01348 1472:0.02696 1476:0.01348 1477:0.01348 1479:0.01348 1480:0.01348 1489:0.01348 1494:0.01348 1497:0.01348 1498:0.01348 1504:0.01348 1505:0.01348 1510:0.01348 1514:0.01348 1515:0.01348 1524:0.04044 1528:0.01348 1531:0.01348 1533:0.01348 1534:0.01348 1535:0.01348 1537:0.02696 1538:0.04044 1539:0.01348 1540:0.01348 1542:0.01348 1545:0.01348 1546:0.01348 1550:0.01348 1555:0.01348 1558:0.01348 1559:0.01348 1563:0.01348 1575:0.01348 1579:0.02696 1581:0.02696 1583:0.02696 1585:0.01348 1590:0.01348 1593:0.01348 1594:0.01348 1596:0.01348 1598:0.05392 1601:0.02696 1604:0.01348 1606:0.02696 1609:0.02696 1610:0.04044 1612:0.01348 1613:0.01348 1614:0.01348 1616:0.04044 1617:0.02696 1619:0.02696 1623:0.01348 1626:0.01348 1628:0.02696 1630:0.01348 1635:0.01348 1637:0.02696 1638:0.01348 1639:0.02696 1642:0.02696 1646:0.01348 1647:0.01348 1653:0.01348 1655:0.01348 1658:0.04044 1659:0.04044 1660:0.01348 1664:0.04044 1665:0.02696 1677:0.05392 1681:0.02696 1682:0.02696 1685:0.01348 1688:0.01348 1689:0.02696 1691:0.01348 1693:0.01348 1694:0.01348 1695:0.05392 1698:0.01348 1700:0.01348 1701:0.01348 1703:0.01348 1706:0.02696 1708:0.01348 1716:0.01348 1719:0.01348 1726:0.01348 1728:0.04044 1729:0.02696 1730:0.01348 1732:0.01348 1737:0.01348 1739:0.01348 1742:0.02696 1746:0.02696 1747:0.01348 1748:0.01348 1750:0.01348 1756:0.01348 1760:0.01348 1764:0.01348 1766:0.01348 1770:0.01348 1775:0.02696 1776:0.01348 1777:0.01348 1784:0.01348 1790:0.01348 1792:0.02696 1793:0.02696 1795:0.01348 1796:0.02696 1797:0.01348 1801:0.01348 1806:0.01348 1807:0.01348 1808:0.04044 1812:0.02696 1817:0.01348 1818:0.01348 1824:0.01348 1827:0.01348 1840:0.01348 1844:0.01348 1848:0.01348 1851:0.01348 1852:0.01348 1856:0.01348 1857:0.01348 1859:0.01348 1860:0.02696 1866:0.01348 1872:0.01348 1876:0.01348 1877:0.01348 1878:0.01348 1880:0.01348 1889:0.01348 1892:0.01348 1894:0.02696 1895:0.01348 1896:0.01348 1899:0.01348 1906:0.01348 1907:0.01348 1916:0.01348 1917:0.01348 1919:0.02696 1920:0.01348 1921:0.01348 1927:0.01348 1932:0.01348 1933:0.01348 1937:0.01348 1938:0.02696 1940:0.04044 1941:0.01348 1942:0.02696 1946:0.01348 1947:0.02696 1948:0.04044 1952:0.01348 1954:0.01348 1956:0.01348 1957:0.02696 1959:0.02696 1963:0.04044 1972:0.02696 1973:0.01348 1975:0.01348 1977:0.01348 1980:0.01348 1982:0.01348 1984:0.05392 1986:0.01348 1994:0.01348 1998:0.04044 1999:0.01348 2004:0.01348 2011:0.02696 2016:0.01348 2019:0.01348 2020:0.01348 2021:0.02696 2025:0.01348 2027:0.01348 2032:0.05392 2033:0.01348 2035:0.01348 2036:0.01348 2037:0.01348 2038:0.01348 2039:0.01348 2040:0.02696 2043:0.02696 2044:0.01348 2045:0.01348 2046:0.04044 2047:0.01348 2048:0.01348 2049:0.02696 2050:0.0674 2051:0.04044 2052:0.02696 2053:0.05392 2054:0.02696 2055:0.01348 2056:0.01348 2057:0.01348 2059:0.01348 2060:0.04044 2062:0.01348 2063:0.01348 2064:0.02696 2065:0.01348 2067:0.01348 2070:0.01348 2071:0.01348 2074:0.01348 2077:0.01348 2081:0.01348 2085:0.01348 2091:0.01348 2096:0.01348 2100:0.01348 2101:0.01348 2103:0.05392 2104:0.01348 2111:0.01348 2112:0.02696 2116:0.01348 2117:0.01348 2121:0.01348 2124:0.01348 2125:0.01348 2129:0.01348 2133:0.01348 2138:0.01348 2146:0.01348 2151:0.01348 2152:0.02696 2153:0.01348 2154:0.02696 2172:0.01348 2180:0.01348 2190:0.01348 2193:0.02696 2196:0.01348 2197:0.01348 2198:0.01348 2199:0.01348 2203:0.01348 2204:0.01348 2209:0.01348 2215:0.01348 2217:0.04044 2225:0.01348 2226:0.01348 2228:0.02696 2233:0.01348 2234:0.01348 2236:0.05392 2241:0.01348 2243:0.04044 2244:0.02696 2245:0.04044 2247:0.02696 2249:0.01348 2253:0.04044 2264:0.01348 2265:0.01348 2270:0.01348 2272:0.01348 2274:0.01348 2277:0.01348 2279:0.01348 2280:0.01348 2288:0.02696 2291:0.01348 2292:0.01348 2293:0.02696 2294:0.01348 2295:0.01348 2296:0.02696 2301:0.01348 2302:0.01348 2304:0.04044 2305:0.02696 2306:0.04044 2308:0.0674 2309:0.01348 2313:0.01348 2314:0.01348 2319:0.01348 2320:0.01348 2321:0.01348 2322:0.02696 2326:0.02696 2328:0.01348 2330:0.01348 2334:0.01348 2336:0.01348 2337:0.01348 2338:0.02696 2340:0.04044 2342:0.02696 2343:0.04044 2347:0.01348 2349:0.01348 2351:0.01348 2352:0.02696 2354:0.02696 2358:0.02696 2359:0.01348 2365:0.05392 2367:0.02696 2368:0.05392 2369:0.04044 2372:0.01348 2375:0.01348 2377:0.01348 2378:0.02696 2379:0.01348 2381:0.02696 2383:0.02696 2384:0.01348 2385:0.01348 2388:0.01348 2389:0.04044 2391:0.02696 2393:0.01348 2394:0.01348 2400:0.01348 2405:0.02696 2406:0.01348 2407:0.02696 2408:0.04044 2410:0.02696 2411:0.01348 2413:0.01348 2414:0.02696 2416:0.01348 2421:0.01348 2429:0.02696 2433:0.01348 2442:0.01348 2443:0.01348 2444:0.02696 2445:0.01348 2447:0.02696 2449:0.01348 2450:0.01348 2451:0.01348 2452:0.01348 2453:0.02696 2458:0.02696 2459:0.01348 2460:0.02696 2463:0.01348 2468:0.01348 2469:0.01348 2470:0.01348 2471:0.01348 2472:0.0674 2473:0.01348 2474:0.01348 2478:0.01348 2480:0.01348 2481:0.02696 2483:0.01348 2484:0.01348 2485:0.01348 2486:0.01348 2488:0.01348 2490:0.01348 2491:0.01348 2492:0.04044 2494:0.01348 2496:0.01348 2497:0.01348 2498:0.01348 2499:0.01348 2516:0.01348 2517:0.01348 2518:0.01348 2522:0.01348 2525:0.02696 2527:0.01348 2528:0.01348 2530:0.01348 2531:0.01348 2533:0.01348 2534:0.01348 2535:0.04044 2537:0.02696 2538:0.02696 2539:0.01348 2543:0.01348 2544:0.04044 2551:0.01348 2554:0.01348 2556:0.01348 2557:0.01348 2560:0.02696 2561:0.0674 2562:0.01348 2563:0.01348 2564:0.01348 2568:0.01348 2574:0.01348 2576:0.01348 2586:0.01348 2591:0.01348 2597:0.01348 2598:0.01348 2603:0.01348 2607:0.01348 2609:0.02696 2610:0.01348 2612:0.02696 2615:0.01348 2618:0.02696 2620:0.01348 2625:0.02696 2628:0.01348 2629:0.02696 2631:0.01348 2633:0.01348 2634:0.01348 2635:0.01348 2640:0.02696 2641:0.01348 2642:0.01348 2644:0.02696 2645:0.01348 2646:0.04044 2648:0.01348 2650:0.01348 2651:0.01348 2656:0.01348 2657:0.01348 2659:0.02696 2660:0.02696 2661:0.01348 2663:0.01348 2666:0.01348 2667:0.01348 2673:0.01348 2678:0.01348 2680:0.02696 2681:0.02696 2682:0.02696 2684:0.01348 2689:0.04044 2692:0.02696 2695:0.01348 2698:0.01348 2699:0.01348 2700:0.01348 2703:0.01348 2707:0.02696 2709:0.04044 2710:0.02696 2713:0.01348 2717:0.01348 2718:0.01348 2723:0.01348 2725:0.01348 2726:0.04044 2728:0.01348 2735:0.02696 2736:0.02696 2740:0.01348 2743:0.01348 2746:0.02696 2748:0.01348 2750:0.01348 2752:0.02696 2753:0.01348 2757:0.01348 2765:0.01348 2767:0.01348 2768:0.01348 2777:0.01348 2780:0.01348 2781:0.01348 2786:0.01348 2791:0.02696 2792:0.01348 2797:0.01348 2800:0.01348 2802:0.01348 2807:0.01348 2808:0.01348 2813:0.01348 2814:0.02696 2816:0.02696 2817:0.02696 2818:0.04044 2822:0.01348 2831:0.01348 2832:0.01348 2833:0.01348 2836:0.01348 2840:0.01348 2846:0.01348 2847:0.02696 2851:0.01348 2852:0.01348 2859:0.02696 2860:0.01348 2868:0.04044 2870:0.01348 2872:0.05392 2874:0.02696 2875:0.01348 2876:0.01348 2879:0.02696 2880:0.01348 2884:0.01348 2886:0.01348 2888:0.02696 2890:0.01348 2894:0.01348 2899:0.01348 2903:0.01348 2913:0.01348 2923:0.01348 2925:0.01348 2926:0.01348 2932:0.01348 2938:0.02696 2944:0.01348 2945:0.04044 2948:0.02696 2949:0.01348 2951:0.02696 2960:0.02696 2961:0.01348 2963:0.02696 2967:0.02696 2968:0.01348 2970:0.01348 2972:0.01348 2975:0.01348 2982:0.01348 2987:0.01348 2996:0.04044 3000:0.01348 3002:0.02696 3003:0.01348 3004:0.02696 3005:0.01348 3008:0.05392 3011:0.01348 3012:0.01348 3015:0.01348 3018:0.01348 3025:0.01348 3032:0.01348 3033:0.01348 3037:0.01348 3040:0.02696 3041:0.01348 3048:0.01348 3055:0.01348 3057:0.02696 3058:0.04044 3060:0.01348 3061:0.05392 3062:0.01348 3063:0.04044 3066:0.04044 3067:0.02696 3069:0.04044 3070:0.0674 3071:0.01348 3072:0.05392 3073:0.05392 3074:0.04044 3075:0.01348 3076:0.02696 3077:0.05392 3078:0.01348 3080:0.01348 3081:0.01348 3082:0.01348 3083:0.01348 3086:0.01348 3087:0.02696 3088:0.05392 3090:0.01348 3093:0.01348 3097:0.01348 3104:0.01348 3107:0.01348 3108:0.01348 3113:0.01348 3114:0.02696 3117:0.01348 3128:0.02696 3129:0.02696 3130:0.05392 3133:0.05392 3136:0.05392 3137:0.01348 3141:0.01348 3142:0.01348 3144:0.01348 3145:0.01348 3148:0.01348 3149:0.05392 3156:0.01348 3160:0.01348 3161:0.01348 3167:0.02696 3169:0.01348 3170:0.01348 3173:0.02696 3176:0.02696 3177:0.01348 3178:0.01348 3185:0.01348 3191:0.02696 3192:0.02696 3194:0.01348 3195:0.01348 3196:0.01348 3197:0.01348 3200:0.02696 3201:0.04044 3202:0.01348 3204:0.01348 3206:0.01348 3210:0.02696 3213:0.04044 3216:0.01348 3222:0.01348 3223:0.01348 3231:0.01348 3232:0.01348 3236:0.01348 3241:0.01348 3244:0.01348 3247:0.01348 3252:0.01348 3257:0.01348 3262:0.01348 3263:0.01348 3264:0.01348 3270:0.01348 3272:0.02696 3276:0.01348 3277:0.05392 3278:0.04044 3279:0.02696 3280:0.01348 3283:0.01348 3285:0.01348 3287:0.05392 3290:0.01348 3293:0.04044 3295:0.05392 3296:0.01348 3301:0.01348 3303:0.01348 3305:0.01348 3306:0.02696 3307:0.01348 3308:0.02696 3309:0.05392 3310:0.01348 3312:0.01348 3317:0.01348 3321:0.05392 3327:0.01348 3328:0.04044 3329:0.01348 3336:0.01348 3337:0.02696 3341:0.05392 3344:0.02696 3345:0.01348 3347:0.01348 3348:0.04044 3352:0.01348 3353:0.01348 3357:0.01348 3358:0.01348 3359:0.01348 3366:0.02696 3369:0.01348 3376:0.01348 3383:0.01348 3385:0.02696 3387:0.01348 3389:0.02696 3392:0.01348 3395:0.01348 3402:0.02696 3405:0.01348 3407:0.01348 3408:0.01348 3409:0.02696 3413:0.01348 3417:0.01348 3418:0.01348 3421:0.01348 3422:0.04044 3423:0.01348 3425:0.01348 3429:0.01348 3436:0.01348 3437:0.01348 3438:0.01348 3440:0.01348 3441:0.01348 3448:0.01348 3449:0.01348 3453:0.01348 3457:0.04044 3458:0.01348 3460:0.01348 3462:0.01348 3467:0.01348 3468:0.01348 3470:0.01348 3472:0.01348 3477:0.02696 3478:0.01348 3479:0.02696 3483:0.01348 3487:0.02696 3492:0.01348 3497:0.01348 3498:0.01348 3499:0.02696 3501:0.01348 3504:0.02696 3505:0.01348 3507:0.01348 3509:0.01348 3513:0.01348 3517:0.01348 3521:0.04044 3524:0.04044 3525:0.01348 3527:0.01348 3532:0.01348 3534:0.01348 3535:0.02696 3537:0.01348 3557:0.02696 3558:0.01348 3559:0.02696 3560:0.01348 3562:0.01348 3565:0.01348 3566:0.01348 3567:0.01348 3571:0.01348 3572:0.01348 3575:0.01348 3577:0.02696 3578:0.01348 3579:0.01348 3580:0.04044 3581:0.01348 3582:0.01348 3583:0.02696 3584:0.01348 3585:0.02696 3586:0.05392 3587:0.01348 3588:0.02696 3589:0.01348 3596:0.01348 3597:0.01348 3598:0.02696 3600:0.01348 3603:0.01348 3604:0.01348 3609:0.01348 3610:0.01348 3611:0.02696 3617:0.01348 3623:0.01348 3626:0.01348 3631:0.04044 3633:0.01348 3646:0.01348 3648:0.02696 3649:0.04044 3651:0.02696 3653:0.01348 3656:0.02696 3657:0.02696 3658:0.01348 3660:0.04044 3661:0.01348 3662:0.01348 3664:0.05392 3665:0.01348 3667:0.02696 3668:0.01348 3670:0.01348 3671:0.01348 3674:0.01348 3675:0.02696 3676:0.01348 3680:0.01348 3686:0.01348 3687:0.02696 3688:0.01348 3689:0.01348 3690:0.02696 3692:0.02696 3693:0.02696 3695:0.05392 3696:0.01348 3702:0.01348 3704:0.02696 3707:0.02696 3708:0.01348 3710:0.01348 3711:0.01348 3713:0.02696 3720:0.01348 3722:0.01348 3725:0.01348 3727:0.01348 3729:0.01348 3731:0.01348 3732:0.02696 3734:0.04044 3735:0.01348 3737:0.02696 3738:0.02696 3742:0.01348 3743:0.01348 3745:0.01348 3747:0.01348 3750:0.01348 3752:0.01348 3753:0.01348 3754:0.04044 3756:0.02696 3758:0.01348 3760:0.01348 3761:0.01348 3768:0.01348 3773:0.01348 3782:0.01348 3784:0.01348 3785:0.01348 3787:0.01348 3790:0.04044 3791:0.02696 3792:0.01348 3793:0.01348 3794:0.01348 3803:0.01348 3807:0.02696 3809:0.05392 3812:0.01348 3813:0.01348 3814:0.02696 3819:0.01348 3821:0.01348 3822:0.01348 3824:0.01348 3827:0.01348 3829:0.01348 3832:0.01348 3834:0.01348 3836:0.01348 3837:0.05392 3838:0.05392 3839:0.05392 3840:0.0674 3841:0.02696 3842:0.02696 3843:0.01348 3844:0.05392 3847:0.01348 3848:0.01348 3852:0.01348 3855:0.04044 3856:0.04044 3861:0.01348 3865:0.01348 3866:0.02696 3867:0.01348 3870:0.01348 3872:0.02696 3873:0.04044 3876:0.04044 3878:0.01348 3880:0.02696 3881:0.01348 3885:0.01348 3888:0.01348 3893:0.01348 3894:0.02696 3895:0.01348 3896:0.02696 3899:0.05392 3900:0.02696 3903:0.01348 3904:0.01348 3906:0.01348 3908:0.04044 3909:0.05392 3912:0.01348 3915:0.01348 3919:0.04044 3920:0.02696 3921:0.01348 3924:0.01348 3925:0.01348 3928:0.05392 3932:0.02696 3934:0.01348 3936:0.01348 3937:0.02696 3938:0.01348 3939:0.01348 3940:0.01348 3942:0.01348 3945:0.01348 3947:0.01348 3948:0.02696 3949:0.01348 3953:0.04044 3956:0.02696 3957:0.01348 3962:0.01348 3964:0.01348 3966:0.01348 3968:0.04044 3969:0.02696 3970:0.01348 3972:0.01348 3973:0.01348 3977:0.01348 3979:0.01348 3980:0.02696 3984:0.01348 3986:0.01348 3987:0.01348 3988:0.04044 3989:0.01348 3991:0.02696 3994:0.01348 3995:0.01348 3996:0.01348 3998:0.02696 3999:0.01348 4000:0.01348 4001:0.01348 4005:0.01348 4006:0.01348 4007:0.02696 4009:0.02696 4010:0.01348 4011:0.01348 4014:0.01348 4018:0.01348 4024:0.01348 4025:0.01348 4026:0.01348 4030:0.01348 4032:0.10783 4033:0.08087 4036:0.04044 4038:0.01348 4039:0.02696 4040:0.02696 4041:0.04044 4042:0.01348 4044:0.01348 4046:0.01348 4047:0.0674 4048:0.01348 4049:0.02696 4050:0.04044 4051:0.01348 4052:0.04044 4053:0.02696 4054:0.04044 4055:0.02696 4056:0.01348 4057:0.04044 4058:0.01348 4059:0.02696 4060:0.01348 4061:0.04044 4063:0.01348 4064:0.01348 4067:0.01348 4069:0.04044 4070:0.02696 4071:0.02696 4072:0.04044 4074:0.04044 4075:0.04044 4076:0.01348 4077:0.01348 4080:0.04044 4081:0.02696 4082:0.02696 4083:0.02696 4084:0.05392 4085:0.02696 4086:0.0674 4087:0.02696 4088:0.04044 4089:0.01348 4090:0.02696 4091:0.02696 4092:0.04044 4093:0.05392 4094:0.02696 4095:0.01348 4096:0.09435 
0.03125 1:0.12866 2:0.05848 3:0.03509 4:0.10526 5:0.0117 6:0.0117 7:0.02339 8:0.03509 10:0.0117 11:0.0117 12:0.05848 13:0.05848 14:0.07018 15:0.07018 16:0.02339 17:0.02339 18:0.02339 19:0.02339 20:0.0117 21:0.0117 22:0.0117 23:0.0117 25:0.0117 26:0.02339 27:0.0117 29:0.0117 30:0.02339 31:0.02339 32:0.0117 33:0.03509 34:0.02339 37:0.02339 38:0.0117 40:0.0117 41:0.0117 42:0.02339 43:0.0117 44:0.0117 46:0.05848 47:0.02339 48:0.0117 49:0.05848 50:0.0117 51:0.03509 52:0.05848 53:0.07018 55:0.0117 56:0.02339 57:0.04678 58:0.0117 59:0.03509 60:0.04678 61:0.02339 62:0.02339 65:0.02339 66:0.02339 67:0.0117 68:0.02339 69:0.07018 71:0.02339 74:0.03509 76:0.0117 78:0.0117 80:0.02339 81:0.02339 86:0.0117 91:0.0117 94:0.0117 95:0.0117 97:0.0117 98:0.02339 99:0.0117 100:0.0117 101:0.0117 102:0.02339 105:0.0117 107:0.0117 114:0.0117 116:0.0117 118:0.02339 120:0.0117 121:0.02339 124:0.02339 125:0.03509 126:0.02339 127:0.0117 128:0.0117 129:0.0117 130:0.02339 131:0.04678 132:0.0117 133:0.0117 134:0.02339 135:0.0117 136:0.0117 145:0.0117 147:0.0117 148:0.0117 149:0.0117 153:0.0117 155:0.0117 161:0.02339 162:0.0117 164:0.0117 165:0.0117 166:0.0117 172:0.02339 174:0.0117 177:0.02339 178:0.02339 179:0.0117 181:0.09357 183:0.02339 185:0.02339 187:0.0117 188:0.0117 189:0.02339 190:0.03509 191:0.0117 192:0.0117 193:0.08187 196:0.03509 198:0.0117 201:0.0117 203:0.0117 204:0.02339 205:0.0117 206:0.0117 207:0.02339 208:0.07018 209:0.03509 210:0.02339 211:0.0117 212:0.0117 216:0.0117 217:0.02339 221:0.0117 222:0.0117 223:0.02339 225:0.03509 226:0.03509 227:0.0117 228:0.0117 229:0.0117 231:0.0117 232:0.0117 233:0.02339 234:0.02339 236:0.0117 237:0.0117 238:0.03509 240:0.02339 241:0.0117 242:0.02339 243:0.0117 244:0.02339 245:0.02339 246:0.0117 248:0.0117 250:0.0117 251:0.0117 252:0.02339 253:0.0117 255:0.0117 256:0.02339 257:0.04678 258:0.0117 259:0.0117 260:0.0117 261:0.05848 263:0.0117 264:0.0117 265:0.0117 268:0.0117 269:0.02339 271:0.02339 272:0.02339 273:0.04678 275:0.0117 276:0.03509 281:0.02339 288:0.0117 292:0.02339 293:0.0117 295:0.02339 298:0.03509 302:0.0117 304:0.02339 307:0.0117 308:0.0117 309:0.0117 313:0.03509 314:0.0117 315:0.0117 316:0.02339 317:0.0117 319:0.0117 320:0.04678 321:0.02339 322:0.0117 323:0.03509 324:0.0117 333:0.02339 336:0.0117 339:0.02339 344:0.0117 347:0.0117 352:0.02339 360:0.0117 363:0.0117 375:0.0117 376:0.0117 377:0.0117 378:0.0117 379:0.0117 384:0.0117 385:0.02339 388:0.0117 389:0.0117 392:0.0117 393:0.02339 399:0.02339 401:0.0117 405:0.0117 406:0.0117 407:0.0117 410:0.0117 414:0.0117 417:0.0117 421:0.0117 424:0.0117 426:0.0117 449:0.0117 451:0.02339 452:0.02339 456:0.0117 457:0.0117 461:0.02339 464:0.02339 469:0.0117 471:0.02339 472:0.0117 475:0.0117 478:0.03509 481:0.04678 482:0.0117 490:0.02339 491:0.02339 493:0.0117 494:0.0117 496:0.0117 497:0.02339 498:0.0117 499:0.0117 500:0.0117 501:0.0117 502:0.03509 503:0.03509 504:0.02339 506:0.0117 507:0.02339 508:0.0117 509:0.0117 511:0.02339 512:0.05848 516:0.02339 517:0.0117 518:0.0117 521:0.02339 522:0.0117 524:0.02339 525:0.02339 528:0.0117 529:0.0117 530:0.02339 532:0.02339 534:0.0117 536:0.0117 538:0.0117 541:0.0117 547:0.0117 548:0.02339 549:0.02339 551:0.0117 555:0.0117 556:0.0117 558:0.02339 560:0.0117 561:0.02339 564:0.0117 566:0.02339 570:0.0117 574:0.0117 575:0.0117 576:0.02339 577:0.0117 578:0.0117 579:0.0117 580:0.02339 581:0.0117 582:0.0117 585:0.02339 587:0.03509 592:0.0117 593:0.0117 594:0.0117 595:0.0117 597:0.0117 600:0.0117 604:0.0117 607:0.0117 609:0.0117 610:0.0117 612:0.0117 613:0.0117 617:0.0117 618:0.0117 620:0.0117 621:0.0117 640:0.0117 641:0.0117 642:0.02339 643:0.03509 644:0.02339 646:0.02339 651:0.0117 652:0.0117 654:0.0117 656:0.0117 657:0.02339 661:0.02339 663:0.03509 666:0.02339 669:0.0117 677:0.0117 680:0.0117 684:0.0117 686:0.0117 687:0.0117 693:0.0117 694:0.02339 696:0.0117 701:0.02339 705:0.0117 706:0.03509 707:0.0117 709:0.0117 710:0.03509 711:0.0117 714:0.02339 715:0.0117 716:0.0117 721:0.0117 722:0.02339 723:0.02339 724:0.07018 729:0.0117 730:0.03509 731:0.0117 732:0.0117 736:0.0117 738:0.0117 740:0.0117 742:0.0117 743:0.0117 745:0.02339 746:0.0117 747:0.0117 749:0.0117 754:0.0117 755:0.0117 756:0.0117 757:0.0117 758:0.02339 759:0.02339 763:0.0117 764:0.0117 765:0.0117 767:0.02339 768:0.03509 769:0.10526 770:0.03509 771:0.02339 772:0.04678 773:0.0117 776:0.0117 777:0.0117 780:0.0117 781:0.0117 784:0.02339 789:0.0117 802:0.02339 804:0.0117 805:0.02339 809:0.0117 810:0.0117 813:0.02339 815:0.0117 816:0.0117 817:0.02339 819:0.0117 820:0.02339 821:0.02339 822:0.0117 824:0.0117 826:0.02339 827:0.02339 828:0.0117 829:0.02339 830:0.02339 831:0.0117 832:0.05848 833:0.03509 837:0.0117 840:0.0117 842:0.0117 845:0.02339 846:0.0117 847:0.02339 848:0.0117 852:0.03509 853:0.02339 859:0.0117 862:0.0117 864:0.0117 865:0.02339 869:0.0117 872:0.0117 879:0.0117 880:0.0117 881:0.0117 882:0.0117 884:0.0117 886:0.0117 887:0.0117 888:0.02339 890:0.0117 892:0.02339 897:0.03509 899:0.0117 901:0.02339 904:0.07018 906:0.0117 909:0.02339 911:0.03509 912:0.0117 913:0.0117 914:0.02339 917:0.03509 921:0.02339 922:0.0117 923:0.0117 928:0.0117 929:0.0117 932:0.03509 933:0.02339 934:0.05848 935:0.0117 937:0.0117 938:0.0117 939:0.0117 941:0.0117 942:0.0117 943:0.0117 947:0.0117 949:0.02339 950:0.0117 951:0.02339 952:0.02339 954:0.0117 955:0.0117 956:0.03509 957:0.0117 958:0.0117 960:0.0117 962:0.0117 963:0.0117 965:0.02339 966:0.0117 969:0.0117 970:0.0117 972:0.02339 976:0.03509 977:0.0117 978:0.0117 982:0.0117 984:0.02339 985:0.0117 987:0.02339 988:0.0117 989:0.0117 990:0.0117 992:0.0117 993:0.0117 997:0.0117 998:0.03509 1000:0.02339 1002:0.0117 1003:0.0117 1004:0.0117 1005:0.0117 1006:0.02339 1007:0.0117 1008:0.02339 1009:0.0117 1012:0.04678 1013:0.04678 1014:0.0117 1016:0.02339 1017:0.03509 1018:0.04678 1020:0.0117 1021:0.05848 1022:0.02339 1023:0.02339 1024:0.10526 1025:0.07018 1027:0.02339 1028:0.02339 1029:0.02339 1031:0.0117 1032:0.02339 1033:0.0117 1035:0.0117 1036:0.02339 1037:0.03509 1039:0.04678 1040:0.0117 1041:0.03509 1042:0.05848 1043:0.0117 1049:0.02339 1050:0.0117 1051:0.0117 1055:0.0117 1056:0.0117 1057:0.03509 1063:0.0117 1065:0.02339 1067:0.0117 1069:0.02339 1070:0.0117 1072:0.0117 1073:0.03509 1076:0.0117 1080:0.0117 1081:0.03509 1082:0.0117 1083:0.02339 1084:0.0117 1085:0.02339 1087:0.02339 1089:0.02339 1090:0.03509 1092:0.0117 1097:0.0117 1099:0.02339 1103:0.05848 1105:0.04678 1108:0.0117 1112:0.0117 1121:0.02339 1123:0.0117 1124:0.0117 1130:0.02339 1137:0.0117 1140:0.0117 1142:0.0117 1143:0.0117 1147:0.0117 1149:0.0117 1150:0.0117 1152:0.02339 1153:0.0117 1155:0.0117 1157:0.0117 1161:0.0117 1163:0.0117 1165:0.0117 1168:0.02339 1169:0.02339 1170:0.0117 1173:0.0117 1177:0.02339 1178:0.0117 1179:0.0117 1185:0.03509 1186:0.0117 1187:0.0117 1190:0.04678 1191:0.0117 1192:0.0117 1195:0.0117 1198:0.02339 1200:0.0117 1201:0.0117 1202:0.03509 1203:0.0117 1205:0.0117 1207:0.0117 1210:0.0117 1214:0.0117 1215:0.0117 1216:0.02339 1217:0.09357 1219:0.0117 1225:0.02339 1226:0.0117 1227:0.0117 1229:0.0117 1231:0.02339 1232:0.02339 1236:0.03509 1237:0.02339 1238:0.02339 1242:0.02339 1244:0.02339 1246:0.0117 1249:0.0117 1252:0.02339 1253:0.0117 1258:0.0117 1262:0.02339 1263:0.05848 1265:0.0117 1267:0.0117 1271:0.0117 1274:0.04678 1275:0.0117 1276:0.02339 1278:0.02339 1279:0.04678 1280:0.07018 1281:0.05848 1282:0.0117 1283:0.02339 1287:0.0117 1288:0.0117 1291:0.03509 1292:0.02339 1293:0.0117 1295:0.0117 1296:0.0117 1299:0.0117 1300:0.0117 1301:0.0117 1302:0.0117 1305:0.02339 1307:0.0117 1309:0.02339 1310:0.0117 1312:0.0117 1317:0.0117 1322:0.0117 1323:0.0117 1324:0.0117 1325:0.02339 1326:0.0117 1327:0.0117 1329:0.04678 1331:0.02339 1332:0.02339 1334:0.03509 1335:0.0117 1340:0.0117 1343:0.02339 1344:0.03509 1345:0.02339 1347:0.0117 1348:0.0117 1350:0.0117 1351:0.0117 1352:0.0117 1354:0.0117 1356:0.02339 1357:0.02339 1358:0.0117 1364:0.0117 1367:0.0117 1371:0.0117 1375:0.0117 1387:0.02339 1388:0.0117 1392:0.0117 1398:0.0117 1400:0.0117 1403:0.0117 1407:0.0117 1408:0.0117 1409:0.0117 1412:0.02339 1416:0.0117 1417:0.0117 1418:0.0117 1419:0.0117 1420:0.0117 1428:0.0117 1430:0.0117 1438:0.0117 1439:0.0117 1440:0.0117 1443:0.02339 1444:0.0117 1445:0.0117 1449:0.0117 1451:0.0117 1452:0.0117 1456:0.0117 1466:0.0117 1467:0.0117 1471:0.0117 1472:0.0117 1474:0.0117 1480:0.0117 1487:0.0117 1488:0.0117 1495:0.02339 1496:0.0117 1497:0.0117 1499:0.0117 1502:0.0117 1503:0.0117 1507:0.0117 1509:0.02339 1510:0.02339 1511:0.0117 1512:0.03509 1514:0.03509 1518:0.0117 1519:0.02339 1525:0.0117 1531:0.03509 1533:0.0117 1534:0.02339 1535:0.0117 1536:0.0117 1537:0.02339 1538:0.0117 1539:0.0117 1544:0.02339 1548:0.03509 1549:0.02339 1550:0.0117 1551:0.0117 1553:0.02339 1556:0.02339 1565:0.0117 1566:0.02339 1567:0.0117 1568:0.02339 1569:0.0117 1571:0.04678 1572:0.0117 1573:0.0117 1574:0.0117 1575:0.0117 1577:0.0117 1580:0.0117 1583:0.0117 1593:0.0117 1594:0.02339 1595:0.0117 1598:0.0117 1600:0.0117 1601:0.0117 1602:0.0117 1608:0.0117 1609:0.0117 1610:0.0117 1611:0.0117 1614:0.03509 1616:0.0117 1620:0.0117 1621:0.02339 1625:0.02339 1626:0.0117 1629:0.0117 1631:0.0117 1633:0.0117 1634:0.02339 1635:0.02339 1639:0.02339 1646:0.0117 1655:0.0117 1656:0.0117 1657:0.0117 1658:0.0117 1660:0.02339 1662:0.0117 1663:0.0117 1665:0.04678 1673:0.0117 1675:0.02339 1676:0.02339 1678:0.0117 1681:0.0117 1682:0.0117 1685:0.0117 1688:0.03509 1689:0.02339 1692:0.0117 1693:0.0117 1699:0.0117 1702:0.0117 1707:0.0117 1710:0.0117 1713:0.0117 1728:0.0117 1729:0.0117 1736:0.0117 1760:0.0117 1765:0.0117 1769:0.0117 1770:0.0117 1771:0.0117 1776:0.02339 1778:0.0117 1782:0.0117 1785:0.0117 1786:0.0117 1787:0.0117 1788:0.0117 1790:0.0117 1791:0.0117 1792:0.02339 1793:0.04678 1800:0.0117 1801:0.0117 1804:0.0117 1805:0.0117 1806:0.0117 1807:0.0117 1808:0.0117 1809:0.0117 1812:0.0117 1821:0.02339 1823:0.0117 1824:0.0117 1825:0.0117 1838:0.0117 1841:0.02339 1844:0.0117 1849:0.0117 1851:0.02339 1852:0.0117 1854:0.0117 1856:0.03509 1867:0.0117 1872:0.0117 1874:0.02339 1879:0.0117 1881:0.0117 1882:0.02339 1883:0.02339 1885:0.0117 1887:0.0117 1889:0.0117 1890:0.02339 1893:0.0117 1895:0.02339 1897:0.0117 1898:0.03509 1903:0.0117 1904:0.0117 1905:0.0117 1906:0.0117 1909:0.0117 1910:0.0117 1911:0.04678 1912:0.0117 1913:0.0117 1914:0.0117 1921:0.03509 1922:0.0117 1925:0.0117 1926:0.0117 1928:0.02339 1929:0.0117 1936:0.0117 1937:0.03509 1938:0.0117 1941:0.0117 1942:0.0117 1945:0.0117 1946:0.0117 1949:0.0117 1950:0.03509 1952:0.0117 1957:0.0117 1958:0.03509 1960:0.0117 1961:0.0117 1964:0.02339 1969:0.02339 1973:0.02339 1977:0.0117 1979:0.0117 1980:0.0117 1982:0.0117 1983:0.0117 1984:0.02339 1985:0.02339 1988:0.0117 1992:0.0117 1996:0.02339 1998:0.0117 1999:0.0117 2001:0.0117 2004:0.0117 2005:0.0117 2008:0.03509 2009:0.0117 2010:0.02339 2015:0.0117 2016:0.04678 2017:0.0117 2018:0.0117 2021:0.0117 2024:0.0117 2026:0.0117 2027:0.0117 2028:0.03509 2029:0.0117 2032:0.0117 2033:0.0117 2034:0.0117 2036:0.02339 2037:0.04678 2038:0.02339 2039:0.0117 2041:0.0117 2043:0.02339 2044:0.0117 2045:0.0117 2046:0.0117 2047:0.02339 2048:0.03509 2049:0.03509 2051:0.0117 2052:0.02339 2053:0.02339 2054:0.02339 2055:0.0117 2057:0.03509 2058:0.02339 2059:0.02339 2061:0.02339 2062:0.03509 2063:0.02339 2066:0.0117 2067:0.0117 2068:0.0117 2069:0.0117 2073:0.0117 2078:0.0117 2079:0.0117 2080:0.03509 2081:0.0117 2082:0.02339 2087:0.0117 2089:0.0117 2093:0.02339 2094:0.04678 2095:0.0117 2096:0.02339 2097:0.02339 2099:0.0117 2100:0.02339 2103:0.0117 2104:0.0117 2106:0.0117 2110:0.02339 2112:0.02339 2114:0.02339 2116:0.02339 2117:0.02339 2123:0.0117 2124:0.0117 2125:0.02339 2127:0.02339 2128:0.03509 2132:0.0117 2135:0.0117 2136:0.0117 2142:0.0117 2143:0.02339 2144:0.0117 2151:0.0117 2161:0.02339 2163:0.0117 2166:0.0117 2168:0.02339 2171:0.0117 2172:0.0117 2174:0.04678 2175:0.0117 2176:0.05848 2180:0.0117 2181:0.0117 2185:0.02339 2186:0.0117 2187:0.0117 2188:0.03509 2190:0.02339 2191:0.0117 2192:0.0117 2193:0.0117 2195:0.03509 2197:0.0117 2203:0.0117 2204:0.0117 2209:0.02339 2212:0.0117 2218:0.02339 2222:0.0117 2224:0.0117 2229:0.0117 2231:0.02339 2234:0.0117 2235:0.0117 2238:0.0117 2240:0.02339 2241:0.0117 2243:0.0117 2253:0.03509 2256:0.0117 2263:0.0117 2264:0.0117 2270:0.02339 2274:0.0117 2276:0.0117 2278:0.02339 2279:0.03509 2281:0.02339 2282:0.0117 2283:0.0117 2288:0.0117 2290:0.0117 2291:0.0117 2294:0.0117 2295:0.0117 2297:0.0117 2302:0.03509 2304:0.07018 2305:0.0117 2306:0.02339 2308:0.04678 2309:0.0117 2311:0.0117 2314:0.0117 2316:0.0117 2317:0.0117 2319:0.04678 2320:0.0117 2321:0.0117 2324:0.0117 2325:0.02339 2331:0.0117 2334:0.0117 2335:0.0117 2337:0.02339 2338:0.0117 2339:0.0117 2340:0.0117 2343:0.0117 2345:0.05848 2346:0.02339 2348:0.0117 2356:0.02339 2357:0.0117 2358:0.0117 2359:0.02339 2360:0.0117 2364:0.0117 2366:0.0117 2367:0.0117 2368:0.0117 2369:0.03509 2370:0.0117 2371:0.0117 2372:0.0117 2375:0.0117 2376:0.0117 2379:0.03509 2380:0.02339 2381:0.04678 2382:0.0117 2383:0.0117 2384:0.02339 2385:0.02339 2386:0.02339 2388:0.0117 2396:0.0117 2398:0.02339 2401:0.02339 2402:0.0117 2403:0.03509 2408:0.0117 2409:0.0117 2415:0.02339 2418:0.0117 2420:0.0117 2426:0.02339 2427:0.0117 2428:0.03509 2432:0.02339 2433:0.0117 2434:0.0117 2435:0.02339 2437:0.02339 2440:0.03509 2441:0.02339 2442:0.0117 2447:0.02339 2449:0.0117 2451:0.0117 2452:0.0117 2456:0.02339 2457:0.0117 2460:0.0117 2463:0.0117 2465:0.0117 2467:0.02339 2471:0.0117 2477:0.0117 2481:0.0117 2482:0.0117 2488:0.0117 2495:0.0117 2496:0.02339 2497:0.02339 2500:0.0117 2504:0.02339 2509:0.0117 2511:0.0117 2516:0.0117 2521:0.0117 2522:0.0117 2523:0.0117 2525:0.02339 2526:0.0117 2530:0.02339 2532:0.0117 2535:0.0117 2539:0.0117 2544:0.03509 2545:0.0117 2552:0.0117 2554:0.0117 2557:0.0117 2558:0.02339 2560:0.0117 2561:0.03509 2562:0.04678 2563:0.02339 2564:0.0117 2565:0.0117 2567:0.0117 2568:0.02339 2569:0.0117 2572:0.03509 2573:0.0117 2574:0.0117 2576:0.0117 2580:0.0117 2581:0.0117 2584:0.02339 2594:0.0117 2595:0.0117 2596:0.0117 2601:0.02339 2603:0.0117 2606:0.0117 2607:0.0117 2608:0.02339 2612:0.0117 2616:0.02339 2618:0.0117 2619:0.03509 2621:0.0117 2625:0.03509 2628:0.03509 2632:0.0117 2635:0.02339 2637:0.0117 2638:0.02339 2641:0.02339 2643:0.03509 2644:0.05848 2645:0.02339 2647:0.0117 2649:0.04678 2655:0.04678 2656:0.0117 2657:0.0117 2658:0.0117 2661:0.02339 2665:0.0117 2669:0.0117 2672:0.02339 2673:0.02339 2674:0.02339 2679:0.0117 2681:0.0117 2688:0.0117 2689:0.03509 2690:0.0117 2692:0.0117 2697:0.0117 2703:0.02339 2707:0.0117 2709:0.03509 2715:0.0117 2716:0.0117 2717:0.02339 2721:0.02339 2729:0.0117 2736:0.0117 2738:0.02339 2741:0.0117 2744:0.0117 2747:0.0117 2752:0.0117 2756:0.0117 2760:0.03509 2768:0.0117 2770:0.0117 2771:0.0117 2773:0.0117 2776:0.02339 2784:0.02339 2785:0.0117 2786:0.0117 2789:0.0117 2792:0.0117 2793:0.0117 2795:0.0117 2801:0.0117 2802:0.0117 2808:0.0117 2814:0.02339 2816:0.0117 2817:0.02339 2819:0.0117 2821:0.0117 2822:0.0117 2823:0.0117 2824:0.0117 2828:0.0117 2830:0.0117 2832:0.02339 2833:0.02339 2834:0.0117 2837:0.0117 2838:0.02339 2842:0.0117 2847:0.03509 2848:0.02339 2851:0.0117 2852:0.0117 2854:0.02339 2858:0.0117 2864:0.0117 2880:0.0117 2882:0.02339 2883:0.0117 2885:0.0117 2886:0.0117 2888:0.0117 2889:0.0117 2890:0.02339 2892:0.0117 2893:0.04678 2894:0.0117 2896:0.03509 2897:0.0117 2898:0.0117 2911:0.0117 2912:0.0117 2915:0.02339 2917:0.0117 2918:0.0117 2919:0.02339 2920:0.0117 2922:0.0117 2928:0.02339 2932:0.02339 2934:0.0117 2938:0.0117 2941:0.0117 2942:0.02339 2944:0.02339 2948:0.0117 2950:0.0117 2952:0.02339 2960:0.02339 2963:0.0117 2964:0.02339 2967:0.0117 2969:0.0117 2973:0.0117 2975:0.0117 2977:0.03509 2978:0.0117 2979:0.02339 2981:0.0117 2984:0.0117 2985:0.0117 2986:0.02339 2994:0.0117 3000:0.02339 3006:0.0117 3007:0.05848 3008:0.02339 3009:0.0117 3012:0.0117 3013:0.0117 3016:0.03509 3019:0.0117 3021:0.02339 3025:0.0117 3027:0.0117 3029:0.0117 3030:0.0117 3032:0.02339 3033:0.0117 3034:0.0117 3040:0.02339 3041:0.02339 3042:0.02339 3047:0.0117 3048:0.0117 3050:0.0117 3052:0.0117 3054:0.02339 3055:0.03509 3056:0.02339 3060:0.03509 3062:0.04678 3063:0.0117 3065:0.0117 3066:0.02339 3067:0.0117 3068:0.0117 3069:0.02339 3072:0.05848 3073:0.09357 3074:0.02339 3075:0.0117 3076:0.05848 3077:0.02339 3080:0.0117 3081:0.0117 3082:0.0117 3083:0.0117 3084:0.0117 3085:0.04678 3088:0.0117 3089:0.02339 3092:0.0117 3096:0.02339 3097:0.0117 3101:0.0117 3104:0.02339 3105:0.0117 3106:0.0117 3109:0.0117 3117:0.0117 3119:0.0117 3120:0.03509 3124:0.02339 3125:0.0117 3126:0.0117 3129:0.0117 3132:0.0117 3133:0.02339 3135:0.02339 3136:0.02339 3137:0.03509 3139:0.0117 3140:0.0117 3144:0.0117 3145:0.0117 3148:0.0117 3152:0.0117 3153:0.0117 3156:0.0117 3157:0.02339 3162:0.0117 3174:0.0117 3176:0.0117 3185:0.02339 3188:0.02339 3193:0.03509 3195:0.02339 3197:0.0117 3198:0.02339 3199:0.02339 3204:0.0117 3205:0.02339 3210:0.02339 3213:0.02339 3216:0.0117 3217:0.0117 3218:0.0117 3219:0.0117 3222:0.02339 3223:0.0117 3224:0.0117 3233:0.0117 3235:0.0117 3237:0.0117 3239:0.0117 3249:0.02339 3251:0.02339 3253:0.0117 3255:0.0117 3256:0.0117 3259:0.02339 3261:0.0117 3264:0.0117 3265:0.02339 3266:0.02339 3274:0.0117 3276:0.02339 3278:0.03509 3279:0.0117 3280:0.0117 3284:0.02339 3285:0.0117 3293:0.02339 3295:0.0117 3298:0.04678 3300:0.02339 3301:0.0117 3302:0.0117 3306:0.04678 3307:0.02339 3308:0.02339 3310:0.02339 3315:0.0117 3316:0.0117 3318:0.0117 3319:0.02339 3320:0.02339 3322:0.0117 3323:0.0117 3324:0.02339 3325:0.04678 3326:0.02339 3327:0.03509 3328:0.05848 3330:0.0117 3331:0.0117 3332:0.03509 3333:0.03509 3335:0.0117 3337:0.02339 3342:0.0117 3345:0.0117 3347:0.0117 3349:0.02339 3360:0.02339 3363:0.0117 3365:0.0117 3366:0.0117 3367:0.0117 3372:0.0117 3373:0.03509 3376:0.02339 3377:0.05848 3379:0.0117 3381:0.0117 3383:0.0117 3388:0.03509 3389:0.0117 3391:0.03509 3392:0.04678 3393:0.0117 3397:0.02339 3398:0.0117 3399:0.0117 3400:0.02339 3406:0.02339 3408:0.02339 3409:0.02339 3410:0.0117 3411:0.0117 3412:0.0117 3413:0.0117 3414:0.0117 3419:0.0117 3425:0.0117 3427:0.0117 3429:0.0117 3430:0.0117 3432:0.0117 3433:0.02339 3434:0.0117 3440:0.0117 3441:0.0117 3444:0.0117 3446:0.02339 3447:0.0117 3450:0.05848 3454:0.0117 3455:0.02339 3456:0.0117 3458:0.0117 3459:0.0117 3460:0.0117 3461:0.0117 3464:0.0117 3465:0.0117 3466:0.0117 3467:0.0117 3472:0.02339 3474:0.0117 3475:0.0117 3476:0.02339 3479:0.02339 3481:0.04678 3482:0.0117 3487:0.02339 3488:0.0117 3489:0.02339 3491:0.0117 3494:0.04678 3495:0.02339 3515:0.02339 3516:0.02339 3517:0.0117 3518:0.0117 3519:0.02339 3520:0.0117 3521:0.0117 3524:0.0117 3525:0.02339 3532:0.0117 3535:0.02339 3536:0.0117 3539:0.0117 3541:0.0117 3542:0.0117 3543:0.0117 3545:0.0117 3546:0.02339 3547:0.0117 3548:0.02339 3550:0.02339 3551:0.0117 3554:0.0117 3557:0.02339 3559:0.0117 3560:0.02339 3565:0.0117 3567:0.0117 3571:0.0117 3572:0.0117 3574:0.0117 3576:0.02339 3577:0.02339 3580:0.0117 3581:0.0117 3582:0.03509 3583:0.0117 3585:0.0117 3587:0.04678 3588:0.04678 3589:0.0117 3592:0.0117 3595:0.0117 3596:0.0117 3600:0.02339 3601:0.0117 3603:0.02339 3604:0.02339 3606:0.0117 3608:0.0117 3613:0.0117 3614:0.0117 3615:0.0117 3616:0.09357 3619:0.0117 3621:0.0117 3636:0.02339 3641:0.0117 3642:0.0117 3644:0.0117 3645:0.0117 3648:0.07018 3649:0.02339 3651:0.0117 3652:0.0117 3653:0.0117 3654:0.0117 3655:0.0117 3657:0.02339 3659:0.02339 3661:0.0117 3663:0.0117 3664:0.0117 3665:0.03509 3666:0.0117 3667:0.0117 3668:0.02339 3672:0.0117 3675:0.0117 3676:0.0117 3677:0.0117 3680:0.0117 3681:0.0117 3682:0.0117 3683:0.0117 3684:0.0117 3686:0.02339 3688:0.0117 3689:0.0117 3696:0.0117 3697:0.0117 3700:0.02339 3701:0.0117 3703:0.0117 3704:0.02339 3705:0.0117 3707:0.0117 3708:0.0117 3709:0.0117 3712:0.02339 3713:0.02339 3714:0.0117 3715:0.0117 3717:0.0117 3718:0.0117 3721:0.0117 3724:0.0117 3725:0.0117 3727:0.02339 3729:0.03509 3731:0.0117 3732:0.03509 3733:0.04678 3734:0.03509 3735:0.0117 3736:0.02339 3740:0.0117 3742:0.0117 3743:0.0117 3744:0.0117 3745:0.03509 3748:0.02339 3750:0.02339 3751:0.02339 3752:0.0117 3753:0.0117 3757:0.02339 3762:0.0117 3764:0.0117 3766:0.0117 3769:0.02339 3770:0.02339 3771:0.0117 3774:0.0117 3776:0.0117 3777:0.0117 3778:0.0117 3780:0.02339 3781:0.02339 3784:0.0117 3785:0.02339 3793:0.02339 3795:0.0117 3796:0.02339 3797:0.0117 3801:0.0117 3802:0.02339 3804:0.0117 3805:0.02339 3806:0.0117 3807:0.0117 3808:0.0117 3810:0.0117 3812:0.0117 3813:0.0117 3816:0.0117 3817:0.02339 3822:0.02339 3824:0.07018 3825:0.0117 3826:0.0117 3828:0.0117 3829:0.0117 3830:0.0117 3832:0.0117 3833:0.03509 3834:0.0117 3836:0.05848 3837:0.02339 3838:0.02339 3839:0.02339 3840:0.0117 3841:0.0117 3843:0.0117 3844:0.0117 3845:0.0117 3846:0.0117 3850:0.0117 3852:0.02339 3855:0.0117 3856:0.0117 3857:0.02339 3859:0.02339 3863:0.0117 3866:0.0117 3869:0.02339 3871:0.0117 3872:0.02339 3875:0.0117 3876:0.0117 3877:0.0117 3878:0.02339 3881:0.0117 3885:0.02339 3886:0.02339 3887:0.0117 3891:0.02339 3892:0.02339 3896:0.02339 3897:0.05848 3899:0.04678 3902:0.02339 3903:0.03509 3904:0.05848 3905:0.02339 3906:0.02339 3907:0.0117 3908:0.0117 3910:0.0117 3916:0.04678 3919:0.0117 3920:0.03509 3922:0.03509 3924:0.0117 3925:0.03509 3926:0.02339 3929:0.02339 3930:0.0117 3932:0.0117 3933:0.0117 3934:0.02339 3935:0.03509 3936:0.02339 3939:0.0117 3940:0.02339 3941:0.0117 3942:0.0117 3943:0.0117 3944:0.0117 3945:0.0117 3946:0.02339 3951:0.02339 3952:0.0117 3955:0.0117 3959:0.0117 3962:0.02339 3965:0.0117 3966:0.0117 3967:0.03509 3968:0.03509 3969:0.03509 3970:0.0117 3971:0.0117 3972:0.0117 3973:0.02339 3976:0.0117 3984:0.03509 3987:0.03509 3988:0.0117 3989:0.03509 3991:0.0117 3992:0.02339 3994:0.0117 3996:0.0117 3997:0.0117 3998:0.0117 3999:0.02339 4000:0.0117 4002:0.0117 4005:0.03509 4006:0.02339 4008:0.0117 4009:0.02339 4010:0.02339 4013:0.0117 4015:0.04678 4016:0.02339 4017:0.02339 4018:0.02339 4019:0.0117 4021:0.0117 4023:0.02339 4024:0.0117 4025:0.0117 4026:0.0117 4028:0.04678 4029:0.02339 4031:0.03509 4032:0.02339 4034:0.0117 4035:0.02339 4037:0.0117 4039:0.0117 4040:0.0117 4041:0.0117 4042:0.02339 4044:0.0117 4045:0.02339 4046:0.0117 4047:0.09357 4048:0.08187 4049:0.03509 4051:0.03509 4052:0.03509 4053:0.02339 4054:0.03509 4055:0.04678 4056:0.0117 4058:0.0117 4059:0.0117 4060:0.02339 4063:0.0117 4064:0.0117 4065:0.02339 4068:0.03509 4069:0.02339 4070:0.03509 4071:0.0117 4072:0.0117 4073:0.0117 4074:0.03509 4075:0.02339 4076:0.02339 4077:0.03509 4079:0.02339 4080:0.02339 4081:0.0117 4082:0.02339 4083:0.04678 4084:0.10526 4085:0.0117 4086:0.03509 4087:0.02339 4090:0.0117 4091:0.05848 4092:0.04678 4093:0.09357 4094:0.03509 4095:0.07018 4096:0.12866 
0.03125 1:0.0276 2:0.0276 3:0.0276 4:0.0414 5:0.0414 6:0.0138 7:0.0276 8:0.05521 9:0.0276 10:0.0138 11:0.0138 12:0.0276 13:0.05521 14:0.0276 15:0.0138 16:0.0276 17:0.05521 18:0.0414 20:0.0138 24:0.0138 25:0.0138 27:0.0276 29:0.0414 30:0.0138 31:0.0414 33:0.0414 34:0.0138 36:0.0138 39:0.0138 41:0.0414 43:0.0138 44:0.0276 45:0.0414 47:0.0414 49:0.05521 51:0.0138 52:0.0276 53:0.0138 55:0.0276 56:0.0138 57:0.0414 58:0.0138 59:0.0138 60:0.0276 61:0.0414 62:0.0138 63:0.0138 64:0.0276 65:0.05521 67:0.0276 68:0.0276 69:0.0138 70:0.0138 71:0.0276 72:0.0138 75:0.0276 77:0.0138 80:0.0138 81:0.0138 83:0.0138 84:0.0276 85:0.0138 87:0.0138 89:0.0276 90:0.0276 93:0.0138 95:0.0138 96:0.0138 97:0.0276 103:0.0138 105:0.0138 106:0.0138 107:0.0276 108:0.0138 111:0.0138 113:0.0276 114:0.0138 115:0.0138 117:0.0138 118:0.0138 121:0.0276 122:0.0276 125:0.0138 129:0.0414 130:0.0138 132:0.0138 134:0.0276 135:0.0138 138:0.0138 141:0.0414 144:0.0138 145:0.0138 149:0.0138 152:0.0138 155:0.0138 156:0.0138 161:0.0276 162:0.0138 163:0.0138 165:0.0138 167:0.0138 170:0.0276 172:0.0276 173:0.0138 174:0.0138 175:0.0138 176:0.0138 177:0.0414 180:0.0138 181:0.0138 185:0.0138 186:0.0138 188:0.0138 190:0.0138 193:0.0276 195:0.0138 196:0.0138 197:0.0138 200:0.0138 202:0.0138 205:0.0276 206:0.0138 207:0.0276 208:0.0276 210:0.0276 212:0.0276 216:0.0138 217:0.0138 219:0.0138 220:0.0138 221:0.0138 224:0.0138 225:0.0276 227:0.0276 228:0.0138 229:0.0276 230:0.0276 231:0.0276 232:0.0138 233:0.0138 236:0.0138 238:0.0138 239:0.0138 240:0.0138 241:0.0276 243:0.0414 248:0.0414 251:0.0138 253:0.0414 255:0.0276 256:0.0276 257:0.0414 258:0.0138 259:0.0138 260:0.0138 261:0.0276 263:0.0276 265:0.0276 266:0.0138 267:0.0138 269:0.0276 270:0.0138 271:0.0276 274:0.0138 275:0.0138 278:0.0138 279:0.0276 280:0.0138 282:0.0276 283:0.0276 284:0.0138 286:0.0138 288:0.0138 289:0.0138 290:0.0138 291:0.0276 293:0.0138 297:0.0138 299:0.0138 300:0.0138 306:0.0138 308:0.0414 310:0.0138 315:0.0138 316:0.0276 318:0.0138 320:0.0276 321:0.0138 322:0.0138 330:0.0276 333:0.0138 336:0.0138 337:0.0138 339:0.0138 340:0.0138 343:0.0138 347:0.0276 352:0.0276 353:0.0276 354:0.0276 355:0.0138 357:0.0414 359:0.0138 363:0.0138 365:0.0138 366:0.0138 367:0.0138 368:0.0138 369:0.0138 370:0.0276 379:0.0138 380:0.0138 381:0.0138 382:0.0138 384:0.0276 385:0.0276 390:0.0138 395:0.0138 396:0.0138 399:0.0138 400:0.0138 401:0.0276 402:0.0138 403:0.0138 407:0.0138 410:0.0414 413:0.0138 414:0.0138 416:0.0138 417:0.0138 420:0.0138 421:0.0138 423:0.0138 424:0.0276 425:0.0138 426:0.0276 429:0.0138 430:0.0138 431:0.0276 444:0.0138 446:0.0138 449:0.0138 450:0.0276 452:0.0138 453:0.0138 456:0.0138 457:0.0138 461:0.0138 465:0.0138 468:0.0276 471:0.0276 474:0.0138 476:0.0138 481:0.0138 484:0.0276 485:0.0138 488:0.0276 490:0.0138 497:0.0276 507:0.0138 509:0.0138 510:0.0414 512:0.0276 513:0.0276 515:0.0276 517:0.0138 518:0.0276 520:0.0138 521:0.0138 527:0.0138 528:0.0414 529:0.0414 530:0.0138 533:0.0138 535:0.0138 536:0.0138 537:0.0138 538:0.0276 545:0.0138 546:0.0138 547:0.0138 549:0.0276 550:0.0414 551:0.0138 555:0.0138 561:0.0138 562:0.0414 564:0.0414 568:0.0276 569:0.0138 575:0.0138 576:0.0138 577:0.0138 578:0.0138 582:0.0138 585:0.0138 588:0.0276 589:0.0138 590:0.0276 592:0.0138 593:0.0414 594:0.0138 596:0.0276 600:0.0138 601:0.0138 602:0.0138 604:0.0276 605:0.0138 606:0.0138 613:0.0138 615:0.0138 616:0.0276 617:0.0414 618:0.0138 621:0.0138 622:0.0276 626:0.0138 628:0.0138 641:0.0414 646:0.0138 649:0.0138 655:0.0138 656:0.0138 658:0.0138 665:0.0276 667:0.0138 671:0.0138 672:0.0138 673:0.0138 674:0.0276 677:0.0138 679:0.0276 680:0.0138 682:0.0276 685:0.0138 687:0.0138 689:0.0138 690:0.0138 696:0.0138 697:0.0276 700:0.0138 701:0.0138 703:0.0138 704:0.0138 707:0.0138 708:0.0276 711:0.0276 716:0.0138 717:0.0138 718:0.0138 720:0.0138 721:0.0276 725:0.0138 738:0.0138 740:0.0276 741:0.0138 743:0.0276 749:0.0138 752:0.0138 753:0.0138 757:0.0138 760:0.0138 762:0.0138 766:0.0276 767:0.0138 768:0.05521 769:0.06901 772:0.0138 773:0.0138 777:0.0276 778:0.0138 779:0.0138 783:0.0138 785:0.0414 787:0.0414 788:0.0276 795:0.0138 797:0.0138 798:0.0138 800:0.0138 801:0.0138 804:0.0414 808:0.0138 810:0.0138 813:0.0138 818:0.0138 819:0.0414 820:0.05521 821:0.0138 822:0.0276 824:0.0414 825:0.0138 827:0.0138 828:0.0414 829:0.0138 830:0.0276 831:0.0276 832:0.0276 837:0.0138 840:0.0276 844:0.0276 845:0.0138 847:0.0138 848:0.0138 853:0.0138 855:0.0276 858:0.0414 859:0.0138 860:0.0138 861:0.0138 863:0.0138 865:0.0138 868:0.0276 870:0.0414 873:0.0138 874:0.0414 875:0.0138 877:0.0276 881:0.0138 882:0.0138 884:0.0414 887:0.0138 890:0.0138 894:0.0138 895:0.0276 896:0.0138 897:0.0414 899:0.0138 901:0.0138 905:0.0138 906:0.0414 908:0.0276 909:0.0138 912:0.0276 913:0.0138 915:0.0138 917:0.0276 918:0.0138 919:0.0414 921:0.0138 923:0.0276 926:0.0138 927:0.0414 929:0.0276 930:0.0138 935:0.0414 936:0.0276 937:0.0138 938:0.0138 940:0.0138 944:0.0276 947:0.0138 948:0.0276 949:0.0138 950:0.0138 953:0.0414 955:0.0138 957:0.0138 960:0.0138 964:0.05521 967:0.0138 968:0.0276 969:0.0138 971:0.0138 972:0.0138 976:0.0138 978:0.0138 979:0.0138 981:0.0276 983:0.0276 987:0.0276 990:0.0276 991:0.0138 992:0.0138 994:0.0138 995:0.0138 999:0.0138 1002:0.0138 1005:0.0138 1006:0.0138 1007:0.0138 1008:0.0276 1011:0.0414 1012:0.0138 1013:0.0414 1014:0.0276 1015:0.0276 1017:0.0138 1018:0.0276 1019:0.0138 1020:0.0138 1021:0.0138 1022:0.0414 1023:0.0276 1024:0.0414 1025:0.05521 1026:0.0138 1027:0.0276 1028:0.0276 1029:0.0276 1032:0.0138 1033:0.0138 1035:0.05521 1037:0.0138 1039:0.0276 1040:0.0276 1041:0.0276 1042:0.0138 1045:0.0138 1046:0.0276 1048:0.0138 1049:0.0138 1050:0.0138 1051:0.0276 1053:0.0138 1058:0.0276 1060:0.0276 1062:0.0276 1067:0.0276 1070:0.0138 1074:0.0138 1076:0.0276 1077:0.0138 1080:0.0138 1082:0.0414 1088:0.0138 1092:0.0138 1094:0.0138 1095:0.0138 1097:0.0138 1102:0.0138 1103:0.0276 1104:0.0138 1111:0.0138 1112:0.0138 1113:0.0276 1116:0.0276 1117:0.0138 1119:0.0138 1120:0.0138 1125:0.0414 1127:0.0138 1131:0.0138 1132:0.0138 1136:0.0138 1137:0.0138 1141:0.0138 1142:0.0138 1145:0.0138 1146:0.0138 1152:0.0414 1154:0.0138 1155:0.0138 1156:0.0138 1157:0.0414 1159:0.0138 1161:0.0138 1162:0.0276 1163:0.0138 1165:0.0138 1169:0.0138 1171:0.0138 1172:0.0414 1173:0.0276 1175:0.0276 1176:0.0138 1178:0.0276 1188:0.0138 1191:0.0138 1193:0.0138 1194:0.0138 1195:0.0276 1199:0.0138 1200:0.0138 1206:0.0138 1209:0.0138 1210:0.0138 1213:0.0138 1216:0.0414 1217:0.05521 1221:0.0276 1229:0.0414 1232:0.0276 1238:0.0276 1239:0.0276 1240:0.0138 1241:0.0138 1242:0.0414 1243:0.0276 1244:0.0138 1246:0.0138 1249:0.0276 1251:0.0138 1252:0.0138 1254:0.0138 1258:0.0138 1259:0.0414 1262:0.0138 1263:0.0276 1265:0.0138 1266:0.0138 1268:0.0138 1269:0.0138 1270:0.0138 1271:0.0138 1272:0.0138 1274:0.0138 1276:0.0276 1278:0.05521 1279:0.0276 1280:0.0138 1281:0.0414 1283:0.0138 1284:0.0138 1286:0.0414 1287:0.0276 1290:0.0138 1291:0.0138 1292:0.0138 1296:0.0138 1297:0.0138 1300:0.0138 1302:0.0138 1306:0.0138 1313:0.0138 1315:0.0138 1317:0.0414 1318:0.0138 1324:0.0138 1326:0.0138 1329:0.0414 1332:0.0138 1335:0.0414 1337:0.0276 1338:0.0138 1340:0.0138 1342:0.0138 1344:0.0138 1347:0.0138 1353:0.0138 1359:0.0414 1369:0.0138 1371:0.0138 1375:0.0276 1377:0.0138 1380:0.0138 1385:0.0138 1386:0.0414 1388:0.0138 1391:0.0138 1392:0.0276 1397:0.0138 1398:0.0138 1400:0.0138 1401:0.0138 1402:0.0276 1404:0.0138 1406:0.0138 1407:0.0276 1408:0.0138 1409:0.0414 1412:0.0276 1414:0.0276 1417:0.0276 1421:0.0276 1423:0.0276 1424:0.0138 1426:0.0138 1427:0.0276 1428:0.0276 1429:0.0276 1431:0.0414 1432:0.0138 1435:0.0276 1438:0.0414 1440:0.0138 1443:0.0138 1444:0.0138 1445:0.0138 1446:0.0276 1447:0.0414 1449:0.0138 1450:0.0138 1451:0.0138 1452:0.0276 1453:0.0138 1457:0.0138 1459:0.0138 1460:0.0138 1461:0.0138 1463:0.0276 1468:0.0276 1469:0.0138 1471:0.0276 1472:0.0276 1473:0.0138 1474:0.0138 1476:0.0138 1477:0.0138 1479:0.0138 1486:0.0138 1490:0.0138 1493:0.0138 1495:0.0138 1500:0.0138 1503:0.0138 1505:0.0138 1509:0.0138 1510:0.0276 1513:0.0138 1518:0.0138 1520:0.0276 1522:0.0138 1523:0.0138 1524:0.0138 1525:0.0276 1527:0.0138 1531:0.0138 1532:0.0138 1533:0.0138 1535:0.05521 1536:0.0138 1537:0.0138 1538:0.0276 1540:0.0276 1542:0.0138 1547:0.0138 1549:0.0138 1551:0.0138 1553:0.0138 1554:0.0138 1558:0.0276 1559:0.0414 1563:0.0276 1569:0.0138 1570:0.0138 1572:0.0138 1574:0.0138 1578:0.0138 1581:0.0276 1585:0.0138 1586:0.0276 1593:0.0276 1594:0.0276 1595:0.0414 1597:0.0138 1600:0.0276 1601:0.0276 1602:0.0138 1604:0.0138 1608:0.0276 1609:0.0276 1610:0.0276 1614:0.0138 1616:0.0276 1617:0.0138 1618:0.0138 1619:0.0138 1620:0.0414 1623:0.0138 1624:0.0276 1625:0.0276 1626:0.0138 1627:0.0414 1628:0.0138 1630:0.0138 1631:0.0138 1632:0.0138 1637:0.0138 1638:0.0138 1639:0.0276 1640:0.0138 1642:0.0138 1644:0.0138 1646:0.0138 1647:0.0138 1648:0.0138 1649:0.0276 1653:0.0414 1654:0.0138 1656:0.0138 1658:0.0276 1661:0.0138 1664:0.0138 1665:0.0138 1668:0.0276 1669:0.0138 1674:0.0138 1675:0.0138 1676:0.0276 1677:0.0414 1679:0.0276 1681:0.0276 1682:0.0138 1684:0.0414 1685:0.0138 1686:0.0138 1687:0.0276 1689:0.0414 1691:0.0414 1692:0.0138 1693:0.0138 1694:0.0138 1695:0.0276 1697:0.0138 1700:0.0276 1701:0.0138 1702:0.0138 1703:0.0138 1706:0.0138 1708:0.0138 1711:0.0138 1712:0.0138 1713:0.0138 1714:0.0138 1719:0.0414 1720:0.0138 1721:0.0138 1722:0.0138 1724:0.0276 1726:0.05521 1729:0.0138 1730:0.0138 1731:0.0138 1732:0.0138 1734:0.0138 1736:0.0276 1737:0.0138 1739:0.0138 1742:0.0138 1746:0.0138 1747:0.0138 1754:0.0276 1758:0.0138 1759:0.0138 1760:0.0138 1766:0.0138 1770:0.0138 1774:0.0276 1775:0.0138 1776:0.0276 1777:0.0138 1782:0.0138 1787:0.0276 1788:0.0276 1790:0.0138 1792:0.0276 1795:0.0276 1796:0.0414 1797:0.0414 1798:0.0138 1803:0.0138 1808:0.0414 1809:0.0276 1810:0.0138 1812:0.0138 1818:0.0138 1819:0.0138 1821:0.0138 1827:0.0138 1840:0.0138 1842:0.0138 1844:0.0414 1846:0.0276 1856:0.0138 1857:0.0276 1860:0.0138 1862:0.0276 1870:0.0414 1871:0.0138 1872:0.0276 1873:0.0138 1874:0.0138 1881:0.0138 1882:0.0276 1883:0.0138 1888:0.0138 1890:0.0138 1894:0.0276 1898:0.0138 1900:0.0138 1901:0.0138 1902:0.0138 1905:0.0276 1907:0.0138 1910:0.0138 1912:0.0138 1913:0.0138 1915:0.0138 1916:0.0276 1917:0.0138 1921:0.0138 1922:0.0138 1923:0.0276 1924:0.0138 1927:0.0138 1933:0.0276 1938:0.0138 1939:0.0276 1940:0.0138 1941:0.0138 1942:0.0414 1946:0.0138 1947:0.0276 1948:0.0138 1950:0.0276 1951:0.0138 1953:0.0414 1957:0.0138 1959:0.0138 1964:0.0138 1966:0.0138 1968:0.0138 1972:0.0414 1974:0.0276 1980:0.0138 1981:0.0276 1986:0.0276 1991:0.0138 1992:0.0138 1994:0.0138 1998:0.0414 2000:0.0138 2003:0.0276 2004:0.0138 2009:0.0138 2015:0.0138 2018:0.0138 2021:0.0138 2025:0.0138 2026:0.0138 2027:0.0138 2029:0.0276 2032:0.0276 2034:0.0138 2035:0.0276 2037:0.0138 2038:0.0138 2040:0.0276 2041:0.0138 2042:0.0276 2043:0.0138 2044:0.0138 2045:0.0276 2047:0.0276 2048:0.0276 2050:0.05521 2052:0.0414 2053:0.0276 2055:0.0138 2056:0.0276 2057:0.0138 2060:0.0414 2061:0.0276 2062:0.0138 2063:0.05521 2066:0.0138 2069:0.0276 2071:0.05521 2076:0.0138 2078:0.0138 2080:0.0138 2081:0.0138 2084:0.0138 2090:0.0138 2091:0.0138 2092:0.0138 2098:0.0138 2100:0.0276 2101:0.0138 2102:0.0138 2105:0.0138 2106:0.0138 2107:0.0138 2108:0.0138 2110:0.0276 2112:0.0138 2113:0.0138 2114:0.0276 2116:0.0138 2118:0.0276 2119:0.0276 2121:0.0138 2123:0.0138 2127:0.0138 2128:0.0138 2129:0.0138 2131:0.0138 2133:0.0276 2134:0.0138 2137:0.0138 2138:0.0276 2140:0.0138 2144:0.0138 2147:0.0138 2151:0.0138 2152:0.0276 2154:0.0276 2156:0.0138 2161:0.0138 2171:0.0138 2175:0.0138 2178:0.0276 2180:0.0276 2182:0.0138 2183:0.0138 2185:0.0138 2186:0.0138 2190:0.0138 2191:0.0138 2194:0.0138 2195:0.0276 2196:0.0138 2197:0.0414 2198:0.0138 2199:0.0138 2202:0.0138 2203:0.0414 2204:0.0138 2215:0.0138 2216:0.0138 2217:0.0276 2218:0.0138 2226:0.0276 2228:0.0138 2234:0.0138 2236:0.0138 2238:0.0138 2240:0.0138 2242:0.0138 2243:0.0414 2245:0.05521 2247:0.0138 2248:0.0138 2249:0.0138 2251:0.0138 2253:0.0138 2254:0.05521 2256:0.0138 2269:0.0138 2270:0.0138 2275:0.0414 2278:0.0414 2279:0.0138 2280:0.0276 2281:0.0138 2282:0.0276 2287:0.0138 2289:0.0138 2290:0.0138 2293:0.0138 2294:0.0138 2297:0.0138 2300:0.0138 2301:0.0138 2302:0.0138 2304:0.0276 2305:0.0276 2306:0.0276 2307:0.0276 2308:0.0276 2309:0.0138 2310:0.0138 2312:0.0138 2313:0.0138 2319:0.0138 2322:0.0138 2327:0.0138 2330:0.0138 2334:0.0138 2335:0.0138 2336:0.0138 2338:0.0276 2340:0.0138 2341:0.0138 2342:0.0414 2343:0.0276 2346:0.0138 2347:0.0276 2351:0.0138 2352:0.0276 2354:0.0138 2358:0.05521 2359:0.0276 2363:0.0138 2365:0.0276 2366:0.0138 2367:0.0414 2368:0.0138 2369:0.0276 2370:0.0276 2371:0.0138 2372:0.0138 2373:0.0138 2374:0.0138 2375:0.0138 2378:0.0138 2380:0.0138 2381:0.0276 2382:0.0276 2383:0.0138 2388:0.0138 2391:0.0138 2392:0.0276 2395:0.0138 2396:0.0276 2398:0.0138 2399:0.0138 2400:0.0276 2401:0.0276 2403:0.0138 2404:0.0414 2405:0.0138 2406:0.0276 2407:0.0138 2408:0.0138 2409:0.0138 2410:0.0276 2411:0.0414 2413:0.0138 2414:0.0276 2416:0.0138 2420:0.0138 2422:0.0138 2423:0.0138 2426:0.0138 2429:0.0138 2430:0.0138 2434:0.0138 2437:0.0138 2438:0.0276 2439:0.0276 2442:0.0138 2444:0.0138 2447:0.0414 2449:0.0276 2451:0.0138 2453:0.0138 2454:0.0138 2458:0.0276 2460:0.0414 2461:0.0138 2462:0.0138 2463:0.0276 2465:0.0276 2466:0.0138 2467:0.0276 2468:0.0414 2469:0.0276 2470:0.0138 2471:0.0138 2472:0.0138 2478:0.0276 2480:0.0276 2481:0.0138 2482:0.0138 2483:0.0138 2485:0.0138 2488:0.0276 2490:0.0138 2491:0.0138 2492:0.0276 2495:0.0138 2497:0.0138 2498:0.0138 2499:0.0138 2501:0.0138 2512:0.0138 2513:0.0276 2516:0.0414 2517:0.0138 2519:0.0138 2522:0.0138 2525:0.0276 2526:0.0138 2527:0.0276 2528:0.0138 2530:0.0138 2533:0.0276 2534:0.0276 2535:0.0276 2537:0.0138 2538:0.0138 2540:0.0276 2541:0.0138 2546:0.0138 2548:0.0138 2555:0.0138 2556:0.0138 2560:0.0138 2561:0.0414 2562:0.0276 2563:0.0138 2564:0.0276 2566:0.0414 2567:0.0138 2573:0.0276 2574:0.0138 2575:0.0138 2578:0.0138 2579:0.0276 2580:0.0138 2581:0.0138 2582:0.0138 2591:0.0138 2595:0.0138 2598:0.0138 2599:0.0138 2602:0.0138 2603:0.0138 2607:0.0138 2608:0.0138 2611:0.0276 2612:0.0276 2618:0.05521 2620:0.0138 2622:0.0138 2625:0.05521 2629:0.0138 2631:0.0138 2634:0.0276 2635:0.0276 2638:0.0414 2639:0.0138 2640:0.0276 2641:0.0138 2647:0.0138 2649:0.0138 2650:0.0138 2651:0.0276 2657:0.0138 2658:0.05521 2659:0.0276 2660:0.0414 2661:0.0138 2663:0.0138 2665:0.05521 2666:0.0276 2669:0.0138 2673:0.0138 2678:0.0138 2679:0.0138 2680:0.0414 2681:0.0138 2682:0.0414 2683:0.0138 2687:0.0276 2690:0.0276 2693:0.0276 2701:0.0138 2703:0.0276 2705:0.0276 2707:0.0414 2708:0.0138 2711:0.0138 2713:0.0276 2714:0.0138 2718:0.0138 2725:0.0414 2734:0.0138 2737:0.0138 2742:0.0138 2743:0.0276 2747:0.0138 2748:0.0138 2751:0.0276 2753:0.0414 2757:0.0138 2759:0.0138 2773:0.0138 2776:0.0138 2778:0.0276 2779:0.0276 2780:0.0138 2782:0.0138 2784:0.0276 2786:0.0138 2787:0.0276 2792:0.0138 2794:0.0138 2798:0.0276 2799:0.0138 2800:0.0138 2802:0.0138 2803:0.0138 2806:0.0414 2807:0.0138 2808:0.0276 2810:0.0138 2811:0.0414 2816:0.0138 2817:0.0414 2818:0.0138 2819:0.0138 2822:0.0138 2826:0.0138 2827:0.0138 2829:0.0138 2830:0.0138 2831:0.0138 2834:0.0138 2839:0.0138 2840:0.0138 2841:0.0276 2842:0.0138 2846:0.0276 2850:0.0138 2852:0.0138 2856:0.0138 2860:0.0276 2861:0.0138 2864:0.0138 2867:0.0138 2868:0.0138 2869:0.0138 2871:0.0276 2872:0.0414 2874:0.0138 2876:0.0138 2878:0.0138 2879:0.0138 2883:0.0138 2884:0.0138 2886:0.0138 2888:0.0138 2890:0.0138 2893:0.0138 2897:0.0276 2900:0.0138 2904:0.0276 2906:0.0138 2912:0.0138 2915:0.0138 2917:0.0138 2918:0.05521 2924:0.0276 2925:0.0138 2930:0.0138 2935:0.0138 2936:0.0138 2937:0.0138 2938:0.0276 2940:0.0138 2943:0.0276 2944:0.0138 2945:0.0138 2948:0.0138 2949:0.0138 2951:0.0138 2953:0.0138 2955:0.0138 2957:0.0138 2960:0.0276 2963:0.0138 2967:0.0138 2968:0.0138 2971:0.0138 2972:0.0138 2974:0.0138 2979:0.0138 2981:0.0138 2983:0.0138 2984:0.0138 2994:0.0138 2995:0.0138 2997:0.0138 2998:0.0138 2999:0.0138 3000:0.0138 3002:0.0138 3004:0.0138 3006:0.0138 3007:0.0138 3008:0.0414 3009:0.0138 3011:0.0276 3015:0.0138 3018:0.0138 3019:0.0138 3020:0.0276 3022:0.0138 3027:0.0138 3029:0.0276 3030:0.0276 3034:0.0138 3038:0.0276 3039:0.0138 3040:0.0138 3045:0.0138 3047:0.0138 3048:0.0138 3049:0.0276 3050:0.0276 3052:0.0138 3053:0.0276 3054:0.0276 3058:0.0138 3061:0.0138 3062:0.0276 3063:0.0276 3066:0.0276 3068:0.0138 3069:0.0414 3070:0.05521 3071:0.0138 3072:0.0276 3073:0.0414 3074:0.0414 3075:0.0276 3076:0.0138 3077:0.0138 3081:0.0138 3083:0.0138 3084:0.0138 3086:0.0138 3088:0.0414 3089:0.0276 3091:0.0276 3092:0.0138 3093:0.0138 3096:0.0138 3099:0.0138 3103:0.0138 3105:0.0138 3107:0.0138 3109:0.0138 3111:0.0138 3113:0.0138 3114:0.0138 3116:0.0138 3117:0.0138 3120:0.0138 3124:0.0138 3125:0.0138 3127:0.0138 3129:0.0138 3130:0.0276 3133:0.0276 3136:0.0414 3137:0.0138 3138:0.0276 3139:0.0276 3140:0.0138 3141:0.0138 3144:0.0138 3145:0.0276 3146:0.0138 3149:0.0414 3160:0.0138 3163:0.0138 3164:0.0138 3165:0.0138 3168:0.0138 3170:0.0138 3171:0.0138 3172:0.0276 3173:0.0138 3174:0.0138 3176:0.0138 3177:0.0138 3178:0.0138 3180:0.0138 3186:0.0138 3188:0.0138 3189:0.0138 3191:0.0276 3197:0.0138 3200:0.0414 3201:0.0138 3205:0.0138 3209:0.0138 3210:0.0276 3213:0.0414 3214:0.0138 3216:0.0138 3223:0.0138 3226:0.0138 3228:0.0138 3229:0.0276 3233:0.0138 3236:0.0138 3240:0.0138 3245:0.0138 3247:0.0138 3248:0.0138 3251:0.0138 3252:0.0138 3253:0.0138 3257:0.0138 3263:0.0138 3264:0.0414 3269:0.0138 3272:0.0138 3273:0.0414 3276:0.0138 3277:0.0276 3278:0.0138 3279:0.0414 3280:0.0276 3282:0.0138 3283:0.0276 3284:0.0138 3286:0.0138 3287:0.0414 3289:0.0138 3291:0.0276 3293:0.0414 3295:0.0138 3296:0.0414 3298:0.0138 3300:0.0138 3304:0.0138 3305:0.0138 3306:0.0276 3308:0.0138 3309:0.0414 3312:0.0138 3314:0.0138 3318:0.0276 3319:0.0138 3321:0.0138 3324:0.0276 3326:0.0276 3327:0.0138 3328:0.05521 3329:0.0138 3331:0.0138 3332:0.0138 3337:0.0138 3341:0.0138 3342:0.0138 3348:0.0414 3351:0.0138 3352:0.0276 3357:0.0138 3359:0.0138 3360:0.0138 3361:0.0138 3362:0.0138 3363:0.0138 3366:0.0138 3371:0.0138 3375:0.0138 3376:0.0276 3377:0.0138 3380:0.0138 3383:0.0276 3384:0.0138 3385:0.0276 3387:0.0276 3389:0.0138 3390:0.0138 3392:0.0414 3393:0.0276 3394:0.0276 3395:0.0138 3397:0.0138 3401:0.0138 3402:0.0138 3403:0.0138 3405:0.0138 3406:0.0138 3408:0.0138 3412:0.0138 3417:0.0138 3419:0.0138 3420:0.0138 3422:0.0276 3423:0.0138 3428:0.0138 3429:0.0138 3430:0.05521 3432:0.0414 3434:0.0138 3435:0.0138 3437:0.0138 3440:0.0138 3441:0.0276 3452:0.0138 3453:0.0138 3456:0.0414 3459:0.0138 3461:0.0138 3465:0.0138 3469:0.0138 3471:0.0138 3472:0.0138 3476:0.0138 3477:0.0414 3478:0.0276 3479:0.0414 3480:0.0276 3491:0.0138 3493:0.0276 3494:0.0138 3495:0.0276 3496:0.0138 3497:0.0138 3499:0.0138 3502:0.0138 3503:0.0276 3504:0.0276 3505:0.0276 3506:0.0276 3512:0.0138 3519:0.0138 3520:0.0138 3521:0.0276 3524:0.0138 3525:0.0138 3527:0.0138 3532:0.0138 3533:0.0414 3534:0.0138 3538:0.0138 3540:0.0138 3544:0.0138 3545:0.0138 3547:0.0276 3549:0.0138 3550:0.0138 3551:0.0138 3553:0.0414 3559:0.0276 3560:0.0138 3561:0.0138 3563:0.0138 3565:0.0276 3566:0.0138 3567:0.0138 3572:0.0276 3573:0.0138 3576:0.0138 3577:0.0138 3578:0.0138 3580:0.0276 3581:0.0138 3582:0.0138 3583:0.0138 3584:0.0276 3585:0.0138 3586:0.0138 3587:0.0138 3588:0.0414 3592:0.0138 3593:0.0138 3595:0.0276 3598:0.0138 3599:0.0138 3602:0.0138 3604:0.0138 3610:0.0138 3611:0.0138 3613:0.0138 3616:0.0138 3617:0.0276 3621:0.0276 3623:0.0414 3627:0.0138 3629:0.0138 3631:0.0138 3632:0.0138 3633:0.0276 3634:0.0138 3636:0.0138 3645:0.0138 3646:0.0138 3647:0.0138 3648:0.0138 3649:0.0138 3650:0.0138 3651:0.0138 3656:0.0138 3658:0.0276 3659:0.0138 3660:0.0138 3664:0.0276 3665:0.0138 3666:0.0138 3667:0.0138 3669:0.0138 3670:0.0414 3671:0.0138 3672:0.0138 3673:0.0276 3674:0.0276 3675:0.0138 3676:0.0138 3680:0.0138 3682:0.0138 3686:0.0138 3687:0.0138 3688:0.0138 3689:0.0138 3690:0.0138 3692:0.0414 3693:0.0138 3695:0.0414 3701:0.0276 3704:0.0276 3706:0.0138 3707:0.0414 3708:0.0138 3709:0.0138 3713:0.05521 3714:0.0276 3716:0.0276 3717:0.0138 3718:0.0138 3720:0.0138 3722:0.0138 3723:0.0138 3731:0.0138 3732:0.0276 3735:0.0138 3737:0.0414 3738:0.0138 3739:0.0276 3742:0.0414 3743:0.0276 3744:0.0138 3748:0.0138 3749:0.0138 3758:0.0276 3760:0.0138 3766:0.0138 3768:0.0138 3773:0.0138 3774:0.0276 3775:0.0138 3777:0.0138 3782:0.0138 3785:0.0138 3786:0.0138 3787:0.0138 3788:0.0138 3789:0.0138 3790:0.05521 3791:0.0276 3792:0.0138 3794:0.0138 3796:0.0138 3797:0.0138 3798:0.0276 3799:0.0138 3801:0.0138 3802:0.0138 3805:0.0138 3807:0.0414 3809:0.0276 3812:0.0138 3814:0.0138 3817:0.0138 3818:0.0138 3821:0.0138 3824:0.0138 3825:0.0138 3827:0.0414 3828:0.0138 3832:0.0138 3834:0.0138 3836:0.0276 3837:0.0138 3838:0.0276 3839:0.0276 3840:0.0414 3841:0.0138 3845:0.0138 3847:0.0138 3848:0.0138 3852:0.0276 3854:0.0138 3855:0.0138 3856:0.0276 3857:0.0138 3862:0.0138 3863:0.0138 3864:0.0138 3865:0.0276 3866:0.0138 3867:0.0138 3872:0.0414 3875:0.0276 3876:0.0138 3878:0.0138 3879:0.0276 3881:0.0276 3884:0.0138 3886:0.0138 3887:0.0138 3888:0.0276 3893:0.0276 3895:0.0138 3896:0.0138 3897:0.0138 3899:0.0414 3904:0.05521 3905:0.0138 3909:0.0276 3913:0.0414 3915:0.0138 3916:0.0138 3919:0.0276 3920:0.0276 3921:0.0276 3923:0.0414 3924:0.0276 3927:0.0138 3928:0.0138 3930:0.0276 3932:0.0138 3933:0.0138 3936:0.0276 3940:0.0138 3942:0.0138 3946:0.0276 3947:0.0138 3948:0.0276 3952:0.0276 3956:0.0138 3957:0.0276 3959:0.0138 3960:0.0138 3961:0.0138 3963:0.0138 3964:0.0138 3965:0.0138 3966:0.0138 3968:0.0414 3969:0.0138 3976:0.0276 3978:0.0276 3980:0.0138 3985:0.0276 3988:0.0138 3990:0.0276 3991:0.0276 3994:0.0276 3996:0.0276 3999:0.0138 4000:0.0138 4001:0.0276 4002:0.0276 4003:0.0138 4005:0.0138 4006:0.0138 4007:0.0138 4008:0.0414 4012:0.0138 4014:0.0138 4016:0.0138 4017:0.0138 4019:0.0276 4020:0.0414 4023:0.0138 4024:0.0414 4027:0.0138 4029:0.0276 4031:0.0276 4032:0.05521 4034:0.0138 4037:0.0138 4038:0.0414 4039:0.0138 4041:0.0276 4042:0.0138 4043:0.0138 4044:0.0138 4047:0.05521 4048:0.0276 4049:0.0138 4050:0.0138 4051:0.0138 4052:0.0414 4053:0.05521 4055:0.0138 4056:0.0414 4059:0.0414 4060:0.0276 4061:0.0138 4064:0.0414 4065:0.0138 4067:0.0276 4069:0.0138 4070:0.05521 4071:0.0276 4072:0.0138 4073:0.0276 4074:0.0276 4076:0.0138 4077:0.0138 4078:0.0138 4080:0.05521 4081:0.0138 4082:0.0414 4084:0.06901 4085:0.0138 4086:0.0414 4087:0.0138 4088:0.0276 4089:0.0138 4090:0.0276 4091:0.0414 4092:0.0414 4093:0.0414 4095:0.05521 4096:0.0276 
0.03125 1:0.18054 2:0.0677 3:0.0677 4:0.15797 5:0.01128 6:0.02257 7:0.02257 8:0.05642 9:0.02257 10:0.03385 11:0.01128 12:0.05642 13:0.0677 14:0.05642 15:0.07899 16:0.02257 17:0.01128 18:0.02257 19:0.02257 20:0.02257 21:0.01128 22:0.01128 23:0.02257 25:0.02257 26:0.01128 27:0.01128 29:0.05642 31:0.01128 32:0.05642 33:0.02257 34:0.03385 35:0.02257 36:0.03385 37:0.03385 38:0.01128 39:0.01128 41:0.01128 42:0.01128 45:0.02257 46:0.03385 47:0.02257 48:0.01128 49:0.03385 50:0.01128 51:0.02257 52:0.07899 53:0.02257 55:0.01128 56:0.02257 57:0.02257 58:0.02257 59:0.02257 60:0.04514 61:0.02257 63:0.02257 65:0.03385 66:0.02257 68:0.02257 69:0.04514 72:0.01128 74:0.03385 76:0.01128 77:0.01128 78:0.01128 79:0.02257 80:0.02257 81:0.01128 84:0.01128 86:0.01128 89:0.01128 91:0.02257 97:0.02257 99:0.01128 100:0.01128 104:0.01128 105:0.01128 108:0.01128 113:0.01128 114:0.02257 115:0.01128 116:0.01128 117:0.01128 118:0.01128 121:0.01128 123:0.01128 125:0.05642 126:0.01128 128:0.01128 129:0.03385 131:0.01128 132:0.02257 134:0.03385 138:0.01128 139:0.01128 140:0.02257 142:0.05642 143:0.04514 145:0.02257 147:0.01128 148:0.02257 149:0.01128 153:0.01128 157:0.02257 161:0.01128 162:0.01128 163:0.02257 164:0.01128 165:0.02257 166:0.01128 167:0.01128 168:0.01128 174:0.01128 177:0.03385 179:0.02257 181:0.04514 183:0.01128 185:0.01128 186:0.01128 188:0.03385 190:0.01128 191:0.01128 192:0.05642 193:0.04514 196:0.01128 197:0.02257 201:0.02257 202:0.01128 205:0.03385 206:0.02257 207:0.01128 208:0.04514 209:0.01128 210:0.01128 211:0.01128 212:0.01128 213:0.01128 216:0.02257 217:0.01128 220:0.01128 221:0.01128 223:0.01128 226:0.03385 229:0.01128 230:0.01128 232:0.03385 233:0.01128 234:0.01128 236:0.01128 237:0.02257 238:0.02257 240:0.02257 241:0.03385 242:0.01128 243:0.01128 244:0.02257 245:0.01128 247:0.01128 249:0.03385 250:0.01128 251:0.01128 252:0.02257 253:0.01128 255:0.01128 256:0.02257 257:0.05642 258:0.01128 259:0.02257 260:0.01128 261:0.01128 263:0.01128 264:0.01128 266:0.01128 270:0.01128 271:0.02257 272:0.02257 273:0.01128 274:0.03385 275:0.01128 276:0.03385 283:0.01128 287:0.01128 288:0.03385 289:0.01128 290:0.01128 291:0.01128 293:0.02257 295:0.01128 297:0.01128 299:0.01128 301:0.01128 302:0.01128 303:0.01128 305:0.01128 309:0.01128 310:0.01128 312:0.01128 313:0.03385 315:0.01128 316:0.02257 317:0.01128 318:0.01128 320:0.04514 322:0.01128 323:0.01128 329:0.01128 330:0.01128 333:0.02257 336:0.01128 339:0.01128 340:0.01128 344:0.01128 345:0.01128 347:0.01128 350:0.01128 353:0.02257 354:0.01128 361:0.01128 363:0.01128 366:0.02257 368:0.01128 375:0.01128 376:0.01128 378:0.01128 382:0.01128 385:0.02257 387:0.02257 393:0.01128 395:0.01128 400:0.01128 405:0.01128 413:0.02257 414:0.01128 415:0.01128 417:0.02257 418:0.01128 419:0.01128 427:0.01128 431:0.03385 434:0.01128 436:0.01128 449:0.01128 451:0.01128 452:0.02257 456:0.02257 460:0.02257 461:0.01128 466:0.01128 467:0.01128 468:0.01128 469:0.01128 470:0.01128 472:0.01128 477:0.01128 478:0.02257 479:0.02257 480:0.02257 482:0.05642 484:0.01128 485:0.01128 487:0.01128 490:0.01128 491:0.01128 494:0.01128 495:0.01128 496:0.01128 497:0.04514 498:0.03385 500:0.01128 502:0.02257 503:0.01128 504:0.01128 505:0.01128 506:0.01128 510:0.01128 511:0.02257 512:0.05642 513:0.02257 514:0.01128 515:0.03385 516:0.01128 521:0.02257 524:0.01128 525:0.01128 526:0.02257 530:0.01128 531:0.01128 533:0.02257 534:0.03385 535:0.01128 536:0.01128 539:0.01128 547:0.01128 548:0.01128 549:0.01128 550:0.02257 551:0.02257 552:0.01128 553:0.03385 554:0.01128 555:0.01128 556:0.01128 557:0.01128 558:0.05642 559:0.01128 561:0.01128 562:0.01128 563:0.01128 564:0.01128 565:0.02257 566:0.01128 567:0.01128 568:0.02257 569:0.01128 570:0.01128 571:0.01128 572:0.01128 576:0.02257 577:0.02257 578:0.03385 580:0.02257 585:0.03385 587:0.01128 592:0.03385 593:0.01128 596:0.02257 602:0.01128 607:0.01128 608:0.01128 609:0.02257 610:0.01128 618:0.01128 621:0.02257 622:0.01128 624:0.01128 625:0.01128 626:0.02257 627:0.01128 632:0.01128 633:0.01128 637:0.02257 641:0.02257 642:0.01128 643:0.03385 646:0.01128 647:0.01128 649:0.01128 651:0.01128 652:0.01128 655:0.01128 656:0.02257 657:0.02257 659:0.01128 661:0.02257 665:0.01128 669:0.02257 674:0.02257 675:0.01128 678:0.02257 684:0.01128 686:0.01128 693:0.01128 694:0.01128 695:0.01128 696:0.01128 705:0.02257 706:0.01128 707:0.01128 708:0.01128 711:0.01128 714:0.04514 716:0.02257 721:0.02257 722:0.03385 723:0.04514 724:0.02257 725:0.01128 727:0.01128 729:0.01128 730:0.01128 731:0.03385 738:0.02257 741:0.02257 742:0.01128 745:0.01128 746:0.01128 749:0.02257 750:0.01128 752:0.01128 753:0.01128 754:0.01128 759:0.01128 762:0.01128 764:0.01128 765:0.03385 766:0.02257 767:0.01128 768:0.05642 769:0.0677 770:0.02257 771:0.02257 772:0.03385 773:0.03385 780:0.01128 784:0.02257 785:0.01128 786:0.01128 787:0.01128 788:0.01128 794:0.01128 796:0.01128 801:0.01128 802:0.01128 803:0.01128 804:0.03385 805:0.01128 809:0.01128 816:0.01128 817:0.02257 818:0.02257 819:0.01128 820:0.02257 821:0.03385 824:0.01128 825:0.01128 826:0.02257 827:0.04514 830:0.02257 831:0.01128 832:0.07899 833:0.01128 834:0.02257 835:0.01128 836:0.01128 837:0.01128 839:0.01128 841:0.01128 844:0.01128 845:0.03385 846:0.01128 847:0.01128 851:0.01128 852:0.01128 853:0.01128 861:0.01128 862:0.01128 864:0.01128 865:0.01128 866:0.01128 880:0.01128 881:0.01128 884:0.03385 887:0.01128 888:0.01128 891:0.01128 894:0.0677 896:0.03385 897:0.02257 899:0.01128 900:0.01128 901:0.02257 902:0.01128 904:0.02257 908:0.01128 909:0.02257 911:0.02257 912:0.01128 913:0.01128 915:0.01128 916:0.02257 917:0.02257 923:0.01128 927:0.01128 928:0.02257 929:0.01128 931:0.01128 932:0.01128 933:0.02257 934:0.03385 935:0.01128 936:0.02257 937:0.02257 938:0.02257 940:0.01128 941:0.01128 942:0.01128 944:0.01128 946:0.01128 947:0.01128 948:0.01128 949:0.02257 951:0.02257 956:0.03385 957:0.02257 958:0.02257 960:0.02257 962:0.01128 963:0.02257 968:0.01128 969:0.01128 971:0.01128 972:0.02257 973:0.01128 976:0.01128 977:0.01128 979:0.01128 980:0.01128 981:0.01128 982:0.01128 985:0.01128 987:0.01128 990:0.01128 992:0.02257 993:0.03385 996:0.01128 997:0.01128 998:0.02257 1000:0.02257 1001:0.01128 1002:0.01128 1005:0.02257 1006:0.01128 1008:0.02257 1009:0.01128 1011:0.01128 1012:0.03385 1013:0.01128 1014:0.01128 1016:0.01128 1018:0.02257 1019:0.01128 1020:0.01128 1021:0.02257 1022:0.01128 1023:0.03385 1024:0.15797 1025:0.0677 1027:0.02257 1028:0.03385 1029:0.03385 1031:0.01128 1032:0.01128 1033:0.02257 1035:0.01128 1036:0.02257 1037:0.03385 1040:0.01128 1041:0.03385 1042:0.02257 1043:0.02257 1045:0.01128 1049:0.02257 1055:0.01128 1056:0.01128 1057:0.02257 1061:0.02257 1065:0.01128 1066:0.02257 1069:0.01128 1071:0.01128 1073:0.01128 1075:0.01128 1076:0.01128 1078:0.01128 1081:0.01128 1082:0.03385 1083:0.01128 1085:0.03385 1087:0.02257 1088:0.02257 1089:0.05642 1091:0.01128 1093:0.03385 1097:0.02257 1100:0.01128 1103:0.03385 1107:0.01128 1113:0.01128 1116:0.03385 1121:0.01128 1126:0.01128 1129:0.01128 1131:0.01128 1137:0.02257 1144:0.01128 1145:0.02257 1148:0.01128 1149:0.01128 1150:0.01128 1151:0.01128 1152:0.02257 1153:0.03385 1155:0.01128 1158:0.02257 1159:0.01128 1161:0.02257 1162:0.02257 1163:0.05642 1164:0.02257 1168:0.01128 1169:0.03385 1172:0.01128 1173:0.01128 1177:0.01128 1179:0.01128 1180:0.01128 1181:0.01128 1185:0.02257 1192:0.01128 1193:0.02257 1195:0.01128 1198:0.01128 1201:0.02257 1202:0.01128 1203:0.02257 1205:0.01128 1207:0.02257 1209:0.01128 1210:0.01128 1212:0.01128 1215:0.01128 1216:0.01128 1217:0.0677 1218:0.01128 1219:0.01128 1221:0.01128 1225:0.02257 1229:0.02257 1231:0.04514 1232:0.01128 1233:0.01128 1234:0.01128 1236:0.02257 1237:0.01128 1240:0.01128 1248:0.04514 1249:0.02257 1252:0.01128 1253:0.01128 1257:0.01128 1258:0.03385 1262:0.01128 1263:0.03385 1264:0.02257 1267:0.01128 1270:0.01128 1273:0.01128 1274:0.01128 1275:0.01128 1276:0.02257 1277:0.01128 1278:0.02257 1280:0.07899 1281:0.03385 1282:0.01128 1284:0.01128 1285:0.01128 1289:0.02257 1290:0.01128 1291:0.01128 1295:0.01128 1296:0.01128 1297:0.01128 1299:0.01128 1303:0.01128 1305:0.01128 1306:0.01128 1309:0.01128 1310:0.01128 1313:0.01128 1314:0.01128 1315:0.02257 1316:0.01128 1317:0.02257 1318:0.01128 1319:0.01128 1325:0.01128 1328:0.01128 1329:0.04514 1331:0.01128 1332:0.04514 1333:0.01128 1336:0.01128 1338:0.01128 1339:0.02257 1340:0.01128 1343:0.01128 1344:0.02257 1353:0.01128 1354:0.03385 1356:0.01128 1357:0.04514 1358:0.01128 1372:0.01128 1375:0.01128 1379:0.01128 1388:0.01128 1391:0.01128 1393:0.01128 1398:0.01128 1399:0.01128 1400:0.01128 1401:0.02257 1404:0.01128 1409:0.01128 1412:0.01128 1416:0.03385 1417:0.01128 1419:0.01128 1428:0.01128 1439:0.01128 1443:0.01128 1452:0.01128 1456:0.02257 1461:0.01128 1462:0.02257 1464:0.01128 1465:0.01128 1468:0.01128 1470:0.01128 1472:0.01128 1473:0.01128 1474:0.01128 1476:0.01128 1485:0.01128 1493:0.01128 1495:0.01128 1496:0.01128 1497:0.01128 1499:0.01128 1500:0.01128 1503:0.05642 1504:0.01128 1505:0.01128 1506:0.01128 1509:0.01128 1510:0.01128 1512:0.01128 1517:0.01128 1518:0.01128 1521:0.02257 1526:0.02257 1527:0.02257 1529:0.02257 1531:0.01128 1535:0.01128 1536:0.01128 1537:0.05642 1538:0.01128 1544:0.01128 1545:0.02257 1547:0.02257 1548:0.01128 1549:0.01128 1552:0.01128 1553:0.01128 1556:0.02257 1560:0.01128 1566:0.02257 1567:0.02257 1568:0.01128 1569:0.01128 1571:0.01128 1572:0.01128 1573:0.01128 1577:0.01128 1579:0.01128 1580:0.01128 1592:0.01128 1598:0.01128 1600:0.01128 1609:0.02257 1612:0.01128 1614:0.01128 1620:0.01128 1625:0.01128 1626:0.01128 1632:0.01128 1634:0.01128 1637:0.01128 1639:0.02257 1645:0.01128 1649:0.02257 1656:0.02257 1658:0.01128 1659:0.01128 1660:0.01128 1664:0.01128 1665:0.02257 1669:0.01128 1672:0.01128 1673:0.02257 1675:0.01128 1689:0.02257 1694:0.01128 1706:0.01128 1710:0.02257 1720:0.01128 1721:0.03385 1723:0.01128 1726:0.01128 1728:0.02257 1729:0.01128 1731:0.01128 1733:0.01128 1736:0.01128 1741:0.02257 1746:0.01128 1747:0.01128 1750:0.02257 1752:0.01128 1759:0.01128 1764:0.01128 1769:0.01128 1770:0.01128 1774:0.01128 1779:0.01128 1781:0.01128 1786:0.01128 1788:0.01128 1790:0.01128 1791:0.01128 1792:0.02257 1793:0.03385 1796:0.01128 1797:0.02257 1799:0.01128 1801:0.02257 1805:0.01128 1806:0.01128 1807:0.01128 1808:0.01128 1812:0.01128 1821:0.01128 1822:0.01128 1823:0.02257 1824:0.02257 1827:0.01128 1832:0.01128 1838:0.01128 1840:0.01128 1841:0.02257 1844:0.01128 1848:0.01128 1849:0.01128 1851:0.01128 1855:0.01128 1856:0.02257 1861:0.01128 1865:0.01128 1869:0.01128 1873:0.02257 1876:0.01128 1880:0.01128 1881:0.01128 1883:0.01128 1884:0.01128 1886:0.02257 1888:0.02257 1889:0.01128 1890:0.02257 1897:0.01128 1899:0.01128 1902:0.01128 1904:0.01128 1906:0.01128 1907:0.01128 1908:0.01128 1910:0.01128 1911:0.01128 1912:0.01128 1913:0.04514 1914:0.04514 1915:0.02257 1916:0.01128 1918:0.02257 1920:0.02257 1923:0.01128 1924:0.01128 1925:0.02257 1926:0.02257 1927:0.01128 1928:0.04514 1932:0.01128 1933:0.01128 1936:0.01128 1937:0.01128 1938:0.01128 1940:0.01128 1941:0.01128 1944:0.01128 1945:0.02257 1946:0.01128 1949:0.02257 1950:0.01128 1952:0.01128 1954:0.01128 1956:0.01128 1957:0.01128 1958:0.01128 1961:0.03385 1962:0.01128 1964:0.01128 1966:0.01128 1967:0.01128 1972:0.01128 1973:0.01128 1974:0.01128 1976:0.01128 1977:0.01128 1979:0.01128 1980:0.01128 1983:0.02257 1984:0.02257 1985:0.04514 1987:0.02257 1988:0.02257 1990:0.01128 1991:0.01128 1992:0.01128 1993:0.01128 1996:0.01128 1999:0.01128 2003:0.01128 2004:0.01128 2005:0.02257 2006:0.01128 2008:0.03385 2010:0.03385 2012:0.02257 2013:0.01128 2015:0.01128 2016:0.01128 2017:0.01128 2018:0.01128 2020:0.01128 2022:0.01128 2025:0.02257 2026:0.01128 2028:0.01128 2031:0.01128 2033:0.02257 2034:0.01128 2036:0.02257 2037:0.01128 2040:0.03385 2041:0.02257 2042:0.01128 2044:0.02257 2045:0.01128 2046:0.02257 2047:0.02257 2048:0.0677 2049:0.13541 2050:0.01128 2051:0.02257 2052:0.01128 2053:0.02257 2054:0.02257 2055:0.01128 2056:0.02257 2057:0.02257 2058:0.01128 2060:0.01128 2061:0.01128 2063:0.02257 2068:0.02257 2071:0.01128 2075:0.01128 2080:0.01128 2083:0.02257 2084:0.0677 2089:0.01128 2090:0.02257 2092:0.01128 2094:0.02257 2095:0.01128 2096:0.01128 2098:0.01128 2100:0.02257 2101:0.02257 2102:0.01128 2103:0.01128 2108:0.01128 2110:0.02257 2114:0.01128 2116:0.01128 2117:0.01128 2119:0.01128 2120:0.01128 2121:0.01128 2123:0.01128 2124:0.01128 2126:0.01128 2127:0.01128 2128:0.02257 2129:0.01128 2131:0.01128 2132:0.01128 2133:0.02257 2135:0.02257 2136:0.01128 2137:0.01128 2142:0.02257 2143:0.01128 2144:0.01128 2147:0.01128 2152:0.01128 2153:0.02257 2156:0.02257 2163:0.01128 2165:0.02257 2166:0.02257 2168:0.05642 2169:0.01128 2170:0.01128 2172:0.01128 2174:0.02257 2176:0.03385 2180:0.01128 2181:0.01128 2182:0.02257 2186:0.01128 2188:0.02257 2189:0.02257 2193:0.01128 2195:0.01128 2197:0.01128 2199:0.01128 2201:0.01128 2204:0.01128 2205:0.01128 2209:0.02257 2210:0.01128 2211:0.02257 2212:0.01128 2213:0.01128 2217:0.01128 2218:0.01128 2220:0.01128 2222:0.02257 2227:0.01128 2229:0.0677 2230:0.01128 2231:0.02257 2235:0.01128 2237:0.02257 2241:0.01128 2242:0.01128 2245:0.01128 2249:0.01128 2253:0.02257 2256:0.02257 2257:0.02257 2262:0.01128 2265:0.01128 2269:0.01128 2272:0.05642 2273:0.01128 2274:0.01128 2276:0.01128 2278:0.01128 2279:0.01128 2281:0.01128 2282:0.01128 2283:0.01128 2285:0.01128 2286:0.01128 2288:0.01128 2291:0.01128 2293:0.02257 2296:0.02257 2300:0.01128 2304:0.05642 2305:0.01128 2306:0.02257 2307:0.01128 2308:0.02257 2309:0.02257 2310:0.01128 2311:0.01128 2312:0.01128 2316:0.01128 2317:0.03385 2319:0.01128 2320:0.01128 2321:0.01128 2333:0.01128 2335:0.01128 2336:0.01128 2337:0.02257 2339:0.04514 2343:0.01128 2345:0.01128 2346:0.01128 2348:0.01128 2349:0.01128 2350:0.01128 2356:0.02257 2358:0.01128 2360:0.01128 2363:0.01128 2367:0.03385 2368:0.02257 2369:0.04514 2371:0.01128 2372:0.01128 2373:0.01128 2375:0.01128 2376:0.01128 2377:0.01128 2380:0.01128 2381:0.03385 2382:0.01128 2383:0.03385 2384:0.01128 2387:0.01128 2388:0.02257 2391:0.01128 2397:0.01128 2398:0.01128 2402:0.01128 2405:0.01128 2408:0.01128 2417:0.01128 2424:0.01128 2426:0.01128 2430:0.02257 2431:0.02257 2432:0.01128 2433:0.02257 2434:0.01128 2435:0.03385 2437:0.02257 2440:0.01128 2451:0.01128 2457:0.01128 2458:0.02257 2471:0.01128 2472:0.01128 2481:0.01128 2482:0.01128 2484:0.01128 2485:0.01128 2491:0.01128 2496:0.01128 2497:0.02257 2498:0.02257 2504:0.04514 2505:0.01128 2512:0.01128 2521:0.01128 2525:0.02257 2526:0.01128 2527:0.02257 2528:0.01128 2529:0.01128 2533:0.01128 2539:0.03385 2540:0.01128 2544:0.03385 2545:0.02257 2555:0.01128 2556:0.01128 2557:0.01128 2558:0.01128 2560:0.03385 2561:0.05642 2562:0.03385 2564:0.01128 2565:0.01128 2566:0.01128 2569:0.02257 2571:0.02257 2572:0.02257 2573:0.01128 2575:0.01128 2579:0.01128 2584:0.01128 2585:0.01128 2587:0.02257 2589:0.01128 2590:0.01128 2594:0.03385 2595:0.01128 2601:0.02257 2603:0.01128 2606:0.02257 2608:0.01128 2616:0.01128 2618:0.01128 2620:0.01128 2621:0.01128 2622:0.01128 2623:0.01128 2625:0.03385 2626:0.01128 2627:0.01128 2628:0.02257 2632:0.01128 2633:0.01128 2635:0.01128 2638:0.01128 2640:0.01128 2641:0.03385 2642:0.01128 2643:0.01128 2644:0.03385 2645:0.02257 2648:0.02257 2653:0.01128 2656:0.01128 2657:0.02257 2658:0.01128 2671:0.01128 2673:0.01128 2674:0.01128 2680:0.02257 2683:0.01128 2688:0.01128 2689:0.02257 2691:0.01128 2692:0.01128 2695:0.02257 2700:0.01128 2702:0.01128 2705:0.02257 2709:0.04514 2725:0.01128 2736:0.01128 2741:0.02257 2744:0.03385 2752:0.01128 2755:0.01128 2770:0.01128 2771:0.02257 2772:0.01128 2776:0.01128 2777:0.01128 2782:0.02257 2783:0.02257 2784:0.03385 2785:0.01128 2786:0.03385 2793:0.01128 2806:0.01128 2810:0.01128 2814:0.02257 2816:0.02257 2817:0.03385 2819:0.01128 2824:0.01128 2828:0.03385 2832:0.01128 2833:0.01128 2834:0.01128 2836:0.01128 2842:0.01128 2844:0.01128 2847:0.01128 2851:0.01128 2853:0.01128 2854:0.01128 2856:0.02257 2864:0.02257 2868:0.02257 2872:0.01128 2873:0.01128 2878:0.01128 2880:0.01128 2881:0.01128 2882:0.01128 2883:0.01128 2885:0.01128 2886:0.03385 2888:0.02257 2889:0.03385 2891:0.01128 2892:0.05642 2893:0.01128 2894:0.01128 2896:0.03385 2899:0.01128 2904:0.02257 2905:0.01128 2908:0.01128 2910:0.01128 2912:0.01128 2915:0.02257 2916:0.01128 2918:0.01128 2919:0.01128 2920:0.01128 2921:0.01128 2922:0.01128 2924:0.01128 2932:0.01128 2934:0.03385 2937:0.01128 2939:0.01128 2940:0.01128 2944:0.03385 2945:0.01128 2946:0.01128 2949:0.01128 2950:0.01128 2951:0.01128 2952:0.03385 2956:0.01128 2959:0.01128 2960:0.01128 2961:0.01128 2963:0.01128 2965:0.01128 2977:0.04514 2981:0.02257 2982:0.01128 2994:0.01128 2996:0.01128 2997:0.02257 3000:0.01128 3004:0.03385 3005:0.01128 3007:0.02257 3008:0.02257 3009:0.01128 3012:0.01128 3016:0.01128 3018:0.02257 3019:0.01128 3021:0.01128 3022:0.01128 3023:0.01128 3025:0.01128 3026:0.01128 3029:0.01128 3032:0.01128 3034:0.01128 3042:0.01128 3044:0.02257 3045:0.01128 3046:0.01128 3048:0.03385 3052:0.01128 3054:0.01128 3056:0.02257 3057:0.02257 3060:0.02257 3061:0.02257 3062:0.03385 3063:0.01128 3064:0.01128 3065:0.01128 3066:0.02257 3067:0.01128 3068:0.01128 3069:0.03385 3070:0.01128 3072:0.0677 3073:0.09027 3074:0.03385 3075:0.01128 3076:0.02257 3077:0.01128 3080:0.03385 3081:0.04514 3082:0.01128 3085:0.03385 3087:0.01128 3088:0.01128 3089:0.03385 3090:0.01128 3092:0.02257 3102:0.02257 3105:0.02257 3112:0.02257 3113:0.02257 3117:0.02257 3119:0.01128 3120:0.05642 3121:0.01128 3126:0.01128 3132:0.01128 3133:0.02257 3135:0.03385 3136:0.02257 3137:0.01128 3140:0.02257 3144:0.02257 3147:0.01128 3150:0.01128 3152:0.02257 3156:0.01128 3169:0.01128 3175:0.01128 3176:0.02257 3181:0.02257 3185:0.01128 3192:0.01128 3193:0.02257 3194:0.01128 3195:0.01128 3196:0.01128 3197:0.02257 3199:0.01128 3200:0.02257 3201:0.01128 3203:0.01128 3205:0.01128 3210:0.02257 3212:0.01128 3213:0.02257 3214:0.01128 3216:0.01128 3217:0.01128 3219:0.02257 3224:0.02257 3228:0.02257 3230:0.01128 3231:0.01128 3232:0.02257 3233:0.01128 3236:0.01128 3238:0.01128 3242:0.01128 3251:0.01128 3254:0.01128 3258:0.01128 3259:0.01128 3264:0.05642 3265:0.02257 3266:0.01128 3268:0.01128 3271:0.02257 3273:0.01128 3275:0.01128 3276:0.01128 3278:0.02257 3279:0.02257 3280:0.03385 3281:0.01128 3283:0.01128 3284:0.02257 3293:0.02257 3294:0.02257 3297:0.01128 3298:0.01128 3299:0.01128 3300:0.03385 3301:0.02257 3306:0.03385 3307:0.04514 3308:0.02257 3312:0.01128 3315:0.01128 3318:0.01128 3319:0.01128 3320:0.01128 3322:0.03385 3325:0.03385 3326:0.01128 3327:0.03385 3328:0.0677 3329:0.02257 3330:0.01128 3331:0.02257 3333:0.03385 3339:0.02257 3340:0.01128 3343:0.01128 3344:0.03385 3345:0.03385 3347:0.01128 3349:0.01128 3351:0.03385 3355:0.01128 3359:0.01128 3360:0.01128 3362:0.01128 3363:0.04514 3368:0.01128 3371:0.02257 3373:0.02257 3374:0.01128 3375:0.02257 3376:0.01128 3377:0.03385 3378:0.01128 3379:0.01128 3380:0.01128 3381:0.02257 3384:0.01128 3388:0.03385 3391:0.01128 3392:0.02257 3393:0.01128 3395:0.02257 3396:0.01128 3397:0.01128 3398:0.01128 3399:0.01128 3400:0.01128 3401:0.02257 3406:0.01128 3407:0.01128 3408:0.01128 3411:0.03385 3412:0.02257 3422:0.01128 3423:0.02257 3426:0.01128 3427:0.01128 3436:0.01128 3438:0.02257 3439:0.01128 3440:0.01128 3441:0.01128 3444:0.01128 3446:0.02257 3447:0.01128 3448:0.03385 3450:0.01128 3452:0.01128 3453:0.02257 3454:0.01128 3455:0.01128 3456:0.01128 3457:0.01128 3460:0.01128 3461:0.01128 3462:0.01128 3464:0.01128 3465:0.01128 3466:0.01128 3467:0.01128 3470:0.01128 3472:0.01128 3475:0.02257 3479:0.02257 3480:0.01128 3482:0.01128 3486:0.01128 3487:0.01128 3488:0.01128 3490:0.01128 3491:0.01128 3495:0.01128 3500:0.01128 3502:0.01128 3503:0.01128 3504:0.01128 3505:0.01128 3510:0.01128 3515:0.01128 3519:0.02257 3520:0.02257 3523:0.01128 3524:0.01128 3525:0.01128 3530:0.01128 3533:0.01128 3534:0.01128 3535:0.02257 3536:0.02257 3541:0.01128 3543:0.02257 3544:0.01128 3545:0.01128 3547:0.01128 3548:0.01128 3551:0.02257 3554:0.03385 3555:0.01128 3556:0.01128 3558:0.01128 3559:0.02257 3560:0.03385 3561:0.02257 3562:0.01128 3563:0.01128 3564:0.01128 3566:0.01128 3567:0.02257 3571:0.02257 3573:0.02257 3574:0.02257 3575:0.02257 3576:0.02257 3579:0.02257 3581:0.04514 3582:0.02257 3583:0.02257 3584:0.02257 3585:0.04514 3586:0.02257 3587:0.01128 3588:0.01128 3589:0.01128 3591:0.01128 3593:0.02257 3598:0.02257 3600:0.01128 3601:0.01128 3602:0.02257 3603:0.01128 3604:0.02257 3605:0.01128 3606:0.02257 3608:0.01128 3610:0.01128 3611:0.01128 3614:0.0677 3615:0.01128 3616:0.04514 3630:0.02257 3632:0.01128 3633:0.01128 3636:0.03385 3640:0.02257 3641:0.02257 3643:0.01128 3644:0.01128 3646:0.02257 3648:0.02257 3649:0.01128 3650:0.01128 3652:0.01128 3653:0.01128 3656:0.02257 3658:0.01128 3659:0.01128 3660:0.01128 3661:0.02257 3663:0.01128 3664:0.01128 3665:0.02257 3666:0.02257 3667:0.01128 3668:0.02257 3669:0.01128 3670:0.01128 3678:0.01128 3680:0.02257 3681:0.02257 3687:0.01128 3690:0.01128 3697:0.01128 3698:0.01128 3700:0.01128 3703:0.01128 3704:0.01128 3707:0.02257 3708:0.02257 3711:0.02257 3712:0.03385 3713:0.03385 3714:0.01128 3715:0.02257 3716:0.01128 3720:0.01128 3721:0.01128 3723:0.01128 3724:0.01128 3727:0.01128 3728:0.01128 3729:0.03385 3730:0.01128 3731:0.01128 3732:0.02257 3733:0.02257 3734:0.04514 3736:0.02257 3740:0.01128 3742:0.01128 3743:0.01128 3744:0.01128 3745:0.04514 3748:0.01128 3749:0.01128 3750:0.02257 3758:0.02257 3761:0.01128 3765:0.01128 3768:0.02257 3769:0.01128 3775:0.01128 3776:0.01128 3777:0.01128 3781:0.02257 3783:0.01128 3785:0.01128 3790:0.01128 3791:0.01128 3792:0.02257 3793:0.01128 3794:0.01128 3795:0.02257 3796:0.02257 3799:0.01128 3801:0.01128 3802:0.02257 3805:0.01128 3806:0.01128 3809:0.01128 3810:0.01128 3811:0.01128 3812:0.01128 3813:0.01128 3817:0.01128 3818:0.01128 3822:0.01128 3823:0.03385 3824:0.04514 3825:0.01128 3827:0.02257 3828:0.03385 3829:0.01128 3830:0.01128 