svm_type c_svc
kernel_type rbf
gamma 0.5
nr_class 2
total_sv 126
rho 0.676195
label 1 -1
nr_sv 54 72
SV
1.081206911492538 2:0.02673 5:0.08018 11:0.02673 12:0.02673 13:0.05345 15:0.02673 18:0.05345 19:0.02673 21:0.02673 24:0.02673 28:0.02673 38:0.05345 43:0.02673 44:0.02673 47:0.02673 48:0.02673 49:0.02673 50:0.02673 52:0.02673 54:0.02673 55:0.02673 59:0.05345 63:0.02673 65:0.02673 69:0.08018 74:0.02673 79:0.05345 81:0.02673 94:0.02673 95:0.02673 109:0.02673 121:0.02673 122:0.02673 125:0.02673 128:0.02673 129:0.08018 134:0.02673 139:0.02673 145:0.02673 149:0.02673 150:0.02673 152:0.02673 159:0.02673 161:0.02673 164:0.02673 165:0.02673 169:0.02673 170:0.02673 172:0.02673 174:0.05345 185:0.02673 187:0.02673 191:0.05345 193:0.02673 196:0.02673 197:0.02673 202:0.02673 205:0.02673 207:0.02673 213:0.02673 215:0.05345 219:0.02673 221:0.02673 222:0.02673 223:0.02673 233:0.02673 235:0.02673 251:0.02673 254:0.02673 258:0.02673 260:0.02673 261:0.02673 265:0.08018 270:0.05345 273:0.02673 275:0.02673 276:0.08018 287:0.02673 289:0.02673 292:0.02673 294:0.02673 295:0.02673 298:0.02673 300:0.02673 303:0.05345 307:0.02673 315:0.02673 316:0.1069 321:0.05345 352:0.02673 357:0.02673 362:0.02673 373:0.02673 374:0.02673 375:0.02673 380:0.02673 382:0.02673 384:0.02673 393:0.02673 413:0.02673 420:0.02673 421:0.02673 436:0.02673 439:0.02673 443:0.02673 448:0.02673 451:0.02673 454:0.02673 458:0.02673 481:0.02673 483:0.02673 486:0.02673 493:0.02673 495:0.02673 499:0.02673 501:0.02673 511:0.02673 512:0.02673 513:0.08018 521:0.02673 535:0.02673 536:0.05345 553:0.05345 554:0.02673 573:0.02673 574:0.02673 575:0.02673 578:0.02673 581:0.05345 593:0.02673 597:0.02673 598:0.02673 606:0.02673 607:0.05345 617:0.02673 619:0.02673 621:0.02673 635:0.02673 638:0.02673 644:0.02673 645:0.08018 649:0.02673 650:0.02673 655:0.02673 657:0.02673 658:0.02673 659:0.02673 661:0.02673 669:0.02673 671:0.02673 672:0.02673 673:0.02673 678:0.02673 683:0.02673 686:0.02673 691:0.02673 693:0.02673 696:0.05345 702:0.02673 704:0.02673 731:0.02673 737:0.05345 741:0.05345 746:0.02673 747:0.02673 750:0.02673 757:0.02673 758:0.02673 761:0.02673 762:0.02673 769:0.02673 781:0.02673 785:0.02673 787:0.02673 796:0.02673 804:0.02673 805:0.02673 807:0.02673 809:0.02673 819:0.02673 820:0.05345 826:0.02673 830:0.02673 832:0.02673 845:0.02673 849:0.02673 858:0.02673 860:0.02673 864:0.02673 873:0.02673 884:0.02673 886:0.02673 892:0.02673 907:0.02673 911:0.02673 921:0.05345 930:0.02673 934:0.02673 939:0.02673 950:0.02673 956:0.08018 957:0.02673 959:0.02673 963:0.02673 967:0.02673 971:0.02673 976:0.02673 982:0.02673 984:0.02673 1003:0.02673 1005:0.02673 1007:0.02673 1014:0.08018 1019:0.02673 1020:0.02673 1021:0.02673 1022:0.05345 1025:0.02673 1026:0.02673 1030:0.05345 1036:0.02673 1037:0.02673 1038:0.02673 1041:0.02673 1042:0.02673 1044:0.02673 1056:0.05345 1057:0.08018 1058:0.02673 1065:0.02673 1067:0.02673 1078:0.02673 1080:0.02673 1088:0.02673 1090:0.02673 1091:0.05345 1092:0.02673 1093:0.02673 1097:0.02673 1099:0.05345 1100:0.02673 1103:0.08018 1130:0.02673 1134:0.02673 1137:0.02673 1138:0.02673 1139:0.02673 1148:0.05345 1150:0.02673 1152:0.02673 1153:0.02673 1155:0.02673 1158:0.02673 1168:0.02673 1174:0.02673 1176:0.02673 1179:0.02673 1184:0.02673 1186:0.02673 1190:0.02673 1192:0.05345 1200:0.02673 1207:0.02673 1210:0.02673 1212:0.02673 1214:0.05345 1226:0.02673 1227:0.02673 1232:0.02673 1236:0.02673 1240:0.02673 1258:0.02673 1263:0.08018 1264:0.05345 1278:0.02673 1280:0.02673 1281:0.05345 1283:0.02673 1284:0.02673 1285:0.02673 1289:0.02673 1291:0.05345 1296:0.02673 1308:0.02673 1309:0.02673 1312:0.02673 1320:0.02673 1321:0.02673 1322:0.02673 1340:0.02673 1344:0.05345 1346:0.02673 1347:0.02673 1348:0.02673 1351:0.02673 1352:0.02673 1360:0.02673 1364:0.02673 1368:0.02673 1373:0.02673 1378:0.02673 1384:0.02673 1393:0.02673 1405:0.02673 1407:0.02673 1408:0.02673 1415:0.02673 1416:0.02673 1424:0.02673 1425:0.02673 1438:0.02673 1439:0.02673 1445:0.02673 1454:0.02673 1463:0.02673 1465:0.02673 1475:0.02673 1476:0.02673 1487:0.02673 1491:0.02673 1492:0.02673 1493:0.02673 1495:0.02673 1497:0.02673 1502:0.05345 1504:0.02673 1505:0.02673 1513:0.02673 1514:0.02673 1519:0.05345 1523:0.02673 1525:0.02673 1526:0.05345 1531:0.05345 1534:0.02673 1536:0.02673 1542:0.02673 1558:0.02673 1559:0.02673 1563:0.02673 1564:0.02673 1567:0.02673 1570:0.02673 1571:0.02673 1580:0.02673 1600:0.02673 1601:0.02673 1613:0.02673 1614:0.02673 1652:0.02673 1654:0.02673 1660:0.02673 1666:0.02673 1675:0.02673 1680:0.05345 1682:0.02673 1683:0.02673 1697:0.05345 1719:0.02673 1720:0.02673 1732:0.02673 1741:0.02673 1749:0.02673 1754:0.02673 1755:0.02673 1762:0.02673 1771:0.02673 1790:0.02673 1803:0.02673 1804:0.02673 1805:0.02673 1811:0.02673 1816:0.02673 1830:0.02673 1839:0.02673 1844:0.02673 1849:0.02673 1852:0.02673 1853:0.02673 1868:0.02673 1870:0.02673 1875:0.02673 1877:0.02673 1881:0.02673 1885:0.02673 1886:0.02673 1890:0.05345 1902:0.02673 1910:0.02673 1911:0.02673 1918:0.02673 1922:0.02673 1923:0.02673 1925:0.02673 1931:0.02673 1938:0.02673 1943:0.02673 1944:0.02673 1953:0.02673 1955:0.02673 1958:0.02673 1971:0.02673 1972:0.02673 1973:0.02673 1978:0.08018 1980:0.02673 1984:0.02673 1988:0.02673 1990:0.02673 1995:0.02673 1996:0.02673 2001:0.02673 2002:0.02673 2003:0.02673 2005:0.02673 2006:0.02673 2015:0.02673 2025:0.05345 2027:0.02673 2030:0.02673 2031:0.05345 2033:0.02673 2038:0.05345 2043:0.02673 2046:0.05345 2051:0.05345 2052:0.05345 2055:0.02673 2058:0.02673 2059:0.02673 2062:0.02673 2063:0.02673 2064:0.02673 2072:0.02673 2079:0.05345 2083:0.02673 2088:0.02673 2089:0.02673 2090:0.02673 2092:0.02673 2095:0.02673 2100:0.02673 2104:0.02673 2113:0.02673 2115:0.02673 2120:0.02673 2122:0.02673 2125:0.02673 2136:0.02673 2138:0.02673 2139:0.02673 2142:0.02673 2144:0.05345 2147:0.02673 2153:0.02673 2159:0.02673 2169:0.02673 2182:0.02673 2187:0.05345 2192:0.02673 2203:0.02673 2210:0.05345 2211:0.02673 2213:0.02673 2216:0.02673 2221:0.02673 2222:0.02673 2224:0.02673 2275:0.02673 2279:0.02673 2289:0.02673 2290:0.02673 2294:0.02673 2300:0.05345 2302:0.02673 2303:0.02673 2306:0.02673 2309:0.02673 2312:0.02673 2321:0.08018 2322:0.02673 2323:0.08018 2333:0.02673 2335:0.02673 2337:0.02673 2342:0.02673 2352:0.02673 2356:0.02673 2357:0.02673 2369:0.02673 2376:0.02673 2379:0.02673 2383:0.02673 2386:0.02673 2389:0.02673 2400:0.02673 2412:0.02673 2415:0.02673 2417:0.02673 2421:0.02673 2424:0.02673 2425:0.02673 2427:0.02673 2428:0.02673 2430:0.02673 2434:0.02673 2439:0.02673 2468:0.02673 2473:0.02673 2478:0.02673 2481:0.02673 2501:0.02673 2508:0.02673 2511:0.02673 2512:0.02673 2520:0.02673 2533:0.02673 2537:0.02673 2542:0.02673 2544:0.02673 2545:0.02673 2546:0.02673 2549:0.02673 2557:0.02673 2558:0.02673 2561:0.02673 2563:0.05345 2564:0.08018 2568:0.02673 2571:0.05345 2573:0.02673 2574:0.02673 2577:0.05345 2578:0.02673 2580:0.02673 2585:0.02673 2595:0.02673 2596:0.02673 2599:0.02673 2601:0.02673 2604:0.02673 2617:0.02673 2621:0.02673 2623:0.02673 2624:0.02673 2626:0.02673 2629:0.05345 2633:0.02673 2636:0.02673 2642:0.02673 2643:0.02673 2644:0.02673 2648:0.02673 2655:0.02673 2675:0.02673 2682:0.02673 2684:0.02673 2685:0.02673 2688:0.05345 2689:0.13363 2691:0.02673 2692:0.02673 2697:0.02673 2709:0.02673 2719:0.02673 2720:0.02673 2721:0.02673 2728:0.02673 2729:0.02673 2743:0.02673 2755:0.02673 2764:0.02673 2770:0.02673 2777:0.05345 2782:0.02673 2783:0.02673 2784:0.02673 2807:0.02673 2815:0.05345 2821:0.02673 2826:0.02673 2830:0.02673 2853:0.02673 2863:0.02673 2866:0.05345 2880:0.02673 2887:0.02673 2889:0.02673 2897:0.02673 2900:0.02673 2910:0.05345 2911:0.02673 2915:0.05345 2917:0.02673 2921:0.02673 2923:0.02673 2935:0.02673 2937:0.02673 2943:0.02673 2945:0.02673 2947:0.02673 2950:0.02673 2962:0.1069 2963:0.02673 2967:0.02673 2968:0.02673 2973:0.05345 2982:0.02673 2985:0.02673 2986:0.02673 2993:0.02673 2998:0.02673 3002:0.02673 3007:0.02673 3008:0.05345 3013:0.02673 3027:0.02673 3031:0.02673 3034:0.02673 3041:0.02673 3046:0.02673 3048:0.02673 3051:0.02673 3055:0.02673 3061:0.02673 3066:0.02673 3068:0.02673 3069:0.02673 3071:0.02673 3072:0.02673 3074:0.02673 3076:0.02673 3082:0.02673 3092:0.02673 3109:0.02673 3110:0.02673 3115:0.02673 3120:0.02673 3121:0.02673 3123:0.02673 3126:0.02673 3128:0.02673 3140:0.02673 3141:0.02673 3145:0.02673 3148:0.02673 3153:0.02673 3166:0.02673 3176:0.02673 3184:0.02673 3216:0.02673 3218:0.05345 3224:0.02673 3228:0.02673 3235:0.02673 3237:0.02673 3243:0.02673 3257:0.02673 3258:0.02673 3259:0.02673 3269:0.02673 3271:0.02673 3273:0.02673 3277:0.05345 3280:0.02673 3300:0.02673 3303:0.02673 3310:0.02673 3315:0.02673 3316:0.02673 3318:0.02673 3327:0.02673 3328:0.05345 3336:0.02673 3355:0.02673 3357:0.02673 3360:0.02673 3362:0.02673 3370:0.02673 3374:0.02673 3376:0.02673 3379:0.02673 3382:0.02673 3393:0.02673 3395:0.05345 3402:0.02673 3403:0.02673 3408:0.02673 3409:0.08018 3410:0.02673 3414:0.02673 3417:0.02673 3418:0.02673 3424:0.02673 3426:0.02673 3428:0.02673 3432:0.02673 3438:0.02673 3444:0.02673 3446:0.02673 3448:0.05345 3451:0.02673 3454:0.02673 3455:0.02673 3462:0.05345 3465:0.02673 3467:0.02673 3476:0.05345 3489:0.02673 3491:0.02673 3497:0.02673 3510:0.02673 3533:0.02673 3542:0.02673 3544:0.02673 3545:0.02673 3548:0.02673 3554:0.02673 3558:0.02673 3565:0.02673 3567:0.02673 3576:0.02673 3579:0.02673 3580:0.08018 3586:0.02673 3592:0.02673 3594:0.02673 3595:0.02673 3596:0.02673 3603:0.02673 3608:0.02673 3626:0.02673 3628:0.02673 3642:0.02673 3653:0.08018 3656:0.05345 3658:0.02673 3675:0.02673 3676:0.02673 3677:0.02673 3678:0.02673 3680:0.02673 3681:0.02673 3682:0.02673 3692:0.02673 3698:0.02673 3700:0.02673 3709:0.02673 3713:0.02673 3715:0.02673 3717:0.02673 3719:0.02673 3723:0.02673 3728:0.02673 3733:0.05345 3734:0.02673 3736:0.02673 3744:0.02673 3745:0.08018 3747:0.02673 3752:0.02673 3754:0.02673 3761:0.02673 3776:0.02673 3778:0.02673 3786:0.02673 3789:0.02673 3792:0.02673 3795:0.02673 3797:0.02673 3800:0.08018 3813:0.08018 3814:0.05345 3816:0.05345 3821:0.02673 3823:0.02673 3824:0.08018 3826:0.02673 3834:0.02673 3835:0.02673 3836:0.02673 3840:0.08018 3841:0.02673 3843:0.02673 3850:0.02673 3854:0.02673 3858:0.02673 3861:0.02673 3866:0.02673 3882:0.02673 3883:0.02673 3887:0.02673 3901:0.02673 3904:0.02673 3906:0.02673 3912:0.05345 3915:0.02673 3916:0.02673 3921:0.02673 3923:0.02673 3925:0.08018 3926:0.02673 3927:0.05345 3928:0.02673 3929:0.02673 3936:0.02673 3941:0.02673 3962:0.02673 3964:0.02673 3967:0.08018 3971:0.02673 3992:0.02673 3995:0.02673 4000:0.02673 4001:0.02673 4002:0.02673 4004:0.02673 4008:0.02673 4009:0.08018 4013:0.02673 4016:0.02673 4020:0.02673 4022:0.05345 4026:0.08018 4028:0.02673 4031:0.02673 4033:0.05345 4048:0.02673 4050:0.02673 4053:0.02673 4054:0.13363 4063:0.02673 4064:0.08018 4071:0.02673 4073:0.02673 4074:0.02673 4076:0.05345 4078:0.02673 4080:0.02673 4081:0.02673 4084:0.02673 4086:0.02673 4088:0.08018 4091:0.05345 4095:0.02673 
1.14392138245991 1:0.0241 2:0.0241 3:0.0482 4:0.0482 5:0.0482 7:0.0482 8:0.0241 11:0.07229 12:0.0482 13:0.0241 14:0.0241 15:0.0482 18:0.0241 20:0.0241 24:0.0241 26:0.0482 30:0.0241 31:0.0241 35:0.0241 41:0.0482 42:0.0241 44:0.0241 46:0.0241 47:0.0241 49:0.0241 50:0.0241 52:0.0482 53:0.0241 54:0.0241 56:0.0482 58:0.0241 60:0.0241 61:0.0482 62:0.0241 69:0.0241 71:0.0241 73:0.0241 75:0.0241 79:0.0241 80:0.0482 96:0.0241 103:0.0482 109:0.0241 111:0.0482 117:0.0241 120:0.0241 122:0.0241 124:0.0241 127:0.0241 139:0.0241 140:0.0241 146:0.0241 150:0.0241 151:0.0241 152:0.0241 163:0.0241 164:0.0241 165:0.0241 166:0.0241 167:0.0241 168:0.0241 175:0.0482 176:0.0241 177:0.0241 181:0.0241 183:0.0241 185:0.0482 188:0.0241 191:0.0241 193:0.0241 196:0.0241 198:0.0241 208:0.0482 210:0.0241 216:0.0241 219:0.0241 222:0.0241 223:0.0241 229:0.0241 230:0.0241 240:0.0482 241:0.0241 244:0.0482 246:0.0241 249:0.0241 250:0.0241 253:0.0241 254:0.0241 255:0.0241 257:0.0482 260:0.0241 264:0.0241 274:0.0482 275:0.0482 276:0.0241 277:0.0241 280:0.0241 283:0.0241 284:0.0241 288:0.0241 292:0.0482 300:0.0482 304:0.0241 306:0.0241 316:0.0482 318:0.0241 320:0.0241 321:0.0241 323:0.0482 335:0.0482 338:0.0241 356:0.0241 357:0.0241 363:0.0241 376:0.0241 377:0.0241 380:0.0482 382:0.0482 384:0.0241 388:0.0241 399:0.0241 412:0.0482 419:0.0241 420:0.0241 434:0.0241 435:0.0241 437:0.0241 438:0.0241 442:0.07229 443:0.0241 444:0.0241 446:0.0482 447:0.0241 458:0.0241 466:0.0241 467:0.0241 468:0.0241 472:0.0241 474:0.0241 479:0.0241 480:0.0241 483:0.0241 485:0.0241 486:0.0241 487:0.0241 495:0.0241 499:0.0241 501:0.0241 506:0.0482 507:0.0241 512:0.0482 513:0.0241 517:0.0241 519:0.0241 521:0.0241 545:0.0241 549:0.0241 553:0.0482 556:0.0241 557:0.0241 560:0.0241 561:0.0241 562:0.0241 563:0.0241 570:0.0241 576:0.0482 577:0.0241 579:0.0241 583:0.0241 585:0.0482 590:0.0241 599:0.0241 603:0.0241 608:0.0241 609:0.0241 611:0.0241 617:0.0241 626:0.07229 627:0.0241 629:0.0241 633:0.0482 634:0.0241 642:0.0241 643:0.0241 652:0.0241 654:0.0241 656:0.0241 657:0.0241 658:0.0241 659:0.0241 660:0.0241 661:0.0241 664:0.0482 667:0.0241 672:0.0241 689:0.0241 690:0.0241 691:0.0241 697:0.0482 700:0.0241 704:0.0241 705:0.0241 710:0.0241 714:0.07229 722:0.0241 723:0.0241 724:0.0241 729:0.0241 730:0.0241 737:0.0241 739:0.0241 741:0.0482 751:0.0241 757:0.0241 762:0.0241 764:0.0241 765:0.0241 768:0.0241 772:0.07229 778:0.0241 784:0.0482 785:0.0241 786:0.0241 793:0.0241 804:0.0241 832:0.0482 833:0.0241 838:0.0241 841:0.0241 845:0.0241 847:0.0241 858:0.0241 860:0.0241 863:0.0241 864:0.0241 876:0.0241 877:0.0241 881:0.0241 884:0.0241 885:0.0241 891:0.0241 892:0.0482 897:0.0241 902:0.0482 903:0.0241 904:0.0241 908:0.0241 909:0.0241 911:0.0241 913:0.0241 914:0.0241 915:0.0241 917:0.0241 920:0.0241 926:0.0241 942:0.0482 954:0.0241 956:0.0241 957:0.0241 959:0.0241 960:0.0241 961:0.0241 969:0.0241 975:0.0241 976:0.0241 978:0.0241 982:0.0241 988:0.0241 993:0.0241 995:0.0241 998:0.0241 1009:0.0241 1010:0.0482 1012:0.07229 1013:0.0241 1019:0.0241 1020:0.0241 1022:0.0241 1023:0.0241 1024:0.0482 1025:0.0482 1026:0.0482 1027:0.0482 1028:0.0241 1035:0.0241 1038:0.0241 1040:0.0241 1043:0.0482 1044:0.0241 1052:0.0241 1054:0.0241 1056:0.0241 1061:0.0241 1066:0.0241 1070:0.0241 1071:0.0241 1072:0.0241 1082:0.0241 1085:0.0241 1089:0.0482 1090:0.0241 1093:0.07229 1094:0.0482 1096:0.0241 1097:0.0241 1099:0.0241 1100:0.0241 1101:0.0241 1103:0.0241 1105:0.0482 1109:0.0241 1119:0.0241 1120:0.0482 1129:0.0241 1133:0.0241 1134:0.0482 1136:0.0482 1143:0.0241 1146:0.0241 1150:0.0241 1151:0.0241 1152:0.0241 1153:0.0241 1154:0.0241 1163:0.0241 1164:0.0241 1165:0.0241 1167:0.0241 1168:0.0241 1181:0.07229 1188:0.0241 1197:0.0482 1199:0.0241 1205:0.0241 1207:0.0241 1210:0.0241 1214:0.0241 1216:0.0241 1217:0.0241 1220:0.0241 1221:0.0241 1236:0.0241 1239:0.0241 1244:0.0241 1247:0.0241 1249:0.0241 1250:0.0482 1252:0.0241 1253:0.0482 1260:0.0482 1263:0.0241 1264:0.0241 1269:0.0241 1273:0.0241 1280:0.0482 1281:0.0482 1284:0.0241 1290:0.0241 1292:0.0241 1297:0.0482 1298:0.0241 1308:0.0241 1313:0.0241 1316:0.0241 1337:0.0482 1349:0.0241 1351:0.0241 1353:0.0241 1381:0.0241 1386:0.0241 1388:0.0241 1424:0.0241 1426:0.0482 1432:0.0241 1437:0.0241 1448:0.0241 1449:0.0482 1454:0.0241 1459:0.0241 1468:0.0241 1475:0.0241 1479:0.0241 1490:0.0241 1493:0.0241 1494:0.0241 1501:0.0241 1503:0.0241 1504:0.0241 1505:0.0241 1509:0.0241 1519:0.0241 1520:0.0241 1523:0.0241 1526:0.0241 1527:0.0482 1530:0.0241 1535:0.0241 1536:0.07229 1547:0.0482 1550:0.0241 1567:0.0241 1568:0.0241 1569:0.0241 1571:0.0241 1583:0.0241 1593:0.0241 1598:0.0241 1603:0.0241 1605:0.0241 1607:0.0241 1612:0.0241 1619:0.0241 1632:0.0241 1648:0.0482 1649:0.0241 1650:0.0241 1654:0.0241 1674:0.0241 1678:0.0241 1679:0.0241 1681:0.0241 1696:0.0241 1697:0.0241 1698:0.0241 1704:0.0241 1714:0.0241 1715:0.0241 1717:0.0241 1729:0.0241 1734:0.0241 1738:0.0241 1739:0.0241 1742:0.0241 1748:0.0241 1750:0.0241 1766:0.0241 1767:0.0241 1768:0.0241 1771:0.0241 1773:0.0241 1776:0.0241 1782:0.0241 1784:0.0241 1786:0.0241 1792:0.0482 1795:0.0241 1803:0.0241 1804:0.0241 1805:0.0241 1815:0.0241 1816:0.0241 1819:0.0241 1820:0.0241 1822:0.07229 1832:0.0241 1838:0.0241 1848:0.0241 1857:0.0241 1858:0.0241 1860:0.0241 1862:0.0241 1864:0.0241 1866:0.0241 1868:0.0241 1869:0.0241 1874:0.0241 1877:0.0241 1884:0.0241 1888:0.0241 1890:0.0241 1893:0.0241 1896:0.0241 1905:0.0241 1909:0.0241 1911:0.0241 1913:0.0241 1914:0.0241 1918:0.0241 1920:0.0241 1923:0.0241 1928:0.0241 1929:0.0241 1932:0.0241 1934:0.0241 1937:0.0482 1940:0.0241 1944:0.0241 1945:0.0241 1949:0.0241 1950:0.0241 1959:0.0241 1961:0.0241 1977:0.0241 1980:0.0482 1983:0.0482 1985:0.0241 1990:0.0241 1993:0.0241 1995:0.0241 1998:0.0482 2003:0.0241 2008:0.0241 2010:0.0482 2014:0.0241 2022:0.0241 2023:0.0241 2024:0.0241 2028:0.0482 2035:0.0241 2041:0.0241 2046:0.0241 2047:0.0482 2048:0.0482 2049:0.0482 2050:0.0482 2051:0.0241 2052:0.0241 2064:0.0241 2066:0.0241 2076:0.0482 2079:0.0241 2083:0.0241 2090:0.0241 2092:0.0482 2095:0.0241 2103:0.0241 2108:0.0241 2112:0.0241 2129:0.0241 2132:0.0482 2139:0.0241 2159:0.0482 2163:0.0241 2169:0.0241 2170:0.0241 2175:0.0241 2176:0.0241 2178:0.0241 2179:0.0241 2185:0.0241 2186:0.0241 2192:0.0241 2195:0.0241 2196:0.0241 2201:0.0241 2205:0.0241 2209:0.0482 2213:0.0482 2214:0.0241 2221:0.0241 2226:0.0241 2227:0.07229 2234:0.0241 2239:0.0241 2240:0.0241 2243:0.0482 2247:0.0241 2249:0.0241 2257:0.0241 2259:0.0241 2263:0.0241 2264:0.0241 2274:0.0482 2278:0.0241 2280:0.0241 2295:0.0241 2301:0.0482 2303:0.0241 2304:0.0241 2305:0.0482 2309:0.0482 2311:0.0241 2312:0.0241 2315:0.0241 2316:0.0482 2320:0.0241 2321:0.0241 2322:0.0241 2324:0.0241 2332:0.07229 2334:0.0241 2335:0.0241 2337:0.0241 2339:0.0241 2344:0.0241 2345:0.0241 2350:0.0241 2351:0.0241 2352:0.0241 2358:0.0241 2360:0.0241 2361:0.0482 2367:0.0241 2368:0.0241 2369:0.0241 2373:0.0241 2377:0.0241 2394:0.0241 2406:0.0241 2411:0.0241 2417:0.0241 2418:0.0241 2421:0.0241 2422:0.0482 2429:0.0241 2430:0.0241 2431:0.0241 2432:0.0241 2435:0.0482 2440:0.0241 2441:0.0241 2444:0.0241 2468:0.0241 2469:0.0241 2474:0.0241 2477:0.0241 2496:0.0482 2497:0.0241 2502:0.0482 2503:0.0241 2504:0.07229 2508:0.0241 2513:0.0482 2519:0.0241 2526:0.0241 2530:0.0241 2531:0.0241 2533:0.0241 2545:0.0241 2546:0.0241 2548:0.0241 2555:0.0241 2561:0.0482 2567:0.0241 2571:0.0241 2576:0.0241 2588:0.0241 2599:0.0241 2602:0.0482 2605:0.0241 2613:0.0482 2618:0.0241 2624:0.0241 2627:0.0241 2628:0.0241 2631:0.0241 2636:0.0241 2638:0.0241 2640:0.0241 2641:0.0241 2653:0.0241 2654:0.0241 2656:0.0241 2657:0.0241 2666:0.0241 2685:0.07229 2689:0.0241 2692:0.0241 2695:0.0241 2699:0.0241 2720:0.0241 2745:0.0241 2755:0.0241 2759:0.0241 2760:0.0241 2762:0.0482 2768:0.0241 2769:0.0241 2770:0.0241 2772:0.0482 2785:0.0241 2786:0.0241 2787:0.0241 2788:0.0241 2799:0.0482 2813:0.0241 2818:0.0241 2820:0.0482 2826:0.0241 2839:0.0241 2840:0.0241 2844:0.0241 2846:0.0241 2853:0.0482 2855:0.0241 2856:0.07229 2858:0.0241 2865:0.0241 2872:0.0241 2876:0.0241 2880:0.0241 2885:0.0241 2886:0.0241 2890:0.0241 2894:0.0482 2895:0.0482 2903:0.0241 2915:0.0241 2917:0.0241 2945:0.07229 2948:0.0241 2950:0.0241 2952:0.0241 2955:0.0241 2956:0.0241 2960:0.0241 2961:0.0482 2964:0.0241 2968:0.0241 2971:0.0482 2976:0.0241 2979:0.0241 2981:0.0241 2985:0.0241 2988:0.0241 2993:0.0241 2996:0.0241 3001:0.0482 3002:0.0241 3003:0.0241 3004:0.0482 3006:0.0241 3008:0.0241 3009:0.0241 3025:0.0241 3032:0.0241 3038:0.0241 3039:0.0241 3043:0.0241 3045:0.09639 3055:0.0241 3057:0.0241 3058:0.0241 3070:0.0482 3071:0.0482 3072:0.0241 3073:0.0241 3078:0.0241 3080:0.0241 3081:0.0241 3085:0.07229 3086:0.0482 3088:0.0241 3092:0.0241 3110:0.07229 3114:0.0241 3117:0.0241 3121:0.0241 3135:0.0241 3136:0.0482 3137:0.0241 3141:0.0241 3143:0.0241 3161:0.0241 3162:0.0241 3166:0.0241 3167:0.0482 3169:0.0241 3172:0.0241 3177:0.0241 3183:0.0241 3184:0.0241 3189:0.0482 3190:0.0241 3192:0.0241 3197:0.0241 3211:0.0241 3213:0.0482 3217:0.0241 3219:0.0241 3225:0.0241 3227:0.0241 3230:0.0241 3231:0.07229 3237:0.0241 3238:0.0241 3253:0.0241 3265:0.0241 3269:0.0241 3284:0.0241 3293:0.0482 3295:0.0241 3299:0.0241 3300:0.0241 3311:0.0241 3315:0.0241 3325:0.07229 3328:0.0241 3329:0.0241 3331:0.0241 3333:0.0241 3343:0.0241 3344:0.0241 3346:0.0482 3347:0.0241 3349:0.0241 3350:0.0241 3352:0.0482 3360:0.0482 3363:0.0241 3368:0.0482 3372:0.0241 3374:0.0241 3377:0.0482 3381:0.0241 3383:0.0241 3386:0.0482 3387:0.0482 3393:0.0241 3397:0.0241 3410:0.0241 3411:0.0241 3419:0.0482 3432:0.0241 3437:0.0241 3439:0.0241 3448:0.0482 3450:0.0241 3456:0.0482 3464:0.0241 3465:0.0241 3473:0.0241 3475:0.0241 3477:0.0241 3485:0.0241 3486:0.0241 3501:0.0241 3505:0.0241 3508:0.0241 3523:0.0241 3524:0.0241 3534:0.0241 3537:0.0241 3539:0.0241 3545:0.0241 3546:0.0241 3550:0.0241 3556:0.0241 3560:0.0482 3562:0.0241 3563:0.0241 3567:0.0241 3568:0.0241 3576:0.0241 3581:0.0241 3585:0.07229 3588:0.0241 3592:0.0241 3596:0.0241 3599:0.0241 3605:0.07229 3607:0.0241 3612:0.0241 3613:0.0241 3615:0.0241 3616:0.0241 3619:0.0241 3620:0.0241 3621:0.0241 3624:0.0241 3626:0.0241 3629:0.0482 3632:0.0241 3633:0.0241 3638:0.0482 3641:0.0241 3648:0.0241 3649:0.0241 3650:0.09639 3653:0.0482 3656:0.0482 3658:0.0241 3659:0.0241 3660:0.0241 3663:0.0482 3664:0.0241 3666:0.0241 3674:0.0241 3677:0.0241 3678:0.0482 3680:0.0241 3682:0.0241 3683:0.0241 3691:0.0241 3692:0.0241 3698:0.0482 3701:0.0241 3704:0.0241 3711:0.0241 3713:0.0241 3723:0.0241 3732:0.0241 3736:0.0241 3737:0.0241 3745:0.0241 3747:0.0241 3759:0.0241 3765:0.07229 3769:0.0241 3772:0.0241 3777:0.0241 3789:0.0241 3791:0.0241 3809:0.0482 3810:0.0241 3813:0.0482 3815:0.0241 3817:0.0241 3818:0.0241 3819:0.0241 3821:0.0241 3823:0.07229 3824:0.0241 3825:0.0241 3832:0.0241 3833:0.0241 3834:0.0482 3840:0.0482 3841:0.0241 3842:0.0241 3844:0.0241 3845:0.0241 3850:0.0241 3856:0.0241 3858:0.0241 3864:0.0241 3865:0.0241 3872:0.0241 3875:0.0241 3876:0.0241 3879:0.0241 3882:0.0241 3890:0.0241 3893:0.0241 3896:0.0241 3897:0.0482 3901:0.0241 3904:0.0241 3908:0.0241 3909:0.0482 3910:0.0241 3912:0.0241 3915:0.0241 3919:0.0241 3921:0.0241 3925:0.0241 3927:0.0241 3934:0.0482 3942:0.0241 3944:0.0241 3949:0.0241 3959:0.0241 3960:0.0241 3962:0.0241 3963:0.0241 3970:0.0241 3974:0.0241 3977:0.0241 3978:0.0482 3982:0.0241 3986:0.0482 3987:0.0482 3988:0.0241 3991:0.0241 3992:0.0241 3993:0.0241 3997:0.0241 4001:0.0241 4006:0.0241 4014:0.0241 4015:0.0482 4020:0.0241 4026:0.0241 4027:0.0482 4034:0.0241 4035:0.0241 4036:0.0241 4037:0.0241 4039:0.0241 4040:0.0241 4042:0.0241 4045:0.0241 4047:0.0241 4048:0.0241 4050:0.07229 4052:0.0241 4053:0.0241 4054:0.0241 4063:0.0241 4067:0.0241 4068:0.0241 4069:0.0241 4072:0.0241 4073:0.0241 4074:0.0241 4076:0.0241 4077:0.0241 4079:0.0482 4081:0.0241 4085:0.07229 4086:0.0482 4088:0.0241 4089:0.0241 4090:0.0482 4091:0.0482 4092:0.0482 4093:0.0241 4094:0.0482 4095:0.0482 4096:0.0241 
0.5842892708186634 1:0.02815 2:0.0563 3:0.02815 5:0.02815 6:0.0563 7:0.02815 9:0.02815 15:0.02815 18:0.0563 21:0.02815 23:0.02815 24:0.02815 25:0.02815 27:0.02815 31:0.0563 34:0.02815 38:0.02815 40:0.02815 48:0.02815 54:0.02815 55:0.02815 59:0.02815 60:0.02815 69:0.08445 79:0.02815 81:0.02815 87:0.0563 89:0.02815 95:0.02815 96:0.02815 97:0.02815 105:0.02815 121:0.0563 124:0.02815 125:0.02815 128:0.02815 136:0.02815 145:0.02815 149:0.02815 150:0.02815 159:0.02815 161:0.02815 163:0.02815 164:0.0563 176:0.02815 187:0.02815 189:0.02815 191:0.02815 193:0.02815 206:0.02815 208:0.0563 210:0.02815 211:0.02815 213:0.08445 215:0.02815 217:0.02815 220:0.02815 233:0.02815 235:0.02815 239:0.0563 243:0.02815 252:0.02815 258:0.0563 262:0.0563 270:0.02815 272:0.02815 273:0.0563 274:0.02815 275:0.02815 276:0.08445 300:0.02815 304:0.02815 316:0.1126 318:0.02815 320:0.02815 324:0.02815 327:0.02815 330:0.02815 339:0.02815 345:0.02815 346:0.0563 351:0.02815 354:0.02815 355:0.02815 376:0.02815 377:0.02815 378:0.0563 380:0.02815 381:0.02815 385:0.02815 400:0.02815 401:0.02815 411:0.02815 413:0.02815 418:0.0563 425:0.0563 438:0.02815 443:0.02815 451:0.02815 475:0.02815 481:0.02815 482:0.02815 486:0.02815 495:0.02815 499:0.02815 511:0.02815 538:0.02815 542:0.02815 554:0.0563 556:0.02815 564:0.02815 578:0.02815 587:0.02815 593:0.02815 594:0.02815 598:0.02815 599:0.02815 603:0.02815 609:0.02815 613:0.02815 618:0.02815 621:0.02815 629:0.02815 633:0.02815 635:0.02815 640:0.02815 641:0.02815 646:0.02815 650:0.02815 654:0.02815 655:0.02815 658:0.02815 659:0.02815 673:0.02815 683:0.02815 686:0.02815 693:0.0563 695:0.02815 698:0.02815 702:0.02815 704:0.02815 731:0.02815 736:0.02815 741:0.02815 746:0.02815 755:0.02815 758:0.02815 762:0.02815 766:0.02815 767:0.02815 769:0.02815 824:0.02815 829:0.02815 831:0.0563 838:0.02815 841:0.02815 849:0.02815 850:0.02815 852:0.02815 857:0.02815 864:0.0563 865:0.02815 875:0.02815 879:0.02815 887:0.02815 914:0.02815 932:0.02815 939:0.02815 953:0.02815 955:0.02815 956:0.08445 957:0.02815 963:0.02815 965:0.02815 967:0.02815 970:0.0563 971:0.02815 982:0.0563 998:0.02815 999:0.0563 1004:0.02815 1005:0.02815 1007:0.02815 1009:0.0563 1014:0.02815 1021:0.02815 1025:0.02815 1026:0.02815 1030:0.02815 1031:0.02815 1032:0.02815 1036:0.02815 1042:0.02815 1046:0.0563 1056:0.02815 1076:0.0563 1077:0.02815 1078:0.02815 1083:0.02815 1085:0.02815 1089:0.0563 1090:0.0563 1092:0.02815 1093:0.0563 1099:0.02815 1100:0.02815 1103:0.08445 1104:0.0563 1109:0.02815 1118:0.02815 1124:0.02815 1134:0.02815 1137:0.02815 1159:0.02815 1163:0.0563 1171:0.02815 1178:0.02815 1179:0.02815 1182:0.02815 1184:0.02815 1193:0.02815 1196:0.02815 1198:0.08445 1200:0.02815 1207:0.02815 1214:0.02815 1216:0.0563 1240:0.02815 1263:0.08445 1264:0.02815 1270:0.02815 1274:0.02815 1277:0.02815 1280:0.02815 1281:0.02815 1282:0.02815 1283:0.02815 1294:0.02815 1297:0.02815 1299:0.02815 1300:0.02815 1305:0.02815 1308:0.02815 1312:0.02815 1315:0.02815 1319:0.02815 1320:0.02815 1323:0.0563 1343:0.02815 1344:0.02815 1349:0.0563 1351:0.02815 1353:0.02815 1360:0.02815 1364:0.02815 1368:0.02815 1373:0.02815 1379:0.02815 1380:0.02815 1381:0.0563 1383:0.02815 1390:0.0563 1393:0.02815 1403:0.0563 1409:0.02815 1413:0.02815 1415:0.02815 1416:0.02815 1418:0.02815 1420:0.02815 1422:0.02815 1425:0.02815 1427:0.02815 1436:0.02815 1439:0.02815 1442:0.02815 1443:0.02815 1445:0.02815 1448:0.02815 1462:0.0563 1463:0.02815 1472:0.02815 1474:0.02815 1476:0.02815 1501:0.02815 1503:0.0563 1507:0.02815 1510:0.02815 1512:0.02815 1513:0.0563 1519:0.02815 1521:0.02815 1525:0.02815 1526:0.02815 1527:0.0563 1537:0.02815 1538:0.02815 1547:0.0563 1554:0.02815 1558:0.02815 1560:0.02815 1562:0.02815 1563:0.02815 1567:0.02815 1572:0.02815 1574:0.02815 1582:0.02815 1590:0.02815 1597:0.02815 1600:0.02815 1601:0.02815 1604:0.0563 1610:0.02815 1643:0.02815 1646:0.02815 1649:0.02815 1654:0.02815 1657:0.02815 1659:0.02815 1666:0.02815 1669:0.02815 1671:0.0563 1673:0.02815 1680:0.02815 1681:0.02815 1682:0.02815 1683:0.02815 1693:0.02815 1697:0.0563 1699:0.02815 1704:0.02815 1710:0.02815 1712:0.0563 1718:0.02815 1728:0.02815 1732:0.02815 1749:0.02815 1751:0.0563 1753:0.02815 1755:0.02815 1759:0.02815 1771:0.02815 1772:0.02815 1791:0.02815 1792:0.02815 1797:0.02815 1800:0.02815 1804:0.02815 1805:0.0563 1808:0.02815 1867:0.02815 1879:0.02815 1883:0.02815 1888:0.02815 1890:0.02815 1899:0.02815 1900:0.02815 1905:0.02815 1914:0.02815 1915:0.02815 1923:0.02815 1926:0.08445 1930:0.02815 1936:0.02815 1942:0.02815 1943:0.02815 1944:0.02815 1947:0.02815 1951:0.02815 1953:0.02815 1954:0.0563 1964:0.02815 1966:0.02815 1979:0.02815 1980:0.02815 1985:0.0563 1988:0.02815 1996:0.02815 2003:0.02815 2005:0.02815 2009:0.02815 2010:0.02815 2033:0.02815 2038:0.02815 2043:0.02815 2048:0.02815 2049:0.02815 2050:0.02815 2053:0.02815 2056:0.02815 2058:0.02815 2062:0.02815 2072:0.02815 2079:0.02815 2089:0.1126 2101:0.02815 2108:0.02815 2117:0.0563 2130:0.02815 2131:0.02815 2135:0.02815 2136:0.02815 2137:0.02815 2143:0.08445 2149:0.02815 2151:0.02815 2153:0.02815 2155:0.0563 2159:0.02815 2167:0.02815 2170:0.02815 2189:0.02815 2197:0.02815 2198:0.02815 2201:0.02815 2207:0.02815 2213:0.0563 2223:0.02815 2232:0.02815 2256:0.02815 2264:0.02815 2267:0.02815 2277:0.02815 2289:0.02815 2290:0.0563 2294:0.02815 2299:0.02815 2300:0.02815 2301:0.02815 2302:0.02815 2305:0.02815 2309:0.02815 2312:0.02815 2317:0.0563 2319:0.02815 2321:0.0563 2322:0.02815 2328:0.02815 2333:0.02815 2339:0.02815 2341:0.02815 2348:0.0563 2350:0.02815 2358:0.02815 2369:0.02815 2376:0.02815 2386:0.02815 2389:0.02815 2390:0.02815 2393:0.02815 2401:0.02815 2408:0.02815 2409:0.0563 2424:0.0563 2435:0.02815 2449:0.02815 2463:0.02815 2469:0.02815 2473:0.02815 2476:0.0563 2481:0.02815 2487:0.02815 2488:0.02815 2500:0.0563 2515:0.02815 2518:0.02815 2520:0.02815 2523:0.02815 2530:0.0563 2535:0.02815 2537:0.02815 2540:0.02815 2545:0.0563 2557:0.02815 2558:0.02815 2561:0.02815 2562:0.02815 2563:0.02815 2564:0.02815 2568:0.02815 2571:0.02815 2574:0.02815 2575:0.02815 2578:0.02815 2581:0.0563 2583:0.02815 2587:0.0563 2588:0.02815 2598:0.02815 2599:0.02815 2615:0.02815 2618:0.02815 2621:0.0563 2623:0.02815 2624:0.02815 2626:0.02815 2628:0.02815 2629:0.0563 2633:0.02815 2635:0.02815 2636:0.02815 2673:0.02815 2678:0.02815 2679:0.02815 2685:0.02815 2688:0.02815 2689:0.08445 2692:0.0563 2698:0.02815 2705:0.02815 2707:0.02815 2718:0.02815 2720:0.02815 2725:0.02815 2728:0.02815 2730:0.02815 2741:0.02815 2743:0.02815 2745:0.02815 2751:0.0563 2771:0.08445 2773:0.0563 2776:0.02815 2777:0.0563 2788:0.02815 2789:0.02815 2805:0.02815 2812:0.0563 2815:0.02815 2816:0.0563 2830:0.0563 2890:0.0563 2892:0.02815 2897:0.02815 2899:0.0563 2907:0.02815 2908:0.0563 2909:0.02815 2914:0.0563 2915:0.02815 2921:0.0563 2924:0.02815 2937:0.02815 2944:0.02815 2946:0.02815 2960:0.02815 2962:0.0563 2964:0.02815 2967:0.02815 2968:0.02815 2980:0.02815 2984:0.02815 2985:0.0563 2986:0.02815 2990:0.02815 2998:0.02815 2999:0.02815 3002:0.02815 3004:0.02815 3007:0.02815 3008:0.0563 3017:0.02815 3019:0.02815 3026:0.02815 3031:0.02815 3046:0.02815 3048:0.02815 3055:0.0563 3062:0.02815 3063:0.02815 3067:0.02815 3068:0.0563 3070:0.02815 3071:0.02815 3072:0.0563 3073:0.02815 3076:0.02815 3082:0.02815 3086:0.02815 3087:0.02815 3092:0.02815 3104:0.02815 3109:0.02815 3110:0.02815 3116:0.02815 3120:0.02815 3121:0.02815 3124:0.02815 3126:0.0563 3127:0.02815 3135:0.02815 3140:0.02815 3176:0.02815 3211:0.02815 3223:0.02815 3228:0.02815 3234:0.02815 3243:0.02815 3258:0.02815 3294:0.02815 3315:0.0563 3322:0.0563 3348:0.02815 3350:0.02815 3362:0.02815 3367:0.02815 3368:0.02815 3372:0.02815 3376:0.0563 3393:0.0563 3397:0.02815 3402:0.02815 3403:0.0563 3408:0.02815 3410:0.0563 3418:0.02815 3420:0.0563 3423:0.02815 3426:0.0563 3434:0.0563 3438:0.02815 3440:0.02815 3441:0.02815 3454:0.1126 3459:0.02815 3462:0.0563 3463:0.02815 3465:0.02815 3472:0.02815 3486:0.02815 3489:0.02815 3492:0.02815 3493:0.02815 3498:0.02815 3500:0.02815 3502:0.02815 3504:0.02815 3515:0.02815 3520:0.02815 3522:0.02815 3543:0.02815 3545:0.02815 3556:0.02815 3558:0.02815 3563:0.02815 3584:0.02815 3590:0.02815 3595:0.02815 3606:0.02815 3608:0.0563 3624:0.02815 3646:0.02815 3647:0.02815 3653:0.02815 3654:0.02815 3656:0.02815 3662:0.02815 3669:0.02815 3670:0.02815 3673:0.02815 3674:0.02815 3675:0.02815 3678:0.0563 3688:0.02815 3691:0.0563 3694:0.02815 3706:0.02815 3709:0.02815 3715:0.02815 3718:0.0563 3719:0.02815 3728:0.08445 3742:0.02815 3744:0.02815 3745:0.0563 3749:0.02815 3754:0.02815 3759:0.02815 3766:0.0563 3776:0.02815 3780:0.02815 3799:0.02815 3803:0.02815 3809:0.02815 3813:0.02815 3814:0.0563 3817:0.02815 3819:0.0563 3822:0.0563 3823:0.0563 3824:0.08445 3827:0.02815 3834:0.02815 3838:0.02815 3840:0.02815 3841:0.02815 3843:0.02815 3844:0.0563 3850:0.0563 3851:0.02815 3854:0.02815 3857:0.02815 3866:0.02815 3875:0.02815 3878:0.02815 3879:0.02815 3881:0.02815 3883:0.02815 3887:0.02815 3901:0.02815 3909:0.02815 3916:0.02815 3923:0.02815 3925:0.0563 3927:0.0563 3928:0.02815 3929:0.02815 3936:0.02815 3940:0.02815 3944:0.02815 3946:0.02815 3952:0.02815 3990:0.02815 3991:0.02815 3994:0.02815 3995:0.02815 3996:0.02815 4000:0.02815 4002:0.02815 4004:0.02815 4008:0.02815 4016:0.02815 4017:0.02815 4026:0.0563 4027:0.02815 4028:0.0563 4033:0.0563 4035:0.0563 4048:0.02815 4054:0.08445 4056:0.02815 4059:0.02815 4060:0.02815 4071:0.02815 4073:0.0563 4074:0.02815 4079:0.0563 4081:0.02815 4084:0.02815 4086:0.02815 4087:0.02815 4090:0.02815 4091:0.02815 4093:0.02815 4094:0.02815 4095:0.02815 4096:0.02815 
0.504849916041434 1:0.0128 3:0.03839 4:0.06398 5:0.0128 6:0.0128 7:0.0128 8:0.0128 9:0.02559 10:0.0128 11:0.0128 12:0.02559 13:0.05118 14:0.02559 15:0.05118 16:0.05118 17:0.03839 18:0.02559 19:0.03839 20:0.0128 21:0.0128 23:0.0128 27:0.0128 28:0.02559 30:0.0128 31:0.0128 32:0.02559 33:0.03839 36:0.03839 39:0.0128 40:0.06398 42:0.0128 44:0.0128 45:0.03839 47:0.03839 48:0.03839 49:0.03839 50:0.0128 51:0.02559 52:0.02559 53:0.05118 54:0.0128 55:0.02559 56:0.0128 57:0.02559 58:0.02559 59:0.0128 60:0.03839 61:0.02559 62:0.08957 63:0.02559 64:0.07677 65:0.05118 68:0.02559 69:0.0128 70:0.02559 71:0.02559 72:0.02559 73:0.0128 74:0.0128 75:0.0128 76:0.03839 80:0.02559 81:0.0128 83:0.0128 86:0.0128 90:0.0128 92:0.0128 93:0.0128 94:0.0128 95:0.0128 100:0.0128 104:0.02559 105:0.02559 108:0.0128 110:0.0128 112:0.02559 113:0.0128 117:0.0128 118:0.0128 120:0.0128 121:0.0128 122:0.0128 125:0.03839 128:0.03839 129:0.05118 130:0.0128 131:0.0128 132:0.0128 133:0.03839 138:0.03839 139:0.03839 142:0.02559 144:0.03839 156:0.02559 158:0.0128 160:0.05118 161:0.02559 162:0.0128 163:0.02559 165:0.0128 168:0.0128 169:0.0128 173:0.0128 178:0.0128 179:0.0128 180:0.02559 182:0.0128 185:0.0128 186:0.03839 187:0.02559 188:0.03839 189:0.03839 191:0.0128 192:0.02559 193:0.02559 194:0.0128 195:0.0128 196:0.02559 197:0.0128 198:0.02559 200:0.03839 201:0.0128 202:0.03839 204:0.02559 208:0.05118 209:0.0128 210:0.02559 211:0.0128 213:0.05118 217:0.0128 219:0.02559 221:0.0128 223:0.02559 224:0.03839 225:0.07677 228:0.0128 230:0.0128 231:0.0128 232:0.05118 233:0.03839 235:0.0128 239:0.02559 240:0.02559 241:0.03839 244:0.0128 245:0.02559 246:0.08957 248:0.02559 249:0.02559 251:0.02559 252:0.02559 253:0.02559 254:0.07677 255:0.06398 256:0.05118 257:0.0128 259:0.02559 260:0.03839 261:0.0128 262:0.02559 265:0.0128 269:0.0128 271:0.02559 272:0.02559 273:0.0128 276:0.0128 279:0.0128 280:0.02559 283:0.02559 285:0.0128 286:0.0128 288:0.03839 289:0.02559 292:0.02559 293:0.02559 295:0.0128 298:0.02559 299:0.0128 301:0.0128 302:0.0128 303:0.02559 306:0.0128 310:0.0128 312:0.0128 315:0.0128 319:0.0128 320:0.03839 324:0.0128 325:0.02559 331:0.0128 339:0.0128 344:0.0128 353:0.03839 355:0.0128 358:0.0128 361:0.0128 367:0.02559 368:0.0128 371:0.0128 376:0.02559 377:0.05118 378:0.0128 384:0.0128 398:0.0128 401:0.0128 411:0.0128 414:0.0128 416:0.02559 417:0.03839 419:0.0128 429:0.02559 432:0.0128 440:0.0128 446:0.0128 448:0.02559 451:0.0128 452:0.02559 454:0.0128 464:0.02559 465:0.0128 469:0.0128 471:0.02559 473:0.03839 475:0.0128 479:0.0128 481:0.0128 485:0.0128 486:0.02559 491:0.0128 494:0.0128 496:0.03839 497:0.02559 499:0.0128 500:0.0128 501:0.02559 502:0.0128 505:0.05118 509:0.03839 510:0.03839 511:0.0128 512:0.02559 513:0.0128 514:0.0128 515:0.0128 516:0.02559 517:0.0128 518:0.02559 519:0.0128 521:0.03839 522:0.0128 525:0.0128 526:0.03839 527:0.0128 528:0.02559 529:0.0128 530:0.0128 531:0.0128 532:0.02559 533:0.0128 540:0.0128 550:0.02559 552:0.0128 554:0.0128 556:0.02559 560:0.0128 561:0.0128 563:0.0128 565:0.02559 567:0.02559 572:0.0128 573:0.02559 574:0.03839 576:0.0128 579:0.02559 584:0.02559 587:0.0128 592:0.05118 593:0.0128 595:0.02559 597:0.02559 601:0.0128 608:0.0128 609:0.02559 611:0.0128 612:0.0128 613:0.0128 619:0.0128 621:0.0128 624:0.02559 628:0.0128 629:0.0128 630:0.0128 631:0.0128 632:0.0128 633:0.02559 638:0.0128 640:0.06398 641:0.05118 642:0.0128 644:0.0128 645:0.0128 648:0.02559 649:0.0128 650:0.0128 654:0.02559 655:0.0128 657:0.0128 659:0.02559 661:0.02559 662:0.0128 666:0.0128 667:0.0128 671:0.0128 673:0.03839 677:0.0128 684:0.0128 689:0.0128 690:0.0128 691:0.02559 700:0.02559 702:0.02559 703:0.0128 705:0.0128 710:0.0128 712:0.02559 713:0.0128 714:0.0128 717:0.0128 719:0.0128 720:0.03839 722:0.02559 728:0.02559 731:0.0128 740:0.0128 741:0.03839 742:0.0128 744:0.02559 745:0.05118 750:0.02559 751:0.0128 752:0.02559 753:0.03839 756:0.0128 758:0.02559 761:0.0128 763:0.0128 765:0.0128 766:0.0128 767:0.0128 768:0.0128 769:0.02559 771:0.02559 773:0.0128 775:0.0128 776:0.0128 777:0.0128 780:0.0128 782:0.02559 784:0.0128 786:0.0128 788:0.0128 791:0.02559 797:0.0128 798:0.0128 799:0.0128 800:0.02559 801:0.0128 805:0.02559 806:0.0128 808:0.0128 813:0.02559 817:0.0128 826:0.0128 831:0.02559 832:0.02559 834:0.0128 835:0.0128 837:0.0128 840:0.0128 842:0.02559 843:0.02559 848:0.0128 849:0.02559 850:0.02559 851:0.0128 855:0.0128 861:0.0128 863:0.02559 865:0.02559 867:0.0128 872:0.0128 873:0.02559 875:0.0128 880:0.0128 882:0.02559 885:0.0128 886:0.0128 889:0.0128 891:0.0128 892:0.02559 893:0.0128 895:0.0128 896:0.03839 897:0.03839 899:0.0128 900:0.06398 905:0.0128 907:0.0128 910:0.0128 913:0.0128 914:0.0128 917:0.0128 918:0.0128 922:0.0128 925:0.0128 927:0.03839 929:0.03839 931:0.0128 937:0.0128 938:0.0128 947:0.0128 948:0.0128 952:0.02559 955:0.0128 956:0.0128 959:0.0128 960:0.0128 961:0.02559 962:0.05118 963:0.0128 969:0.0128 971:0.02559 972:0.02559 973:0.0128 976:0.02559 977:0.02559 979:0.0128 980:0.06398 981:0.05118 982:0.03839 983:0.03839 984:0.0128 985:0.0128 986:0.0128 989:0.05118 990:0.0128 991:0.0128 992:0.0128 993:0.03839 994:0.0128 1002:0.05118 1004:0.0128 1005:0.0128 1006:0.0128 1007:0.0128 1008:0.02559 1009:0.06398 1010:0.02559 1011:0.02559 1013:0.05118 1014:0.05118 1015:0.02559 1016:0.02559 1018:0.02559 1019:0.0128 1020:0.03839 1021:0.0128 1022:0.05118 1023:0.05118 1024:0.06398 1025:0.02559 1026:0.0128 1028:0.05118 1030:0.0128 1032:0.0128 1033:0.0128 1034:0.03839 1036:0.0128 1039:0.0128 1040:0.06398 1042:0.0128 1043:0.02559 1044:0.0128 1045:0.0128 1047:0.0128 1048:0.0128 1050:0.0128 1051:0.02559 1054:0.0128 1056:0.0128 1057:0.0128 1058:0.0128 1059:0.0128 1060:0.0128 1065:0.05118 1066:0.0128 1071:0.05118 1073:0.0128 1076:0.02559 1079:0.0128 1081:0.0128 1082:0.0128 1083:0.0128 1084:0.0128 1085:0.02559 1086:0.02559 1088:0.02559 1090:0.02559 1092:0.0128 1096:0.0128 1097:0.0128 1098:0.0128 1099:0.02559 1104:0.02559 1106:0.0128 1113:0.02559 1118:0.0128 1119:0.0128 1125:0.0128 1127:0.0128 1132:0.02559 1137:0.0128 1138:0.0128 1142:0.0128 1143:0.0128 1146:0.0128 1148:0.02559 1150:0.02559 1151:0.05118 1152:0.03839 1153:0.0128 1154:0.02559 1155:0.0128 1156:0.0128 1159:0.0128 1164:0.0128 1165:0.0128 1167:0.0128 1168:0.02559 1170:0.02559 1171:0.0128 1172:0.03839 1176:0.0128 1177:0.0128 1178:0.0128 1179:0.0128 1181:0.0128 1182:0.0128 1185:0.0128 1186:0.0128 1188:0.02559 1189:0.0128 1190:0.0128 1193:0.0128 1194:0.0128 1197:0.03839 1199:0.0128 1200:0.0128 1202:0.0128 1204:0.0128 1205:0.0128 1207:0.0128 1210:0.02559 1211:0.0128 1213:0.0128 1216:0.0128 1221:0.0128 1224:0.0128 1229:0.0128 1233:0.0128 1235:0.0128 1238:0.0128 1240:0.0128 1247:0.0128 1249:0.03839 1251:0.0128 1259:0.0128 1262:0.0128 1267:0.0128 1269:0.06398 1270:0.0128 1271:0.0128 1272:0.0128 1273:0.0128 1275:0.0128 1276:0.02559 1277:0.03839 1279:0.0128 1280:0.05118 1281:0.03839 1282:0.02559 1283:0.0128 1284:0.0128 1285:0.0128 1287:0.0128 1288:0.0128 1293:0.0128 1294:0.0128 1295:0.0128 1296:0.02559 1297:0.0128 1299:0.0128 1300:0.0128 1306:0.02559 1309:0.0128 1311:0.0128 1312:0.02559 1313:0.02559 1314:0.0128 1315:0.0128 1316:0.0128 1317:0.0128 1318:0.0128 1321:0.0128 1323:0.0128 1326:0.0128 1333:0.0128 1340:0.0128 1342:0.02559 1343:0.0128 1344:0.0128 1345:0.0128 1351:0.0128 1354:0.02559 1356:0.0128 1359:0.0128 1360:0.0128 1373:0.0128 1380:0.0128 1382:0.0128 1383:0.0128 1384:0.0128 1385:0.0128 1393:0.0128 1397:0.0128 1403:0.0128 1404:0.0128 1405:0.0128 1409:0.03839 1411:0.0128 1416:0.0128 1418:0.0128 1420:0.0128 1422:0.0128 1424:0.02559 1425:0.0128 1429:0.0128 1431:0.0128 1432:0.0128 1436:0.0128 1439:0.0128 1443:0.02559 1449:0.0128 1453:0.0128 1457:0.0128 1459:0.0128 1468:0.02559 1471:0.02559 1472:0.0128 1473:0.0128 1476:0.02559 1477:0.02559 1478:0.02559 1479:0.0128 1482:0.0128 1491:0.0128 1492:0.0128 1498:0.0128 1504:0.03839 1505:0.03839 1506:0.0128 1507:0.0128 1508:0.02559 1512:0.0128 1514:0.0128 1516:0.0128 1519:0.02559 1520:0.0128 1521:0.02559 1527:0.0128 1529:0.02559 1530:0.03839 1533:0.0128 1536:0.0128 1537:0.0128 1538:0.02559 1539:0.0128 1540:0.02559 1545:0.0128 1547:0.0128 1549:0.0128 1551:0.0128 1555:0.0128 1567:0.0128 1576:0.0128 1577:0.0128 1581:0.02559 1582:0.0128 1583:0.0128 1585:0.0128 1591:0.02559 1592:0.02559 1599:0.0128 1600:0.02559 1601:0.0128 1602:0.0128 1605:0.0128 1616:0.0128 1617:0.0128 1619:0.0128 1625:0.0128 1629:0.0128 1630:0.0128 1643:0.0128 1647:0.0128 1650:0.02559 1651:0.0128 1654:0.0128 1657:0.0128 1658:0.0128 1660:0.0128 1662:0.0128 1664:0.0128 1665:0.02559 1668:0.03839 1670:0.0128 1673:0.0128 1674:0.0128 1676:0.02559 1682:0.0128 1691:0.0128 1694:0.0128 1697:0.02559 1698:0.0128 1699:0.0128 1700:0.0128 1715:0.02559 1716:0.02559 1718:0.0128 1721:0.0128 1724:0.0128 1727:0.0128 1728:0.0128 1729:0.0128 1738:0.0128 1739:0.0128 1759:0.0128 1769:0.0128 1771:0.0128 1776:0.02559 1780:0.0128 1781:0.0128 1784:0.0128 1785:0.0128 1786:0.0128 1787:0.0128 1789:0.0128 1790:0.0128 1792:0.0128 1793:0.0128 1795:0.0128 1796:0.02559 1804:0.0128 1805:0.03839 1806:0.0128 1807:0.0128 1809:0.02559 1810:0.0128 1812:0.0128 1815:0.02559 1816:0.02559 1818:0.0128 1819:0.0128 1821:0.0128 1824:0.0128 1825:0.0128 1830:0.0128 1831:0.0128 1836:0.0128 1848:0.0128 1853:0.02559 1854:0.02559 1856:0.02559 1859:0.05118 1866:0.0128 1867:0.0128 1870:0.0128 1871:0.0128 1873:0.0128 1876:0.0128 1879:0.0128 1881:0.0128 1883:0.02559 1884:0.0128 1888:0.02559 1889:0.02559 1892:0.0128 1896:0.0128 1898:0.0128 1900:0.0128 1915:0.0128 1918:0.06398 1919:0.0128 1921:0.03839 1923:0.03839 1924:0.0128 1925:0.0128 1926:0.0128 1929:0.0128 1931:0.0128 1934:0.02559 1935:0.0128 1936:0.0128 1937:0.0128 1938:0.02559 1944:0.02559 1951:0.0128 1953:0.0128 1954:0.0128 1956:0.0128 1959:0.0128 1960:0.02559 1961:0.0128 1962:0.0128 1964:0.0128 1968:0.0128 1973:0.0128 1974:0.0128 1975:0.0128 1976:0.0128 1977:0.02559 1978:0.0128 1979:0.0128 1981:0.0128 1983:0.02559 1984:0.03839 1985:0.03839 1986:0.0128 1988:0.0128 1989:0.0128 1996:0.0128 1997:0.0128 2000:0.0128 2001:0.0128 2003:0.03839 2004:0.0128 2005:0.03839 2009:0.0128 2011:0.0128 2013:0.0128 2014:0.0128 2015:0.0128 2016:0.0128 2017:0.03839 2019:0.05118 2020:0.0128 2022:0.02559 2024:0.02559 2030:0.0128 2033:0.05118 2035:0.0128 2036:0.02559 2037:0.02559 2038:0.02559 2039:0.0128 2040:0.0128 2041:0.02559 2043:0.0128 2044:0.02559 2045:0.0128 2046:0.02559 2048:0.03839 2049:0.05118 2050:0.0128 2051:0.02559 2052:0.05118 2053:0.07677 2055:0.0128 2056:0.0128 2057:0.0128 2058:0.0128 2060:0.03839 2061:0.03839 2062:0.03839 2064:0.07677 2065:0.0128 2066:0.0128 2072:0.02559 2074:0.0128 2076:0.0128 2077:0.0128 2078:0.0128 2081:0.02559 2082:0.0128 2083:0.06398 2087:0.0128 2088:0.0128 2090:0.0128 2093:0.0128 2095:0.02559 2098:0.02559 2099:0.02559 2102:0.02559 2104:0.03839 2105:0.03839 2106:0.03839 2107:0.02559 2110:0.02559 2111:0.02559 2112:0.08957 2113:0.0128 2115:0.0128 2116:0.0128 2120:0.02559 2121:0.02559 2122:0.0128 2124:0.0128 2126:0.0128 2127:0.0128 2130:0.0128 2133:0.0128 2137:0.0128 2160:0.0128 2166:0.0128 2167:0.0128 2171:0.0128 2172:0.0128 2173:0.0128 2179:0.0128 2180:0.0128 2181:0.02559 2182:0.0128 2190:0.02559 2193:0.0128 2198:0.0128 2199:0.0128 2204:0.0128 2206:0.02559 2207:0.0128 2208:0.0128 2209:0.0128 2214:0.0128 2215:0.0128 2217:0.0128 2223:0.0128 2224:0.0128 2225:0.0128 2228:0.0128 2229:0.0128 2230:0.0128 2234:0.0128 2236:0.0128 2238:0.0128 2239:0.0128 2240:0.0128 2241:0.0128 2242:0.0128 2250:0.0128 2259:0.02559 2260:0.0128 2261:0.0128 2264:0.02559 2265:0.02559 2267:0.0128 2268:0.0128 2270:0.02559 2272:0.02559 2275:0.0128 2277:0.0128 2281:0.0128 2285:0.0128 2286:0.0128 2291:0.0128 2292:0.02559 2294:0.02559 2296:0.03839 2299:0.0128 2301:0.03839 2302:0.03839 2304:0.02559 2305:0.0128 2308:0.02559 2309:0.02559 2311:0.0128 2313:0.0128 2315:0.03839 2321:0.0128 2322:0.0128 2323:0.0128 2325:0.0128 2334:0.0128 2335:0.02559 2336:0.03839 2337:0.0128 2343:0.0128 2348:0.0128 2349:0.0128 2351:0.0128 2352:0.0128 2354:0.0128 2356:0.0128 2357:0.0128 2366:0.03839 2367:0.0128 2368:0.02559 2369:0.0128 2370:0.02559 2372:0.05118 2377:0.02559 2379:0.0128 2385:0.0128 2386:0.0128 2387:0.0128 2388:0.0128 2399:0.0128 2402:0.0128 2403:0.0128 2406:0.0128 2417:0.02559 2418:0.0128 2421:0.0128 2424:0.0128 2428:0.02559 2430:0.0128 2431:0.0128 2432:0.0128 2433:0.0128 2436:0.0128 2437:0.0128 2443:0.0128 2445:0.0128 2450:0.0128 2452:0.0128 2456:0.0128 2463:0.0128 2465:0.0128 2469:0.0128 2473:0.03839 2480:0.0128 2483:0.0128 2491:0.02559 2494:0.0128 2495:0.0128 2497:0.02559 2503:0.0128 2504:0.0128 2505:0.0128 2507:0.0128 2510:0.0128 2512:0.03839 2513:0.02559 2519:0.0128 2520:0.0128 2523:0.0128 2528:0.03839 2529:0.02559 2530:0.0128 2531:0.0128 2532:0.02559 2533:0.0128 2539:0.02559 2542:0.0128 2543:0.0128 2544:0.0128 2549:0.0128 2552:0.0128 2557:0.0128 2558:0.0128 2559:0.03839 2560:0.0128 2561:0.05118 2562:0.03839 2563:0.02559 2564:0.05118 2568:0.02559 2569:0.02559 2572:0.0128 2573:0.0128 2574:0.02559 2575:0.0128 2576:0.08957 2577:0.0128 2578:0.0128 2579:0.0128 2583:0.0128 2590:0.0128 2592:0.0128 2593:0.02559 2594:0.0128 2596:0.0128 2599:0.0128 2600:0.0128 2606:0.0128 2607:0.0128 2608:0.0128 2613:0.0128 2614:0.02559 2617:0.0128 2620:0.0128 2621:0.0128 2622:0.02559 2624:0.0128 2625:0.0128 2627:0.02559 2629:0.0128 2632:0.0128 2636:0.02559 2637:0.0128 2640:0.0128 2641:0.02559 2645:0.0128 2653:0.0128 2654:0.0128 2655:0.0128 2658:0.0128 2661:0.0128 2666:0.0128 2667:0.0128 2668:0.0128 2673:0.02559 2675:0.0128 2676:0.0128 2680:0.02559 2683:0.0128 2689:0.03839 2690:0.0128 2692:0.03839 2693:0.0128 2697:0.0128 2703:0.0128 2705:0.0128 2708:0.0128 2712:0.0128 2717:0.0128 2718:0.0128 2736:0.0128 2741:0.0128 2749:0.0128 2753:0.0128 2760:0.0128 2761:0.0128 2763:0.02559 2764:0.0128 2768:0.02559 2771:0.0128 2775:0.0128 2782:0.0128 2786:0.0128 2789:0.0128 2797:0.0128 2800:0.02559 2801:0.0128 2808:0.02559 2809:0.0128 2812:0.02559 2815:0.0128 2816:0.0128 2818:0.0128 2820:0.02559 2825:0.0128 2840:0.0128 2845:0.0128 2847:0.0128 2848:0.0128 2849:0.02559 2852:0.02559 2855:0.02559 2857:0.05118 2858:0.0128 2863:0.0128 2865:0.0128 2874:0.0128 2876:0.0128 2877:0.03839 2878:0.02559 2880:0.0128 2884:0.0128 2885:0.0128 2886:0.0128 2890:0.0128 2891:0.0128 2899:0.0128 2903:0.0128 2905:0.0128 2909:0.0128 2911:0.0128 2912:0.0128 2918:0.0128 2922:0.0128 2933:0.02559 2934:0.0128 2939:0.0128 2941:0.0128 2942:0.0128 2943:0.0128 2952:0.02559 2960:0.02559 2961:0.02559 2963:0.02559 2964:0.0128 2965:0.0128 2967:0.0128 2970:0.0128 2975:0.02559 2977:0.05118 2980:0.02559 2986:0.0128 2990:0.0128 2991:0.0128 2995:0.0128 2996:0.0128 2998:0.0128 3000:0.0128 3002:0.0128 3005:0.03839 3006:0.0128 3007:0.0128 3008:0.02559 3009:0.02559 3010:0.02559 3011:0.0128 3012:0.05118 3021:0.0128 3022:0.0128 3024:0.0128 3025:0.02559 3030:0.0128 3032:0.0128 3037:0.0128 3039:0.02559 3040:0.0128 3041:0.02559 3044:0.0128 3045:0.02559 3047:0.0128 3049:0.0128 3050:0.02559 3053:0.0128 3055:0.02559 3057:0.03839 3058:0.0128 3061:0.02559 3062:0.03839 3063:0.02559 3064:0.0128 3067:0.02559 3069:0.02559 3070:0.0128 3071:0.0128 3073:0.02559 3074:0.02559 3075:0.0128 3076:0.0128 3077:0.02559 3079:0.0128 3080:0.0128 3081:0.02559 3082:0.0128 3083:0.0128 3084:0.03839 3085:0.0128 3086:0.03839 3087:0.03839 3088:0.02559 3089:0.02559 3090:0.03839 3091:0.0128 3094:0.0128 3097:0.0128 3103:0.0128 3104:0.03839 3105:0.0128 3106:0.0128 3108:0.0128 3113:0.0128 3115:0.0128 3118:0.0128 3120:0.03839 3121:0.02559 3122:0.03839 3123:0.02559 3126:0.0128 3128:0.02559 3129:0.0128 3135:0.02559 3136:0.02559 3137:0.0128 3138:0.0128 3140:0.0128 3141:0.0128 3142:0.0128 3149:0.0128 3150:0.0128 3161:0.0128 3163:0.0128 3164:0.02559 3167:0.03839 3168:0.0128 3176:0.0128 3177:0.02559 3185:0.0128 3188:0.02559 3191:0.02559 3194:0.0128 3196:0.0128 3198:0.0128 3200:0.03839 3202:0.0128 3203:0.0128 3204:0.05118 3213:0.0128 3216:0.0128 3217:0.0128 3220:0.0128 3221:0.03839 3222:0.0128 3225:0.03839 3231:0.0128 3233:0.02559 3234:0.0128 3236:0.0128 3237:0.0128 3238:0.0128 3239:0.0128 3243:0.0128 3248:0.0128 3250:0.0128 3251:0.0128 3252:0.0128 3259:0.0128 3260:0.0128 3262:0.0128 3265:0.0128 3266:0.0128 3267:0.0128 3268:0.0128 3272:0.0128 3279:0.0128 3290:0.0128 3293:0.0128 3295:0.0128 3301:0.0128 3302:0.0128 3309:0.0128 3313:0.05118 3315:0.03839 3317:0.0128 3318:0.0128 3319:0.0128 3320:0.0128 3321:0.0128 3323:0.0128 3324:0.0128 3325:0.0128 3326:0.03839 3328:0.05118 3329:0.02559 3331:0.02559 3334:0.0128 3335:0.0128 3336:0.0128 3337:0.02559 3339:0.02559 3340:0.05118 3341:0.0128 3343:0.0128 3344:0.02559 3347:0.02559 3351:0.0128 3360:0.0128 3364:0.0128 3365:0.03839 3367:0.0128 3368:0.02559 3369:0.03839 3372:0.05118 3376:0.0128 3382:0.0128 3385:0.05118 3389:0.0128 3390:0.03839 3391:0.0128 3392:0.02559 3393:0.06398 3394:0.0128 3397:0.0128 3399:0.0128 3400:0.05118 3401:0.03839 3406:0.0128 3408:0.03839 3411:0.0128 3412:0.0128 3417:0.0128 3418:0.03839 3419:0.0128 3422:0.0128 3423:0.0128 3424:0.0128 3425:0.0128 3428:0.02559 3429:0.0128 3435:0.0128 3436:0.0128 3437:0.02559 3440:0.02559 3442:0.05118 3447:0.0128 3449:0.03839 3451:0.0128 3453:0.0128 3455:0.05118 3457:0.02559 3459:0.0128 3460:0.0128 3468:0.03839 3470:0.02559 3472:0.0128 3477:0.0128 3485:0.03839 3487:0.0128 3489:0.0128 3490:0.0128 3491:0.0128 3495:0.0128 3496:0.0128 3497:0.0128 3501:0.0128 3502:0.0128 3503:0.02559 3517:0.0128 3521:0.0128 3524:0.0128 3525:0.02559 3526:0.0128 3528:0.0128 3530:0.0128 3536:0.0128 3537:0.0128 3539:0.0128 3540:0.0128 3541:0.0128 3542:0.0128 3543:0.0128 3544:0.0128 3553:0.0128 3557:0.0128 3561:0.03839 3562:0.02559 3566:0.02559 3567:0.0128 3568:0.0128 3569:0.0128 3570:0.0128 3572:0.0128 3573:0.02559 3574:0.02559 3575:0.0128 3576:0.03839 3577:0.02559 3578:0.0128 3580:0.0128 3581:0.02559 3582:0.0128 3583:0.0128 3584:0.02559 3585:0.06398 3586:0.02559 3587:0.02559 3588:0.05118 3589:0.0128 3591:0.0128 3593:0.02559 3594:0.0128 3596:0.02559 3597:0.0128 3599:0.06398 3600:0.02559 3601:0.0128 3603:0.0128 3606:0.0128 3614:0.0128 3615:0.0128 3618:0.02559 3620:0.0128 3621:0.0128 3624:0.0128 3626:0.0128 3627:0.0128 3632:0.0128 3638:0.0128 3640:0.02559 3642:0.0128 3643:0.0128 3648:0.05118 3649:0.0128 3650:0.02559 3653:0.0128 3654:0.0128 3656:0.03839 3657:0.0128 3658:0.0128 3660:0.0128 3661:0.0128 3662:0.0128 3665:0.03839 3669:0.0128 3672:0.0128 3674:0.0128 3677:0.0128 3679:0.0128 3680:0.0128 3686:0.0128 3688:0.0128 3689:0.0128 3695:0.0128 3700:0.02559 3701:0.0128 3705:0.03839 3707:0.0128 3708:0.02559 3713:0.05118 3715:0.03839 3716:0.05118 3717:0.0128 3721:0.0128 3724:0.0128 3726:0.0128 3728:0.05118 3729:0.0128 3730:0.0128 3732:0.0128 3736:0.02559 3737:0.0128 3739:0.0128 3741:0.03839 3745:0.02559 3749:0.0128 3750:0.0128 3752:0.02559 3758:0.0128 3768:0.0128 3770:0.0128 3775:0.0128 3776:0.0128 3779:0.0128 3785:0.02559 3787:0.02559 3791:0.0128 3792:0.0128 3793:0.0128 3795:0.0128 3797:0.0128 3798:0.0128 3800:0.0128 3802:0.0128 3806:0.02559 3808:0.03839 3810:0.0128 3812:0.0128 3813:0.0128 3814:0.0128 3815:0.0128 3817:0.0128 3820:0.02559 3821:0.0128 3824:0.0128 3825:0.06398 3828:0.0128 3829:0.0128 3832:0.0128 3834:0.02559 3835:0.0128 3836:0.0128 3837:0.02559 3838:0.07677 3840:0.0128 3841:0.03839 3842:0.03839 3843:0.05118 3844:0.06398 3845:0.06398 3846:0.0128 3848:0.03839 3849:0.0128 3851:0.02559 3852:0.02559 3853:0.05118 3856:0.03839 3857:0.0128 3864:0.0128 3867:0.0128 3870:0.0128 3873:0.02559 3878:0.02559 3882:0.02559 3883:0.0128 3885:0.0128 3887:0.0128 3888:0.0128 3889:0.02559 3890:0.0128 3892:0.0128 3895:0.0128 3896:0.0128 3901:0.02559 3903:0.0128 3904:0.03839 3905:0.05118 3906:0.02559 3907:0.03839 3908:0.03839 3913:0.0128 3914:0.02559 3915:0.03839 3916:0.0128 3919:0.03839 3920:0.07677 3921:0.03839 3922:0.05118 3923:0.0128 3924:0.03839 3925:0.02559 3927:0.02559 3928:0.03839 3929:0.0128 3930:0.0128 3932:0.03839 3933:0.02559 3934:0.0128 3935:0.0128 3936:0.02559 3939:0.02559 3940:0.02559 3944:0.02559 3945:0.0128 3948:0.03839 3953:0.02559 3954:0.02559 3955:0.0128 3956:0.0128 3958:0.02559 3962:0.0128 3963:0.02559 3964:0.02559 3965:0.0128 3966:0.02559 3967:0.0128 3968:0.03839 3969:0.08957 3970:0.02559 3971:0.0128 3972:0.02559 3973:0.0128 3977:0.0128 3978:0.02559 3980:0.0128 3983:0.0128 3984:0.0128 3986:0.02559 3987:0.0128 3988:0.0128 3989:0.0128 3990:0.0128 3992:0.0128 3995:0.0128 3996:0.0128 3997:0.0128 3998:0.0128 4001:0.03839 4003:0.0128 4004:0.02559 4005:0.03839 4006:0.02559 4007:0.0128 4008:0.0128 4010:0.0128 4016:0.0128 4017:0.0128 4019:0.02559 4021:0.0128 4022:0.0128 4024:0.0128 4026:0.0128 4027:0.0128 4028:0.0128 4029:0.02559 4030:0.0128 4032:0.03839 4033:0.10236 4034:0.02559 4035:0.03839 4036:0.02559 4038:0.0128 4039:0.0128 4040:0.0128 4041:0.0128 4042:0.02559 4043:0.0128 4045:0.0128 4046:0.0128 4048:0.02559 4049:0.08957 4051:0.03839 4052:0.03839 4053:0.05118 4054:0.03839 4055:0.02559 4056:0.05118 4057:0.02559 4058:0.0128 4059:0.03839 4063:0.0128 4064:0.05118 4065:0.05118 4069:0.0128 4070:0.0128 4071:0.0128 4073:0.06398 4074:0.0128 4075:0.0128 4077:0.0128 4078:0.0128 4080:0.05118 4081:0.03839 4083:0.0128 4084:0.02559 4085:0.06398 4086:0.05118 4087:0.0128 4088:0.0128 4089:0.02559 4090:0.0128 4091:0.03839 4092:0.0128 4093:0.02559 4094:0.05118 4095:0.02559 4096:0.0128 
1.641092333016091 2:0.02503 3:0.02503 6:0.02503 7:0.02503 10:0.02503 11:0.02503 13:0.02503 15:0.02503 20:0.02503 22:0.02503 26:0.02503 27:0.02503 40:0.02503 42:0.02503 47:0.02503 49:0.02503 52:0.02503 55:0.02503 58:0.02503 60:0.02503 61:0.02503 62:0.07509 63:0.05006 64:0.05006 74:0.02503 75:0.02503 76:0.02503 77:0.02503 79:0.02503 87:0.02503 101:0.02503 104:0.02503 106:0.02503 117:0.02503 141:0.02503 147:0.02503 153:0.02503 159:0.05006 165:0.02503 170:0.02503 183:0.02503 185:0.02503 186:0.02503 187:0.02503 193:0.02503 196:0.02503 205:0.02503 206:0.02503 212:0.02503 217:0.02503 218:0.05006 223:0.02503 229:0.02503 237:0.02503 239:0.02503 244:0.02503 245:0.02503 246:0.05006 249:0.02503 250:0.02503 253:0.02503 254:0.10013 255:0.07509 258:0.02503 260:0.02503 261:0.02503 271:0.02503 273:0.02503 283:0.02503 290:0.02503 291:0.02503 293:0.02503 296:0.02503 298:0.02503 300:0.02503 302:0.02503 305:0.02503 307:0.02503 316:0.05006 319:0.02503 320:0.02503 321:0.02503 339:0.02503 346:0.02503 347:0.02503 366:0.02503 367:0.02503 378:0.02503 380:0.02503 402:0.02503 403:0.05006 405:0.02503 413:0.02503 415:0.02503 421:0.02503 422:0.02503 423:0.02503 427:0.02503 430:0.02503 431:0.02503 451:0.02503 465:0.02503 473:0.02503 475:0.02503 490:0.07509 491:0.02503 496:0.02503 506:0.05006 507:0.02503 511:0.02503 516:0.05006 531:0.02503 532:0.02503 538:0.02503 539:0.02503 541:0.02503 546:0.05006 547:0.02503 549:0.02503 551:0.02503 554:0.02503 555:0.02503 564:0.02503 569:0.02503 575:0.02503 578:0.02503 583:0.02503 585:0.05006 586:0.10013 593:0.02503 598:0.02503 611:0.02503 612:0.02503 623:0.02503 624:0.02503 631:0.02503 633:0.02503 634:0.02503 636:0.02503 637:0.02503 640:0.02503 657:0.05006 662:0.05006 667:0.02503 675:0.02503 679:0.05006 682:0.05006 689:0.02503 691:0.02503 721:0.02503 729:0.02503 730:0.02503 734:0.02503 738:0.02503 741:0.02503 742:0.02503 743:0.02503 745:0.05006 746:0.05006 762:0.02503 769:0.07509 778:0.02503 781:0.02503 784:0.02503 788:0.02503 795:0.02503 801:0.02503 803:0.02503 817:0.05006 818:0.02503 824:0.02503 829:0.02503 832:0.02503 846:0.02503 849:0.02503 867:0.02503 870:0.02503 872:0.02503 890:0.05006 895:0.02503 912:0.02503 913:0.02503 916:0.05006 917:0.02503 919:0.02503 948:0.02503 952:0.02503 955:0.05006 959:0.02503 960:0.02503 961:0.02503 973:0.02503 976:0.02503 977:0.02503 981:0.02503 982:0.02503 994:0.02503 995:0.02503 997:0.02503 1001:0.02503 1002:0.05006 1006:0.02503 1009:0.02503 1014:0.05006 1016:0.05006 1017:0.02503 1018:0.02503 1019:0.07509 1020:0.02503 1021:0.02503 1022:0.02503 1029:0.02503 1036:0.02503 1037:0.02503 1038:0.02503 1039:0.02503 1040:0.07509 1043:0.05006 1044:0.02503 1050:0.02503 1054:0.02503 1060:0.02503 1061:0.02503 1067:0.02503 1070:0.02503 1071:0.05006 1077:0.02503 1079:0.05006 1080:0.02503 1084:0.02503 1088:0.05006 1089:0.05006 1090:0.02503 1093:0.02503 1095:0.02503 1099:0.02503 1103:0.02503 1104:0.02503 1109:0.02503 1116:0.02503 1125:0.02503 1126:0.02503 1128:0.02503 1130:0.02503 1132:0.02503 1143:0.05006 1147:0.07509 1151:0.05006 1152:0.02503 1153:0.02503 1159:0.02503 1162:0.02503 1163:0.02503 1167:0.02503 1168:0.02503 1169:0.02503 1171:0.10013 1173:0.02503 1174:0.02503 1180:0.02503 1182:0.02503 1184:0.05006 1189:0.02503 1194:0.02503 1195:0.02503 1197:0.05006 1205:0.02503 1207:0.02503 1211:0.07509 1217:0.02503 1223:0.02503 1225:0.02503 1237:0.02503 1247:0.02503 1254:0.05006 1263:0.02503 1264:0.02503 1276:0.02503 1279:0.02503 1280:0.02503 1284:0.07509 1292:0.02503 1294:0.07509 1299:0.02503 1300:0.05006 1302:0.02503 1306:0.02503 1311:0.07509 1312:0.02503 1317:0.02503 1318:0.02503 1326:0.02503 1327:0.07509 1345:0.02503 1349:0.02503 1350:0.02503 1351:0.02503 1354:0.05006 1356:0.02503 1363:0.02503 1369:0.02503 1372:0.02503 1373:0.02503 1375:0.02503 1379:0.02503 1382:0.02503 1387:0.05006 1390:0.02503 1394:0.02503 1400:0.02503 1402:0.05006 1407:0.02503 1419:0.02503 1420:0.02503 1429:0.02503 1430:0.02503 1431:0.02503 1432:0.02503 1441:0.05006 1445:0.02503 1446:0.07509 1447:0.05006 1450:0.02503 1452:0.02503 1460:0.02503 1462:0.02503 1464:0.02503 1466:0.02503 1468:0.02503 1472:0.02503 1478:0.02503 1490:0.02503 1499:0.02503 1502:0.02503 1503:0.02503 1510:0.05006 1511:0.02503 1519:0.02503 1520:0.02503 1529:0.02503 1536:0.02503 1538:0.02503 1567:0.02503 1568:0.02503 1570:0.02503 1576:0.02503 1578:0.02503 1583:0.05006 1599:0.05006 1600:0.02503 1605:0.02503 1608:0.02503 1609:0.02503 1611:0.02503 1617:0.02503 1618:0.02503 1619:0.05006 1624:0.05006 1625:0.02503 1626:0.02503 1627:0.05006 1628:0.02503 1630:0.02503 1650:0.02503 1656:0.02503 1657:0.02503 1661:0.02503 1665:0.07509 1671:0.02503 1683:0.02503 1684:0.02503 1685:0.02503 1687:0.05006 1689:0.05006 1690:0.05006 1691:0.02503 1702:0.02503 1705:0.02503 1706:0.02503 1709:0.02503 1712:0.02503 1717:0.02503 1721:0.02503 1743:0.02503 1751:0.02503 1758:0.02503 1759:0.02503 1763:0.05006 1768:0.02503 1771:0.02503 1775:0.02503 1786:0.02503 1790:0.02503 1792:0.02503 1802:0.02503 1814:0.02503 1816:0.02503 1841:0.02503 1852:0.02503 1859:0.05006 1860:0.02503 1862:0.02503 1863:0.05006 1880:0.02503 1890:0.02503 1892:0.02503 1894:0.02503 1896:0.02503 1898:0.02503 1899:0.02503 1908:0.02503 1909:0.05006 1910:0.02503 1912:0.02503 1914:0.02503 1916:0.02503 1925:0.02503 1926:0.02503 1938:0.02503 1942:0.05006 1943:0.02503 1948:0.05006 1950:0.02503 1951:0.10013 1952:0.02503 1958:0.02503 1959:0.05006 1962:0.02503 1963:0.02503 1964:0.02503 1973:0.05006 1976:0.02503 1979:0.02503 1982:0.02503 1983:0.05006 1996:0.02503 1997:0.02503 2018:0.02503 2019:0.05006 2022:0.05006 2026:0.02503 2042:0.02503 2045:0.02503 2048:0.02503 2049:0.02503 2052:0.02503 2055:0.02503 2064:0.10013 2067:0.02503 2112:0.07509 2116:0.02503 2121:0.05006 2122:0.02503 2125:0.02503 2129:0.02503 2140:0.02503 2149:0.02503 2155:0.02503 2156:0.02503 2161:0.02503 2171:0.02503 2172:0.02503 2175:0.02503 2181:0.05006 2183:0.02503 2184:0.02503 2185:0.05006 2186:0.02503 2187:0.02503 2194:0.02503 2195:0.02503 2201:0.02503 2207:0.02503 2214:0.05006 2215:0.02503 2217:0.02503 2234:0.05006 2239:0.02503 2256:0.02503 2276:0.02503 2277:0.02503 2297:0.02503 2299:0.07509 2303:0.02503 2307:0.02503 2308:0.02503 2309:0.02503 2311:0.02503 2312:0.02503 2316:0.05006 2320:0.02503 2321:0.05006 2322:0.05006 2331:0.02503 2334:0.05006 2336:0.02503 2337:0.02503 2339:0.02503 2340:0.05006 2341:0.07509 2342:0.02503 2344:0.02503 2347:0.05006 2348:0.02503 2354:0.02503 2358:0.02503 2362:0.05006 2368:0.02503 2369:0.02503 2371:0.02503 2372:0.05006 2373:0.05006 2376:0.05006 2380:0.07509 2385:0.02503 2386:0.05006 2387:0.02503 2389:0.02503 2391:0.02503 2392:0.05006 2395:0.02503 2399:0.02503 2400:0.02503 2403:0.02503 2406:0.02503 2409:0.05006 2410:0.10013 2413:0.02503 2415:0.02503 2416:0.02503 2421:0.02503 2423:0.02503 2424:0.02503 2428:0.02503 2432:0.02503 2433:0.02503 2440:0.02503 2441:0.02503 2442:0.02503 2448:0.05006 2450:0.02503 2454:0.02503 2455:0.05006 2465:0.02503 2466:0.02503 2471:0.02503 2476:0.02503 2488:0.02503 2489:0.05006 2491:0.02503 2495:0.02503 2496:0.02503 2502:0.02503 2514:0.02503 2521:0.02503 2522:0.02503 2526:0.02503 2527:0.02503 2530:0.05006 2533:0.02503 2536:0.10013 2539:0.05006 2542:0.02503 2544:0.02503 2547:0.02503 2548:0.02503 2553:0.02503 2560:0.02503 2561:0.05006 2564:0.05006 2576:0.05006 2577:0.02503 2587:0.02503 2595:0.02503 2618:0.02503 2625:0.05006 2626:0.02503 2627:0.05006 2629:0.05006 2632:0.02503 2633:0.02503 2635:0.05006 2639:0.05006 2641:0.02503 2642:0.02503 2643:0.02503 2645:0.02503 2647:0.02503 2651:0.07509 2652:0.02503 2654:0.05006 2657:0.02503 2658:0.02503 2659:0.02503 2660:0.02503 2661:0.02503 2662:0.05006 2665:0.05006 2666:0.02503 2667:0.02503 2671:0.02503 2682:0.02503 2683:0.02503 2689:0.02503 2692:0.02503 2697:0.02503 2705:0.05006 2706:0.05006 2707:0.05006 2712:0.05006 2714:0.02503 2715:0.02503 2719:0.02503 2721:0.02503 2725:0.07509 2728:0.02503 2739:0.02503 2747:0.02503 2752:0.02503 2753:0.02503 2762:0.02503 2763:0.02503 2769:0.02503 2771:0.02503 2787:0.02503 2795:0.02503 2816:0.02503 2817:0.02503 2855:0.02503 2859:0.02503 2868:0.02503 2874:0.02503 2883:0.02503 2884:0.02503 2888:0.02503 2890:0.05006 2898:0.02503 2906:0.02503 2915:0.02503 2918:0.02503 2933:0.02503 2935:0.02503 2936:0.05006 2940:0.02503 2949:0.02503 2953:0.02503 2954:0.02503 2955:0.02503 2961:0.02503 2963:0.02503 2965:0.02503 2966:0.05006 2970:0.02503 2972:0.02503 2974:0.02503 2977:0.02503 2978:0.02503 2981:0.05006 2982:0.02503 2983:0.02503 2985:0.02503 2986:0.05006 3002:0.05006 3025:0.02503 3041:0.02503 3045:0.02503 3046:0.02503 3048:0.02503 3055:0.02503 3063:0.02503 3068:0.02503 3069:0.02503 3072:0.02503 3073:0.02503 3074:0.02503 3075:0.02503 3076:0.02503 3088:0.02503 3111:0.02503 3112:0.02503 3121:0.02503 3124:0.02503 3136:0.02503 3152:0.02503 3159:0.02503 3167:0.05006 3178:0.02503 3201:0.02503 3209:0.02503 3228:0.02503 3243:0.02503 3256:0.02503 3265:0.02503 3267:0.02503 3268:0.02503 3269:0.02503 3273:0.02503 3277:0.05006 3280:0.02503 3296:0.02503 3301:0.02503 3310:0.02503 3312:0.02503 3313:0.02503 3316:0.02503 3327:0.02503 3328:0.02503 3332:0.02503 3333:0.02503 3337:0.02503 3338:0.02503 3339:0.02503 3342:0.02503 3344:0.02503 3351:0.02503 3354:0.05006 3360:0.02503 3367:0.02503 3368:0.02503 3384:0.02503 3396:0.02503 3400:0.05006 3410:0.02503 3415:0.02503 3422:0.02503 3430:0.05006 3434:0.05006 3464:0.02503 3466:0.02503 3468:0.02503 3472:0.02503 3477:0.05006 3479:0.05006 3486:0.02503 3488:0.02503 3495:0.02503 3499:0.02503 3533:0.02503 3535:0.02503 3537:0.05006 3538:0.02503 3542:0.02503 3546:0.02503 3549:0.02503 3550:0.05006 3558:0.02503 3559:0.02503 3560:0.05006 3566:0.05006 3577:0.02503 3589:0.02503 3600:0.02503 3603:0.05006 3605:0.02503 3607:0.02503 3615:0.02503 3618:0.02503 3619:0.05006 3621:0.02503 3626:0.02503 3632:0.02503 3647:0.02503 3650:0.02503 3652:0.02503 3653:0.02503 3656:0.02503 3658:0.02503 3661:0.02503 3662:0.02503 3664:0.02503 3665:0.02503 3666:0.05006 3669:0.07509 3670:0.07509 3675:0.02503 3676:0.02503 3679:0.02503 3680:0.02503 3686:0.02503 3694:0.02503 3695:0.02503 3696:0.02503 3701:0.02503 3704:0.02503 3706:0.07509 3707:0.02503 3708:0.02503 3711:0.02503 3716:0.02503 3717:0.02503 3727:0.02503 3729:0.02503 3730:0.02503 3732:0.02503 3733:0.05006 3735:0.02503 3737:0.05006 3739:0.02503 3740:0.02503 3743:0.02503 3745:0.02503 3749:0.07509 3750:0.02503 3754:0.02503 3759:0.02503 3765:0.02503 3789:0.02503 3794:0.02503 3795:0.02503 3797:0.02503 3806:0.05006 3813:0.02503 3814:0.05006 3815:0.02503 3818:0.05006 3819:0.02503 3823:0.02503 3829:0.02503 3833:0.02503 3834:0.02503 3836:0.02503 3839:0.02503 3844:0.02503 3853:0.02503 3864:0.02503 3886:0.02503 3891:0.02503 3892:0.05006 3900:0.02503 3901:0.02503 3904:0.02503 3905:0.02503 3906:0.02503 3922:0.02503 3925:0.02503 3926:0.02503 3930:0.02503 3931:0.05006 3942:0.02503 3956:0.02503 3962:0.02503 3970:0.02503 3972:0.02503 3974:0.02503 3976:0.02503 3977:0.05006 3980:0.02503 3986:0.02503 3988:0.02503 3989:0.02503 3990:0.05006 3992:0.05006 3999:0.02503 4004:0.02503 4005:0.02503 4006:0.02503 4007:0.02503 4008:0.02503 4010:0.02503 4014:0.02503 4022:0.02503 4026:0.05006 4028:0.02503 4036:0.02503 4038:0.02503 4045:0.02503 4047:0.02503 4048:0.02503 4054:0.02503 4055:0.07509 4058:0.02503 4061:0.02503 4063:0.02503 4065:0.02503 4070:0.05006 4074:0.02503 4075:0.02503 4076:0.02503 4079:0.05006 4082:0.02503 4084:0.07509 4086:0.05006 4093:0.02503 4094:0.02503 
2.073271068291989 1:0.01801 2:0.03601 3:0.03601 4:0.05402 5:0.05402 6:0.01801 7:0.01801 9:0.03601 11:0.07203 12:0.03601 13:0.03601 14:0.05402 18:0.07203 21:0.03601 25:0.01801 30:0.01801 32:0.01801 33:0.01801 36:0.01801 38:0.01801 39:0.01801 41:0.03601 42:0.01801 43:0.05402 46:0.03601 47:0.03601 49:0.03601 52:0.05402 53:0.03601 54:0.01801 55:0.01801 56:0.03601 60:0.01801 61:0.01801 62:0.01801 64:0.03601 65:0.01801 69:0.03601 71:0.01801 72:0.01801 74:0.01801 75:0.01801 76:0.01801 77:0.01801 79:0.01801 80:0.01801 82:0.01801 84:0.01801 97:0.03601 99:0.01801 101:0.01801 111:0.01801 119:0.01801 120:0.01801 126:0.01801 129:0.01801 133:0.01801 134:0.01801 135:0.01801 137:0.01801 140:0.01801 141:0.01801 146:0.01801 150:0.01801 151:0.03601 153:0.01801 156:0.01801 159:0.01801 161:0.01801 163:0.01801 164:0.01801 165:0.01801 169:0.01801 170:0.01801 172:0.01801 175:0.01801 181:0.05402 184:0.01801 185:0.01801 187:0.01801 188:0.01801 192:0.01801 193:0.01801 195:0.01801 196:0.01801 204:0.01801 208:0.07203 210:0.03601 216:0.01801 219:0.01801 221:0.01801 222:0.01801 230:0.01801 234:0.01801 239:0.01801 240:0.01801 244:0.01801 246:0.01801 253:0.03601 254:0.01801 255:0.01801 257:0.01801 258:0.03601 259:0.01801 260:0.03601 273:0.01801 274:0.01801 275:0.03601 276:0.03601 280:0.01801 282:0.01801 284:0.01801 287:0.01801 288:0.01801 291:0.01801 292:0.01801 293:0.03601 300:0.03601 301:0.01801 302:0.07203 303:0.01801 305:0.01801 306:0.05402 314:0.01801 316:0.03601 319:0.01801 320:0.01801 321:0.01801 328:0.01801 332:0.03601 333:0.01801 335:0.03601 338:0.01801 343:0.01801 352:0.01801 356:0.01801 367:0.01801 369:0.01801 380:0.03601 382:0.01801 385:0.03601 387:0.01801 392:0.01801 396:0.03601 399:0.01801 401:0.03601 402:0.01801 405:0.01801 416:0.01801 418:0.01801 430:0.01801 435:0.05402 437:0.01801 438:0.01801 442:0.05402 443:0.03601 444:0.01801 446:0.01801 451:0.01801 455:0.01801 456:0.01801 464:0.01801 469:0.01801 470:0.01801 472:0.01801 476:0.03601 480:0.01801 483:0.01801 486:0.01801 492:0.03601 495:0.09004 496:0.01801 498:0.01801 504:0.01801 507:0.03601 510:0.03601 512:0.03601 513:0.01801 515:0.01801 524:0.01801 525:0.01801 529:0.01801 530:0.01801 533:0.01801 537:0.01801 541:0.01801 544:0.01801 545:0.01801 548:0.01801 560:0.01801 563:0.03601 564:0.01801 565:0.01801 566:0.01801 570:0.01801 576:0.03601 577:0.03601 579:0.01801 582:0.01801 585:0.03601 586:0.10804 590:0.01801 594:0.01801 595:0.03601 599:0.01801 601:0.01801 603:0.01801 609:0.03601 615:0.01801 623:0.01801 631:0.01801 634:0.03601 639:0.01801 641:0.05402 652:0.01801 654:0.01801 656:0.01801 657:0.01801 658:0.03601 659:0.01801 675:0.01801 679:0.01801 681:0.01801 685:0.01801 689:0.03601 698:0.01801 700:0.01801 713:0.01801 714:0.01801 715:0.01801 716:0.01801 722:0.10804 724:0.01801 726:0.01801 729:0.01801 731:0.01801 732:0.01801 734:0.01801 735:0.01801 737:0.01801 738:0.05402 747:0.03601 748:0.01801 750:0.01801 752:0.01801 759:0.01801 766:0.01801 767:0.01801 769:0.01801 772:0.05402 777:0.01801 778:0.01801 779:0.01801 781:0.01801 784:0.01801 785:0.01801 786:0.03601 790:0.01801 794:0.01801 802:0.01801 804:0.01801 813:0.01801 824:0.01801 825:0.01801 830:0.01801 832:0.05402 833:0.01801 834:0.03601 837:0.03601 839:0.01801 845:0.01801 847:0.01801 853:0.01801 859:0.01801 861:0.01801 864:0.01801 865:0.01801 866:0.03601 874:0.01801 876:0.01801 877:0.01801 882:0.01801 883:0.01801 884:0.01801 887:0.01801 888:0.01801 890:0.01801 892:0.01801 896:0.01801 897:0.01801 902:0.03601 903:0.01801 904:0.01801 909:0.01801 911:0.01801 913:0.03601 914:0.01801 915:0.01801 917:0.03601 927:0.01801 933:0.01801 942:0.03601 944:0.01801 953:0.05402 954:0.01801 956:0.03601 957:0.01801 959:0.01801 963:0.01801 974:0.01801 976:0.01801 982:0.01801 985:0.01801 990:0.01801 997:0.01801 1001:0.01801 1009:0.01801 1010:0.03601 1012:0.05402 1013:0.01801 1015:0.01801 1018:0.01801 1020:0.03601 1022:0.01801 1023:0.01801 1024:0.05402 1025:0.03601 1026:0.01801 1027:0.01801 1028:0.01801 1029:0.01801 1030:0.01801 1032:0.01801 1034:0.01801 1037:0.01801 1038:0.01801 1040:0.01801 1041:0.01801 1043:0.05402 1044:0.01801 1049:0.01801 1050:0.01801 1059:0.01801 1061:0.01801 1063:0.01801 1064:0.01801 1070:0.01801 1071:0.01801 1082:0.01801 1084:0.01801 1089:0.05402 1093:0.01801 1094:0.01801 1095:0.01801 1097:0.03601 1098:0.01801 1099:0.01801 1100:0.09004 1101:0.05402 1103:0.03601 1104:0.01801 1109:0.01801 1117:0.01801 1120:0.01801 1125:0.01801 1128:0.01801 1129:0.01801 1132:0.01801 1133:0.05402 1134:0.03601 1136:0.01801 1141:0.01801 1143:0.01801 1145:0.01801 1147:0.03601 1148:0.01801 1151:0.01801 1152:0.03601 1153:0.01801 1155:0.01801 1160:0.01801 1161:0.01801 1165:0.01801 1167:0.01801 1171:0.14406 1172:0.01801 1173:0.03601 1177:0.01801 1178:0.01801 1182:0.01801 1184:0.01801 1189:0.01801 1197:0.03601 1203:0.01801 1205:0.07203 1207:0.01801 1209:0.03601 1211:0.01801 1212:0.01801 1217:0.03601 1221:0.03601 1222:0.01801 1223:0.01801 1230:0.01801 1233:0.01801 1236:0.01801 1244:0.01801 1247:0.01801 1250:0.03601 1252:0.01801 1253:0.07203 1260:0.03601 1263:0.03601 1264:0.01801 1271:0.01801 1274:0.01801 1275:0.01801 1278:0.01801 1281:0.01801 1292:0.03601 1295:0.01801 1297:0.01801 1298:0.01801 1299:0.01801 1307:0.03601 1308:0.03601 1310:0.01801 1311:0.01801 1312:0.01801 1317:0.05402 1319:0.01801 1322:0.01801 1327:0.03601 1330:0.01801 1337:0.03601 1342:0.01801 1351:0.01801 1352:0.03601 1355:0.01801 1369:0.01801 1370:0.01801 1373:0.01801 1378:0.01801 1383:0.01801 1386:0.01801 1394:0.01801 1408:0.05402 1416:0.01801 1418:0.01801 1422:0.01801 1424:0.01801 1434:0.01801 1443:0.01801 1444:0.01801 1448:0.01801 1449:0.01801 1467:0.03601 1473:0.01801 1478:0.01801 1479:0.01801 1480:0.01801 1491:0.01801 1494:0.01801 1495:0.01801 1515:0.01801 1519:0.01801 1520:0.01801 1524:0.01801 1527:0.01801 1534:0.03601 1536:0.07203 1537:0.03601 1540:0.01801 1543:0.03601 1544:0.01801 1545:0.01801 1547:0.01801 1551:0.01801 1561:0.01801 1562:0.01801 1565:0.01801 1566:0.01801 1567:0.01801 1572:0.01801 1576:0.01801 1583:0.01801 1584:0.01801 1585:0.03601 1591:0.03601 1594:0.01801 1600:0.01801 1601:0.01801 1602:0.03601 1605:0.01801 1617:0.01801 1624:0.01801 1625:0.01801 1640:0.01801 1643:0.01801 1658:0.01801 1659:0.01801 1663:0.01801 1664:0.01801 1671:0.01801 1675:0.01801 1678:0.01801 1689:0.01801 1696:0.03601 1697:0.01801 1704:0.01801 1705:0.01801 1708:0.01801 1715:0.01801 1717:0.01801 1729:0.01801 1738:0.01801 1739:0.01801 1740:0.01801 1743:0.01801 1748:0.01801 1750:0.01801 1751:0.01801 1753:0.01801 1754:0.01801 1760:0.01801 1764:0.01801 1766:0.05402 1770:0.05402 1771:0.01801 1775:0.01801 1776:0.01801 1783:0.03601 1786:0.03601 1792:0.01801 1795:0.01801 1801:0.01801 1814:0.01801 1815:0.01801 1820:0.05402 1821:0.03601 1822:0.01801 1823:0.01801 1828:0.01801 1829:0.01801 1848:0.03601 1853:0.01801 1859:0.01801 1868:0.01801 1874:0.01801 1878:0.01801 1880:0.01801 1883:0.01801 1888:0.01801 1894:0.01801 1898:0.01801 1902:0.01801 1904:0.01801 1916:0.01801 1918:0.01801 1919:0.01801 1931:0.01801 1937:0.03601 1940:0.01801 1941:0.03601 1944:0.01801 1951:0.14406 1953:0.03601 1960:0.03601 1961:0.01801 1966:0.03601 1977:0.09004 1978:0.01801 1979:0.01801 1980:0.03601 1983:0.05402 1988:0.01801 1990:0.03601 1996:0.01801 1998:0.03601 2000:0.01801 2009:0.01801 2012:0.01801 2015:0.01801 2019:0.01801 2021:0.01801 2022:0.01801 2024:0.01801 2026:0.03601 2035:0.01801 2037:0.03601 2038:0.01801 2040:0.01801 2044:0.01801 2046:0.09004 2047:0.01801 2048:0.03601 2049:0.05402 2050:0.01801 2051:0.09004 2052:0.01801 2056:0.01801 2059:0.03601 2060:0.03601 2063:0.01801 2064:0.01801 2073:0.01801 2076:0.01801 2078:0.01801 2083:0.01801 2092:0.01801 2096:0.01801 2100:0.01801 2107:0.01801 2112:0.01801 2113:0.01801 2120:0.01801 2129:0.01801 2131:0.03601 2132:0.03601 2140:0.01801 2145:0.01801 2146:0.01801 2147:0.01801 2150:0.01801 2159:0.03601 2161:0.01801 2162:0.01801 2166:0.03601 2170:0.01801 2172:0.07203 2173:0.01801 2175:0.01801 2176:0.03601 2180:0.01801 2184:0.01801 2189:0.01801 2192:0.01801 2207:0.01801 2209:0.01801 2213:0.03601 2227:0.01801 2230:0.01801 2231:0.01801 2233:0.01801 2235:0.01801 2238:0.01801 2240:0.01801 2243:0.03601 2244:0.01801 2249:0.03601 2255:0.01801 2257:0.03601 2258:0.01801 2262:0.01801 2263:0.01801 2264:0.01801 2265:0.01801 2267:0.01801 2269:0.03601 2274:0.03601 2278:0.01801 2280:0.01801 2301:0.03601 2303:0.01801 2304:0.05402 2305:0.03601 2306:0.01801 2308:0.01801 2309:0.05402 2311:0.03601 2313:0.01801 2314:0.03601 2319:0.01801 2321:0.01801 2323:0.01801 2324:0.01801 2328:0.01801 2332:0.05402 2337:0.03601 2338:0.01801 2340:0.01801 2341:0.07203 2342:0.03601 2343:0.01801 2344:0.03601 2350:0.01801 2359:0.01801 2360:0.01801 2361:0.01801 2362:0.03601 2364:0.01801 2367:0.01801 2371:0.03601 2373:0.03601 2375:0.05402 2378:0.03601 2384:0.01801 2400:0.01801 2403:0.01801 2404:0.01801 2411:0.01801 2422:0.03601 2427:0.01801 2432:0.01801 2434:0.05402 2439:0.01801 2441:0.01801 2459:0.01801 2463:0.01801 2475:0.01801 2484:0.01801 2487:0.01801 2489:0.01801 2492:0.01801 2495:0.01801 2502:0.01801 2503:0.01801 2504:0.01801 2505:0.01801 2523:0.01801 2533:0.05402 2536:0.10804 2537:0.03601 2538:0.03601 2543:0.01801 2544:0.01801 2546:0.01801 2548:0.01801 2553:0.01801 2554:0.03601 2557:0.01801 2559:0.01801 2561:0.10804 2563:0.01801 2576:0.01801 2585:0.01801 2588:0.01801 2590:0.01801 2602:0.03601 2605:0.01801 2606:0.03601 2613:0.03601 2616:0.01801 2624:0.01801 2626:0.01801 2627:0.01801 2631:0.05402 2633:0.03601 2636:0.01801 2638:0.01801 2640:0.01801 2657:0.01801 2659:0.01801 2670:0.01801 2674:0.01801 2682:0.03601 2685:0.03601 2688:0.01801 2689:0.01801 2692:0.01801 2695:0.01801 2696:0.01801 2699:0.01801 2700:0.01801 2702:0.01801 2713:0.01801 2720:0.01801 2722:0.01801 2723:0.01801 2733:0.01801 2739:0.01801 2740:0.01801 2745:0.01801 2755:0.03601 2762:0.01801 2763:0.01801 2767:0.01801 2770:0.05402 2772:0.03601 2784:0.01801 2786:0.01801 2792:0.01801 2799:0.01801 2815:0.01801 2816:0.01801 2820:0.03601 2826:0.01801 2828:0.01801 2852:0.01801 2853:0.03601 2854:0.01801 2857:0.03601 2859:0.01801 2861:0.01801 2862:0.01801 2865:0.01801 2875:0.01801 2876:0.05402 2885:0.07203 2886:0.01801 2888:0.05402 2894:0.03601 2895:0.03601 2901:0.01801 2902:0.01801 2908:0.01801 2916:0.03601 2917:0.01801 2923:0.01801 2926:0.01801 2932:0.01801 2933:0.01801 2938:0.01801 2941:0.05402 2945:0.07203 2950:0.05402 2952:0.10804 2958:0.01801 2960:0.03601 2961:0.01801 2964:0.01801 2965:0.01801 2968:0.03601 2972:0.01801 2976:0.01801 2979:0.01801 2981:0.07203 2984:0.01801 2985:0.03601 2988:0.01801 2992:0.01801 2993:0.01801 2996:0.03601 3000:0.01801 3001:0.01801 3003:0.01801 3004:0.01801 3008:0.07203 3009:0.01801 3034:0.05402 3044:0.03601 3045:0.03601 3046:0.01801 3047:0.03601 3061:0.01801 3066:0.01801 3068:0.03601 3069:0.01801 3070:0.01801 3071:0.01801 3072:0.03601 3073:0.03601 3074:0.01801 3082:0.01801 3085:0.03601 3086:0.03601 3088:0.03601 3092:0.01801 3106:0.05402 3110:0.03601 3113:0.01801 3118:0.01801 3121:0.01801 3123:0.01801 3136:0.01801 3137:0.01801 3141:0.05402 3158:0.01801 3160:0.01801 3161:0.01801 3167:0.03601 3172:0.01801 3173:0.01801 3183:0.05402 3186:0.01801 3188:0.01801 3190:0.01801 3196:0.01801 3205:0.01801 3214:0.03601 3216:0.01801 3217:0.05402 3221:0.01801 3233:0.01801 3236:0.01801 3243:0.01801 3247:0.01801 3251:0.03601 3255:0.01801 3256:0.01801 3265:0.01801 3269:0.01801 3284:0.01801 3289:0.03601 3294:0.01801 3295:0.01801 3296:0.01801 3297:0.01801 3300:0.01801 3308:0.01801 3311:0.05402 3312:0.01801 3313:0.01801 3316:0.01801 3320:0.01801 3325:0.03601 3327:0.01801 3328:0.03601 3329:0.01801 3333:0.03601 3338:0.01801 3346:0.01801 3347:0.09004 3348:0.05402 3350:0.01801 3354:0.01801 3358:0.01801 3359:0.03601 3360:0.01801 3375:0.01801 3377:0.01801 3380:0.01801 3381:0.03601 3386:0.01801 3387:0.03601 3396:0.01801 3397:0.01801 3402:0.03601 3410:0.03601 3411:0.01801 3415:0.01801 3416:0.01801 3419:0.01801 3424:0.01801 3433:0.03601 3439:0.01801 3442:0.03601 3445:0.01801 3453:0.01801 3456:0.03601 3457:0.01801 3459:0.01801 3460:0.01801 3463:0.01801 3464:0.01801 3469:0.03601 3470:0.01801 3473:0.01801 3478:0.01801 3479:0.01801 3487:0.01801 3488:0.01801 3495:0.01801 3496:0.01801 3499:0.01801 3501:0.01801 3505:0.01801 3510:0.01801 3511:0.01801 3512:0.01801 3518:0.01801 3519:0.01801 3520:0.01801 3528:0.01801 3530:0.01801 3534:0.03601 3537:0.01801 3546:0.01801 3551:0.01801 3552:0.01801 3558:0.03601 3560:0.03601 3567:0.03601 3569:0.01801 3571:0.01801 3572:0.01801 3575:0.01801 3578:0.01801 3584:0.03601 3585:0.01801 3586:0.01801 3587:0.03601 3588:0.01801 3605:0.07203 3607:0.01801 3612:0.01801 3615:0.07203 3616:0.05402 3618:0.01801 3625:0.01801 3631:0.01801 3633:0.01801 3638:0.03601 3640:0.01801 3641:0.03601 3648:0.03601 3649:0.01801 3650:0.03601 3651:0.01801 3652:0.01801 3653:0.03601 3658:0.05402 3663:0.07203 3665:0.01801 3666:0.07203 3668:0.01801 3678:0.03601 3679:0.01801 3680:0.01801 3682:0.01801 3693:0.01801 3695:0.01801 3696:0.01801 3698:0.03601 3699:0.01801 3706:0.07203 3707:0.05402 3708:0.03601 3711:0.01801 3713:0.05402 3724:0.01801 3729:0.01801 3730:0.01801 3731:0.03601 3732:0.03601 3740:0.01801 3741:0.01801 3743:0.03601 3745:0.01801 3746:0.01801 3748:0.01801 3759:0.01801 3765:0.07203 3768:0.01801 3776:0.03601 3777:0.01801 3789:0.01801 3791:0.03601 3805:0.01801 3808:0.01801 3809:0.05402 3810:0.07203 3812:0.03601 3813:0.03601 3815:0.01801 3817:0.01801 3818:0.03601 3821:0.05402 3823:0.01801 3824:0.03601 3825:0.01801 3833:0.03601 3834:0.05402 3839:0.01801 3840:0.05402 3841:0.03601 3844:0.01801 3845:0.01801 3849:0.01801 3853:0.01801 3858:0.01801 3864:0.03601 3865:0.01801 3884:0.01801 3886:0.01801 3890:0.01801 3893:0.01801 3895:0.03601 3897:0.01801 3900:0.01801 3901:0.01801 3904:0.03601 3909:0.05402 3912:0.01801 3917:0.01801 3921:0.01801 3923:0.03601 3925:0.01801 3927:0.01801 3933:0.01801 3934:0.01801 3936:0.01801 3937:0.03601 3940:0.01801 3942:0.01801 3944:0.03601 3950:0.01801 3952:0.03601 3960:0.01801 3962:0.03601 3968:0.01801 3977:0.01801 3982:0.03601 3983:0.01801 3986:0.01801 3987:0.03601 3988:0.03601 3989:0.01801 3992:0.01801 3993:0.01801 3996:0.03601 3997:0.05402 4001:0.01801 4005:0.01801 4007:0.01801 4014:0.01801 4020:0.01801 4024:0.01801 4026:0.01801 4027:0.01801 4028:0.01801 4031:0.01801 4033:0.03601 4034:0.01801 4037:0.01801 4039:0.01801 4043:0.01801 4045:0.01801 4047:0.03601 4048:0.01801 4050:0.07203 4052:0.01801 4053:0.05402 4054:0.01801 4056:0.05402 4057:0.01801 4060:0.03601 4063:0.01801 4064:0.01801 4068:0.01801 4069:0.01801 4071:0.01801 4072:0.03601 4076:0.01801 4077:0.01801 4078:0.01801 4079:0.05402 4080:0.01801 4081:0.03601 4084:0.01801 4085:0.01801 4086:0.10804 4087:0.03601 4088:0.01801 4089:0.01801 4090:0.03601 4091:0.01801 4092:0.01801 4093:0.03601 4094:0.05402 4095:0.03601 4096:0.01801 
0.7953186816472946 1:0.04603 2:0.04603 5:0.04603 6:0.02301 7:0.02301 15:0.02301 17:0.04603 18:0.02301 19:0.02301 21:0.04603 22:0.02301 27:0.02301 38:0.02301 40:0.02301 47:0.02301 48:0.02301 54:0.02301 58:0.02301 59:0.02301 60:0.02301 65:0.02301 67:0.02301 69:0.06904 76:0.02301 81:0.02301 83:0.02301 88:0.04603 95:0.02301 100:0.02301 106:0.02301 108:0.02301 111:0.04603 119:0.02301 121:0.04603 125:0.02301 127:0.02301 128:0.02301 129:0.02301 131:0.02301 137:0.02301 140:0.02301 145:0.02301 149:0.02301 150:0.02301 159:0.02301 161:0.02301 162:0.02301 167:0.02301 187:0.04603 189:0.04603 191:0.02301 193:0.02301 194:0.02301 200:0.02301 208:0.04603 211:0.02301 213:0.06904 215:0.02301 220:0.02301 231:0.02301 233:0.02301 235:0.02301 239:0.04603 243:0.02301 252:0.02301 258:0.02301 260:0.02301 265:0.02301 269:0.02301 270:0.02301 272:0.02301 273:0.02301 274:0.02301 276:0.04603 277:0.02301 279:0.02301 282:0.02301 284:0.04603 290:0.02301 295:0.04603 300:0.02301 303:0.02301 309:0.02301 315:0.02301 316:0.04603 318:0.02301 320:0.02301 321:0.02301 324:0.02301 325:0.02301 331:0.02301 335:0.02301 345:0.02301 349:0.02301 350:0.04603 356:0.02301 368:0.02301 369:0.02301 377:0.09206 378:0.02301 379:0.02301 380:0.02301 393:0.02301 398:0.02301 399:0.02301 400:0.02301 401:0.02301 403:0.02301 405:0.02301 413:0.02301 421:0.02301 422:0.02301 425:0.02301 430:0.02301 444:0.04603 446:0.04603 451:0.02301 475:0.04603 478:0.02301 480:0.02301 481:0.02301 482:0.02301 486:0.02301 490:0.02301 496:0.02301 499:0.02301 505:0.02301 509:0.02301 511:0.02301 513:0.02301 519:0.02301 520:0.02301 521:0.02301 536:0.04603 538:0.02301 545:0.02301 553:0.04603 554:0.04603 557:0.02301 558:0.02301 578:0.04603 585:0.02301 591:0.02301 593:0.02301 594:0.02301 595:0.02301 598:0.02301 603:0.02301 606:0.02301 616:0.04603 619:0.02301 621:0.02301 635:0.02301 640:0.02301 641:0.02301 642:0.02301 646:0.02301 647:0.02301 650:0.02301 653:0.02301 654:0.06904 657:0.02301 658:0.02301 659:0.02301 661:0.04603 663:0.02301 665:0.04603 666:0.02301 669:0.02301 673:0.02301 678:0.02301 681:0.02301 686:0.02301 688:0.04603 693:0.04603 694:0.02301 695:0.04603 696:0.04603 702:0.02301 720:0.02301 723:0.02301 730:0.02301 741:0.02301 745:0.04603 746:0.06904 755:0.02301 756:0.02301 757:0.02301 758:0.02301 760:0.02301 762:0.02301 771:0.02301 776:0.02301 793:0.02301 798:0.02301 806:0.02301 809:0.04603 829:0.02301 831:0.02301 841:0.02301 846:0.02301 849:0.02301 850:0.04603 855:0.02301 857:0.04603 861:0.04603 862:0.02301 863:0.02301 866:0.02301 873:0.02301 875:0.02301 876:0.02301 877:0.02301 879:0.02301 880:0.02301 907:0.04603 911:0.02301 921:0.02301 927:0.02301 929:0.02301 931:0.02301 934:0.02301 939:0.02301 943:0.02301 953:0.02301 955:0.06904 956:0.04603 963:0.02301 965:0.02301 967:0.02301 970:0.04603 971:0.02301 981:0.02301 982:0.02301 993:0.02301 999:0.02301 1004:0.02301 1005:0.02301 1006:0.02301 1007:0.02301 1011:0.02301 1014:0.02301 1020:0.02301 1021:0.02301 1026:0.04603 1029:0.02301 1030:0.04603 1036:0.02301 1039:0.02301 1042:0.02301 1046:0.02301 1056:0.02301 1059:0.02301 1066:0.02301 1072:0.02301 1073:0.02301 1074:0.02301 1076:0.02301 1077:0.02301 1078:0.02301 1085:0.02301 1089:0.02301 1092:0.02301 1093:0.02301 1094:0.04603 1098:0.02301 1102:0.02301 1103:0.06904 1104:0.04603 1106:0.02301 1108:0.02301 1111:0.02301 1113:0.02301 1124:0.02301 1126:0.02301 1136:0.04603 1137:0.02301 1143:0.02301 1146:0.02301 1148:0.02301 1152:0.02301 1158:0.04603 1159:0.02301 1163:0.02301 1172:0.02301 1178:0.04603 1179:0.02301 1184:0.02301 1188:0.02301 1189:0.02301 1190:0.06904 1191:0.02301 1193:0.02301 1194:0.02301 1198:0.13809 1200:0.02301 1207:0.02301 1211:0.04603 1214:0.04603 1236:0.02301 1238:0.02301 1241:0.02301 1243:0.02301 1244:0.02301 1251:0.02301 1256:0.02301 1260:0.02301 1263:0.06904 1270:0.04603 1277:0.02301 1279:0.02301 1280:0.02301 1281:0.04603 1282:0.02301 1283:0.02301 1294:0.02301 1299:0.02301 1300:0.06904 1305:0.02301 1310:0.02301 1311:0.04603 1312:0.04603 1319:0.02301 1320:0.02301 1322:0.04603 1323:0.04603 1324:0.02301 1326:0.02301 1335:0.04603 1340:0.02301 1342:0.02301 1344:0.02301 1351:0.02301 1354:0.02301 1360:0.02301 1364:0.02301 1373:0.02301 1380:0.02301 1382:0.02301 1384:0.02301 1385:0.02301 1390:0.02301 1393:0.04603 1397:0.04603 1403:0.04603 1415:0.02301 1420:0.04603 1422:0.04603 1423:0.02301 1429:0.02301 1439:0.02301 1442:0.04603 1448:0.02301 1449:0.02301 1463:0.04603 1470:0.02301 1472:0.02301 1473:0.02301 1475:0.02301 1476:0.02301 1485:0.02301 1486:0.02301 1491:0.04603 1492:0.04603 1495:0.02301 1497:0.02301 1501:0.04603 1502:0.02301 1503:0.02301 1506:0.06904 1507:0.04603 1509:0.02301 1510:0.02301 1511:0.04603 1513:0.06904 1514:0.02301 1516:0.02301 1518:0.02301 1521:0.02301 1525:0.02301 1526:0.02301 1530:0.02301 1545:0.02301 1560:0.04603 1563:0.04603 1567:0.02301 1569:0.02301 1571:0.02301 1573:0.04603 1574:0.02301 1578:0.02301 1583:0.02301 1584:0.02301 1590:0.06904 1593:0.02301 1595:0.04603 1597:0.02301 1601:0.02301 1604:0.02301 1605:0.02301 1606:0.02301 1609:0.02301 1611:0.04603 1616:0.02301 1618:0.02301 1619:0.02301 1630:0.02301 1631:0.02301 1632:0.02301 1649:0.02301 1659:0.02301 1660:0.04603 1666:0.02301 1669:0.02301 1670:0.02301 1675:0.02301 1677:0.02301 1680:0.02301 1681:0.02301 1688:0.02301 1693:0.02301 1697:0.04603 1698:0.02301 1700:0.02301 1711:0.02301 1717:0.02301 1724:0.02301 1732:0.02301 1733:0.02301 1741:0.02301 1752:0.02301 1754:0.02301 1755:0.02301 1759:0.02301 1771:0.02301 1773:0.04603 1774:0.02301 1782:0.06904 1784:0.02301 1792:0.02301 1796:0.02301 1800:0.02301 1802:0.02301 1804:0.02301 1805:0.04603 1808:0.02301 1810:0.02301 1842:0.02301 1846:0.04603 1867:0.04603 1870:0.02301 1871:0.02301 1876:0.02301 1881:0.02301 1886:0.02301 1890:0.02301 1893:0.06904 1894:0.02301 1897:0.04603 1901:0.02301 1905:0.02301 1906:0.02301 1910:0.02301 1911:0.02301 1914:0.02301 1918:0.02301 1919:0.02301 1923:0.02301 1926:0.09206 1928:0.02301 1931:0.04603 1936:0.02301 1938:0.02301 1941:0.02301 1944:0.02301 1945:0.02301 1946:0.02301 1948:0.02301 1950:0.02301 1953:0.04603 1954:0.02301 1958:0.02301 1959:0.02301 1960:0.02301 1962:0.02301 1968:0.02301 1974:0.06904 1979:0.02301 1984:0.02301 1986:0.02301 1988:0.02301 1995:0.02301 1996:0.02301 2003:0.02301 2005:0.04603 2010:0.02301 2016:0.02301 2018:0.02301 2022:0.02301 2032:0.02301 2033:0.02301 2036:0.02301 2038:0.02301 2043:0.02301 2049:0.04603 2053:0.02301 2058:0.02301 2062:0.02301 2072:0.02301 2073:0.02301 2075:0.02301 2076:0.04603 2078:0.02301 2079:0.04603 2081:0.04603 2083:0.02301 2089:0.04603 2107:0.02301 2108:0.02301 2116:0.02301 2119:0.02301 2121:0.02301 2122:0.02301 2123:0.02301 2129:0.02301 2136:0.02301 2140:0.02301 2141:0.02301 2143:0.13809 2149:0.04603 2154:0.02301 2155:0.02301 2168:0.02301 2171:0.02301 2178:0.04603 2187:0.02301 2188:0.02301 2193:0.02301 2195:0.02301 2197:0.04603 2209:0.02301 2210:0.02301 2211:0.02301 2212:0.02301 2213:0.04603 2215:0.02301 2216:0.02301 2220:0.04603 2228:0.02301 2229:0.02301 2235:0.02301 2238:0.02301 2250:0.02301 2251:0.02301 2264:0.06904 2267:0.04603 2268:0.02301 2275:0.02301 2276:0.02301 2281:0.02301 2282:0.02301 2287:0.02301 2289:0.02301 2290:0.04603 2299:0.02301 2300:0.02301 2302:0.02301 2306:0.02301 2309:0.02301 2310:0.02301 2312:0.02301 2315:0.02301 2317:0.02301 2321:0.02301 2322:0.04603 2325:0.02301 2326:0.02301 2333:0.02301 2338:0.02301 2339:0.02301 2346:0.06904 2348:0.02301 2351:0.02301 2361:0.02301 2368:0.02301 2369:0.04603 2373:0.02301 2376:0.06904 2378:0.02301 2379:0.02301 2380:0.02301 2382:0.02301 2387:0.02301 2389:0.02301 2399:0.02301 2409:0.02301 2414:0.02301 2416:0.02301 2421:0.02301 2423:0.02301 2424:0.04603 2426:0.06904 2427:0.04603 2431:0.02301 2435:0.02301 2439:0.02301 2440:0.02301 2441:0.02301 2442:0.06904 2451:0.02301 2456:0.02301 2463:0.04603 2473:0.04603 2481:0.02301 2486:0.02301 2488:0.02301 2492:0.02301 2500:0.04603 2510:0.02301 2520:0.02301 2522:0.06904 2530:0.02301 2538:0.02301 2539:0.02301 2542:0.02301 2543:0.02301 2545:0.02301 2547:0.02301 2557:0.02301 2558:0.02301 2561:0.02301 2562:0.02301 2563:0.02301 2564:0.02301 2567:0.06904 2568:0.02301 2569:0.02301 2571:0.02301 2575:0.04603 2577:0.02301 2579:0.06904 2581:0.02301 2584:0.02301 2586:0.02301 2595:0.02301 2598:0.02301 2601:0.02301 2611:0.04603 2615:0.06904 2617:0.02301 2621:0.04603 2623:0.02301 2624:0.02301 2626:0.02301 2627:0.02301 2629:0.02301 2635:0.02301 2636:0.02301 2641:0.02301 2642:0.02301 2643:0.02301 2644:0.02301 2645:0.02301 2648:0.02301 2652:0.02301 2655:0.06904 2657:0.02301 2659:0.02301 2661:0.02301 2667:0.02301 2671:0.02301 2673:0.02301 2676:0.02301 2678:0.02301 2679:0.02301 2685:0.02301 2688:0.02301 2689:0.06904 2692:0.02301 2693:0.04603 2703:0.02301 2709:0.04603 2720:0.02301 2722:0.02301 2728:0.02301 2741:0.02301 2746:0.02301 2751:0.02301 2752:0.02301 2771:0.09206 2775:0.02301 2776:0.02301 2777:0.04603 2783:0.04603 2789:0.02301 2791:0.02301 2799:0.04603 2805:0.02301 2810:0.02301 2815:0.04603 2816:0.02301 2830:0.04603 2834:0.02301 2841:0.02301 2851:0.02301 2867:0.02301 2879:0.02301 2883:0.02301 2890:0.02301 2891:0.06904 2892:0.02301 2899:0.02301 2902:0.02301 2903:0.02301 2907:0.04603 2910:0.02301 2912:0.02301 2915:0.02301 2916:0.02301 2917:0.04603 2921:0.02301 2937:0.02301 2938:0.02301 2940:0.02301 2946:0.02301 2962:0.04603 2963:0.02301 2968:0.02301 2969:0.04603 2977:0.04603 2980:0.04603 2981:0.02301 2982:0.02301 2983:0.02301 2984:0.02301 2985:0.02301 2991:0.02301 2994:0.02301 2995:0.02301 2997:0.02301 3002:0.04603 3004:0.02301 3005:0.02301 3007:0.02301 3008:0.02301 3011:0.02301 3017:0.02301 3024:0.02301 3025:0.02301 3026:0.02301 3029:0.04603 3031:0.02301 3032:0.02301 3038:0.04603 3046:0.02301 3048:0.04603 3062:0.02301 3066:0.02301 3067:0.02301 3068:0.02301 3071:0.04603 3072:0.04603 3076:0.02301 3082:0.02301 3084:0.02301 3087:0.02301 3090:0.02301 3104:0.04603 3109:0.02301 3110:0.02301 3120:0.02301 3121:0.02301 3124:0.02301 3126:0.04603 3127:0.02301 3135:0.02301 3140:0.02301 3143:0.04603 3171:0.02301 3172:0.02301 3176:0.02301 3192:0.02301 3211:0.04603 3223:0.02301 3224:0.02301 3228:0.02301 3236:0.04603 3243:0.02301 3244:0.02301 3246:0.02301 3258:0.02301 3271:0.02301 3275:0.02301 3287:0.02301 3288:0.02301 3315:0.04603 3321:0.02301 3322:0.02301 3324:0.02301 3340:0.02301 3341:0.02301 3348:0.02301 3362:0.02301 3365:0.02301 3369:0.02301 3372:0.09206 3376:0.04603 3382:0.02301 3383:0.02301 3386:0.02301 3393:0.02301 3397:0.04603 3400:0.04603 3403:0.06904 3406:0.02301 3408:0.02301 3410:0.02301 3416:0.02301 3418:0.04603 3419:0.02301 3420:0.02301 3423:0.02301 3426:0.02301 3427:0.04603 3428:0.02301 3434:0.02301 3435:0.02301 3444:0.04603 3445:0.02301 3446:0.02301 3448:0.04603 3449:0.02301 3454:0.04603 3462:0.04603 3467:0.02301 3471:0.02301 3473:0.02301 3474:0.04603 3475:0.02301 3476:0.02301 3480:0.04603 3489:0.02301 3491:0.02301 3492:0.04603 3500:0.02301 3503:0.02301 3506:0.02301 3508:0.02301 3515:0.02301 3518:0.02301 3522:0.02301 3525:0.02301 3541:0.02301 3546:0.02301 3548:0.02301 3552:0.02301 3556:0.02301 3559:0.02301 3560:0.02301 3566:0.02301 3574:0.02301 3575:0.02301 3576:0.02301 3580:0.02301 3590:0.02301 3592:0.02301 3595:0.02301 3602:0.02301 3606:0.02301 3607:0.02301 3608:0.04603 3614:0.02301 3625:0.02301 3626:0.02301 3627:0.04603 3644:0.02301 3647:0.02301 3653:0.02301 3654:0.02301 3656:0.02301 3659:0.02301 3666:0.02301 3676:0.02301 3678:0.04603 3679:0.02301 3682:0.04603 3683:0.06904 3686:0.02301 3694:0.04603 3703:0.04603 3705:0.02301 3709:0.02301 3714:0.04603 3715:0.04603 3716:0.02301 3717:0.02301 3721:0.02301 3728:0.06904 3731:0.02301 3734:0.04603 3736:0.04603 3739:0.02301 3740:0.02301 3742:0.04603 3744:0.02301 3745:0.02301 3750:0.02301 3754:0.02301 3766:0.02301 3770:0.02301 3772:0.02301 3776:0.04603 3780:0.02301 3783:0.02301 3785:0.02301 3793:0.02301 3797:0.02301 3798:0.04603 3799:0.02301 3809:0.02301 3813:0.02301 3814:0.02301 3815:0.02301 3817:0.04603 3818:0.02301 3820:0.02301 3823:0.02301 3824:0.06904 3825:0.02301 3834:0.02301 3838:0.02301 3839:0.02301 3840:0.04603 3841:0.02301 3843:0.02301 3845:0.02301 3850:0.02301 3851:0.02301 3854:0.02301 3857:0.02301 3866:0.02301 3875:0.02301 3878:0.02301 3879:0.02301 3883:0.04603 3884:0.02301 3887:0.02301 3901:0.02301 3903:0.02301 3908:0.02301 3909:0.02301 3916:0.02301 3922:0.04603 3923:0.04603 3924:0.02301 3925:0.02301 3927:0.04603 3928:0.02301 3929:0.02301 3934:0.02301 3936:0.02301 3942:0.02301 3959:0.02301 3960:0.02301 3966:0.04603 3970:0.02301 3973:0.02301 3991:0.02301 3992:0.02301 3993:0.02301 3996:0.02301 3998:0.02301 4000:0.02301 4004:0.02301 4006:0.02301 4008:0.02301 4014:0.02301 4016:0.02301 4017:0.02301 4022:0.02301 4026:0.02301 4028:0.02301 4032:0.04603 4033:0.04603 4043:0.02301 4048:0.02301 4054:0.06904 4056:0.02301 4064:0.02301 4071:0.02301 4073:0.02301 4074:0.04603 4076:0.02301 4079:0.02301 4080:0.02301 4081:0.02301 4086:0.02301 4088:0.02301 4091:0.04603 4094:0.04603 4096:0.04603 
